64 384
0 0.031449 0.049714 -0.011732 -0.002593 0.056812 0.045786 0.026394 -0.187437 -0.023715 0.038934 -0.104780 0.135817 0.032032 -0.008207 -0.011597 0.022683 0.016243 0.002238 -0.026341 0.043459 -0.027731 -0.005848 -0.023468 0.022246 -0.052660 -0.029292 0.011347 0.046571 0.040776 0.053989 0.087192 0.018602 -0.012840 -0.022978 -0.005279 0.034810 -0.006249 -0.033355 0.030158 -0.102709 -0.030879 0.007332 0.003972 -0.001797 -0.018918 -0.042236 -0.003553 0.050141 0.035105 -0.033378 0.045791 0.003713 -0.020312 -0.012426 0.047227 0.062693 -0.031273 0.008593 0.010549 -0.011619 -0.098996 -0.062886 -0.011408 -0.014860 0.053586 0.013234 0.003396 -0.080417 0.015573 0.024805 0.074500 -0.009751 -0.023672 -0.108508 0.068304 0.021206 0.037097 -0.024434 -0.002709 0.016696 0.015573 -0.026589 -0.046771 -0.007370 0.046714 -0.021323 -0.000244 -0.018731 -0.019206 -0.020791 0.067026 0.002992 0.023983 -0.013522 -0.006872 -0.150111 -0.044395 -0.025521 0.002640 0.026387 0.031550 0.047965 0.023926 0.085479 0.115150 0.000780 -0.004058 0.014035 0.040758 -0.024043 -0.037905 -0.034061 0.020880 -0.040630 -0.064980 0.013067 -0.037200 -0.036000 -0.053714 -0.063482 -0.009667 -0.054091 0.018982 -0.193025 -0.002221 0.002786 -0.016321 -0.045117 0.009486 -0.006816 0.042193 -0.003195 0.037569 -0.024815 -0.004009 -0.015316 -0.026604 0.116863 -0.014645 0.078414 -0.002236 -0.008205 0.036022 -0.072987 0.023631 0.006901 -0.030639 -0.025572 0.028679 0.047849 0.052652 -0.022631 0.005225 -0.014558 -0.005626 -0.054482 0.029591 0.019211 -0.000581 0.038135 0.028102 -0.016358 -0.003333 -0.017760 0.010821 0.030909 0.009529 0.041822 -0.015933 0.017055 0.013459 -0.056741 0.109715 -0.124499 0.016299 0.059825 -0.088089 -0.068973 -0.085460 0.024192 -0.025000 0.004691 0.004778 -0.012211 0.057305 -0.002799 -0.000275 0.013680 -0.006031 0.023240 -0.060098 0.066595 0.004075 -0.003833 -0.050648 0.019966 -0.008138 0.076404 0.034825 -0.021355 0.031713 0.030623 0.018869 0.063920 -0.029904 -0.042317 -0.060072 -0.035119 0.015976 -0.012466 -0.000863 0.043040 0.028698 -0.077809 0.097570 -0.060640 -0.056174 0.003189 0.017545 0.038568 0.004894 -0.008559 0.064290 0.028862 -0.013719 -0.014425 0.029415 -0.033094 -0.008694 0.063299 -0.032915 0.002632 0.028286 0.023737 0.050829 0.026563 0.099412 -0.008128 -0.042127 -0.019011 -0.048434 0.019726 0.067086 0.028367 -0.018614 0.018447 0.043723 0.007228 -0.000598 0.005241 -0.046441 -0.025249 0.005211 -0.020201 -0.014561 -0.041765 0.023299 -0.032894 -0.008756 0.004961 -0.015828 0.035897 -0.000443 0.030314 0.055289 -0.000661 0.009501 0.085830 0.024370 0.038198 -0.015479 0.093835 -0.044329 -0.005014 -0.006019 -0.044326 0.002467 0.054972 -0.037755 0.059566 -0.000172 -0.003669 0.060027 0.060115 0.031551 0.030055 -0.048396 -0.042784 0.058895 0.072497 -0.083759 0.014878 -0.014839 0.011200 0.050600 0.009272 -0.022726 -0.023703 -0.031289 0.001748 0.055034 -0.037025 -0.010281 0.058072 -0.048197 -0.021745 0.005151 0.001077 -0.041127 0.000466 0.030811 0.028985 -0.000614 0.001599 -0.050149 0.029581 0.038899 -0.000844 0.084404 -0.020261 -0.006390 -0.002581 0.042996 0.031067 -0.005963 0.043482 0.048461 -0.018458 -0.071179 0.022173 -0.034315 0.073776 -0.014862 -0.008285 -0.008714 -0.005055 -0.050727 -0.065026 -0.086285 0.052897 0.009121 0.008369 0.064261 0.003458 -0.049954 -0.045531 -0.048512 -0.004290 -0.068816 -0.006602 0.029527 0.072582 -0.061343 -0.003383 -0.000481 -0.075301 -0.071189 0.026009 0.031607 -0.013654 0.028540 -0.062274 0.039971 -0.017546 -0.065531 -0.014763 0.005913 -0.034252 0.022039 0.000628 0.071192 -0.008504 -0.038198 -0.023564 -0.074145 -0.129555 -0.002258 -0.014720 0.064199 0.005120 0.047363 -0.056685 -0.007399 0.027901
1 0.017003 -0.021383 0.037815 -0.042123 0.023690 -0.020271 0.090332 0.107859 0.009076 0.006631 -0.029325 -0.012567 0.018496 0.053716 -0.022433 -0.049006 -0.035033 -0.036572 0.012168 -0.009975 -0.006606 0.017187 -0.008635 0.020575 -0.023404 -0.001012 -0.029902 0.018359 -0.001288 -0.038556 0.067533 0.033013 0.018286 -0.067829 0.067093 0.027054 0.029142 0.036980 0.019762 0.016652 0.023155 -0.041419 0.056398 0.038087 -0.032111 -0.026603 0.062351 0.065760 0.007118 -0.071199 -0.026681 0.027924 -0.001765 -0.033784 0.000299 0.055346 0.021066 0.054206 -0.003026 -0.086215 0.013067 0.034965 0.005946 0.027612 0.015488 0.071941 -0.017220 -0.018219 -0.024418 -0.008265 0.038839 -0.021541 -0.052302 0.020448 0.053443 0.039254 0.003523 -0.004786 0.013269 -0.040918 0.007544 -0.042011 0.072415 -0.011563 0.078165 0.011641 -0.015522 0.034323 -0.022999 0.007105 -0.052614 0.015092 0.027205 -0.054684 -0.009525 -0.046098 0.053580 -0.021246 0.006858 -0.048958 -0.006241 0.024453 -0.002398 -0.081322 0.041033 -0.003410 0.036504 0.009197 -0.004330 0.002106 0.028920 0.091605 -0.045352 -0.032449 -0.010702 0.065958 0.029211 0.057843 -0.006174 -0.039472 0.014297 -0.043304 0.046201 -0.012255 -0.053759 0.015430 -0.055850 -0.106638 -0.017914 0.033590 0.003813 0.034355 0.017592 0.001546 0.013587 -0.020986 0.010627 0.048198 0.000306 -0.000481 0.060932 -0.037470 0.008621 0.000281 0.010844 -0.021630 -0.018578 0.048047 0.037386 0.001196 -0.013973 0.028952 0.011257 -0.040627 0.004348 -0.001112 0.045185 0.029739 0.004286 0.043492 -0.039704 0.003036 -0.003983 -0.005831 -0.022487 -0.008160 -0.018859 -0.029920 0.000140 -0.023025 -0.016557 0.019694 0.103782 -0.031194 -0.018924 0.086050 -0.160050 -0.051053 -0.015295 0.011600 0.021421 -0.018662 -0.032088 0.017709 -0.006790 -0.040639 0.001740 -0.003226 -0.011574 -0.087899 -0.105094 -0.012286 -0.010387 -0.020932 -0.016616 0.046001 0.013146 -0.007723 0.021841 0.050348 0.044767 -0.105107 0.021064 -0.052116 -0.011629 0.012733 0.025027 -0.069372 -0.026301 -0.020829 -0.006993 0.052283 0.056249 -0.024061 -0.010021 -0.084885 -0.049049 -0.007697 0.002890 -0.005698 -0.037500 -0.023402 0.010469 0.047115 0.026752 0.071043 -0.048235 0.030947 0.017002 0.038091 0.068459 0.028608 0.011791 0.071604 0.084871 -0.038287 -0.014299 0.045528 0.061178 -0.032903 -0.048454 0.041727 -0.001636 0.000026 0.022638 -0.007757 -0.002102 0.007714 -0.010886 -0.036734 -0.031701 -0.051501 -0.043737 -0.018346 -0.028086 -0.076411 0.030325 -0.043561 -0.011314 0.020746 -0.032668 -0.009029 0.028298 -0.011771 0.046312 -0.017015 0.009297 0.075214 -0.110867 -0.004094 -0.011032 -0.005472 0.047279 -0.044504 -0.023322 -0.009299 -0.040491 0.037217 -0.042108 -0.063363 0.018697 0.006220 0.011449 -0.014249 -0.046141 0.002395 -0.038979 0.011174 0.030331 -0.026740 0.002701 0.013265 -0.061604 0.044663 0.015983 0.027208 -0.023967 -0.024509 0.054747 -0.019738 0.029012 -0.027075 -0.001336 0.004980 0.013487 -0.043502 -0.091258 0.012457 0.007288 -0.020504 0.005382 -0.006474 -0.061253 -0.027346 -0.021685 0.020200 0.048892 -0.007266 -0.005629 -0.002994 0.011113 0.043617 -0.012018 -0.029807 0.024074 0.032088 0.049725 -0.013890 -0.018113 -0.005877 0.000176 -0.004931 0.042171 0.026777 0.007611 -0.014940 0.030769 -0.017498 -0.028227 0.003806 -0.046873 -0.042268 0.031529 -0.011017 -0.055455 0.012954 0.005987 0.002960 -0.015905 -0.019141 -0.038911 0.094188 0.040888 -0.000702 -0.059687 0.006356 -0.051397 -0.000839 -0.005096 -0.016149 0.024953 -0.030819 -0.004575 0.017376 -0.029815 0.003117 0.037287 -0.020431 -0.010701 -0.032657 -0.054464 0.018355 -0.067069 0.029552 0.035940 -0.142705 -0.033704 -0.018312 0.017370 -0.020009 0.073433 -0.030420 -0.043499 -0.045450
2 -0.033896 0.003264 0.033281 0.048506 0.014139 0.030947 0.031201 0.052991 -0.044177 0.019412 -0.034587 0.001687 0.047060 0.017309 -0.009436 -0.027135 -0.011512 0.046305 -0.034744 0.053745 -0.028565 -0.019924 0.059192 0.077678 0.053905 -0.014322 0.039955 0.013734 0.019417 0.022452 0.043531 0.001258 -0.024035 -0.049733 -0.018515 0.024970 0.041014 0.028197 0.021935 -0.013704 0.060447 -0.020958 0.073105 0.005957 -0.001296 -0.023017 0.018042 -0.002215 0.055566 -0.061984 0.057787 -0.003476 0.004842 -0.028166 0.013385 0.001140 0.002708 -0.037342 0.018236 -0.060754 -0.000260 0.016047 -0.021038 0.018206 0.002713 0.033953 -0.000202 -0.039060 -0.000952 0.008728 0.023429 -0.014824 -0.022738 -0.047296 0.062487 -0.011930 -0.026962 -0.025113 -0.001387 -0.035704 0.011310 -0.005303 0.045258 -0.018125 0.056103 0.065299 -0.045007 -0.051784 0.014973 -0.012971 -0.030014 -0.002588 0.001907 -0.038967 0.006182 -0.019220 -0.012471 -0.008791 -0.012919 -0.058712 -0.009022 0.026516 0.013940 -0.048367 0.048652 -0.015294 -0.039551 0.026057 -0.017841 -0.022681 0.007168 0.007930 -0.026875 0.005924 -0.012260 0.071435 0.023923 -0.022694 -0.035349 -0.016447 -0.032523 -0.016696 -0.012666 -0.084022 -0.074372 0.002978 0.001492 -0.085188 -0.027759 0.045203 -0.036249 0.028536 0.049556 0.012799 0.039037 -0.026234 0.037569 0.055783 -0.022137 -0.011326 0.010830 -0.013328 -0.022422 -0.048594 0.016134 0.022672 0.007569 0.015634 0.076381 -0.009820 0.002888 -0.002735 0.012193 0.044130 -0.017515 -0.040444 0.015707 -0.041481 0.031357 0.025644 0.045755 -0.022536 0.053617 -0.002465 0.016142 -0.031009 -0.010977 0.020446 -0.005826 -0.058420 -0.008778 -0.056200 0.004620 -0.056904 0.011790 0.042880 -0.018338 -0.025344 -0.006746 0.011601 0.032098 -0.009220 0.033653 0.043957 0.027918 0.034055 -0.019664 -0.035419 -0.009082 -0.026757 -0.020700 0.010096 0.012150 0.032542 -0.086223 0.031909 0.030859 0.032409 -0.052417 -0.035866 0.024133 -0.041120 -0.022235 0.005929 0.004617 -0.001589 0.033700 -0.029162 -0.004285 -0.021967 -0.015912 0.031779 0.038805 -0.028597 -0.029076 -0.076193 -0.033218 0.000638 -0.029442 -0.036345 0.035110 -0.086880 0.045940 0.018063 -0.024741 0.015141 0.005678 -0.000192 -0.027260 -0.036058 0.005145 -0.013070 0.003041 0.002917 0.025690 0.020978 -0.036039 0.040546 0.009213 0.014026 -0.029869 0.045707 -0.039608 -0.013791 0.050044 -0.017538 0.030021 0.049036 0.019545 0.015752 0.050264 -0.064996 -0.000748 -0.002484 -0.063878 -0.042685 0.012456 0.008347 -0.048538 0.029678 0.024969 0.032920 0.011600 0.001443 0.001449 -0.018490 0.055309 0.097140 -0.027988 -0.032529 0.051263 0.047285 0.013393 -0.014549 0.029662 -0.004567 -0.029721 -0.001829 -0.025930 -0.023813 -0.009628 0.025341 0.014684 0.033316 -0.025493 0.046866 -0.015084 0.003313 0.026544 0.059507 -0.011061 0.075161 0.000679 0.036668 -0.025720 0.015435 -0.034028 -0.037738 0.012487 0.027235 -0.020595 -0.007657 -0.032803 -0.017006 -0.006971 -0.008535 -0.032384 0.059222 0.007943 0.028644 0.003944 0.034632 -0.004065 0.068899 -0.019143 -0.015259 0.039132 -0.021554 -0.016262 0.000355 0.015079 -0.005371 -0.016191 0.011104 0.005591 -0.007781 0.001904 0.021739 -0.058785 -0.015829 -0.024099 -0.009407 -0.013365 0.036825 -0.010043 -0.025850 -0.014218 -0.056081 -0.009242 0.040936 -0.036811 0.000481 -0.010637 -0.036548 -0.038167 -0.016952 0.032232 0.026288 -0.003849 -0.004934 -0.045058 0.057238 -0.013247 0.001122 0.017390 0.020449 0.005023 0.015959 0.032397 -0.020370 -0.002464 -0.042559 -0.023065 -0.029351 -0.051661 -0.056712 -0.017215 0.005111 -0.011318 -0.026675 0.031834 0.047908 -0.011967 0.026400 -0.049430 -0.030107 0.014387 0.003638 0.003044 -0.001286 -0.010682 -0.056330 0.017864 -0.013513
3 -0.010249 0.026974 -0.036623 0.015142 0.047385 0.053540 -0.022204 0.018619 -0.055048 0.055841 -0.007111 0.015670 0.028863 -0.013523 0.030996 -0.065227 0.024768 0.010591 0.039286 0.038624 -0.055179 0.011372 0.022402 0.038409 0.057559 -0.000544 0.005772 0.002120 0.008792 0.049118 0.039235 -0.004787 0.002567 -0.020584 0.019172 0.014961 0.024299 -0.010531 -0.028285 -0.015398 -0.011738 -0.026730 0.027372 -0.033720 0.021655 -0.027740 0.047916 0.029944 0.001029 -0.033849 0.033838 -0.051155 -0.011074 -0.030562 0.050158 0.044467 -0.015622 -0.000998 -0.029084 -0.084507 0.001356 0.017729 -0.030919 -0.002545 -0.015485 -0.020472 -0.059805 -0.057444 -0.023439 -0.029327 0.017301 0.029329 -0.013811 -0.038270 0.063500 0.031877 0.044274 -0.004072 -0.020723 -0.041242 -0.030685 0.005055 0.044547 -0.024532 0.024080 0.030285 -0.017396 -0.055927 -0.045202 0.010424 -0.025836 -0.014647 0.014604 -0.012999 -0.045283 -0.014792 0.011333 0.016870 -0.016554 0.014747 0.003343 0.029333 -0.009700 -0.037973 0.008909 -0.027130 -0.015393 -0.021041 -0.011162 0.005200 0.049356 0.038976 0.015096 -0.032966 0.003530 0.001890 0.025701 -0.040976 0.000316 -0.037753 0.004423 -0.025699 0.064774 -0.034660 -0.019877 -0.021156 0.016412 -0.035925 0.033678 0.027004 0.006381 0.035469 0.033436 0.011151 0.029509 0.020193 -0.025766 0.044728 -0.023920 0.018907 0.020801 -0.019785 0.017052 -0.057698 0.021009 -0.029837 -0.032137 -0.017394 0.023911 0.038420 0.002725 0.015105 0.085556 -0.003092 0.002750 -0.045331 0.006023 -0.041079 0.022460 0.034835 -0.011649 -0.021510 0.034543 0.041426 0.027137 -0.053851 -0.003472 0.021985 -0.061765 -0.071181 0.017809 0.011820 0.022834 -0.050635 0.029342 0.048100 -0.000852 -0.017943 -0.007798 -0.010653 0.024594 -0.034311 0.003174 0.044232 0.010035 -0.030302 0.008113 -0.035956 0.040089 0.002869 -0.003979 0.002390 0.020455 -0.003239 -0.082259 0.007606 0.052173 0.029670 -0.008909 0.001004 0.034579 -0.005374 0.063746 -0.067832 0.002859 0.000934 -0.015522 -0.009571 0.047326 0.012048 0.031745 0.000902 0.033387 0.014043 -0.042990 -0.068437 -0.033021 -0.032441 -0.020073 -0.011835 -0.020533 -0.060602 0.011463 -0.033887 -0.002927 -0.010776 0.028438 0.005859 -0.002947 0.021511 0.031803 0.006050 -0.036256 -0.001971 0.011875 -0.004992 -0.008382 0.006312 -0.019826 0.044638 -0.017334 -0.014568 0.014875 0.020819 0.036731 -0.044552 -0.005290 -0.022525 -0.015455 0.019043 0.034198 -0.021805 0.026158 0.006392 -0.035864 -0.020717 0.015484 0.006086 0.010778 0.011523 -0.019116 0.015531 0.017971 0.034489 0.001409 0.051941 0.042392 0.033671 0.015630 -0.018574 -0.014729 0.020000 0.086952 0.014142 0.011371 -0.000637 -0.038266 0.046892 -0.006684 0.017723 0.060704 0.046886 0.023930 0.074387 0.026497 0.027584 0.000443 0.002204 -0.002055 0.003785 -0.012362 0.035218 -0.057188 0.047741 -0.031693 -0.028063 -0.016015 0.018553 -0.000096 -0.010633 -0.010634 0.027244 -0.024244 0.000756 0.021182 -0.012664 0.011287 0.027451 0.036688 -0.022352 -0.000873 0.051011 -0.020011 0.075611 0.016464 -0.006558 -0.028086 0.000436 0.006214 0.009389 -0.002850 0.033983 -0.050989 0.016343 0.015899 0.031181 -0.005045 0.009613 -0.017134 0.024912 -0.006210 -0.012282 0.055177 0.015863 0.003855 -0.044961 -0.024638 -0.049884 -0.000511 0.039083 -0.005510 0.009064 -0.018149 0.012181 -0.029127 -0.049921 -0.043445 -0.022839 -0.011198 -0.044533 -0.006680 0.055963 -0.002417 0.005228 -0.013098 0.001777 0.020710 0.046365 -0.019676 0.010586 0.001756 -0.009339 -0.027172 0.006148 -0.050141 -0.042485 0.043584 0.038597 0.006935 0.002721 0.012000 -0.005088 -0.008849 0.013145 -0.036662 -0.047550 -0.022792 -0.031597 0.030454 0.017194 0.035055 -0.052895 0.005629 0.020013
4 0.024053 -0.000605 0.005438 -0.006719 0.032221 0.017204 -0.000320 0.041080 -0.031263 0.050200 -0.017463 0.060058 -0.036038 -0.017439 -0.036184 -0.027587 -0.021913 -0.023559 0.040015 0.059351 -0.060945 -0.003767 -0.010180 0.003035 0.009851 -0.046559 0.071845 0.026703 0.053779 0.037834 0.031091 0.031090 0.010232 0.007477 0.003240 0.022756 0.034174 -0.000634 -0.016497 0.035398 -0.018627 -0.009005 0.050962 0.026011 -0.014509 -0.010431 0.007895 0.008557 -0.002673 -0.045749 0.008114 -0.039865 -0.000651 -0.005931 0.025726 0.042427 0.022181 0.027558 -0.011213 -0.005515 0.008224 -0.030390 -0.007055 0.004420 -0.029518 -0.016791 0.013387 -0.046113 0.003235 0.009666 -0.005704 0.010473 0.000669 -0.001575 0.057131 0.019038 0.010271 -0.023304 -0.000019 -0.010049 0.009000 -0.008952 -0.040270 0.014797 0.016755 -0.003038 0.009190 -0.082875 -0.017773 0.002666 -0.014135 -0.014301 -0.013038 0.004139 -0.045830 -0.029755 0.064805 -0.026365 0.004401 -0.032591 -0.009960 -0.022767 -0.029282 -0.041099 -0.006529 -0.007187 -0.038805 -0.011529 -0.045633 0.005606 0.066979 0.014486 0.007423 -0.018720 -0.004674 0.011409 0.018535 -0.036382 0.037403 -0.036894 0.000384 -0.024578 0.048970 -0.061155 0.004789 0.015405 -0.007818 -0.019241 0.024693 0.018505 0.032547 -0.000431 0.016096 -0.003198 0.031939 -0.014883 0.011231 0.047253 0.019058 0.025042 -0.025392 0.000268 -0.033594 -0.038356 -0.008168 0.024526 -0.021368 -0.003954 -0.020058 -0.003571 -0.010789 -0.023185 0.016822 0.014535 0.008399 -0.031954 0.026418 0.006633 -0.025474 0.056391 0.030397 -0.035163 0.012404 0.015663 0.000218 -0.044702 0.022574 0.017490 -0.013829 -0.061522 0.008216 -0.027521 0.002268 -0.048140 0.038746 0.000700 -0.033987 0.052599 -0.034959 0.009403 0.047055 -0.000657 0.022500 0.029732 0.011578 -0.033378 0.000735 -0.034357 -0.043790 -0.037858 -0.024949 0.051354 0.008358 0.013831 -0.047073 -0.032701 -0.023620 0.005587 -0.037196 -0.028126 0.002578 0.013994 -0.039593 -0.010575 -0.042748 -0.020625 -0.018990 -0.057131 -0.025810 -0.046068 0.051199 0.020269 -0.001899 0.050266 0.020975 -0.036178 -0.064093 0.010804 -0.002385 0.017915 -0.008039 -0.035421 0.005898 0.015052 -0.065556 0.000093 0.026101 0.015203 0.059982 0.045023 0.042830 0.011923 0.013656 0.039847 0.050451 -0.052086 0.012407 0.035435 -0.007816 0.022500 -0.018265 0.008512 -0.052800 -0.001593 0.045622 -0.006608 0.017894 0.047637 -0.007082 -0.007754 -0.057950 -0.048565 0.011255 0.045105 -0.048336 0.029654 0.025399 0.006388 0.007022 0.020834 0.012644 0.052387 0.020186 0.027595 0.047853 0.034491 -0.002897 0.066377 0.012975 0.036944 -0.009516 -0.018506 -0.002680 -0.047644 -0.015596 -0.027478 -0.036354 0.037360 0.003953 -0.015547 0.002614 -0.002804 -0.013382 -0.008052 -0.012767 0.018495 -0.037603 -0.045274 0.011325 0.007117 -0.039180 0.043627 -0.030804 0.033315 -0.032957 -0.021234 -0.056864 0.039042 -0.006273 0.021766 0.052165 -0.038811 -0.014915 0.028715 0.048678 0.010438 0.052577 0.016691 0.007589 -0.006361 0.032323 -0.012251 -0.009943 0.054469 0.061894 0.044427 -0.045360 -0.021281 -0.015141 -0.003930 -0.013483 -0.001123 -0.022287 -0.000123 0.020673 0.046440 0.016983 -0.027515 -0.027180 0.024240 0.026398 0.043513 0.048436 0.055753 -0.022286 -0.106389 0.017865 -0.049810 -0.031359 0.034423 -0.015174 -0.038700 0.016624 0.063977 -0.032035 0.001925 -0.037817 -0.001053 -0.030082 0.003057 -0.015238 0.043399 0.010020 -0.011256 0.003568 0.026736 -0.015756 0.024255 0.012382 -0.035272 0.042435 -0.018712 -0.032007 0.001219 -0.007624 -0.042864 0.006871 -0.009748 0.024567 -0.001145 0.025644 0.052715 -0.016185 0.005628 -0.025525 -0.094436 -0.039847 0.008143 0.043338 0.000378 0.038333 -0.012457 0.000455 -0.016398
5 0.010250 0.031735 -0.008519 0.033312 -0.019919 0.024058 0.027450 0.026322 -0.035427 0.058309 -0.042962 0.038345 -0.021785 0.030599 -0.000929 -0.060440 -0.037216 0.013187 0.029630 0.014576 -0.016383 0.008958 0.006093 0.036227 -0.030683 0.020535 0.067144 0.001448 0.054933 0.018393 -0.018605 0.039247 0.007359 0.015522 -0.010856 0.024937 0.071590 0.033027 -0.037245 0.014888 0.042499 0.000450 0.001342 0.010613 0.016646 -0.025750 0.012878 0.034848 -0.008288 -0.033157 -0.034738 -0.002944 0.022862 -0.006570 0.020277 0.035085 -0.030941 0.029747 -0.022898 -0.029866 -0.021902 -0.063490 0.018917 0.007365 -0.009414 0.045679 0.002387 0.005997 -0.058401 -0.019720 0.017474 0.017614 -0.046789 -0.010332 -0.002621 -0.014903 0.015193 -0.011341 -0.041120 -0.001414 0.006250 -0.056072 0.012940 -0.029188 0.016934 0.040512 -0.045854 -0.084362 0.039477 0.044036 -0.003222 -0.027000 -0.007321 0.019235 -0.036069 -0.009023 0.011725 0.016541 -0.047794 -0.009953 0.013598 -0.005053 -0.019702 -0.000516 -0.000589 0.011037 -0.015415 -0.021435 0.009310 -0.023292 0.017758 -0.001840 -0.039272 0.060932 -0.006663 0.005759 -0.017672 -0.045059 -0.036483 0.017438 0.027986 -0.031035 0.049335 -0.044889 0.009789 0.017750 0.018747 -0.015813 0.005498 0.016182 0.026275 -0.007723 0.029927 -0.012442 0.015866 -0.004165 -0.009577 0.088248 0.016135 0.017511 -0.016307 -0.027976 -0.037841 0.019866 0.029412 0.025991 -0.053984 0.012929 0.006466 0.013202 -0.035825 0.032367 0.006695 0.013600 0.000403 -0.025039 0.065774 -0.011449 0.027455 0.027007 -0.004154 -0.039598 -0.018782 -0.010366 0.024216 -0.016362 0.020933 -0.003484 -0.002686 -0.014478 -0.030214 -0.005301 -0.005861 -0.033540 -0.014252 0.005429 0.009011 0.004100 -0.006107 0.003052 0.013161 -0.033378 0.001262 0.005766 0.027638 -0.005186 0.019601 0.002449 -0.049371 -0.016272 -0.034243 0.030504 0.020377 0.047328 -0.072827 0.016707 0.033426 0.027061 0.000107 -0.007009 -0.011093 0.002133 0.025084 -0.025566 -0.041996 -0.006596 -0.015070 -0.021145 -0.030586 -0.010191 -0.019548 0.075123 0.020950 -0.037721 -0.023208 -0.073295 -0.077207 0.007838 -0.039160 -0.029436 -0.051737 -0.059506 0.026085 0.009420 -0.032502 0.038572 -0.055391 -0.010302 0.006529 0.013619 0.018078 -0.022424 -0.005113 0.022426 0.040157 -0.015709 0.016236 0.037720 -0.020792 -0.011266 -0.002216 0.025865 -0.063332 0.028981 -0.003744 -0.037614 0.006349 0.029791 -0.019302 -0.010880 0.009204 0.011691 -0.027523 0.036425 0.021356 -0.058006 -0.017089 0.011059 0.002280 0.034153 -0.021490 0.004851 -0.001636 0.010606 -0.017523 0.027373 -0.010620 0.042775 0.024646 0.019969 -0.007742 0.009068 0.002287 -0.037884 -0.061524 0.013236 -0.029854 0.024767 0.012048 -0.039932 0.011794 0.041099 -0.042047 -0.054454 0.048092 0.032046 0.017674 -0.047771 -0.013712 0.016678 -0.016213 0.031474 0.017505 -0.000598 0.001603 0.011823 -0.006481 0.020443 0.047022 0.002199 -0.004283 -0.035072 -0.052909 -0.005659 0.031818 -0.011556 0.028055 0.002552 0.030492 -0.000998 0.060456 0.002829 0.003327 0.042303 -0.009831 -0.016172 -0.001412 0.018574 0.055651 -0.023499 -0.001687 0.016476 0.014453 -0.004529 -0.052489 0.002282 0.048127 0.002832 -0.007950 -0.011220 -0.063225 -0.021006 -0.000110 -0.050108 0.034700 -0.044150 -0.031005 -0.022602 -0.001206 0.058040 -0.017952 -0.008645 0.058550 0.063374 0.010238 -0.017863 -0.027568 0.000155 -0.030782 -0.026651 0.019363 0.086201 -0.043164 -0.025629 -0.014377 0.021657 -0.075010 0.037169 0.024950 -0.026605 -0.013945 -0.058931 0.011884 -0.005705 -0.015787 -0.022818 0.030702 -0.036932 0.010928 -0.033896 -0.002840 0.023780 0.019815 0.001431 -0.003376 -0.019510 -0.040472 -0.039123 0.023740 0.034293 0.029465 -0.043892 0.038413 -0.022280
6 -0.011426 -0.021400 0.013575 0.035068 -0.011256 0.036227 0.019746 0.040868 -0.064584 0.050290 -0.007805 0.081185 0.023368 -0.000778 0.012589 -0.002086 -0.026712 0.054395 -0.009130 0.004342 -0.091085 -0.034763 0.006955 0.012336 -0.030410 0.022794 -0.004277 -0.005709 0.005996 0.055530 0.011682 0.045087 0.016103 -0.003377 -0.031169 0.055721 0.027347 -0.022470 -0.000206 0.006947 -0.012828 -0.017546 -0.006132 0.001578 -0.004875 0.012371 -0.002875 0.054537 -0.003851 0.006091 -0.036770 -0.012538 0.034084 -0.059776 0.030514 0.008059 -0.024483 0.050491 -0.034037 0.004445 -0.002127 -0.050948 -0.023539 -0.005394 0.019213 0.012752 0.013488 0.025409 -0.042732 -0.055821 0.003991 -0.020373 -0.036992 -0.010787 0.006200 -0.020620 -0.033772 0.023759 -0.014441 0.005098 -0.004619 -0.014251 0.025226 -0.021881 0.022210 0.026443 0.000698 -0.051127 0.010268 0.009059 -0.007671 -0.037641 0.029025 -0.005327 -0.025671 -0.015911 0.020032 0.057773 0.008967 -0.012561 0.023676 -0.015991 -0.006408 0.004494 0.006115 0.051945 0.019372 0.004443 -0.017514 -0.013010 0.045562 0.008603 -0.000564 -0.020890 0.001816 0.015461 0.020713 0.012778 0.001483 -0.050837 -0.026519 -0.014079 0.065020 0.007901 0.013357 -0.034327 -0.029512 -0.028333 -0.009389 0.028079 0.049410 -0.012043 0.011654 -0.012376 -0.010614 -0.013646 -0.013904 0.072890 -0.028480 -0.024756 0.006371 -0.004946 -0.008687 -0.015635 0.017299 -0.025516 0.002753 -0.021647 0.047703 -0.005554 -0.011982 -0.032279 0.003828 0.056387 0.014429 -0.039263 -0.010626 -0.009282 -0.001501 -0.027059 0.039516 -0.018617 -0.038829 0.020856 -0.026322 -0.014789 0.028913 -0.018278 -0.006004 -0.009129 0.061053 -0.067798 0.040534 -0.050207 0.027999 0.047836 0.007020 -0.006970 -0.033238 -0.004937 0.013464 0.006111 -0.005460 -0.000385 0.024935 -0.026414 -0.021136 0.004592 -0.000995 -0.048443 -0.029426 0.048241 0.026841 -0.007134 -0.034447 0.038004 -0.040923 -0.025425 -0.043234 -0.040161 0.026249 -0.013797 -0.033428 0.005275 -0.040919 -0.073107 -0.000906 0.020677 0.001930 -0.029484 0.014397 0.028282 0.017334 0.013750 0.044616 -0.039004 -0.035752 0.010487 -0.009835 0.008168 -0.031565 -0.069877 0.033530 -0.012478 -0.001974 0.055124 -0.014253 0.050470 0.068728 0.028259 0.025815 0.033945 -0.019196 0.036068 0.053457 -0.005605 -0.016786 0.021551 -0.061748 -0.006628 -0.009973 0.031873 0.009496 0.006285 -0.003363 -0.030574 -0.018772 0.047256 -0.006883 0.012899 -0.018450 -0.017117 0.054473 0.009289 0.010748 -0.003396 0.052679 -0.025607 0.018313 0.047889 -0.015712 -0.016767 0.009864 -0.016810 -0.026521 0.004067 0.021285 0.037809 -0.008073 0.009452 0.070142 0.046833 0.006840 -0.016643 0.011905 -0.001781 0.002706 0.020385 0.029421 -0.018190 -0.003145 0.041561 -0.009747 0.026107 -0.002931 0.025328 -0.022912 -0.022711 0.033593 0.027118 0.003501 0.019246 -0.020145 -0.008691 0.003907 -0.011914 -0.056006 -0.006537 0.050078 0.032386 0.026146 -0.038589 -0.057714 -0.008040 -0.004387 -0.039508 0.021771 0.012591 0.025123 -0.010593 0.024786 0.011266 0.017532 0.023307 -0.039396 -0.038031 -0.013437 0.006132 0.021069 0.009014 -0.007162 0.031487 0.008019 0.012851 0.007049 0.067507 -0.031467 -0.029183 -0.022538 -0.003173 -0.058576 -0.007702 0.026456 0.025612 -0.028867 -0.050687 0.002876 -0.016406 0.036169 0.016014 -0.056660 0.037062 -0.000506 -0.030890 0.030203 -0.025668 0.001946 0.027299 -0.002299 0.012341 -0.006156 0.090445 -0.051495 -0.046322 -0.048418 0.054837 -0.058499 0.032547 0.015019 -0.014891 -0.018457 -0.012666 -0.001407 0.016575 -0.015226 -0.034724 0.022695 -0.035975 0.039644 -0.031464 0.001819 0.017350 0.034377 0.029985 -0.022372 -0.018684 0.012330 -0.048444 0.031999 0.040302 -0.003892 -0.052007 0.045742 0.006915
7 -0.011660 0.004205 0.007448 -0.039783 0.020023 -0.012887 -0.028389 0.018633 -0.031222 0.036951 -0.010610 0.025739 -0.011652 -0.010436 0.008958 -0.021588 -0.007578 -0.003053 -0.044096 0.016823 -0.061943 0.003340 -0.002255 0.022724 -0.026597 -0.007300 0.059293 0.011523 0.060081 0.022491 -0.003845 -0.006460 -0.008638 -0.040556 -0.006648 0.036458 0.043153 -0.019940 0.004716 -0.001661 -0.025992 -0.010575 0.008322 0.011807 -0.014481 0.013699 0.032830 0.011145 0.009009 0.000894 -0.027656 0.037791 -0.028467 -0.078745 0.037945 0.031956 -0.022060 -0.023684 -0.046676 0.026324 -0.027406 0.013578 0.010785 -0.019954 0.010632 0.000349 0.002011 0.001663 -0.002455 -0.026459 -0.006164 0.037689 -0.027293 -0.025645 0.038280 0.016988 -0.004963 0.016108 -0.054261 -0.042913 0.035465 -0.035276 0.027916 -0.021981 -0.001802 0.012241 -0.024904 -0.017058 0.037004 0.024235 -0.021820 -0.038118 -0.009665 -0.023034 0.034634 -0.019914 0.000198 0.033465 -0.011812 0.015151 0.023394 0.061574 0.032526 0.037372 0.063506 -0.026015 -0.012325 -0.057277 -0.010793 0.011550 0.047749 0.049276 0.005151 0.018991 -0.013623 0.019560 -0.007211 0.005802 0.009870 0.010329 -0.009951 -0.032980 0.110119 -0.029857 0.021507 0.021187 -0.010122 -0.007655 0.009041 0.028247 0.006235 0.035917 0.005030 0.000615 -0.014776 -0.007995 0.017929 0.027182 0.011304 0.023685 -0.031639 -0.000714 -0.014489 -0.024403 -0.012998 -0.034398 0.009963 0.004244 0.045239 0.018118 0.022741 0.009123 0.025887 0.007742 -0.034882 -0.055665 0.037794 -0.021988 0.022170 0.013527 -0.026197 -0.011881 0.004289 0.034726 -0.011610 -0.033376 0.008348 0.032062 -0.021420 -0.000551 0.076374 -0.020794 0.007287 -0.007848 0.045464 0.008926 -0.033590 -0.008722 -0.014193 0.033069 -0.030045 -0.028577 -0.027011 -0.013623 0.008677 -0.017740 -0.003723 -0.003303 -0.004693 -0.016206 -0.076011 0.003578 0.007008 -0.005599 -0.073305 0.056139 -0.007066 -0.000341 -0.009997 -0.024182 -0.004765 -0.013070 -0.006539 -0.037384 -0.036989 0.032129 0.004336 -0.004182 0.017453 -0.060665 0.017399 0.011625 0.023498 0.055690 -0.008311 -0.039595 0.005990 0.025129 -0.008260 0.017355 -0.018349 -0.050939 0.070399 0.020914 0.012421 0.007678 0.021459 0.028816 0.010164 0.036182 0.052653 -0.008507 -0.022745 0.010015 0.000209 -0.043990 -0.032901 -0.011289 -0.036444 0.032706 -0.019925 -0.005116 -0.012630 -0.052991 -0.008215 -0.036906 0.027008 0.019629 -0.004984 0.039631 0.045301 0.027334 0.018577 0.052693 -0.027533 -0.040771 0.062879 0.017327 0.010977 0.053684 -0.016827 0.028366 -0.003573 0.059356 -0.019462 -0.008156 0.032250 -0.015214 -0.061810 -0.023431 0.015393 -0.008326 -0.005733 -0.042347 -0.031272 0.005223 -0.011278 0.012656 0.027248 -0.038736 0.034422 0.049876 -0.046349 0.059804 -0.002314 -0.014732 -0.000130 -0.054770 0.038572 0.012282 0.009068 0.028312 0.026558 -0.007945 0.002730 -0.029687 0.025328 -0.034054 0.013010 0.040903 -0.006654 -0.046976 -0.022993 0.034866 0.042765 -0.020925 -0.011764 0.032178 0.054931 0.001997 -0.012989 -0.021903 -0.001892 0.028222 -0.048521 0.020467 -0.028256 0.007177 0.024765 0.019457 -0.028672 0.023607 -0.039457 0.004295 -0.006001 -0.009411 0.033292 -0.062577 -0.014445 -0.019348 -0.046560 0.004157 0.006600 0.039800 -0.052507 -0.038434 0.042383 -0.017516 -0.055136 -0.000134 -0.028079 0.009639 -0.001517 -0.019781 -0.028672 -0.047709 0.008998 0.016346 -0.011908 0.031622 0.005706 0.073067 -0.022518 -0.068290 -0.023820 0.015349 0.010396 -0.004840 -0.003748 -0.037486 -0.016074 -0.036002 -0.004358 -0.003412 -0.005919 -0.017225 -0.000664 -0.033426 -0.022781 -0.004506 0.034319 -0.034041 0.050490 -0.003767 -0.037253 -0.017232 -0.020282 -0.049550 -0.008987 -0.000523 0.047092 -0.012430 -0.010985 0.051557
8 -0.018729 -0.007032 -0.051018 0.028778 0.028821 -0.002840 -0.012560 0.047980 -0.073661 0.047391 -0.046916 0.043300 0.031740 -0.011789 -0.013682 0.032289 -0.029082 0.013781 -0.018274 0.016463 -0.073426 -0.008311 -0.055274 0.016558 0.061245 0.022747 0.052027 0.008659 0.041021 -0.028627 -0.018031 0.028903 0.015278 -0.017746 -0.036275 0.015333 -0.006847 0.011538 -0.012865 -0.001807 0.010914 -0.017969 -0.013954 0.013010 -0.007664 0.045254 0.030406 0.019114 -0.000710 -0.029340 -0.082532 0.021879 0.002348 -0.027365 0.091665 0.017700 -0.018956 0.013736 -0.031774 0.041921 -0.022558 0.029719 0.015458 0.024169 0.017466 0.018784 0.022632 0.005548 -0.035204 0.034748 -0.009601 0.055011 -0.079208 -0.015649 0.023089 -0.028474 -0.000771 0.011554 -0.037882 -0.017878 -0.020606 -0.010844 -0.004764 -0.029827 0.007110 0.019161 -0.001835 -0.013632 -0.022265 0.023045 0.012615 0.029414 -0.033207 -0.039713 0.018742 -0.002911 -0.000677 -0.022410 0.031335 -0.017778 0.039701 -0.002409 -0.033859 -0.000085 0.046668 0.049105 0.022498 0.024178 -0.016429 -0.043414 0.059159 0.026437 -0.002256 0.012101 -0.019412 0.013669 0.002304 0.012174 -0.006339 -0.012815 -0.025644 -0.008855 0.071855 -0.022632 0.004258 0.030526 -0.028547 0.023475 -0.022824 0.018056 -0.019520 0.010637 0.017183 0.018114 -0.021261 -0.028471 0.017304 0.036280 -0.021787 0.017968 -0.015681 0.001311 -0.038047 -0.038038 -0.000876 -0.016167 -0.021361 0.012783 0.045707 0.049259 0.061858 -0.040210 0.023063 0.006269 -0.046299 -0.030653 0.026579 -0.013742 -0.008875 0.051899 0.004510 -0.002592 0.007910 0.064832 -0.016889 -0.027699 -0.018418 -0.059783 -0.040469 0.011570 -0.006084 -0.036469 0.049503 -0.055560 0.026470 0.027081 -0.039026 0.040477 -0.000207 0.041114 0.050431 -0.000831 -0.003084 0.015980 0.020327 0.005785 0.023509 -0.025215 0.017081 -0.022115 -0.052154 -0.019034 0.013452 -0.011119 -0.057781 0.030311 0.015630 0.022383 0.005413 0.028856 -0.021294 0.003614 0.001552 -0.046901 -0.034994 -0.003503 -0.018605 -0.024219 -0.017830 0.008942 -0.010308 0.011016 -0.010162 0.030834 0.027909 -0.022574 -0.030395 -0.004971 -0.049082 0.028282 -0.030410 -0.001085 0.041880 -0.017229 -0.049552 0.015865 -0.009582 -0.041921 0.023397 -0.009476 0.019867 0.049741 -0.010215 -0.000083 0.016577 -0.011959 -0.007243 -0.028384 -0.013091 -0.047599 -0.033835 0.009155 -0.012552 0.014912 0.011008 -0.029646 -0.012542 0.022890 0.002717 -0.043940 -0.031458 -0.030418 0.005140 -0.000752 -0.001931 -0.038308 -0.019393 0.005457 0.015819 0.034092 0.036185 0.021134 -0.011189 0.005822 0.055196 0.004302 -0.000465 -0.001157 -0.026993 0.020868 0.060795 0.018007 -0.006719 0.014319 -0.020687 -0.032426 -0.027661 0.043962 -0.018820 0.025569 -0.005024 0.026390 0.015553 0.001557 0.039946 0.040451 -0.032440 -0.033395 0.018510 0.038263 0.012660 0.067822 0.026009 -0.015313 -0.040996 -0.010048 -0.034202 -0.017715 -0.028012 0.010509 -0.015817 -0.041572 0.010150 0.014226 0.044374 0.004417 -0.008362 0.022113 0.005649 -0.022966 0.004462 0.040864 0.029043 0.013338 -0.021532 0.025932 -0.035117 0.010867 0.037426 -0.012136 0.024354 0.051108 -0.032636 -0.056896 0.022159 -0.008470 0.023522 -0.036003 0.057117 0.008044 -0.056025 -0.014979 0.018386 -0.021554 0.018131 -0.003034 0.013552 -0.016045 -0.056707 0.008742 -0.030558 0.011272 0.043988 -0.036225 -0.043949 -0.035918 0.017140 0.045576 -0.035320 0.040125 0.001360 0.043393 0.028500 -0.048619 -0.033142 -0.049428 -0.004287 -0.022163 0.007902 -0.016260 -0.034619 -0.018544 -0.003675 0.020858 0.010057 0.034009 -0.012848 0.008476 -0.031657 0.009077 -0.031153 0.009292 0.002981 0.047018 0.023537 -0.032705 -0.002403 -0.047090 -0.014952 -0.037687 0.043014 -0.048458 -0.005700 0.035164
9 -0.002292 0.033250 -0.005360 -0.007712 -0.000173 -0.014222 -0.018069 0.041663 -0.044916 0.021427 -0.056769 0.048235 0.030726 -0.037330 0.041635 -0.020635 -0.002559 0.024981 -0.037025 0.026777 -0.093732 -0.026646 -0.022957 0.030709 -0.024448 0.012191 0.014407 -0.027687 0.013819 0.000241 0.049496 -0.005924 0.013990 -0.011937 -0.020357 0.005083 0.042177 0.023425 -0.006433 0.023477 0.019370 0.031081 0.033425 -0.038687 -0.015939 0.012803 -0.003953 0.018436 0.005590 0.015751 -0.042916 0.023265 -0.016411 0.016774 0.059595 0.020702 0.005845 -0.021816 -0.018186 -0.006094 -0.012515 -0.014178 -0.019862 0.033233 -0.022910 -0.000487 -0.070256 -0.003753 -0.010722 -0.007395 -0.005501 0.052818 -0.030598 0.017581 0.002112 0.006918 0.013328 0.010754 0.022622 -0.047514 0.009098 -0.026056 -0.014690 -0.008686 0.024732 0.020863 -0.033648 -0.043879 -0.055537 -0.003290 0.006318 0.039398 0.052345 0.017966 -0.015049 0.014104 0.039347 -0.038632 0.015074 0.013790 -0.007353 0.015998 -0.027026 -0.016109 0.031127 0.015427 0.015993 0.032734 -0.074120 0.049112 0.031941 -0.024581 0.022991 0.011717 -0.029964 0.049767 0.022985 -0.007049 0.026611 -0.044845 0.018993 -0.002786 0.024517 -0.086090 0.031162 0.013040 -0.023183 0.018438 -0.014611 0.010495 -0.049127 -0.013598 0.028814 0.002269 0.012812 0.014525 0.013148 0.033546 -0.025033 0.037131 -0.019344 0.002435 0.031507 -0.025116 0.027349 -0.006094 -0.021923 0.049029 0.013679 -0.016728 0.067970 -0.000477 -0.008309 -0.040839 0.014624 -0.040052 0.037122 -0.029608 0.005054 0.036497 0.023568 -0.005038 0.027826 0.035514 -0.057644 -0.000212 -0.004057 -0.054582 0.000599 0.011862 0.013153 -0.014626 0.048289 0.010694 0.054735 0.026466 -0.002795 -0.012461 -0.001600 0.031251 0.028450 -0.023419 0.027967 -0.015978 -0.015696 0.011431 0.021836 0.014284 -0.023007 -0.012929 -0.050662 -0.001781 -0.012935 -0.042678 -0.032514 -0.004833 0.019566 0.013555 0.009130 -0.016160 0.021991 -0.019351 -0.024833 -0.038791 -0.042118 0.008948 -0.020519 0.018705 0.030250 -0.034541 -0.004012 0.036853 0.012387 0.011859 -0.001949 -0.041965 -0.042229 0.048983 0.047787 0.024826 -0.007541 -0.020896 0.018346 0.014343 0.009868 0.040090 -0.011237 -0.001727 -0.003426 -0.004007 0.029707 0.042685 -0.006442 0.043173 -0.000648 -0.068406 -0.026173 0.006066 -0.003077 -0.016149 -0.040875 0.053838 -0.018341 -0.017066 -0.019422 -0.026464 0.043454 0.004576 -0.015574 -0.006313 -0.038737 0.038782 0.033424 -0.037687 -0.039933 0.034932 0.004687 -0.058306 -0.015556 0.017163 -0.041080 0.009614 -0.010910 0.020271 -0.001258 0.015263 0.035156 -0.005751 -0.005006 0.013899 -0.007544 -0.002452 -0.010130 0.028764 0.007198 -0.006099 -0.011041 0.056918 0.006925 -0.007957 -0.014738 0.049114 0.036518 0.048750 -0.008789 0.042368 -0.027281 -0.002355 -0.010317 0.020547 0.007677 0.010692 0.009714 -0.036246 -0.028808 0.031607 -0.038859 -0.025809 -0.022811 -0.021177 0.018666 -0.007436 -0.025049 0.008592 0.018619 -0.061429 -0.028557 0.052366 -0.005671 0.017163 -0.037078 0.002738 0.001761 -0.009582 -0.018710 0.037947 -0.002663 -0.034120 0.017009 0.008629 -0.007733 0.066207 -0.027982 -0.033950 0.003943 0.029035 0.006483 -0.055282 0.020107 -0.026326 -0.051817 0.000843 -0.019023 0.013391 0.010056 -0.016892 -0.011280 -0.026575 -0.031107 0.053068 0.005643 -0.032919 -0.003536 -0.028025 -0.025364 0.002721 0.015771 0.008458 -0.053355 -0.000016 -0.013581 0.073951 -0.008461 -0.035456 -0.056782 -0.023885 0.029560 -0.047918 0.025893 -0.023641 -0.061587 -0.019680 -0.029109 -0.004257 -0.001554 -0.008453 -0.019464 -0.021529 0.002387 0.016876 0.021170 0.036673 0.011486 0.010314 0.021019 -0.007701 0.024923 -0.020601 0.003239 -0.042583 0.005341 -0.022166 0.057054 0.023648
10 -0.012054 0.002463 0.027111 -0.044244 0.034750 -0.035694 -0.018376 0.069116 -0.029842 -0.012838 -0.012463 0.019243 -0.015584 -0.016731 0.002646 0.009884 -0.041170 -0.019346 -0.031632 0.033179 -0.048165 -0.031374 -0.024748 0.026386 0.040761 0.050362 0.034050 -0.017208 0.005774 -0.013320 0.011274 -0.004608 -0.039310 0.011121 -0.037237 0.008997 0.060171 -0.007730 -0.002293 0.020111 0.003541 -0.012541 0.033960 -0.050228 0.019026 0.018525 0.023625 -0.023645 0.027792 -0.049702 -0.016137 -0.012327 -0.059492 -0.001067 0.025822 0.008548 -0.042440 -0.036107 0.003951 -0.018969 -0.030352 0.011919 0.035730 0.019028 0.034028 -0.000615 -0.003840 0.000711 0.020473 0.006790 -0.019519 0.038879 0.026402 0.013786 0.005044 0.011920 0.056435 -0.009377 0.002832 -0.029795 0.033027 0.022527 0.003133 -0.020910 0.006972 0.012280 -0.027447 -0.033758 0.022502 0.005276 0.013198 0.041662 0.071638 0.008287 -0.027260 0.017770 -0.015118 -0.005201 -0.025259 0.030452 -0.009556 -0.008901 0.007279 -0.037685 -0.007779 -0.010933 -0.010307 0.015741 -0.052629 0.020846 -0.015985 0.020982 0.001322 0.006865 0.010127 0.025938 -0.020173 -0.014497 -0.012369 0.010749 -0.026854 0.000402 0.072835 -0.072807 0.005093 0.032867 0.021381 -0.002225 -0.026934 0.004829 0.014865 0.020819 0.019738 0.012020 0.031705 0.006392 0.007472 0.009341 0.011775 0.044073 -0.084056 0.021476 -0.012009 -0.067281 0.008749 -0.024039 0.005507 0.011275 0.057269 -0.015144 0.039877 -0.030298 -0.005201 -0.015935 0.002686 -0.009823 0.024426 -0.003687 0.024725 0.043972 -0.005896 -0.019420 0.028368 -0.005743 0.031139 -0.072066 -0.019986 0.007459 0.029175 0.027902 0.014118 0.002336 -0.005529 0.005066 0.041446 0.021668 -0.015976 -0.007341 -0.004417 0.026083 -0.019998 0.008339 -0.011922 0.009941 0.005235 -0.059720 0.023682 -0.000673 -0.018128 -0.048732 -0.102181 -0.008746 0.005490 -0.005003 -0.070246 0.051062 -0.020696 0.023302 -0.037943 0.033303 0.039199 -0.033634 0.029504 -0.045117 -0.010652 0.024248 0.012457 -0.001430 -0.010969 0.006237 -0.016243 0.047435 -0.010601 -0.032157 0.012728 -0.026964 -0.018303 0.012764 -0.001246 -0.018453 0.033412 -0.019527 0.021726 0.003057 -0.021372 -0.034196 -0.014165 -0.061339 0.002868 -0.045689 0.029668 0.023255 -0.001493 -0.000625 0.040186 -0.065227 -0.008856 0.000713 0.029610 -0.019374 -0.052957 0.031916 -0.007457 0.044832 0.032322 0.012392 0.043568 -0.007064 0.010004 0.046877 -0.003939 0.036252 0.028614 -0.030445 -0.009585 -0.000102 0.000787 0.002749 -0.035724 -0.010676 -0.010303 0.053986 0.040033 -0.004206 0.033439 0.016047 0.027667 0.028157 -0.017222 0.009315 0.030295 -0.047884 0.009585 -0.000883 0.012702 -0.030220 -0.036326 0.024864 0.024209 -0.041770 0.020929 0.041020 0.028842 -0.008100 0.019107 0.035207 -0.022835 -0.015418 -0.002803 0.064114 0.021283 0.002771 -0.005532 0.009647 -0.010236 -0.011520 -0.007101 0.014809 -0.026095 -0.007591 -0.027246 0.000905 -0.045419 -0.016605 -0.018667 -0.032414 -0.047808 0.036824 0.027828 0.002094 -0.040082 0.012403 0.024136 0.046789 -0.032637 -0.020538 0.046186 -0.029827 0.038569 0.003898 0.012001 0.003791 -0.008640 0.006980 0.015285 -0.015895 -0.004887 -0.019176 -0.006954 -0.016966 -0.027310 -0.018595 0.030633 0.027237 0.004230 -0.000226 -0.019506 -0.018534 -0.010257 0.036491 0.014684 -0.024649 0.016450 -0.053661 0.011168 0.045648 0.020163 0.043889 -0.054376 0.011042 0.022089 0.036314 0.003646 -0.049638 0.010122 -0.000167 0.030836 0.002244 0.008694 0.023744 -0.034249 -0.014244 0.003763 -0.021356 0.015401 -0.019361 -0.014966 -0.015013 -0.005814 0.046099 0.032341 0.031733 -0.041491 -0.046812 -0.046604 -0.040667 0.020354 0.018234 -0.000188 -0.029462 0.034115 0.008276 0.064861 0.020370
11 -0.000146 0.018615 -0.000193 -0.003583 -0.028213 0.019837 0.038899 0.043090 -0.001150 0.020646 -0.028590 0.028302 0.004763 -0.001936 0.042021 0.012757 0.017836 0.025318 0.022131 0.013234 -0.011927 -0.038650 0.002430 0.024247 0.027016 0.037302 -0.019985 -0.028473 -0.015093 -0.001574 0.012017 -0.026458 -0.038664 0.039511 0.001378 0.038170 0.020843 0.042509 -0.004169 -0.015643 0.000147 -0.032898 0.011701 -0.005430 0.009078 -0.018867 0.045379 -0.006542 0.037699 -0.031237 -0.012318 -0.026046 -0.021913 0.012494 0.048598 0.028620 -0.045717 -0.012801 0.008602 0.017233 -0.023422 -0.039470 0.007959 0.029679 -0.004541 0.026417 -0.055501 -0.035816 0.000574 0.006583 0.004292 0.013629 -0.006082 0.028344 -0.014495 -0.000097 0.017425 0.028760 0.023512 -0.008360 0.025357 -0.001543 -0.026776 -0.012827 0.016349 -0.025325 -0.010466 -0.026564 0.001538 0.040138 -0.043144 -0.012585 0.015817 0.025777 0.019105 0.028409 0.039738 0.000756 -0.013381 0.004646 -0.012711 -0.075475 -0.040801 -0.023670 0.019739 0.010820 -0.006682 0.015953 -0.011344 -0.047635 0.022830 -0.004557 0.019245 0.007623 0.031872 0.008253 0.006417 0.037951 -0.044390 0.023481 -0.029140 -0.007499 0.040234 -0.046012 0.016737 -0.006080 0.005458 -0.003848 -0.031290 -0.007442 0.014819 0.024569 0.031864 0.020504 0.051529 0.003758 -0.003130 0.016165 0.017111 0.016752 -0.037841 0.019043 -0.036219 -0.067242 0.032053 0.049259 -0.009728 0.008069 0.023091 -0.029418 0.061093 -0.020495 0.032725 0.014552 0.002274 -0.033478 0.033735 -0.022263 0.040345 0.046443 0.002410 0.021115 -0.016263 0.049677 0.020738 0.005232 0.032088 -0.058455 0.025573 0.041828 0.041163 -0.001611 0.013912 -0.016308 0.038128 0.027837 -0.011226 0.009270 -0.018964 -0.012390 -0.042124 -0.010393 -0.028885 0.018225 -0.017208 -0.031201 0.007277 -0.012095 -0.020063 -0.003899 -0.022050 -0.054675 -0.014572 -0.039207 -0.019498 0.031245 0.006868 0.034933 -0.041224 0.037928 0.015759 0.031260 0.012494 -0.003842 -0.041099 0.022143 0.005127 0.027225 0.014123 -0.015218 -0.002929 0.029026 0.023046 0.000885 -0.020637 -0.048643 -0.039949 -0.023887 -0.024266 -0.036421 0.000894 0.006229 -0.011882 -0.013015 -0.073552 0.006001 -0.036899 -0.023730 0.014691 -0.007013 0.011134 -0.017539 0.024953 0.018835 0.049090 -0.010793 -0.032521 -0.031803 0.005751 -0.024926 -0.072464 0.026662 -0.007858 0.025483 -0.000323 0.003949 -0.021670 -0.039174 -0.020510 0.000888 0.003930 -0.012319 0.013031 -0.058517 -0.019083 -0.010982 -0.038792 -0.014372 0.019785 -0.017740 -0.003782 0.025535 0.012160 0.038914 0.032905 0.026458 -0.016955 0.010982 0.028862 -0.012530 0.065931 0.039427 0.011634 0.044068 0.009157 -0.027442 -0.031586 0.004440 -0.029723 -0.008309 0.038838 0.024533 0.009976 0.004797 -0.001068 0.053094 -0.030666 0.010389 -0.039865 0.040637 0.032136 0.018431 -0.024288 -0.009695 -0.034901 0.012865 -0.055906 0.015539 -0.034992 -0.016967 0.028042 -0.011891 0.003236 -0.007958 -0.015416 -0.034411 -0.022682 0.004474 0.032556 0.041063 0.026804 0.006710 -0.000891 -0.008804 -0.002605 -0.039011 0.035655 -0.036077 0.010796 0.005443 0.026086 0.019483 0.015337 -0.008150 -0.002573 -0.001881 -0.000285 0.035034 -0.011224 -0.002611 -0.041093 -0.030734 0.007244 -0.043943 0.048057 -0.041594 -0.021265 -0.058919 0.014133 0.010191 0.022087 0.031031 0.011801 0.000691 0.031543 0.011293 0.023605 0.027780 -0.049210 -0.013520 -0.002568 0.009440 -0.038801 -0.043525 0.015035 -0.106688 0.055351 -0.021901 0.011043 0.033539 0.015548 -0.030553 -0.036856 0.025763 -0.032777 -0.027299 -0.006942 0.015520 0.020925 -0.012811 -0.015768 -0.005840 0.001693 0.022837 -0.009792 -0.068473 -0.030845 0.029714 0.031517 0.032746 0.020583 0.009712 0.051436 0.033648
12 -0.009062 0.021119 0.029538 -0.022271 -0.052560 0.041219 0.041062 0.064545 -0.023306 0.017954 0.003942 0.001561 -0.029608 -0.049208 0.017246 -0.004033 0.000770 0.009554 0.000555 0.035794 0.008812 -0.042657 0.021733 -0.012050 -0.036775 0.002041 0.010238 -0.000902 -0.040278 0.019133 0.036873 -0.012460 -0.013896 -0.028710 -0.023628 0.020028 0.014801 -0.024678 0.006761 0.008701 0.036674 0.004941 0.029010 -0.014555 -0.003063 0.017482 -0.003161 -0.009074 0.062996 -0.015776 0.052063 0.034071 -0.005474 0.001798 0.017770 0.020763 0.000066 -0.003956 0.011491 0.007051 -0.006815 -0.029268 -0.026188 0.027244 0.008956 0.005675 -0.036360 -0.020634 0.012638 0.016825 -0.009098 -0.003367 0.005076 -0.009591 -0.022747 -0.041730 0.002965 -0.021184 -0.000268 0.019796 0.029473 -0.004601 0.008791 0.001360 0.003900 0.019362 0.009064 -0.059754 -0.013276 0.004025 -0.046071 -0.008104 0.015051 -0.023239 -0.005048 -0.013909 0.041970 -0.011059 0.001770 0.035121 0.001867 -0.003200 -0.029887 -0.061570 0.029000 0.018165 -0.032800 -0.025603 -0.004411 -0.009456 0.010564 0.023818 -0.020000 -0.007216 0.018103 0.040278 0.016725 0.043154 -0.006241 0.035714 -0.049631 0.000850 0.041150 -0.036093 -0.003065 -0.019765 0.044728 0.010068 -0.049027 -0.011433 0.027584 -0.026746 0.040040 0.031808 0.035476 -0.002840 0.000418 0.011109 -0.003113 0.018479 0.007042 -0.035168 0.007754 -0.078054 -0.027693 -0.017026 0.000880 0.035357 0.052544 -0.013166 0.066879 -0.016872 -0.041868 -0.032257 0.001440 -0.030966 -0.002842 0.004926 -0.003889 0.000322 -0.001640 -0.014319 -0.063094 -0.038077 -0.042667 0.029246 0.061596 -0.007057 0.037143 -0.007552 0.031144 0.007819 -0.024078 -0.022996 0.055090 -0.002953 0.029298 -0.001035 -0.027487 0.022088 -0.009333 -0.029957 -0.005849 0.037006 0.018639 0.002440 0.048956 -0.010984 -0.049867 -0.007318 0.002990 0.004765 0.018391 0.004890 -0.003557 0.015748 -0.024331 0.025999 0.026884 0.001446 0.051262 -0.012778 -0.014398 0.003091 -0.092634 0.001039 -0.004189 0.013479 -0.013656 0.019687 0.025083 0.012169 0.038249 0.010480 -0.068488 -0.049959 -0.020518 0.004730 -0.006819 -0.013687 0.020212 0.001561 -0.039103 0.030019 -0.033199 0.004804 0.025127 -0.003319 0.026886 -0.031783 -0.012799 0.010579 0.026377 0.036902 0.017336 -0.032596 -0.039660 0.022223 0.014552 0.024855 -0.047856 0.060070 -0.003066 0.024824 0.014097 -0.005088 0.049237 -0.005048 -0.022294 0.007369 0.006188 -0.027320 0.056639 -0.019567 0.025502 0.016679 0.062919 -0.025871 0.001703 0.004248 -0.045406 0.011506 -0.011663 0.040164 0.031513 0.004795 0.009312 0.065556 -0.033951 0.030865 0.021366 0.021497 -0.011730 0.018239 -0.008629 -0.023025 0.002643 -0.001351 -0.005545 -0.051157 0.045815 -0.024762 -0.005534 -0.009420 0.026375 0.009389 -0.033725 0.019875 0.001771 0.007312 0.019982 -0.024148 0.005814 0.010777 -0.013785 -0.023333 0.009714 0.046819 0.005836 -0.018226 0.081432 0.010027 -0.004587 0.005321 -0.028771 -0.017329 -0.050542 -0.030410 0.037328 -0.003047 -0.011415 0.043717 0.013694 0.026874 0.001942 -0.032821 -0.017646 -0.042052 -0.009838 0.015723 -0.025244 -0.026488 -0.011647 -0.008636 -0.000964 0.038491 -0.001878 0.018000 -0.071277 -0.021206 0.003031 0.015028 0.014764 -0.024926 -0.024070 0.005689 -0.053636 -0.043011 0.022083 0.065593 0.036501 -0.000734 0.004624 0.013589 0.013463 -0.034295 -0.016181 0.043767 -0.075028 0.024663 0.013912 0.014316 -0.042460 -0.078980 -0.012473 -0.007731 -0.003685 -0.018061 -0.002996 -0.011447 0.058480 -0.043133 0.002620 0.029162 -0.006866 0.021135 -0.044764 0.015759 -0.016504 -0.017125 -0.031647 -0.001344 -0.000789 0.028500 -0.012288 -0.085400 -0.020197 0.021622 -0.001853 -0.001516 0.021085 0.005015 0.043205 -0.024954
13 0.007399 -0.013692 -0.012206 -0.005881 -0.013827 0.039663 0.013955 0.012519 -0.052868 0.020633 -0.007876 -0.005640 0.008766 -0.010241 -0.035882 0.009473 -0.013639 0.003490 0.031947 0.001592 0.002670 -0.005874 -0.001678 0.006917 -0.061576 -0.020218 0.003435 -0.007775 -0.013499 0.027184 0.016511 0.005903 0.000912 0.027243 0.011501 0.041633 -0.003375 -0.020710 0.023851 0.010116 -0.019011 -0.030762 0.065088 -0.079905 -0.017928 0.026384 0.018433 0.011176 0.024178 -0.021873 0.031277 0.009386 -0.017084 -0.009729 0.005048 -0.015565 -0.011498 -0.021509 -0.007716 -0.027154 -0.057059 -0.002505 0.031031 0.012356 -0.028533 -0.004120 0.019053 0.023559 0.026244 0.025622 0.029080 -0.014734 0.018361 -0.007249 0.002654 -0.004565 0.016420 0.016147 -0.049964 0.024545 -0.000308 -0.024826 -0.026094 -0.001165 -0.007417 0.028069 -0.027019 -0.047317 -0.016658 0.041748 -0.023091 0.000868 0.019500 0.020104 0.017634 -0.076288 -0.000174 0.036728 -0.031762 -0.032974 -0.056597 0.045510 0.044050 -0.027749 0.048456 0.012258 -0.024864 0.010034 -0.000289 -0.051051 0.014416 0.021144 0.025290 0.011893 -0.039246 0.010466 0.027096 0.006967 -0.003368 -0.001882 -0.030289 -0.007200 0.036603 -0.014824 0.002718 -0.017703 0.042057 0.011829 -0.008551 0.020478 0.029106 0.004771 0.028889 0.014679 -0.005759 0.010875 0.016572 0.014537 -0.014144 0.027487 0.071453 -0.022333 -0.022674 -0.060924 -0.032040 0.005274 -0.051981 -0.004898 0.064853 0.036131 0.037213 -0.041038 -0.004624 0.032396 -0.028715 -0.024491 0.005965 0.029420 -0.021367 -0.001266 0.004624 0.008665 -0.041068 -0.054952 0.003050 -0.052810 -0.001113 0.010125 0.018868 0.032537 0.013801 0.023369 -0.019355 -0.029568 0.021672 0.044593 -0.019771 0.011569 -0.032712 -0.008022 -0.009653 -0.000265 -0.006077 -0.039557 0.008785 -0.023881 0.007540 -0.008727 -0.038140 -0.051435 -0.002359 0.007340 -0.003524 0.016329 0.006712 0.015800 0.020152 0.023331 -0.038320 0.019506 0.004558 0.011431 -0.006819 -0.013830 -0.045434 -0.025033 -0.011084 0.014099 0.042819 0.001897 -0.012844 -0.005670 -0.007753 -0.046636 -0.075271 -0.006660 0.029818 -0.053731 -0.031294 -0.009710 -0.014628 -0.008143 -0.011606 0.027369 -0.025860 0.036261 0.037964 0.017828 0.042780 0.008992 0.043058 -0.020103 -0.021629 -0.019992 0.038947 -0.024431 -0.007776 0.011568 -0.028914 -0.004826 -0.022557 0.054771 -0.002542 0.057628 -0.000787 -0.006177 0.092297 -0.028547 -0.042608 0.032893 0.008899 -0.026011 0.013061 -0.040015 0.021907 -0.011158 0.019241 0.028648 -0.025123 -0.022841 0.003788 0.028669 0.046484 -0.004652 -0.014954 0.009119 -0.001521 0.039834 -0.032690 0.000561 0.030760 0.031571 0.028796 -0.015646 0.020394 0.018633 0.017639 0.037990 0.008600 -0.012233 0.040222 0.005125 -0.027544 -0.015932 0.029802 0.003355 0.032717 -0.011524 0.002463 0.032614 -0.004263 -0.008069 -0.006849 0.044546 -0.033520 0.014171 -0.015467 -0.001683 0.007276 -0.044476 0.067031 -0.014954 0.008762 0.041764 0.016610 -0.000257 -0.054089 -0.038372 -0.002991 0.024905 0.022404 -0.023368 0.020288 -0.001346 0.026407 -0.022935 0.044161 -0.007733 -0.011102 -0.007932 -0.036166 -0.015640 -0.023922 0.004584 -0.014334 -0.004660 0.028165 0.020973 0.007191 -0.035279 -0.054561 -0.003329 0.022910 0.010186 -0.018400 0.020347 -0.046039 0.002492 -0.006457 0.028404 0.028349 0.003986 -0.027211 0.023952 -0.017571 -0.032588 -0.008516 0.014332 -0.002206 0.001720 0.032649 -0.015826 -0.012313 -0.072748 0.035433 0.021720 -0.010661 0.052617 -0.030541 0.031952 0.064102 -0.015433 0.005963 0.032615 -0.044246 -0.017525 0.002662 -0.002210 0.006774 0.008630 -0.007609 -0.020084 0.024102 0.014596 -0.023922 -0.022968 -0.071040 0.011259 -0.029358 -0.001279 0.015811 -0.011460 0.039666 0.012135
14 0.015255 -0.044660 0.018407 0.043825 -0.053377 0.009409 -0.012839 0.021239 -0.007039 -0.005555 -0.026166 0.011292 0.004905 -0.028813 -0.008337 0.045010 0.012453 0.037432 -0.009955 -0.042938 -0.007926 0.010710 -0.018047 0.029275 -0.054028 -0.028819 0.026112 0.008114 -0.005441 0.019008 -0.020069 -0.010477 -0.012132 -0.007350 -0.017397 0.021307 -0.034740 -0.044261 0.036286 -0.013932 -0.002129 -0.066668 -0.038432 -0.041033 -0.004284 -0.036093 0.024425 -0.010423 -0.013157 -0.007643 0.062110 -0.015222 0.038174 -0.000506 -0.023579 0.003955 0.020280 0.027915 0.012076 -0.010723 -0.035566 0.014957 0.006547 -0.006305 -0.000622 0.044162 0.018748 -0.033395 0.012777 -0.034534 -0.019985 -0.011717 0.005203 -0.034703 0.036899 -0.001276 -0.025170 -0.012391 -0.001543 -0.036049 -0.025774 -0.043032 0.047500 0.008002 0.033354 0.068014 0.012051 -0.033919 -0.039003 0.001996 0.015102 0.009573 -0.001587 0.023884 0.009677 -0.020318 0.010042 -0.041974 -0.002280 -0.033491 -0.018069 0.005211 0.003322 -0.020375 0.024128 0.020755 0.004759 0.027274 0.018034 -0.026783 0.021301 0.048970 0.016099 0.004287 -0.016499 0.018210 0.027614 -0.037504 -0.000302 -0.008521 -0.037409 -0.016126 0.013849 -0.024960 0.019107 0.031778 0.046449 -0.039988 0.030202 0.021601 0.013906 0.029112 -0.021935 -0.012322 -0.023690 -0.027937 0.017995 0.003321 -0.045914 -0.007200 0.048046 0.008468 -0.051365 -0.001408 -0.017173 -0.003646 -0.057769 -0.014278 0.029535 0.007235 0.012186 0.025471 0.016693 0.075179 0.042018 -0.064045 0.032449 0.012647 0.015888 0.008838 -0.011064 -0.028238 -0.024815 -0.030349 -0.038753 -0.018494 0.032293 0.014241 0.016867 0.000204 0.025344 -0.037628 0.050095 -0.008868 0.106931 0.022815 -0.034659 0.013369 -0.014816 0.030934 0.024146 0.007808 0.023947 0.004707 0.037992 -0.017510 0.007445 -0.026948 0.031882 0.008117 0.000411 0.011715 -0.016518 -0.011460 0.016263 -0.023407 0.024567 -0.013569 -0.009411 0.018389 -0.021971 -0.027111 -0.013919 0.001578 -0.038552 0.050639 0.048589 -0.014672 -0.000875 -0.019360 -0.019337 0.000730 -0.000498 -0.021335 -0.039076 -0.030884 0.004519 -0.040535 0.002829 -0.056680 0.020318 -0.027102 -0.016478 -0.033306 0.000381 0.061600 0.042818 0.043613 0.003661 0.016618 0.029919 -0.007736 0.060309 0.019540 0.040999 -0.024476 -0.025792 -0.011285 -0.032134 0.054547 -0.024489 0.022227 -0.022998 0.028291 -0.005613 -0.000418 0.036688 0.065291 -0.032023 0.055819 -0.002803 -0.033999 0.012760 -0.032457 0.012356 0.018393 0.061872 0.004615 -0.033784 0.051734 -0.021559 0.035180 -0.015291 -0.006642 0.016115 0.005621 0.004810 0.008609 -0.013042 0.023281 0.042661 0.069831 0.013089 -0.010514 0.010975 -0.018177 -0.019576 0.006134 -0.032354 0.006201 0.031670 -0.011669 -0.015747 -0.023280 -0.011657 0.033184 -0.043473 -0.005222 -0.033337 0.018037 0.017600 0.021739 -0.018839 0.011059 -0.038109 0.002830 -0.025186 0.010861 -0.009063 0.009518 0.035439 -0.013480 0.015788 -0.000844 -0.028805 -0.003417 -0.045953 -0.043419 -0.006420 0.043618 0.030278 -0.032012 0.006647 -0.001063 0.020247 -0.014748 0.000688 -0.022963 -0.033401 0.006289 0.008517 -0.036476 -0.029022 0.010212 -0.030069 0.019203 0.061677 0.038991 0.025875 0.000758 -0.035430 0.048898 0.019803 -0.018237 0.011172 0.020356 -0.005244 0.000328 -0.033184 0.004380 0.012867 0.033426 0.030100 0.001987 -0.038530 -0.053215 -0.030081 0.007728 0.007640 -0.010295 -0.012337 -0.013330 0.014073 -0.060437 0.001886 -0.031582 0.005701 0.004780 0.007709 0.006986 0.032889 -0.002243 -0.005359 -0.023782 -0.015877 -0.000588 -0.022472 -0.032321 0.041244 0.000135 0.011380 0.022160 0.037661 -0.017070 0.017932 0.016551 -0.038036 -0.013189 -0.003587 -0.075462 0.014088 -0.005883 0.024816 -0.003331
15 -0.015193 -0.028179 0.055013 0.041830 -0.009452 -0.004129 0.001116 0.025775 -0.051113 0.001465 -0.017821 -0.003573 0.020819 -0.034367 -0.039125 -0.003904 0.012627 0.011767 -0.009899 -0.025765 0.007610 0.004071 0.006175 0.020613 -0.004931 -0.024431 0.045363 0.047002 -0.010347 -0.010429 0.007350 -0.026574 0.011008 0.000712 -0.039222 -0.018912 -0.002088 -0.019723 0.006492 0.015973 0.028349 0.005982 0.000429 0.008843 -0.002917 0.014152 -0.000011 -0.000093 0.030785 -0.019425 -0.001077 0.004530 -0.002109 0.024437 -0.014397 0.017488 0.000333 -0.009955 -0.039775 -0.030742 -0.031178 0.015237 -0.009607 0.000528 -0.018922 0.046623 0.021573 -0.008367 0.033023 -0.003890 0.001180 -0.013394 0.021843 -0.030906 -0.006095 0.029917 -0.019842 0.008876 -0.018085 0.000528 -0.018754 -0.060270 0.039512 0.004840 -0.005448 0.004784 -0.004115 -0.007297 0.031686 0.041704 0.007007 0.040776 0.015190 -0.016794 0.032699 -0.010144 -0.025171 -0.048994 -0.092821 -0.046772 0.012445 0.012319 0.010054 0.021767 -0.006462 0.035579 0.001852 -0.013678 -0.027477 -0.004710 0.029223 0.054221 0.031378 -0.023599 -0.007288 0.095517 0.050123 -0.014698 -0.004737 -0.018784 0.029134 -0.038075 0.013481 -0.028747 -0.054958 0.009608 -0.004901 -0.006156 -0.016170 0.030609 -0.008567 0.037476 -0.005216 0.018788 -0.011685 -0.006875 -0.011020 0.019592 -0.013181 0.012241 0.013143 -0.012710 -0.026866 0.008026 -0.002557 0.050404 -0.028277 0.015534 0.047515 0.034963 -0.006116 -0.000176 0.000302 0.024791 0.009727 0.000899 0.024912 0.019493 0.006859 -0.041588 0.013547 -0.013689 0.024736 0.016309 0.009046 -0.020063 0.005999 0.019034 0.026702 0.014819 -0.007594 0.027446 0.011115 -0.015339 0.052342 0.027311 -0.115250 0.014218 0.012975 0.050784 0.033587 -0.020560 -0.005433 -0.002514 0.005046 0.020227 0.018717 -0.038453 0.018266 0.020379 -0.006742 0.012433 -0.031264 0.007790 0.026644 0.029128 -0.010216 0.001595 -0.012148 -0.060239 -0.010839 -0.056741 -0.024157 -0.030191 -0.013664 0.012368 0.055946 0.007678 -0.016278 -0.010699 0.029628 -0.001783 0.068091 -0.008544 -0.014148 -0.004354 -0.003081 -0.024006 -0.021263 -0.012100 0.022670 -0.004394 -0.033921 -0.025925 -0.047819 -0.009140 0.000116 0.033594 -0.013461 -0.012406 0.026975 0.038973 0.009333 0.024721 0.016241 -0.032475 -0.022574 0.004976 -0.037266 0.004702 0.008161 0.000355 0.015401 -0.007461 0.029846 -0.003217 0.074941 0.018928 -0.041437 0.038655 -0.016770 -0.023401 0.026845 0.001275 -0.003073 0.039302 -0.040648 -0.047666 -0.046862 0.017614 -0.017300 -0.016118 -0.025016 -0.020318 0.004004 0.028741 0.033002 0.001475 -0.014608 0.025489 0.023046 0.031132 -0.015759 0.002657 -0.031112 0.025146 -0.008473 0.038002 -0.008602 -0.074940 -0.009938 0.030878 0.014499 0.030557 -0.020693 0.014642 0.013906 -0.006342 0.027749 0.011417 0.018896 -0.017021 -0.045350 0.063406 -0.048312 0.017201 0.021159 -0.010709 -0.035966 -0.001410 -0.021783 -0.027085 0.010789 0.000044 0.008165 -0.014124 -0.039081 0.004334 0.013701 0.000119 0.020192 0.005873 -0.040772 -0.016655 0.022278 0.037835 -0.015654 -0.028153 -0.034229 0.022457 -0.006407 0.006505 -0.027106 0.019252 -0.027217 -0.012760 0.014665 -0.009248 -0.022360 0.033797 0.008532 -0.016232 0.064904 0.048731 0.024950 0.032552 0.009305 -0.033546 -0.023134 -0.007019 0.067786 0.030556 0.010209 -0.029288 0.017433 -0.087347 -0.018918 -0.005485 -0.020463 -0.036107 -0.010925 0.032862 0.024626 -0.026151 -0.013022 -0.034879 0.024800 0.048617 -0.029563 -0.007780 0.016429 -0.069166 -0.017154 -0.021313 -0.028739 -0.010455 -0.012763 -0.049855 -0.005546 -0.000385 -0.023184 -0.005074 0.017121 -0.003847 0.003801 -0.002704 0.024595 -0.040927 -0.058583 -0.016637 0.000829 0.010066 -0.068967 -0.005883
16 -0.025995 -0.019991 0.004127 0.012544 0.009641 0.004229 -0.028051 0.002100 -0.036343 0.024241 0.007617 -0.031767 0.020899 0.001382 -0.015189 0.018280 -0.003381 -0.007163 -0.013945 0.017996 -0.017319 -0.044586 -0.033734 -0.001947 -0.004645 -0.047594 0.037994 0.018389 0.041949 0.032044 0.025714 0.034834 0.007073 0.065536 -0.014059 0.024397 -0.004896 0.038923 0.023944 0.039228 -0.000930 -0.008206 0.032404 -0.016500 0.013396 0.007733 0.020672 0.010123 -0.033678 -0.032663 -0.017174 -0.017579 0.009625 0.037494 0.002062 -0.008337 0.018185 -0.019093 0.001814 -0.056649 -0.003088 0.012590 -0.027520 0.029253 -0.032686 0.049662 -0.000236 -0.035182 0.018221 0.001448 0.028192 -0.004051 0.019611 -0.000590 0.012015 0.053077 0.015974 0.011866 -0.026131 -0.022410 0.004164 -0.100129 0.038535 -0.040568 -0.032715 0.022995 -0.015690 -0.030786 0.033032 -0.027610 0.030287 0.037042 -0.010730 -0.008474 0.014490 -0.003441 -0.002675 -0.023922 -0.037413 -0.004797 0.010951 -0.026151 -0.038796 -0.024536 0.008865 0.003185 -0.041880 0.023818 -0.046282 -0.014780 -0.045062 0.052748 0.025329 -0.021869 0.025433 0.008319 0.012656 -0.056994 -0.031005 0.018315 -0.015077 0.008507 0.031820 -0.032702 -0.028368 -0.021306 -0.012848 -0.055344 0.034951 0.040909 0.043153 -0.035400 -0.013004 -0.019469 0.013390 0.001826 0.013690 0.004519 0.018199 0.035396 -0.016255 0.008263 -0.037215 0.022698 0.078354 -0.000407 0.033481 0.033254 0.016543 0.014582 0.036514 0.004234 0.038157 0.050321 -0.071947 -0.034316 0.027032 0.004912 0.033665 -0.042945 0.013927 -0.017321 0.031154 -0.034632 0.015171 0.011340 -0.010340 0.001553 0.043702 -0.010340 -0.010371 -0.033291 0.028146 -0.005737 -0.016314 0.029417 -0.018659 0.045090 -0.031090 0.018216 0.017183 -0.038238 -0.026232 0.002547 -0.012929 -0.029896 0.030050 0.010071 -0.000853 -0.012345 0.019063 0.014985 -0.031667 0.006136 -0.009010 0.020147 0.009945 0.041347 -0.016070 0.003410 -0.028009 -0.060347 -0.002832 -0.052140 0.000780 0.010566 0.062019 -0.021019 -0.001197 -0.001880 0.063975 0.029352 -0.012437 0.051187 -0.027486 0.008213 -0.048397 -0.020352 -0.021160 0.009021 0.065837 0.017264 -0.011224 -0.028249 -0.041131 -0.032920 0.021143 -0.011145 -0.021625 -0.030798 0.022582 -0.011934 -0.039522 0.008596 0.018927 -0.049726 -0.033292 -0.008569 0.041159 0.019856 -0.031125 -0.011153 0.012294 -0.006114 0.020564 0.013738 0.099310 0.020770 0.003265 -0.022642 -0.002265 -0.036539 0.014249 -0.023339 -0.017537 0.021517 -0.004001 0.012501 -0.047729 0.039052 0.040501 -0.005679 -0.019416 -0.006784 -0.005287 0.025073 0.007593 0.038925 0.045125 0.031768 -0.001249 0.000044 0.008338 0.045842 -0.022192 0.001540 -0.025085 0.035275 0.016682 -0.003186 0.013895 -0.030237 0.043751 0.050475 0.003109 -0.021610 -0.018299 -0.020069 0.028999 0.022498 0.030666 -0.010309 -0.010309 -0.010954 -0.037756 -0.016559 -0.028547 0.035285 -0.016514 0.021726 -0.014056 -0.011160 0.012723 -0.001185 0.033928 0.008786 0.029213 -0.007852 -0.009502 -0.030812 0.019058 -0.005670 -0.039905 0.006119 0.020395 -0.028561 -0.019348 -0.002102 0.015243 0.009763 -0.030730 -0.039331 -0.036572 0.004812 0.002136 -0.012880 -0.012571 0.012626 -0.019022 -0.008057 0.018003 0.046273 0.026138 -0.022024 0.016860 0.009470 0.029376 -0.032900 -0.035380 0.017179 0.016416 0.024176 0.041858 0.002374 -0.001649 -0.016492 0.004846 -0.013159 -0.007561 0.024001 -0.026272 0.009459 0.027379 -0.018070 -0.031959 0.005867 0.035300 0.029586 -0.005407 -0.009973 0.033476 -0.060448 -0.019090 -0.020996 0.005645 0.009323 -0.042318 -0.061760 0.007071 0.061710 -0.041142 0.017002 -0.031441 -0.025609 0.040095 -0.016353 0.033791 0.034269 -0.029973 -0.008505 -0.008907 -0.048716 -0.000271 -0.000136
17 0.000070 0.009673 -0.015282 -0.016174 -0.001379 -0.006037 0.013309 -0.004263 0.028116 -0.005834 0.001096 0.030147 0.042964 -0.026338 0.040833 -0.006217 -0.000663 0.047809 0.041751 -0.020744 -0.015955 0.027347 0.007972 0.080875 -0.034541 -0.021060 -0.009361 0.025493 0.015872 0.007423 0.028714 0.037913 -0.035573 0.035882 0.009756 0.047552 0.015270 0.044937 -0.042065 -0.003818 -0.019453 -0.004186 -0.005737 -0.029583 -0.008952 -0.004446 0.008089 0.005383 -0.036298 0.003825 0.005039 -0.028041 0.013657 0.040853 0.018381 0.007286 0.002201 0.034843 -0.033141 -0.045543 0.003872 -0.020355 -0.014649 0.012495 0.019562 0.050526 -0.007625 0.014756 -0.027580 0.012334 0.014409 0.030731 -0.022581 -0.036691 0.047788 0.071508 -0.013195 0.017655 -0.024999 0.009561 0.060291 -0.033015 0.048042 0.025482 -0.034206 0.021234 0.011076 -0.011851 0.035377 0.006116 0.011889 0.076225 0.047037 0.040643 -0.044878 -0.002080 0.021387 -0.003499 -0.030989 -0.015176 -0.025562 -0.025531 -0.052964 -0.009255 -0.055568 -0.017641 -0.017857 -0.020393 0.004606 0.002983 -0.020623 0.001937 0.028393 0.022243 0.018177 0.061788 -0.019333 -0.016258 0.008866 -0.031425 -0.006698 -0.006826 0.047499 -0.003652 0.014588 0.005809 -0.003145 -0.047864 -0.004839 0.033409 0.005551 -0.018280 0.013999 -0.022022 0.014376 -0.032837 0.004580 0.013749 -0.013069 0.019064 0.058476 0.016507 0.017203 0.022879 0.051021 -0.040251 -0.011942 0.000554 -0.033862 -0.016538 0.023888 -0.028694 0.001481 0.021935 -0.003336 -0.015847 0.025564 0.026795 0.014273 -0.025213 -0.006437 0.024457 0.012722 -0.057771 0.019559 0.004538 -0.028715 0.017736 0.003062 0.008246 -0.029633 -0.073760 0.021895 -0.029719 0.000897 0.043544 -0.009530 -0.014807 -0.037298 0.028777 0.049510 -0.028923 0.006589 -0.022651 -0.008698 0.002149 0.030108 -0.000745 0.058168 -0.000839 0.008471 -0.000638 -0.009188 0.017911 -0.010683 0.009305 0.049704 -0.009922 -0.016728 -0.023129 -0.037464 -0.057054 -0.000437 -0.049437 -0.025588 -0.013307 0.044603 -0.018332 -0.053502 -0.005128 0.008855 0.009230 0.010664 0.019466 -0.017795 0.031981 -0.040636 -0.018722 0.040623 -0.030182 0.011505 0.020037 -0.030934 0.005433 0.000830 0.023778 0.008200 -0.018549 -0.023427 -0.027416 0.004492 0.030166 0.032342 0.010558 0.009027 -0.025782 0.059424 -0.010531 -0.034627 -0.042892 0.009303 0.028778 0.016126 0.030582 0.007792 0.016703 0.006375 0.010532 -0.042795 -0.035346 -0.005252 0.012003 0.033442 -0.009603 -0.032896 0.046709 0.001376 0.026849 -0.000343 0.066263 0.016650 -0.037406 0.013941 0.009181 -0.039768 0.051037 -0.008371 0.016279 -0.023733 0.000960 -0.046372 -0.006040 0.012095 0.013222 0.009343 -0.055656 0.007102 0.014667 0.011754 -0.017882 0.034236 -0.022770 0.042715 0.032479 -0.007573 -0.040075 -0.014964 -0.027599 -0.009998 -0.002131 0.029876 -0.031760 -0.015348 -0.003858 -0.023874 0.009883 -0.014980 0.049179 -0.001147 -0.018123 -0.001428 0.015306 0.050908 -0.038575 -0.010049 -0.041604 -0.015565 0.007686 0.025272 -0.017932 0.005298 -0.042671 -0.038149 -0.010899 0.013883 -0.010279 -0.032037 -0.022558 0.009981 0.009398 -0.009744 0.026077 -0.016420 0.018811 -0.003950 0.013470 -0.009181 0.006387 -0.007317 0.019658 0.017710 -0.020421 -0.014123 -0.019124 0.008780 -0.003125 0.050987 -0.024580 -0.004814 0.052905 0.039896 -0.021644 -0.009108 0.003764 0.018594 -0.029935 -0.039458 -0.014040 -0.020682 -0.009068 -0.030659 0.017299 -0.011109 -0.000553 0.018171 -0.011303 -0.044197 0.035511 0.020067 0.023046 -0.005628 -0.066683 -0.028280 -0.005026 -0.009890 -0.003739 0.006671 -0.009218 0.032089 0.018788 -0.028195 0.087106 -0.025120 -0.011620 -0.007112 -0.021482 -0.048478 -0.044631 -0.000174 0.020251 -0.002988 -0.065145 0.047686 -0.013230
18 -0.010368 -0.080511 -0.022343 -0.000584 -0.025999 -0.024874 -0.008985 0.031727 0.004533 -0.034412 -0.028457 0.014618 0.004349 -0.040574 0.023235 0.018153 -0.038006 -0.003043 0.009135 -0.003106 0.020122 -0.001966 -0.046692 0.071184 -0.023403 -0.003434 -0.007046 0.002543 0.026620 -0.012772 0.017110 0.019633 -0.015476 -0.019062 -0.030207 0.010681 0.010441 0.055461 -0.035555 0.019289 0.023303 0.000973 0.001432 0.005306 -0.043174 0.039553 -0.003524 0.015344 -0.008038 -0.037195 0.022749 -0.008794 -0.037341 0.025470 -0.003545 0.014173 0.019165 -0.021895 -0.041690 -0.052120 0.053391 0.029333 0.004827 0.010103 0.030525 0.023885 0.054806 0.007026 0.000875 0.008242 0.005729 -0.007725 0.001966 0.005583 0.050101 -0.003547 -0.008181 0.058220 -0.014042 0.001403 0.014380 0.027997 0.080919 -0.017570 -0.034118 -0.004052 -0.002074 -0.020391 0.063565 -0.010031 0.008517 0.054373 0.040214 -0.001122 -0.052653 -0.009468 -0.047753 0.037842 -0.039959 -0.013029 0.004595 0.001985 -0.021185 -0.011754 0.012540 0.006705 0.004222 -0.026167 -0.023206 -0.025171 -0.019827 0.031716 -0.015054 -0.012249 -0.002845 -0.003668 -0.031998 0.002299 0.013479 0.030235 0.001945 -0.018936 -0.020954 -0.009915 -0.014966 -0.007832 0.033960 -0.048708 -0.015457 0.012219 0.041229 0.013059 0.025954 0.014508 0.051969 -0.017320 0.010566 0.010360 0.028413 0.023263 0.004976 0.006167 0.002069 0.016736 0.036115 0.006567 0.012929 0.005911 -0.007725 -0.038405 0.048339 -0.011540 -0.013704 0.035520 -0.040202 0.004550 0.003553 0.028615 0.040535 0.018304 -0.016761 0.011625 0.010949 -0.024366 0.023891 -0.003223 0.004341 0.015703 0.022812 0.010963 0.005594 -0.056800 -0.014345 -0.036235 -0.011457 0.036307 -0.008120 -0.010914 -0.068081 -0.001306 0.051055 -0.039782 0.009931 -0.025598 -0.008636 -0.012121 0.008217 0.017322 0.021482 -0.019184 0.001164 0.032290 -0.008768 0.011166 -0.028000 0.007304 -0.018889 0.021774 -0.018899 -0.013894 -0.024397 -0.035189 0.027317 0.007809 0.007166 0.019587 0.012995 0.041815 -0.032305 0.017461 0.007868 0.018394 0.021288 -0.031938 -0.018119 -0.004731 -0.003240 0.024921 0.021804 0.034786 0.011220 -0.049745 0.003254 0.001751 -0.030344 0.002944 -0.012104 0.010552 -0.024200 0.010924 0.034727 0.033890 0.072694 0.037152 0.022876 -0.031558 -0.000459 -0.015641 -0.065554 0.024629 -0.030300 0.000838 0.008446 -0.037551 0.033025 -0.007156 0.048962 -0.009001 0.015675 -0.020103 0.008085 -0.036957 0.035255 0.027924 -0.001951 0.016152 0.079980 -0.012336 -0.006798 0.011289 0.019726 0.010345 0.020847 0.025315 -0.066061 0.012511 -0.012829 0.042266 -0.037190 -0.032809 0.020092 0.012840 -0.012633 0.002952 0.040468 -0.029668 0.052448 -0.005173 0.056623 -0.009846 0.015199 0.002927 0.040508 0.035322 0.014872 -0.001693 -0.015741 -0.033153 -0.002781 0.018883 -0.013108 -0.046193 -0.022977 -0.010163 0.001169 -0.041849 -0.010314 -0.003469 0.007567 0.034888 -0.028690 -0.026402 0.036466 -0.042416 0.004557 0.000186 0.035747 0.022849 -0.024271 -0.008309 0.042421 -0.048493 -0.001949 0.023958 -0.024975 0.011647 -0.017410 -0.002789 -0.059204 0.012660 -0.004762 0.027439 0.008164 0.020114 -0.056096 -0.008692 0.014422 0.023780 -0.018910 -0.014503 0.020509 -0.038455 -0.037755 -0.017689 -0.031273 -0.055565 0.011207 -0.021713 -0.009431 0.029570 -0.013721 -0.044505 0.003468 0.045604 0.004022 -0.011788 -0.005474 -0.030027 0.030791 -0.011094 -0.015766 0.001126 -0.018757 -0.004902 0.049827 -0.005356 0.002361 0.010986 0.047365 -0.005130 -0.027760 -0.067183 -0.002703 0.011892 -0.048682 0.012914 -0.002952 -0.020873 0.001389 -0.004205 -0.010758 0.025677 -0.023482 -0.032303 -0.035385 -0.025850 -0.005301 0.004174 0.011273 -0.036914 -0.024249 -0.001715 0.007074 -0.001372
19 -0.021730 -0.001570 -0.013487 -0.013280 0.038286 0.003284 -0.017879 -0.001707 -0.005553 0.010879 0.015913 0.015456 0.003100 -0.036418 0.050012 0.019472 -0.031447 -0.044657 0.049998 0.016803 -0.016637 0.014218 0.010919 0.010483 0.031401 -0.051024 -0.015096 0.001790 0.002182 0.039746 -0.003386 0.013608 0.026571 0.023064 -0.032778 -0.023341 -0.039624 0.067301 -0.029434 -0.004460 0.027380 0.020920 -0.020671 -0.008870 -0.010193 0.017856 -0.014001 0.016656 0.005264 -0.044430 -0.010282 0.026626 -0.014600 -0.011788 0.035280 0.013438 0.003636 -0.018115 -0.001698 -0.054557 0.005528 0.009234 0.020070 0.003853 0.019878 -0.032896 -0.000530 -0.047367 -0.039814 -0.002686 0.048635 0.037652 -0.026326 0.042923 0.005249 -0.020437 -0.000663 0.003921 -0.010575 -0.028999 -0.003077 0.006644 0.075569 -0.026340 -0.009014 -0.008259 0.023419 -0.043159 0.018587 0.008064 -0.015804 0.059345 0.031635 -0.016044 -0.011040 -0.005322 -0.016762 0.046074 0.005724 -0.035358 -0.030159 -0.034474 -0.021398 0.007645 0.030602 0.000105 0.005192 -0.040325 0.042769 -0.064570 -0.028326 -0.004126 -0.021772 -0.005105 -0.025464 0.011447 0.023467 -0.020126 0.032466 0.041243 0.025692 -0.019626 0.009129 0.017936 -0.019711 -0.020308 -0.018994 -0.004779 -0.002805 0.015239 0.047692 -0.000382 0.043810 0.014096 0.014436 0.015912 -0.004064 -0.016610 0.009045 0.003291 0.012822 -0.007581 0.019697 0.015886 0.057948 0.035105 -0.002659 0.004952 -0.000854 -0.021443 0.027258 -0.036673 0.048525 0.029523 -0.020866 0.037705 -0.001656 -0.000572 -0.023825 -0.014807 -0.049071 0.033454 0.004587 -0.000128 -0.000665 -0.007179 -0.049014 -0.014501 0.030963 -0.005160 0.015419 -0.008194 -0.007127 -0.036859 -0.022899 0.017216 0.017310 0.035391 -0.001818 0.021101 0.050148 -0.021265 -0.021927 -0.019449 -0.005340 0.004826 0.035384 0.001097 -0.012743 -0.021524 0.035779 0.005221 -0.014208 0.010671 -0.037673 -0.021379 -0.001279 -0.012757 0.009588 0.018512 -0.043008 0.016325 -0.001158 -0.018484 0.004598 0.032992 0.024808 0.025311 -0.023962 0.027048 -0.005992 0.035168 0.036404 0.012629 -0.014148 -0.042417 0.003245 -0.024861 -0.014812 0.016895 -0.067980 -0.003935 0.042597 -0.034585 -0.007840 0.042037 -0.018178 -0.029739 -0.020394 -0.027384 0.004049 0.037039 -0.024562 0.016278 -0.023689 0.040184 -0.003123 0.005165 -0.032630 0.020425 -0.020851 -0.033066 0.026041 -0.024809 0.026855 0.023649 -0.017385 -0.065981 0.003199 -0.014375 -0.016699 0.014215 0.005441 0.018826 0.001855 -0.008599 0.018324 0.020204 0.027036 0.030622 0.039112 -0.001489 0.033598 0.036248 -0.021506 -0.020044 -0.006826 -0.008176 -0.052102 -0.015958 0.011988 -0.005978 -0.031934 0.042752 0.019506 0.015663 0.007821 -0.008429 -0.011418 0.016720 0.018816 0.011992 0.011637 0.064379 0.027364 0.025477 -0.031363 -0.053060 -0.021358 0.030378 0.013650 0.001446 -0.046932 -0.005126 -0.058770 -0.042498 -0.026088 -0.009589 0.029258 0.007574 -0.023449 -0.008614 -0.020942 -0.042337 0.050538 -0.013952 0.006576 -0.061658 0.002145 0.001923 0.006365 0.001286 -0.016134 0.008451 -0.064517 -0.012707 -0.008350 0.046107 -0.025265 -0.001512 -0.050516 0.000233 -0.028375 0.024417 -0.002528 -0.032161 0.019011 0.028097 -0.001008 0.039112 -0.000329 -0.024719 0.019801 -0.025848 -0.023549 -0.037589 -0.002491 -0.003821 -0.017658 -0.012457 -0.000646 -0.009217 -0.009436 0.006833 -0.017096 -0.043264 -0.049176 0.009643 0.001249 -0.038350 0.011569 0.024985 -0.036490 -0.001599 -0.042493 -0.027445 -0.034522 -0.006774 0.016030 -0.005951 -0.009147 -0.086525 0.009402 0.010835 -0.013282 -0.001954 0.057677 0.017449 -0.020698 -0.031474 -0.064170 0.020195 -0.020916 -0.006923 -0.002954 -0.012708 -0.023969 0.010299 0.056027 0.013918 -0.005054 -0.049069 0.028175 0.013124
20 0.013876 -0.001980 0.044959 -0.019766 0.025071 -0.025503 -0.038762 0.008962 0.025051 0.007324 0.002171 0.022757 -0.040443 0.008737 0.017920 0.002310 -0.021359 -0.012673 0.063046 0.052050 0.005240 0.019508 0.019137 0.068253 0.025620 -0.036727 0.023870 -0.012450 0.054597 0.005800 -0.026580 -0.005328 -0.000181 0.037258 -0.017004 0.021604 0.006940 0.012486 -0.019304 0.013124 0.016251 -0.014115 0.019772 0.022064 -0.053927 0.015446 0.021671 -0.004583 -0.024081 -0.080544 0.015194 0.032731 0.019483 0.037424 0.037190 -0.009304 0.026378 -0.005715 -0.042148 0.028978 -0.011534 0.050464 0.019670 -0.006484 -0.045253 -0.010924 0.041658 -0.044173 -0.029394 -0.024300 0.021728 0.016558 -0.023939 -0.005495 -0.010713 0.019511 -0.008041 -0.011695 0.029709 -0.019864 0.000995 -0.033154 0.019491 -0.005239 -0.010188 -0.022769 0.007815 -0.028924 -0.018557 -0.034644 0.023538 0.015255 -0.005476 0.029070 -0.034109 0.022167 0.003459 0.031123 -0.009078 -0.016514 -0.032987 -0.006287 -0.015217 0.010570 0.006038 -0.045632 -0.011504 -0.032398 -0.063730 0.014417 -0.015193 0.004352 0.003271 -0.043652 -0.024759 -0.024467 0.030382 -0.026357 0.042924 0.022029 0.013009 -0.022750 0.020911 0.004632 0.035583 -0.002300 -0.028838 -0.005153 -0.018462 -0.014087 0.038025 0.020861 0.040661 0.018821 0.012609 0.016376 -0.005218 -0.006111 0.019624 0.005939 0.000681 -0.023614 0.007649 -0.016566 -0.026295 0.050658 -0.022803 0.023014 -0.024174 -0.038983 0.042882 0.001006 0.027417 -0.000861 -0.010766 0.009839 -0.013690 -0.009180 -0.045179 0.061883 -0.038905 0.026867 -0.008198 -0.009647 0.004123 -0.020239 -0.040011 -0.021100 0.012644 0.063331 0.018021 -0.005808 -0.024475 -0.032162 0.019491 0.008571 -0.022498 0.087034 -0.007627 -0.008002 0.049253 0.013252 -0.053094 0.016479 -0.006787 -0.035969 -0.016429 -0.007008 -0.002559 -0.001191 -0.001172 0.041974 0.007447 0.023690 -0.022680 -0.024624 -0.069983 -0.023086 0.038863 0.002244 -0.007848 0.022134 -0.037646 0.015003 0.001988 0.029830 0.001765 -0.003379 -0.004686 -0.019579 0.025036 -0.014996 0.047879 0.024663 0.048739 0.032648 0.015100 0.033698 -0.042650 0.064196 -0.017022 -0.001817 0.015630 0.030563 -0.008083 0.059042 -0.009723 0.023409 0.008947 0.007339 -0.042300 -0.008057 -0.000518 0.021208 0.021754 -0.023043 0.021845 0.029219 0.008817 0.033175 0.003087 0.014000 0.003565 -0.057118 0.022747 0.067913 0.019861 -0.029559 0.023354 0.000616 0.004067 -0.014593 0.003032 -0.008838 0.015630 -0.016278 0.053232 0.016572 0.025724 -0.004714 -0.005996 -0.020027 0.013798 -0.000151 -0.007807 0.032172 0.004763 0.011033 -0.006253 -0.055177 -0.047486 0.006312 0.008793 -0.012825 0.037467 -0.033335 0.003338 0.026613 -0.020301 -0.008675 0.019535 0.012210 -0.045501 0.026004 -0.036957 0.031594 -0.014511 -0.027104 0.034209 0.011556 0.013805 -0.021221 -0.025026 -0.035448 -0.020209 0.020333 -0.043184 0.021101 0.020615 0.058274 0.011317 -0.034433 -0.065555 -0.035946 0.017253 0.026956 0.018165 -0.019866 -0.013760 -0.013651 0.014218 0.008277 -0.003574 -0.001196 -0.060167 -0.014887 -0.003444 -0.012764 -0.068687 0.009430 -0.055849 -0.018416 -0.007566 0.029806 -0.015239 -0.005898 0.050515 0.014443 -0.034318 0.036712 -0.013242 -0.006048 -0.030346 0.001661 0.012976 -0.023503 0.016340 0.005849 0.011292 0.003082 -0.036276 -0.018010 0.019843 0.017719 -0.025605 0.017717 -0.027276 0.006414 0.000562 0.020201 0.028698 0.020091 -0.000463 -0.024944 -0.006574 -0.013601 -0.050064 -0.016086 0.033482 -0.059798 0.038870 -0.040771 -0.020109 0.021597 0.046198 0.025192 0.030658 0.022358 0.033442 -0.025624 0.000641 0.036648 -0.018032 -0.027009 -0.006439 -0.022923 0.000909 0.027146 -0.010847 0.021499 0.009540 -0.022061 0.033228 0.032470
21 0.009228 -0.024730 0.064630 0.042756 -0.003757 0.017032 -0.051385 -0.003647 0.009015 0.024482 -0.040224 0.052705 -0.004739 0.041826 0.022940 0.007044 -0.052472 0.005857 0.033735 0.056894 0.012847 0.014137 0.078833 0.024800 0.027483 -0.038614 0.033851 -0.002461 0.011798 0.022804 -0.043737 0.024641 -0.034256 0.012121 -0.062476 0.007257 0.040974 0.000553 -0.045699 0.003892 0.005305 0.013292 0.033120 0.015479 0.010309 0.006045 -0.014233 0.005027 0.088559 -0.031219 0.036103 0.030136 0.002878 0.001494 -0.014792 0.003509 0.031271 -0.034846 0.006593 -0.007894 -0.032757 0.032501 0.052986 -0.000138 -0.035057 0.021517 0.009411 -0.013610 -0.071311 -0.027755 0.022207 -0.012528 -0.023301 0.031276 -0.014055 -0.016964 -0.014097 0.037574 -0.008503 0.006173 -0.032413 -0.028936 0.001207 -0.065178 0.053424 0.031051 0.000155 -0.021380 -0.008437 0.008231 0.031005 -0.002409 -0.014514 0.014495 -0.005697 -0.004284 0.006139 0.040034 0.034202 -0.052880 0.001880 -0.031067 0.033472 0.018890 0.006391 -0.014406 0.001186 -0.042614 -0.009595 0.026200 0.016856 0.006551 -0.023011 -0.018610 0.001373 -0.018987 0.024783 -0.043805 0.013874 0.026146 -0.000782 -0.007284 0.010052 0.020076 0.026582 0.056266 -0.019804 0.013778 0.037484 -0.029344 -0.013498 0.028967 0.007469 0.047326 -0.006442 -0.071526 0.001239 -0.025925 -0.001476 0.051543 -0.023855 -0.008568 -0.015349 -0.006443 0.004935 0.029179 -0.024209 -0.023278 -0.033696 -0.006718 0.007968 -0.003629 0.043215 -0.019271 0.012271 -0.004049 -0.001077 -0.000414 -0.019849 0.067464 -0.033214 -0.001632 -0.016820 0.030371 0.005953 -0.036384 -0.022086 -0.011522 0.004543 0.036582 0.043338 0.031271 -0.006298 -0.031540 0.013723 0.011714 -0.063740 0.058056 -0.007183 -0.000172 -0.003698 0.036500 -0.017713 0.005106 -0.014130 0.053867 -0.028595 0.005906 -0.028184 0.023085 0.059429 -0.019936 -0.006561 0.053841 -0.011827 0.018254 0.005531 -0.012492 -0.006430 -0.024114 -0.016437 -0.009394 -0.004210 0.019024 0.004163 -0.024023 0.046068 -0.006444 -0.017778 -0.032363 -0.036078 -0.036562 0.055518 -0.049696 0.014326 -0.033066 0.008432 0.007966 -0.013455 0.010128 0.016417 0.019198 -0.002001 0.021263 0.030668 -0.004919 -0.045283 0.012794 0.001401 -0.025118 -0.008101 0.005851 -0.035340 0.019472 -0.002281 0.046914 -0.059811 0.032457 -0.030394 0.031134 0.002377 0.012224 -0.022495 -0.026980 0.015388 0.013858 -0.010013 -0.023998 0.036278 -0.028223 -0.000473 0.006759 0.003003 0.003253 0.009812 -0.000111 0.045053 0.047664 0.006881 0.055194 -0.006964 0.007136 0.019791 0.013463 -0.008083 -0.010323 -0.014986 0.006901 -0.034487 -0.011549 -0.012164 -0.032250 0.003443 0.019980 0.000262 0.024950 -0.004883 0.013236 -0.007967 0.000609 0.013109 0.002105 -0.017041 -0.017932 -0.035539 0.007330 -0.034789 -0.015532 -0.047172 -0.009010 -0.012864 0.052957 0.025662 -0.004955 -0.006027 0.034506 0.012310 0.026494 0.001895 0.016345 -0.022591 -0.014771 -0.043648 -0.029576 0.000732 -0.008963 0.000092 0.011244 0.024683 -0.016106 0.051186 0.013942 0.007432 -0.017177 -0.016813 -0.024555 -0.029145 0.009915 -0.014156 0.015717 -0.030871 -0.043374 -0.012658 -0.043399 0.014030 0.022211 -0.001822 -0.018900 -0.006715 0.040520 -0.030862 -0.044221 -0.014862 -0.024477 0.028914 -0.037429 0.015569 -0.010044 -0.022502 -0.012997 -0.005415 -0.002523 -0.010585 0.011582 -0.027402 -0.009452 -0.011579 0.029555 -0.031908 0.011504 0.037810 0.022206 -0.006496 -0.027597 0.015202 -0.010244 -0.049690 0.000598 0.028003 -0.026324 0.002649 -0.060524 -0.001549 0.011486 -0.039545 0.031457 -0.021138 -0.010616 0.031603 0.028103 -0.033568 0.044462 -0.018141 0.003672 0.011999 -0.040979 0.000975 0.033879 -0.037061 -0.012675 -0.008754 -0.041623 0.019598 -0.010883
22 -0.017536 -0.001364 0.018871 0.022721 0.024173 0.011279 -0.031733 -0.004224 -0.040577 -0.007179 -0.006568 0.020405 0.032180 -0.030503 -0.033834 -0.045048 -0.025840 -0.013474 -0.001234 -0.030760 -0.033744 0.024579 0.019937 0.018143 0.018226 -0.075374 -0.004678 0.015876 0.011468 0.032244 -0.010349 0.015358 -0.017904 0.003471 -0.049998 0.026691 0.022713 -0.055921 -0.011812 0.007332 -0.006206 -0.008784 0.030669 -0.037944 0.028445 -0.010285 0.002979 0.000543 0.052886 -0.009433 0.027568 0.042927 -0.001991 -0.012886 0.033559 0.006293 0.005004 0.025260 0.016463 -0.013645 -0.061407 0.016565 -0.002013 0.000157 -0.034394 0.013925 0.028271 0.034274 -0.060280 -0.002191 0.039576 0.012833 0.014908 -0.018865 -0.010517 0.021961 -0.023893 0.006418 0.002354 -0.025794 -0.028364 -0.022087 -0.010591 -0.023555 0.024656 -0.026085 -0.017171 0.001302 -0.042410 0.012744 0.028866 0.021220 0.035958 0.017675 -0.035045 -0.003148 -0.015755 0.055986 0.010934 0.002339 0.010866 0.032580 0.030023 0.024535 -0.014777 -0.036090 0.014434 0.029828 -0.024227 0.040474 0.006933 -0.011887 -0.007319 -0.001561 0.016110 -0.023197 0.063303 -0.042465 0.048143 0.012347 0.019623 0.035625 0.041927 0.028504 0.022028 -0.003857 -0.016686 -0.000133 -0.003967 0.004335 -0.012803 0.026329 0.009453 0.023738 -0.016061 -0.022135 -0.008530 0.019328 -0.025565 0.028554 -0.002689 -0.009880 0.019397 -0.033065 0.001175 -0.023824 -0.008240 0.032708 0.011666 -0.005346 0.011819 -0.039779 0.020262 -0.019208 -0.034269 -0.031117 -0.023746 0.000416 -0.029155 0.012917 0.004641 -0.041366 0.018453 0.023935 0.014771 -0.038554 -0.038282 0.040894 -0.019808 -0.012020 -0.005908 0.014104 -0.015344 -0.015465 0.005755 0.025280 0.035818 0.009126 0.021659 0.015411 -0.002492 -0.008204 0.022063 -0.008337 -0.008821 0.021966 -0.001646 -0.011127 0.004770 0.016324 0.025396 0.031150 0.033618 0.014571 0.019757 -0.007605 -0.014988 -0.000646 0.019473 -0.028481 0.030738 -0.028349 -0.054960 -0.026027 -0.006150 -0.035788 0.035372 0.033657 0.053512 -0.059224 -0.011183 -0.004412 0.017048 -0.034421 0.024316 -0.050234 0.041958 0.027862 0.006316 0.005637 0.051422 -0.035854 0.025366 -0.021139 0.018838 -0.011103 -0.011269 0.012783 -0.019941 -0.062082 -0.012744 -0.015140 -0.010418 -0.038668 0.066604 0.001795 -0.032315 0.000772 -0.060543 0.024798 -0.011986 0.036662 0.010173 -0.020835 -0.017324 0.001798 -0.011135 -0.015310 0.041492 0.018778 0.010729 0.028964 0.003835 0.001116 0.014483 0.010405 0.039083 0.017294 -0.030276 -0.019667 0.007511 -0.027487 0.015444 0.044174 -0.016298 -0.006736 0.049017 -0.014633 -0.008565 -0.031642 -0.014752 0.003158 0.017066 -0.001828 -0.003151 0.030510 0.006902 0.009281 0.004329 -0.004410 -0.021320 0.021913 0.019814 -0.001182 -0.036189 -0.018618 0.010476 -0.013998 0.016499 -0.006977 0.011315 -0.040955 -0.015068 -0.056316 0.005506 0.045782 0.013244 0.016265 -0.024407 -0.010820 -0.048346 0.005219 -0.028473 -0.013285 -0.011911 0.023176 0.007095 -0.004739 -0.001460 0.028375 -0.026641 0.011803 -0.018256 0.009275 -0.045801 -0.048885 -0.026205 0.017576 0.020887 -0.005246 -0.033742 -0.061295 -0.043759 -0.017438 -0.020240 0.010570 -0.034976 -0.016804 0.037261 0.042633 -0.038228 -0.005424 -0.005482 -0.033871 0.001454 -0.008197 0.022335 0.002901 0.050992 0.014337 -0.035050 0.002695 0.000229 -0.033426 0.022013 -0.053318 -0.012483 0.061787 -0.012236 0.025310 0.047721 0.028183 -0.029022 -0.000690 -0.040682 0.042724 0.001076 -0.050320 0.002031 0.000984 -0.027712 0.011693 -0.041621 0.011651 -0.005956 0.019016 0.019225 0.037098 0.027788 0.006373 -0.016455 0.029942 -0.033524 -0.015714 -0.021814 -0.037040 0.032506 -0.001242 0.007984 0.046993 -0.019270 -0.036946 0.034381 0.011426
23 0.008624 0.017831 0.005302 -0.011117 -0.011383 0.065184 0.023388 0.043368 0.005751 -0.033788 -0.032120 -0.010724 0.003973 0.003253 -0.020520 0.010077 -0.027379 -0.042583 0.047882 -0.016457 -0.018808 -0.004888 -0.024739 0.000706 0.042531 -0.010279 0.008507 -0.000892 0.035412 0.031058 -0.021275 -0.036994 -0.028116 -0.001731 0.000481 0.024511 0.034306 -0.050108 -0.041070 -0.041709 -0.055463 0.017066 0.018510 -0.018049 0.056916 -0.051631 0.020792 -0.023760 0.060679 0.009564 -0.014917 0.020087 -0.004418 -0.006833 -0.022500 0.006559 0.011756 0.039981 -0.008454 -0.019751 0.007972 0.017926 -0.010150 -0.012668 -0.021656 -0.009114 0.046497 -0.022510 0.013843 -0.018080 0.043324 0.045993 -0.027492 -0.011035 0.021178 0.008206 -0.003181 0.009756 0.005621 -0.008575 -0.000979 0.021380 0.005799 -0.011237 -0.006191 -0.017274 -0.010249 -0.005560 -0.025161 -0.004028 0.011178 -0.013134 0.041859 0.013331 -0.003247 -0.022189 0.014974 0.017477 0.038028 -0.013740 -0.037019 -0.018649 -0.004847 -0.012230 -0.051810 -0.039639 -0.016369 0.052925 -0.026705 0.019990 0.042127 0.038593 -0.026516 0.009495 0.013717 -0.028662 0.007231 0.007804 0.034794 0.009364 0.002761 0.015719 0.046045 0.029522 0.041603 0.016879 0.013844 -0.020621 0.043189 -0.011405 -0.026790 -0.023163 -0.013453 -0.007746 0.049149 -0.022547 -0.012953 0.013062 0.031058 0.075497 0.043468 0.001033 0.017854 0.005975 0.050652 0.001224 0.024954 -0.003930 0.002454 -0.002112 -0.050024 0.006684 0.038680 -0.002336 -0.015089 -0.002793 0.001851 -0.003170 -0.007401 0.022316 -0.007045 -0.019991 0.002492 0.003835 0.032588 -0.046768 -0.002681 0.024289 0.023940 -0.029485 0.020980 0.007553 0.024006 0.027994 0.029263 0.009420 -0.000726 0.044587 0.007355 -0.036971 0.017438 0.003414 0.028742 0.026142 -0.039868 0.002617 -0.011170 -0.026399 -0.010877 0.003511 -0.003428 0.063987 -0.001120 -0.039786 -0.019148 0.047743 -0.029464 -0.032890 -0.018708 -0.032480 -0.001504 0.008994 -0.025512 -0.017007 0.013500 -0.027639 0.016438 -0.000793 0.011438 -0.055767 0.019651 -0.008577 0.018276 -0.037614 -0.051254 -0.028717 0.022380 0.018260 0.004281 -0.020179 0.042994 -0.011718 0.023305 0.014223 -0.016964 0.005391 -0.006440 0.028782 -0.020491 -0.011200 0.000711 -0.009446 -0.021307 -0.017812 0.025506 -0.050648 -0.002068 -0.026838 -0.045130 -0.008938 -0.009534 -0.008792 -0.012796 -0.058057 0.011030 -0.004522 -0.037545 0.034535 0.006527 0.035856 -0.026213 -0.034113 -0.007611 -0.000944 0.018570 0.007312 0.069493 0.041798 -0.017863 0.011591 0.010520 -0.036300 -0.015048 0.018306 0.010156 0.006306 0.026441 0.023429 0.019592 -0.003759 0.030316 -0.049273 0.039059 -0.039985 -0.004969 -0.033588 0.008075 0.007830 0.006061 -0.025490 0.012210 -0.005641 -0.006740 -0.024993 -0.034319 -0.022617 0.025691 -0.000650 -0.012005 -0.031039 -0.021291 0.020222 0.032350 -0.053965 0.004312 0.054010 -0.000666 -0.009471 -0.021257 0.020159 -0.027244 -0.043260 -0.034886 0.009434 -0.022021 -0.037007 0.013024 0.013439 0.030543 -0.023492 -0.035275 0.000885 0.015040 -0.019059 -0.033410 -0.029058 -0.007597 -0.019085 0.033375 -0.029694 -0.025679 0.016898 0.012838 -0.025445 0.027323 0.029703 -0.011322 -0.016555 -0.007444 0.047369 -0.017855 0.032655 -0.058039 0.010777 0.063332 -0.047875 -0.008913 0.016533 -0.013406 -0.018489 -0.075127 0.019113 0.010676 -0.022651 0.010359 -0.024210 0.011335 -0.013062 -0.022622 -0.004336 0.042811 -0.007344 0.001282 -0.003784 0.017307 0.031371 0.008728 -0.034081 0.005948 -0.005818 -0.034265 0.006524 0.000183 0.026157 0.001893 0.005481 -0.003973 0.035752 -0.014091 -0.007405 0.038983 0.000441 0.026137 -0.053876 -0.023660 0.001760 -0.009667 -0.016617 0.006882 -0.030380 0.014201 -0.025462 0.021275 0.021522
24 0.008638 0.024351 0.017000 0.020921 -0.033680 0.037004 0.031891 -0.016072 -0.035238 0.040277 -0.049779 -0.017092 0.009504 0.005472 0.035776 -0.034375 0.016331 -0.011972 0.010226 0.020429 0.011070 -0.030197 -0.005243 0.004676 0.007164 -0.030511 0.042164 0.016924 0.006593 0.026100 -0.001488 -0.037341 -0.040157 0.044593 -0.048367 0.049926 0.044487 -0.040897 -0.038793 -0.017499 0.009506 0.017106 -0.005066 -0.007591 -0.024937 0.019169 -0.025216 -0.038826 0.054526 0.002072 -0.022561 -0.011418 -0.007075 0.003696 -0.022356 -0.004054 -0.008390 0.005622 -0.006910 0.026542 -0.007790 -0.007222 -0.046334 0.010336 0.010569 -0.011472 0.006505 0.025794 0.019706 0.030127 0.001717 0.032829 -0.004973 -0.007242 0.055810 -0.045920 -0.022976 0.028268 -0.017738 0.027191 0.019138 0.027251 -0.005809 -0.017205 0.021373 -0.028531 0.010117 -0.018665 -0.003468 0.028662 -0.028425 0.044688 0.018895 0.025283 0.045507 0.016921 -0.028401 0.005414 0.008540 0.005176 0.011512 -0.028283 0.032074 -0.023004 -0.030669 0.054089 0.002892 -0.033233 0.000065 -0.025023 0.040236 -0.003161 -0.008678 0.053940 0.069123 -0.013367 -0.047678 0.031810 0.017892 0.016376 0.023097 0.015488 0.043261 0.025632 0.005481 0.003134 0.010204 0.003692 -0.017552 -0.026143 -0.005391 0.005803 0.001599 0.024738 -0.006059 -0.004953 -0.029851 0.003073 -0.003449 0.064395 -0.016087 -0.000867 -0.002210 -0.021664 0.021795 0.017548 -0.030496 0.016638 -0.013796 0.007328 -0.017225 -0.022123 0.027898 -0.030239 -0.052516 -0.004874 -0.036835 0.016971 -0.016509 0.003869 0.000597 -0.018033 -0.010445 0.048904 0.011579 -0.026874 0.028150 0.004747 0.007441 -0.006779 -0.025146 0.011074 0.010774 -0.004698 0.036399 -0.024584 0.009859 0.066007 -0.005462 -0.000194 0.005150 -0.000753 0.011765 0.036902 0.000829 0.038033 0.008232 0.021679 -0.025143 0.041864 0.008162 0.056341 0.020664 -0.020088 -0.013702 0.029868 -0.015536 0.002074 -0.005810 -0.051544 0.009492 0.023220 0.021412 -0.001676 -0.037059 0.004290 -0.040058 -0.017775 0.010147 0.004749 -0.007290 0.005807 -0.041847 -0.038161 -0.023643 -0.054693 0.003021 -0.012999 -0.008001 -0.020366 0.012065 -0.001826 0.022979 -0.011673 -0.032350 -0.024257 -0.057376 0.011792 -0.012090 -0.021063 -0.002630 0.025868 -0.025188 -0.004774 0.010495 0.002169 0.012948 0.005344 -0.022924 0.014124 0.018331 -0.013724 -0.058692 -0.052001 -0.004147 0.003634 -0.021985 0.039663 0.028971 0.008055 -0.039900 -0.004865 0.000494 -0.018664 -0.000334 0.025755 0.031426 -0.000774 -0.020184 0.046675 0.011816 -0.014927 -0.034984 0.033510 -0.006581 0.026332 0.024541 -0.010176 0.020534 0.001056 -0.009383 0.010644 -0.005307 0.006825 -0.012458 0.018264 0.021109 -0.003625 0.019476 0.020543 0.005469 0.017525 -0.009618 -0.034704 0.024100 0.001873 0.025933 -0.021152 -0.005270 -0.001484 -0.046629 0.001542 0.010296 -0.018420 -0.068929 0.059166 -0.013067 0.033239 -0.061185 -0.036604 -0.039373 -0.029338 0.008982 0.045472 0.005548 -0.003571 0.048100 0.058440 0.011195 0.015663 -0.023260 0.010453 0.013564 0.013111 0.031549 -0.029122 -0.018102 -0.064022 -0.018155 -0.050045 -0.030291 0.054878 -0.027168 -0.052284 -0.028585 0.005249 0.001689 0.027994 0.018101 0.034497 -0.013054 -0.011055 0.002237 0.020245 0.012578 -0.045734 0.028056 0.016549 0.012304 -0.025021 -0.021329 -0.036630 0.004335 -0.037055 -0.003265 -0.005389 0.002040 0.023774 -0.003812 0.012011 0.023832 0.008647 0.022979 0.011004 0.025570 0.006578 0.018096 0.012549 0.003274 0.012833 -0.050110 0.001473 -0.006355 0.021035 0.000198 0.017348 -0.038493 0.032783 -0.030736 0.005594 -0.024718 0.018702 -0.058401 -0.016993 -0.006188 -0.002946 0.006894 -0.035404 0.047699 -0.065251 0.038257 -0.029390 -0.040079 -0.026587
25 -0.006950 0.052998 0.011250 0.015984 -0.003814 0.021525 0.010315 0.044858 0.020714 0.017174 -0.033794 -0.037208 -0.022166 -0.018962 0.020283 0.007997 -0.000747 -0.000855 0.017943 -0.009783 0.003979 -0.001033 -0.017467 -0.036458 0.019939 -0.030658 0.015159 -0.007531 0.005447 0.037625 0.007463 -0.015636 0.019534 0.057278 -0.019413 0.029933 0.032479 -0.043600 -0.008601 -0.002243 0.032177 -0.023631 0.019996 -0.024759 0.025800 -0.003154 -0.015539 -0.018024 -0.001668 0.042414 -0.010847 0.026432 -0.022636 0.021969 0.004877 -0.004981 -0.020595 0.053056 0.014245 0.019212 -0.034914 0.041521 -0.036291 0.024706 0.060781 0.014454 0.029115 0.025334 -0.000947 0.020391 -0.023652 0.022757 -0.037481 0.013664 0.022716 -0.026832 0.022451 0.053735 0.024671 -0.012632 -0.008493 -0.051681 0.027139 -0.016397 -0.017164 -0.019102 -0.020511 -0.037421 -0.022490 0.013362 -0.034438 -0.006480 0.019318 0.033647 0.003398 0.017876 0.024084 -0.003565 0.020329 0.033705 -0.017773 0.005515 0.027177 -0.022747 -0.011962 0.000301 0.032034 -0.003222 0.006880 -0.037558 0.057443 -0.000810 -0.026687 0.025940 -0.029693 -0.006909 0.021465 0.028301 0.012759 -0.026273 0.039097 0.018019 0.056436 -0.014288 0.017634 0.031404 0.046897 0.013516 -0.013335 -0.001869 0.018906 -0.024501 -0.006085 -0.061058 -0.009547 0.043513 -0.033741 -0.020899 0.020117 0.042944 -0.028391 -0.017225 -0.016892 0.040778 0.043854 0.024485 -0.005176 -0.000986 -0.021095 0.022384 0.000900 0.007407 0.003335 -0.023571 -0.011311 -0.007052 -0.023173 0.012710 -0.034708 -0.011533 0.018017 -0.013233 -0.010900 0.004856 0.019308 -0.025872 0.017620 -0.002280 0.002388 -0.045436 -0.029336 0.024887 0.014228 0.026769 0.025271 -0.027147 0.043392 0.060476 -0.004307 -0.001273 0.001561 -0.035773 -0.002060 0.022386 -0.013956 0.014529 0.042494 0.016689 -0.013040 -0.027331 0.013753 0.036649 -0.013123 -0.029209 -0.005561 -0.013053 -0.018903 -0.025653 0.003780 -0.038921 -0.036945 0.048884 -0.002802 -0.049686 -0.061979 -0.007604 -0.042389 0.032454 0.065450 -0.010104 0.016559 0.007922 -0.032692 -0.016910 -0.020972 -0.053150 -0.042869 -0.048370 0.000827 0.037059 -0.021946 0.005491 -0.004254 -0.032718 -0.028414 0.008959 -0.041478 -0.046673 -0.047777 0.037857 -0.011579 0.000675 -0.042729 -0.034716 -0.001802 -0.002294 0.042123 0.005761 0.000195 0.007891 -0.000866 -0.033045 0.001889 -0.036928 -0.028525 0.012066 0.025782 -0.013421 -0.001418 -0.005647 -0.019070 0.022173 -0.005492 -0.021570 0.006173 -0.027141 0.010888 -0.022130 0.027217 0.000610 -0.018881 -0.041364 -0.050532 0.039135 -0.015895 0.010812 0.047058 0.005717 -0.019161 0.005612 -0.026034 -0.060726 0.011130 -0.020483 -0.035295 0.048219 0.028731 -0.006164 0.019202 0.014928 0.028826 0.015728 -0.002601 -0.020879 -0.006041 -0.016990 0.034108 -0.028824 0.002146 0.009316 -0.030730 -0.017721 0.035106 -0.016433 -0.002061 0.000287 -0.002555 0.011589 -0.043659 -0.022773 0.007493 -0.025141 -0.038522 0.039008 0.011852 -0.008718 -0.005558 -0.033477 0.040767 0.022195 -0.047615 0.032779 -0.051676 0.025498 0.004161 -0.025540 -0.041642 -0.026550 0.040876 -0.008168 -0.053178 0.012950 0.000103 0.008590 -0.015810 0.007518 0.027156 0.028759 0.079527 -0.001008 -0.000604 0.027081 -0.004300 -0.001408 -0.008773 0.014729 -0.065435 0.035203 0.050794 0.004548 0.008660 -0.025116 0.014377 -0.032915 -0.000901 0.003133 -0.030223 0.024283 -0.030935 -0.014383 0.040388 0.013370 0.020606 -0.022110 -0.017683 0.002218 -0.048988 -0.004124 -0.034713 -0.015953 -0.032202 0.022425 0.021833 0.029175 0.002959 0.042242 0.006370 0.005096 -0.022131 0.011630 -0.035300 -0.004473 -0.019923 -0.028368 0.024097 -0.016050 -0.003390 -0.002547 0.025618 -0.006832 0.048907 0.029047 0.010574 0.010989
26 0.034119 0.015465 0.057765 0.022623 -0.025618 0.015749 -0.003738 0.000249 0.024753 0.039886 -0.023013 -0.008529 -0.022023 -0.053609 0.036062 0.018983 0.016083 0.025973 0.015979 0.003395 0.001309 -0.037128 -0.031869 0.012331 0.028730 -0.026097 0.017588 -0.015187 0.002365 0.014438 0.013355 -0.006340 -0.012803 0.026586 -0.020050 0.064803 0.011195 -0.027761 -0.002162 0.001916 0.016412 -0.018093 -0.000666 0.035510 -0.011060 0.016695 -0.015447 -0.032368 0.024056 0.027064 -0.006350 0.014898 -0.034070 -0.025377 -0.028114 -0.051262 -0.043016 0.014556 0.028021 0.030585 0.035112 0.020536 0.025126 0.007126 0.003097 0.000171 0.042674 0.043265 0.038118 0.020112 -0.059973 -0.048364 0.005074 -0.018595 0.007258 -0.050985 0.002591 0.025483 0.019472 0.031899 0.003978 -0.059831 0.012763 -0.014151 -0.009370 -0.012445 0.021305 0.007508 0.035329 -0.012910 0.004109 -0.024779 0.033686 0.044701 0.016552 0.041817 -0.007643 -0.008722 0.017129 0.062864 -0.003382 -0.053120 -0.010161 -0.012926 -0.042745 0.035090 -0.034151 -0.024585 -0.041445 0.028649 0.009159 0.010918 -0.031946 0.060759 0.025108 -0.030890 -0.003475 0.005249 0.011132 -0.062550 -0.025248 0.005819 0.009156 0.023437 0.008769 0.033949 0.041911 0.021730 -0.032396 0.024463 -0.001105 -0.017682 -0.042649 -0.011235 -0.012967 0.016910 -0.018686 -0.007600 0.039250 0.015173 -0.043684 0.002450 -0.053359 0.023192 0.023315 -0.039918 -0.032065 -0.020181 0.001246 -0.038952 -0.000759 -0.020323 -0.022370 0.037069 0.016047 -0.028216 0.011295 0.040207 -0.031262 -0.010633 0.009502 0.032061 -0.058330 0.014840 0.015650 -0.030724 -0.005945 -0.023237 0.030177 0.042267 0.004642 -0.058229 0.041100 0.018780 0.018520 -0.014852 0.019682 0.061622 0.016197 -0.006967 -0.058574 0.003739 -0.018261 0.006937 -0.032256 -0.011606 0.001630 0.018729 -0.022735 -0.038461 -0.023587 0.045495 0.014083 -0.038839 0.020628 0.042400 -0.032106 -0.016070 -0.029428 -0.029959 -0.021080 0.030849 -0.019255 -0.008991 -0.015899 -0.010086 0.021381 -0.016076 0.002936 0.011079 0.022593 0.004146 -0.000799 -0.023620 0.000999 0.000787 -0.037580 -0.000525 -0.014725 0.018845 0.025803 0.023955 -0.002332 -0.031593 -0.042380 0.055178 -0.045592 -0.049462 0.001159 0.035332 0.033972 0.069208 -0.019231 -0.011992 0.031267 0.006177 0.011546 0.020296 -0.003440 -0.029122 -0.000043 0.041567 -0.002329 0.007042 0.011299 -0.001622 0.033654 0.036643 -0.025517 0.018314 -0.007900 -0.027066 -0.029658 -0.052068 0.015443 -0.028923 0.018503 -0.012103 -0.000535 0.001608 0.010647 0.010370 -0.002550 -0.029875 -0.004549 -0.063961 0.022579 0.018183 0.023786 -0.024561 0.036566 -0.023145 0.015601 0.014666 -0.014026 -0.006323 0.005400 -0.011218 -0.006515 -0.013998 0.036004 -0.042718 -0.004162 -0.032936 -0.007878 -0.047517 0.012897 -0.067114 0.014934 0.028422 0.039498 0.006688 0.041375 0.012344 0.020984 0.050654 -0.032961 0.004319 0.019507 -0.008332 -0.001030 -0.003020 -0.001096 0.005645 -0.035920 -0.020782 -0.003824 0.008899 0.036473 -0.046581 -0.015003 0.015022 0.003275 0.022423 -0.014212 -0.021112 -0.001568 -0.022556 -0.002265 0.009383 -0.000155 -0.010430 0.024737 0.017935 0.027823 -0.003430 0.000260 0.020441 0.044393 -0.001556 -0.019116 0.004540 -0.025826 0.013477 -0.022808 -0.003839 -0.000214 0.040691 -0.002643 -0.018603 -0.057563 0.014420 0.018249 -0.055906 -0.015283 0.023446 -0.021235 -0.013248 0.018135 0.005231 0.044479 -0.026426 0.007226 -0.033548 -0.000573 0.031476 -0.030358 0.005294 -0.028944 -0.031739 0.012368 0.023177 -0.014492 0.022133 0.017548 0.005768 0.010058 -0.005211 0.011087 0.058042 -0.010734 0.008770 0.007072 0.029608 -0.003775 -0.002594 0.041196 -0.027892 -0.018130 -0.021302 0.022360 0.012343 0.033401 -0.010254
