32 384
0 -0.015219 -0.004427 0.011200 -0.009489 -0.018044 -0.029984 0.011875 -0.030699 0.050834 0.000818 0.412973 0.005110 0.048271 0.008936 -0.020231 -0.001143 -0.003556 0.049200 -0.005347 -0.059902 -0.020265 -0.045098 -0.027141 -0.041128 -0.046430 -0.012084 0.021098 -0.065674 -0.004750 -0.006085 -0.034218 0.007380 0.019024 -0.005598 -0.021051 -0.009686 0.072079 -0.061542 0.052363 -0.004006 -0.037099 0.000214 -0.055676 -0.017597 0.008182 -0.030413 0.037101 0.010278 0.003088 -0.054185 -0.014284 -0.022424 0.021792 -0.015625 0.098506 -0.071369 0.032831 0.031359 0.052349 -0.000590 0.056116 -0.028125 0.041502 0.014939 -0.041757 0.024306 0.013253 0.037101 -0.051904 -0.032415 0.033010 0.015122 0.075984 -0.022832 0.038338 0.077454 0.007886 -0.026965 0.011260 -0.015891 0.030470 -0.034535 0.008076 -0.053324 -0.006436 -0.003182 0.024305 -0.061365 0.013456 -0.013154 0.014387 -0.039211 0.002272 0.027481 -0.035710 -0.036357 -0.008921 -0.065967 -0.011630 -0.013180 -0.001201 -0.016059 -0.020035 0.013001 -0.001013 -0.007169 -0.038889 0.015896 0.024532 -0.007099 0.047821 -0.044288 -0.034065 -0.035228 -0.017773 -0.022552 -0.013359 0.043444 0.046949 0.025515 -0.041448 -0.052216 -0.013193 -0.018886 0.015332 0.003478 0.038152 -0.032216 -0.003975 0.037080 -0.027158 0.008591 -0.024036 0.006323 0.013241 0.019302 0.015908 -0.005236 -0.022469 -0.006398 0.020292 -0.055143 -0.016996 0.023241 -0.010183 0.004249 0.002666 0.038998 -0.005143 0.009583 0.005888 -0.008126 0.022694 0.052098 0.008059 -0.059649 -0.033649 -0.016037 0.001333 -0.002868 -0.038063 0.010294 0.008607 0.036951 0.022608 -0.025036 -0.073732 -0.015279 -0.013388 0.006767 0.035392 0.004595 0.010285 0.010564 -0.014350 -0.018152 -0.016803 0.010507 -0.066546 0.053841 0.024294 -0.001478 0.057208 -0.005631 0.001119 0.024592 -0.005505 -0.004481 -0.029521 0.016198 0.019424 -0.006161 -0.037134 -0.033292 -0.013751 -0.016827 -0.044617 -0.003507 -0.049236 -0.016143 0.007041 0.027261 -0.020012 0.044169 0.003929 -0.001830 0.016995 0.031868 -0.056128 0.002500 -0.025881 -0.027345 0.032607 -0.021817 -0.015209 0.017436 0.008613 -0.069983 -0.001107 0.000510 0.000657 0.067237 -0.008063 -0.007204 -0.063281 0.063397 -0.010633 -0.011427 0.000516 -0.006315 -0.003722 -0.023702 -0.050284 0.006260 0.000786 0.002168 0.017810 0.014109 0.006200 0.019943 0.013360 0.015327 0.045181 0.018748 0.017974 0.047262 -0.010559 -0.015600 0.038031 0.011808 0.008312 -0.055039 -0.033353 0.023880 -0.034243 -0.013735 -0.066110 0.061855 0.001319 -0.016086 0.039396 0.021757 -0.035882 0.020167 -0.001178 0.019567 0.022652 0.003950 -0.008351 0.038122 0.043544 0.026878 0.024546 -0.000763 0.019726 -0.011156 0.041615 0.007191 -0.059504 0.100834 0.010829 -0.027650 -0.008703 -0.013482 -0.002770 0.015967 0.030346 0.035841 -0.004965 0.002897 -0.005123 -0.057700 0.031991 0.015725 -0.005433 0.029656 -0.037471 0.027496 0.073110 0.045084 -0.048784 -0.002273 0.015732 0.015166 0.016185 -0.000954 -0.025924 -0.036032 0.002538 -0.018603 -0.026696 0.009496 0.030084 -0.005934 -0.009874 -0.041366 -0.012505 0.013177 -0.015700 -0.015009 0.014412 -0.001282 0.009300 0.036641 0.046772 0.002289 -0.008035 -0.024321 -0.018476 -0.044902 -0.006607 -0.018530 -0.004075 -0.007426 0.018626 0.013995 0.009503 0.014674 -0.010916 -0.007848 -0.044103 0.029816 -0.008347 -0.029689 0.033027 0.000902 -0.013091 -0.038845 0.017431 -0.001057 -0.020348 0.002175 0.055507 -0.008588 -0.011827 0.015147 0.013212 0.013542 -0.007217 0.016398 0.018984 -0.000572 0.097625 -0.005488 0.013718 0.005862 -0.053268 0.008064 0.036788 -0.019694 0.002452 -0.049772 -0.037991 0.027782 -0.006512 0.033019 -0.026792 0.037322 0.066062 -0.067080 -0.053766 0.193193 -0.003757 0.019107
1 0.023287 -0.031482 0.024998 0.015674 -0.011717 0.001035 -0.032670 0.010772 -0.037664 0.043314 0.028933 0.015267 0.028861 -0.012081 -0.000460 0.003734 0.016863 0.000104 -0.010994 0.005856 -0.022733 -0.012136 -0.008881 -0.000079 0.005910 -0.044789 -0.001804 -0.007612 0.044203 0.012066 0.007416 0.007438 -0.006631 0.033570 -0.014734 0.018642 0.031316 -0.022337 0.019826 -0.007420 -0.023631 0.045076 0.043567 0.000272 0.033775 0.079501 0.000613 0.031383 -0.026735 -0.025709 -0.013334 -0.015587 -0.036485 0.025787 0.048120 -0.027237 -0.005262 0.014726 -0.009707 -0.004062 0.034207 0.011451 -0.005725 -0.028208 -0.015604 0.013713 -0.029983 0.006437 0.010356 -0.005251 -0.023618 0.012314 0.011406 -0.039689 0.021451 0.028293 0.029610 0.018825 0.012056 -0.055527 -0.028729 -0.029880 -0.026809 0.010172 -0.011484 0.004049 -0.015482 -0.030589 0.018355 -0.000022 0.001681 -0.010446 0.049597 0.001497 0.005937 -0.002511 -0.012642 -0.013069 -0.018015 0.029478 -0.005799 -0.027263 0.034496 -0.029028 0.055539 0.001102 -0.019787 -0.002894 0.009883 -0.019229 -0.032116 -0.008963 -0.011274 -0.029268 -0.021666 -0.028426 0.011280 0.016244 0.008588 -0.016936 0.009246 0.029385 0.001773 -0.034877 0.008558 0.019435 -0.005267 -0.035735 0.011989 0.008602 -0.005061 0.070231 -0.040811 -0.030422 -0.004608 0.009044 0.029108 -0.009990 -0.011104 -0.019843 -0.008015 -0.019129 -0.008795 -0.009211 -0.029686 0.011349 0.008242 0.052239 -0.044724 -0.037742 -0.013900 0.027400 0.011391 0.027024 0.036237 0.025304 0.016022 -0.024291 -0.021643 -0.008649 -0.007249 0.043513 -0.021444 -0.000118 0.012028 0.010769 0.003522 -0.022935 0.025749 -0.000211 0.000977 0.013096 -0.004681 0.003110 -0.007794 -0.001426 -0.017936 -0.005578 -0.005146 0.036257 -0.011411 -0.013166 0.031944 -0.027296 0.027359 -0.024472 0.021939 -0.024110 -0.025676 0.019562 -0.024150 -0.012011 -0.025002 0.022333 -0.013066 -0.007199 -0.045558 -0.017472 -0.028388 0.006403 0.024881 0.015702 -0.038811 0.038869 0.017206 0.006522 -0.004660 -0.010861 0.002805 -0.014978 0.023466 0.033332 0.042449 0.005013 0.008565 0.015896 -0.009265 0.000370 0.011185 0.022959 -0.023146 0.005451 -0.007585 0.031063 -0.019680 -0.021464 -0.054178 0.007729 0.016310 -0.029543 -0.006751 0.000888 -0.025585 -0.011748 0.008024 0.008334 0.048929 0.005601 -0.006914 0.040671 -0.003003 -0.004175 -0.010021 -0.031209 0.016221 -0.001232 0.024692 -0.000053 0.058142 -0.012215 -0.025609 0.037368 -0.006597 0.002708 -0.038616 -0.014505 0.035761 0.009212 0.043390 0.004528 -0.021494 0.010838 0.020796 -0.012077 -0.011409 -0.016968 -0.001933 0.038663 -0.021508 0.010493 0.058336 -0.007055 -0.012518 0.002940 0.012043 -0.029370 -0.065256 0.021200 -0.014979 -0.008541 -0.026070 -0.000572 0.004154 -0.009499 -0.022957 -0.015858 0.001119 0.011638 0.024610 -0.003669 -0.021468 -0.004570 -0.014749 0.004617 -0.015532 0.001374 -0.018426 0.016336 0.000809 0.033657 -0.034232 -0.017482 -0.013033 0.006581 0.014184 -0.038451 -0.020227 -0.029503 -0.013256 -0.030724 0.032424 0.006692 -0.003852 0.015617 0.013651 0.032720 -0.015100 0.033440 -0.045702 -0.008029 0.013071 0.003226 -0.044520 -0.013787 -0.013188 -0.007599 0.008335 0.013797 -0.005796 -0.012867 0.032980 -0.001868 0.002517 -0.022415 -0.010453 -0.010734 -0.000018 -0.012700 0.020682 -0.002298 0.010960 -0.015553 -0.014474 -0.004945 0.054885 -0.017365 0.011228 -0.009708 0.050852 0.023035 -0.017948 0.004903 -0.014974 0.013005 -0.028709 0.037840 -0.039049 0.022878 0.005633 0.015449 -0.032091 0.005178 -0.002181 0.034551 0.000906 0.059491 -0.040616 0.015022 -0.024807 -0.051330 0.001052 0.000568 0.019673 -0.008738 0.001454 -0.020580 0.013295 0.003156 0.022497 -0.029966 0.006392 0.026290 -0.014538 0.014216
2 -0.011256 0.023169 0.011111 0.002158 -0.008075 0.007370 -0.023225 0.005539 -0.010822 0.003239 0.005393 0.008773 0.016177 -0.035204 0.017140 -0.013006 -0.027120 -0.035898 0.020470 -0.016845 0.026019 0.023367 -0.023041 -0.033465 -0.002606 -0.022278 0.006319 0.013420 0.026292 0.021634 0.004027 -0.015775 -0.000757 -0.008062 -0.016409 0.015041 -0.010135 -0.015387 0.002320 -0.041707 0.003052 0.023691 0.027479 -0.015131 -0.031130 0.031298 0.034923 0.041021 -0.014472 0.005824 0.003267 -0.010370 -0.006446 -0.004461 0.030023 -0.017070 -0.025266 0.008646 -0.039338 0.011695 0.025116 -0.016744 -0.003544 0.010259 0.007639 -0.038184 -0.020445 -0.001923 -0.017762 -0.029726 -0.015522 -0.004965 0.007908 -0.003102 0.008887 -0.017842 0.027675 0.017649 -0.015891 -0.001449 -0.016431 -0.009294 0.037942 0.026368 0.004637 -0.006868 0.005941 -0.013098 -0.016871 0.022557 -0.011985 -0.012739 0.014652 -0.026475 0.002681 -0.009129 -0.019207 -0.025504 0.008387 0.053834 -0.003650 -0.014091 0.004775 -0.014937 -0.001562 -0.016707 -0.033075 0.013334 0.036742 0.015535 -0.005384 0.016256 0.010413 0.013275 -0.038523 -0.026431 -0.044294 -0.009787 0.001858 -0.003642 0.020083 0.041461 0.003861 0.018245 0.014901 0.006116 0.014845 -0.037403 0.018496 -0.004009 -0.015833 0.031803 -0.003368 -0.012755 0.006822 0.019620 -0.004389 -0.035403 0.006597 0.017762 -0.033173 -0.029939 -0.003197 -0.028632 -0.033602 -0.003027 0.018061 0.069896 -0.017959 0.011498 0.030047 0.026340 0.017244 0.030498 0.006579 -0.008800 -0.003646 -0.021465 -0.036920 -0.015345 0.005610 0.007248 0.002430 -0.034247 0.012805 -0.002852 -0.005829 -0.000927 0.020786 -0.040191 0.020094 -0.010751 0.016046 -0.006591 0.017549 0.007408 -0.011000 -0.012507 -0.019838 0.025859 -0.004426 0.010481 0.044020 0.022664 0.009817 -0.028911 0.006202 0.009944 -0.010420 0.016990 -0.013134 -0.004406 -0.023122 0.033241 -0.007255 0.017829 -0.014189 0.022870 -0.008140 -0.015841 0.033011 0.010137 -0.034701 0.007027 -0.005514 0.003228 -0.026474 0.011395 -0.030915 0.034615 -0.049640 -0.018685 0.048075 0.018914 -0.006969 -0.002430 0.009158 -0.014503 0.013058 -0.017555 -0.006059 0.018557 0.010948 0.018106 -0.023518 -0.006775 -0.058798 -0.036334 0.002179 -0.021116 -0.006158 0.019187 -0.007318 -0.008686 -0.021211 -0.014396 0.024633 0.012345 -0.021725 0.016415 -0.013167 -0.008333 0.025927 0.024960 0.000761 0.003733 0.031284 -0.013414 0.032814 -0.009899 -0.016255 0.011868 0.011970 -0.001273 -0.019203 -0.006682 0.011500 0.031386 0.027018 0.003964 -0.001204 0.002389 -0.022642 0.038499 0.003549 0.004454 0.015804 0.042477 -0.006005 -0.002879 0.023662 -0.029558 -0.011096 0.003132 -0.005839 -0.008349 -0.014408 0.010946 0.005795 0.013912 0.006229 0.019780 -0.000148 0.019073 -0.008964 -0.009085 0.014844 -0.004338 0.009673 0.023679 0.014237 -0.000116 0.005468 -0.004778 0.037771 -0.020095 -0.040889 -0.004791 -0.003654 0.021093 -0.021478 0.003906 -0.008676 -0.012220 -0.003298 -0.002079 0.009087 -0.071377 -0.014437 0.003468 -0.028428 -0.002845 -0.044158 0.000110 -0.001489 0.025178 -0.006445 0.037647 -0.039083 -0.018181 -0.016432 -0.000111 -0.010652 -0.028732 0.011839 -0.010344 -0.001216 0.007068 0.024074 0.021287 0.025018 -0.023114 0.015759 -0.009672 0.008881 -0.008826 -0.001302 0.015604 -0.009971 0.006505 0.014119 -0.012957 0.013120 0.004429 0.001816 -0.005666 0.001931 -0.010983 0.013777 0.007380 -0.028895 0.006325 0.009744 0.019077 -0.051391 0.005105 0.003391 0.017282 -0.013454 0.038243 -0.025656 0.010961 0.009101 0.015199 -0.003141 0.026622 -0.031740 0.003605 0.015397 -0.026880 0.012378 0.013789 0.000586 0.005528 -0.001890 -0.038439 0.015755 -0.011707 0.040827 -0.030282 0.017224 -0.013358 0.013677 -0.027366
3 -0.016728 -0.001748 -0.007078 0.017313 -0.002262 0.022950 -0.001821 -0.015677 -0.007170 0.039494 -0.038055 -0.006274 0.002185 -0.020899 0.014690 0.005005 -0.009814 -0.007547 0.004024 -0.020729 0.001930 0.011861 0.015268 0.007037 0.041427 -0.011227 -0.015194 -0.026125 0.009718 -0.018644 -0.025296 -0.008715 0.030472 0.014635 -0.000352 0.004071 -0.014838 -0.025728 0.013319 0.010855 -0.034005 0.007301 0.003270 -0.029739 -0.009284 -0.004378 0.009219 -0.006606 -0.031078 0.019115 0.002846 -0.023054 -0.001595 0.037795 0.043260 0.009297 -0.017312 0.011636 -0.031282 0.005649 0.036561 -0.035251 0.006195 0.010240 0.000355 -0.011559 0.007736 -0.032435 -0.018307 -0.004292 -0.005528 0.003112 0.024009 0.003269 -0.004619 0.007556 -0.011494 0.022518 0.018979 0.009310 0.019850 -0.019040 -0.002729 0.011800 -0.013270 0.003950 0.009374 0.001664 -0.003111 0.019096 -0.009539 -0.036582 0.033457 -0.003927 -0.008903 -0.028381 -0.017209 -0.013995 -0.005948 0.052803 0.025205 0.022510 -0.013203 -0.001243 0.007488 -0.011453 -0.047628 0.009146 -0.002866 0.043227 0.008344 -0.036457 0.009823 0.002353 -0.025582 -0.003861 -0.015357 0.001576 -0.015347 -0.002053 0.008323 0.030121 -0.033625 0.021642 0.005288 -0.010926 -0.013588 -0.021566 0.016599 -0.006154 -0.021587 0.013300 -0.019979 -0.011362 0.001019 0.020393 0.014954 -0.019505 0.003167 0.023556 0.012128 -0.017920 0.014221 -0.007224 -0.032483 -0.013641 -0.040374 0.050728 -0.017490 -0.017680 0.013671 -0.008397 0.005913 -0.004264 -0.000821 0.035226 0.040824 -0.038443 -0.009762 -0.001271 -0.024382 0.027998 -0.011497 -0.029468 0.050259 0.009701 -0.018062 0.000514 0.000333 -0.015276 0.008563 -0.017593 -0.039797 0.023060 0.007155 -0.013680 0.012761 0.008473 -0.024044 0.035803 -0.012099 -0.013383 0.016685 -0.004596 0.003558 -0.018308 0.010522 -0.024460 0.009789 0.019503 -0.001036 -0.000628 -0.003499 -0.025566 -0.029129 -0.004626 0.017030 -0.006535 0.014622 -0.003304 0.003594 0.026136 -0.023007 0.006971 0.008677 0.007298 -0.026700 0.004933 -0.013274 -0.000878 0.009212 -0.022356 0.009234 -0.015146 -0.004768 -0.031559 0.009864 0.002132 -0.008588 -0.035926 -0.027481 0.006417 -0.010044 0.012383 -0.018673 -0.009116 -0.073770 0.001802 -0.014184 -0.006791 0.022573 0.005068 -0.039717 0.022986 -0.009746 0.006820 -0.002943 -0.002824 -0.003214 0.029480 -0.014840 0.000171 0.018046 0.010020 -0.014682 -0.004295 -0.011342 0.003044 0.010418 0.003964 -0.003381 0.002346 0.009563 -0.006047 -0.004111 -0.003159 -0.002508 0.010470 0.012750 0.027836 -0.002255 0.011108 0.005259 0.014017 -0.037158 0.013974 0.008395 0.033211 0.028363 0.027648 0.009386 0.003979 -0.009920 -0.017730 0.016369 -0.015485 -0.029002 0.020861 0.012897 0.022518 0.012434 0.007810 -0.012357 0.004006 -0.006323 0.003147 -0.007492 -0.023678 0.021723 0.018109 0.010175 -0.021537 -0.026230 -0.031545 0.007334 -0.004393 -0.006824 -0.011577 0.027444 0.013628 -0.019734 -0.006340 -0.007534 0.006257 -0.006337 0.020352 -0.004091 -0.039218 0.019577 -0.000084 0.004440 0.011500 -0.036505 -0.009411 -0.003629 -0.031712 -0.007997 0.006712 -0.033931 0.002548 0.003452 0.025554 -0.028705 0.006457 0.021797 0.020350 0.003499 -0.000133 -0.021813 -0.006189 -0.020374 -0.005777 0.009186 -0.005484 0.012629 0.042068 0.010208 -0.006573 -0.037251 0.027308 -0.012205 0.002452 0.000504 0.006875 0.030334 -0.034570 0.018721 0.003786 0.004874 0.001109 -0.021530 0.015132 -0.041548 0.028556 -0.024435 0.011156 -0.016133 0.039024 0.019345 0.039082 0.011836 0.021400 -0.021299 0.007674 -0.003095 0.058548 -0.012121 0.027414 -0.002445 -0.014877 0.020889 0.023054 0.001561 0.021079 0.009051 0.008854 -0.008298 -0.014887 0.002921 -0.017695 0.006555 0.026123 0.007723 0.013947
4 -0.035668 -0.009781 -0.013856 0.009548 0.004101 0.016387 -0.016899 0.013221 -0.005135 0.012958 -0.032324 0.001271 0.015121 -0.002722 0.005858 -0.017518 -0.044448 -0.005048 0.026281 0.003880 -0.021005 0.003747 -0.013165 0.008862 0.000279 -0.014042 -0.005106 -0.021978 0.019800 0.008965 -0.033388 -0.020604 0.019156 0.044617 0.003778 -0.006098 0.026961 -0.014900 0.020632 0.028002 -0.010564 0.011484 0.017019 -0.005378 0.004695 0.002223 0.000838 0.031001 -0.006221 -0.010640 -0.024690 0.004252 0.028959 0.028434 0.023658 -0.021496 -0.037103 0.005493 -0.028240 0.003805 0.031842 -0.026695 0.012900 0.013339 -0.006223 0.015240 -0.006280 -0.013408 -0.017950 0.018737 -0.017561 0.011158 0.019499 -0.026195 -0.000036 0.009225 0.019277 0.011112 0.023341 0.000753 0.044120 -0.027509 -0.003335 0.012429 -0.004665 -0.011248 0.004983 0.004869 -0.026109 0.029451 0.003290 -0.048464 0.010361 -0.025400 -0.004789 -0.025279 -0.022504 0.011533 -0.003344 0.032902 0.017714 0.017343 0.015628 -0.032150 -0.014674 -0.008594 -0.028390 -0.003150 0.010661 0.005370 0.016947 -0.038931 -0.016890 -0.028586 -0.020962 0.014656 0.004498 0.014967 -0.036845 -0.021520 -0.014257 0.012251 0.004256 0.005058 0.014825 0.023066 -0.012895 0.003204 0.018312 -0.007810 0.001719 0.027056 -0.022752 0.009947 -0.001514 0.000929 0.000308 -0.026485 0.022745 -0.033171 0.031385 -0.020493 -0.013258 -0.030571 -0.006033 0.021237 -0.002440 0.043703 -0.013361 -0.016699 0.020929 -0.012969 -0.016212 -0.012941 0.017598 0.006713 0.006785 -0.034283 -0.019212 -0.023721 -0.003627 0.013768 -0.016684 -0.018748 0.015614 -0.017685 0.001041 0.011697 0.012396 -0.009581 -0.000716 -0.022419 -0.026025 -0.004889 0.013825 -0.016056 0.015102 -0.007271 0.011997 0.018550 0.002671 0.008502 0.011928 -0.006100 -0.017159 -0.022506 0.002884 -0.003230 0.006340 -0.003291 -0.014632 -0.027289 -0.026871 0.014441 -0.025296 0.016116 0.023167 -0.010525 0.014787 0.007843 0.017422 -0.007554 -0.018993 0.043174 0.030259 -0.012238 -0.023706 0.007212 -0.003635 0.007730 -0.022829 0.011633 0.026823 -0.008571 -0.008345 -0.018074 -0.018487 0.020581 -0.006395 -0.007702 -0.043168 0.017220 -0.012860 0.004362 0.014820 -0.030907 -0.008719 0.011948 -0.013680 -0.005296 0.010737 -0.018378 -0.007337 -0.034865 -0.015164 0.000941 0.033135 -0.012470 -0.000426 0.031960 -0.014476 -0.025779 -0.008938 -0.006036 0.022846 -0.031954 -0.014445 0.009548 0.013713 -0.018779 0.002612 0.001192 0.001701 -0.004142 -0.016441 0.012572 -0.003654 0.012604 0.006229 0.011539 -0.011788 0.024427 0.007654 0.014853 -0.011549 -0.011746 -0.000183 -0.003750 -0.000091 0.016253 0.010247 0.000035 0.013452 -0.039166 0.010495 -0.028994 0.020129 -0.005851 0.012348 -0.046406 0.042008 0.003312 -0.008464 0.003288 -0.007798 -0.000854 -0.006713 -0.019702 0.019235 -0.009550 0.013367 -0.028038 0.005604 0.002237 0.013721 -0.001293 0.003356 -0.018110 -0.003274 0.026225 -0.004017 0.015808 -0.015809 -0.000088 -0.018016 -0.000209 -0.002268 -0.029457 0.026683 -0.006744 0.017729 -0.018688 -0.006193 -0.007575 -0.007091 -0.020663 -0.012551 0.014480 -0.032618 0.013626 -0.031240 0.021463 0.019138 -0.031797 0.030478 -0.033590 -0.003986 -0.008349 0.009731 -0.021541 -0.018228 -0.011756 0.016246 0.012854 0.000743 -0.011219 0.015379 0.016386 -0.011843 0.016619 -0.033028 -0.008606 -0.005586 0.001895 0.030265 -0.021469 -0.004309 0.024451 -0.005604 -0.003174 -0.002587 -0.002650 0.012068 0.008752 -0.048983 -0.032217 -0.010829 0.012777 0.008685 0.003337 -0.007536 -0.030022 0.011952 0.001194 0.023740 0.045856 0.002957 -0.005776 0.010010 0.023275 -0.001817 0.018328 -0.009534 0.014240 0.000151 -0.003423 0.011925 0.006628 -0.005751 0.001422 -0.010042 0.008925 -0.003108 -0.008502
5 0.006604 -0.048376 -0.000085 -0.000957 0.002823 0.027736 -0.004035 -0.001380 -0.023425 0.005541 0.002947 0.000089 -0.012017 -0.009487 0.029427 -0.038528 -0.000261 0.026309 -0.003876 -0.007512 -0.002199 0.015169 -0.020256 0.017329 -0.011821 0.002103 -0.018519 0.004260 0.023807 -0.017261 -0.008346 -0.000593 0.037344 0.015982 0.032810 -0.013884 0.027245 -0.030856 0.028428 -0.006413 -0.013801 -0.000030 -0.006588 0.012017 0.014359 0.013657 0.032041 0.032338 0.007187 -0.002823 -0.017891 0.026152 -0.002685 0.034290 0.005919 -0.023213 -0.003810 0.020825 -0.004557 0.012551 -0.002746 -0.053690 0.015190 -0.010074 0.012494 0.016332 -0.025094 -0.024180 -0.006039 -0.001531 0.003104 -0.008428 0.004044 0.016862 0.020633 0.003330 0.023524 -0.017738 0.018949 -0.024583 -0.000277 -0.015383 0.001432 -0.002612 -0.013621 0.018625 -0.001419 -0.023313 -0.053414 0.017876 0.008578 -0.031199 0.038961 -0.017304 -0.009067 -0.021692 -0.020926 -0.002139 -0.004845 0.029567 -0.003669 -0.038318 0.027768 -0.025399 -0.009872 0.005998 -0.009083 0.019393 -0.000257 -0.012255 0.002103 -0.032514 -0.022072 -0.024993 -0.016251 -0.006137 -0.029272 0.038726 0.001810 -0.006342 -0.018989 0.024673 0.022489 0.007882 0.012853 -0.001403 -0.010708 -0.009645 0.018290 -0.004722 0.001737 -0.001558 0.021007 0.011866 -0.000872 -0.002400 -0.007130 -0.009672 0.001151 -0.017879 -0.017609 -0.022631 0.010133 -0.008932 -0.013169 0.005591 0.040691 0.033469 -0.034896 -0.012637 0.000715 0.043716 -0.000987 -0.006921 -0.001400 0.011701 0.007154 0.000043 -0.009234 -0.009359 0.009412 0.011782 -0.015541 -0.015536 0.036986 0.023501 0.005140 0.015512 0.017515 0.001306 -0.020727 -0.026842 0.047104 -0.006273 0.011141 -0.002990 -0.001551 -0.015630 -0.028670 -0.011422 0.003704 0.016709 0.017543 0.029908 0.024965 -0.039929 -0.036525 -0.032355 0.017429 -0.011469 -0.022171 -0.024328 -0.015195 0.012129 -0.003729 0.028330 0.007278 -0.021328 0.008152 0.000954 -0.000806 -0.003091 -0.055404 0.020778 0.030367 -0.003372 -0.012995 0.005510 0.004307 -0.017232 0.007361 0.014483 0.012767 -0.004370 -0.026392 -0.006839 0.015323 -0.029834 -0.020462 0.031864 0.015037 0.012882 -0.004423 0.007027 0.012009 0.013201 0.001992 -0.009692 -0.000267 0.004826 0.019590 -0.025093 -0.030386 -0.008028 -0.015511 0.016392 0.024966 -0.013940 -0.017057 0.030389 -0.012609 0.012707 -0.018877 0.001321 -0.012655 -0.022639 0.011922 0.010594 0.020669 -0.016498 -0.002013 -0.012640 -0.000385 -0.023363 -0.001633 0.016152 -0.009045 0.006048 0.008533 0.016199 -0.006823 0.015029 0.002235 0.014732 0.011901 -0.021171 0.017387 -0.004791 0.009457 0.007020 0.000896 -0.017936 -0.009541 -0.011023 0.005833 -0.039974 -0.015125 0.034009 -0.013257 -0.004308 0.023637 -0.008731 -0.025676 0.004552 -0.006083 -0.017528 -0.025359 -0.005052 -0.003749 0.006971 0.004060 -0.007888 0.017265 -0.010102 -0.000419 0.021569 0.008722 -0.023998 -0.001578 0.007263 -0.012177 0.005619 -0.013187 0.011414 0.017887 -0.001529 -0.006012 0.002325 -0.004811 -0.007736 0.014784 0.007548 0.019548 -0.009738 -0.010048 0.003703 0.024452 0.044992 0.018141 0.014495 -0.025985 0.017514 -0.023873 -0.004223 0.027764 -0.035918 0.007919 -0.008023 0.003831 0.002739 -0.013601 0.003062 0.037984 -0.000266 -0.005656 0.023387 -0.005781 0.013939 0.008439 0.006084 -0.020150 0.003004 -0.009202 0.013593 0.002278 -0.017230 -0.014682 -0.015673 -0.005389 0.000026 -0.010409 0.029157 0.013420 0.005658 -0.023386 -0.011587 0.018561 0.025409 -0.002154 0.020645 -0.014582 -0.016329 -0.025677 0.003500 0.019944 0.043218 -0.000350 -0.007321 -0.001279 0.018411 0.005157 0.006475 -0.023237 -0.000492 0.026767 -0.003128 0.004707 0.013722 0.018238 -0.021767 -0.002321 -0.011792 -0.004068 -0.011046
6 -0.002720 -0.020486 0.010610 0.000688 0.034700 0.010973 0.001904 -0.016739 0.019990 0.026400 -0.020183 0.014479 0.012771 -0.018324 0.026857 -0.035629 -0.025103 0.027472 -0.000324 0.009772 0.000127 0.019444 0.003908 0.010554 -0.010111 0.009356 0.000231 0.018308 0.033086 -0.007016 -0.016647 -0.001225 0.014624 0.006866 0.006199 -0.009219 -0.024157 -0.001096 0.011068 0.006698 0.011296 -0.004248 -0.011423 0.001305 0.019184 0.014214 0.035830 0.027087 -0.013813 -0.005874 -0.008368 -0.014092 0.001862 0.007456 -0.003363 -0.002281 -0.006494 0.016483 -0.005475 -0.017840 -0.004674 -0.025409 0.005947 -0.001659 0.013146 0.012370 -0.017216 -0.038480 0.002857 0.008232 -0.009759 -0.004237 0.027227 -0.012799 -0.008597 0.016621 0.013107 -0.014028 0.010647 -0.027141 -0.037228 0.026236 -0.015454 0.006342 -0.022764 -0.000820 -0.037886 -0.004636 -0.011486 -0.023249 0.017112 0.007009 0.025878 0.014153 -0.009970 -0.006664 -0.025798 0.035337 -0.011708 0.019867 0.019731 0.002651 -0.002836 -0.032608 0.011596 0.010103 -0.007729 -0.003627 -0.009108 -0.010271 0.026328 -0.022381 0.000718 -0.027867 -0.013917 -0.009683 -0.008565 0.042127 0.015966 -0.018550 -0.007890 0.003975 0.027378 -0.021891 0.002089 0.018323 -0.009140 -0.000577 0.016473 -0.001067 -0.007721 0.012940 -0.008679 0.011873 -0.026631 0.017734 0.008818 -0.019893 0.024164 0.028646 0.005468 0.003648 0.000480 -0.004552 -0.033487 0.012755 0.019264 0.047942 -0.009342 -0.004176 0.017777 0.006415 0.007069 -0.008133 0.004891 0.005353 0.023083 -0.004000 -0.015595 0.014053 -0.020478 0.015937 -0.031867 -0.016632 0.007481 0.023135 -0.040336 0.006252 0.002673 0.023680 0.019885 -0.013111 -0.008438 0.017178 0.005826 0.007752 -0.005758 -0.024915 -0.026036 -0.019194 0.002753 -0.002723 0.013765 0.020572 0.011527 0.001495 -0.020331 -0.009356 0.002034 0.009574 -0.008925 0.008949 0.017761 0.007078 -0.002630 0.006189 0.014656 -0.028965 -0.007173 -0.002974 -0.012281 -0.006468 -0.024591 -0.000958 0.012080 0.006094 -0.002537 -0.022880 -0.004722 0.022498 -0.023632 0.016007 0.004580 0.003642 0.020698 -0.018912 -0.002725 -0.016447 0.013933 0.008515 -0.017102 0.008473 -0.018360 0.007220 -0.020801 0.002164 0.017824 -0.004922 0.016305 -0.011736 -0.010137 -0.021691 -0.016643 -0.032418 -0.013126 0.005054 0.006136 -0.000159 -0.024265 0.020515 -0.007895 -0.017247 0.015254 -0.022802 -0.019904 -0.015235 0.006489 0.000433 0.011614 -0.000142 0.005852 0.015083 -0.007311 -0.013528 0.017887 0.030379 0.001561 -0.005818 0.024754 0.015352 -0.016757 -0.011793 -0.006777 0.015828 0.006411 -0.019505 -0.003295 0.018526 0.035789 0.007823 0.000722 -0.003910 -0.025501 0.001493 0.006542 -0.046047 0.009647 0.064906 -0.013872 -0.028008 0.037902 0.017236 -0.010642 0.018101 0.001596 0.016368 -0.011735 -0.033038 0.005272 -0.005423 0.014372 -0.026386 -0.010566 0.020178 0.029138 -0.000260 -0.015970 -0.012028 0.005536 0.004528 -0.018815 0.000155 -0.024049 0.014840 -0.000518 0.027343 0.003204 -0.016540 -0.013423 0.002554 -0.011319 -0.023160 -0.001708 0.000752 0.020285 -0.005386 0.018778 0.027008 0.010286 0.010901 -0.020323 0.017952 -0.025877 -0.000659 0.005951 -0.037690 -0.001794 0.016175 -0.005361 -0.009121 -0.019178 0.010950 -0.003746 0.037013 0.013136 -0.001208 0.016405 -0.007641 -0.006812 -0.013932 -0.015416 -0.001782 -0.022542 0.012322 -0.006337 0.001779 0.001797 -0.021731 -0.000168 0.010671 -0.008921 0.005273 -0.019521 0.010442 -0.003042 -0.007114 0.010740 0.026789 0.006432 0.013064 -0.000073 -0.014200 0.010750 0.003491 0.010024 0.036982 -0.023885 -0.005616 0.009221 -0.006711 -0.003251 -0.000263 -0.002281 0.008360 0.010958 -0.000636 -0.026408 0.001500 -0.018014 -0.018921 0.014215 0.036054 -0.005989 -0.023467
7 0.018713 -0.014603 -0.033231 0.011870 -0.003124 0.044166 -0.007385 0.021752 0.007974 0.016130 -0.000962 0.008024 0.010842 0.024213 -0.015128 -0.018457 0.014482 0.013249 -0.010155 -0.029166 0.000346 -0.001506 0.022143 0.015709 0.002612 -0.021898 0.002561 0.010836 0.032568 0.004479 -0.021523 -0.013499 0.009699 -0.007455 0.012136 -0.009982 0.001436 -0.008653 0.004656 0.003880 0.003353 0.019277 0.004287 0.012303 0.012743 -0.010998 0.021857 0.017571 0.023108 -0.019682 0.001919 -0.009369 0.019864 0.006035 -0.035737 0.016082 -0.007096 0.025116 -0.005857 -0.003083 0.013122 -0.016175 0.018793 0.005662 0.009476 0.005006 -0.018866 -0.017665 0.015836 0.004636 -0.027038 -0.001441 0.003668 -0.024049 0.012995 -0.000770 -0.001953 -0.028799 0.006722 -0.015756 -0.010185 0.028329 -0.013816 0.008126 -0.010432 -0.012672 -0.032379 -0.013371 -0.002741 -0.026786 0.016242 -0.033149 0.028231 -0.001239 -0.011601 -0.000166 -0.013744 0.030712 -0.023600 0.021205 0.005066 0.016061 -0.002845 -0.029625 0.028488 -0.005848 -0.016643 0.002479 0.007646 0.006942 0.013242 -0.026940 -0.010164 -0.003861 0.015191 -0.020734 0.000398 0.021622 -0.006801 -0.006054 -0.019546 0.006386 -0.019893 -0.023130 0.005592 0.019948 0.013613 -0.007975 0.031801 0.006944 0.002539 0.040050 0.003479 -0.008853 -0.018741 0.015333 0.022321 -0.028052 0.007608 0.014628 -0.001203 -0.006162 0.022996 -0.002908 -0.019359 -0.001642 0.025412 0.055589 -0.017443 -0.007006 0.000845 0.031524 -0.001783 0.033087 -0.003386 0.001668 0.009100 0.016347 0.003612 -0.009124 0.003765 -0.007768 -0.010588 -0.005478 0.024928 0.023039 -0.051202 0.011736 -0.013731 0.000983 0.003189 -0.023160 0.020762 0.010997 0.019815 0.014425 0.012924 0.011923 -0.025913 0.013720 0.009706 0.012800 0.000544 0.031586 0.025565 -0.016836 0.001578 -0.004811 0.004559 0.006332 0.025124 0.005963 0.002324 -0.011592 0.034528 0.016177 0.023022 -0.006672 -0.002832 -0.030993 -0.005968 0.008426 -0.011571 0.005630 0.007499 -0.003067 -0.031884 -0.027520 -0.013366 0.010629 0.008946 0.009496 0.024100 0.007535 -0.004984 -0.028132 -0.012929 0.005525 -0.002427 0.018386 0.010481 0.000170 -0.005071 0.008152 -0.011519 -0.000222 -0.008765 -0.017872 -0.017653 -0.003959 -0.026678 0.024377 0.011664 -0.000571 -0.011600 -0.017798 -0.017462 0.018488 -0.024670 0.017965 0.001098 -0.006999 0.008507 -0.015835 0.000157 0.000807 -0.004515 0.013428 0.022221 0.001769 0.005431 -0.000153 0.007536 -0.011556 -0.014480 -0.018017 0.007838 -0.017375 0.024299 -0.001946 -0.001835 -0.018463 -0.013925 0.004991 0.023429 -0.001355 0.011529 -0.012049 0.024688 -0.000107 0.009027 -0.014872 -0.031412 0.020792 0.015635 -0.049965 -0.000632 0.023369 0.006025 -0.061211 0.009836 0.002752 -0.006572 0.021738 -0.021399 0.009777 -0.010124 0.004552 -0.020609 -0.000003 -0.027903 -0.007247 -0.018638 0.016679 -0.003549 -0.001170 0.023046 0.015620 0.010608 0.004399 -0.011384 0.007609 0.006318 0.009436 -0.026514 0.017512 0.007358 -0.008437 -0.018138 0.022764 -0.007400 -0.018345 0.009115 -0.002443 0.008280 0.010355 0.008145 0.019615 -0.013194 0.001499 -0.011490 0.007971 -0.020976 0.010707 0.004604 -0.013964 -0.005913 -0.001967 -0.013227 0.012969 -0.004712 -0.012974 0.004914 -0.004438 0.001130 0.005976 -0.002326 0.006554 0.013521 0.023683 -0.015618 -0.000958 -0.005671 0.007118 -0.013021 -0.000856 0.022973 -0.035681 -0.001334 -0.005207 0.004896 -0.020781 0.000479 0.012359 -0.009055 0.031579 -0.005475 0.026146 0.015224 0.000956 0.012096 -0.005095 0.004477 0.025080 0.007285 0.036320 0.017066 -0.027702 0.015629 0.003863 -0.012958 -0.014584 0.007067 -0.010791 0.007120 0.030671 -0.024465 -0.018323 -0.022690 -0.000721 0.013162 0.029148 -0.010448 0.000854
8 0.016641 -0.004744 0.007049 0.007003 -0.002418 0.014962 -0.020814 0.003762 0.001615 -0.009004 -0.017710 -0.004195 0.029375 -0.006463 0.002325 -0.019243 0.004016 0.010684 -0.001813 -0.014276 0.005509 -0.015111 0.006846 -0.000568 0.018032 -0.006647 -0.005456 0.013470 0.018763 0.014444 0.019547 0.005589 0.004614 0.005298 0.006198 0.003706 0.023068 0.001882 0.001400 0.011941 -0.024015 0.005337 0.023226 0.002831 0.012842 -0.011291 0.017415 -0.012464 -0.028018 -0.026489 0.007451 -0.011481 0.011540 -0.043713 -0.046438 0.010217 -0.016556 -0.013029 -0.035234 -0.011456 -0.004778 -0.052520 0.011393 0.027883 0.014309 -0.017479 -0.011307 -0.006767 0.008944 0.015287 -0.015937 0.006685 0.005228 0.004768 -0.006440 0.005734 0.018967 -0.029434 0.007668 -0.011380 -0.007508 0.018536 -0.009627 0.020301 0.002354 -0.002711 -0.002231 0.011583 -0.054816 -0.001005 -0.021551 -0.008908 0.045536 0.009214 -0.006985 -0.006891 -0.015812 -0.001232 -0.020506 0.002145 -0.027470 0.028884 0.000561 -0.004382 0.039847 0.011204 -0.050019 -0.008644 0.039109 -0.009871 0.013487 -0.003596 0.009059 -0.000311 0.029920 0.004353 -0.009090 0.016769 -0.003345 0.002841 0.007487 0.018723 -0.010011 -0.013159 0.008619 0.008613 -0.013310 0.021891 0.014777 -0.010533 0.024986 0.035987 0.014294 0.006928 -0.015020 -0.003731 0.030799 -0.014362 -0.020157 0.018481 0.009138 0.010351 0.009264 -0.013830 -0.046355 -0.005691 0.016368 0.012764 -0.017453 -0.015266 0.015056 -0.001089 0.001668 0.028425 0.011962 0.002417 0.001001 0.020165 -0.022604 -0.004425 -0.007012 -0.003164 0.008158 -0.015944 0.024002 -0.014146 0.002982 -0.015480 -0.025636 0.012275 -0.015777 0.015872 0.008074 -0.014673 -0.004521 0.001128 -0.008075 -0.002033 0.000323 -0.024370 0.010161 0.003951 0.021356 0.039459 0.025513 -0.014525 -0.016610 0.014547 0.008213 0.026633 -0.000947 0.005605 -0.028947 -0.010661 0.001260 -0.015337 -0.007246 -0.013356 -0.010976 -0.012444 -0.012197 -0.005950 0.002663 0.006935 -0.008510 -0.010553 -0.016813 -0.013648 -0.018670 0.013916 -0.011996 0.013432 0.044679 -0.000441 -0.024718 -0.020371 0.000531 -0.015463 0.007269 0.003987 -0.022568 -0.022582 -0.003318 -0.004439 0.017241 -0.000770 -0.002665 0.010193 0.017031 -0.009277 -0.030185 0.041357 0.018192 -0.011619 0.001191 -0.023348 0.007603 0.023126 0.002651 0.005584 -0.017233 -0.001209 -0.018593 0.011984 -0.016712 -0.008670 -0.018750 0.017108 0.008079 0.016498 -0.017958 -0.013277 -0.018631 -0.027826 -0.007887 -0.007485 0.016398 -0.007268 0.002968 0.008789 -0.005967 0.006713 0.007541 0.015062 0.003616 -0.006007 0.004725 -0.002163 0.042297 0.013499 -0.017324 -0.025258 -0.015071 0.007059 0.037032 -0.023242 -0.016181 0.019792 -0.002261 -0.026276 -0.013658 0.013446 -0.013523 0.023095 0.006757 0.008208 0.002258 -0.011895 -0.003026 -0.008468 -0.012493 -0.000256 -0.014585 0.005973 0.002990 0.004332 0.001560 0.014917 -0.010657 -0.002267 -0.018493 -0.007618 0.008411 -0.008541 -0.002962 0.016190 0.005499 -0.012279 -0.001057 -0.007811 -0.022096 -0.029507 0.012626 -0.001142 -0.008560 0.042364 0.013805 0.003307 0.009334 0.009120 -0.009023 0.012473 -0.027969 -0.025153 -0.018199 -0.009587 -0.003526 -0.014328 -0.005957 -0.013529 -0.010832 0.012356 0.000389 -0.004413 -0.009111 0.010803 -0.004388 0.004498 0.011178 0.000617 -0.000023 -0.034063 -0.005854 0.005560 0.013546 -0.020765 -0.005358 -0.022793 0.003004 0.001941 0.017756 -0.028642 0.004670 0.003114 0.003371 0.040164 -0.006937 0.004577 -0.024282 0.020580 -0.004425 -0.006011 -0.005595 0.024411 -0.002438 0.026202 -0.001896 -0.011647 0.007918 0.030031 -0.024931 0.000668 -0.007255 0.033980 -0.022785 0.029683 -0.010364 0.010506 0.003801 -0.007987 0.005943 0.006996 -0.013406 -0.009708
9 0.017010 -0.027392 0.008834 -0.002061 0.010664 0.036039 -0.021714 0.014992 -0.001628 -0.002890 0.000185 -0.003808 0.028272 0.009807 -0.001771 -0.000238 0.003062 -0.012200 -0.006054 -0.013635 0.022215 -0.018482 0.000301 0.000477 0.013307 0.009940 0.020183 -0.017689 0.012103 0.031920 0.021523 -0.019702 0.018309 -0.008762 0.022266 0.006598 0.026168 -0.034944 -0.013134 -0.017327 -0.010486 -0.013786 0.033189 -0.011940 -0.009680 -0.011662 0.026650 -0.009540 -0.010056 -0.006691 -0.016930 0.016998 -0.003844 -0.014112 0.016033 0.020404 0.028929 -0.030072 -0.018604 -0.015044 0.010999 -0.018482 0.008727 0.004978 0.035721 0.024894 -0.012060 -0.011633 0.009755 0.002974 -0.022953 -0.032255 0.002438 0.024232 -0.023895 -0.009379 0.008602 -0.014968 0.006011 0.012430 -0.011466 0.034976 -0.010478 0.015364 -0.004580 0.000406 -0.005715 0.027439 -0.021525 0.011602 -0.018808 -0.014882 -0.015885 -0.014345 0.014512 0.003319 0.000476 0.011011 0.010409 -0.003456 0.001931 0.013719 0.020243 0.003184 0.006603 -0.007475 -0.011893 -0.004707 0.031926 -0.005244 -0.023827 0.028629 -0.016080 0.019001 0.024357 0.018226 -0.010785 0.006125 0.016060 -0.003447 0.016540 0.008257 -0.010545 0.005723 0.018443 0.006757 0.030595 -0.002964 0.004374 -0.010590 0.002718 0.030810 0.015990 0.009629 -0.037014 0.026705 0.029274 -0.019968 -0.031710 0.037992 0.020299 -0.007728 0.005733 -0.001186 -0.025492 -0.002825 0.001907 0.029378 -0.017536 -0.013055 0.015680 0.007416 -0.011603 0.008899 -0.006264 0.006993 -0.013785 -0.004804 0.012529 -0.028314 0.008490 0.010093 -0.007243 -0.028269 0.000490 -0.002556 0.002171 -0.020454 -0.031160 -0.018805 0.002373 0.000316 -0.010757 -0.044207 0.030740 -0.004067 0.004549 -0.018104 -0.025006 -0.011666 0.007256 0.019915 0.001996 0.008065 0.021201 -0.006792 -0.014268 -0.031084 0.022251 0.011935 0.017069 0.002615 -0.009433 -0.009226 0.009502 -0.024716 0.005856 0.008755 -0.010314 0.009758 -0.003139 -0.005085 -0.026194 0.022408 0.008380 -0.012955 0.010753 -0.006336 -0.008845 -0.015030 -0.009781 0.006766 0.023599 0.001200 -0.020591 -0.010404 0.003739 -0.010852 0.006073 -0.036283 -0.017407 -0.024980 -0.003690 0.006206 0.000132 -0.007514 0.019072 -0.022464 -0.002899 0.002625 -0.029276 0.043612 0.015917 -0.022848 -0.010508 0.001610 -0.003558 0.009668 0.022892 0.026251 0.002602 0.006385 -0.006853 0.013210 -0.000417 -0.001200 0.003409 -0.007166 0.018710 0.001231 -0.022338 -0.023348 0.001927 -0.020173 -0.012557 -0.009085 -0.002109 0.013603 -0.000086 0.006784 -0.013602 -0.004723 0.022549 0.005227 0.008758 -0.006629 0.027739 -0.009908 0.014734 0.036595 -0.017222 -0.014917 -0.004132 0.016838 -0.012099 0.001011 0.003875 0.007770 0.005485 -0.033000 -0.003690 -0.001361 0.015485 0.029342 -0.013119 0.002296 -0.008937 -0.027140 -0.000532 -0.023248 -0.027265 -0.035961 -0.006469 0.008181 0.016182 0.009268 0.005451 0.000324 0.001218 -0.002015 0.004058 0.019152 -0.023264 0.012940 0.007218 0.000216 -0.010010 0.008445 0.005237 0.008161 0.003195 -0.023960 -0.001086 0.018279 -0.021347 0.010824 0.010201 -0.013279 -0.022038 0.020624 0.004569 0.012352 -0.021641 -0.015560 0.006865 0.004733 -0.006260 -0.023705 0.005669 -0.017021 -0.015548 0.016060 0.000046 0.005993 0.014866 0.009142 -0.011277 0.029094 0.004048 0.007736 0.002259 -0.015394 0.004540 0.006183 0.007252 0.003416 -0.002379 -0.004514 0.001236 -0.009678 0.017484 -0.004014 -0.003372 -0.006675 -0.016398 0.040494 0.004583 -0.012314 0.003621 0.014414 -0.027356 -0.008875 -0.000545 -0.007351 -0.011146 0.008126 -0.008214 0.001377 0.001547 0.006102 -0.028117 0.010958 0.032996 0.024681 0.011384 -0.016654 0.000555 0.003916 0.003562 -0.011215 0.038431 0.004454 0.006233 -0.018152
10 0.058707 -0.009485 -0.001315 0.013861 0.002198 0.019345 -0.032206 -0.010314 0.029722 0.001173 0.022888 -0.003797 0.021925 0.005706 0.029778 -0.010883 -0.006416 0.010553 -0.004370 -0.012601 -0.006119 0.014369 0.017513 0.002105 -0.003874 0.016267 0.027611 -0.008307 0.002885 0.026437 -0.015654 -0.005438 0.010125 -0.006016 0.008108 -0.007943 -0.028594 0.018504 -0.015008 -0.017655 -0.001815 -0.003183 0.008052 0.011044 0.020643 -0.004998 0.020112 -0.009620 -0.004267 -0.014267 -0.007339 0.001546 -0.001919 -0.034744 -0.001835 0.022288 0.024382 -0.010959 -0.000577 -0.010242 0.010615 -0.001657 -0.023017 -0.011030 0.019031 0.027670 -0.013485 -0.003142 0.002420 0.000598 -0.004671 -0.026003 -0.000615 0.013706 0.001384 -0.008981 0.014650 -0.004185 0.018904 0.017611 -0.006163 0.007693 -0.009756 -0.008969 -0.003674 -0.007579 0.006094 0.017563 0.002836 0.020247 -0.022696 0.001880 -0.013693 -0.028783 0.003348 -0.012869 -0.001455 -0.012919 -0.015610 0.005615 0.026092 -0.019240 -0.003661 -0.013353 0.012242 0.015390 -0.029334 -0.002013 0.013110 0.020785 -0.014977 0.024515 -0.002496 0.011653 -0.016014 0.015894 -0.009620 0.033137 -0.004918 -0.007737 0.023498 0.008494 -0.008411 -0.008243 0.016791 0.012436 0.048409 0.005996 0.013120 -0.034569 0.008084 -0.006324 0.005844 -0.005957 0.008070 0.021850 0.033908 -0.015553 -0.003911 0.044445 -0.005634 -0.010123 0.009311 -0.016288 -0.010931 0.008049 -0.018128 0.020102 -0.004066 -0.020493 -0.018413 0.011080 -0.024546 -0.007108 0.013988 0.021316 -0.005405 -0.016166 0.020158 -0.026715 0.006206 0.001423 -0.003054 0.012973 -0.004355 -0.003333 0.008054 -0.015636 -0.001571 0.017387 0.013358 -0.010147 -0.025921 -0.039937 0.008435 0.010506 0.015800 0.000671 -0.021672 -0.019281 0.037758 -0.007625 0.016511 0.007794 0.005183 -0.001152 -0.012664 0.012230 0.005284 0.015619 -0.020753 -0.017134 -0.022418 0.026908 0.003881 0.000755 -0.007776 0.007429 -0.001780 0.021197 0.011546 0.014160 0.003215 -0.000774 0.020450 -0.009422 -0.008721 -0.002007 -0.020430 -0.015340 0.006791 -0.026494 0.022991 0.008816 -0.007072 0.005502 0.013870 -0.016307 -0.019630 -0.030360 -0.011977 -0.014405 -0.002770 -0.000693 -0.001186 -0.028999 -0.004427 0.013586 0.013581 -0.004080 -0.040714 0.050703 0.000490 0.008358 -0.021563 0.031073 0.000079 0.010367 -0.001786 0.001350 0.013826 0.012262 -0.023532 -0.010894 0.036807 -0.008722 -0.012771 -0.003609 0.006612 -0.019854 -0.006502 -0.001810 -0.005948 0.003919 -0.003233 -0.015372 0.018813 0.020492 0.007573 0.010406 -0.015219 0.033997 0.017460 -0.009519 0.007119 -0.016441 0.008324 0.015978 0.006370 0.004326 -0.016212 -0.009190 0.013712 -0.011788 -0.007125 -0.002101 -0.003941 0.002119 -0.034468 -0.018064 -0.005902 0.000901 -0.003039 0.017601 -0.009852 -0.007303 0.006035 -0.046529 -0.006696 -0.014636 -0.009902 -0.018007 -0.006344 -0.002574 0.009661 0.021251 -0.013635 -0.003245 0.021570 0.010985 0.020759 0.031460 -0.010492 0.004002 -0.026158 0.003546 -0.008342 0.006626 -0.003467 0.014031 -0.004885 -0.001222 -0.009179 0.006109 -0.016599 0.005799 0.004775 -0.015369 -0.012672 0.017363 0.017971 -0.000768 -0.016505 0.005423 0.023530 0.000521 -0.008569 -0.014497 0.022261 0.005715 -0.012835 0.003843 -0.009921 -0.005585 -0.030078 0.020098 -0.022759 0.020304 0.009507 0.004913 -0.001221 -0.024887 0.024208 -0.006794 0.006398 0.002430 -0.010848 0.019341 -0.000899 0.001066 0.011820 -0.000275 0.019268 0.002046 0.004222 0.020468 -0.033497 -0.007788 0.012776 0.004071 -0.007656 -0.014747 -0.002473 -0.028654 -0.017633 -0.003062 -0.016053 0.011802 -0.006141 0.018549 -0.000750 0.018075 0.005890 0.029747 0.021194 -0.008306 -0.022208 0.019486 0.014564 0.016319 0.018728 0.005718 0.009147 -0.013687
11 0.026248 0.004097 0.005298 0.004983 -0.000541 -0.000439 -0.017364 -0.010819 0.019285 0.007411 0.012735 -0.018050 0.023299 -0.013601 -0.017058 -0.003124 0.000453 -0.001357 0.002988 0.014512 -0.016616 0.010408 0.001340 0.018524 0.015766 0.010038 -0.008915 -0.010876 0.007367 0.008308 -0.007958 -0.044323 0.012081 -0.015191 0.009600 0.010803 -0.034021 -0.012631 0.003098 -0.007067 0.016572 -0.009095 0.014760 -0.020214 0.039101 0.024695 0.032065 0.003606 0.046419 0.031451 -0.006640 -0.014433 -0.011253 -0.000509 -0.009581 -0.003696 0.004774 -0.015837 0.007542 -0.016501 0.020247 0.004240 -0.017251 -0.011590 0.004678 0.040221 -0.028657 0.001091 -0.000519 -0.006666 -0.013854 0.013476 0.021445 0.015388 0.021738 -0.031165 0.014441 -0.006497 0.028043 0.011885 -0.014959 -0.005535 0.004369 -0.002625 0.008416 0.032374 0.002663 0.023595 0.030851 0.002208 -0.019823 -0.016607 -0.002369 -0.024599 0.018747 -0.000043 0.010356 -0.020793 -0.010340 0.014354 0.019290 -0.016054 -0.012505 0.009179 0.015961 -0.030652 -0.031097 0.026426 -0.012767 0.010747 0.000447 0.011049 -0.009176 0.004232 -0.021570 0.005281 -0.019166 0.008515 -0.022142 0.005666 0.002187 -0.015090 -0.017897 0.018413 -0.001132 -0.006554 0.032300 -0.000373 -0.004559 -0.014152 0.003108 0.005026 0.008935 0.012937 0.029121 0.011687 0.018551 0.002017 0.020284 0.031961 0.011129 -0.004828 -0.022373 0.005832 -0.010497 -0.009879 -0.017920 0.021797 0.003405 0.000635 -0.000862 -0.005114 -0.019172 -0.028501 -0.013858 0.003709 0.019276 -0.010212 -0.010379 0.005763 0.001030 -0.018291 0.005159 0.028335 0.023680 -0.026846 0.017741 -0.008756 -0.005437 -0.006322 -0.000982 0.002304 0.003782 0.002849 -0.001193 0.011437 0.009481 -0.013278 -0.043746 -0.025494 -0.012121 -0.010508 0.004915 0.026213 -0.007633 -0.004806 -0.042162 0.027206 -0.013089 0.020499 0.012800 -0.021347 -0.005318 0.008404 -0.000337 0.029655 0.015063 0.012731 -0.011088 0.029480 -0.010959 -0.007364 -0.007004 -0.003894 0.000084 -0.001206 -0.016404 -0.010034 -0.020743 -0.013827 0.004330 0.007272 0.026409 0.014777 -0.012064 0.022431 0.006185 -0.020903 0.005583 -0.002932 -0.000753 -0.015802 -0.004873 0.014028 0.028858 -0.015899 0.008384 0.014725 0.002382 -0.021423 -0.016317 0.004669 0.004963 -0.023845 -0.007477 0.016659 -0.014360 0.000678 -0.011142 -0.019393 0.009304 0.010930 0.007554 -0.001077 0.011866 -0.009942 0.011691 -0.028189 0.002241 0.011527 -0.005986 -0.008648 0.000064 0.002489 -0.019940 -0.023311 0.026244 0.027722 0.010869 0.009836 0.004092 0.008521 0.007410 -0.014864 0.003931 -0.002945 0.035493 0.028475 -0.001909 0.004538 -0.014843 -0.013585 0.007482 -0.003847 -0.002659 0.009193 0.037768 0.017827 -0.015919 -0.003979 0.003708 -0.019559 -0.008695 0.007273 -0.017754 -0.001715 -0.010023 -0.034821 -0.014418 -0.034802 -0.054873 -0.006696 -0.033142 0.000389 0.006451 0.006025 0.002900 0.012254 0.007514 -0.005748 0.016422 -0.001693 -0.019215 -0.013948 -0.027980 0.009600 -0.002660 -0.010977 0.018676 0.012062 0.001025 0.005353 0.000105 -0.021218 0.005355 0.000719 0.038278 -0.020498 -0.003919 -0.007734 0.020049 0.003883 -0.034276 -0.000718 0.010180 -0.002244 0.017211 0.015414 -0.004487 0.004000 -0.013861 -0.016949 -0.011126 -0.001583 -0.030080 -0.004199 -0.015521 0.007877 0.020758 -0.020895 -0.007823 -0.009043 0.003966 0.002572 -0.005528 -0.010307 -0.008881 0.015061 -0.013626 0.017410 -0.014367 -0.004592 0.021994 0.004929 -0.019723 0.009368 -0.024415 -0.008362 0.003311 0.029173 0.003440 0.013931 0.049767 -0.028255 -0.011212 0.014643 -0.028870 -0.003312 -0.008485 -0.001787 0.000333 0.042415 -0.015472 0.000518 0.013285 -0.004177 -0.015165 0.000430 -0.003111 0.015633 0.000581 -0.000664 0.007951 -0.007824
12 0.004531 0.008570 -0.008925 0.012863 0.040632 0.014701 0.006717 0.017868 0.019091 0.014185 0.011806 -0.017668 0.009268 -0.016187 -0.033894 0.008989 0.005222 -0.007549 0.012498 0.022815 0.002036 0.022458 0.003618 -0.009504 -0.006746 -0.023032 -0.026003 -0.007362 0.031505 0.027719 -0.009459 -0.041936 0.018393 0.007575 -0.003888 -0.021729 -0.004589 0.007541 -0.017390 0.017045 0.002241 -0.004755 0.019560 -0.008128 0.017653 0.031273 0.011236 -0.000581 0.034697 -0.000823 0.014719 -0.032154 0.014653 0.016350 -0.036667 0.014295 -0.014252 -0.030231 -0.001516 0.019494 0.008961 -0.009818 -0.006224 -0.010104 0.009794 0.006638 -0.011126 -0.025040 -0.030750 -0.019285 0.006252 0.013675 0.006778 0.012936 0.016861 0.008387 -0.007961 -0.028778 -0.001631 0.025078 -0.007563 0.010682 0.009141 -0.001401 -0.009079 0.032996 0.010277 0.047551 0.020863 0.006914 0.006136 -0.028379 -0.021521 -0.022393 0.012757 -0.010902 0.007487 -0.007802 0.013118 0.007212 0.014341 -0.003102 0.007069 0.012664 0.006673 0.001491 -0.006979 0.000390 -0.024418 0.012459 -0.000171 0.007992 0.014665 0.012247 0.005185 0.002396 0.000505 0.014070 -0.006161 -0.001760 0.021671 0.013624 -0.014421 0.001664 0.013523 0.017326 0.019185 -0.012678 0.002854 -0.008199 0.013325 0.026769 -0.000325 0.016966 0.023935 0.002855 -0.002520 -0.025340 -0.005005 0.025436 0.001404 -0.000902 -0.002514 0.012947 0.016491 0.017781 -0.002446 -0.002779 -0.000680 0.011464 0.004234 -0.017030 -0.017172 -0.027675 -0.008481 0.007413 -0.009172 -0.022981 -0.011233 0.010895 -0.008501 -0.010825 -0.009473 -0.009876 0.027535 -0.031874 0.002197 -0.020448 0.012469 -0.007987 -0.004105 -0.005050 0.018141 -0.023295 0.003666 0.028672 0.002244 -0.008535 -0.023860 0.006724 -0.000270 0.013553 -0.012722 0.008532 -0.026763 -0.007253 0.013609 0.012510 -0.011490 -0.003149 0.013243 -0.027452 -0.008612 0.007862 0.001595 0.039780 -0.001265 0.011127 -0.018303 -0.009668 0.000652 0.009961 0.007318 -0.000497 0.005558 0.005240 -0.010964 -0.006237 -0.019672 -0.020462 0.006742 -0.005285 0.018680 -0.007820 0.001776 -0.009478 0.001598 -0.005314 -0.001608 0.008361 -0.013505 -0.006623 -0.015056 0.013133 0.033965 -0.018504 -0.013445 -0.010301 0.000868 -0.007951 -0.001483 -0.014784 -0.002775 -0.012879 -0.019161 0.022747 -0.033254 -0.010613 -0.022111 -0.008245 -0.013410 -0.022596 0.010967 0.000788 0.001280 -0.020150 -0.022007 -0.012858 0.024538 0.016637 -0.028378 0.018565 0.000286 -0.000019 -0.016131 -0.006760 0.015052 0.008036 -0.001259 0.003259 -0.000468 0.010447 0.007600 -0.003632 0.031104 -0.007849 0.000333 0.035041 -0.011832 -0.003422 0.000079 0.012067 0.028358 -0.008340 0.006819 0.010735 0.044733 0.013981 0.009055 -0.017592 -0.008695 -0.013800 0.000347 0.010563 -0.004363 -0.010433 -0.011364 -0.011547 -0.011118 -0.022189 0.004167 -0.017169 -0.039411 -0.022190 -0.020526 0.020552 -0.009217 0.002294 -0.010429 0.022031 0.004825 0.009794 -0.021725 -0.010402 -0.025763 0.030424 -0.011382 0.023420 -0.006932 0.010743 0.023123 0.001629 -0.003687 0.004474 0.005803 -0.004740 0.024848 -0.027684 0.022049 -0.021426 0.024780 0.012134 -0.009912 0.015210 0.009100 -0.020889 0.007448 0.017567 0.003739 -0.027370 -0.003934 -0.011300 0.011804 0.010956 0.000933 -0.019938 -0.003812 0.009099 0.004165 -0.018759 0.015430 0.001441 0.011223 0.009521 -0.015867 -0.013270 0.007904 0.014195 -0.000311 0.033115 0.008436 -0.047036 0.017491 -0.005553 -0.015458 -0.017694 -0.033175 -0.006605 0.022832 0.009177 -0.027797 0.019648 0.007800 0.017081 -0.020821 0.003328 -0.030501 0.001939 -0.013443 -0.000100 -0.000429 0.024336 0.015560 0.007030 0.000721 0.019738 0.003184 -0.011360 0.009957 0.014915 -0.012720 -0.010255 -0.010966 -0.000592
13 -0.004610 0.008734 0.005268 0.006926 0.016244 0.039639 0.005940 -0.013222 -0.022439 0.004180 0.028075 -0.008223 -0.006292 0.005746 -0.012159 -0.000436 0.015028 0.011087 0.027637 0.030976 0.000122 0.004909 0.004516 -0.027004 -0.013238 -0.006514 -0.010491 -0.011230 0.006884 0.019760 -0.012953 0.005936 0.011202 0.021914 -0.000609 -0.016792 -0.017157 0.009960 -0.011678 -0.001622 -0.001010 0.006752 -0.005622 -0.028236 -0.002119 0.017165 0.011666 -0.002856 0.034801 0.005763 -0.010459 -0.001178 0.011826 0.012699 -0.003305 0.000323 -0.007197 -0.016221 -0.017961 0.000874 -0.005256 -0.015110 -0.028469 0.011404 -0.025384 0.017025 0.017811 -0.007135 -0.018424 -0.008094 -0.008501 -0.003730 -0.015470 0.013821 0.028583 -0.003129 -0.009239 0.001923 0.007189 0.011761 0.002969 0.003544 0.014888 -0.001000 0.024662 0.000994 -0.005468 0.009310 -0.008756 0.006035 -0.005815 -0.025651 -0.010815 -0.023465 -0.020976 0.001544 -0.003520 0.024687 -0.001496 0.018355 -0.002012 -0.020864 0.020357 0.020344 0.016212 0.008972 0.029280 -0.014570 -0.026958 0.015880 -0.008954 -0.008350 0.008786 0.025167 -0.015923 -0.018802 0.001461 0.001689 0.027937 -0.021494 0.013365 0.003710 -0.017611 0.009953 0.000077 -0.013545 0.010814 -0.010965 -0.010092 0.007457 0.018882 0.016556 0.003265 0.006419 0.012857 -0.019647 0.015417 -0.016238 0.005608 0.016100 -0.009324 0.009425 0.004400 -0.020742 0.002616 0.005949 -0.005219 0.013408 0.006592 0.029061 0.035286 -0.022922 -0.012714 -0.030537 -0.019875 0.019262 -0.006323 0.018944 0.006133 0.008204 0.003663 -0.005211 0.007324 -0.010115 -0.007156 0.006537 0.014593 -0.014002 0.002722 -0.009566 0.016632 0.001497 -0.000289 -0.008223 0.013481 0.023461 0.000334 -0.007246 -0.005773 -0.009223 -0.034393 0.004616 0.016112 0.016362 -0.021085 -0.017877 -0.012036 -0.014558 0.033583 -0.004423 -0.015250 -0.034830 -0.006312 -0.010615 0.012344 0.010086 -0.000060 -0.025620 -0.011062 -0.027928 0.024333 0.010328 0.021969 0.015090 -0.008760 0.004552 -0.014793 -0.000122 -0.025052 -0.022344 -0.004097 -0.018440 0.009016 -0.008731 0.018144 -0.020856 -0.002506 0.000139 -0.008136 0.033956 0.003532 0.029237 0.013552 -0.000017 0.016390 -0.013487 0.017763 0.019890 0.002017 -0.000629 -0.008162 0.011481 0.000363 0.016048 -0.000700 0.019040 -0.017599 -0.004858 -0.011759 0.006593 -0.001297 -0.017764 -0.000565 -0.029387 0.019118 -0.011917 0.005921 -0.021599 0.004815 -0.006171 -0.026962 0.036838 -0.001465 -0.034686 -0.016006 -0.008752 -0.025590 -0.031535 0.015415 -0.008351 0.013840 0.010721 0.007651 0.018837 0.024569 0.000160 -0.011174 0.034310 -0.014990 0.006779 -0.015452 -0.018861 0.003487 -0.014883 0.020702 0.000282 0.037214 0.009400 0.024583 -0.004290 0.013474 -0.020110 -0.020198 -0.003210 -0.004497 0.006426 -0.010802 -0.025593 -0.014983 -0.037722 0.007711 -0.015646 -0.031240 -0.015717 -0.013119 0.020154 -0.000757 -0.026723 -0.021891 -0.007518 -0.000841 0.004654 -0.002628 0.013962 -0.026593 -0.002026 -0.011452 0.034883 -0.001331 -0.017659 -0.005703 0.022314 0.001275 -0.004291 0.014470 0.017881 0.019434 -0.011959 0.010222 -0.011880 -0.004486 0.009614 0.019610 0.007137 0.028144 -0.020007 0.007177 0.005766 0.004742 -0.008754 -0.004834 -0.019355 0.001484 0.001384 -0.004776 -0.014778 -0.014168 0.009671 0.016368 -0.004655 -0.000626 -0.006504 -0.002229 0.007468 -0.000950 0.006523 0.007900 0.025559 -0.003965 0.001515 -0.014004 -0.020938 0.033366 0.002996 -0.007531 -0.035657 -0.013477 0.000042 0.003425 -0.016317 -0.040590 0.011443 -0.010436 0.017490 -0.002052 -0.011958 0.002554 -0.007916 -0.014448 0.004745 -0.003130 -0.001686 0.035540 -0.002889 0.002440 0.021434 0.004333 -0.005165 0.010792 0.023141 -0.004628 -0.018840 -0.001541 -0.003221
14 -0.013592 0.006218 0.018243 0.025445 0.032066 0.014901 0.036367 -0.014294 -0.000207 0.030912 0.049537 0.009028 0.011435 -0.020987 -0.034574 -0.004444 0.012780 0.029274 0.019816 0.026525 -0.003306 0.013189 0.007411 0.007234 -0.011433 -0.008214 -0.007470 -0.009265 -0.003892 0.010541 -0.004689 0.033623 -0.002365 -0.008881 0.000717 0.004618 -0.019460 0.004015 -0.024496 0.016942 0.007768 -0.011056 0.002528 -0.028171 -0.033576 0.014008 -0.014773 -0.017705 0.004417 0.019626 -0.005513 0.006777 -0.004376 -0.001006 0.011988 0.017918 -0.003175 -0.025980 -0.029194 -0.017332 -0.003988 0.008325 -0.046973 -0.005644 -0.012968 0.004014 -0.001667 0.021188 -0.016080 -0.016633 0.010988 0.012694 -0.011118 0.027931 0.017306 -0.013964 -0.001996 0.009342 -0.007386 0.003162 -0.010225 -0.004606 -0.003005 -0.000429 0.000019 0.009712 -0.006190 -0.007923 0.007274 0.016286 -0.021258 -0.018618 0.013629 -0.005677 -0.017795 0.012381 -0.010526 0.034596 0.014758 0.002723 0.010218 -0.010639 0.004922 -0.002952 0.007597 0.007449 0.008893 -0.019369 -0.006849 0.002935 -0.013877 -0.002329 0.017779 0.024872 -0.018568 -0.004511 0.034622 0.016217 0.010941 -0.009405 0.011723 -0.027415 0.002797 0.024374 -0.012416 0.004765 -0.007964 0.002752 0.010029 -0.002185 0.020473 0.003592 0.010283 0.002101 -0.002070 -0.023229 -0.002991 -0.008104 0.014295 -0.005244 -0.012047 0.029401 0.024501 -0.020383 -0.018374 -0.010120 -0.000007 0.009474 -0.019679 0.018780 0.032673 0.006521 -0.031225 -0.023258 -0.008980 0.020741 0.005194 0.010999 -0.001270 0.012426 0.020753 -0.009909 0.006863 -0.012128 -0.002754 0.006044 0.014423 0.008945 0.001917 0.025393 0.001661 0.018705 0.006940 -0.002592 0.005584 0.003914 -0.003082 -0.017133 -0.014775 -0.023570 -0.009321 0.008966 0.016292 -0.000521 0.013173 -0.013694 -0.017555 -0.014649 0.027367 0.012370 -0.004169 -0.001431 0.015063 -0.022126 -0.001072 -0.018148 0.005227 -0.004933 0.012615 -0.007807 0.010018 0.001497 0.007181 0.013968 -0.007280 0.009158 -0.037959 -0.014401 -0.018090 -0.004257 0.033933 0.007222 -0.019332 0.000586 0.011507 -0.005412 0.013046 0.028512 0.004747 0.018934 0.006945 0.015369 0.013005 -0.009217 0.014527 -0.006861 0.025043 0.012218 0.006717 -0.009145 0.011687 0.022420 -0.009696 -0.000669 0.017451 -0.008252 0.002365 0.004422 0.009677 0.012456 -0.033250 0.007859 0.003849 -0.031861 0.010670 -0.018723 0.017089 0.001326 0.008165 0.019413 -0.009540 0.045765 -0.026800 -0.011065 -0.005528 -0.010573 -0.020624 -0.009266 0.001814 0.000869 0.018626 0.007364 -0.001256 0.021949 -0.011822 -0.018914 0.007266 -0.011477 -0.011718 -0.008319 -0.002273 -0.003882 -0.008603 -0.007682 0.001759 -0.007531 0.015611 0.007356 -0.018488 -0.011943 0.017643 -0.016346 -0.000797 0.000029 -0.001737 0.001705 -0.004419 -0.002799 -0.010624 -0.021950 0.008419 0.000883 -0.001354 -0.017999 -0.007542 0.000998 0.020373 -0.017771 -0.004826 -0.022045 -0.002528 0.036205 -0.007527 -0.010221 0.022435 0.024778 0.013675 -0.007838 -0.001674 -0.031330 -0.004513 0.012709 -0.026505 -0.017381 0.020747 0.013798 0.026637 -0.018480 0.028530 0.002949 -0.008831 0.003687 -0.008592 -0.005410 -0.010997 -0.005180 0.025122 0.016750 -0.013018 -0.034386 0.016110 -0.012620 0.003722 0.001476 -0.015895 0.005119 -0.012651 0.010619 -0.014863 -0.019329 -0.005021 -0.010578 -0.006993 0.023844 -0.001912 0.003440 0.007895 -0.001905 0.001132 0.021091 -0.018342 -0.031492 0.028819 0.004568 -0.007420 -0.021860 -0.008844 0.004744 0.000358 -0.015860 -0.029840 0.012231 -0.017556 0.010201 -0.021710 -0.005725 0.012015 0.026436 -0.010647 -0.016247 0.000976 0.007129 0.005051 -0.020330 -0.003414 0.010797 -0.018044 0.006213 -0.020297 0.010292 -0.018367 0.012920 -0.010428 0.007379
15 -0.009822 0.028541 0.016332 0.008257 0.008860 0.023197 0.049535 0.010776 0.028242 0.016112 0.030160 -0.011943 -0.002492 0.005278 0.001234 0.018175 0.014369 0.019537 0.028663 0.005892 0.012955 0.036940 -0.000955 0.030575 -0.011259 -0.003708 -0.007851 -0.020280 0.009364 0.015038 0.018612 0.022609 0.003901 -0.031695 0.002688 0.006118 -0.010832 0.009486 -0.006734 0.003360 0.032786 -0.016380 0.008722 -0.018736 -0.040722 -0.009452 -0.024227 -0.021777 -0.008868 0.011141 0.012656 0.009319 0.004116 0.007060 -0.021144 0.004560 0.007313 0.017773 -0.012532 0.001278 0.015332 0.035481 -0.024562 -0.027943 0.033968 0.003578 -0.018886 -0.012328 -0.021513 -0.024026 0.010747 -0.005416 -0.002445 -0.012667 0.003082 -0.013344 0.012988 -0.010182 0.010359 -0.001373 -0.024271 -0.007241 0.001201 -0.011010 -0.003623 -0.013682 -0.001524 0.001529 0.002150 0.008520 -0.033282 -0.005699 -0.000174 -0.006417 -0.000432 -0.006844 -0.024848 0.046901 0.029903 -0.003246 0.037049 -0.029561 0.011888 -0.006721 -0.004759 -0.001033 -0.001344 -0.017956 -0.003286 0.009614 -0.012875 0.005359 0.002088 0.014224 -0.009689 0.012333 0.010184 0.009425 -0.001648 -0.011972 -0.027802 -0.011525 -0.005790 0.020100 0.019647 -0.003013 -0.009179 0.011104 0.011243 -0.003134 0.027086 -0.003771 0.011396 0.004831 -0.027607 -0.023371 -0.001590 -0.032329 0.023290 0.010831 -0.000507 0.021991 0.016845 -0.023306 -0.000817 -0.009666 0.003632 -0.027280 -0.000239 0.012500 0.015361 0.034518 -0.012824 0.004823 -0.008876 -0.012845 0.018455 -0.021063 -0.007248 0.009560 0.003721 -0.008758 -0.001807 -0.017278 -0.014500 0.013957 0.021114 0.006586 0.001593 0.020927 -0.017044 0.005818 0.013007 -0.034279 0.001477 -0.007668 -0.001009 -0.000427 0.012654 0.015983 -0.008946 0.010850 0.003368 0.007178 0.003389 -0.026356 0.018192 0.003517 0.015328 -0.005217 -0.029810 0.002013 -0.001190 -0.016838 0.010272 -0.027766 0.011570 0.013271 0.006590 0.005768 -0.012644 0.003653 -0.012477 -0.030324 0.018139 0.001350 -0.016660 -0.018563 -0.001808 0.004548 0.012996 0.014961 -0.019927 0.025935 -0.006078 -0.007139 0.022571 0.006034 0.019575 0.004328 -0.018124 0.021288 0.023770 -0.006391 -0.012222 -0.023104 0.008125 0.003898 0.006989 -0.008783 0.020229 0.007451 0.016864 -0.014241 -0.011330 -0.011417 0.000816 0.011708 0.018441 0.013287 -0.013800 0.033925 0.021797 -0.003379 -0.024529 -0.001213 -0.002306 -0.013253 0.002055 0.000098 0.005179 0.042248 -0.026620 -0.000656 -0.002845 -0.003048 -0.024624 -0.019767 0.002756 0.013482 0.011965 -0.006797 -0.008241 0.032668 -0.023641 0.009874 0.011205 -0.006680 0.016392 0.001342 -0.002112 -0.010155 0.015432 -0.009206 -0.014188 -0.013433 -0.021812 0.005125 0.003063 -0.022192 -0.000961 0.019707 0.016540 0.020400 -0.014684 0.022632 -0.005111 -0.000728 -0.013140 -0.001243 0.009693 -0.004027 0.003855 0.004739 -0.002634 0.005483 0.025608 -0.010813 -0.016666 -0.013678 0.004730 0.031031 -0.007640 -0.028427 0.010231 0.029227 0.013773 0.006976 0.002147 0.016738 -0.007864 0.006529 -0.039296 0.002465 -0.003378 0.036123 -0.025058 -0.005798 -0.000575 0.003567 0.013196 0.005122 0.000307 -0.003747 -0.017827 0.010175 0.007137 0.034046 -0.001125 -0.015036 -0.001094 0.003915 0.011671 0.013744 -0.008358 0.004519 -0.036683 0.012855 0.005296 0.001682 -0.006603 0.028666 -0.010814 0.013860 -0.002148 0.002232 0.010318 0.009318 0.011627 -0.015320 -0.017091 -0.030773 0.021100 0.010168 -0.008918 -0.030545 -0.024677 -0.011900 0.001966 -0.007643 -0.011669 -0.015793 -0.038669 -0.017975 -0.006166 0.004049 0.006297 0.018892 0.009861 -0.005883 0.021879 -0.011342 0.010671 -0.014350 0.001692 0.033030 -0.009546 0.015019 0.002919 0.000189 -0.000803 0.004463 0.000693 0.005096
16 -0.009243 0.024977 0.017287 -0.006435 -0.006186 -0.000065 0.020794 -0.008760 0.029732 0.023157 -0.003642 0.008761 -0.016884 0.000343 0.001705 -0.012950 0.016792 -0.012577 0.031346 0.021202 0.008638 0.023901 -0.005661 0.025050 0.000669 0.021697 0.010894 -0.017542 -0.013534 -0.024644 0.007685 -0.004166 0.012090 -0.008151 0.015397 0.009037 -0.000287 0.004759 0.012447 -0.017299 0.026936 -0.012421 0.026375 0.005115 -0.003845 -0.011714 -0.003608 -0.014630 -0.012434 0.016024 0.011332 0.014741 -0.018505 -0.006879 -0.010802 0.010847 0.012084 0.015052 -0.010654 0.020056 -0.024305 0.036194 -0.001236 0.000595 0.022779 0.010168 -0.010813 -0.014143 -0.016013 -0.010861 0.000166 -0.002252 -0.022131 -0.002400 -0.004748 -0.027203 -0.001976 -0.017962 0.024687 -0.019348 -0.008797 0.017284 -0.004607 0.023976 -0.024731 -0.027715 -0.005627 0.014147 0.012061 0.001831 -0.015696 0.001800 -0.003552 -0.005399 -0.004567 -0.031881 -0.019134 0.030754 0.021251 0.018798 0.020055 -0.017388 -0.003204 0.021128 -0.043665 -0.006379 -0.021259 0.018631 -0.022503 -0.007767 0.016846 -0.023911 0.000831 -0.007226 0.008363 -0.000270 0.008516 -0.001685 0.013416 -0.007082 -0.039353 0.010046 -0.022743 0.012231 -0.000533 0.001878 -0.005461 0.018979 0.010514 -0.006898 0.039874 0.013666 0.004092 -0.009950 -0.000347 -0.022696 0.010593 -0.034681 0.027577 -0.012375 0.010485 -0.003001 0.001820 -0.028824 0.009866 -0.021170 -0.016796 -0.029122 -0.008477 0.013943 0.042657 0.020563 0.016426 -0.027981 -0.006782 0.003676 -0.004450 0.024300 0.004946 -0.002278 -0.009311 -0.016554 0.001638 0.017213 -0.023429 0.003964 0.029293 -0.012178 0.002424 0.035124 -0.019310 0.012195 -0.021282 -0.019469 -0.007266 -0.006453 0.019593 0.016830 0.018584 0.008741 0.011338 -0.023658 -0.028721 0.005064 -0.007151 -0.014288 0.009561 0.024526 0.030885 -0.002110 -0.045933 0.005596 0.012653 0.003871 -0.011421 0.008150 -0.003440 0.003368 0.011699 -0.005513 0.015210 -0.010081 -0.009352 -0.010806 0.011326 0.014598 -0.001320 -0.010281 -0.007148 -0.007938 0.007219 0.005928 -0.004752 0.007381 -0.013934 0.006218 -0.009863 -0.001407 0.008440 0.000538 -0.001192 -0.005654 0.024376 -0.002965 -0.009485 -0.037047 0.001114 -0.005552 0.002622 -0.015545 0.018319 0.011534 0.055973 -0.002737 -0.000315 0.000362 0.008832 0.003360 0.018550 -0.016029 0.003807 0.025022 -0.012066 -0.028795 -0.021090 0.002096 0.013142 -0.003401 -0.002895 0.008578 0.006965 -0.010096 0.013455 -0.004894 -0.006279 0.003781 -0.001554 -0.020478 -0.006049 0.022036 0.007634 0.012198 0.022710 0.037517 -0.021479 -0.023701 -0.004578 0.023044 -0.004890 -0.002517 -0.020890 0.000496 0.008198 0.006322 0.008686 -0.008654 0.002088 0.003494 -0.017835 0.005324 0.003527 0.014218 0.001859 -0.002829 -0.012837 0.037464 0.008047 -0.005730 0.005927 -0.016386 0.001215 0.011595 0.032316 0.027753 0.003876 -0.008953 -0.008847 0.004530 -0.006540 0.004614 -0.006081 0.012600 0.006965 -0.008245 -0.017971 0.016390 0.015547 0.005119 0.011912 0.016501 0.009062 -0.003943 -0.039136 -0.003801 -0.013143 0.028807 0.005494 0.006277 0.011834 -0.002322 -0.010514 0.000323 -0.001495 0.024676 -0.009564 0.009522 -0.009358 0.033820 -0.009547 -0.005650 -0.023496 -0.003219 -0.017456 -0.002451 -0.002993 -0.018386 -0.038933 0.003281 -0.024204 0.006428 -0.009549 0.010930 -0.024630 0.004650 0.016730 -0.002364 -0.009969 0.010879 -0.001982 -0.022462 -0.011055 0.014447 -0.014016 -0.004466 0.015579 -0.026626 -0.005515 0.014010 -0.014301 -0.009637 -0.012219 -0.023681 -0.021593 -0.018518 -0.013807 0.020156 0.018831 0.021893 0.011577 0.007503 0.020268 0.005447 -0.014893 0.009825 0.013392 0.042877 0.015544 0.021076 -0.009341 0.018375 -0.004299 -0.021137 -0.002630 -0.002706
17 -0.013726 0.011455 -0.036323 -0.003890 0.011489 -0.012833 -0.012292 -0.003903 0.012161 -0.013462 -0.010441 -0.017516 -0.010368 -0.012369 -0.004501 -0.009374 0.035828 -0.028798 0.000920 0.019888 0.011396 0.013872 -0.016016 0.004037 -0.002155 0.022447 0.020748 -0.008928 -0.004355 0.001294 -0.008883 0.007356 0.007555 -0.015351 -0.010918 -0.023489 0.001202 -0.002584 0.006552 -0.027003 0.030205 -0.033184 0.042314 0.009447 -0.020027 -0.016283 -0.022289 -0.021340 -0.007440 0.035536 -0.010135 -0.004736 -0.007392 0.022897 -0.003152 0.025465 -0.000542 0.005861 -0.002001 0.035882 -0.036659 0.004134 0.004509 0.021803 0.028221 0.006635 0.017932 -0.033846 -0.027370 -0.005922 -0.018816 0.001340 -0.018692 0.008011 -0.008963 -0.007434 -0.013980 -0.007115 -0.001484 -0.014352 -0.002777 -0.003020 -0.013904 0.014203 -0.049144 0.012725 -0.012342 0.009268 0.011296 0.012833 0.014439 -0.025922 -0.005130 0.008918 0.020483 0.001321 -0.006702 0.010905 0.025540 0.015514 0.014477 -0.030672 0.003597 0.018444 -0.031424 -0.039844 0.022910 0.031578 -0.024022 0.007849 0.013958 -0.007157 -0.005005 -0.017421 -0.006032 0.007096 -0.014566 -0.005748 0.012223 -0.006600 -0.029406 0.030473 -0.038376 -0.007387 0.000175 0.024858 -0.021462 -0.010053 0.015178 0.013808 0.029043 0.010792 -0.008170 -0.005761 -0.030750 -0.006818 -0.022476 -0.014941 -0.006721 -0.006918 -0.025994 0.024001 0.012071 0.007517 0.020120 -0.020106 -0.017214 -0.034099 0.010172 0.011765 0.007927 0.023836 0.001641 0.024692 0.006549 -0.009598 0.004324 0.025378 0.019119 -0.017791 0.005614 -0.015105 -0.002360 -0.010559 -0.038086 0.021224 0.014928 0.007181 0.003113 0.031621 -0.010023 0.011900 -0.008482 -0.022936 -0.004987 0.016424 0.037608 0.006784 0.000784 -0.011112 0.000772 -0.019846 0.003823 -0.002626 -0.009233 -0.021194 -0.007083 0.018224 0.014716 -0.020208 -0.001665 0.014750 0.003046 0.011318 -0.004536 0.027579 -0.000131 0.022486 0.002530 -0.026154 0.001508 -0.026192 -0.005306 -0.005626 0.007070 -0.002430 0.016243 0.000462 -0.018378 -0.014263 0.016657 -0.012231 -0.000694 -0.000649 0.007586 0.004534 -0.019317 -0.015251 -0.002181 0.032053 0.018288 -0.010099 -0.003952 -0.003361 0.028779 -0.000486 0.010582 -0.009918 -0.020597 -0.001393 0.012642 -0.015617 0.011647 0.013503 0.019452 0.007600 -0.010238 -0.022426 0.017014 -0.026799 0.013170 0.027166 -0.008879 -0.018163 -0.011364 0.007289 0.013231 0.004097 -0.003414 -0.003586 0.013372 -0.007253 0.012805 -0.007803 -0.023344 -0.010308 -0.008838 0.007432 -0.009877 0.007627 -0.007113 0.012077 0.007860 0.025387 -0.005949 0.003934 0.016224 -0.008842 0.007360 0.009684 -0.031583 0.009799 -0.015208 0.012496 -0.019055 -0.016492 0.012011 -0.013792 -0.000569 -0.000726 -0.017825 0.021529 0.010890 0.012029 0.006735 0.002508 0.003227 -0.004832 0.020741 0.002875 -0.031157 0.044482 0.007640 0.026393 0.000599 -0.008331 -0.005965 0.006326 -0.013867 -0.009854 0.026690 0.018203 -0.018505 -0.005099 -0.000671 -0.014442 0.008941 0.029369 0.020005 0.006907 0.024472 -0.010221 -0.012149 -0.009728 -0.011705 0.024627 0.008770 -0.006234 0.011079 0.009599 -0.009037 0.007526 -0.013097 0.008792 0.011029 -0.005715 -0.018064 0.007560 -0.009809 0.020794 -0.024549 0.009299 -0.004367 0.003348 0.010032 -0.007594 -0.014155 0.028496 -0.016675 -0.009703 0.007296 0.016629 0.004546 0.009823 0.014276 -0.015163 -0.029666 -0.018572 -0.010557 0.006940 -0.023607 0.010579 -0.005554 -0.017226 0.025945 -0.035002 -0.003901 0.026151 -0.038618 -0.014698 -0.023728 -0.009703 0.009164 -0.016225 -0.012059 0.015393 0.022035 0.015942 -0.000840 0.038708 -0.009926 0.003432 -0.002614 0.020238 0.021818 0.025370 0.018508 0.026649 -0.015938 0.001956 0.007776 0.006131 -0.011474 0.015112
18 -0.027269 0.026163 -0.027132 -0.012493 0.017111 -0.020089 -0.007427 -0.008210 -0.007273 -0.028414 -0.021495 0.002287 0.007717 -0.006970 0.010948 -0.008178 0.033374 -0.003731 -0.016813 0.031175 0.009721 0.014826 0.003083 0.011303 -0.001123 0.002638 0.013525 -0.000926 -0.029693 -0.000340 -0.031939 -0.009132 0.003876 0.003932 0.009968 -0.026166 -0.011513 0.013362 -0.012115 -0.020011 0.015141 -0.034856 -0.011801 0.006009 -0.014217 -0.014199 0.014414 0.008836 -0.017176 0.027563 -0.019316 -0.011291 0.002839 -0.009778 -0.024399 0.005588 -0.013389 0.006117 0.015356 0.012269 -0.009379 0.010795 -0.022026 0.017397 0.038538 -0.001662 -0.008744 -0.023461 -0.029706 0.000175 -0.014091 -0.016233 -0.032084 0.006089 -0.010087 0.003825 0.014022 -0.006036 0.003831 -0.027271 -0.005388 0.007037 -0.019709 0.013645 -0.022644 0.008444 -0.029659 0.032320 -0.022637 -0.010221 0.011581 0.003304 -0.015511 0.003782 0.035722 0.020179 -0.000682 0.031540 -0.001728 0.017307 -0.005292 -0.033614 -0.006066 0.021090 -0.014626 -0.046726 0.008286 0.031472 -0.014064 0.009080 0.011995 0.002446 -0.009304 -0.007963 -0.006360 -0.005403 -0.016230 -0.003860 0.031383 -0.018607 -0.014284 0.021691 -0.023350 -0.002846 0.004183 0.038538 -0.030924 0.010259 0.018028 0.010604 -0.010038 -0.013875 -0.011048 -0.002692 -0.012048 0.022235 -0.019928 -0.021069 0.002901 0.001001 0.008644 0.029825 0.030397 -0.012113 -0.004480 -0.009586 -0.020022 -0.015434 0.006595 -0.008770 0.000280 0.026957 0.006881 -0.008473 0.016224 -0.007145 0.009898 0.011852 0.044499 -0.020853 -0.005376 -0.023684 0.001016 -0.018105 0.001194 0.008727 0.001724 0.015330 0.016825 -0.000217 0.006296 0.003795 -0.016130 -0.017636 0.013315 0.002700 0.017321 -0.017514 0.020417 -0.051504 -0.018205 -0.008266 0.018313 -0.001748 0.000451 0.004492 -0.015337 -0.006223 0.030373 -0.023319 0.021930 0.016128 0.011454 0.017358 0.007683 0.026091 -0.006822 0.011499 0.005614 -0.003950 -0.004691 -0.003823 -0.023049 -0.010084 0.001169 0.000215 0.016912 0.004399 0.004528 0.025049 -0.013734 -0.024574 -0.003443 0.006500 0.019735 0.011537 -0.004495 0.036746 0.008035 0.033721 0.008116 -0.030704 0.006498 0.001561 0.030263 0.005975 0.010590 0.005834 -0.016472 0.020850 -0.019931 -0.036223 0.003434 -0.001291 -0.012987 0.004048 -0.003741 0.006077 0.022088 -0.015328 0.001088 0.007939 -0.000617 -0.019569 0.028239 0.004672 0.010821 -0.002083 -0.024185 -0.006938 0.033051 0.009334 0.003899 -0.012470 0.008540 -0.012542 0.007311 0.021070 -0.019359 -0.011022 -0.033715 0.005997 0.004415 0.022127 -0.018893 -0.003017 0.014436 -0.018678 0.003069 0.014989 -0.034508 -0.008707 -0.012384 -0.000630 0.009219 0.001268 -0.027507 -0.000096 -0.002886 -0.029163 -0.005699 -0.002507 0.004534 0.009411 0.024640 -0.022058 -0.019376 -0.016417 0.017714 -0.007585 -0.008532 0.032687 0.005002 0.012301 0.003085 -0.016558 -0.014387 -0.011153 0.005087 -0.010366 0.032654 0.007319 -0.022903 0.022988 0.015930 -0.025049 0.004073 0.025157 0.018431 -0.001574 0.018577 -0.037377 0.002461 -0.020014 0.017601 0.015025 0.021990 -0.007048 -0.001853 0.004995 0.008742 0.020620 0.012630 0.011753 -0.008529 -0.028878 -0.024530 0.027603 0.000042 0.008812 -0.000766 -0.001860 -0.025563 0.009070 -0.007500 0.002309 0.002487 -0.000728 0.010373 -0.023289 0.003262 -0.006484 0.011264 0.005945 0.001341 -0.009631 0.009451 0.001918 0.017869 0.008891 -0.013024 -0.007644 -0.001089 -0.015454 0.023781 -0.042640 -0.026434 0.026646 -0.018963 -0.031264 -0.025950 -0.012408 0.012934 -0.015797 -0.004789 -0.014031 0.019553 -0.006583 -0.009616 0.022160 0.015188 -0.004001 0.008411 0.014408 0.022551 0.020950 0.036185 0.002776 0.010895 -0.021259 0.005392 0.009945 0.012645 0.004142
19 -0.010019 0.042605 -0.009409 -0.022775 -0.001701 -0.010286 -0.017519 -0.001704 -0.027658 0.006596 -0.026165 -0.000361 -0.001173 0.009625 0.020040 -0.008893 0.015412 0.010521 -0.034565 0.004398 0.011892 0.009096 0.013244 0.006147 -0.016262 -0.013577 0.015633 0.008928 -0.015598 0.010755 -0.047579 -0.000604 0.001192 -0.002973 0.032251 -0.026243 -0.017825 0.034284 0.003075 0.019683 0.025167 -0.037128 -0.003021 0.007030 0.004315 -0.026603 -0.000369 0.024875 -0.006685 0.015134 0.004812 0.003451 -0.003095 0.012219 -0.036687 0.020906 -0.038000 -0.008451 0.030365 0.010914 -0.022641 -0.006185 -0.007332 0.004822 0.003610 -0.027441 -0.005765 -0.007536 0.002853 -0.010507 0.016696 0.023136 -0.034249 0.006992 -0.034694 0.005033 0.005873 0.000550 0.003758 -0.016001 0.012645 0.004228 -0.020133 -0.008036 -0.018171 -0.008129 -0.000598 0.019165 -0.012634 -0.009466 -0.019275 0.012270 -0.019894 0.014898 0.011170 0.002837 -0.003590 0.028999 -0.019990 -0.027511 -0.016266 -0.014305 -0.012022 0.016062 -0.045942 -0.023954 -0.003199 -0.008290 0.016986 0.003593 0.007101 -0.000594 -0.012741 0.009675 -0.022405 -0.008772 0.005794 -0.011296 0.022967 0.005392 0.012501 -0.000331 -0.005750 0.012070 -0.009120 -0.001666 -0.038476 0.022590 0.028572 0.007143 -0.004459 -0.027844 0.015918 -0.003861 0.011256 0.017430 -0.001232 0.020649 0.004518 0.000262 -0.013840 0.007894 0.005269 0.008728 -0.018522 -0.019902 -0.026779 -0.003824 0.017765 0.020433 -0.006896 0.027069 -0.004532 -0.018687 -0.000152 -0.011352 0.020658 0.007887 0.011577 -0.009183 -0.014611 -0.032659 0.011649 0.006187 0.013096 -0.013700 -0.007185 -0.008900 0.007431 -0.014937 0.008092 -0.016009 -0.024758 -0.023095 -0.003150 0.015631 0.007937 -0.006029 0.002842 -0.037750 0.003606 -0.021258 0.007190 0.017822 -0.010159 -0.019553 -0.019913 -0.003587 0.007700 -0.008225 0.020866 0.019189 0.025161 0.008774 0.026880 0.006626 0.039455 0.018944 0.014034 0.017543 -0.024345 -0.005668 -0.010197 0.008459 0.006656 0.002072 -0.001513 -0.012872 0.008322 0.017754 -0.016835 -0.002844 -0.006276 -0.000139 0.004753 0.003847 0.016852 0.027776 0.004868 0.018262 0.030961 -0.027851 0.003423 0.011510 0.025347 -0.001230 0.045227 0.030196 -0.006734 0.021140 -0.001119 -0.020077 0.006490 -0.013667 -0.002904 0.003474 -0.018963 -0.001941 -0.001188 0.005075 0.018531 0.029414 0.011457 -0.025328 0.028408 -0.024706 -0.000677 -0.000301 -0.043397 0.025159 0.008565 0.001995 0.024162 0.000896 0.022192 0.013273 -0.015248 0.013058 -0.004302 -0.003136 0.004789 0.015376 -0.008562 -0.001921 -0.011717 0.005139 0.009879 -0.002886 0.022731 0.016609 -0.004325 -0.016978 -0.026806 -0.019195 0.014845 -0.003992 0.000067 0.017411 0.002084 -0.030580 -0.005618 -0.015842 -0.026620 0.026194 0.029369 0.002099 -0.020590 -0.013158 -0.009046 -0.003982 -0.018766 0.013344 0.020983 0.001533 -0.021421 -0.011350 0.008504 -0.018705 -0.005393 -0.023800 0.024271 -0.007262 0.009329 0.025688 0.030669 -0.005667 0.008989 0.003554 0.032293 0.014402 0.000292 -0.017424 0.023513 -0.017706 0.013976 0.018394 0.008858 -0.025548 0.006696 0.004427 0.008527 -0.003224 -0.014909 0.011295 -0.014792 -0.024928 -0.010267 0.042597 0.008699 -0.022752 -0.002005 -0.001186 -0.010947 0.011371 -0.015091 0.023427 -0.002000 -0.005220 0.018146 -0.011386 0.028053 -0.007406 -0.010025 0.005809 -0.014059 -0.026582 -0.005490 -0.011199 0.002346 0.009551 0.027434 -0.002691 0.007994 -0.003503 0.023849 0.002620 -0.032481 0.008705 -0.026950 -0.008091 0.003872 -0.023323 0.031499 0.009985 -0.004027 -0.008225 0.007889 0.012526 0.007415 0.029128 -0.006597 0.012137 0.005854 -0.002169 0.014024 0.033890 0.018612 0.010326 0.016418 -0.028687 0.010301 0.015846 0.018440 -0.013204
20 0.000699 0.023155 -0.036990 -0.021558 -0.013603 -0.003578 -0.027095 -0.003821 -0.005290 0.011997 -0.051624 -0.007941 -0.006182 0.026372 -0.023135 0.016070 0.017926 0.016772 -0.019321 0.011012 0.018079 -0.009441 0.024241 0.017852 -0.001890 -0.006370 -0.023014 0.008659 -0.022890 0.006840 -0.042132 -0.011923 0.006308 -0.005549 0.009963 0.005015 -0.023054 0.021439 -0.009086 0.022801 0.022778 -0.000720 0.000224 0.010783 0.015124 -0.017138 -0.028041 0.044414 0.004226 -0.001175 0.008131 0.005269 -0.020485 0.012274 -0.040584 0.019596 -0.003691 -0.001659 0.014589 0.011261 -0.036842 -0.003461 -0.004263 0.010539 0.017398 -0.016054 -0.033000 -0.019637 -0.004757 -0.001331 -0.007245 0.006615 -0.040843 0.009975 -0.024468 0.006212 -0.012690 -0.005897 0.005763 -0.003984 0.010599 0.011303 -0.038370 -0.009743 -0.009256 0.006640 -0.011474 0.025869 -0.021276 -0.031729 0.000290 0.000336 -0.023469 0.011190 0.008532 0.010277 0.021038 -0.003017 0.000917 -0.023609 -0.003070 0.007905 -0.001896 0.022088 0.001778 -0.001947 0.019309 -0.024419 0.015466 -0.000301 -0.010163 -0.001340 -0.034200 -0.019085 0.009694 -0.007867 0.030410 0.008215 -0.011634 -0.031404 0.012599 0.028348 -0.004353 0.010807 -0.021999 -0.018807 -0.020339 0.015752 0.020881 0.025028 -0.006181 -0.001390 0.024652 0.001750 0.005616 0.028890 0.001124 0.008355 0.032691 -0.002288 0.010828 0.028451 0.026394 0.011239 -0.013073 0.003166 0.009079 -0.014792 0.010395 -0.006854 0.016563 0.028419 -0.007040 -0.002831 -0.011352 0.006352 -0.008863 0.004135 0.010403 -0.024123 -0.002732 -0.017631 0.013050 0.003998 0.020393 0.018005 -0.009095 0.006213 0.003792 -0.018306 0.003501 -0.002511 -0.007917 -0.010906 0.013992 0.039264 -0.000850 -0.014710 -0.005604 -0.042716 -0.003542 -0.015970 -0.030270 0.005516 -0.012094 -0.016436 -0.001625 -0.000057 0.001959 -0.040060 0.022836 0.005214 0.009643 0.001045 0.028490 -0.000266 0.038162 0.018235 0.013414 -0.006971 -0.013719 0.003177 0.001562 -0.008032 0.004140 0.001968 -0.001939 0.016617 0.019708 0.007727 -0.019674 0.001626 -0.007697 -0.021579 0.007070 0.018193 0.047773 0.017296 0.030400 0.016228 0.023957 -0.028095 -0.011513 0.004038 0.006850 -0.026262 0.050689 0.002115 -0.011334 0.017425 -0.004857 -0.023057 -0.012083 -0.027722 0.001201 0.013838 -0.027628 -0.029227 0.006619 0.018795 0.025032 0.022875 0.016032 -0.009494 -0.002149 0.011256 -0.038386 -0.018076 -0.010963 0.008888 0.013182 -0.024747 0.017132 -0.002384 0.006589 -0.011512 -0.038493 0.012153 0.003715 0.016490 0.010081 0.005423 0.014836 -0.006527 0.015935 0.003210 0.009291 -0.023425 0.008002 -0.008930 -0.005460 -0.039195 -0.016675 -0.002625 -0.006592 0.001888 -0.009750 0.000780 -0.011472 -0.043615 0.004529 -0.008189 -0.011184 -0.008665 -0.016605 -0.005390 -0.016040 -0.012272 -0.029221 0.019788 -0.014441 -0.015894 0.012621 0.020688 -0.008394 -0.029934 -0.010868 0.006876 -0.030877 -0.042216 0.014583 -0.002546 0.011665 0.014314 0.024283 -0.001266 -0.001686 -0.011404 0.012891 0.016666 -0.025116 -0.022254 0.004846 -0.004493 0.013171 0.018108 -0.011988 -0.020904 0.027523 0.017877 -0.010128 0.003986 -0.051785 0.006220 -0.005299 -0.039657 0.001583 0.004915 -0.001936 -0.031514 -0.002245 0.018185 -0.000886 0.011466 0.006952 -0.011498 -0.013727 0.004184 0.000933 -0.023556 0.049511 0.017787 0.004574 0.025380 -0.021835 -0.005355 0.003804 -0.008091 -0.011678 0.008596 0.039520 0.003216 -0.002524 0.015966 0.012469 -0.021017 -0.025942 -0.029855 0.009602 -0.021816 0.012188 -0.011308 0.004458 -0.007477 -0.013834 -0.008152 0.026252 -0.000233 -0.006605 0.011354 -0.021816 -0.009888 0.001497 0.008795 0.005688 -0.021247 0.024275 -0.015483 0.001698 -0.013834 0.015758 0.011083 0.009289 -0.005080
21 0.005555 0.015222 -0.028689 -0.023936 -0.016204 0.007608 0.023536 -0.011973 0.010021 0.001536 -0.042490 -0.013070 -0.028324 0.012143 -0.006405 -0.007935 -0.000293 0.028769 -0.014995 0.003502 0.021209 -0.023019 0.035777 0.019994 0.001021 0.015311 -0.023025 0.031439 -0.012969 0.009734 0.011862 0.009170 0.016913 -0.007588 0.012633 -0.022016 -0.007508 0.025831 -0.032921 -0.006146 0.014221 0.015772 -0.007245 0.020207 0.052964 -0.018814 -0.037732 0.033971 -0.000331 -0.022889 0.039960 -0.031649 -0.022885 -0.016657 -0.049654 0.005180 0.005181 0.003603 0.037312 0.008559 -0.028675 -0.006537 0.009033 0.001445 0.030571 -0.017551 -0.007726 -0.009163 0.021369 -0.006757 -0.007599 -0.001155 -0.046776 0.019133 -0.007204 0.013466 0.009429 0.012720 -0.007626 0.006342 -0.009066 0.009362 -0.037478 -0.010021 0.011145 0.008013 0.003576 0.021269 0.010602 0.000806 -0.027093 0.009853 -0.006494 0.033937 0.009133 0.010527 0.026529 0.037415 0.003943 -0.037885 -0.002734 0.004026 0.013872 0.009257 -0.000123 0.010056 0.006771 -0.013611 0.006589 -0.007174 0.009730 -0.026785 -0.002776 -0.023185 0.022998 0.013618 0.013565 0.004719 -0.017727 -0.027017 0.006622 0.023191 -0.027510 0.023697 -0.013331 -0.020584 0.000121 0.024738 0.001210 0.026586 0.014372 -0.009010 0.034369 0.010326 0.033853 -0.005657 0.005337 0.003347 0.031658 0.033959 0.003000 0.039161 0.013546 -0.015212 -0.019968 -0.006981 0.004324 -0.012985 -0.007723 0.001717 -0.008589 -0.015248 0.013969 0.005716 -0.025334 -0.005788 -0.003182 -0.001333 -0.003689 -0.022891 0.000293 -0.019031 0.012948 0.012257 -0.014900 0.016128 -0.003040 -0.000170 -0.005653 0.011770 -0.027989 -0.009374 0.013695 0.016930 0.005759 0.027673 0.014872 -0.016542 -0.000900 -0.046460 0.005102 -0.002660 -0.029320 -0.002953 -0.022276 -0.012818 0.001145 -0.000754 -0.004721 0.003240 0.002674 0.013462 -0.018424 0.015221 -0.005528 0.010160 0.034642 -0.029354 0.000970 0.013227 -0.014594 0.005542 0.028320 -0.016179 0.007829 0.004338 -0.017779 0.005209 0.008064 0.021838 -0.027699 0.003400 0.020978 -0.009238 0.007429 0.021044 0.012249 0.004596 0.010931 0.012668 0.027151 -0.026607 0.027676 -0.017193 -0.004994 -0.020925 0.016389 0.002831 -0.022914 -0.018200 -0.017830 -0.012080 -0.010753 -0.001960 0.013616 -0.022390 -0.030298 0.004688 -0.001391 0.010277 0.001544 0.014441 0.019164 -0.002448 0.001723 -0.024078 -0.018840 -0.016047 -0.013951 0.019640 -0.005523 0.003002 0.011387 -0.009653 0.010772 -0.020463 -0.016685 0.005986 -0.006133 0.034290 0.017530 -0.010514 -0.010831 -0.001160 0.016368 -0.004080 0.007415 -0.010229 -0.012983 0.002232 -0.011206 -0.011906 -0.014086 0.026918 -0.007328 0.011962 -0.032350 0.018768 0.002071 -0.048457 0.015511 -0.005276 -0.002379 0.008129 -0.004900 0.011772 -0.008402 -0.024316 -0.020550 0.010373 -0.009078 0.010791 0.032179 0.013708 -0.021877 -0.019896 0.008021 0.010797 -0.017965 -0.013460 -0.002931 0.000701 0.018865 -0.000990 0.009443 0.035458 -0.014526 0.005891 0.019371 -0.006123 -0.001779 -0.004843 -0.005088 -0.013680 0.017620 0.003570 -0.025103 -0.001496 0.025597 0.009028 0.019122 -0.006208 0.002416 0.002258 -0.017440 -0.020523 -0.002406 0.009804 -0.001295 0.007396 -0.009600 0.037481 -0.000407 0.043386 -0.001193 -0.011484 0.000950 -0.022326 -0.009393 -0.005634 -0.000169 0.007463 0.013702 0.018206 -0.001167 -0.017999 0.000825 0.009283 -0.002595 -0.004648 0.025535 -0.021444 -0.020174 0.006738 0.020260 -0.014476 -0.009934 -0.024151 -0.001812 -0.024711 0.028011 -0.036290 0.006584 0.012891 -0.025968 -0.004893 0.015318 0.014648 -0.026295 0.042660 0.016847 -0.011166 0.001810 -0.002873 -0.002325 -0.003262 0.023793 -0.019406 -0.021796 -0.013758 -0.003847 -0.027151 0.032087 -0.011810
22 -0.001683 0.016623 -0.011080 -0.026910 -0.013036 0.014175 -0.018534 -0.004396 0.002792 -0.003883 0.006337 -0.015579 0.017952 0.006293 -0.017418 0.014123 -0.001175 -0.001614 -0.027188 0.031016 -0.006477 -0.039261 0.011500 -0.023246 0.024368 0.017458 -0.020653 0.019513 -0.015534 0.007049 0.032082 0.027944 0.005737 -0.002732 -0.009866 -0.015320 -0.001001 0.004860 -0.012554 0.002165 0.028679 -0.011725 0.019803 -0.009090 0.028577 -0.038697 -0.022774 0.007618 0.001385 -0.005009 0.036758 0.002365 -0.017201 -0.010477 -0.021362 -0.000216 -0.006786 -0.004044 0.011930 -0.010091 -0.035068 -0.000267 0.025207 0.004794 0.005229 -0.025108 -0.016684 0.011538 0.010958 -0.010983 -0.024359 0.002031 -0.042409 0.019947 -0.025351 0.008697 0.014677 -0.006901 -0.035201 0.015935 0.008363 0.028702 -0.017423 -0.001366 0.005531 -0.016977 0.001749 0.001751 -0.000287 0.014899 -0.015761 0.019161 -0.029359 0.021650 -0.002771 0.014911 0.007600 0.018267 0.018233 -0.060247 -0.008385 0.027738 0.016522 0.015670 -0.013550 0.034636 0.013563 -0.007057 -0.005734 -0.031126 0.005083 -0.002096 -0.010020 -0.015342 0.004707 0.038852 0.027302 0.021685 0.003431 0.000029 0.005684 -0.000105 0.003605 -0.013931 -0.009665 -0.020494 -0.003292 0.026268 -0.002792 0.016110 0.021563 -0.009179 0.009360 -0.002989 0.012541 -0.031955 0.008970 0.022493 0.015500 0.014669 0.003867 0.038694 -0.003060 -0.018790 0.008969 -0.020494 -0.005384 -0.029809 0.003550 0.033403 0.001886 -0.010286 0.016151 -0.002387 -0.021314 -0.000268 -0.012606 -0.000911 0.007222 -0.013924 0.009074 -0.013759 -0.001423 0.021906 -0.040037 0.013644 -0.000408 -0.003886 -0.005052 0.008643 -0.023469 0.015963 0.017519 -0.007172 0.003924 0.016181 0.024906 -0.015096 -0.010859 -0.029993 -0.004086 0.001195 -0.029244 -0.006578 -0.005680 0.002872 0.012081 0.002118 -0.007787 0.001018 0.002360 -0.013386 -0.014833 0.033253 0.031274 0.016357 0.014242 -0.026209 0.010145 -0.006115 0.017501 -0.021792 0.021607 -0.003147 -0.002020 0.008875 -0.002143 -0.006684 -0.000723 -0.003123 -0.026877 0.014355 0.003979 -0.029526 0.003609 -0.004884 -0.015968 -0.000098 0.008736 -0.003660 0.019946 -0.022309 -0.006385 0.011503 -0.025977 -0.022337 0.015693 0.002122 -0.021463 -0.013062 -0.008910 0.030019 0.032176 -0.009719 0.023524 -0.021813 -0.022271 0.019220 -0.020412 -0.012816 -0.000817 0.016594 -0.004467 0.003741 -0.004964 -0.024649 -0.019997 -0.008866 0.002927 0.019405 0.005359 -0.011729 -0.005517 0.013862 0.007161 -0.024118 -0.035887 -0.013517 -0.008619 0.019204 0.001856 0.006639 0.009120 0.010826 0.007510 0.005049 -0.013580 -0.014827 -0.013575 -0.001798 -0.046678 -0.017523 -0.030559 0.024299 -0.002481 0.028288 -0.023993 0.018272 0.015479 -0.051615 0.027743 0.002812 0.017535 0.000313 -0.015167 0.020242 0.010402 -0.025409 -0.027190 -0.008414 0.012576 0.026733 0.048683 0.015655 -0.018213 -0.012463 -0.002491 0.002686 -0.033935 -0.021316 -0.007192 0.013687 -0.007122 -0.008496 0.027822 0.019703 -0.002158 0.014605 0.003937 -0.006140 0.027685 0.007620 -0.015968 0.023004 0.013888 0.006086 0.005302 0.008826 0.000342 -0.006431 0.014535 0.001898 0.027513 0.032451 0.000430 -0.003685 0.024329 -0.009571 -0.005890 -0.026555 -0.013080 0.019386 -0.007643 0.021393 0.020223 -0.017296 -0.007260 -0.001700 0.004854 -0.014603 0.014978 0.001946 0.015716 0.007753 -0.001084 -0.025202 -0.012386 0.006634 -0.001469 0.003820 0.026449 -0.010196 0.002266 0.006380 0.002605 -0.002153 0.025205 -0.036248 -0.008860 -0.020491 0.011284 -0.028492 -0.006480 0.028431 -0.000531 0.014432 -0.001775 0.032803 -0.016840 0.028001 -0.003980 0.003151 0.015693 0.012067 0.010230 -0.027384 0.035544 -0.005456 -0.030533 0.031353 0.021112 -0.007410 0.024645 -0.012337
23 -0.016360 0.003467 -0.025290 -0.008300 0.000644 0.012900 0.005636 0.007230 -0.011716 -0.029045 0.001428 -0.011230 0.002626 0.033157 -0.018482 0.013544 0.006805 -0.007811 -0.024395 0.008188 -0.010303 -0.002834 0.034577 0.015623 0.030316 0.012417 -0.003519 0.018407 -0.015170 -0.010472 0.051328 0.017525 -0.011385 -0.022941 -0.014221 -0.008361 -0.020511 -0.011183 -0.029700 -0.027882 0.031284 -0.025955 0.023139 -0.018417 0.014424 -0.029911 -0.024653 -0.006264 0.006604 0.033966 0.038831 -0.039184 0.004147 -0.000118 -0.011957 0.013158 -0.010457 -0.004874 0.002948 -0.004222 -0.026710 0.013780 0.004240 0.023756 0.003426 0.005267 0.007656 0.003447 0.002563 -0.003542 -0.011877 -0.034343 -0.035130 0.050934 -0.011468 0.003630 -0.011938 0.006687 -0.025195 0.014957 -0.014574 0.028953 -0.029004 0.015656 0.007286 0.011706 0.002104 0.005094 0.011330 0.035066 -0.024044 0.013007 -0.001395 0.023261 0.018852 0.008119 0.013404 0.006569 0.037742 -0.027336 -0.018594 0.004274 0.010702 0.001986 -0.011285 -0.006592 0.003322 -0.002926 -0.003828 -0.024385 -0.000638 0.007315 -0.021869 -0.019082 0.012791 0.024555 0.002858 0.007201 -0.009072 0.014488 -0.038044 0.015637 -0.008970 -0.026869 0.000749 0.002907 0.034575 0.018484 -0.004278 0.023493 0.015608 -0.022751 0.003666 -0.019479 -0.011463 -0.038051 -0.000443 0.017998 -0.003932 0.016718 -0.005723 0.033452 0.017051 -0.011430 0.005569 -0.037388 -0.018932 0.000327 0.005068 0.033153 -0.028116 -0.016968 0.013296 -0.021971 -0.021386 0.022058 -0.030864 0.001554 0.027138 -0.009938 0.014515 -0.009738 -0.002398 0.011210 -0.047948 0.035764 0.009908 0.002558 -0.013921 0.022008 -0.006889 0.000354 0.045694 0.002983 0.011559 -0.011684 0.020770 -0.011756 -0.014667 -0.050125 -0.010960 0.006508 -0.002889 0.008151 0.004430 0.000325 0.034688 -0.005628 -0.004234 0.025145 -0.005321 -0.026365 -0.010533 0.005844 0.017050 0.016932 0.026633 0.010099 0.008133 -0.008950 0.003469 -0.005523 0.008166 -0.013754 -0.005132 0.019795 -0.012473 -0.002623 -0.007562 -0.019276 0.008604 0.015404 -0.006285 0.012263 -0.018774 -0.002475 -0.006350 0.014288 -0.004044 -0.025245 0.019526 -0.024457 0.010699 0.000824 -0.018902 0.010123 0.012720 0.019989 -0.021440 -0.011978 0.017487 0.026140 0.001960 0.025190 0.007523 -0.027653 -0.013132 0.020059 0.027650 -0.027932 -0.032124 0.029803 0.009820 -0.015181 -0.001168 0.008014 -0.010208 -0.020789 -0.023453 0.006977 -0.018813 0.010401 -0.018318 0.008209 0.025626 -0.027420 -0.032867 -0.006080 -0.000679 -0.018358 0.011955 0.001566 0.007539 -0.009515 -0.007015 -0.001277 0.011396 -0.035477 0.016273 -0.012916 -0.041164 -0.013575 -0.021783 0.021943 -0.007213 0.031743 -0.035628 0.006599 0.007521 -0.039141 0.007476 -0.006169 0.015032 0.000862 -0.019978 0.015866 0.003777 -0.032663 -0.015057 -0.007839 -0.058866 0.024075 0.026444 0.001139 -0.022506 0.008183 0.026490 0.000959 -0.011609 -0.021577 0.006531 0.020450 -0.011694 -0.023453 0.001310 0.015467 -0.007021 0.031337 -0.012339 0.024285 0.005076 0.015182 -0.029110 0.003031 -0.004159 -0.017914 0.015665 0.011687 -0.013740 0.002910 0.016501 -0.009433 0.018632 0.024573 -0.010739 -0.007565 0.012970 0.004633 -0.019884 0.003374 -0.006713 0.044297 -0.018362 0.005453 0.007889 0.013557 0.006188 0.008148 0.013120 -0.010080 -0.010218 0.005791 0.030413 0.011155 0.002413 0.001853 -0.011039 0.028205 0.001250 -0.001013 -0.000426 0.030239 0.003325 0.000004 0.022565 -0.000525 0.007187 -0.024794 0.008336 -0.001834 0.028631 0.001588 -0.011828 0.004397 -0.012281 0.016487 0.008020 0.029002 -0.033279 0.028517 -0.017275 -0.010380 0.009938 0.002212 0.032617 -0.028672 0.010241 0.006743 -0.029461 0.015772 0.018581 -0.040539 0.024615 0.001084
24 -0.012474 0.000706 -0.000035 -0.022120 0.007564 -0.030542 0.010818 0.007663 -0.000701 -0.035003 -0.002335 0.001621 -0.008251 0.008879 -0.006143 0.025611 0.004108 -0.020427 -0.007117 0.012194 -0.006773 0.004793 0.011321 0.005926 0.030770 0.003475 0.003116 -0.006517 -0.011199 -0.029927 0.030814 -0.023551 -0.013686 -0.032704 -0.006575 -0.023295 -0.035933 -0.015117 -0.022038 0.004220 0.015052 -0.049371 0.003308 -0.005467 0.022153 -0.015328 -0.018430 -0.007208 0.012358 0.025621 0.050306 -0.024537 0.003317 -0.014222 -0.027079 0.021047 -0.026635 -0.006028 0.013819 -0.022778 -0.002461 0.001795 -0.000199 0.011176 0.001018 -0.000466 0.018793 -0.016672 -0.007917 0.001511 0.005180 -0.024516 -0.014641 0.036972 -0.015148 -0.019586 0.014874 -0.014294 -0.026051 -0.006971 0.006176 0.026055 -0.019519 0.007861 -0.019067 0.008336 -0.003445 0.002862 0.015672 0.041597 -0.025632 0.024978 -0.030943 0.007732 0.042209 -0.006637 0.007329 -0.005697 0.003098 0.004131 -0.015311 0.001435 -0.022882 -0.003886 -0.010810 -0.019100 0.016708 -0.015962 -0.010091 -0.014282 0.011832 0.035668 -0.007288 -0.000495 0.032319 0.017725 0.015101 0.007607 -0.018518 0.022260 -0.014968 0.012006 -0.001781 -0.031138 -0.002247 -0.000265 0.003718 0.029985 0.000815 -0.013612 0.004534 -0.008600 -0.004385 0.005246 -0.033410 -0.019881 -0.016322 0.028274 0.003277 -0.009213 0.030487 0.049780 0.007598 -0.001420 0.016606 -0.024777 -0.018438 -0.009331 0.003135 0.009776 -0.015677 0.009767 0.018819 -0.035279 -0.017828 -0.001619 -0.012241 0.007074 0.019112 0.011805 -0.007285 0.007810 -0.028894 -0.004976 -0.057354 0.012911 0.012386 -0.008284 -0.001514 0.044174 0.003056 -0.002859 0.043204 -0.010294 0.006039 -0.009430 0.012705 -0.011660 0.017279 -0.033436 0.012168 -0.013702 -0.039160 0.005831 0.009517 -0.003970 0.041166 0.039470 -0.007618 0.001621 0.003756 -0.007703 -0.000383 0.027565 0.018334 0.003297 0.009040 -0.003377 0.027736 -0.023068 -0.002130 -0.005694 0.000347 -0.030590 -0.007508 0.018872 -0.010547 -0.004184 -0.018135 -0.002817 -0.010820 0.011009 -0.002445 0.002954 -0.011409 -0.002975 0.021459 0.046470 0.024041 -0.029564 0.038779 -0.016948 0.031477 0.029952 0.016522 0.000763 0.021408 0.027542 0.003174 0.006124 0.018124 0.010940 0.020127 -0.001864 -0.007086 -0.019381 -0.007867 0.020391 0.010166 -0.037698 0.009457 0.002413 -0.010650 -0.015317 0.010918 -0.031046 -0.024061 -0.007815 -0.028923 0.019117 -0.009792 -0.006203 0.024266 0.015457 0.031902 -0.011476 -0.019102 -0.002677 -0.009909 0.000181 -0.002031 0.027577 0.028305 -0.019147 -0.008992 -0.022305 -0.015525 -0.039739 0.003633 -0.031929 -0.042548 -0.015025 -0.002861 -0.014575 0.006352 0.026629 0.003975 -0.008140 0.008512 -0.049007 -0.003147 -0.006775 0.008206 -0.002819 -0.008709 -0.004970 0.001639 -0.002498 0.004884 -0.023503 -0.029291 0.007367 0.035921 -0.000950 -0.026205 0.023328 0.013688 -0.020890 0.002465 0.005903 0.026758 0.012400 -0.019381 -0.006519 0.002676 0.014927 -0.005332 0.033403 -0.014328 0.029674 0.013261 -0.021217 -0.024572 0.001664 -0.016904 -0.033824 0.011483 -0.002766 -0.011171 -0.016012 0.005075 0.000921 0.026935 0.034527 -0.009138 -0.017447 0.010852 0.009739 -0.024567 0.007724 -0.011469 0.047110 -0.023464 -0.001408 0.001217 0.001868 0.029662 -0.010286 0.010021 -0.004943 -0.004887 -0.014026 0.028965 0.022636 -0.000075 0.009053 0.003142 0.036131 0.010000 -0.022654 -0.001371 0.014730 0.003882 0.013045 -0.018965 0.011406 -0.022688 -0.006346 0.005316 -0.018818 -0.002286 -0.010480 0.010021 -0.026077 -0.021707 -0.004254 0.016563 -0.008698 -0.002628 0.018725 -0.012102 -0.000143 -0.007271 0.021461 0.024930 0.001735 -0.020467 0.013356 -0.027890 0.008985 -0.006916 -0.034318 -0.001701 -0.003595
25 -0.017311 -0.014578 -0.006934 -0.029149 -0.011937 -0.014179 0.015798 0.006991 0.008700 -0.046433 -0.016406 -0.018955 -0.025208 0.015094 -0.020928 -0.006957 0.019322 -0.016991 0.027433 0.003719 0.012160 0.005020 0.004837 -0.000162 0.013144 -0.001735 0.019931 -0.017080 -0.006609 0.019797 0.005479 -0.030903 0.021951 -0.022063 -0.005521 -0.026475 -0.033073 0.007059 0.012622 -0.002207 0.022005 -0.025386 0.010897 -0.004119 0.033892 -0.007462 -0.007940 0.006945 0.008069 -0.010282 0.044808 0.019126 0.009475 0.001579 -0.021630 0.029355 -0.037567 -0.005825 0.023489 0.000254 -0.032702 0.006939 -0.014148 0.023686 -0.004799 0.030239 0.023343 -0.011535 -0.002129 -0.001676 -0.001279 -0.037855 -0.008790 0.029294 -0.009600 -0.029119 -0.012644 -0.015807 -0.014366 -0.014883 -0.004198 0.019662 -0.017218 -0.004091 -0.009237 0.021044 0.013200 -0.006209 -0.009980 0.036175 -0.004021 0.006508 -0.046737 -0.011512 0.004631 -0.000986 0.027866 0.017770 0.012180 0.004072 -0.030956 0.018104 0.016600 0.005690 -0.008121 -0.004533 0.023014 -0.022899 -0.010241 0.008815 0.015921 0.041523 0.017884 0.012862 0.001529 0.032938 0.018074 -0.007979 -0.007903 0.002659 0.000238 0.026367 -0.012542 -0.031099 0.002201 -0.004926 0.010703 0.028203 -0.005236 -0.001517 0.031104 0.017336 -0.000213 0.014141 -0.028417 -0.012347 -0.019890 0.019762 -0.014142 0.002884 0.005405 0.061871 -0.008084 -0.000783 0.041437 0.000400 -0.024882 -0.027257 0.000223 -0.019021 -0.006635 -0.008113 -0.009375 -0.032813 -0.012807 0.009325 -0.018251 0.021519 0.009518 -0.008224 -0.004416 0.012107 -0.011232 -0.023863 -0.035629 -0.012345 0.004228 0.006368 -0.004708 0.041236 -0.011844 -0.027880 0.022542 -0.005043 -0.009607 -0.005643 0.013870 -0.019934 0.019248 -0.035332 0.018642 0.012714 -0.006932 0.026627 0.004782 -0.001059 -0.008176 0.025150 -0.007637 -0.007513 0.008661 0.009926 0.003451 0.002147 0.000941 0.012134 0.002508 -0.011322 0.022945 -0.013055 -0.022514 -0.011553 0.032310 -0.022655 -0.024873 -0.002283 0.002783 0.016713 -0.016048 -0.029946 0.010721 0.006487 0.006017 0.012254 -0.015959 0.008389 0.024741 0.055071 0.026950 -0.012223 0.054373 -0.003961 0.013875 0.012964 0.056242 -0.002606 0.033516 0.036810 -0.003755 0.012373 0.020387 -0.006456 0.044958 -0.001260 0.027340 0.004518 -0.026564 -0.007599 -0.001153 -0.037505 0.004479 0.021337 -0.027562 0.007318 -0.031464 -0.016957 -0.025244 -0.013904 -0.041004 0.027207 -0.010402 -0.022980 0.009036 0.009447 0.019851 -0.013316 -0.006707 -0.020348 -0.006300 0.009902 -0.003975 0.021087 0.003326 -0.017064 0.034181 -0.013104 -0.012270 -0.018421 0.000187 0.004970 -0.041184 -0.001652 -0.019104 0.003891 0.012176 0.016183 0.024071 0.001127 0.021215 -0.015807 0.001416 0.011633 0.012197 0.004510 0.002454 -0.013359 -0.000523 -0.015609 0.025094 -0.002150 -0.019787 0.012733 -0.006465 -0.018195 -0.013029 0.030144 0.025877 -0.056675 -0.010869 -0.027398 0.042141 0.004527 0.000997 -0.007122 -0.018840 0.021502 0.002102 0.041189 -0.004675 0.030008 0.015887 -0.023235 -0.001509 -0.013040 -0.011788 -0.044347 -0.000024 -0.006662 -0.031163 -0.010031 -0.020992 0.001737 -0.003903 -0.001034 0.012188 -0.006564 0.001683 0.008904 -0.000383 0.010153 -0.006329 0.041210 -0.002899 0.017000 -0.021151 0.006857 0.020595 0.007972 0.028822 -0.009461 0.016060 0.007217 0.021044 0.016396 -0.023624 0.002099 -0.011233 0.034575 0.001928 -0.017024 0.012318 0.002464 0.023375 -0.002464 -0.014333 -0.006436 -0.027684 -0.008517 -0.005695 -0.011508 0.025833 -0.009957 0.002246 -0.034345 0.000276 0.000242 0.029533 -0.014008 -0.014212 0.004700 0.006809 0.008643 -0.005748 0.000047 0.023166 0.022601 -0.006452 0.020788 -0.009696 0.009363 0.005865 -0.015879 0.004717 0.000762
26 0.006097 -0.014127 -0.020537 -0.035808 -0.018310 0.003779 -0.008742 -0.005515 0.005735 -0.042988 -0.015989 -0.016293 0.011094 0.015649 -0.006949 0.012088 0.007558 -0.004060 0.004520 0.003574 0.000118 0.009598 0.020192 0.026908 0.001453 0.002413 0.022847 -0.027607 -0.041346 0.018113 -0.002889 -0.024589 -0.001128 0.008160 -0.004660 -0.011492 -0.038207 0.036069 -0.016699 -0.020190 0.014443 -0.031443 0.005482 -0.000113 0.019028 0.009102 -0.010756 0.017750 0.016279 0.014017 0.014116 0.028023 -0.001023 0.006413 0.013685 -0.018596 -0.008163 0.015593 0.028677 -0.009879 -0.061701 0.005449 -0.043607 -0.009273 -0.012178 0.020559 0.003753 -0.002442 0.029457 0.000194 0.000218 -0.048152 -0.014193 0.015537 -0.001559 -0.002225 0.005046 -0.022412 0.000424 -0.020894 -0.031781 0.025914 -0.012441 -0.005770 -0.000741 0.008635 0.009397 -0.006636 -0.001587 0.001525 0.015756 0.011277 -0.032538 -0.009828 0.004201 0.017668 0.020927 0.026101 0.005504 0.003676 0.004717 -0.024996 0.005667 -0.002382 -0.033609 0.001340 0.022672 -0.021171 -0.027059 -0.005945 0.025558 0.031261 -0.005470 -0.020802 -0.002987 0.009040 0.043040 -0.012814 -0.017814 -0.015948 -0.034060 0.003599 -0.003913 -0.032863 -0.021330 -0.008941 -0.012640 0.052229 -0.018150 -0.000792 0.011253 -0.011974 -0.003040 0.003707 -0.004101 -0.023024 -0.001744 0.017988 -0.005059 0.016857 0.017485 0.040102 0.009748 -0.006808 0.005442 -0.011979 -0.012934 -0.041198 -0.005138 0.015015 -0.010894 -0.001264 -0.027116 -0.024928 -0.018666 -0.014874 -0.022719 0.025560 0.003705 0.007353 -0.013245 -0.008758 -0.014932 -0.008715 -0.034239 -0.000982 -0.002162 0.010566 0.010416 0.019105 -0.014054 -0.001115 -0.027904 -0.014393 -0.010672 0.010661 0.010935 -0.022495 0.009442 -0.039699 0.003802 0.040890 0.006977 0.021182 0.003401 0.017774 -0.031008 0.017150 -0.013954 -0.007407 0.010065 -0.006420 0.008345 0.025811 0.010425 0.006949 -0.002511 0.002837 0.021642 0.018084 0.001900 -0.014281 0.023372 -0.014676 -0.018220 0.012599 -0.010202 0.023334 0.006186 -0.042803 0.000614 0.017786 -0.022566 -0.002108 0.012897 -0.001310 0.013210 0.033776 0.026726 -0.026397 0.034080 -0.006029 0.012280 -0.021907 0.017120 -0.010415 0.029924 0.035829 0.007374 0.020545 -0.004846 0.000098 0.010199 -0.010317 0.025244 -0.002770 -0.003269 -0.045064 0.005204 -0.023077 0.014115 0.000423 -0.029042 0.005600 0.009177 -0.003177 -0.027058 -0.006160 -0.032597 0.012175 -0.019687 -0.010666 -0.007884 0.007696 0.036998 0.007644 0.018876 -0.015555 -0.018490 0.016824 -0.011469 0.020500 -0.016718 -0.019559 0.015425 -0.013342 -0.012097 -0.043428 -0.024809 0.010604 -0.054639 -0.015107 -0.007675 0.015511 0.000392 0.028898 0.016901 0.005742 0.019265 0.006662 0.004631 -0.003946 0.029930 0.023681 0.009691 -0.023383 -0.002746 -0.043267 0.001957 -0.011996 -0.030513 0.027327 -0.035579 -0.028264 -0.025129 0.008186 0.007727 -0.061245 -0.009707 -0.045670 0.044314 -0.000299 0.000402 0.007576 -0.007369 -0.006885 -0.029296 0.030193 -0.007709 0.018290 0.022735 -0.007760 0.009495 -0.002999 0.014196 -0.016961 -0.013762 -0.000602 -0.015440 -0.017180 0.010846 -0.006229 0.005774 0.011417 0.022828 -0.013256 -0.009446 0.002375 0.005186 0.005790 0.000138 0.023266 -0.015500 0.024382 0.009014 -0.007976 0.013689 0.024189 0.033559 -0.027326 -0.008674 0.038036 -0.004577 0.002445 -0.035048 0.008213 -0.040157 0.025626 0.002930 -0.000463 0.018261 0.008884 0.019678 -0.009605 -0.020604 -0.002511 -0.011308 -0.009542 -0.006884 0.018786 0.009740 -0.014120 0.006853 -0.028334 -0.000523 -0.013724 -0.007796 -0.019749 -0.007629 -0.000698 0.008640 0.029089 -0.007013 -0.015067 0.029773 0.006681 0.020812 0.030509 -0.022563 0.012962 0.011536 -0.025812 -0.004147 -0.030482
