32 64
0 0.019071 -0.035750 0.158092 0.019497 0.036736 -0.032705 0.100251 0.010022 -0.063239 -0.095780 -0.149263 0.127489 -0.004944 -0.154316 -0.220925 -0.021376 -0.077681 -0.148959 0.066533 -0.071516 -0.159281 0.115360 0.127074 -0.149851 -0.093114 -0.008574 0.005640 0.161872 -0.019362 0.119343 -0.039479 0.162784 -0.133005 0.133583 -0.076982 0.006833 -0.056149 -0.073575 0.079452 -0.019785 -0.025541 -0.039551 -0.131027 0.172221 0.022393 0.159600 0.037047 -0.048602 0.137890 -0.004188 0.041798 -0.041307 0.169538 -0.058821 0.050677 -0.070148 0.087245 -0.091270 0.077636 0.029592 0.049812 0.042863 -0.153462 -0.154139
1 0.027538 -0.020604 0.098031 0.014162 0.057244 -0.043884 0.110302 0.049518 -0.087419 -0.074191 -0.147756 0.104738 -0.051248 -0.104946 -0.190611 0.005364 -0.056604 -0.132028 0.051622 -0.035083 -0.107991 0.094341 0.120741 -0.120162 -0.078598 -0.010960 -0.025346 0.150309 0.074665 0.098385 -0.037229 0.104316 -0.080520 0.119025 -0.062619 -0.006263 -0.023940 -0.082895 0.086152 -0.022358 -0.027070 -0.018962 -0.168943 0.101204 0.062483 0.118104 0.036803 -0.122318 0.161541 0.029531 0.046527 -0.003053 0.114405 -0.071446 0.042271 -0.075962 0.084449 -0.105049 0.044308 0.042950 0.032215 0.060832 -0.106138 -0.114156
2 0.000192 -0.011572 0.079737 0.002348 0.048112 -0.040830 0.093702 0.061999 -0.101276 -0.077709 -0.125836 0.093961 -0.043112 -0.090755 -0.149013 -0.002513 -0.048906 -0.096370 0.045955 -0.056721 -0.083250 0.086875 0.112870 -0.102626 -0.061018 -0.020417 -0.017134 0.126046 0.058834 0.088194 -0.031206 0.089095 -0.056433 0.078897 -0.032271 0.009838 -0.024755 -0.069645 0.073202 -0.005689 -0.019466 -0.020493 -0.142430 0.080289 0.062884 0.081779 0.061332 -0.122377 0.140503 0.045106 0.052546 -0.006520 0.085131 -0.072443 0.040012 -0.068615 0.079362 -0.106869 0.054071 0.046033 0.037191 0.064005 -0.105666 -0.085344
3 0.013319 -0.009797 0.072629 0.012849 0.041112 -0.036139 0.082277 0.043483 -0.071089 -0.069736 -0.118950 0.100868 -0.027047 -0.089191 -0.133286 -0.007216 -0.048096 -0.071936 0.052446 -0.074710 -0.066293 0.075076 0.109217 -0.100717 -0.043042 0.001057 -0.013232 0.113629 0.046138 0.075557 -0.014043 0.082254 -0.035304 0.075934 -0.016862 0.017644 -0.014176 -0.076459 0.049068 -0.007459 -0.014415 -0.006508 -0.121660 0.058548 0.039793 0.063544 0.049763 -0.111927 0.117900 0.049479 0.048447 -0.008837 0.058121 -0.062321 0.024471 -0.063234 0.081881 -0.096127 0.043270 0.046444 0.022424 0.047040 -0.082309 -0.064593
4 0.009330 -0.011850 0.052012 -0.003084 0.049254 -0.038844 0.074968 0.034622 -0.086569 -0.064396 -0.099502 0.072019 -0.028319 -0.062290 -0.103896 -0.023813 -0.048924 -0.058724 0.035388 -0.060706 -0.059788 0.066342 0.102523 -0.080426 -0.039866 -0.007531 -0.012730 0.109162 0.046400 0.067476 -0.028468 0.067931 -0.016739 0.046510 0.007228 0.023284 -0.005770 -0.074333 0.044494 -0.004910 -0.005860 -0.009418 -0.112576 0.055628 0.049752 0.051477 0.054119 -0.106445 0.101431 0.050654 0.047055 -0.008771 0.052616 -0.065957 0.016724 -0.055846 0.070018 -0.089805 0.048137 0.041427 0.018777 0.063133 -0.062197 -0.057430
5 0.007234 -0.009115 0.050600 0.016795 0.029698 -0.023427 0.054170 0.018025 -0.065993 -0.064455 -0.078244 0.063906 -0.024526 -0.067173 -0.085203 -0.019048 -0.035595 -0.054249 0.029502 -0.064609 -0.056177 0.038861 0.096821 -0.076108 -0.039560 -0.006080 -0.007163 0.087126 0.035758 0.049739 -0.024498 0.054374 -0.002855 0.033592 0.011215 0.031530 -0.030645 -0.053351 0.049315 -0.011568 -0.010013 -0.011768 -0.097984 0.058629 0.032769 0.041262 0.046262 -0.073090 0.074800 0.049930 0.042195 -0.014383 0.026064 -0.048192 0.003370 -0.041018 0.048513 -0.073385 0.040459 0.044020 0.007438 0.048560 -0.059439 -0.046833
6 -0.009228 0.007916 0.037671 0.005832 0.026255 -0.032511 0.059747 0.022854 -0.056519 -0.066874 -0.079356 0.065869 -0.025105 -0.054059 -0.071548 -0.030227 -0.026719 -0.039261 0.028908 -0.071181 -0.047621 0.041324 0.082473 -0.068838 -0.033096 0.000676 -0.010909 0.070559 0.012778 0.048575 -0.033560 0.055484 -0.003844 0.023769 0.027108 0.021894 -0.016657 -0.045456 0.039936 0.002045 -0.021065 -0.013936 -0.082567 0.046730 0.019048 0.034425 0.042711 -0.083964 0.061692 0.051613 0.050247 -0.019871 0.036920 -0.054654 -0.013015 -0.046609 0.058453 -0.065512 0.036519 0.034487 0.003551 0.049756 -0.044948 -0.039251
7 0.002862 0.005872 0.043977 -0.008405 0.021401 -0.023772 0.043449 0.000837 -0.044272 -0.053339 -0.057374 0.066088 -0.032226 -0.047843 -0.074554 -0.020584 -0.031799 -0.030970 0.010149 -0.054389 -0.042851 0.035091 0.071876 -0.073486 -0.005887 -0.006341 -0.014290 0.071592 0.014018 0.038842 -0.023053 0.032069 -0.003450 0.013139 0.020655 0.029004 -0.007999 -0.048478 0.053142 -0.002059 -0.008187 -0.017774 -0.075840 0.036037 0.036704 0.023500 0.044584 -0.068767 0.064848 0.039030 0.043944 -0.025634 0.019903 -0.039245 -0.015370 -0.036544 0.029638 -0.065891 0.027686 0.035459 -0.003897 0.047499 -0.042616 -0.020866
8 -0.003030 -0.002466 0.034938 -0.001066 0.021930 -0.021083 0.033383 0.004378 -0.036328 -0.041229 -0.060379 0.055058 -0.011726 -0.051085 -0.053730 -0.018000 -0.021830 -0.029151 0.010202 -0.053664 -0.036391 0.034398 0.069543 -0.062916 -0.006783 0.011507 -0.004973 0.050679 0.019322 0.040438 -0.021803 0.032199 0.013115 0.001811 0.026148 0.031223 -0.018216 -0.040337 0.038264 0.002746 -0.006399 -0.002341 -0.072664 0.028303 0.019224 0.024022 0.043126 -0.060187 0.058462 0.046173 0.050062 -0.016393 0.021505 -0.033754 -0.016458 -0.033413 0.026948 -0.051959 0.031293 0.029463 -0.005811 0.038149 -0.040780 -0.018677
9 -0.004658 -0.004942 0.033665 -0.014301 0.008739 -0.012569 0.031025 0.014658 -0.044687 -0.042115 -0.056172 0.053328 -0.020326 -0.036373 -0.049632 -0.027670 -0.021290 -0.036817 0.006270 -0.045402 -0.017114 0.018761 0.066522 -0.050967 0.000840 0.013824 -0.013635 0.047860 -0.001492 0.029231 -0.013692 0.028097 0.009528 -0.008844 0.043354 0.023282 -0.013282 -0.020043 0.039179 -0.004486 -0.005025 -0.008630 -0.061053 0.032459 0.018568 0.014560 0.037142 -0.048531 0.037024 0.034837 0.031252 -0.022968 0.010627 -0.029460 -0.021299 -0.020565 0.028903 -0.058902 0.021551 0.023852 0.000823 0.043493 -0.028878 -0.009257
10 -0.015101 -0.001220 0.025707 -0.004233 0.023695 -0.016777 0.023866 -0.002113 -0.024534 -0.033670 -0.032178 0.038302 -0.025926 -0.019458 -0.042268 -0.011330 -0.013449 -0.019036 -0.000054 -0.045801 -0.010572 0.014958 0.063627 -0.045903 -0.001454 0.016090 -0.006144 0.034027 -0.004247 0.018541 -0.030593 0.023055 0.015921 -0.017956 0.037653 0.029828 0.011723 -0.017986 0.024322 -0.003241 0.012011 0.003029 -0.056051 0.019495 0.017430 0.003351 0.024281 -0.045606 0.027903 0.031224 0.030800 -0.023920 -0.007136 -0.024158 -0.034905 -0.020311 0.023363 -0.039403 0.019819 0.028732 -0.001838 0.036192 -0.024795 -0.008348
11 -0.005799 -0.006496 0.017107 -0.008494 0.013866 -0.015313 0.015764 0.008067 -0.030515 -0.019267 -0.032510 0.028072 -0.022582 -0.020722 -0.034381 -0.019536 -0.008809 -0.017591 -0.003200 -0.048238 -0.012718 0.008030 0.055519 -0.041023 0.000368 0.017871 0.002892 0.017834 -0.001540 0.017155 -0.007947 0.006538 0.013341 -0.029221 0.037791 0.031470 -0.006586 -0.017070 0.025219 -0.001026 -0.001127 -0.009760 -0.046670 0.017707 0.007711 0.012527 0.016630 -0.039218 0.025052 0.042616 0.029387 -0.021110 0.009628 -0.020577 -0.039656 -0.008421 0.016473 -0.045082 0.001267 0.027394 -0.017249 0.020331 -0.016292 0.004131
12 -0.012519 0.008990 0.006571 -0.031897 0.016618 -0.006547 0.005686 -0.012213 -0.011920 -0.026421 -0.023658 0.025955 -0.020697 -0.022898 -0.023417 -0.027485 -0.008643 -0.010770 -0.007132 -0.032285 0.000060 0.004363 0.047652 -0.022425 0.026295 0.013188 -0.010397 0.028063 -0.029452 0.021330 -0.022664 0.013204 0.007433 -0.030017 0.034423 0.016836 0.000554 -0.008709 0.017865 0.000969 0.006183 -0.000652 -0.037533 0.012270 0.013762 -0.008092 0.026393 -0.042901 0.009059 0.034664 0.011784 -0.009607 -0.007645 -0.013670 -0.045233 0.001699 0.000469 -0.037743 0.006154 0.020147 -0.019826 0.023823 -0.014744 0.011865
13 -0.010705 -0.004517 0.000354 -0.009938 0.004754 -0.001070 -0.003529 -0.009213 -0.006952 -0.008576 -0.016073 0.029673 -0.008195 -0.006983 -0.027051 -0.028023 0.005942 0.008795 -0.009755 -0.034420 0.031270 0.007788 0.033560 -0.026824 0.025148 0.012238 0.007898 0.000616 -0.014105 0.004514 -0.015335 0.005481 0.020149 -0.037669 0.037746 0.002939 0.016909 -0.005146 0.020313 -0.008257 0.002773 0.008174 -0.027542 0.008628 0.012124 -0.005316 0.006354 -0.027847 0.013665 0.025084 0.014602 -0.014284 -0.007052 -0.009063 -0.039220 0.002939 0.004171 -0.033711 0.012526 0.020295 -0.035710 0.013197 -0.004529 0.012689
14 -0.011123 -0.005480 0.007659 -0.007694 0.002731 -0.006727 -0.001053 -0.007703 -0.006251 -0.012981 -0.013223 0.020870 -0.005697 -0.000742 -0.010912 -0.032370 0.011227 0.003103 -0.028778 -0.028680 0.023737 -0.012349 0.027110 -0.024948 0.022320 0.007502 -0.004211 0.012840 -0.028386 -0.007480 -0.014253 -0.001664 0.021100 -0.041283 0.051331 0.007370 0.011606 0.011323 0.010328 0.007663 -0.005806 -0.002442 -0.021252 -0.000747 -0.015296 -0.018534 0.005660 -0.010928 -0.006525 0.021438 0.006534 -0.006935 -0.034559 -0.007437 -0.045890 0.003778 -0.002779 -0.023925 0.002722 0.011151 -0.011467 0.014934 0.005633 0.019210
15 -0.008557 -0.008453 -0.000355 -0.003845 -0.006557 0.012425 -0.006654 -0.006542 -0.005987 0.003527 0.000161 0.005554 -0.006444 -0.006843 0.003746 -0.014696 0.003109 0.000523 -0.026128 -0.022496 0.026465 -0.015351 0.027192 -0.026203 0.011441 0.026810 -0.001293 -0.009518 -0.034795 -0.007055 -0.010893 -0.008730 0.030416 -0.052026 0.049051 0.015966 0.020355 0.017952 0.002505 -0.012916 0.007177 0.011029 -0.006951 -0.007554 -0.005895 -0.016369 0.007075 -0.020528 -0.004870 0.012839 -0.003348 -0.013842 -0.019535 0.008855 -0.049116 -0.000552 -0.011287 -0.013110 0.005637 -0.001225 -0.041999 -0.000314 0.010267 0.021650
16 0.001484 0.000571 -0.021268 -0.007280 -0.007827 0.013006 -0.022187 -0.014733 0.016881 -0.004173 0.008363 -0.015324 -0.010018 0.013721 0.000409 -0.037018 0.013010 0.014481 -0.041734 -0.012241 0.045921 -0.013048 0.023280 -0.011359 0.017405 0.019469 0.003333 -0.005957 -0.035279 -0.019638 -0.013427 0.004336 0.022133 -0.039657 0.041861 0.006392 0.025536 0.026166 -0.004974 -0.007540 0.011776 0.000393 -0.004332 -0.013959 -0.008838 -0.032533 -0.009960 -0.006031 -0.011374 0.007174 -0.003069 0.000110 -0.028712 0.010285 -0.055616 0.022879 -0.015608 -0.017345 -0.003745 0.005414 -0.026663 0.004857 0.014226 0.022957
17 0.007966 0.006973 -0.012397 -0.012625 -0.011609 0.005738 -0.018376 -0.019144 0.003682 0.013802 0.011484 -0.019525 0.001015 0.012267 0.000455 -0.020689 0.014421 0.018909 -0.035658 -0.003027 0.041094 -0.028512 0.019160 -0.009878 0.027815 0.029924 0.009188 -0.019150 -0.024904 -0.032024 -0.001312 -0.007657 0.042393 -0.060271 0.031856 0.017094 0.024308 0.027542 -0.003755 0.002791 -0.003189 0.007011 0.002200 -0.025177 -0.001625 -0.035700 -0.013066 0.002394 -0.024204 -0.002743 0.006726 0.001419 -0.031444 0.015289 -0.061933 0.018102 -0.018616 -0.015529 -0.018778 -0.012181 -0.019971 -0.002115 0.024825 0.033813
18 -0.007992 0.005011 -0.019608 -0.006389 -0.021370 0.016212 -0.020059 -0.008325 0.024349 0.018448 0.022532 -0.005814 -0.001054 0.020369 0.009668 -0.022128 0.021835 0.025214 -0.035094 -0.004960 0.040518 -0.036250 0.008314 0.002749 0.031429 0.021381 0.003866 -0.017593 -0.037963 -0.038363 -0.011180 -0.006490 0.027288 -0.053930 0.022103 0.019842 0.039229 0.023895 -0.010691 -0.013049 0.012190 0.000145 0.019802 -0.023069 -0.011014 -0.026317 -0.019028 0.013620 -0.019287 -0.005446 -0.017074 -0.003749 -0.034425 0.025980 -0.054217 0.027911 -0.025650 -0.002368 -0.014604 -0.017663 -0.045512 -0.012174 0.030822 0.044203
19 0.000785 0.006107 -0.024316 0.004464 -0.025153 0.016497 -0.011997 -0.009586 0.022838 0.022588 0.030530 -0.010395 0.002650 0.021009 0.025318 -0.009507 0.030376 0.022719 -0.044813 -0.006563 0.046242 -0.041884 0.007904 -0.000421 0.039736 0.022414 0.011355 -0.037690 -0.042182 -0.046210 -0.005025 -0.018201 0.040527 -0.075728 0.019299 0.010724 0.013402 0.028275 -0.008021 -0.000333 0.015216 0.007742 0.020108 -0.029541 -0.013907 -0.045261 -0.026337 0.000450 -0.027335 -0.013092 -0.015835 0.001035 -0.033516 0.029559 -0.058308 0.034136 -0.032972 0.001545 -0.016317 -0.025927 -0.045653 -0.019861 0.034135 0.047752
20 -0.006927 0.007182 -0.033468 -0.004775 -0.021378 0.024897 -0.033065 -0.027302 0.030093 0.030696 0.036157 -0.013688 0.009672 0.035062 0.021865 -0.019285 0.037165 0.016868 -0.048755 0.021834 0.057014 -0.045993 -0.003023 0.017726 0.030046 0.022006 0.003130 -0.050710 -0.044937 -0.048834 -0.002071 -0.019855 0.031630 -0.061801 0.016431 0.015966 0.015470 0.045569 -0.016581 0.000568 0.014270 0.015329 0.037468 -0.046918 -0.009144 -0.050379 -0.036541 0.030254 -0.043540 -0.024165 0.006945 0.003965 -0.033941 0.040812 -0.065153 0.033852 -0.033305 0.011036 -0.019637 -0.020799 -0.035538 -0.028140 0.041732 0.053668
21 0.001037 0.020026 -0.035260 -0.007623 -0.030823 0.015841 -0.044694 -0.023208 0.029653 0.040856 0.042105 -0.021075 0.012751 0.041126 0.032579 -0.021572 0.034502 0.005589 -0.049022 0.023615 0.052179 -0.047345 -0.009134 0.026766 0.035593 0.020659 0.013649 -0.050408 -0.029435 -0.049205 0.010051 -0.023382 0.038960 -0.077536 0.001203 0.014621 0.012239 0.045704 -0.002757 0.004788 0.017898 0.010748 0.039776 -0.058619 -0.016902 -0.048431 -0.045265 0.022862 -0.056895 -0.038204 -0.026963 0.009058 -0.039098 0.041459 -0.076782 0.035351 -0.029856 0.008801 -0.029178 -0.032127 -0.031523 -0.027598 0.058470 0.058587
22 -0.019797 0.020361 -0.050171 0.008061 -0.041747 0.024455 -0.045910 -0.031153 0.037460 0.047932 0.062751 -0.031448 0.017086 0.049211 0.061366 -0.009777 0.051001 0.020398 -0.051818 0.027084 0.070690 -0.061055 -0.013001 0.026594 0.034051 0.018120 -0.004405 -0.055354 -0.055646 -0.071770 0.019042 -0.026605 0.026301 -0.093537 0.012602 0.003963 0.019884 0.065204 -0.024912 -0.005749 0.023316 0.014151 0.048625 -0.063106 -0.021940 -0.060438 -0.035574 0.019517 -0.062933 -0.036709 -0.027512 0.009454 -0.043626 0.050371 -0.071651 0.047809 -0.043148 0.020829 -0.041645 -0.039085 -0.034373 -0.033281 0.061242 0.067666
23 -0.011308 0.022080 -0.055278 0.006269 -0.037883 0.024046 -0.055063 -0.026359 0.030884 0.059654 0.071521 -0.045901 0.025738 0.063213 0.054762 -0.006212 0.049201 0.008361 -0.051707 0.051102 0.072455 -0.070065 -0.020915 0.025866 0.048848 0.027320 0.001229 -0.067254 -0.039131 -0.077004 0.014494 -0.044238 0.035098 -0.089569 0.002543 0.012076 0.027668 0.055882 -0.023140 -0.008345 0.028291 0.007261 0.062324 -0.071924 -0.020038 -0.052530 -0.054226 0.038804 -0.064360 -0.039690 -0.029799 0.012763 -0.046342 0.061710 -0.069097 0.054988 -0.047019 0.025500 -0.037342 -0.041670 -0.025890 -0.045546 0.068544 0.079270
24 -0.000920 0.021383 -0.061100 -0.003408 -0.030140 0.030395 -0.044664 -0.025991 0.048868 0.064885 0.073746 -0.048432 0.022580 0.064935 0.059847 0.005778 0.048053 0.019036 -0.043234 0.060175 0.080484 -0.075261 -0.046284 0.035808 0.049337 0.026223 -0.009761 -0.072366 -0.042944 -0.075128 0.011576 -0.047637 0.049263 -0.091258 -0.005492 -0.003810 0.024282 0.064399 -0.021052 -0.016857 0.027287 0.014990 0.088373 -0.084056 -0.024242 -0.063127 -0.060140 0.020184 -0.075634 -0.053510 -0.031287 0.011258 -0.051171 0.064545 -0.070080 0.059501 -0.047816 0.049347 -0.050723 -0.047669 -0.037008 -0.051942 0.078788 0.083347
25 -0.015392 0.016550 -0.075334 -0.003726 -0.057860 0.036827 -0.043366 -0.031962 0.040801 0.058163 0.072652 -0.043045 0.019059 0.071926 0.067511 0.001970 0.056509 0.028951 -0.043299 0.072475 0.079512 -0.083451 -0.053760 0.047215 0.047686 0.033802 0.004397 -0.088565 -0.024432 -0.078631 0.021150 -0.047553 0.033266 -0.105453 -0.009164 -0.000636 0.032374 0.073963 -0.021265 -0.011036 0.023759 0.023159 0.090432 -0.079256 -0.033071 -0.074128 -0.066736 0.044898 -0.088000 -0.058215 -0.036363 0.019957 -0.049295 0.061856 -0.062850 0.063484 -0.058299 0.042589 -0.051214 -0.043191 -0.030166 -0.061844 0.084915 0.082257
26 -0.020491 0.031286 -0.083040 0.008518 -0.050459 0.026887 -0.050079 -0.037756 0.039750 0.078579 0.091250 -0.054010 0.034704 0.087399 0.094168 -0.001048 0.062359 0.025549 -0.047363 0.075331 0.099912 -0.103223 -0.051602 0.048450 0.054424 0.033685 -0.002286 -0.107347 -0.022073 -0.103261 0.017171 -0.058896 0.024060 -0.110662 -0.016038 0.008412 0.035810 0.090835 -0.018472 -0.005577 0.039908 0.015085 0.115494 -0.075760 -0.030349 -0.077760 -0.063488 0.036238 -0.081419 -0.065809 -0.045180 0.023167 -0.055065 0.076764 -0.063996 0.069411 -0.057790 0.053715 -0.052288 -0.060071 -0.023818 -0.072550 0.106107 0.103411
27 -0.024705 0.035146 -0.098044 -0.002794 -0.056103 0.036178 -0.058643 -0.033137 0.042148 0.086732 0.102421 -0.042261 0.038634 0.099595 0.091006 0.013435 0.066864 -0.000883 -0.042654 0.079420 0.102464 -0.109958 -0.084830 0.058622 0.052092 0.035422 0.009465 -0.107266 -0.020087 -0.101197 0.020202 -0.052795 0.035934 -0.113722 -0.031502 -0.003461 0.039403 0.098374 -0.026648 -0.009405 0.011591 0.017910 0.115948 -0.108138 -0.026308 -0.085131 -0.076494 0.033888 -0.090947 -0.070909 -0.029476 0.026713 -0.046266 0.086499 -0.071754 0.078198 -0.048627 0.063842 -0.062216 -0.059700 -0.014672 -0.067644 0.117214 0.111644
28 -0.029121 0.037604 -0.116051 0.002760 -0.061586 0.037183 -0.063113 -0.041440 0.022865 0.085868 0.094367 -0.047470 0.039925 0.134208 0.105798 0.006518 0.072832 0.001162 -0.052664 0.095616 0.098455 -0.123774 -0.098636 0.057121 0.044037 0.030622 0.003467 -0.120352 -0.019290 -0.111760 0.013433 -0.070189 0.042102 -0.115262 -0.025937 0.001114 0.045449 0.108674 -0.020977 -0.008614 0.032148 0.017822 0.143921 -0.111906 -0.032494 -0.092970 -0.083630 0.040070 -0.095978 -0.073344 -0.035924 0.029482 -0.060457 0.084271 -0.067798 0.088473 -0.055182 0.069865 -0.076813 -0.071943 -0.026245 -0.090989 0.118535 0.113809
29 -0.030688 0.040166 -0.130932 0.018874 -0.060694 0.040522 -0.076647 -0.034503 0.021642 0.097966 0.106545 -0.049174 0.044690 0.155981 0.121064 0.003187 0.074333 0.003598 -0.060803 0.123492 0.110428 -0.133401 -0.120931 0.063775 0.051002 0.032672 -0.013384 -0.114034 -0.019595 -0.110642 0.011591 -0.078487 0.027478 -0.138088 -0.039024 -0.013006 0.028418 0.130604 -0.034287 -0.004509 0.026534 0.020738 0.151587 -0.107920 -0.023705 -0.106736 -0.087719 0.033248 -0.096116 -0.071736 -0.033494 0.034262 -0.064233 0.107992 -0.075594 0.088928 -0.060144 0.086301 -0.069280 -0.063200 -0.021120 -0.098753 0.145307 0.134387
30 -0.023834 0.046912 -0.147758 0.014476 -0.068760 0.044196 -0.079999 -0.022039 0.028462 0.084475 0.116523 -0.058275 0.053325 0.169260 0.139877 0.006344 0.090226 0.008425 -0.066678 0.108835 0.097364 -0.152343 -0.135084 0.071088 0.050082 0.028027 0.007092 -0.117805 -0.017851 -0.122526 0.026584 -0.080976 0.019066 -0.136245 -0.041526 -0.010830 0.028479 0.134450 -0.033529 -0.015384 0.033421 0.012070 0.168501 -0.137265 -0.028386 -0.142847 -0.099461 0.049383 -0.111148 -0.068154 -0.030459 0.041075 -0.065051 0.107123 -0.072989 0.106693 -0.054372 0.125301 -0.081646 -0.078561 -0.012485 -0.093169 0.180623 0.156086
31 0.010219 0.013944 -0.061348 -0.007502 -0.088274 0.042443 -0.039854 0.008643 0.011080 0.011060 0.040473 -0.032994 0.010327 0.110182 0.071969 -0.045562 0.031660 0.042752 -0.070187 0.082425 0.032850 -0.102677 -0.069067 0.006351 0.033568 0.037486 0.013955 -0.006950 0.058658 -0.031807 0.027744 -0.031785 -0.022376 -0.080658 0.037244 0.007536 -0.006121 0.061551 -0.045023 0.012315 0.035151 -0.009376 0.136658 -0.081881 -0.037823 -0.097524 -0.051940 0.082942 -0.059424 -0.027083 -0.028677 0.029719 -0.041421 0.031339 -0.048764 0.085831 0.006019 0.079232 -0.017839 -0.015292 0.011320 -0.046844 0.053123 0.063402
