64 384
0 -0.003135 0.021168 0.004292 0.004981 -0.040643 0.007600 0.002991 0.035440 -0.007941 -0.001603 -0.000649 0.008489 0.058378 0.012698 0.001330 0.000723 -0.127920 0.012282 -0.008797 0.011000 -0.055385 -0.038476 0.006418 0.011481 0.016170 0.105870 0.058309 0.106348 0.011466 0.001269 0.009052 0.023753 -0.012099 -0.032054 -0.008551 -0.028001 -0.003870 0.014847 0.017298 -0.033560 -0.019624 -0.024564 0.034338 0.032416 -0.048945 -0.009446 -0.029226 -0.039769 0.026984 0.007188 0.025446 -0.030159 -0.046262 -0.021307 -0.018361 -0.017719 -0.007273 -0.040030 0.086225 0.042776 -0.055138 0.021703 -0.031390 -0.006032 0.034144 -0.022143 0.005656 0.031822 -0.017901 0.014510 0.030876 0.005247 0.017566 0.012129 -0.017795 -0.019264 0.017645 -0.054839 -0.065916 -0.004034 0.037277 -0.013682 0.013955 -0.059041 0.020044 0.043032 -0.033680 -0.044660 -0.074876 -0.023595 -0.072425 -0.101949 -0.071894 0.002736 -0.027653 0.063605 0.109978 -0.011319 0.026687 0.039140 -0.002631 -0.062884 -0.033451 -0.015474 0.041710 -0.026487 -0.005888 0.050552 0.013600 0.011617 0.022212 0.006886 -0.048380 0.030259 0.026424 0.044169 0.025014 -0.027301 0.015370 -0.028451 -0.055588 -0.030903 0.018678 0.044807 0.027958 0.047108 0.004308 -0.065929 -0.001530 0.010700 -0.005207 0.011190 -0.048344 -0.026866 -0.032656 0.032472 -0.031154 -0.018924 -0.013443 -0.012827 -0.028842 -0.006768 -0.046336 0.091866 0.002255 -0.030828 -0.108806 -0.014409 -0.035554 -0.055406 -0.054922 0.011241 0.017121 -0.044594 -0.038653 -0.005700 0.050574 -0.049524 -0.019909 0.031537 -0.031208 -0.013773 -0.005811 -0.027147 0.021829 -0.032296 -0.004413 0.003226 0.021742 0.022648 0.021054 0.027221 -0.033438 0.020338 -0.008669 -0.051532 0.045970 0.018523 0.014834 -0.111690 -0.016568 0.061040 0.063653 0.037017 -0.041306 -0.008806 0.016422 0.004629 -0.005544 0.003946 0.044704 -0.036047 0.029244 0.012882 0.062269 -0.058922 0.037016 -0.052062 -0.018312 0.014946 0.005728 -0.015797 0.040049 -0.004886 -0.012917 0.031213 -0.031573 -0.053686 0.057369 -0.043085 0.019666 -0.068392 0.011155 0.021822 0.016641 -0.040011 0.001413 0.112119 -0.060669 0.036652 -0.009533 0.008236 -0.085796 -0.029250 -0.027765 -0.011885 -0.000913 0.030280 0.014300 0.003508 -0.075487 0.008555 -0.069076 -0.091434 0.003925 -0.057545 -0.031153 0.015003 0.028937 -0.035975 0.019131 0.021064 0.018586 -0.023630 -0.034347 0.083316 -0.046552 -0.072273 -0.075961 -0.015829 -0.051771 -0.028380 -0.025779 -0.011404 -0.018752 0.002399 0.048246 -0.007016 -0.004094 -0.016099 -0.006149 -0.026647 -0.017145 0.031216 0.012258 -0.006811 0.004707 0.030960 -0.021196 0.035020 0.040404 0.031809 0.006918 0.048067 -0.022396 -0.054736 0.069678 0.018028 -0.073344 -0.014389 0.011341 -0.003287 -0.061796 -0.024506 0.011319 0.024246 -0.000643 0.001734 -0.010703 0.006660 0.040052 0.017478 0.079545 -0.011436 -0.023414 0.002803 0.023142 -0.016988 -0.007124 -0.011295 0.039297 0.064003 -0.011107 0.055971 0.081130 0.030775 0.037867 0.007090 0.008233 0.118295 0.011801 0.012264 -0.063656 -0.059533 -0.044733 0.023756 0.002548 0.032824 0.057083 0.050859 -0.006468 -0.045578 -0.033274 0.100694 -0.006199 0.024986 -0.088369 0.006678 0.030922 0.025249 0.007191 -0.033504 -0.049364 0.020045 0.072768 0.115340 -0.032036 0.040039 0.010072 0.038203 -0.026084 -0.022712 0.003254 -0.015246 -0.020529 0.024557 0.050115 -0.055930 0.016804 -0.021443 0.023836 0.001088 -0.019816 0.021225 -0.047515 0.048167 0.036813 0.025711 0.031273 -0.035134 0.034044 -0.036123 0.021172 0.012074 -0.027884 0.008078 0.027801 -0.015791 0.055396 0.008000 -0.010415 -0.024278 -0.009363 0.024736 0.001373 0.028702 0.034213 0.024373 0.035509 -0.018138 0.046391 -0.029356 -0.023944 -0.003369
1 0.026492 -0.006189 -0.068686 -0.008583 -0.020007 0.009244 -0.026301 -0.005685 0.007654 0.000344 -0.024908 0.109898 0.074471 -0.004356 -0.039012 -0.000460 -0.002158 -0.015061 -0.009497 0.005640 0.031772 0.001926 -0.021008 0.025869 -0.009427 0.055263 0.028914 0.067232 -0.094666 0.005398 0.001259 -0.037845 0.014179 0.028617 0.025823 0.001041 -0.037784 -0.076965 0.001805 -0.000802 -0.018809 -0.025869 0.001592 -0.041108 -0.007810 -0.021424 -0.003892 -0.019850 -0.030853 0.024408 -0.028664 -0.036059 -0.017236 -0.015854 -0.042499 0.023136 0.026011 -0.023148 0.056341 0.043828 0.028467 -0.037337 0.028129 0.031825 -0.024544 0.022750 -0.024008 0.018439 0.033668 0.002692 -0.028738 -0.014398 -0.002838 -0.016295 -0.001882 0.014712 0.013309 -0.032341 0.026248 0.007186 0.045836 0.019815 0.043078 -0.034069 -0.030022 -0.007824 0.065227 0.027521 0.016247 -0.039601 -0.121986 -0.042103 -0.019804 0.060878 -0.029199 0.001381 -0.027995 0.035092 -0.007235 0.052961 0.003958 -0.007705 -0.012385 0.018159 0.040116 0.051184 0.011384 0.079058 0.005188 0.037706 -0.034647 -0.043947 0.037670 0.048440 -0.047049 -0.004518 -0.051655 0.048503 -0.039864 0.011989 -0.042995 -0.008292 0.023604 -0.047813 0.024809 -0.014894 0.020481 -0.057542 -0.072716 0.000474 -0.003813 -0.043694 -0.063905 -0.032018 -0.036272 -0.014633 -0.044639 -0.040447 -0.011094 0.032575 -0.015794 -0.095004 -0.033698 0.084121 -0.009254 -0.056922 -0.003142 0.010898 0.015793 -0.003081 -0.017478 -0.010626 0.017418 0.027709 0.011587 0.008640 0.003623 0.002765 -0.006411 -0.004239 0.016098 0.012370 -0.036545 0.021066 0.024776 0.014872 -0.005671 -0.001167 0.084957 0.015631 0.051450 0.003735 0.001057 -0.012707 0.035274 -0.046332 0.034103 -0.016978 0.021274 0.068014 -0.016707 0.044080 -0.012116 -0.031490 -0.039075 0.007383 -0.034856 -0.028671 -0.001553 0.021987 0.044491 -0.044811 0.012316 -0.008892 -0.036653 0.007025 0.003631 0.040294 0.011964 -0.050869 0.040946 0.019307 -0.006833 0.013670 0.054842 0.057971 -0.012387 -0.043817 -0.013905 -0.004068 0.057922 -0.022303 -0.005665 0.048939 -0.011688 -0.007880 0.029755 -0.002026 0.029005 -0.019127 0.004472 -0.042308 -0.022832 0.036278 -0.027722 0.048146 0.019424 -0.013192 -0.010389 0.038794 -0.004611 0.017237 -0.029187 -0.019945 -0.006689 0.048465 0.016765 0.001415 -0.022766 -0.026757 0.011444 0.009393 -0.007825 -0.038267 -0.014702 0.001300 -0.047220 -0.067115 -0.023638 -0.029064 -0.008719 -0.023942 -0.065702 -0.033466 0.037167 0.021050 0.054570 0.036238 0.058966 -0.054701 -0.020659 -0.041446 0.021350 -0.042033 -0.004596 -0.055194 0.004384 -0.021873 -0.000530 -0.062318 0.033151 -0.021725 -0.007444 -0.000519 -0.003350 -0.013413 0.032830 0.071119 -0.024175 -0.009970 0.027575 -0.030217 -0.017305 0.023880 0.028861 0.056045 0.060325 0.028999 -0.016620 -0.020937 0.073871 0.010397 -0.006336 -0.011872 -0.006304 0.004258 0.029972 0.034591 0.039786 -0.040777 0.046247 0.007438 -0.033678 0.001226 -0.028041 0.027683 0.034937 0.064457 0.024768 0.034665 -0.030220 -0.016778 0.014879 -0.010757 -0.027016 0.017212 0.020582 0.061793 -0.013776 0.013702 -0.010585 -0.007465 -0.023497 0.062571 0.021617 0.007610 0.023324 0.022896 -0.054244 0.030430 0.084164 0.057716 -0.015731 -0.004569 -0.009498 0.017396 -0.013914 -0.054158 -0.025530 0.005164 0.003557 -0.054561 -0.010802 -0.015670 0.052272 0.031689 0.000599 -0.030586 0.017351 0.017153 -0.000383 0.028928 0.006169 0.044593 -0.024482 -0.026349 0.039148 0.053319 -0.017220 -0.017623 -0.083026 0.023808 -0.001117 0.012980 0.017873 -0.057230 -0.075409 -0.066321 0.009192 0.001368 0.000286 0.007623 -0.042141 -0.037666 0.040303 -0.006594 0.017460 -0.008170 0.006838 -0.015220 0.007274 0.046198 -0.043949 -0.018231
2 0.023311 -0.004942 0.031125 -0.007738 -0.000810 0.003161 -0.016478 -0.030160 0.038863 -0.008891 0.027536 0.003656 0.017198 -0.001197 -0.025407 -0.008916 -0.044793 -0.030113 -0.010809 0.024326 -0.012313 0.014146 -0.025964 0.024751 -0.002283 0.066186 0.034039 0.064327 -0.025601 -0.027272 -0.032506 -0.022389 -0.023681 0.014096 0.059170 -0.027523 0.026062 0.002169 0.030337 0.007047 -0.021894 0.004347 0.015717 -0.025561 0.010089 -0.047026 -0.034156 0.011102 0.026443 -0.010411 -0.032466 0.022143 -0.003577 0.047654 -0.058885 0.015266 0.067614 0.009365 0.034876 -0.022429 0.027409 -0.030917 -0.026412 0.009932 -0.007656 0.010174 -0.032637 -0.010861 -0.009379 -0.023923 -0.028243 0.026387 0.071566 0.000967 -0.004120 0.045647 -0.075545 -0.048113 0.029724 0.067923 0.006064 -0.007551 0.017241 -0.002172 0.009448 0.004944 0.047297 -0.026794 -0.026769 -0.017936 -0.028689 -0.023174 -0.004121 0.015283 0.022271 0.003307 0.014118 0.032913 -0.006869 0.049697 0.007321 0.029847 0.004851 -0.005125 -0.014293 -0.013451 -0.037763 0.040059 0.052120 0.009347 -0.025310 -0.005007 -0.009362 0.024627 -0.049801 -0.014317 -0.033992 -0.007952 -0.023552 0.008865 0.038987 -0.011050 0.020352 0.028840 -0.012164 0.047639 -0.012446 -0.030001 0.006503 -0.039159 0.017183 -0.034214 0.005704 0.009184 0.018825 -0.040529 -0.022570 0.015340 -0.018054 0.031066 0.030833 -0.017211 -0.002499 0.087210 -0.004902 -0.011138 0.004879 0.003750 -0.013288 -0.036096 0.022086 0.001195 -0.000564 0.013743 -0.018761 -0.002615 0.059316 0.044217 -0.054168 -0.001493 -0.000739 0.047832 -0.028276 0.011322 -0.031133 0.007565 -0.001075 -0.046710 0.022438 -0.017416 -0.042323 -0.013374 -0.008194 0.025319 0.046186 -0.071783 -0.007520 -0.008375 -0.000077 0.005940 0.029353 0.026993 0.017738 0.026857 0.005823 0.050097 0.012965 0.000483 -0.041296 0.043723 0.047717 -0.016610 0.036989 0.019563 0.030562 0.024945 0.071512 0.022193 -0.013948 0.019648 -0.005568 -0.004389 -0.036670 -0.013297 0.032486 0.025396 -0.009811 -0.020573 0.036792 -0.027551 -0.014825 -0.019276 -0.011110 0.006017 -0.030634 -0.011809 -0.005282 0.056867 -0.035008 -0.034798 -0.014695 -0.022053 -0.047842 -0.002376 -0.061075 0.065329 0.033844 0.016018 -0.003468 0.030193 -0.029864 0.033072 -0.048165 0.009015 -0.022090 0.027862 0.055339 -0.067653 -0.033346 -0.007823 0.018211 0.025739 0.008644 -0.014912 -0.045227 -0.011684 -0.009896 -0.071851 0.030776 -0.025141 -0.030749 0.009844 -0.006368 -0.030216 -0.004442 0.009968 0.013968 -0.001363 0.000808 0.012290 -0.000884 -0.014399 -0.021059 0.013004 0.052253 0.030012 -0.007159 0.034949 0.040558 -0.028717 0.046221 0.004366 -0.013269 0.022251 0.006531 0.027931 0.027922 -0.017842 -0.024809 -0.007077 -0.050660 -0.027247 -0.008047 -0.000138 0.001370 0.020833 0.006229 -0.015973 0.039018 -0.054633 -0.002409 -0.005476 -0.006326 0.029283 -0.051801 0.000668 -0.027723 0.049176 -0.043292 0.017174 -0.005893 0.035358 0.012405 0.015012 -0.022909 0.056935 -0.015895 0.006674 0.031267 0.021422 -0.040391 0.007124 0.005347 -0.013466 -0.005587 0.038921 0.031672 -0.002063 0.036833 0.011234 -0.002390 0.012689 0.007189 0.075490 -0.003678 -0.049254 -0.021335 0.011449 -0.026812 0.006821 0.059185 0.033131 0.021556 0.017294 -0.013928 0.024290 -0.022930 -0.029240 -0.003112 -0.015105 -0.025107 -0.006223 -0.015406 0.032327 -0.033457 0.035223 -0.003978 -0.004981 -0.032501 0.018319 0.005414 0.036879 0.028560 0.063719 0.026508 0.019167 0.015380 -0.010245 0.020098 0.012218 -0.028534 -0.031413 -0.005689 0.006182 -0.053392 -0.014446 -0.005627 -0.023449 -0.040450 -0.005720 0.018144 -0.018281 0.052646 -0.022624 -0.017592 0.018771 -0.032316 -0.041910 0.023863 -0.017545 -0.017058 0.021462 -0.049728 -0.033217
3 -0.005466 0.033291 -0.012586 -0.025426 -0.044206 -0.004005 0.019982 0.033194 0.037195 -0.027027 -0.010748 0.038812 0.022416 -0.031236 0.002474 0.030481 -0.039386 -0.019577 -0.007805 0.003906 -0.000304 0.000111 0.031631 -0.005600 -0.017089 0.027926 0.073647 0.052379 -0.038150 -0.003552 0.016911 -0.053423 -0.000677 0.030499 0.044365 -0.006419 0.008418 -0.005419 0.005645 -0.002336 0.014946 0.030066 0.047416 -0.020593 -0.014803 -0.044813 -0.042826 0.012666 0.017301 0.020570 0.000496 -0.034253 -0.025641 0.029468 -0.015587 -0.015393 0.029489 0.002412 0.032795 -0.013437 -0.020932 -0.027971 -0.011074 -0.000070 0.030549 0.013081 0.025590 -0.036950 0.006324 -0.006761 -0.030856 0.024883 0.051526 0.019491 -0.043138 0.026372 -0.049313 -0.029714 -0.039716 0.053857 0.034927 0.009954 -0.015549 -0.003094 0.057184 0.006609 0.038173 0.005069 -0.005848 -0.040716 -0.049003 0.042867 -0.015860 0.025612 -0.036097 0.025526 0.023036 -0.023919 0.001653 0.016700 0.014858 0.037593 -0.036954 0.003513 0.009047 0.005570 -0.019122 0.027995 -0.028089 0.061957 -0.011028 -0.003889 0.001395 0.034060 -0.012767 -0.014334 -0.007629 0.000412 -0.002087 0.039032 -0.022717 -0.008101 0.017104 0.015575 -0.013753 0.004800 0.005923 -0.034146 -0.011577 -0.023197 -0.027074 0.025129 0.011131 0.016065 -0.032640 -0.012745 -0.043625 -0.020994 0.055342 -0.014353 0.031363 0.005387 0.025735 0.072378 -0.040203 -0.028087 0.034958 0.012924 0.021106 -0.023414 -0.028729 0.041879 0.016733 0.035282 0.036126 -0.029073 0.034113 0.032400 -0.033053 -0.015250 0.002188 0.017332 -0.026657 -0.021684 -0.021332 -0.000736 -0.014075 0.012783 0.077583 0.001620 -0.027477 -0.001982 0.005508 -0.015587 0.035013 -0.043648 -0.028240 0.031420 -0.024898 -0.030828 -0.020484 -0.011983 0.006129 -0.009747 -0.027541 -0.003191 0.052908 0.021830 0.030338 0.011792 -0.008212 -0.024506 -0.011904 -0.042938 -0.004941 0.008276 -0.010149 0.013666 0.004335 -0.020982 0.015193 -0.014030 -0.006604 -0.060429 -0.028641 0.055390 0.013198 -0.034090 0.041820 -0.018858 0.016026 -0.000608 0.018158 -0.020699 0.012073 -0.033205 0.032706 -0.005167 -0.008460 0.019721 -0.002166 -0.047543 -0.020642 -0.022122 0.007569 0.059282 -0.020521 -0.002859 -0.027424 0.028245 -0.025647 0.000055 -0.043156 0.004511 -0.030402 0.013679 0.036219 0.031586 0.001093 0.004036 0.003050 0.038588 0.000560 -0.016919 -0.041239 -0.043327 0.014164 -0.053317 0.020644 -0.022554 -0.029809 -0.040065 -0.008355 -0.008360 0.018135 0.005189 0.004764 0.001816 -0.022860 -0.005467 -0.044215 -0.001665 -0.016658 -0.039523 0.031401 -0.024033 -0.005122 0.002083 0.004122 0.006855 0.023038 0.009573 -0.000051 0.051369 -0.019352 -0.030954 0.021272 0.019011 -0.034703 -0.029771 0.002568 0.031049 0.026897 0.056106 -0.031628 0.015999 0.032607 -0.036754 0.026346 -0.022358 0.021227 -0.024028 -0.008962 -0.008073 -0.017669 -0.017238 -0.007777 -0.014811 0.007628 0.011862 -0.044902 0.084778 -0.032135 -0.042219 -0.035971 0.021671 -0.040295 -0.008591 0.005048 0.028393 0.025432 0.003521 -0.028690 0.016695 0.009177 -0.041051 0.028009 -0.004674 0.005704 0.024247 -0.013212 0.045423 0.013656 0.017496 0.019582 -0.025025 -0.007664 0.018886 0.032388 -0.017631 0.069126 0.039361 0.037950 0.002359 0.008717 0.035508 -0.047640 0.001784 -0.026889 0.008808 -0.023522 0.010074 0.009943 0.007664 -0.022092 -0.004788 0.034680 0.037929 0.000740 0.017654 0.009306 -0.035254 0.059019 -0.004553 -0.045381 -0.000767 0.037978 -0.023790 0.015688 0.016090 0.024258 -0.009444 0.007675 -0.024211 0.016838 -0.001472 0.000456 -0.034002 -0.024742 -0.026265 -0.038251 0.004431 0.037635 -0.030978 0.018462 0.029302 -0.083278 -0.028479 -0.011787 0.015578 0.024695 0.027763 0.001082 0.012634
4 -0.061136 -0.025716 0.004578 0.004282 0.002529 -0.030139 -0.005933 -0.045051 -0.001851 0.007571 -0.008742 0.041410 0.039795 0.006718 -0.020672 0.009282 -0.020475 -0.022630 -0.007754 -0.015506 0.007275 0.017416 -0.009339 -0.032211 0.008632 0.010702 -0.024589 0.043188 -0.030468 0.030808 -0.000428 -0.016214 -0.023825 0.018791 0.012631 0.001125 0.038295 -0.021306 0.012091 -0.018324 0.013490 -0.051981 0.031974 0.033991 -0.004129 -0.017257 -0.045138 0.030802 -0.089113 0.055372 0.020877 -0.050892 -0.014686 0.028131 -0.079444 0.003051 0.038317 0.000053 0.038207 -0.039082 -0.016441 -0.012215 -0.038735 -0.012963 -0.001879 -0.021551 0.043560 -0.020418 0.012129 0.000221 -0.012420 0.001342 0.037299 -0.001656 -0.083508 0.016419 -0.001557 0.003759 -0.021539 -0.019282 0.023887 0.022826 0.054756 -0.048652 -0.000626 -0.019392 0.033191 0.006260 -0.010411 -0.011749 -0.015332 0.008763 0.011930 -0.010113 -0.015621 0.012648 0.010172 -0.008062 -0.000092 0.058264 0.034673 -0.001730 -0.013913 0.016581 -0.034071 -0.031580 0.000436 0.068519 0.019049 0.020296 0.010705 0.012124 -0.003695 0.071285 -0.025636 -0.041503 -0.030665 -0.026866 -0.017089 0.035872 -0.032766 0.021811 0.000627 -0.009205 -0.039021 0.026076 -0.014883 -0.033213 0.048207 0.005978 -0.038370 -0.020046 0.001115 -0.024736 -0.028226 -0.055010 -0.024263 -0.009817 -0.015708 0.003120 0.025701 0.014084 -0.000201 0.101822 0.023535 -0.016292 0.018306 0.003413 -0.021935 -0.009572 -0.027776 0.037566 -0.035036 -0.047968 -0.013182 -0.004954 0.017647 -0.019711 -0.026485 0.012141 -0.039839 0.017388 0.014241 -0.080471 -0.017682 0.018437 0.006245 0.035709 0.068472 0.021321 -0.005878 0.033464 0.022811 -0.009076 -0.053484 0.033515 0.021147 0.005706 0.004462 -0.025075 -0.004840 -0.016281 -0.002312 0.008271 -0.014816 -0.004495 0.051126 -0.005708 0.037150 -0.036234 -0.008640 0.006921 -0.036906 -0.003992 -0.024760 0.028367 0.020232 0.026769 0.025231 0.007116 0.029794 0.003390 -0.012441 -0.003532 0.011418 0.052386 -0.017595 -0.028158 -0.026055 -0.004152 0.034185 -0.005370 0.009352 0.022440 0.001503 -0.041631 -0.003120 0.002169 -0.041078 -0.013701 -0.030630 -0.022605 -0.016780 -0.005047 -0.007622 0.035116 0.017709 0.008942 0.013866 -0.020617 -0.013292 -0.031549 -0.028535 -0.018512 -0.011287 0.022354 0.010896 0.026749 -0.014272 -0.019732 -0.010100 0.012265 0.024988 -0.025971 -0.015630 0.035347 -0.032968 -0.042211 0.006736 -0.040432 0.013488 0.004929 -0.013692 -0.021359 -0.047460 0.019585 -0.020158 -0.007130 -0.013790 0.018107 -0.023506 0.024896 -0.005182 -0.034568 0.046232 0.002733 0.012132 -0.001096 0.026413 0.035639 -0.003757 0.005433 0.006534 0.002710 -0.022279 -0.016569 0.000305 -0.015182 0.014854 0.014352 0.059155 0.002447 0.007080 0.053723 0.032022 0.046008 0.014238 -0.017066 -0.000627 -0.027303 -0.018751 -0.022153 0.054365 -0.024092 -0.017004 0.010439 -0.000948 -0.024737 0.008655 -0.035496 -0.007647 0.070765 -0.015135 -0.005280 -0.009284 0.017763 0.005842 -0.013717 -0.009588 0.034184 0.015347 0.011215 0.003218 0.039166 -0.000105 0.015374 0.011551 0.022220 0.061197 0.049945 -0.040582 0.019837 0.002878 0.082126 0.030959 -0.028864 -0.005788 -0.044034 -0.030007 0.026932 0.007079 0.040217 0.027624 -0.006757 0.021035 0.027639 -0.038122 0.022794 0.007642 -0.009978 0.009978 0.006557 -0.010273 0.021698 0.014819 0.005155 0.041711 0.043844 0.012067 -0.024952 -0.026350 -0.014542 0.028203 -0.016775 -0.023963 0.007935 0.048092 -0.031926 -0.003576 0.008786 0.006852 0.007184 0.008497 -0.015105 0.024619 -0.018397 -0.009892 -0.012650 -0.009428 -0.037633 -0.035754 -0.004669 0.023241 0.018043 0.008727 0.006875 -0.033021 0.008906 0.010043 0.018290 -0.026716 -0.009635 -0.013853 0.026547
5 -0.016915 -0.019241 -0.024552 -0.015345 0.010762 -0.006623 0.032116 -0.008295 -0.009274 -0.008278 -0.022372 0.076266 0.012733 0.006914 -0.019452 0.034723 -0.029570 -0.020221 -0.004131 0.007362 0.048651 -0.047270 -0.015841 0.053909 -0.006074 0.017650 0.011987 0.037203 -0.008964 -0.015643 -0.016230 -0.063349 -0.002656 -0.023833 0.020818 -0.015214 0.024920 -0.003765 0.048477 -0.012356 -0.015386 -0.032511 -0.006958 0.014905 -0.020623 -0.028679 0.024917 0.000636 -0.009845 0.066153 -0.016630 -0.044924 -0.001826 0.011246 -0.062872 0.042517 0.044571 0.030539 0.005743 0.008552 -0.031204 0.001744 -0.056094 -0.033583 0.003245 0.003306 0.046956 0.014136 -0.032228 0.021369 0.021905 -0.005381 -0.002285 -0.018468 -0.065826 0.030508 -0.017750 -0.002150 -0.021011 0.013088 0.013941 0.043487 0.038346 -0.063752 -0.042094 -0.020673 -0.002562 -0.020795 -0.016077 -0.030926 -0.011103 -0.030396 0.003763 -0.000988 -0.005595 0.036290 0.015484 0.014576 0.036740 0.020485 -0.008669 0.010247 0.001548 0.008480 0.021747 -0.010831 -0.010688 0.064904 0.002979 -0.006111 0.065329 0.027380 -0.004161 -0.034815 -0.023272 -0.037807 -0.034665 -0.035957 0.001998 -0.010666 -0.015633 0.011952 -0.004382 0.009141 -0.048093 0.010002 -0.015306 -0.036768 -0.007639 -0.036686 -0.027186 -0.018833 0.005094 0.025697 -0.011426 -0.015864 -0.011775 0.003775 0.031107 0.031228 0.056064 -0.050800 0.048919 0.080012 0.025292 0.010949 -0.001288 -0.029816 0.012558 0.004211 0.001209 -0.007105 -0.002507 -0.023559 0.032136 0.020246 0.040246 0.019239 -0.027737 0.021845 -0.010954 -0.015740 -0.054567 -0.046316 0.031676 0.008416 -0.024836 0.027252 0.085827 0.015684 0.012662 -0.001513 0.010520 -0.006616 0.030489 0.037618 -0.012054 -0.032315 -0.011776 0.014625 -0.011770 0.000679 -0.030147 -0.006428 0.028827 0.012539 -0.020889 -0.016820 0.011949 -0.047289 -0.042379 -0.001538 0.002010 0.039257 0.021070 0.078454 0.032184 -0.008913 0.013010 -0.025925 0.059190 -0.006988 0.009511 -0.016936 -0.040187 0.015780 0.018273 -0.030137 0.034800 0.034582 0.026229 -0.025126 0.013795 -0.008700 -0.031807 -0.026871 0.000797 0.017444 -0.025949 0.004804 -0.049889 0.028520 -0.014313 0.041940 -0.060345 0.048476 -0.001224 0.005968 -0.037256 -0.012852 -0.032290 0.004657 -0.016016 -0.045075 0.022198 -0.021898 0.049476 -0.036116 -0.049777 -0.024963 0.005288 -0.004320 0.059084 0.040701 -0.009663 0.004972 -0.026153 -0.039022 0.003378 0.009092 -0.011813 -0.004785 0.025297 0.024240 0.000859 0.014802 -0.005518 0.004357 -0.002484 -0.033509 0.008470 0.020283 -0.037967 0.018120 -0.005548 -0.021186 0.051528 -0.026115 0.028764 -0.006918 -0.012780 0.008864 0.031543 -0.024637 0.002215 -0.012908 0.021326 -0.016087 -0.016017 0.031160 -0.004207 0.024418 -0.027546 0.050690 0.006626 0.061087 -0.026196 0.008204 0.001281 0.000611 -0.015070 -0.011214 0.028644 -0.047804 -0.005272 0.027097 -0.057252 -0.031385 -0.042635 -0.004648 -0.044196 0.018217 0.005112 0.008216 0.008944 -0.033139 -0.031156 0.022732 0.011396 0.029697 -0.023301 -0.006595 0.008107 -0.019980 -0.004185 0.014118 -0.008788 0.016429 0.007945 0.045545 0.015297 -0.030317 0.001548 0.029281 0.011035 0.021996 -0.006954 -0.001935 -0.037505 0.023478 0.057080 0.004989 -0.007091 0.032215 -0.044759 0.015264 -0.036080 0.010131 -0.026063 -0.006808 0.010374 0.007349 -0.028673 0.011070 0.036325 -0.023001 0.026907 0.026071 0.035373 0.016303 -0.010854 -0.005191 -0.010312 0.040296 0.044470 0.021267 -0.033542 -0.003923 0.020900 0.025237 -0.015556 0.007308 0.029407 -0.036372 -0.040926 -0.016209 -0.001014 -0.006556 0.000904 -0.020091 -0.014277 -0.030105 -0.014540 -0.001279 0.035186 0.028873 0.001439 -0.010963 0.036523 0.029271 -0.014298 -0.003144 -0.003092 -0.011453
6 0.023012 0.001505 0.012234 0.003230 0.000798 -0.009158 0.007650 0.002661 -0.039633 -0.004284 0.031969 0.038994 -0.017978 -0.012126 0.010125 0.009332 0.027583 -0.013647 -0.030294 0.003024 0.043674 -0.000263 -0.013564 0.030781 -0.066864 0.000134 0.012607 0.001924 -0.005119 0.029777 0.016619 -0.007932 0.000228 0.009219 0.043584 0.026242 0.011811 0.015904 0.023376 -0.012932 -0.007508 -0.032581 0.024602 0.011890 0.023381 -0.014622 0.020266 0.040617 -0.032778 0.034446 -0.007463 -0.031573 0.016510 0.020360 -0.048390 0.005346 0.037756 -0.001071 0.006550 0.021678 -0.038574 -0.038089 -0.037946 -0.027523 0.000262 0.014227 0.035613 0.003917 0.002164 -0.014411 0.002984 0.046096 0.028148 0.006765 -0.044977 0.033930 -0.012260 0.039019 0.024476 0.014860 -0.003353 0.044366 -0.007694 -0.045013 -0.023167 -0.035587 0.016790 0.011585 -0.017405 -0.056598 -0.017377 -0.038012 -0.046085 0.045302 -0.010136 0.013684 0.056159 -0.034196 0.034204 -0.008759 -0.028393 -0.008321 -0.009096 -0.044619 -0.029179 -0.033604 -0.044580 0.044029 -0.050657 -0.046716 0.047168 -0.016141 -0.006115 -0.014545 0.062941 -0.009181 -0.042122 -0.008682 -0.005945 -0.003722 -0.017882 -0.013240 0.015335 0.017658 -0.030283 -0.009236 -0.018227 -0.007906 -0.022210 -0.041906 0.079120 -0.004260 0.012027 -0.030384 0.002452 0.018113 -0.052569 0.003152 0.012992 0.019359 0.036400 -0.036827 0.043119 0.069165 0.022600 0.004686 0.048151 -0.016498 -0.030754 -0.008179 0.019593 0.020087 0.004254 0.020411 -0.010731 0.013050 -0.021472 0.015083 -0.024995 -0.029659 -0.006769 0.040171 -0.004839 -0.048062 0.025647 -0.006836 0.002334 -0.012992 0.016795 -0.000185 0.028394 -0.012027 0.039367 0.028695 0.007578 -0.014391 -0.005837 -0.044814 -0.025126 0.033730 -0.013743 0.017947 -0.030532 -0.006720 0.030462 -0.005666 0.007376 -0.026638 -0.018864 -0.014677 -0.006747 0.003920 -0.022469 -0.007238 -0.001976 0.046011 0.013810 -0.025428 0.010034 -0.005821 0.023090 -0.007839 0.029677 0.007726 0.008187 -0.007232 -0.001578 -0.024028 0.007536 -0.048485 0.021600 -0.033286 -0.003674 0.069823 -0.002462 -0.006702 -0.007129 -0.003280 0.031982 0.023200 -0.068854 0.038574 -0.048768 -0.017882 -0.035049 0.010763 0.025899 0.025391 -0.048631 0.017263 -0.059740 -0.033105 -0.004422 -0.041322 0.001132 -0.012063 -0.003575 0.014809 -0.004097 0.013440 -0.026080 -0.030929 0.044712 -0.005209 -0.042175 -0.015259 -0.025232 -0.015283 0.032618 -0.029325 -0.010390 -0.016909 0.000227 0.038721 0.005183 -0.020478 0.015263 0.014947 -0.028223 0.014391 -0.035448 -0.003549 -0.041867 -0.019132 0.011228 0.029098 -0.008547 -0.048008 0.013648 -0.019509 0.014654 0.035850 0.004575 -0.004183 0.010323 0.021196 -0.016983 -0.007519 0.016739 -0.022922 0.022924 0.026777 -0.022295 0.048831 0.028181 0.077849 -0.016479 0.010280 -0.021625 0.017340 -0.014314 0.001698 0.031818 -0.013927 0.000792 -0.014430 -0.058367 0.014380 -0.033131 0.030099 -0.008125 0.014341 -0.020338 -0.009361 0.001876 0.024574 -0.020884 -0.003573 -0.018947 0.013596 -0.004597 0.005806 -0.001496 -0.003293 0.028463 -0.024693 -0.010821 0.005211 -0.028120 0.019862 0.043402 -0.002765 0.002061 0.077152 0.040817 0.026965 -0.034806 -0.009437 -0.037272 -0.042903 0.063436 0.055517 0.028829 -0.012498 -0.023284 0.045239 0.007094 -0.008822 -0.050119 -0.013217 0.063025 -0.015752 0.045551 -0.017668 0.039670 0.008165 0.025414 -0.034228 -0.002104 0.060061 0.045089 0.017490 -0.013905 0.057854 -0.023147 0.018321 -0.009755 -0.012663 0.013822 -0.009232 0.011953 -0.005586 -0.012651 -0.003964 0.000931 0.001388 0.033888 -0.005757 -0.010159 0.005540 -0.000037 -0.044589 -0.042874 0.004501 0.012182 0.008160 -0.049345 -0.034704 0.030618 -0.030613 -0.033408 0.002609 0.030496 0.010630
7 -0.040366 -0.032969 -0.009673 0.035231 -0.043914 -0.006698 -0.019466 0.034779 0.001681 0.019006 -0.004455 0.056124 0.008537 -0.004486 -0.003483 0.008761 0.004935 0.006890 -0.058764 0.030585 0.018153 -0.032328 -0.026542 0.060730 -0.029885 0.012314 -0.027045 0.031929 -0.039554 0.014770 -0.001441 0.021582 -0.006703 -0.005701 0.001548 -0.009374 -0.019426 -0.038233 0.030524 0.009677 -0.003318 0.004238 0.005807 0.034158 0.026612 -0.037651 -0.017186 0.034503 0.013224 -0.028053 -0.021327 -0.005102 0.019348 0.057753 0.019679 0.053012 0.004385 0.006682 0.012624 0.004235 -0.066036 -0.018663 -0.034768 0.015794 0.003906 0.001871 0.070878 0.029987 -0.019073 -0.003371 -0.004424 0.017886 0.073346 0.005577 -0.004612 0.002231 -0.016912 -0.006759 0.021043 -0.004731 -0.039392 0.036779 -0.011133 -0.061269 -0.020009 -0.044006 0.011755 0.014893 0.046578 -0.026465 -0.039849 -0.050050 -0.022998 0.019870 -0.006833 0.023044 0.015525 -0.026896 -0.007532 0.056947 0.010645 0.035372 0.008261 -0.019033 -0.068631 0.004456 0.008952 -0.003468 -0.013610 0.011270 -0.030247 -0.029908 -0.000447 0.016081 -0.014836 -0.012091 -0.019416 -0.039090 -0.024084 0.016033 0.008120 0.023332 -0.004461 0.019540 -0.022234 -0.014071 0.045503 -0.009522 0.011440 -0.032040 0.065120 -0.033581 0.009465 0.021332 -0.016006 -0.005486 -0.002024 -0.002705 0.000381 -0.015209 0.040933 -0.028179 0.012314 0.032428 -0.037766 -0.018719 0.025628 0.003482 -0.000580 -0.002759 0.013824 0.005535 0.004570 0.008990 0.009143 0.026813 0.026533 -0.020247 -0.030094 -0.032472 -0.024098 0.090062 -0.027145 -0.012840 0.027529 -0.063175 0.017533 -0.008951 -0.007051 -0.002420 -0.002962 -0.003928 -0.020965 0.043054 -0.032690 -0.005659 0.017925 -0.032259 -0.012856 0.021536 -0.038209 -0.043903 0.013648 0.006563 -0.000627 0.025895 0.022585 -0.018574 -0.020578 -0.031489 -0.007590 0.011408 0.003653 -0.006354 0.017891 -0.004746 0.027523 -0.016241 0.002543 0.015956 -0.008000 -0.051003 0.037079 -0.055855 -0.006333 0.006119 0.000442 -0.007688 0.032244 -0.015351 0.019997 0.011234 -0.007512 0.053213 -0.018375 -0.001666 -0.030210 -0.025166 0.057742 0.003568 -0.070379 -0.011447 -0.024164 -0.012809 -0.022581 0.003006 0.038695 -0.015719 -0.009107 -0.035797 -0.065107 -0.009189 0.005562 0.024999 -0.007867 0.011032 0.041979 -0.001012 0.000800 0.000662 -0.036547 0.016395 -0.013405 -0.051317 -0.023657 -0.059219 0.026059 -0.020998 0.061914 -0.008400 0.042713 -0.019207 -0.027553 0.028008 -0.021774 0.021428 0.001851 0.030563 -0.001369 -0.040194 -0.050034 -0.017862 -0.036423 -0.008417 -0.038216 -0.004930 0.004310 -0.006365 0.008428 -0.015696 -0.031269 0.013897 0.004836 0.010244 -0.004765 0.003888 0.022186 0.023910 0.026046 0.001707 0.039714 -0.005115 -0.011144 0.038208 0.000249 0.047499 -0.014469 0.015426 -0.046698 -0.034832 -0.048248 -0.011414 0.065176 -0.011141 0.007163 0.009766 -0.042558 -0.006049 0.024555 0.023853 -0.012167 -0.038603 0.037095 0.011856 0.007820 0.009673 -0.060483 -0.019516 -0.017649 0.057753 -0.017490 0.014062 0.030558 0.037962 0.031251 0.022883 0.000822 0.007841 -0.010793 0.010736 0.020522 0.032326 0.004432 0.067278 -0.015862 -0.000603 -0.033441 0.021948 -0.014012 -0.032793 0.080448 0.030737 -0.002157 -0.063957 0.020125 0.030492 -0.038749 -0.004129 0.009701 0.012716 0.018858 0.007218 0.000997 -0.024993 -0.000147 0.026560 0.057962 -0.016652 -0.017753 -0.000174 -0.019516 0.000216 -0.037966 0.013343 -0.008338 0.013923 -0.017103 0.011909 -0.017828 -0.005521 0.029844 0.021478 -0.031719 0.034008 -0.029917 0.018876 -0.024009 -0.007575 0.049916 0.014042 -0.009159 0.023104 -0.034765 0.011459 -0.028509 0.023049 -0.011486 0.010910 -0.011610 0.013490 -0.017685 -0.000240 -0.021838 -0.010129
8 -0.010857 -0.015629 -0.013385 -0.008497 -0.039182 -0.003339 -0.033617 -0.003521 -0.005893 0.008833 0.014396 0.032317 0.013093 0.010969 -0.001256 -0.015142 0.008981 -0.006985 -0.029893 0.030472 0.051831 -0.003079 -0.000765 -0.027201 -0.008810 0.005680 -0.001776 0.028498 -0.019443 0.050800 0.046165 -0.014608 0.016882 0.019172 -0.006559 -0.027876 -0.039894 0.000216 0.027107 0.003035 -0.003103 0.018039 0.039539 0.038597 0.002067 -0.003878 0.007404 0.031647 0.017282 -0.000162 -0.021816 -0.010012 0.025774 -0.014906 -0.031653 0.009054 0.018442 0.043543 -0.020604 -0.010048 -0.055832 -0.023633 0.016417 -0.011727 -0.014808 -0.019248 0.043473 -0.030811 -0.003049 -0.012717 -0.030338 -0.046504 0.058211 -0.026585 -0.009865 0.031083 -0.011877 0.007082 0.017255 0.025766 0.000363 -0.014654 0.004857 -0.022397 0.009735 0.036870 0.031575 -0.023792 0.013391 -0.026056 -0.069161 -0.076265 -0.002374 -0.024865 0.005920 0.012283 0.044633 -0.025776 -0.043327 -0.002361 0.022759 0.027517 0.027341 0.041100 0.002097 0.008444 0.028884 0.008873 0.035766 -0.010217 -0.009756 0.049648 -0.021567 -0.007570 0.002014 -0.056787 0.013862 -0.003205 -0.006375 -0.000529 0.008074 -0.014393 -0.015002 0.056316 -0.016038 0.033550 -0.029136 -0.015044 0.006464 -0.025846 0.015520 -0.034912 -0.024589 0.015004 0.004430 0.023626 -0.017121 -0.002665 0.003537 -0.001530 0.028672 -0.042357 0.016946 0.039491 -0.027619 -0.000286 -0.016956 0.027171 0.014789 0.021555 0.030912 0.015914 -0.004283 0.042313 0.029804 0.019615 -0.026530 -0.019037 -0.010739 -0.037443 -0.024832 0.008778 0.020957 -0.005796 -0.008575 -0.018897 -0.008754 -0.005139 -0.016022 0.018241 0.023485 -0.013660 -0.007309 -0.010095 -0.066159 -0.019874 0.012496 -0.040723 0.030628 0.009328 -0.006346 -0.009658 0.029873 -0.012563 -0.022280 0.032045 0.023800 0.016880 0.032958 0.025713 0.010659 0.011217 0.016221 0.010257 -0.023711 -0.033432 0.052359 -0.034387 -0.017952 -0.022014 0.037410 0.031658 0.038817 -0.008232 0.031463 0.034929 -0.015851 -0.030120 0.022637 -0.032641 0.016109 -0.002940 0.019965 0.073891 -0.013354 -0.029099 -0.016856 -0.060659 0.031149 -0.005765 -0.037733 0.007952 0.010550 -0.005881 -0.009227 0.021935 0.018661 -0.012751 -0.020581 -0.012792 -0.066972 0.005000 0.007639 0.038630 0.003962 0.017831 0.042703 -0.022974 0.009140 -0.056913 0.013868 0.002181 0.018480 -0.024304 -0.006956 -0.059329 0.016430 -0.012133 0.011723 -0.018644 0.023293 -0.018378 -0.001758 -0.026013 0.026741 -0.001386 0.016294 -0.051893 -0.071047 -0.031367 -0.028821 -0.028284 0.003012 -0.017491 -0.010580 -0.033038 0.015909 -0.020919 0.022853 0.009141 -0.001803 -0.000552 -0.004422 0.020215 -0.014454 0.026591 -0.010442 0.016418 0.002808 -0.003088 0.017327 0.001787 -0.027988 -0.000644 -0.014149 0.063316 -0.036013 0.017238 0.008098 -0.018071 0.001133 0.023409 0.012415 0.035562 0.011383 0.029708 -0.032115 0.003510 -0.025119 -0.018468 -0.024946 0.002556 0.006582 0.010754 -0.041723 0.049829 -0.006269 -0.000921 -0.003261 0.032296 0.009408 0.006572 -0.024598 -0.008679 0.034759 0.019737 0.050870 0.007361 -0.013403 -0.001186 0.018431 0.013484 -0.025133 -0.002568 0.028450 -0.010024 -0.056614 0.041649 -0.026451 -0.016120 0.047407 -0.006312 0.025904 0.027370 -0.013796 0.028480 -0.047138 -0.032023 -0.031415 -0.015477 0.009994 -0.012505 0.030036 -0.063656 0.036359 0.023847 0.065361 -0.031030 -0.010657 0.007255 -0.027041 0.045033 -0.050727 0.008162 -0.005633 0.002056 0.011374 0.035152 0.006793 0.037163 -0.020899 -0.002576 -0.046026 0.017105 -0.028219 -0.005817 -0.017996 0.030291 0.027389 0.025089 -0.024810 0.011506 -0.038213 0.010043 -0.046483 0.020970 0.014048 -0.013232 -0.036986 -0.034193 -0.011818 -0.024643 -0.014782 -0.042034
9 -0.016716 -0.031259 -0.017806 -0.042300 -0.025974 -0.029137 0.020524 -0.041636 -0.009276 0.023903 0.003233 -0.064699 0.058448 0.002662 0.010820 0.022305 -0.047759 0.027042 -0.004747 0.037701 -0.025886 0.042545 0.009575 0.009225 0.004755 0.016020 0.040673 0.061195 -0.011863 -0.031163 -0.006101 -0.013948 -0.005849 -0.006564 0.017285 0.023685 -0.014856 0.023607 0.031491 0.018041 -0.024338 -0.021063 -0.011085 0.029143 0.016918 -0.026930 -0.048347 0.014597 0.026623 -0.037409 -0.022425 -0.066099 0.019126 -0.025874 -0.076887 0.011764 -0.023071 -0.005804 -0.004439 0.034576 -0.078016 -0.014786 0.010414 0.015787 -0.011770 0.021587 0.047424 -0.022756 -0.002084 -0.003720 0.010232 0.001729 0.068985 -0.004409 -0.020989 0.034180 -0.007539 -0.005158 -0.024919 -0.022807 0.043766 0.029324 0.003295 -0.011779 -0.011311 -0.034175 0.014561 0.011526 0.034874 -0.042949 -0.031600 -0.055781 0.018991 0.006796 0.008052 0.008222 0.031910 -0.042342 0.016280 -0.003214 0.047224 0.061986 0.072337 0.010189 0.006046 0.002330 -0.038252 0.019673 -0.006706 -0.012897 -0.006532 0.029767 -0.012797 0.008440 0.026890 -0.003344 -0.016169 -0.015214 0.054135 -0.018280 -0.024656 0.026939 0.000208 -0.025006 -0.025010 0.045794 0.006004 0.011219 -0.017150 0.028156 0.020223 0.002630 0.002038 -0.002075 -0.003048 -0.003177 0.017168 -0.003051 0.001168 0.045068 0.041636 -0.034904 -0.009682 0.010427 0.004183 -0.049468 -0.026550 0.046850 0.007223 0.011062 0.051892 -0.009891 -0.033498 0.008347 -0.012234 -0.008797 0.020815 0.016335 0.016103 -0.015794 -0.017852 -0.012963 -0.023032 0.021579 -0.031613 -0.007248 -0.023899 -0.014546 -0.011118 0.022322 -0.005277 0.023430 0.023246 -0.011829 -0.032358 0.000928 0.090879 -0.038273 0.020390 -0.013671 0.020470 0.018643 0.040415 -0.003116 -0.003072 0.013227 0.043583 0.019434 -0.003366 -0.032904 -0.004034 0.027891 0.020550 -0.003126 0.014600 0.013060 0.028964 -0.074614 -0.018787 0.013789 0.036389 0.034156 0.001399 0.010565 0.008865 0.005034 0.000060 -0.022907 0.029143 -0.021248 0.010840 -0.000616 -0.054699 0.011588 -0.021759 -0.048645 -0.005535 -0.040060 0.008209 0.012610 -0.016245 0.027055 0.015885 -0.004758 -0.004820 -0.013450 -0.011201 -0.028763 -0.024686 -0.001022 0.001724 0.035805 -0.025286 0.010465 -0.030438 -0.032741 0.009529 0.003529 -0.011796 -0.037412 0.005543 0.016435 0.036262 -0.016462 -0.025670 -0.024301 -0.035962 0.006619 -0.028246 -0.022400 0.023150 -0.029266 -0.034676 -0.034123 -0.023219 0.027878 0.020553 -0.060200 -0.030044 -0.013423 -0.015957 -0.033723 -0.030892 -0.057894 0.025253 -0.004921 -0.014683 0.003540 0.030791 0.000108 -0.016677 0.010490 0.010073 0.002586 0.024021 0.058961 0.059197 0.000140 0.026901 -0.007668 0.018591 0.038737 -0.005701 0.033223 -0.010788 0.020175 -0.009658 0.024466 0.045305 -0.036722 -0.009427 0.043883 -0.005621 0.008137 0.025082 0.027472 -0.019071 0.022936 -0.006758 -0.000823 0.005078 -0.006452 -0.010027 0.003213 -0.022862 0.070309 0.013591 0.025116 -0.006422 0.009190 0.006430 0.026045 -0.037248 -0.016349 0.028862 0.002611 0.036201 -0.010896 -0.005497 0.020245 -0.015941 0.043868 -0.003290 -0.007006 -0.000886 -0.017285 0.018238 -0.003011 -0.002980 -0.006264 0.029487 0.057001 0.004472 -0.027013 0.006175 0.015269 -0.029401 -0.040574 -0.013834 0.025238 -0.022583 0.023867 -0.025107 -0.030189 -0.051313 0.024975 0.057547 0.000053 -0.008943 0.033911 -0.009753 0.008584 -0.030891 -0.001510 -0.014144 0.029502 0.013266 -0.049069 -0.035824 -0.012173 0.043042 0.031544 -0.028062 -0.011533 -0.008614 -0.013453 -0.058797 0.038008 -0.003915 0.017059 0.034550 -0.030658 0.015996 -0.003591 -0.063859 0.009670 -0.013867 -0.032246 0.026750 0.013548 -0.009366 -0.023088 -0.005935 0.001783
10 0.078624 0.018240 -0.035666 -0.017172 -0.009445 -0.014001 -0.025203 0.034217 -0.015032 -0.017398 -0.000628 -0.051403 0.024315 -0.001164 -0.019902 0.049150 -0.054744 -0.014034 -0.000539 0.030288 -0.027254 0.016384 -0.036883 0.010133 0.002628 0.011214 0.045307 0.071092 -0.048361 0.012718 -0.013643 0.018584 -0.015206 -0.015124 0.051270 -0.002228 -0.017998 -0.023128 -0.029073 0.017927 -0.003864 0.011472 0.005429 0.027200 -0.028023 0.002736 -0.063527 0.009974 0.013209 -0.018051 0.008991 -0.037533 0.012427 -0.032471 -0.063602 0.018120 -0.025980 0.017624 0.026156 0.024485 -0.053720 0.011543 -0.015871 -0.006118 0.015524 -0.027167 0.042988 0.019325 -0.006319 -0.020614 -0.007217 0.014211 0.036548 -0.000485 -0.025304 0.030430 -0.029632 0.033646 -0.007407 0.005911 0.008611 0.011776 0.031283 -0.053180 -0.039599 -0.015317 -0.007227 0.007678 0.017802 -0.036809 -0.018042 -0.063094 0.025739 0.015616 0.015752 0.034747 -0.028003 -0.026850 0.005806 0.005122 0.010228 0.023665 -0.007701 0.010705 0.013754 -0.022121 0.002234 -0.001032 -0.008565 0.018228 0.010860 0.004014 0.004545 -0.022049 -0.013748 0.059134 -0.024716 -0.011608 0.031151 -0.051703 -0.032977 0.004090 -0.007610 -0.068016 0.020403 0.019001 -0.000205 0.015997 0.022826 0.016456 0.041609 -0.034844 0.010085 0.042732 -0.034644 0.061697 0.032191 -0.013453 0.031478 0.023816 0.020844 0.004384 0.058333 0.001978 0.018486 -0.058342 -0.035431 0.037477 0.006863 -0.027828 0.038062 -0.001300 0.003282 0.027645 -0.019964 0.011632 0.027133 0.010079 -0.006401 0.002311 -0.028023 -0.018136 -0.018875 0.022941 -0.032237 0.028251 -0.004656 0.052165 0.032948 0.005393 -0.023576 0.024277 -0.018777 0.000394 -0.029269 0.010588 0.018521 -0.000042 -0.032581 -0.025504 -0.014823 -0.043215 -0.047591 -0.062238 -0.017936 0.009881 0.015994 -0.014024 0.006858 -0.007090 0.069053 0.027685 0.009824 -0.000214 0.041558 0.053974 0.027188 -0.010823 0.012711 -0.019602 0.008615 0.038564 -0.006605 -0.032634 -0.026624 0.007669 -0.000418 -0.009137 0.009117 -0.025286 0.024346 -0.026678 -0.003565 -0.034014 0.021195 0.003173 -0.030149 -0.035666 0.046366 0.017776 -0.001759 0.020600 0.018046 -0.017505 0.024138 -0.023267 -0.002321 0.003704 -0.019422 -0.028763 -0.026149 0.013427 -0.020427 -0.014883 -0.006827 0.033400 -0.043429 0.017601 0.014617 0.019792 -0.025926 0.007941 -0.005757 -0.060438 -0.003519 -0.000507 -0.039717 -0.017082 -0.004776 -0.003359 0.056359 -0.048405 -0.041903 -0.041520 0.020977 0.023135 -0.004023 -0.022892 0.007070 -0.048279 -0.007614 0.011834 0.011314 -0.000527 0.033431 -0.019168 0.012089 0.016682 0.045241 -0.005601 0.027740 -0.047733 -0.008537 -0.029723 0.029230 0.031771 -0.011881 -0.040904 0.012866 -0.033803 0.008887 0.005203 -0.018026 0.015742 0.052130 0.007242 -0.038295 -0.004967 0.027764 -0.063446 0.020358 -0.007806 -0.008216 -0.034966 -0.035168 0.051536 0.027640 0.042140 0.024682 0.025752 0.008602 -0.031823 -0.014370 -0.007511 -0.000165 0.030551 0.014304 0.016291 0.036111 0.010733 -0.044110 -0.015047 -0.051013 -0.020556 0.012396 -0.011436 0.007359 0.003806 0.014858 -0.000661 0.038111 0.037814 -0.015832 -0.006306 -0.032159 0.033572 -0.024328 -0.000915 -0.020574 -0.033625 0.010269 -0.007369 0.011623 -0.005420 -0.001588 0.016023 -0.007211 -0.021263 -0.008244 0.016538 -0.004582 -0.007536 0.052083 -0.031686 0.006386 0.060530 -0.006111 0.005444 -0.011076 -0.011967 -0.005390 -0.021225 -0.010606 -0.001778 -0.021641 0.042797 0.041842 -0.019034 -0.033592 0.006585 -0.043874 0.001926 -0.002836 -0.051360 0.042768 -0.006052 -0.053144 -0.023284 0.037114 0.007167 -0.024788 -0.008799 0.019851 -0.013175 0.042499 -0.019515 -0.025225 0.003242 0.019006 -0.028359 0.030066 -0.029642 -0.019248 0.005324
11 0.048164 -0.001365 -0.031676 0.014830 0.040274 0.062045 -0.011857 0.015425 -0.026490 -0.014487 -0.038689 -0.016399 -0.049720 0.000173 0.020662 0.032170 -0.039198 0.002376 -0.002132 0.019418 0.020203 0.043045 -0.029047 0.018277 -0.024444 0.044413 0.011719 0.065966 -0.017198 -0.004284 -0.010302 0.025749 0.007492 -0.032495 0.031755 -0.051486 0.009292 0.011762 -0.001450 0.038026 0.026781 0.016816 0.001767 0.027129 0.017811 -0.021236 -0.035627 0.002819 -0.026731 0.031134 -0.019423 0.023484 0.031859 0.000554 -0.098048 -0.005534 0.018968 -0.022689 -0.048179 -0.024578 -0.030841 -0.021824 -0.004990 0.009651 0.009018 0.049027 -0.000596 0.012625 0.036075 -0.003600 -0.026337 0.028838 -0.000311 -0.022655 -0.023107 0.013744 -0.004800 0.027514 -0.045844 -0.001605 0.015060 0.031329 -0.035451 -0.026746 -0.013225 0.011352 -0.001546 0.032509 0.043970 -0.039705 0.004937 0.000196 0.008493 0.015233 0.003231 0.004515 0.007191 -0.034846 -0.032532 0.020716 -0.022533 -0.008598 -0.001833 0.001384 0.013771 0.010073 -0.009225 0.007278 -0.045499 0.034810 -0.014483 -0.019357 0.010589 -0.008756 0.002189 0.019492 0.012758 0.004640 0.028827 -0.039287 0.018779 -0.027256 -0.008060 -0.048005 -0.022796 0.063700 -0.039956 -0.014044 -0.010299 0.028187 0.026262 -0.019321 0.012447 0.017780 -0.014645 -0.008260 -0.026828 0.006583 0.012700 0.036005 0.004002 -0.012219 0.016643 0.013622 0.031483 -0.044010 0.015184 -0.003442 -0.020822 -0.040399 0.003922 0.001221 -0.011660 0.045302 -0.011378 0.042826 0.006306 0.015983 0.016507 -0.034259 -0.026507 -0.022543 0.008756 0.000301 0.008511 -0.003846 -0.000996 0.041220 0.011033 -0.003727 -0.017809 -0.039375 0.027413 -0.009724 0.007039 0.042781 0.019933 -0.004025 -0.019666 0.003064 0.039389 0.011667 -0.061520 0.008595 -0.031677 0.048214 0.029348 0.037043 0.012449 0.043406 0.088183 0.032516 -0.002265 -0.014351 0.087997 0.008573 0.008000 -0.017183 0.037454 -0.001571 0.032559 0.002371 -0.003103 0.016026 0.005998 0.035214 0.043422 0.000071 -0.004296 0.012684 -0.047517 -0.026530 -0.041578 -0.011418 0.022452 0.019674 -0.026138 0.026363 0.015767 -0.022917 0.026329 -0.008283 0.012508 0.046295 0.005187 0.043210 0.044101 0.029824 -0.039073 -0.037169 -0.006938 0.010942 -0.034510 -0.024839 0.012631 -0.029078 0.022895 0.001825 -0.005900 0.024752 -0.013724 0.039248 0.011167 -0.064001 0.022842 -0.006965 0.016643 -0.001979 0.028740 -0.008385 0.004442 -0.045909 -0.024116 -0.005843 0.028414 0.007913 0.036824 -0.083918 0.000524 0.047767 -0.035985 0.043728 0.018019 0.032206 0.011393 -0.009488 -0.003757 -0.032677 -0.032783 -0.018533 -0.023222 -0.031555 0.000349 0.018265 -0.010587 -0.036123 -0.005156 -0.055169 -0.004099 0.014347 0.022061 -0.004419 -0.014140 -0.018673 -0.020919 -0.001854 0.056545 0.002142 -0.008754 -0.096132 0.042892 -0.003351 0.012850 -0.045938 -0.014505 0.021264 -0.028079 0.035898 0.002568 0.040172 0.027962 -0.008946 -0.009578 0.021249 -0.033981 0.017393 -0.020899 0.071375 0.019417 0.084274 -0.005070 0.010107 -0.000781 -0.024929 -0.001294 0.014948 -0.013006 0.016807 0.062077 -0.017307 -0.015241 0.001742 0.026347 0.007002 -0.005599 0.007296 0.004443 0.028370 -0.030781 -0.001777 0.008491 0.015897 0.004693 0.022196 0.000369 0.006179 0.000652 -0.025725 -0.015006 0.011517 -0.010633 -0.031139 0.034620 -0.041397 -0.005462 -0.021774 -0.023958 -0.008204 0.005254 0.054479 -0.010721 -0.003912 -0.012902 0.009432 -0.040537 -0.021622 0.004887 -0.017052 0.030321 -0.023928 -0.028582 0.019898 0.006316 -0.030787 0.016689 0.016752 0.032632 -0.028505 0.021443 0.000788 -0.036364 0.021529 -0.004575 -0.005585 0.018779 -0.010691 -0.005187 -0.021538 0.025971 -0.035372 -0.030051 -0.012779 -0.020377 -0.006779
12 0.031290 -0.019219 -0.001687 -0.036922 0.012728 0.006790 0.018415 0.004704 -0.036996 -0.066271 -0.025931 0.019481 -0.000417 0.024646 -0.033345 0.006852 -0.065394 -0.033543 -0.003606 -0.013397 -0.042415 0.021046 -0.021559 -0.035204 0.001976 0.023467 -0.009927 0.008905 -0.037247 -0.002954 -0.006921 -0.001152 -0.012908 -0.001983 0.016161 -0.023446 0.049540 -0.005603 0.007951 0.015789 0.022618 0.021709 0.018623 -0.026268 0.007108 -0.018640 -0.073874 -0.028165 0.005862 0.018980 -0.017582 0.001888 0.036006 -0.019230 -0.046218 0.011411 0.001757 0.001647 0.009474 -0.005563 0.002583 -0.033491 0.035927 0.000523 0.016334 0.024917 -0.031366 -0.011270 0.031906 -0.016088 -0.005979 0.035865 0.008931 -0.017960 -0.017952 0.032431 0.002754 -0.035190 -0.035165 0.014306 0.043068 0.023470 0.051532 -0.007169 -0.043068 0.012872 -0.009565 -0.038274 0.031365 -0.019704 -0.061686 0.016395 0.013763 0.024478 0.016849 -0.005859 0.032045 0.010711 -0.009465 0.025594 -0.030445 -0.011290 0.001117 -0.013801 -0.003186 -0.012831 0.024565 0.025481 -0.022901 0.033072 -0.031663 -0.022507 -0.011669 0.003533 -0.036502 -0.011534 -0.022694 0.028726 0.001184 0.012265 0.014127 -0.025360 0.010430 -0.051059 0.027830 -0.001590 -0.009242 -0.006941 -0.042513 0.025430 -0.007911 -0.000515 0.051302 -0.032791 0.012202 0.030050 -0.051612 0.035055 0.008845 0.012776 -0.005541 -0.009786 0.009563 0.035471 0.030218 -0.023256 0.024755 -0.035667 -0.021542 -0.037002 -0.000221 0.008803 0.002355 -0.029911 -0.064993 0.016894 0.011845 0.008319 -0.017544 -0.004717 -0.071882 -0.018326 0.004001 -0.003435 0.017036 0.022903 0.036270 0.042677 -0.003775 -0.047027 0.007593 -0.013912 0.003943 -0.016246 -0.004825 -0.010058 0.021041 -0.005686 -0.000391 -0.033680 0.014125 -0.021123 -0.029049 0.036029 -0.000442 -0.016324 -0.000778 0.012527 0.022951 0.061475 0.047592 0.023809 -0.012211 0.005308 -0.014465 0.023612 0.031495 0.010758 0.005469 -0.005075 0.001802 0.028122 -0.043361 -0.024846 -0.031615 0.058540 0.003785 -0.017315 -0.003459 -0.014801 0.026470 -0.029664 -0.030568 -0.013944 -0.020493 0.018372 -0.010698 -0.001383 0.033137 0.001150 -0.019689 0.030049 -0.000110 -0.001616 0.015693 0.014593 0.012612 0.030914 0.004255 -0.029220 0.016166 -0.023858 -0.041112 0.041467 0.014632 -0.049289 0.028364 0.013302 0.015224 0.021256 -0.000696 0.032405 -0.004310 -0.005079 -0.021079 0.032390 -0.008164 -0.007302 0.006972 0.024206 0.042467 0.001971 0.000768 -0.008882 -0.042354 -0.053894 0.032166 0.005718 -0.022393 0.011502 -0.021210 -0.031583 -0.040319 -0.055886 -0.014890 -0.036621 -0.001887 -0.038234 0.026451 0.005219 -0.014427 0.016930 0.028523 -0.005546 -0.003787 -0.006407 -0.025456 -0.014190 -0.011209 -0.006975 -0.020455 -0.024149 -0.021619 0.007958 0.001970 -0.013417 0.051766 -0.003866 0.004435 -0.023602 0.055988 0.020143 -0.005970 0.020060 -0.027790 -0.008059 -0.018327 0.065849 0.038564 -0.000750 0.012544 -0.018722 0.049241 -0.000286 0.003697 0.004629 -0.003039 -0.006711 0.018661 0.039268 -0.037210 -0.031408 0.008132 0.019190 -0.019941 0.049611 -0.014027 0.032500 0.024163 -0.009405 -0.014706 0.002426 0.003221 0.034649 -0.031422 -0.027866 0.007764 -0.007959 0.019033 -0.060548 0.029035 0.046826 -0.010575 0.017787 0.035873 0.012893 0.003837 -0.036346 -0.009780 0.031161 -0.004585 -0.009182 0.056257 -0.024558 0.006872 0.027646 0.022306 0.016975 0.018781 0.009337 -0.023521 0.010459 0.026268 0.002535 -0.020890 0.005931 -0.004530 -0.009694 -0.006794 -0.020798 0.033967 0.070400 -0.026447 -0.065525 -0.038756 0.019074 0.020230 -0.032913 0.002867 0.016303 0.029749 0.026080 0.042418 -0.028984 -0.021923 -0.026957 0.002476 -0.085101 0.018358 -0.005170 0.032287 0.012023 -0.004107 0.014688
13 0.053137 0.043409 -0.021611 -0.054684 -0.002409 -0.022067 0.026118 0.012113 -0.030040 -0.002281 0.009166 -0.018744 -0.016530 -0.004220 -0.045323 0.017624 -0.002608 -0.053666 0.016854 0.048039 -0.010082 0.000056 -0.006565 0.045632 0.004218 0.005725 -0.000408 0.005126 0.023711 -0.025428 0.041888 -0.023993 -0.013982 0.008327 0.028326 -0.001100 -0.004731 0.042702 -0.012250 -0.032060 0.019238 0.010221 -0.036534 -0.006117 -0.044284 0.005490 0.019975 -0.016993 0.037382 0.001959 -0.020696 0.033866 -0.007209 0.007354 0.001312 -0.021889 0.007499 -0.012389 -0.024911 -0.013762 -0.077293 -0.033834 0.004708 0.010912 0.029919 0.019098 0.028594 0.030286 0.050385 -0.024589 -0.028740 -0.004813 -0.026574 -0.061165 -0.050621 0.002519 -0.057133 -0.035958 -0.036142 -0.033258 -0.009553 0.033936 0.056100 -0.014065 -0.039073 0.016509 -0.009023 -0.018424 0.010794 -0.046650 -0.073961 0.018778 -0.015967 -0.002386 0.020475 0.015821 0.022500 0.010906 -0.014081 0.051418 -0.015677 0.014120 -0.007293 0.012754 0.024302 -0.007170 0.019875 0.021395 0.013065 0.023309 -0.030738 0.026140 0.037890 0.011516 -0.032862 -0.000757 0.022349 -0.035092 -0.037054 0.018643 0.029384 -0.026245 -0.020255 0.057128 0.024244 0.002586 0.032094 -0.021208 0.000311 0.031967 -0.027889 -0.003062 0.025973 -0.044910 0.014247 -0.030475 0.012257 0.007755 0.013200 0.012227 0.014821 -0.002011 0.010473 0.042157 0.004432 -0.001303 -0.013432 -0.061519 -0.035767 0.021177 -0.042452 0.003596 -0.010635 -0.007636 0.001888 -0.027647 0.061058 -0.011436 0.001600 0.010580 -0.022077 -0.024672 0.003055 0.004763 -0.002830 0.011251 0.020786 0.057922 0.011781 -0.001204 -0.020819 -0.029879 -0.007775 0.002514 -0.001548 0.004315 -0.004852 -0.008414 0.014045 0.038175 -0.002073 -0.006794 -0.058633 0.007737 -0.017016 0.016623 0.012918 0.090555 0.004735 0.002065 0.049360 0.036990 -0.030138 -0.011949 -0.015021 -0.012376 0.023556 -0.048475 -0.011419 0.001971 0.011772 -0.013998 -0.007219 -0.004064 -0.005666 0.036855 0.025465 -0.010166 0.014447 -0.026480 -0.017382 0.005914 -0.027764 -0.013379 0.001474 0.004560 0.041096 0.034884 0.021578 -0.027186 0.031637 0.024785 -0.024081 0.000356 -0.002509 -0.020629 0.027591 0.011239 -0.002816 -0.024421 -0.006566 -0.028899 -0.029541 0.049341 0.042631 0.001646 0.018656 0.032258 -0.009336 0.022327 0.002893 -0.022148 -0.015143 -0.001459 0.000123 0.012434 0.043900 -0.068509 -0.013169 0.006612 0.027019 -0.022262 -0.032768 0.025840 0.016108 -0.031654 -0.014263 -0.009443 -0.017881 0.027281 -0.002279 0.010752 -0.030555 -0.037949 -0.002955 -0.001977 -0.010289 -0.011947 0.072318 -0.002409 0.006860 0.007149 0.033579 0.006727 0.040106 -0.034334 -0.024703 -0.008972 -0.009125 -0.004987 -0.032564 -0.014021 -0.000495 0.003496 -0.001640 -0.018556 0.021603 0.005856 -0.008775 -0.049600 0.027114 -0.015454 0.007126 0.005010 -0.010632 -0.021249 -0.026733 0.008638 0.017194 0.012621 -0.021048 -0.006174 -0.003867 0.005567 -0.003182 -0.058427 -0.021397 -0.054739 -0.027565 0.015323 -0.007940 0.004149 -0.005768 0.011942 -0.030549 -0.014559 -0.018809 -0.011456 0.036760 0.025847 -0.040810 0.011571 0.054358 0.059589 0.000557 -0.016474 -0.007177 -0.012282 0.054254 -0.024946 0.003946 0.027776 -0.013072 -0.026966 0.018096 -0.006202 -0.019476 0.009965 -0.018679 -0.011098 -0.025293 -0.019111 0.001166 -0.034698 0.016638 0.023188 0.018961 0.046789 0.003475 -0.012970 -0.006217 0.027919 0.016239 -0.006401 0.007245 0.017863 -0.009975 0.010895 -0.038094 -0.017229 0.020906 -0.014934 -0.009738 -0.004862 -0.014490 -0.014934 -0.005300 -0.039954 0.012509 0.023751 -0.006422 0.039458 -0.008921 -0.040031 -0.015455 0.036790 -0.022407 -0.044581 0.068336 0.024220 -0.035280 0.070374 0.001161 0.023244
14 0.019399 -0.033072 0.018150 -0.035940 0.006753 -0.004557 -0.016227 -0.044252 -0.007584 0.002996 -0.003297 0.030459 -0.005804 0.005307 -0.037124 -0.010430 0.012102 -0.018424 0.016764 0.023090 -0.009916 0.043015 0.036574 -0.009706 0.013541 -0.013251 -0.004349 -0.046438 -0.038087 -0.031423 0.019303 -0.042182 0.019307 0.018178 0.030399 0.014944 0.042298 -0.001356 -0.023802 -0.058699 0.035221 0.031518 -0.029234 -0.037705 -0.021970 -0.037284 -0.008222 -0.012765 0.014710 -0.002847 -0.026181 -0.030800 0.036723 0.004838 -0.002908 0.028119 0.012423 0.026961 0.037884 0.015712 -0.054247 0.006558 0.029945 0.006617 -0.012477 -0.040316 0.030798 0.017617 0.040490 0.002913 -0.030171 0.015231 0.018910 -0.052063 -0.080628 0.002286 0.017039 -0.062432 -0.020276 0.026335 0.031898 0.032843 -0.011892 -0.016283 -0.077805 -0.007373 -0.039093 -0.012669 0.003192 -0.026804 -0.077424 0.044019 -0.002012 -0.002348 0.005009 0.010143 -0.001031 0.010619 -0.042294 0.048239 -0.039527 0.010367 -0.051920 -0.010027 0.003932 -0.015654 0.027556 0.012509 0.008509 0.003613 -0.048557 -0.017029 0.029733 0.010192 0.005578 -0.005303 -0.014109 -0.008975 0.031932 0.035068 0.006317 -0.027021 -0.027916 0.036395 -0.019131 0.017448 0.028383 -0.026936 0.050578 -0.003812 -0.031512 0.017447 0.027749 -0.025466 0.025452 -0.008281 -0.033708 0.059119 -0.012562 -0.013649 0.018602 0.007617 -0.013472 0.025917 0.004974 -0.001806 -0.003298 -0.029590 0.003357 -0.027325 -0.003217 0.009362 0.038898 -0.008720 0.006574 0.000315 -0.002534 -0.008731 -0.024055 0.033650 0.001400 -0.018609 -0.000242 -0.031849 0.010593 0.015519 0.017707 0.043919 0.016878 -0.002805 -0.020092 0.040647 0.010238 -0.000578 0.020128 -0.042381 0.008736 0.007273 -0.000730 0.076510 -0.010061 -0.022895 -0.012046 0.007327 -0.001523 -0.037531 -0.001085 -0.022183 0.017403 -0.009864 0.062511 0.011341 0.014998 -0.003656 0.024583 0.019088 0.042817 -0.000095 -0.009256 -0.023062 0.025873 -0.007111 0.011713 0.027523 -0.016363 0.034494 0.000809 0.008165 0.010291 -0.009443 -0.003684 0.018275 0.040230 0.007648 -0.035965 -0.008489 0.029087 0.008894 -0.003297 -0.009903 0.032139 -0.029205 -0.000589 0.006840 -0.030800 -0.029392 0.035693 -0.052366 -0.024474 0.015914 -0.038245 -0.026000 0.002247 0.008139 -0.013691 0.030910 -0.012912 -0.003094 -0.020586 -0.012212 -0.004088 0.016688 -0.010967 -0.001403 0.017816 0.015070 -0.000355 -0.017151 0.013095 0.022113 -0.011319 -0.010473 0.018690 0.026336 0.018686 -0.027847 0.021902 0.009335 -0.010578 0.007046 0.009712 -0.041537 -0.014301 -0.015453 -0.002396 -0.010910 0.013013 -0.013706 0.054465 0.056455 0.016759 0.018432 -0.001160 -0.020705 0.027172 -0.008312 -0.015733 -0.017655 -0.022978 -0.009350 -0.000314 0.011966 -0.007935 -0.008583 -0.013952 0.004424 -0.031580 0.013467 0.023754 -0.022420 0.018956 0.006196 -0.026307 -0.016779 0.016029 0.014341 -0.026993 -0.042049 0.012489 0.004179 0.029218 0.012048 -0.018525 0.020214 0.063595 -0.018963 0.008191 0.008079 -0.003403 0.000798 -0.038469 0.004210 0.000261 -0.025367 -0.000777 -0.022928 0.014198 0.012798 0.036459 0.012373 0.009708 -0.003092 0.034474 0.043248 -0.000555 -0.020847 0.026394 -0.047720 -0.019500 0.003015 0.070472 0.004311 0.011437 -0.058097 -0.008327 -0.010719 -0.036038 -0.008441 0.030982 -0.022454 0.038407 -0.003721 0.037825 0.001760 -0.037672 0.043165 0.048049 0.028380 0.016549 -0.012963 0.053052 0.040162 -0.006390 0.038177 -0.011067 -0.010681 -0.001896 -0.020030 0.000467 -0.014272 0.022338 0.031088 -0.022327 0.015803 0.011487 0.013402 0.048477 -0.026703 -0.010551 -0.018656 -0.003488 0.050329 -0.027704 0.044767 -0.018732 0.019388 -0.003993 -0.004978 0.010541 -0.022948 0.033354 0.032280 0.045077 -0.015207
15 -0.025309 -0.016467 0.012464 -0.004140 -0.034549 -0.020009 -0.020283 -0.027781 0.033788 0.007493 -0.012463 0.034232 0.077811 0.025939 -0.018597 -0.018087 0.034748 -0.008870 0.011321 0.028405 0.016413 -0.011509 0.033491 0.018626 -0.004268 0.000252 -0.040514 -0.019251 -0.035856 -0.023472 0.013370 -0.007429 -0.022256 -0.018743 0.017927 -0.013436 0.006345 0.020456 -0.011378 -0.024884 0.012870 0.018169 -0.009480 -0.005744 -0.015106 -0.009677 -0.006530 0.003803 0.027359 -0.000186 -0.028039 -0.001551 0.009167 0.001856 0.023881 -0.023809 0.028479 0.007242 -0.003959 0.023627 -0.052086 -0.018835 0.005098 0.028445 0.045356 -0.016179 0.018008 -0.021021 -0.003842 0.005898 -0.016167 0.014744 -0.019453 -0.000053 -0.052243 -0.007460 0.012656 -0.006986 0.007607 0.012855 -0.030783 0.010938 -0.015436 -0.010286 -0.018500 -0.028380 0.014261 0.026736 0.005824 0.002639 -0.046817 0.013429 0.011868 -0.015362 0.005533 -0.008829 -0.024300 0.020321 0.001929 0.023143 -0.000796 -0.010941 -0.040780 0.000631 0.021823 0.023197 -0.032433 -0.004003 0.015584 -0.066437 0.029001 0.001336 -0.029003 0.011491 0.015539 0.022514 -0.042316 -0.025076 -0.004701 0.004429 0.044836 -0.049317 -0.021108 -0.011609 0.003893 0.012611 -0.013212 -0.037290 0.011149 0.019617 -0.057056 0.048811 -0.016957 -0.019584 -0.013212 -0.036376 0.007751 0.045248 0.002936 -0.019533 -0.017305 -0.028137 0.045457 0.063265 0.019850 -0.017470 -0.008413 -0.014383 -0.053253 -0.025639 0.028950 0.005764 0.028171 -0.003531 -0.023076 0.023979 0.020168 -0.017543 -0.000569 0.037216 0.016523 0.029278 0.002408 -0.034938 -0.023170 0.002098 0.010421 -0.002909 0.053302 0.005242 0.053438 0.028478 0.008712 0.034183 -0.037591 -0.052357 -0.007095 0.018330 -0.032304 0.033424 0.008172 -0.018793 -0.023239 -0.053902 -0.000722 -0.007549 0.011208 0.015139 -0.019002 0.055552 0.031829 0.014604 0.007043 -0.024512 0.019992 0.019741 0.041916 0.013166 0.022323 -0.019764 0.028810 -0.005210 -0.032674 0.003058 -0.026037 0.010128 0.006773 -0.030585 0.047560 0.007169 0.013548 0.003123 -0.015479 0.042302 -0.021498 -0.012664 0.027580 0.012715 0.012380 0.006215 0.050181 -0.031796 0.028290 0.002724 -0.060045 0.017573 0.011290 -0.002053 -0.035678 0.042235 -0.053581 0.001864 0.012051 0.011080 -0.005473 -0.004193 -0.013256 0.019086 -0.009460 0.017205 -0.025540 -0.028963 -0.006650 -0.033894 -0.049609 0.001847 0.014307 -0.048921 -0.011182 0.008724 -0.024864 0.019683 0.035183 -0.022797 -0.002088 0.020599 0.007143 -0.042783 0.025005 0.007974 0.012378 0.011391 -0.029438 0.015609 -0.019064 0.021330 -0.003281 -0.016752 -0.034075 -0.015092 0.012224 0.007005 0.047975 -0.047888 0.035780 -0.006588 0.002663 0.042730 -0.017841 -0.022355 -0.025314 0.000436 -0.008170 0.002447 -0.048263 0.011472 -0.005655 -0.010766 0.043175 -0.006703 0.026511 -0.022082 0.037000 0.001764 0.015069 -0.014416 0.010010 -0.035592 -0.013094 0.015170 0.004016 -0.009266 0.001156 -0.016176 -0.021038 -0.015098 0.011531 -0.030929 -0.018396 0.018246 -0.009390 0.007639 -0.026579 -0.042470 -0.022191 -0.010896 0.003900 0.017004 -0.000609 0.001754 0.018405 -0.040929 0.066208 0.004006 0.015800 -0.016985 0.000047 -0.025174 -0.045950 0.000595 0.016889 0.033618 -0.001312 -0.050647 0.029366 -0.001571 -0.002610 0.015540 -0.002939 -0.001498 0.015068 0.024059 0.003198 0.013903 -0.013941 -0.010349 0.031265 0.007985 0.058130 -0.042973 -0.000564 0.008664 0.015643 0.033251 0.020549 -0.017231 -0.029326 0.009445 0.004789 -0.004492 0.005871 0.056070 -0.008174 0.021329 0.032445 -0.012679 -0.020076 0.016953 -0.016686 -0.045918 0.009910 0.041819 -0.032772 -0.013294 -0.031009 0.052075 -0.016375 0.043853 0.043125 0.014084 0.048200 0.027665 -0.003178 0.002964
16 0.046272 -0.027061 0.009123 -0.012351 -0.001381 -0.004148 -0.003002 -0.045278 -0.029862 -0.038932 0.017284 0.015437 0.001555 -0.008550 -0.006271 -0.016158 -0.026489 -0.003663 0.014020 0.013737 -0.040262 -0.041005 0.014663 -0.023762 0.008126 0.041324 -0.057146 0.051045 -0.025149 -0.030101 0.013237 0.026713 -0.045342 -0.031725 -0.016048 0.009542 0.010691 -0.011844 -0.018614 -0.019673 0.008093 0.027923 -0.005272 0.009032 0.038049 0.008601 -0.001041 0.023488 0.023296 0.049073 0.009066 0.005253 -0.025034 0.019662 0.003848 -0.002331 0.023150 -0.037383 0.021011 0.010798 -0.064868 0.009583 -0.020720 0.017359 0.016226 -0.026350 -0.012939 -0.026277 -0.015489 -0.025962 -0.006118 -0.028269 -0.005732 0.034928 -0.067849 -0.011297 0.035558 -0.009247 -0.005931 -0.006755 0.033493 -0.010059 0.021288 0.009257 -0.004207 0.018156 0.023800 0.057672 -0.003429 -0.035134 -0.018645 -0.025367 -0.050390 -0.013579 -0.040373 -0.015966 -0.037763 0.039313 -0.016361 0.007140 0.017234 0.006273 -0.002158 0.009686 0.013782 -0.005727 -0.035248 -0.007780 0.018411 -0.014016 0.028904 -0.021978 -0.006356 -0.001992 -0.004888 0.030152 -0.042895 0.001418 0.026292 -0.003264 0.015805 -0.020006 0.026988 -0.016515 -0.008405 0.031305 0.013520 -0.048227 -0.008168 -0.048743 -0.035787 -0.004806 -0.028943 -0.016431 -0.014097 -0.049299 0.014429 0.013376 0.015730 0.000565 -0.004235 -0.047359 0.026792 0.047493 -0.010557 -0.012293 0.036449 -0.032283 -0.017191 -0.024516 0.046717 0.012057 -0.017058 0.017697 0.008370 0.037390 -0.014666 0.050870 -0.023087 0.047640 0.057677 -0.005884 0.030223 -0.038777 -0.007876 0.004686 0.031382 -0.035547 0.006061 0.004531 0.011909 0.052516 0.020626 -0.015504 0.004021 -0.046315 -0.010224 0.012542 0.000636 0.019087 0.017005 -0.017379 -0.050846 -0.014793 0.024773 -0.025305 0.020366 -0.002649 0.003949 0.025067 0.018100 0.024127 -0.007456 -0.038076 0.008669 0.003407 -0.013941 -0.002766 -0.004904 -0.006463 0.020840 0.029528 0.012700 0.020867 0.000674 -0.073201 0.041107 0.003356 0.002893 0.008543 0.031655 -0.027763 0.005817 0.006923 0.015861 -0.027496 -0.011432 0.025526 -0.035384 0.021885 0.024528 -0.028137 -0.048774 0.031544 0.013544 0.029651 -0.003621 0.024230 0.019292 0.023359 -0.012157 -0.002962 0.001521 -0.014169 -0.014566 -0.000582 -0.019247 0.007997 -0.001017 -0.018598 0.014695 -0.023460 0.003446 -0.003114 -0.024469 0.006293 -0.050362 -0.013492 -0.033516 -0.030717 -0.044622 0.022442 0.004843 -0.005344 0.023675 0.003843 0.021674 -0.015990 -0.032548 0.001370 0.005191 -0.021059 -0.005664 0.031675 0.012657 -0.001914 -0.007330 -0.025003 -0.006592 0.017108 -0.007678 0.004472 0.031142 -0.009582 -0.028226 0.033426 0.025334 -0.016710 -0.008203 -0.011912 0.002127 0.017167 0.014844 0.016701 -0.032925 0.030003 -0.026421 -0.014485 0.031810 -0.078533 0.044929 0.022162 0.018722 -0.006264 -0.038496 -0.020442 0.005033 -0.038132 -0.029909 -0.013106 -0.001585 -0.021096 -0.025635 -0.022054 -0.005745 -0.017659 0.040348 -0.058182 -0.056728 0.001043 0.010813 0.025577 -0.055961 -0.006740 -0.003378 -0.047611 0.024368 -0.022520 -0.036638 -0.041091 0.005481 -0.028779 0.027625 0.049758 0.009448 -0.022576 -0.003727 -0.028146 0.003662 0.031492 -0.001501 -0.000204 -0.001340 -0.002761 -0.025987 0.008369 -0.017858 0.020427 0.016706 0.014435 0.031686 0.007366 0.037253 0.005202 0.004693 -0.013576 -0.037402 0.036863 0.007402 -0.013350 -0.003388 0.049595 0.047864 0.007663 -0.002976 0.010020 -0.014725 0.032655 0.000142 -0.030102 0.014230 0.009939 0.005255 0.024005 -0.004904 0.012730 0.037939 0.004492 -0.023790 -0.035279 -0.012861 0.038150 -0.031985 0.014860 -0.013855 0.037972 -0.043757 0.017005 0.037049 -0.014929 0.020381 -0.012433 -0.007433 -0.081252
17 -0.000878 -0.034312 -0.017302 -0.002905 0.003347 0.020778 0.013685 -0.042842 0.014525 -0.042630 0.041451 0.026714 -0.005835 0.019486 0.043647 -0.022187 0.000751 -0.027850 0.014973 -0.012269 -0.026347 0.031874 0.002533 -0.023385 -0.023334 0.016774 -0.029982 0.036485 0.028100 -0.030741 0.013502 0.032196 -0.018658 -0.014805 -0.017061 0.032916 -0.014793 0.009905 0.014045 0.018740 0.042035 -0.005569 -0.025228 -0.018671 0.042301 -0.012562 -0.031575 0.030667 -0.012994 0.049694 -0.005572 -0.015181 0.019937 0.051648 0.036028 -0.017254 0.031351 0.030277 0.061445 -0.028544 -0.078048 0.037615 -0.027309 -0.004333 -0.002325 0.012706 -0.009107 0.024762 0.018581 -0.005321 0.030560 -0.001050 -0.015048 0.001463 -0.022984 -0.032413 0.024305 -0.016634 -0.019252 -0.028682 0.016548 0.018663 0.020534 0.012553 -0.043337 0.014155 0.004018 0.018875 -0.016217 -0.019059 -0.002906 -0.058444 0.005326 -0.008857 -0.021616 0.020374 -0.007824 0.009759 0.032589 0.007101 0.000740 0.014636 0.022164 -0.039186 0.039982 0.017012 -0.018858 -0.024863 0.007674 0.052205 -0.002891 -0.014941 -0.013288 -0.037762 -0.020290 0.027925 -0.005891 0.015182 0.034781 0.034844 -0.060656 -0.013801 -0.006158 -0.010551 -0.021563 0.017874 0.022278 -0.041253 -0.010831 0.000685 -0.014652 -0.012229 -0.015972 0.004140 -0.029134 -0.018152 0.017689 -0.008174 -0.013924 -0.006370 0.003475 -0.026476 0.034413 0.033474 -0.031834 -0.045631 -0.029165 -0.035814 0.026949 -0.028197 -0.012388 -0.006954 0.026980 -0.022214 -0.025427 0.022862 -0.003954 0.031295 -0.049829 0.023632 0.049250 -0.006201 -0.023089 -0.020248 -0.026594 -0.026194 0.006028 -0.001140 0.021695 -0.002667 0.007483 -0.009303 -0.008103 -0.014213 0.050346 -0.032653 0.007444 0.014075 0.033458 -0.010561 0.007224 0.012276 -0.035141 -0.027401 -0.031443 -0.010060 0.015566 -0.035921 0.037732 -0.042384 0.034697 0.006794 -0.005700 -0.015043 0.030010 0.010460 -0.033702 0.031412 -0.011224 -0.009870 -0.021433 -0.006289 0.011129 0.004913 0.024566 -0.005423 0.024987 0.018983 -0.010999 0.012524 0.077615 -0.044090 0.029151 0.007605 -0.015058 0.018581 0.010983 -0.005146 -0.005621 0.004555 -0.017393 -0.040722 -0.035827 -0.021489 0.010554 0.053078 0.026234 0.019648 -0.006345 0.016657 0.003687 0.013821 0.015753 -0.037117 -0.026240 0.023601 -0.031356 0.044343 -0.056802 -0.026529 0.006949 -0.002144 -0.031342 0.001498 0.001560 -0.014705 -0.064997 -0.004908 -0.011153 -0.043855 0.035704 0.005812 0.013652 0.007660 -0.001773 0.013437 0.024839 -0.013069 -0.008804 -0.023907 0.007467 0.004786 -0.041397 -0.008879 0.017553 -0.004814 0.023414 0.053510 -0.031228 -0.030226 0.008881 -0.016423 -0.002300 -0.000853 0.004967 0.023651 0.043591 0.023577 -0.001346 -0.050291 0.018451 -0.013761 0.024823 0.000810 0.020982 -0.015289 -0.046259 -0.019782 0.027137 0.027057 -0.026981 0.008430 -0.011820 0.041271 0.008614 -0.030961 0.037398 -0.017183 -0.012105 -0.021656 -0.019880 0.017933 -0.022897 0.013153 -0.001720 -0.024996 0.052058 -0.051165 -0.050243 -0.008725 -0.000583 0.017928 0.008778 -0.049438 -0.015073 -0.022939 0.000297 -0.046236 -0.018317 -0.003008 -0.012355 0.010192 -0.020018 0.068726 -0.029929 -0.013237 -0.004799 -0.001298 0.016073 0.021241 0.001586 0.070436 0.040925 -0.008734 -0.004971 -0.004043 0.007952 -0.022002 0.005192 0.005491 0.015920 0.014780 -0.001474 -0.057203 -0.016528 0.001454 -0.009827 0.071264 -0.010208 -0.035596 0.001430 0.036673 0.019412 -0.011482 -0.029058 0.013975 -0.069501 0.052402 -0.008340 -0.004400 0.022940 -0.003490 0.015413 0.012580 0.005949 -0.013991 -0.001546 0.006326 -0.024016 -0.016812 -0.011954 0.005457 0.004286 -0.008287 0.004419 0.085111 -0.061708 0.007325 -0.021312 0.016432 0.015737 -0.007272 0.015358 0.003536
18 -0.040257 0.024024 0.001978 0.004441 -0.023685 -0.013931 -0.030296 -0.078285 -0.022201 -0.009552 -0.014062 0.054714 0.010118 0.025825 0.028808 -0.023396 -0.042513 -0.052214 0.036217 0.014336 -0.017438 0.054119 0.016028 0.000048 -0.031768 -0.009202 -0.051336 -0.006891 0.025969 0.007072 -0.023882 0.058971 0.003230 -0.026479 -0.033257 -0.013492 0.001271 -0.053628 -0.002610 -0.002937 0.027276 -0.027222 -0.006455 0.004057 0.012436 0.022997 0.000985 -0.025364 -0.023243 0.030785 0.013424 0.019297 0.016710 0.046417 -0.041207 -0.025598 0.007254 0.066190 0.033660 -0.012024 -0.081313 -0.049556 -0.014216 0.034793 -0.015202 0.003616 -0.005455 -0.002234 -0.013313 -0.010568 0.018261 0.041288 0.002222 -0.006949 0.009274 -0.009628 -0.000055 0.051888 0.055553 -0.026830 -0.030480 -0.011485 0.041608 0.037780 0.032780 -0.006657 -0.004168 0.023231 0.050739 0.012100 -0.019961 -0.084363 -0.007155 -0.015150 0.012073 0.007915 0.002980 0.031159 -0.014380 0.006593 0.032192 0.025519 0.031591 -0.024039 0.010490 0.023729 -0.006150 -0.007551 0.039955 0.015828 0.063533 0.019643 0.021148 0.010700 0.008317 0.033008 -0.010724 -0.012220 0.014327 0.030510 -0.031399 -0.015965 -0.025396 0.028519 -0.011703 0.028468 0.019948 -0.031311 -0.003375 -0.001828 -0.030722 -0.064726 -0.001335 0.000070 -0.050997 -0.005669 -0.010685 0.049480 -0.023803 -0.010324 0.010068 0.007864 0.022440 0.003280 -0.023112 0.009725 -0.013996 -0.002529 0.010629 0.017639 0.018477 -0.013092 0.025543 -0.044106 -0.044725 0.013484 0.007104 0.093029 -0.018826 -0.016028 -0.029092 0.017130 0.025931 -0.009244 -0.035679 -0.022786 0.025425 -0.044902 -0.001719 -0.019588 -0.000070 -0.054469 0.043434 -0.002052 0.047564 -0.023916 -0.003515 0.035021 -0.010552 0.015516 0.023662 -0.034241 -0.003273 -0.032875 -0.023204 -0.022455 0.006588 -0.025377 0.005912 0.005928 0.024066 0.007300 -0.009262 -0.013061 -0.031431 0.040769 0.010800 0.036250 0.001374 0.003161 -0.034883 -0.036676 -0.020987 0.024006 0.016689 -0.014095 -0.036393 0.000110 -0.001309 0.028121 0.023542 0.007423 0.013573 0.001911 -0.007965 0.003717 -0.009069 0.013370 -0.025123 -0.044550 0.029435 -0.045481 -0.020705 0.018010 -0.018594 0.043816 0.013885 0.024584 -0.015524 -0.042707 -0.000125 0.008093 0.006058 -0.024577 0.016928 -0.010453 0.027183 0.037305 -0.014269 0.009357 -0.017351 0.003670 -0.054991 0.043766 -0.010374 0.033910 -0.039080 0.006731 0.002585 -0.017261 0.022729 0.019901 0.020263 0.047855 -0.040432 0.033922 0.001817 0.024867 0.049866 0.004161 -0.012398 -0.013777 -0.037959 0.007062 -0.020896 0.013556 0.013424 -0.013249 -0.057762 -0.046525 0.023407 0.001044 0.043707 0.022109 0.026504 0.018013 0.000758 -0.007719 0.013625 -0.035749 0.031484 -0.037518 -0.014996 -0.020536 0.025481 0.029193 -0.011932 -0.035654 0.021655 0.023958 -0.050366 -0.024405 0.033955 0.003779 -0.035998 -0.011722 -0.016001 0.015767 -0.005976 0.009714 0.027130 0.024795 0.032652 0.000595 0.001955 -0.011755 0.010225 -0.028752 0.021772 0.019193 0.017538 -0.016477 -0.050385 -0.010919 0.016178 -0.013157 0.006077 -0.016095 0.006985 -0.015980 0.012302 0.005008 0.034394 0.052229 0.009957 0.006840 0.012706 0.007464 0.020807 0.015947 0.007514 0.023386 -0.042436 0.008371 0.017075 0.032842 0.027458 0.001572 -0.025814 -0.034791 -0.032896 -0.005071 0.002114 -0.046530 0.027737 -0.013236 -0.005665 -0.002834 -0.010143 -0.033224 -0.011147 0.002938 -0.027202 0.022689 -0.009512 -0.016119 -0.059655 0.019694 0.022211 -0.012697 0.004641 -0.000270 0.012700 -0.001367 -0.040515 -0.023505 0.005420 -0.006263 -0.041338 -0.004228 -0.025314 -0.026692 0.019947 -0.007572 0.011081 0.013827 -0.059987 -0.019709 -0.010783 0.036359 -0.002224 0.000547 0.007586 -0.020432
19 0.004596 0.014945 -0.013669 -0.020289 -0.015441 0.024744 -0.019065 -0.030132 -0.010850 -0.012423 -0.049818 0.015328 -0.033926 0.023387 0.038438 0.003833 -0.022002 0.015957 0.063825 0.025257 -0.001790 0.002813 -0.038966 0.007043 0.009307 0.037247 -0.017486 0.031737 0.049915 0.024153 0.007268 0.077792 0.014405 0.012838 0.031504 -0.018234 0.005206 -0.034512 -0.005460 -0.000600 -0.011378 0.015158 -0.005401 0.008339 -0.030603 -0.023598 0.044527 0.025608 0.012170 -0.012323 -0.079519 0.037377 0.008716 0.010214 -0.019378 0.010899 0.009909 0.052268 0.010708 -0.003215 -0.018468 0.004308 -0.019056 -0.000072 -0.018361 -0.001020 -0.020501 0.004018 0.000804 0.000077 -0.024545 0.001206 0.028800 -0.026370 0.006935 0.033661 -0.071601 0.021717 0.027296 -0.029445 -0.002288 -0.021852 -0.016681 -0.005869 -0.005218 -0.027438 0.028280 0.024005 -0.016703 -0.022996 0.013834 -0.075564 0.001564 -0.009065 -0.007356 -0.023573 -0.003176 -0.003857 -0.035863 -0.001296 -0.015611 -0.000959 0.025067 0.002294 -0.012755 0.004320 -0.012201 -0.018995 0.007819 0.040532 0.046946 0.009156 -0.003820 0.020366 0.021672 -0.000332 -0.003688 0.004827 0.011461 -0.014027 0.005625 -0.009507 -0.028539 -0.003615 0.006783 0.010833 0.032216 0.049118 -0.044660 -0.068310 -0.008968 -0.037829 0.048471 -0.002861 -0.007803 -0.011378 -0.038258 -0.004443 0.006637 -0.062772 0.051274 -0.008657 0.046245 0.013667 -0.029967 -0.030634 0.027483 -0.005818 0.007242 0.003935 0.036157 -0.038574 0.003217 0.009788 0.014204 -0.025211 0.005099 0.037445 -0.016832 -0.023681 0.018280 -0.007015 0.019352 -0.024305 -0.029193 0.009392 0.045458 -0.032161 -0.017787 -0.001950 -0.007680 -0.032475 0.025938 -0.012584 0.006289 -0.056610 -0.029751 0.058346 -0.031435 0.030018 0.049083 -0.006674 0.010291 -0.012277 0.014245 0.026889 -0.000033 -0.014213 -0.004830 0.023678 0.042192 -0.013739 -0.017838 -0.001852 -0.037779 0.017417 0.003359 0.037922 0.012632 0.020354 -0.033917 0.002059 0.013962 0.004468 -0.001984 -0.016213 0.004759 0.021458 0.019053 -0.015537 -0.003124 -0.034330 0.035541 0.032218 -0.013238 0.000316 0.015598 0.027530 0.026518 -0.028406 0.034182 -0.024876 -0.063388 0.015751 -0.018750 0.027451 -0.013034 0.021262 -0.024983 0.001743 0.013004 0.051840 0.013080 0.015776 -0.006519 0.010766 0.030185 0.014620 0.021531 -0.001750 -0.008921 -0.019126 -0.022095 0.053425 -0.001825 -0.026191 -0.074530 0.025561 0.033387 0.026214 0.017889 -0.019228 -0.001544 0.043820 -0.003404 -0.005469 -0.025331 0.036488 -0.009437 -0.013736 0.030795 -0.027831 -0.016070 -0.005681 -0.005441 0.000013 -0.002891 -0.026239 -0.010828 -0.081636 0.010545 0.040271 0.000192 -0.001832 -0.005302 0.043758 -0.018172 0.022446 -0.011533 -0.016800 -0.001081 -0.049221 -0.011507 -0.008441 -0.001812 0.021639 -0.039591 -0.055602 -0.025158 0.013197 -0.001587 0.022414 0.010597 0.011132 -0.011090 -0.014376 -0.026722 -0.025732 0.001502 0.040252 0.048155 0.037081 -0.001785 -0.035647 -0.034369 0.055612 0.014914 -0.010952 0.010440 -0.011020 0.017490 -0.027598 -0.059857 0.003087 -0.008277 0.004865 -0.019914 -0.042482 -0.015896 -0.037291 0.011206 0.046028 0.021243 -0.028535 -0.022503 -0.032589 0.033323 0.003537 -0.000646 0.056770 0.039689 -0.020763 0.023015 0.012250 0.024519 0.024972 0.006453 0.005538 -0.037373 0.007711 -0.017083 0.003106 -0.010223 -0.003634 0.031789 0.030918 0.023139 0.022115 0.033143 0.011307 0.010886 0.007500 0.018328 0.014684 -0.028225 -0.010046 0.007460 0.014094 -0.029233 -0.018329 0.012659 0.009775 -0.016351 0.027095 -0.036411 0.041756 -0.023203 -0.012366 -0.067207 0.017216 0.001856 -0.012902 0.030128 -0.014311 0.032398 0.044558 0.014626 -0.050090 -0.023327 -0.012868 -0.006691 0.073247 -0.015152 -0.027069
20 -0.044900 0.007264 0.012793 -0.026393 0.009750 0.055984 -0.006956 -0.005667 0.028889 0.018008 -0.006614 -0.003946 -0.018375 0.037478 -0.006112 0.003246 0.010748 -0.033355 0.003184 0.007167 0.002423 0.026203 0.007769 -0.002482 0.014503 0.033437 -0.022504 0.059794 0.017411 0.017262 0.034844 -0.021766 0.024675 -0.022856 0.001951 -0.007000 -0.016522 -0.054699 -0.018205 0.022740 0.023978 0.015251 -0.018072 0.000605 0.011067 0.017398 -0.041692 0.007567 0.008367 -0.014747 -0.028055 0.010602 -0.031515 0.060503 -0.016625 0.004339 0.030852 0.019253 -0.003274 0.003688 -0.037755 -0.000982 -0.012565 0.017697 0.002959 0.011977 -0.017962 -0.024029 0.010870 0.009813 -0.014339 -0.003607 0.049847 -0.021188 0.018560 0.006907 -0.054204 -0.010999 0.008128 -0.004826 -0.008197 -0.014856 -0.036232 0.022932 -0.035285 -0.023936 -0.025108 -0.004050 -0.007886 -0.046946 0.043996 -0.023578 0.043024 -0.013117 -0.041273 0.024728 -0.022943 -0.002940 -0.024912 -0.003062 -0.013693 0.008360 0.010420 0.009715 -0.014235 0.038539 0.029455 0.013816 0.006605 -0.006490 -0.028705 -0.012122 -0.024661 0.049780 0.020155 -0.001841 0.025544 -0.026739 0.021864 -0.029922 -0.036583 0.041628 -0.008578 -0.003295 -0.014970 0.051715 -0.021439 0.017249 -0.024173 -0.025610 0.015693 -0.023112 0.010795 -0.029105 -0.019009 0.012472 -0.011803 -0.028122 -0.009324 -0.021113 0.023489 -0.006752 0.023712 -0.011680 -0.005033 -0.041775 0.018892 -0.004085 0.002216 -0.012217 -0.014027 0.002276 -0.012722 -0.021409 -0.001924 -0.012571 -0.013977 0.010136 -0.027938 -0.019188 -0.007902 0.017988 0.029238 0.016573 0.005127 0.001390 -0.024831 0.025289 -0.022464 -0.002429 -0.020151 -0.017873 0.039075 0.002626 -0.020790 -0.057547 -0.013941 0.039955 -0.073937 0.062872 -0.005269 -0.054429 0.040638 0.000606 -0.031878 0.014784 -0.013373 -0.022984 0.018304 -0.000338 0.023217 0.005169 0.007373 0.042520 0.002069 0.042374 0.003121 0.078401 -0.023513 -0.007492 -0.015199 -0.039986 -0.047597 -0.011117 0.045649 -0.028093 0.038139 0.007376 0.036828 -0.039987 -0.053657 -0.009774 0.031261 0.010590 -0.031554 -0.008366 0.052876 -0.011094 0.019448 0.031793 -0.016639 0.009622 -0.025726 -0.017431 -0.034064 0.046207 -0.003061 0.009321 -0.040830 0.016452 0.010578 0.026831 0.018327 -0.017259 -0.028862 -0.017956 0.006545 0.009544 -0.033940 -0.046147 -0.011610 0.011224 0.001724 -0.017089 0.013490 -0.051243 -0.018679 0.005281 0.050541 -0.017159 0.059155 0.021904 -0.001010 0.015250 -0.038301 0.010370 0.050825 0.018044 -0.018485 0.000129 0.020147 -0.001053 -0.021777 -0.024969 -0.007199 -0.012741 0.032952 0.031847 -0.045717 -0.047682 0.005753 0.024899 0.012341 -0.036675 -0.029978 -0.016503 -0.005491 0.026365 -0.002969 0.005129 0.043273 -0.021268 0.025163 -0.006527 0.008103 0.013100 -0.030350 -0.055686 -0.008823 -0.008571 -0.024347 0.016075 0.027119 -0.001782 0.005789 0.012677 0.016184 -0.047928 0.022993 0.084336 0.018172 0.028954 0.017149 -0.034531 -0.051448 0.068723 -0.035799 -0.021335 -0.010980 -0.024218 0.037054 -0.039238 -0.038955 0.023778 -0.015588 -0.015392 -0.011803 -0.009707 0.005439 -0.052407 -0.025737 0.020523 0.005856 -0.024154 -0.004215 0.012701 0.013693 -0.032478 0.032169 0.019972 0.023933 -0.002391 0.000856 -0.022572 0.042939 0.023910 -0.019903 0.021714 -0.026053 0.013532 0.022704 -0.052221 0.032689 0.019081 -0.014579 -0.019098 -0.001774 0.031687 -0.011708 -0.010355 0.001018 0.004288 -0.008573 0.031790 -0.030307 -0.052681 -0.016586 0.032521 0.018000 -0.010927 0.031390 -0.041090 -0.007969 -0.003775 -0.004085 -0.001621 -0.031851 0.041645 0.020379 0.004060 0.023397 -0.041782 -0.006364 0.021251 0.000134 0.012993 -0.028994 -0.021074 -0.036006 -0.014035 0.005581 0.071753 0.019006 0.005393
21 -0.019230 0.020407 -0.008266 0.013925 -0.006897 -0.016045 0.003316 0.050615 0.000748 -0.021381 -0.028397 -0.000710 0.026548 0.002862 -0.061110 0.036660 -0.006173 -0.007205 0.000977 -0.018947 -0.022784 -0.020900 0.017996 -0.018125 -0.007159 0.018636 0.008316 0.020358 0.021528 0.022077 -0.002995 -0.002294 0.009409 -0.013947 0.001565 -0.021505 -0.015964 -0.051624 0.030531 -0.021954 0.001247 -0.025408 0.024096 0.042642 0.007584 0.027576 -0.034870 -0.000904 -0.027709 0.000104 0.015120 0.026223 -0.007252 -0.016875 -0.066044 -0.007895 -0.029845 0.009921 0.007815 -0.000051 0.001957 -0.022685 0.014536 0.012693 -0.015656 0.009200 -0.001733 -0.012415 -0.003574 -0.032094 -0.018173 -0.002793 0.044772 -0.007708 0.038644 0.059669 -0.031095 -0.017373 -0.013709 -0.002603 0.028693 0.014851 -0.013595 -0.011148 0.030367 0.034717 -0.019249 -0.040859 0.034523 -0.005076 0.009886 -0.041235 0.008742 -0.027088 0.033830 0.013666 -0.028986 0.018582 -0.048628 -0.023464 -0.020560 -0.016719 0.018237 0.017271 -0.015976 0.020361 0.006293 -0.005062 0.004670 -0.012638 0.007271 0.023383 -0.031804 0.033441 0.016413 -0.030176 0.037609 -0.020463 0.007751 -0.014002 -0.031495 0.051836 -0.028905 -0.053867 -0.045755 0.063380 0.012758 0.026077 0.020766 -0.007127 -0.006885 -0.040119 0.000732 -0.035426 -0.006005 0.023286 0.000186 -0.033169 0.055642 -0.003298 0.014289 0.007025 0.051171 -0.025528 -0.007880 -0.078972 0.033546 -0.018656 0.013602 -0.011207 -0.002125 0.041550 -0.021189 0.005429 0.016962 0.008206 0.000521 0.003275 -0.004265 -0.017426 -0.017683 -0.019019 0.022356 0.027322 -0.019890 0.042825 0.031444 0.071056 0.037368 -0.006593 -0.026895 -0.018763 0.014650 0.016792 -0.026312 -0.079198 0.006151 0.001151 -0.000065 -0.006396 0.008877 -0.017621 -0.006058 -0.035484 0.008337 -0.001530 0.012643 -0.011122 0.024701 0.010152 0.011977 0.025739 -0.027761 0.000723 -0.040747 0.017886 -0.018631 0.002537 -0.015085 -0.003850 0.008061 0.001294 -0.014177 0.007654 0.003561 -0.020070 0.028207 -0.034957 0.036951 0.011216 0.018705 0.021589 0.013615 -0.012108 -0.002076 -0.050715 0.017009 -0.027827 -0.001428 0.015271 0.018489 0.022931 -0.002518 0.033524 -0.017079 0.023254 0.000885 -0.027267 -0.036231 -0.010128 -0.025520 -0.006702 0.014226 0.001001 -0.008982 -0.006267 0.038963 -0.034240 0.002844 -0.071483 0.012183 -0.020099 -0.014055 -0.009549 -0.007974 -0.012963 -0.039209 0.004542 0.021047 -0.018877 0.019406 0.001338 0.022316 -0.007370 -0.032223 -0.007352 0.019652 0.018092 -0.024258 -0.009020 0.013709 0.022596 -0.028173 0.019950 0.003824 -0.029991 0.000483 -0.003026 -0.061339 -0.004510 -0.014933 0.016684 0.008356 -0.011250 -0.004877 -0.014285 -0.048492 -0.015321 0.014647 0.000876 0.028031 -0.030643 0.000209 0.028765 0.033576 0.011865 -0.027292 -0.050316 0.013403 0.014064 0.011320 0.024756 0.066171 0.010823 0.022966 0.027059 -0.008743 0.042005 -0.002520 0.010462 0.026606 0.048155 -0.012471 -0.042344 -0.040165 0.013818 0.007086 -0.007333 -0.021522 -0.024123 0.061836 -0.011488 -0.041756 0.011194 -0.044443 -0.014459 0.007171 0.028328 0.002361 -0.058362 -0.030678 0.027571 -0.030773 -0.005110 0.009922 -0.003198 0.014807 -0.022462 0.034814 0.019358 -0.025945 -0.025632 0.027705 0.029894 0.014825 0.002707 0.000810 0.016600 -0.010169 0.030170 0.016717 -0.052599 0.006668 0.007442 0.011937 -0.048383 0.027698 0.018787 0.053742 -0.010927 0.005615 0.045001 0.033489 0.007312 -0.014316 -0.033621 -0.013432 -0.053111 0.007826 -0.003012 0.043111 -0.001719 0.014263 -0.033825 -0.005331 -0.009464 0.007827 -0.006902 0.032412 0.032773 0.046384 -0.014094 0.026237 0.033488 0.042512 -0.002503 -0.034944 -0.019332 -0.051202 0.019285 0.039013 0.069316 0.000035 0.021850
22 0.003762 -0.013978 -0.010538 0.012294 0.023523 0.017553 0.026432 0.022886 -0.046323 0.017866 0.014403 -0.033564 0.002780 -0.007419 0.007027 0.021428 -0.050226 0.030616 -0.008682 -0.001396 -0.005771 0.016693 -0.031747 0.029011 -0.026208 0.031098 -0.044041 0.037586 0.026184 -0.018661 -0.007629 0.001926 0.008766 -0.069880 0.028871 -0.010117 -0.009519 0.001273 0.030663 0.027215 -0.033489 -0.008673 -0.056197 0.031660 -0.020504 0.012855 0.004488 0.007321 0.006989 -0.010624 -0.018368 0.057677 -0.007145 0.024190 -0.022338 -0.001884 0.013586 -0.006917 0.006570 0.012455 0.010290 0.016288 0.005570 -0.000811 -0.016046 -0.010843 0.004061 0.044864 0.057759 -0.017767 -0.002485 0.011265 0.043448 0.000690 0.028000 0.015596 -0.005575 0.009672 0.022516 -0.003602 0.036384 -0.002789 0.018884 -0.010449 0.024334 -0.026477 0.027422 -0.038384 0.041662 0.021838 0.033789 0.008359 0.018017 -0.020803 0.011220 -0.020990 -0.004517 0.005607 -0.038656 0.006649 -0.020438 -0.012829 0.058325 0.047401 0.027900 0.005019 0.055695 0.017028 0.031758 0.006263 -0.012138 -0.007356 -0.010157 0.022773 -0.011645 -0.030437 0.013231 -0.016369 -0.021883 -0.025496 -0.023294 0.031800 0.020201 -0.021734 0.003098 0.083593 -0.006076 -0.031199 0.005656 0.008501 0.002829 0.002677 0.029192 -0.027786 -0.019090 0.026356 0.000526 -0.008178 0.000304 0.028729 0.034105 0.008907 0.043478 -0.026901 0.002786 -0.040528 0.041339 -0.007760 -0.034960 0.005437 0.004229 -0.035493 -0.021446 -0.043334 0.054379 0.031432 0.060054 -0.025054 0.014400 0.006676 0.001195 -0.063174 -0.016048 0.035284 -0.003010 0.039043 -0.006496 0.027344 0.047893 -0.002304 -0.033328 -0.036266 0.001701 0.010652 -0.035872 0.001262 -0.021314 -0.038189 -0.045366 -0.030139 0.007595 0.003678 -0.023319 -0.010701 -0.006106 -0.028987 -0.018288 -0.005296 -0.005622 -0.042812 -0.043829 0.052898 -0.022004 0.020630 0.000524 0.047461 0.023195 -0.019084 -0.010674 -0.014497 0.012264 -0.047546 -0.036953 0.003877 0.024586 -0.024157 0.005081 -0.006998 0.054431 0.006345 -0.016748 -0.025378 0.001524 -0.024056 0.003049 -0.019607 0.025393 -0.035167 0.021640 -0.023392 -0.004303 0.040562 0.003224 -0.003365 -0.008034 0.005993 0.015275 0.018564 -0.013075 -0.036393 -0.005845 0.007673 0.013580 -0.032618 -0.004507 0.028446 0.032313 -0.016206 -0.022575 0.009517 0.002392 -0.006092 0.018422 -0.011659 0.009225 -0.018453 -0.054905 -0.018190 -0.000304 0.023083 0.008730 -0.008207 0.009740 -0.003932 -0.015573 0.026814 0.000017 0.022070 0.018117 -0.009997 -0.010109 -0.006194 -0.016391 0.023934 -0.028302 -0.015467 0.037788 0.057618 -0.024778 0.001009 -0.020658 0.026212 0.008998 -0.074655 0.014461 -0.000190 -0.007290 -0.012272 0.032983 0.004965 0.004930 -0.033643 -0.029664 0.041736 0.004945 -0.016559 0.036836 -0.010274 -0.023225 -0.020360 0.015626 0.058819 0.024677 -0.027667 0.025622 0.013713 -0.017864 0.019571 0.005899 -0.009422 0.047549 0.036401 -0.002522 0.001527 -0.026937 -0.015986 0.021279 -0.020802 0.006203 -0.027474 0.014320 -0.030775 0.003274 -0.024878 -0.007014 0.058372 -0.041433 0.020565 0.047543 -0.006733 -0.030286 0.034546 -0.015824 -0.012525 -0.017681 -0.022397 0.033281 -0.071298 0.037480 0.006285 -0.011611 0.000063 0.027964 -0.026436 0.013307 -0.013055 -0.016167 0.026878 -0.008628 0.001089 0.003485 -0.020853 -0.043770 0.012599 -0.005771 -0.002071 0.033550 0.016547 0.043738 0.042778 -0.037138 0.013739 0.002746 0.000666 -0.006439 0.015724 -0.000312 -0.045481 -0.006569 0.013065 0.014778 0.030723 0.032876 -0.015100 0.020627 -0.003259 -0.018859 -0.001895 0.009681 0.014535 0.017703 -0.036627 -0.010335 0.004171 0.024429 -0.024243 0.002251 -0.026562 -0.032931 0.004858 0.015335 0.053975 -0.009137 0.001870
23 0.054475 0.008944 0.021889 0.006238 0.017281 -0.001843 0.063825 0.031323 -0.016690 0.026598 0.013325 -0.001936 -0.027122 0.047526 -0.028554 0.031859 -0.009622 -0.010301 -0.040578 0.011845 0.018499 0.040549 -0.010648 -0.000285 0.021312 0.001903 -0.015726 -0.015898 0.017783 -0.017081 0.036983 -0.044365 0.032340 -0.001265 0.002316 0.001587 -0.034396 0.013862 0.006814 0.005238 0.007169 0.030490 -0.004664 0.028132 0.005335 0.027399 -0.003712 0.003625 0.005764 -0.015875 -0.027769 -0.010409 0.039545 -0.012176 -0.003955 0.034570 0.018485 0.027767 0.003099 0.003583 0.036889 -0.029364 0.019670 -0.009503 0.007650 0.034014 -0.012917 0.005474 0.025969 -0.008111 -0.005924 0.007307 0.027050 -0.021896 0.023732 0.019130 -0.037954 -0.008785 -0.026366 0.024972 0.040296 0.003381 -0.037541 0.007483 0.019622 0.013301 0.003965 -0.005226 0.057723 0.007439 0.021369 0.003088 0.012962 0.001825 0.007916 -0.000114 0.014754 -0.016879 -0.018043 -0.007639 -0.003264 -0.014389 -0.024480 -0.034032 0.017803 -0.009552 0.000365 0.014583 -0.034845 -0.008449 -0.013416 -0.005168 0.029110 -0.001099 -0.017176 -0.017842 0.000271 -0.004814 -0.035452 -0.022307 -0.040168 0.005701 0.047111 -0.022551 0.015418 0.041141 0.003956 -0.070904 0.017454 -0.002725 0.059399 0.005648 0.022822 -0.041932 -0.001197 0.047442 -0.020535 0.017510 0.039483 0.044149 0.012821 0.021208 0.030638 -0.027417 0.001012 -0.013644 -0.022420 -0.056345 -0.019127 0.014156 -0.001957 -0.001558 0.001950 -0.008532 0.014238 0.018689 0.012773 -0.028268 0.029868 0.008703 -0.021882 -0.042451 -0.010627 0.014086 0.013988 0.023430 0.005418 -0.020727 0.048445 -0.002446 0.011488 -0.053995 0.016447 0.022560 -0.006422 -0.027949 0.006411 -0.015705 -0.053417 0.018783 0.007789 -0.049675 -0.035130 0.014430 0.008475 -0.032189 0.002044 -0.008676 -0.006367 -0.024375 -0.016262 0.047300 -0.018065 0.040708 -0.015370 0.049932 0.002536 -0.029366 -0.042113 0.004121 0.043568 -0.007892 -0.029597 0.017604 0.008716 -0.019472 0.033472 0.005493 0.034218 -0.047403 -0.014627 -0.044241 -0.002211 0.021118 -0.010430 -0.001576 0.026009 -0.049529 0.020859 -0.005935 -0.047647 0.037969 -0.021166 -0.002165 0.006050 0.013255 -0.020199 -0.000744 -0.004803 -0.011057 -0.046158 0.011943 -0.028678 -0.017175 -0.017265 0.044261 0.034534 -0.026458 -0.025132 0.019816 0.050928 -0.010892 0.039125 0.000879 -0.007643 -0.028174 -0.026202 -0.007016 0.040904 0.027506 -0.049214 -0.011387 0.004369 -0.007866 0.026689 0.010792 0.013659 0.015943 -0.021305 0.017255 -0.022657 0.055580 -0.037543 0.035839 -0.004691 0.001220 -0.025558 -0.014141 -0.023301 0.012524 -0.016791 -0.024432 -0.003532 -0.019013 0.044679 -0.030743 -0.039771 -0.030039 -0.020520 0.020457 -0.044256 0.009082 -0.031472 0.024859 0.021829 -0.020023 0.026539 -0.009154 -0.034858 0.006070 0.019972 0.051882 0.006479 0.020969 0.035337 0.038656 -0.035967 0.018266 0.020600 -0.009780 0.018563 0.057140 -0.001506 -0.029210 -0.008242 -0.019457 0.025388 0.023950 0.021515 -0.017446 -0.000535 -0.023874 0.037942 -0.003844 0.004808 -0.031735 -0.033078 -0.013084 -0.041630 0.043347 0.023222 -0.011761 0.002329 -0.029095 0.037103 0.033894 0.007841 -0.015324 0.006803 -0.035916 -0.044044 0.000465 0.024879 -0.000678 -0.026256 -0.021393 0.020248 0.038632 -0.016435 0.007265 0.018869 -0.076156 -0.013147 -0.010356 0.027956 0.017006 0.009879 -0.032256 0.023790 0.012974 0.011600 0.015073 -0.018541 -0.009781 -0.014264 -0.007857 -0.004537 -0.000316 0.028540 -0.009583 -0.006660 -0.018659 0.052986 -0.012803 -0.002973 -0.007680 0.020274 -0.040894 0.010797 0.033505 0.042648 0.044476 -0.014197 0.013775 0.028429 -0.031780 0.019967 -0.002092 -0.011744 -0.040243 0.020282 0.042906 -0.018613 -0.000471
24 0.004151 -0.053647 -0.002290 0.016661 0.018970 0.017126 0.036225 0.040423 -0.037497 0.046510 -0.005716 -0.015801 -0.023788 0.002782 -0.040572 0.001670 -0.000768 0.022365 -0.012114 0.020833 -0.027090 0.057700 0.023036 -0.009623 -0.002186 -0.036990 -0.002640 -0.016738 -0.036158 0.000964 0.004894 0.008612 -0.040225 -0.012174 0.012565 0.008577 0.003887 0.057045 0.047877 -0.026186 -0.021644 0.006062 0.002566 0.042651 -0.012388 0.023469 -0.004604 0.019473 -0.015846 -0.037274 -0.031185 -0.023469 0.036590 0.006669 -0.011448 0.023887 -0.047987 -0.016169 0.027604 -0.005021 0.014978 0.007582 0.027804 -0.008845 0.001291 0.007218 0.043886 0.002646 0.023079 -0.023477 -0.018572 0.051392 0.034448 -0.035623 -0.020239 -0.030086 0.005306 -0.036749 -0.008044 -0.001205 0.004808 -0.035988 -0.029404 -0.016594 0.053066 -0.034380 0.005059 0.007152 0.025941 -0.013742 0.006781 0.024121 0.032223 -0.013725 0.012067 -0.039633 0.011347 -0.020148 -0.010472 0.005023 0.003683 -0.060437 -0.029496 -0.031951 -0.006608 -0.029985 -0.015319 -0.008732 -0.035541 -0.012234 0.010370 -0.016421 -0.003624 0.032686 -0.033616 -0.010163 -0.017922 -0.007412 -0.009643 -0.019771 -0.019497 0.030331 0.017636 -0.077092 -0.014703 0.014736 0.007964 -0.000090 0.024255 0.004994 0.021994 0.014024 -0.008100 -0.037058 0.007897 -0.017979 -0.012576 -0.007304 -0.014213 0.036776 -0.008775 0.021720 0.012440 -0.013743 -0.026065 -0.018437 0.030929 -0.043117 -0.044283 0.022189 -0.003907 0.013839 -0.002645 -0.017144 0.022718 0.053703 -0.031127 -0.045973 -0.014003 0.023168 0.006808 -0.014123 0.002921 -0.003704 -0.000014 0.010684 0.019269 -0.029714 0.006815 0.019056 -0.016810 -0.017763 0.013892 -0.018250 -0.017699 -0.014575 0.014516 -0.045085 0.012445 0.024653 0.003587 -0.030976 0.000019 0.023230 0.000787 -0.028734 0.016400 -0.011133 -0.001028 0.001492 -0.041318 0.008017 -0.027893 -0.006845 -0.030048 -0.003672 -0.031851 0.012476 -0.034943 0.014875 0.016423 -0.045010 -0.023790 0.001534 -0.049283 0.013959 0.018518 -0.003061 0.026057 -0.020906 -0.019048 0.006090 -0.013030 0.062155 -0.020907 0.032161 -0.005942 -0.009704 0.055733 -0.024405 -0.036026 0.031992 -0.010151 -0.002186 0.015665 -0.034969 0.002733 -0.025256 -0.001502 0.018163 -0.033462 -0.018895 -0.016397 0.032341 -0.039238 0.020950 0.000123 -0.011081 -0.031389 0.015666 -0.018871 0.043977 0.026245 -0.029919 -0.049140 0.006477 0.015606 -0.010583 0.039712 0.061308 -0.042282 -0.020334 -0.004003 -0.007356 -0.025453 0.022492 0.018879 0.007838 -0.014456 0.063504 -0.016769 0.002710 -0.026331 0.013359 -0.039479 -0.034395 0.001187 -0.042302 0.048566 0.027612 0.015100 0.010588 -0.013145 0.011450 0.039389 -0.013367 0.029331 -0.026520 0.013003 -0.025168 -0.000598 0.031599 -0.034284 0.043766 0.021412 -0.040293 0.058856 0.034725 -0.023842 -0.003016 -0.003565 0.022497 0.051034 0.037882 0.005666 -0.033309 -0.006831 -0.003385 -0.014931 0.020219 0.012268 0.015367 -0.026303 -0.042838 -0.040722 -0.005259 0.002465 0.016227 0.005144 -0.006351 -0.023035 0.010970 -0.012491 0.051688 -0.011615 0.009526 -0.034089 0.014172 -0.007474 0.030946 0.012214 -0.040642 -0.018190 -0.012621 0.049300 -0.044617 -0.017216 -0.027028 0.024780 -0.017461 -0.022309 0.028973 0.013380 -0.002929 -0.017107 -0.012654 0.006380 0.012536 -0.009691 0.042976 -0.025697 -0.024780 0.018840 0.005843 -0.031419 0.018723 0.063389 0.012820 -0.002986 0.011235 0.052375 -0.013152 -0.009491 -0.026937 0.003046 -0.034960 0.023405 -0.027153 0.013748 -0.004209 0.010986 0.046890 0.008368 0.000985 0.005891 -0.026517 -0.024851 -0.020927 0.007948 0.012988 0.026937 0.039822 0.028062 0.052202 0.026248 0.005835 0.019483 -0.007401 -0.045502 -0.024018 0.020414 0.044652 -0.009383 -0.004115
25 -0.018393 -0.007805 0.014815 0.007468 0.025245 0.051206 0.035692 0.033515 -0.001481 0.040429 0.001779 0.015328 -0.011578 0.004662 0.005201 -0.002476 0.007402 -0.012605 -0.029124 0.044795 -0.009282 0.014823 -0.031382 -0.014469 0.001528 -0.024866 -0.005788 0.011045 -0.021850 -0.028269 0.018194 -0.040438 -0.042429 -0.030416 0.012441 -0.030774 0.001305 0.001872 -0.013981 0.000073 -0.014250 0.004874 0.019580 0.025789 0.016085 0.014949 0.006938 -0.039031 0.018656 -0.033223 -0.034230 -0.010943 -0.035797 0.005411 0.019760 -0.010655 0.003531 0.009998 0.011914 0.009266 0.010118 -0.002852 0.012163 -0.012459 0.015559 -0.020098 0.059863 -0.002785 0.002899 -0.011144 0.018522 0.001696 0.024975 0.038274 0.002327 -0.053736 0.008704 -0.027365 -0.010069 0.040025 -0.022085 -0.033555 0.028382 0.003810 0.014230 -0.013128 0.006350 0.013189 0.015430 0.005037 -0.034762 0.017155 0.045385 -0.032031 -0.028798 -0.037717 -0.031442 0.001278 -0.015830 0.012465 0.017385 -0.003594 -0.014408 -0.027218 0.012645 -0.020998 -0.050160 -0.040593 -0.027154 -0.005939 -0.042684 -0.002288 0.028583 0.008891 -0.070498 0.009404 0.000956 0.008617 -0.013274 0.025103 0.018639 -0.040770 0.030891 -0.050627 -0.023540 0.011386 0.029757 -0.030082 0.033264 -0.035533 0.009705 0.021239 -0.034268 -0.030036 0.012136 -0.030085 0.033688 0.021777 -0.032087 0.022929 -0.004712 -0.031553 0.006550 -0.014187 0.026732 -0.017456 -0.021754 -0.016827 0.002214 0.014480 -0.046289 -0.012446 0.003344 -0.000098 0.026603 0.038370 0.011996 -0.039756 0.009667 -0.015387 -0.007551 -0.022299 0.002716 0.019111 -0.003747 -0.017406 -0.015389 -0.006518 0.003291 0.007405 -0.060729 0.005535 -0.048890 -0.027423 -0.006835 0.013873 0.005777 -0.014369 0.022552 0.018373 -0.004443 -0.023078 -0.003838 -0.038132 0.018387 -0.010217 -0.017644 0.019826 0.005627 -0.026951 -0.032865 -0.005792 0.040080 0.010700 0.014692 -0.015353 0.003743 0.024956 -0.050616 -0.006031 0.054073 -0.034064 0.014640 -0.041924 -0.032046 0.042369 -0.001384 -0.034214 -0.005630 0.000257 -0.002223 0.003133 0.005156 0.021045 -0.026181 0.024769 -0.003090 -0.027505 0.063180 -0.008864 -0.040371 0.031618 0.040251 -0.008261 0.021643 0.013432 0.022170 -0.053834 -0.051113 -0.010029 -0.026921 0.002636 -0.008823 0.032173 0.010631 0.005659 0.010167 -0.057845 -0.017442 0.032911 -0.012579 -0.005057 -0.037458 -0.021331 -0.008959 -0.016389 0.036541 -0.011947 -0.027100 0.010085 -0.073790 0.024128 -0.018667 0.004515 0.006443 0.041447 0.007192 0.013292 0.013532 0.028580 0.029918 -0.021718 0.001197 0.029217 -0.032087 -0.003130 0.048706 -0.000445 0.051173 0.051520 0.016502 -0.019293 -0.002330 0.005228 0.047158 -0.037372 0.016796 -0.035242 0.022513 0.013831 0.009615 0.013542 -0.049477 0.050765 0.047059 -0.017764 0.005167 0.031178 0.024002 -0.012888 0.000808 0.006954 0.043545 0.016047 0.011678 0.053469 -0.029010 -0.013635 0.004858 0.024545 -0.013615 -0.033102 0.028115 -0.023297 0.039491 -0.023789 0.002254 -0.015328 -0.012063 0.011347 -0.005014 0.039727 -0.046765 -0.007542 -0.033207 0.000024 -0.007478 0.041448 0.030630 0.030710 0.027823 -0.041263 0.031722 -0.005244 -0.016380 -0.004730 -0.025951 0.018304 -0.004665 -0.044129 -0.005985 -0.013067 -0.005119 0.042062 -0.039971 -0.009140 -0.011522 -0.013442 -0.002909 -0.011322 -0.020672 -0.023191 -0.026978 -0.041369 -0.012883 -0.028879 0.031819 -0.014226 0.000766 -0.016695 -0.002530 -0.010774 -0.021117 0.020081 -0.012331 0.041067 -0.009832 0.014988 0.005329 0.017081 -0.005311 0.037246 0.020227 -0.021422 0.005655 -0.006531 0.013947 -0.016474 0.010277 0.017116 -0.043416 0.040050 0.041335 0.037313 0.026358 -0.000090 0.037421 0.049300 -0.024669 -0.027767 -0.001192 -0.009802 -0.006798 -0.002787
26 0.003841 -0.002131 0.000722 0.029242 0.019577 0.013846 0.023616 -0.029938 -0.028119 0.046566 0.013607 0.007610 -0.027422 0.000540 -0.010746 -0.012188 -0.007769 0.014066 -0.037047 0.038087 0.031478 -0.012408 0.000959 -0.039893 -0.022201 -0.009796 0.043261 -0.011237 0.031119 -0.023776 0.007374 -0.023149 -0.017015 -0.022570 0.047393 -0.034084 0.000781 0.020160 -0.002821 0.008761 -0.009721 0.017071 0.034492 0.058723 0.040934 0.063321 0.005177 -0.011356 0.003770 -0.003394 -0.009521 -0.014430 -0.016783 -0.001089 -0.038427 0.012742 0.016142 0.000928 -0.001125 -0.049515 -0.024012 -0.034065 0.022365 -0.002406 0.037580 -0.003709 0.032520 0.000360 -0.030914 0.003545 -0.016050 -0.016898 -0.004063 -0.006257 -0.037261 0.012252 0.019168 0.004630 0.003088 0.029262 0.046131 -0.003342 -0.001408 0.019603 0.057562 0.006960 -0.007382 0.015668 0.047668 -0.014170 -0.015597 0.040217 0.029051 -0.006711 -0.045923 0.006397 -0.013253 -0.002291 0.017956 -0.003406 0.006554 -0.032321 0.025386 0.018414 0.002072 0.018291 -0.065894 0.000633 0.002085 0.006216 0.038334 0.002759 0.028765 0.010225 -0.041674 0.006433 -0.016548 0.049110 -0.038629 0.023594 0.050718 -0.018006 -0.015245 -0.005780 -0.006637 0.016593 -0.007999 -0.005173 -0.004157 -0.043413 -0.021224 0.022153 -0.040473 0.028369 0.000415 -0.075671 0.000976 0.018138 -0.017991 0.048796 0.008127 0.012636 -0.002508 0.031734 -0.021408 0.016964 0.029629 -0.014447 0.022752 0.010389 -0.029123 0.018332 -0.028972 0.008778 0.033800 0.016177 0.000081 -0.027480 -0.010677 0.026672 0.018209 -0.023620 0.012477 0.018731 -0.041168 -0.010584 -0.006956 -0.009366 0.002435 -0.012812 -0.019946 -0.012052 -0.015953 -0.023069 0.020330 0.035865 0.049002 -0.033178 0.024779 0.000324 -0.003190 0.045354 -0.030444 -0.022569 0.025848 -0.007291 -0.009529 0.014588 -0.028561 0.043234 -0.043791 0.008133 0.080041 0.021683 -0.011166 0.004911 -0.019122 -0.007450 -0.020313 0.035678 0.004767 -0.002867 0.017495 0.003745 -0.033251 -0.008724 -0.024997 -0.013222 -0.010780 -0.001546 0.050400 0.019230 -0.035465 0.043584 -0.026559 0.019748 -0.042750 -0.035804 0.018630 0.002558 -0.015069 -0.009300 0.021023 -0.044501 0.013912 -0.023244 0.030346 -0.054377 0.000471 0.015201 -0.002766 -0.000167 -0.013946 -0.004226 0.023164 0.045622 -0.013990 -0.006042 0.024182 0.039449 0.006990 -0.047271 0.017109 0.015753 -0.003126 -0.024193 0.033368 0.015300 -0.019112 0.040785 -0.071715 0.039485 0.016090 0.002480 0.022877 0.027442 -0.067147 0.000347 0.017737 0.010341 0.022029 -0.033735 0.019443 -0.005182 -0.013221 0.010287 0.012352 -0.053333 0.030643 0.031108 -0.037602 -0.036975 0.014270 0.021592 0.002598 0.031783 0.010470 -0.043734 0.022704 -0.010199 -0.028644 0.026672 -0.036091 0.097075 0.016822 0.008370 -0.002482 0.022534 0.057406 -0.026965 0.000430 0.003794 0.030844 -0.009055 -0.006044 -0.008777 0.002097 -0.034572 -0.017300 -0.038873 -0.043957 -0.010924 0.016814 -0.020766 -0.008024 -0.031008 -0.024903 0.001369 -0.007284 -0.023681 -0.018956 0.038265 -0.063142 -0.021240 0.003377 -0.002204 0.020400 -0.003966 -0.027995 -0.003608 0.040553 0.022652 -0.006505 -0.017087 0.000957 -0.009556 -0.050803 0.047056 -0.037171 -0.012591 -0.018254 0.024395 0.000874 0.007341 -0.008311 -0.026728 -0.002129 0.007086 -0.050180 -0.005519 0.008635 -0.020229 0.024834 0.014362 -0.012017 0.036543 0.021805 -0.015241 0.018361 -0.010542 -0.003931 -0.018830 -0.036830 -0.023001 -0.009061 -0.007263 0.008451 -0.014377 -0.005293 0.019922 0.012440 0.036065 -0.000939 0.010484 -0.012586 -0.008384 -0.000874 -0.012896 -0.032079 -0.012756 -0.018315 0.014566 0.020413 -0.006214 0.025686 0.006796 0.022617 0.011086 0.024205 -0.024873 -0.047266 0.000174 0.012744 -0.027820
