64 384
0 0.036586 0.072371 -0.033357 0.017469 0.040679 0.087361 -0.005216 0.023129 -0.052118 0.007746 -0.007931 0.024269 0.016553 -0.050152 -0.040853 -0.116915 0.140955 0.008105 -0.019104 0.062048 0.009249 0.113305 0.073321 -0.018965 -0.101194 0.043710 0.024221 -0.059532 -0.043535 -0.040958 0.026794 -0.068151 -0.027345 -0.020127 0.038202 -0.015136 0.032274 -0.022891 -0.037611 0.002824 -0.061967 0.041936 -0.004337 -0.070969 0.002691 0.049665 0.015752 -0.030999 -0.015685 0.030998 0.061122 0.045324 0.045104 -0.050493 -0.063756 -0.025849 0.061822 0.020158 0.053350 -0.021634 -0.030047 0.024577 0.002403 0.020466 -0.052500 0.012602 0.003246 0.053294 0.054368 -0.005606 -0.018589 0.029259 -0.002161 0.005167 -0.011878 -0.018020 0.113013 0.019087 -0.007918 0.089650 -0.008400 -0.016836 -0.025524 0.043820 -0.051979 -0.012120 0.019126 -0.070804 0.075464 -0.111240 0.048198 -0.028600 0.016337 -0.024371 -0.027050 0.012958 0.011021 0.148459 -0.000642 -0.041717 -0.061307 -0.003766 -0.017111 0.038116 -0.003164 0.030776 -0.034315 -0.042579 -0.006390 -0.014240 0.027948 -0.066624 0.025353 0.140748 0.022841 0.027260 0.021794 -0.025150 0.042719 -0.025451 -0.129554 0.020166 0.017050 -0.013901 -0.042246 0.017583 0.045825 0.034828 -0.009256 0.012783 -0.008187 -0.013555 0.005920 -0.093517 -0.072618 -0.039062 0.015716 -0.033779 -0.055903 -0.019174 -0.034872 -0.034531 -0.137245 -0.007143 -0.062326 0.018639 -0.198804 0.048346 0.134608 -0.024591 0.033780 0.033390 0.052531 0.085851 0.024817 -0.021002 0.002979 -0.011110 0.015276 -0.023629 -0.005546 0.022495 -0.004951 0.062633 -0.051178 0.007019 0.000717 -0.036869 -0.031541 0.029544 -0.001982 -0.143214 0.014575 0.024730 0.017366 0.014403 0.005446 -0.058331 0.040723 0.057917 0.003871 0.025059 -0.023686 -0.067988 0.023276 0.045588 0.029492 0.021223 0.037348 0.061004 0.019905 -0.034054 -0.008495 -0.033013 0.025829 -0.053832 -0.026154 -0.010287 0.006917 0.025576 0.020770 0.049331 0.055446 0.035073 0.072288 0.013217 -0.094863 0.001366 -0.050236 0.070487 0.066727 -0.005391 -0.022413 0.094823 0.019466 0.012269 0.006385 -0.019427 0.070813 0.014924 0.008864 0.013981 -0.016096 0.036773 -0.027856 0.075596 -0.026247 -0.003637 -0.056549 0.015912 -0.042285 0.013561 0.016793 -0.175014 -0.094918 -0.045388 -0.012924 0.032427 -0.010630 0.005544 -0.044628 -0.082667 -0.065843 0.079872 -0.052026 -0.055178 -0.032476 0.023809 0.031627 0.096609 0.106464 -0.008714 0.048100 0.029025 -0.117776 -0.006528 0.049454 -0.038329 0.028154 0.004819 0.129576 0.009502 0.016318 -0.077911 -0.050470 -0.125216 -0.032358 -0.076391 -0.062341 -0.025186 -0.028167 -0.072991 0.074200 0.020673 -0.005870 0.070831 0.075679 0.014770 -0.086440 0.022642 -0.034885 -0.037935 0.007264 0.005134 -0.060854 0.022992 -0.034119 -0.051351 -0.004011 -0.014553 0.016653 -0.016103 0.037364 -0.008966 -0.002828 -0.013804 -0.016544 -0.015313 0.080552 -0.009785 -0.027792 0.039218 -0.017907 -0.005958 0.004173 -0.005983 -0.029533 0.010078 0.062380 -0.037456 -0.030826 -0.002245 0.125284 -0.000916 -0.034629 -0.007373 0.042704 0.037121 0.012396 -0.014867 0.022581 0.024489 -0.021464 0.035569 0.073854 0.029686 0.031711 0.002807 -0.028366 -0.018555 -0.036324 0.026479 -0.048713 -0.004584 -0.020795 0.044383 0.038131 0.089066 -0.006676 -0.020551 -0.009357 0.030519 -0.009051 0.046464 -0.021365 -0.063773 -0.053627 -0.017776 0.006063 0.048536 -0.043707 0.015619 0.000560 -0.010569 0.016651 -0.028584 -0.045597 0.033611 -0.013055 0.026374 0.018046 -0.003603 0.044074 0.027904 -0.019063 -0.043654 0.037995 -0.015959 -0.095345 -0.076281 0.011230 0.009385 -0.003456 0.015144 0.001161 0.000178 -0.048536 0.073190 0.006853 -0.017756 0.019926 0.015030 -0.040222 -0.041794
1 -0.018060 0.052094 -0.060688 -0.027309 0.017660 0.061788 -0.033380 0.036431 0.037391 0.060082 -0.014844 0.016762 0.004981 0.005811 0.020879 -0.003757 0.026416 -0.015643 0.004370 -0.001113 0.022170 -0.055232 -0.000848 0.033417 0.030489 0.025003 -0.022670 -0.022520 0.025613 0.026702 0.005672 -0.117412 -0.043045 0.006369 0.005280 0.013282 0.020203 -0.039462 -0.018484 0.039725 -0.041475 0.008977 -0.084699 0.007032 -0.004977 0.003046 0.005280 -0.048703 0.015154 -0.013976 -0.008298 -0.023407 0.033089 -0.033105 -0.037500 -0.040783 -0.038191 -0.027345 -0.066439 0.056321 0.017108 -0.051636 0.007298 -0.015625 0.066081 -0.083685 -0.049087 -0.061703 -0.002214 0.012423 -0.005535 0.033356 0.073289 -0.043319 -0.001270 0.040614 0.031049 0.006980 -0.020839 0.031507 0.035401 0.020820 -0.001054 0.008538 -0.032459 -0.058980 0.009060 0.042922 -0.002335 -0.045076 0.063910 0.012608 0.027677 0.010751 -0.011186 0.046998 0.014913 -0.013652 -0.033381 0.004331 0.057050 -0.035299 0.016545 0.071579 0.017613 0.008341 -0.021866 -0.006625 0.057179 -0.011499 -0.046883 -0.032379 -0.048129 0.045088 0.034590 0.071811 0.001053 0.011291 0.033555 -0.004631 -0.122041 -0.004938 -0.019065 0.015992 -0.056377 0.008349 0.080593 0.019079 0.013564 0.004534 0.012618 0.049005 0.002337 -0.016297 -0.037244 0.038851 0.014581 0.023168 -0.013866 0.003663 0.005326 -0.036361 -0.055441 0.009877 -0.062279 0.007460 0.020259 -0.062153 0.024483 -0.034449 0.008887 0.146495 0.027257 0.002092 0.026663 -0.041499 0.070321 0.022111 0.049595 -0.025331 0.032913 0.014584 -0.103501 0.019346 0.038508 -0.004794 -0.046198 0.048356 0.018937 -0.012579 -0.034936 -0.112131 -0.012609 -0.028498 -0.014565 -0.015468 -0.001705 0.000632 0.043127 -0.094553 0.034237 0.044943 -0.006564 0.022050 0.079612 0.018574 -0.038701 -0.007157 0.048270 -0.000491 0.035043 0.024368 0.002164 -0.027249 0.012728 -0.036253 -0.045977 0.021750 0.001395 -0.002062 -0.011120 -0.003228 -0.009981 0.037866 0.067712 0.030235 0.010553 -0.048036 -0.018418 0.007265 0.031400 0.045381 0.065989 -0.011736 -0.017845 0.040688 0.030200 0.012649 -0.089289 0.040666 -0.009765 0.009394 0.048002 0.001005 0.008253 0.076001 -0.013067 -0.053445 0.029352 0.041471 0.001713 -0.010967 -0.046134 0.005490 -0.012472 0.034096 -0.012486 0.042509 0.048826 0.000939 -0.028404 -0.058490 0.025254 0.010671 -0.030551 -0.057014 0.044719 0.019820 -0.018077 0.004537 -0.021498 -0.019349 -0.014413 -0.033321 -0.069651 -0.013874 0.002898 -0.001246 0.006715 -0.018989 -0.078977 -0.058029 -0.027187 -0.037575 0.061868 -0.050576 0.039112 0.017034 -0.029995 0.004773 0.061442 -0.039269 0.005816 -0.034481 0.082631 0.024852 0.062714 0.011934 -0.044103 -0.036555 -0.032919 -0.044364 0.029605 -0.028351 -0.021053 -0.058584 -0.030798 0.027372 0.031192 -0.002172 -0.009113 0.030475 0.017783 -0.010475 -0.027375 -0.023035 0.016641 0.034555 0.015214 0.049851 0.015471 0.056463 0.026963 -0.066602 -0.032171 0.006235 0.034370 -0.047097 -0.037576 0.047501 0.022585 0.005869 -0.043405 0.034279 -0.007043 -0.001225 -0.052470 0.019616 0.071917 0.002338 -0.017846 -0.015019 -0.015489 0.003330 -0.023408 -0.046264 0.029470 0.015185 -0.043669 -0.022255 -0.022283 -0.025566 0.026072 0.022378 0.027507 0.007112 -0.007016 0.052223 -0.018434 -0.002139 0.011047 -0.028882 0.037969 -0.023325 0.010109 -0.019042 0.008859 -0.009077 0.039883 -0.012000 0.130129 -0.001493 -0.003232 -0.013302 0.048522 -0.018460 -0.002842 0.035336 0.035385 -0.021740 0.054168 0.020000 0.023571 0.002147 -0.005209 0.005744 -0.022387 0.023022 0.019235 -0.030231 0.027755 0.013575 0.020321 -0.029715 0.016531 -0.009936 -0.014009 0.119535 0.032013 0.030062 -0.001012 0.000937 0.001053 0.000823
2 0.030704 -0.007042 -0.010900 -0.022271 -0.031628 0.031149 -0.000273 -0.013613 0.024480 0.007517 0.033218 -0.005988 0.000360 -0.027094 -0.008394 -0.067757 0.014454 -0.020270 -0.017744 -0.053981 0.051098 -0.042927 0.012318 -0.004902 0.014177 -0.027765 -0.002663 -0.014859 0.015798 -0.014035 0.001648 -0.067539 0.014275 -0.044089 0.023233 0.038444 0.009206 -0.007800 -0.015759 0.039971 0.020672 -0.045687 -0.036203 0.016339 -0.003986 -0.004692 0.018159 -0.004521 0.000946 0.040144 0.022698 0.001902 -0.000723 -0.001765 -0.044224 0.011210 -0.015334 0.007867 -0.009376 -0.018524 -0.044595 -0.025799 -0.025656 -0.007150 -0.004638 -0.073149 0.035937 0.022490 -0.001201 -0.005607 0.011865 0.026071 0.028449 -0.001953 -0.060216 0.033859 0.035071 -0.008360 0.038399 -0.013318 0.048636 -0.002686 0.020880 -0.010841 -0.007608 0.010176 0.004022 -0.028440 0.039475 -0.014129 0.002692 -0.053462 -0.004680 -0.003689 -0.006229 0.007187 -0.019746 -0.004094 -0.012838 0.000247 -0.001024 0.004463 -0.007610 0.054486 -0.017704 0.000174 -0.045120 -0.001359 0.037827 -0.004569 -0.044640 -0.000782 -0.021775 0.068781 0.048796 -0.000705 -0.011425 0.031960 0.031127 -0.001937 -0.063041 -0.009785 -0.039940 -0.061386 -0.020659 -0.003120 0.017718 -0.059551 -0.007252 -0.010482 0.059041 0.006265 -0.031765 0.016901 -0.034492 0.014723 -0.046462 0.055200 0.004753 0.035949 0.013835 0.007010 -0.042467 0.009103 -0.031698 -0.023439 -0.014945 -0.057301 0.042918 0.002128 0.014479 0.077612 0.047513 0.040527 0.035909 -0.065488 -0.010529 0.026564 -0.010193 0.026290 -0.010623 0.024338 -0.028817 -0.036947 0.029008 0.002683 -0.037434 0.046445 -0.019705 0.035666 -0.067254 0.006186 0.109611 0.005560 0.001196 0.023327 0.005467 -0.041301 -0.035362 -0.008210 0.011296 0.006296 -0.008577 0.013982 0.018482 0.019477 -0.013794 0.009765 0.044660 -0.007698 0.020295 -0.003109 -0.053982 -0.006484 0.024897 0.042417 -0.007786 -0.010330 0.024524 -0.002956 -0.015501 0.011684 0.000852 -0.016793 0.045725 -0.021446 0.036214 -0.017990 0.015244 0.030950 0.051536 0.040426 0.034259 -0.023337 -0.041624 0.011984 0.024744 0.018628 -0.067948 0.047671 -0.020951 0.007031 0.014209 -0.014589 0.038000 0.066489 -0.016959 0.033926 0.006589 0.079777 -0.004777 0.007754 -0.091314 0.021789 0.011050 -0.027035 -0.012907 0.022002 -0.037140 -0.010214 -0.033215 -0.053274 0.004364 -0.012702 -0.049694 -0.047241 0.085431 -0.000643 0.058934 -0.013377 0.017697 0.016955 -0.015728 -0.002386 -0.005381 -0.020028 0.011457 -0.027043 -0.006974 -0.013584 0.010308 -0.049699 0.017195 -0.024359 -0.077034 -0.007176 -0.047935 -0.042009 -0.062989 -0.002728 -0.035133 -0.022604 -0.002326 -0.030139 0.026970 0.073905 0.032303 -0.050408 0.006787 -0.002287 -0.003078 -0.025381 -0.018650 -0.020758 0.013209 0.002711 -0.054191 0.005162 -0.034875 -0.036460 -0.036544 -0.000707 0.030161 0.044533 0.025631 -0.032945 -0.007877 0.054898 -0.006221 -0.012113 0.032579 0.001425 0.033754 -0.030692 0.012620 -0.015200 0.045121 -0.030759 0.006381 0.020182 -0.021809 0.000645 0.042949 0.024752 -0.058855 -0.032802 -0.010240 0.019553 -0.018019 0.003983 -0.010351 0.026044 0.021126 -0.038433 -0.007379 0.028361 0.033597 -0.004035 0.021211 -0.009276 -0.013977 0.031827 0.038674 0.036704 0.007690 0.020214 -0.012649 0.004486 -0.007016 0.018124 -0.022020 0.019816 -0.026932 -0.015943 0.046821 -0.019181 -0.019975 -0.024465 -0.026116 -0.021057 0.026408 0.023665 0.026126 -0.043113 0.049760 0.041693 -0.013138 0.057083 -0.019352 0.009384 0.010509 0.020957 0.021194 0.019104 -0.037271 0.052750 -0.003897 0.007805 -0.039629 -0.006096 -0.012989 -0.021741 0.043977 -0.002103 -0.005031 -0.026071 -0.011196 0.006116 0.027685 -0.007330 0.008476 0.017119 -0.005153 0.008219
3 0.045759 -0.004065 -0.027329 -0.017651 0.038097 0.060531 -0.041933 0.001797 0.037976 0.014131 -0.034674 -0.020531 0.012306 -0.010835 -0.011414 -0.037256 -0.010010 -0.032412 -0.033230 -0.010351 0.003930 -0.032795 -0.024734 -0.034576 -0.036558 -0.074096 0.032073 -0.015904 0.017043 0.012375 0.008016 0.023853 0.014505 -0.055687 -0.011033 0.065654 0.039889 0.003945 -0.000463 -0.000778 0.001931 0.032110 0.052363 0.041981 0.021310 0.038398 0.000299 0.005877 0.052739 -0.008006 -0.011407 -0.008258 -0.045404 -0.012779 -0.054417 -0.008153 -0.001016 -0.012045 -0.036928 -0.003657 -0.030199 -0.068542 0.000399 0.048992 0.022831 -0.083734 -0.022493 0.074923 -0.020457 -0.012326 0.019969 0.017680 0.026007 0.021865 0.000252 -0.018075 0.015428 0.003891 0.045285 -0.033678 -0.023315 0.038626 0.021501 0.038122 -0.053513 0.034123 -0.017949 -0.014161 0.027536 -0.010422 0.008555 -0.011141 -0.006075 0.025437 -0.023284 0.067861 -0.050958 0.034631 -0.034514 -0.008835 0.024892 -0.008138 -0.006651 0.056425 0.014402 -0.048041 -0.003883 -0.003082 0.066549 -0.023034 0.007877 -0.019453 -0.006878 0.027498 0.020269 0.057999 -0.004124 -0.006715 0.027923 0.012287 -0.012997 -0.011260 -0.029457 0.000310 -0.005641 0.053723 0.015390 -0.039044 0.011471 0.012285 0.050326 0.017301 -0.028384 -0.001006 -0.004159 -0.023527 -0.031923 -0.011785 -0.018953 0.051977 -0.011993 -0.050126 0.000252 -0.020622 0.001599 0.017915 -0.008879 -0.045069 0.042600 -0.012358 -0.007635 0.018843 0.062165 0.034526 0.018783 -0.001277 -0.004713 -0.023085 0.008099 0.002011 -0.030559 0.016711 -0.024373 0.020222 0.037837 0.006887 0.020745 0.045842 0.001804 0.009199 -0.042789 0.003176 0.047399 0.043478 0.001961 -0.043904 0.029310 0.055226 -0.017968 0.010470 -0.004157 0.009700 -0.000775 0.000696 -0.015795 0.013365 -0.034457 0.015102 0.017373 0.045056 0.024477 0.019463 -0.007315 -0.018928 -0.018419 0.048536 -0.043519 -0.003736 -0.011565 -0.002385 -0.013372 -0.013890 -0.019817 -0.032677 -0.001732 -0.006736 0.006845 -0.026165 -0.031775 0.009338 0.030272 0.041002 0.021174 0.015191 0.015849 -0.010681 0.007564 0.030230 -0.080941 0.004709 0.057428 -0.035155 -0.016165 -0.011535 -0.029664 0.034537 -0.012031 0.060813 -0.009225 -0.004651 -0.011638 0.011761 -0.067015 -0.037764 -0.004312 0.029368 -0.032533 -0.007707 -0.012251 -0.008361 -0.000922 -0.047619 0.008255 0.003758 -0.025971 0.010936 0.087765 -0.002018 0.028082 0.024934 0.016758 0.021860 0.032684 0.004368 0.024370 -0.028363 0.019876 -0.021634 -0.021091 -0.011074 -0.060791 -0.040919 -0.013246 -0.006771 0.012477 -0.016397 -0.004714 -0.030392 -0.009563 0.001696 0.017157 0.000894 0.000598 -0.045243 0.054958 0.032964 0.012027 -0.035990 -0.026264 -0.003895 -0.025828 -0.061969 -0.012191 0.033519 0.007992 0.030988 -0.035957 0.018808 -0.038546 -0.058087 -0.029019 0.027101 -0.007993 -0.006951 -0.016089 0.015468 0.044530 0.019855 -0.034305 0.027676 -0.002016 0.023352 0.021917 -0.002289 0.028039 0.010755 0.015899 0.012820 -0.061327 -0.034757 0.018444 0.020654 0.093574 -0.017472 -0.058843 0.020314 -0.035082 -0.001956 -0.016887 -0.014722 0.018829 0.021959 -0.033096 -0.023474 0.017238 -0.020591 0.027684 0.015122 -0.030128 0.025024 -0.039222 0.009646 0.079036 0.016989 0.008326 0.046248 -0.036975 0.009316 -0.006887 -0.013268 0.037563 0.016054 0.018421 -0.018105 -0.029799 -0.050965 -0.024054 0.018065 -0.010936 -0.017473 0.051567 0.012040 -0.000032 -0.024949 -0.009032 -0.007718 -0.006196 0.054507 0.027066 -0.015531 -0.028577 0.037120 0.023129 -0.025240 -0.006341 -0.009335 -0.000363 -0.012192 0.044299 -0.031315 -0.021609 -0.033387 -0.002149 0.058013 0.024788 0.009556 0.030441 0.013479 -0.020078 -0.021942 -0.015500 -0.007485 -0.045576 -0.010215
4 -0.002093 0.002557 -0.031485 -0.030193 -0.038325 0.056003 -0.023124 -0.021757 -0.016306 0.009433 -0.038449 0.007746 0.011983 -0.024876 0.001318 -0.012197 0.043264 -0.055478 -0.036690 -0.051251 0.039727 -0.000056 0.021074 0.014094 0.020896 -0.015171 0.057747 -0.015067 -0.044950 -0.002384 -0.003726 -0.066962 -0.008986 -0.024671 -0.006063 0.046777 0.016159 0.000209 -0.009901 0.021938 -0.017333 -0.011996 0.005386 -0.042026 -0.031156 0.020523 0.020983 -0.017793 0.000155 0.011170 0.004539 0.013012 -0.038966 -0.037247 -0.022168 0.000049 0.014332 -0.065763 0.044906 0.022975 -0.020500 -0.032033 0.013513 -0.014105 -0.057879 -0.063314 0.021632 0.003986 -0.059658 0.011047 -0.022358 0.022005 0.033657 -0.002620 -0.029507 -0.034953 0.008366 -0.043835 0.033151 -0.017023 0.035506 0.027003 0.008596 0.014802 -0.039080 0.031719 0.020494 -0.019397 -0.003542 0.002650 -0.003216 0.013441 0.005502 0.048611 -0.007134 -0.002800 -0.037816 0.046045 0.025783 0.034626 0.051673 -0.027954 -0.043117 0.090370 0.034969 0.023003 0.021729 -0.005683 0.040778 -0.030451 -0.027016 -0.036901 0.006909 0.028282 0.053565 0.011883 -0.013442 0.001385 0.011375 0.007284 -0.016703 0.025867 0.033028 0.042582 -0.014724 0.026551 0.039841 0.003304 0.025548 -0.020253 0.031927 -0.026086 0.013729 -0.038917 0.026578 -0.033601 0.003653 -0.000631 0.021315 0.025379 -0.040351 -0.015268 0.003505 -0.005796 -0.041874 -0.018409 -0.017283 0.012431 0.061004 0.011191 -0.032873 0.026108 0.048760 0.028664 -0.009180 -0.001806 0.002530 0.010171 -0.027581 0.013034 -0.039927 0.027567 0.022630 -0.016637 0.005905 0.024620 0.003779 0.027333 -0.020867 -0.038811 0.007869 0.009276 0.036395 -0.041999 0.004615 -0.008336 -0.010335 -0.014067 0.027960 -0.056295 0.007550 -0.033905 0.034832 -0.005644 -0.023905 0.032539 -0.002806 -0.014455 0.040820 0.023013 0.005408 0.031063 0.011811 -0.005749 -0.017454 0.034618 -0.010801 0.017407 -0.020759 0.012837 -0.021924 0.015314 -0.044653 0.011063 -0.032607 -0.030066 0.017758 -0.022326 -0.003671 -0.016320 0.012380 0.018089 0.021904 0.017253 0.038684 -0.038094 0.050190 -0.012026 -0.068834 -0.016297 -0.033843 -0.009464 -0.016406 -0.040023 -0.037044 0.079573 0.036547 0.020590 -0.010332 0.000430 0.026045 -0.029650 -0.069161 -0.048479 -0.018008 0.031672 -0.002580 -0.022984 0.003046 0.000498 -0.007029 -0.038289 -0.012210 0.021930 -0.012386 -0.035537 0.006902 0.015596 -0.014314 0.017144 0.083134 0.017542 0.022044 0.029319 0.034325 -0.001022 0.011069 -0.061514 0.021058 -0.026390 0.045150 0.013122 0.002803 -0.054384 -0.015179 -0.020377 0.031191 0.005221 0.014531 -0.024654 0.020749 0.032895 0.040462 -0.023802 0.056683 0.036091 0.018629 -0.052650 -0.022197 0.045773 -0.035061 -0.094824 0.010648 -0.032252 -0.006189 0.005417 -0.015364 -0.015588 -0.039532 -0.017734 -0.013985 0.027506 -0.049939 0.000324 0.014665 0.009710 0.040163 0.003551 -0.043925 0.041600 0.025631 -0.007536 0.057857 0.015760 -0.010664 0.004111 -0.062949 0.031542 -0.044953 -0.015486 -0.023834 0.048026 0.016126 0.008795 0.000619 0.042139 -0.049788 -0.006453 0.013636 0.009187 -0.011170 0.049008 -0.037687 -0.025652 0.015304 -0.009425 0.014649 0.026803 0.018888 0.009645 0.016433 -0.035615 0.014493 0.045196 -0.009934 0.014844 0.013080 -0.003609 -0.027123 -0.005075 -0.017903 -0.001098 -0.023200 -0.074969 -0.039129 -0.021811 -0.054809 -0.023975 0.033630 -0.008485 -0.005415 -0.011924 -0.007043 -0.014214 0.021077 -0.006117 0.035401 0.019161 0.043554 0.046009 -0.022745 0.050353 -0.002291 0.027112 -0.042977 -0.038730 0.016518 -0.038426 -0.010859 -0.054696 0.022431 -0.034580 0.029771 0.032746 -0.023256 0.011720 -0.009811 -0.001363 -0.006403 0.031131 -0.014704 -0.000556 -0.021371 -0.025162
5 -0.024764 0.034468 -0.010913 -0.020718 0.040295 0.031670 -0.004185 0.021167 0.018281 0.043436 -0.056143 0.003255 -0.058838 0.007984 0.011357 0.007585 0.015861 -0.007161 0.018351 0.010844 -0.003843 -0.017338 0.011242 0.013188 0.010896 -0.005375 0.016943 0.001503 -0.023803 -0.046463 0.007190 -0.078645 -0.027332 -0.011051 -0.035374 0.004013 0.007629 0.010394 -0.012968 -0.007639 -0.001885 0.006653 -0.051490 -0.063090 -0.002053 0.012896 0.022749 0.034337 0.038545 0.061031 -0.021366 0.028998 0.041388 -0.016367 -0.028399 0.010161 0.000277 -0.086738 -0.001612 0.023804 0.031191 -0.013030 0.001040 0.020987 0.021400 -0.067297 -0.021069 0.007541 -0.019431 -0.005439 0.037973 0.069305 0.032082 0.009510 -0.003200 0.016473 0.009491 -0.007542 -0.018755 -0.008699 0.017694 -0.042039 0.025148 0.023006 -0.038682 0.014681 -0.002015 -0.004748 0.040016 -0.004279 -0.065321 0.024624 0.045859 0.005155 0.026909 0.065268 -0.042713 0.033232 -0.041259 0.016540 0.019662 -0.007561 -0.001707 0.077033 0.027120 0.017710 -0.041805 -0.001162 0.008207 0.010099 -0.017823 -0.017289 0.012346 0.004751 0.029537 0.052148 -0.009261 0.002671 -0.023087 -0.002056 0.012941 0.003846 0.004083 0.035357 -0.038991 0.001591 -0.002325 0.008495 0.021731 0.021872 0.013572 -0.017690 0.007265 0.029323 -0.017719 0.008280 0.015253 -0.021219 0.008359 -0.026207 -0.047232 0.007734 -0.013237 0.030056 0.024119 -0.051835 -0.023585 -0.056356 0.042958 0.044464 -0.044734 0.004917 0.039678 0.037326 -0.001086 0.033975 -0.019923 -0.036754 -0.005472 0.035126 -0.026173 0.009036 -0.052800 -0.001898 0.010373 -0.010809 0.000866 0.052601 -0.050856 0.014318 -0.040000 -0.042355 0.031680 -0.029501 -0.003914 -0.008271 0.007650 -0.053361 0.016397 0.016397 0.017403 0.026388 -0.017283 0.007573 -0.029716 0.050310 0.030390 -0.027007 0.024376 0.038364 0.016001 -0.018087 0.007151 -0.001472 -0.035288 0.010792 -0.035838 -0.026899 0.013531 0.025445 0.010538 0.023079 -0.014494 -0.007489 -0.013567 0.019107 -0.027035 0.001951 -0.000937 -0.023800 0.002193 0.071209 -0.010626 -0.002853 0.010140 0.000104 0.032204 -0.004633 -0.046046 -0.020162 -0.013326 0.003993 0.008849 -0.025393 -0.022624 0.037192 0.032321 0.015202 0.012709 -0.047833 -0.061266 -0.028887 -0.007751 -0.088122 -0.012970 0.059905 -0.043153 0.041699 -0.045601 -0.017110 0.026198 -0.041824 -0.027707 0.015629 -0.000068 -0.025159 0.022751 0.047300 -0.033566 0.030547 0.016348 -0.014536 -0.019196 0.010665 -0.005012 0.001321 0.008521 0.030967 -0.009913 -0.040831 0.000787 -0.011447 -0.007343 -0.049425 -0.064136 -0.045386 0.002052 -0.009368 -0.035610 -0.009656 0.022380 0.023831 0.007454 0.027140 -0.005718 0.023149 0.035565 -0.038511 -0.015536 0.030162 -0.012292 -0.054090 0.016534 0.001902 -0.002518 -0.007490 -0.018431 -0.000279 -0.016076 -0.023464 -0.044208 0.007874 -0.001565 -0.022325 0.001075 -0.018522 -0.000062 0.009641 -0.064973 0.053446 -0.001222 -0.015974 -0.022590 0.003692 -0.019908 -0.008655 -0.001465 -0.018513 0.010015 -0.007009 -0.040781 0.025518 -0.022132 0.012082 -0.069530 0.030319 -0.002397 -0.057309 0.054468 -0.000410 -0.007846 0.060578 -0.013542 -0.016466 -0.011666 0.020785 0.041027 -0.028682 -0.021477 0.028551 0.022892 -0.006772 -0.007318 -0.012335 0.024734 0.034799 0.018164 -0.007170 -0.014641 -0.017465 0.011216 -0.017028 0.028928 -0.031856 -0.036602 0.003966 0.012503 0.009772 0.034560 0.020031 0.018845 -0.017413 -0.031799 0.018423 0.010806 0.034018 0.025398 0.050590 -0.000944 0.032965 -0.021547 0.033212 -0.010420 -0.036730 0.006623 0.017652 -0.036475 0.023189 0.013000 -0.002314 0.009316 0.032893 0.015428 -0.009649 0.000545 0.026896 0.012277 0.007247 -0.027889 0.028052 0.000663 0.003813 0.005762 -0.034410
6 -0.007915 0.000926 -0.013862 -0.037887 0.057258 0.023911 -0.008175 -0.006638 -0.014924 0.017068 -0.030250 0.012321 0.009146 -0.016554 -0.054120 0.031743 0.010036 -0.017557 -0.047103 -0.012375 -0.001216 0.022982 -0.031927 0.006054 0.021799 -0.016844 0.018437 -0.004817 -0.015001 -0.011571 0.018585 -0.056988 -0.023991 0.007450 -0.022421 0.026581 0.023545 0.022202 0.040335 0.003874 -0.002753 -0.022606 -0.004899 -0.003229 -0.004283 0.006730 0.022562 0.016732 0.009170 -0.042970 -0.004424 -0.013066 0.029356 0.043342 -0.042509 -0.019842 0.040841 -0.031077 0.004096 -0.010095 0.039827 -0.012018 -0.024692 -0.004695 0.014466 -0.003095 0.035276 -0.038193 -0.030033 -0.036692 0.048723 0.029460 0.022368 -0.048395 0.013893 0.017739 0.018489 0.037540 -0.039404 -0.056365 0.030933 -0.041671 -0.011425 0.007816 0.037162 0.001394 0.046536 0.004006 -0.034846 -0.022836 -0.029207 -0.017794 0.027872 0.045298 0.011827 0.014467 -0.003418 0.033262 0.007496 0.031111 0.010503 -0.002477 -0.003653 0.057614 0.014723 0.031440 -0.031385 -0.020277 -0.005719 0.017759 0.031150 -0.073159 -0.005710 0.022745 0.007410 0.031498 0.034504 -0.011713 0.039805 0.012192 -0.053508 -0.004627 0.009933 0.013428 -0.061249 -0.008784 -0.010938 0.030827 -0.037190 -0.041450 0.019696 -0.012052 0.026112 -0.035590 -0.000613 -0.044242 0.016489 0.014370 -0.002067 -0.041688 -0.048873 0.001979 -0.009070 0.021320 -0.017326 -0.043809 0.004148 -0.010760 0.004593 0.040605 -0.034885 0.029600 0.044114 0.047074 -0.008283 0.034271 -0.001379 0.007591 -0.031934 0.016009 -0.093928 0.002478 -0.076211 -0.007428 -0.028673 0.018021 0.003983 0.027664 -0.030647 -0.059523 -0.030607 -0.055572 0.023765 -0.000394 0.015611 -0.015954 -0.038036 -0.010720 -0.004296 0.034803 0.030039 0.008436 -0.004232 0.007321 -0.029914 0.021502 -0.059464 0.023101 0.029286 -0.024969 0.031839 -0.020573 0.042301 0.013788 -0.015118 -0.005523 0.030900 -0.003594 0.009218 -0.021470 0.011516 0.022739 0.004989 0.039892 0.029578 -0.019931 0.013949 -0.016872 0.036704 0.029536 -0.008867 0.051259 0.002840 -0.018808 -0.045071 0.008298 0.022574 -0.010394 -0.067677 -0.028611 -0.017449 0.031659 0.011152 -0.013694 -0.001851 0.071706 -0.001523 0.011429 -0.012306 0.032216 -0.065634 0.038555 -0.014457 -0.033065 -0.021754 0.016779 -0.007796 0.058348 -0.034527 0.018480 -0.046367 -0.028804 0.011458 0.019696 -0.004918 -0.029627 0.047633 0.045119 0.006188 0.014953 0.062088 0.025315 0.015528 -0.019743 -0.026957 -0.016123 0.043523 -0.024542 -0.001193 -0.005066 0.032240 -0.012180 -0.006841 0.039431 -0.027598 -0.046674 -0.024359 -0.054796 -0.019239 0.001846 -0.009361 -0.000907 0.020358 -0.011404 -0.008334 -0.030107 0.015337 -0.032009 -0.030695 0.013508 -0.067476 -0.025310 0.013924 0.053409 0.024190 -0.003104 0.011549 -0.003439 -0.007034 0.000736 -0.037233 0.008020 0.003217 -0.013224 -0.007281 0.006232 0.034744 0.020734 -0.003400 -0.011747 0.026608 0.036021 0.018549 0.003510 0.024380 0.036399 -0.047097 -0.048066 0.022087 0.030810 -0.014530 -0.044717 0.007582 0.031467 -0.080806 -0.010525 -0.021138 -0.055024 0.016896 -0.000776 0.035703 -0.001171 -0.016502 0.007034 -0.054434 0.049664 0.056382 0.011345 -0.028749 0.015681 -0.018135 0.042282 0.001755 -0.002146 0.027358 0.016572 0.004859 -0.031883 -0.002842 0.024861 0.009836 0.005676 -0.050700 0.032138 0.007171 0.039687 0.027639 -0.002653 -0.012411 -0.007376 -0.014396 -0.002376 -0.002373 -0.036781 0.052814 0.044269 -0.012903 -0.001435 0.031985 -0.009576 -0.025958 0.043975 0.010744 -0.028816 0.007697 -0.005131 -0.005013 0.024754 0.007651 0.000958 -0.020186 -0.006640 -0.049765 -0.005024 -0.006516 0.016912 -0.037179 0.010565 -0.019676 0.032770 0.018354 -0.003396 0.008119 -0.016161
7 0.007026 0.015255 -0.026897 0.028741 0.017916 0.011885 -0.027240 0.016141 0.051461 0.012450 0.005230 -0.040676 0.010430 0.029598 -0.026026 0.009006 -0.029256 0.008114 -0.005584 0.031435 -0.001346 -0.045440 -0.017430 0.056328 0.003106 -0.038501 0.011458 -0.021294 0.008524 -0.002277 0.025441 -0.049222 -0.018661 -0.025966 0.004061 0.063411 -0.075120 0.013807 0.029307 -0.015106 -0.071238 -0.035114 0.005005 -0.052603 -0.014868 0.003193 0.001753 -0.008158 0.014080 -0.010490 -0.010359 0.038103 0.003757 0.011430 -0.060225 -0.001323 0.003957 -0.041161 -0.037544 0.053779 -0.013258 -0.020609 -0.006084 0.038607 0.015848 -0.047894 0.000885 0.043398 0.018320 -0.012973 -0.011163 0.044427 -0.002442 -0.068077 -0.053844 0.022080 0.009858 0.021505 -0.011035 -0.056237 0.032842 0.011513 0.016734 -0.018507 0.017550 -0.002312 0.044952 0.028128 0.012284 -0.005564 0.016551 -0.034737 -0.009347 0.015283 0.014377 -0.001142 -0.013143 0.022996 -0.014652 0.030281 0.023148 0.010456 -0.002183 -0.006042 0.043958 0.036364 0.025179 -0.014404 0.020649 0.002597 -0.043784 -0.045721 -0.035221 0.045652 0.033506 0.022223 0.001038 0.025290 0.015620 0.025087 0.018581 0.036651 -0.001862 0.029119 -0.004032 -0.013998 -0.019413 -0.011267 -0.026514 0.021945 -0.028678 0.003220 -0.004900 -0.002853 -0.056751 -0.020947 -0.015994 -0.003406 0.000590 0.023916 0.003850 0.013044 -0.000816 -0.013663 0.005550 0.020340 -0.002594 -0.064288 0.026014 0.011091 0.000428 0.019352 0.038643 0.056972 -0.014391 -0.011299 -0.003898 0.017646 -0.013643 0.031920 -0.035656 0.019448 -0.082790 -0.000614 -0.030106 0.004643 -0.037765 0.046752 0.010905 -0.016984 -0.036624 -0.071372 0.059577 -0.028777 0.035958 0.017851 -0.048537 -0.042438 0.012481 0.035581 0.005874 -0.045024 -0.008791 0.022349 -0.017384 0.007961 -0.026146 -0.037754 -0.000975 -0.014090 0.011585 0.001604 -0.008501 -0.057321 0.012091 0.004657 -0.013919 -0.027530 0.020714 0.001656 0.022379 0.057124 0.034784 0.060451 0.048066 -0.005203 0.040206 -0.007986 -0.019357 0.031032 0.041213 0.010933 -0.001535 0.030927 -0.000543 -0.027945 -0.052787 -0.008346 -0.076776 -0.013304 0.032710 -0.017934 0.074815 0.005221 0.004906 0.055758 0.012452 -0.003745 -0.026181 -0.009629 -0.069505 0.035558 -0.029460 -0.048600 -0.017533 -0.012822 0.009037 0.036213 -0.015369 0.039494 -0.001219 0.001944 -0.001843 -0.023158 -0.001203 -0.007812 0.050840 0.025533 0.019866 -0.027209 0.000448 0.016697 -0.031643 0.006932 -0.034772 0.013933 0.011265 0.014800 -0.015323 0.023293 0.042264 0.001715 0.005364 0.022372 -0.044446 -0.018685 -0.035924 0.010868 0.030385 0.002757 0.023723 0.028540 0.027853 -0.016008 0.070127 -0.034985 0.009424 -0.067679 -0.024643 0.012185 -0.011729 -0.042370 -0.016915 0.027539 0.026502 0.033180 0.044559 0.006286 -0.010302 -0.008520 -0.042733 0.000440 0.008532 -0.027607 -0.008782 -0.019576 0.051889 0.010241 0.014120 0.008537 0.009565 0.012337 0.039599 0.023193 -0.031972 0.009047 -0.013567 -0.048627 -0.009520 -0.010784 0.005654 -0.017336 0.041235 0.032620 -0.061560 0.003206 0.004297 -0.035412 -0.003671 0.041802 0.028402 0.014699 -0.039853 0.000472 0.004971 0.039369 0.013504 -0.035419 -0.022839 -0.014223 -0.052072 0.042793 -0.034747 -0.016638 0.006891 -0.002979 0.024590 0.022433 -0.007394 0.000663 -0.025677 -0.005847 -0.053995 -0.007649 -0.008309 -0.015024 0.030520 -0.029015 0.047081 -0.031137 -0.018529 -0.029282 0.023073 0.007035 -0.026502 0.016418 -0.011868 -0.003272 -0.024634 -0.042414 0.031738 0.020006 0.039415 -0.036695 -0.030429 0.008761 -0.025134 0.007115 -0.037469 -0.007091 0.004598 -0.036232 -0.030154 -0.046846 0.025641 -0.031790 0.058887 -0.041908 -0.049825 -0.013954 0.003831 -0.019502 0.002654 0.011593
8 -0.031375 0.042933 -0.064394 0.013351 -0.029734 0.009995 -0.009851 -0.006284 0.032526 -0.006459 0.016195 -0.019810 0.045431 0.009314 -0.044351 -0.032448 -0.055494 0.004009 -0.055918 0.005486 0.041663 0.043947 0.027601 0.028806 -0.028522 -0.021155 0.007299 -0.061106 0.001246 0.015996 0.013342 -0.098047 0.050236 -0.019843 0.004203 0.029497 0.004837 0.008548 0.017038 -0.015101 -0.012839 -0.019591 -0.009348 -0.024795 -0.035520 0.015334 0.033546 0.015969 0.013141 -0.029086 0.014505 -0.004664 0.025920 -0.014141 -0.001365 0.015140 0.020532 0.043256 -0.008353 -0.008791 -0.034762 0.028425 -0.017805 -0.005139 0.089147 -0.043151 -0.027960 -0.008984 0.027108 0.029223 -0.041452 0.010816 0.003406 -0.041715 -0.035666 -0.019827 0.039724 0.017771 -0.047624 -0.045243 0.005293 0.052544 -0.008355 -0.027245 -0.058768 0.010248 0.011629 -0.007988 -0.023235 -0.045917 0.006928 -0.027473 0.068410 0.002529 0.015120 0.015504 0.017559 0.053799 0.022404 -0.035341 -0.001746 -0.015475 -0.011062 -0.013470 0.053262 0.008094 -0.054066 0.020878 0.002190 -0.016275 -0.019634 -0.031575 -0.051015 0.027331 0.082550 0.072568 0.038800 0.013433 0.027545 -0.053637 -0.035049 0.015603 -0.016623 0.007470 -0.021754 -0.002647 -0.034753 0.039730 0.002750 -0.041594 0.008727 0.030798 0.009552 -0.010637 -0.018788 -0.036705 -0.016145 0.010163 -0.007663 0.003688 0.011373 0.020968 -0.016661 0.013652 0.019035 0.038562 0.008438 -0.036741 0.016835 -0.015212 0.032400 -0.001088 0.001522 0.053241 0.000104 -0.030899 0.031314 0.016453 -0.060528 0.017969 -0.013079 0.036008 -0.046201 0.000826 -0.007601 0.065540 -0.005921 -0.000503 0.043615 0.002809 -0.052458 -0.014667 0.008239 -0.025932 -0.009397 0.000963 -0.031842 -0.008691 0.043598 -0.027442 0.002344 0.029671 0.044770 -0.006544 0.004822 -0.005909 -0.058848 -0.003732 -0.000894 -0.008310 -0.007530 0.042767 0.001863 -0.020039 -0.016349 0.016228 0.018243 -0.042777 0.054733 0.007501 0.013069 -0.007428 0.022335 0.018321 0.068204 0.022614 0.029234 0.027693 -0.013849 0.004041 0.005969 0.000950 0.055445 0.017734 -0.000424 -0.009944 -0.015302 -0.017321 -0.060713 0.022265 0.015578 0.002018 0.016616 -0.057117 -0.025527 0.018009 -0.040331 -0.004981 -0.019367 -0.037166 -0.022278 -0.032983 -0.035692 -0.024869 -0.045828 0.012236 -0.000891 0.020880 -0.003992 0.015746 -0.025883 -0.006952 0.010201 0.005002 -0.017622 -0.000703 0.045381 0.004452 0.043749 -0.006820 -0.010149 0.028687 0.025000 -0.009926 -0.038591 -0.023677 0.027454 -0.008706 -0.005963 0.024323 -0.041903 -0.017923 -0.041837 0.000502 -0.001818 -0.035517 -0.084618 -0.021811 0.000091 -0.036584 0.036901 0.008405 0.012543 -0.018331 0.032167 0.010331 0.040906 -0.018332 0.026998 -0.016190 -0.019583 -0.020580 -0.007688 -0.009105 0.014562 0.014810 -0.012475 0.001545 -0.004827 -0.019983 -0.009089 0.022074 0.002276 -0.038075 -0.018838 -0.007256 0.031900 0.028547 0.022610 0.040808 -0.010095 -0.026630 0.025183 0.015558 -0.003089 0.008259 -0.007464 0.020878 -0.012734 0.007231 0.009861 0.020215 -0.004713 0.053970 -0.030150 0.029863 -0.043648 -0.003483 -0.045932 0.043596 0.008247 0.030469 -0.049346 0.044081 0.031310 0.019996 -0.001941 0.018769 0.005553 0.024297 -0.014037 0.013707 -0.022174 -0.020436 0.000504 0.023055 -0.019343 0.048613 -0.013686 -0.013690 0.004119 0.004742 -0.043017 0.016510 -0.021579 0.004982 0.039501 -0.032733 -0.011828 0.014659 0.008323 0.017284 0.022585 0.021704 0.022135 0.029098 -0.003079 -0.001628 0.000073 0.004139 -0.025429 -0.010978 0.045534 -0.056119 -0.017368 0.009443 -0.001718 -0.000416 0.024050 0.003976 -0.001659 -0.016705 -0.014578 -0.035560 -0.007511 0.005868 0.005785 -0.016416 0.021162 -0.043648 0.018220 0.017672 0.036869 -0.031046
9 -0.002351 0.054455 -0.038565 0.008559 -0.040264 -0.016722 0.020510 0.028477 -0.008043 0.039128 0.055811 0.036982 -0.028082 0.006474 -0.024065 -0.012878 -0.021679 0.002918 -0.031392 0.048239 0.037929 0.000541 0.010897 0.010466 -0.013690 -0.069452 0.022752 -0.007421 0.025360 0.046000 -0.020478 -0.023604 0.027172 -0.018336 -0.019554 0.000807 -0.005436 0.040390 -0.030061 -0.002295 -0.022098 -0.031796 -0.033552 0.014339 -0.012827 0.022239 0.019929 0.026075 0.030589 -0.010550 -0.005013 0.021490 -0.008248 -0.003701 -0.027000 0.015666 -0.026733 -0.017383 0.001671 0.006060 -0.019390 -0.003241 -0.019928 0.031824 0.008908 0.017954 -0.015825 -0.020595 0.013505 -0.008181 0.009792 0.028137 -0.000880 -0.005616 -0.027249 -0.031810 0.030479 0.002860 0.055305 -0.000025 0.000610 0.025139 -0.036336 -0.004946 -0.046661 0.033443 0.005934 -0.031384 -0.012067 -0.053832 0.037881 -0.065609 0.046368 -0.021285 0.025201 -0.019323 -0.049165 0.040028 -0.013131 0.035146 0.047996 0.005299 -0.020705 -0.010343 0.019601 0.047071 -0.001838 0.004604 -0.038088 -0.037114 -0.031938 0.016602 -0.035330 -0.001402 0.045486 0.010616 -0.033061 0.001111 -0.015698 0.002528 -0.020657 -0.070609 -0.000099 0.017873 0.013434 0.017782 -0.017586 0.006207 0.030562 -0.010032 0.009625 -0.023056 -0.024143 -0.021490 0.000490 0.002557 -0.035058 -0.023510 -0.033923 0.021409 0.001044 -0.017602 -0.022618 -0.017828 -0.007820 0.017244 -0.025211 -0.058300 0.026958 0.008409 0.014467 0.029981 0.020408 0.017192 -0.008935 -0.029102 0.066481 0.005490 -0.004686 0.022625 -0.045338 0.056303 -0.078834 -0.004968 -0.032491 0.017340 0.032791 0.004248 -0.001273 0.006684 -0.018060 -0.048087 0.023017 -0.039766 0.009518 0.009565 -0.022495 -0.025214 0.032923 -0.029172 0.003408 0.049519 0.026562 -0.023376 -0.004827 0.021876 -0.037736 -0.025046 0.028171 0.047018 -0.019841 -0.032017 -0.008038 -0.028160 0.017924 -0.011439 0.016027 0.021692 0.029233 0.057341 -0.015698 -0.001890 -0.048137 0.006448 0.022518 0.039196 0.015037 0.028489 0.005419 0.011250 0.010865 0.001241 0.000278 0.025381 -0.001942 -0.013155 -0.012325 -0.007114 -0.067197 0.055595 0.012571 0.005165 -0.031692 -0.017833 -0.058055 0.066879 0.021099 0.033471 -0.015302 -0.019324 -0.024130 0.006481 -0.035265 -0.028594 -0.022178 -0.004631 0.007176 -0.009956 0.012315 0.004880 0.002593 -0.010402 -0.036544 -0.018569 0.008019 -0.009447 0.060338 -0.026612 0.020156 -0.039780 0.006593 0.047767 -0.004869 0.009106 -0.033471 -0.010985 -0.025249 -0.011549 -0.001704 0.022615 -0.009396 -0.001801 -0.022056 -0.002847 -0.016210 0.025857 0.005383 -0.004493 -0.024127 0.009757 0.027413 0.021746 -0.001272 -0.003062 0.018134 -0.025371 0.070993 -0.003408 0.013813 -0.034499 -0.036351 -0.058357 0.029696 -0.028549 0.022938 0.030559 0.034847 -0.033156 -0.040181 -0.013355 -0.011677 -0.013752 0.028697 -0.011085 0.013013 0.053176 0.046674 0.033395 0.053154 0.002056 -0.012662 -0.016055 -0.009029 -0.015131 -0.018963 0.015144 0.041840 -0.014130 0.030177 0.025475 0.005208 0.061130 -0.035433 0.025108 0.002271 -0.025827 -0.024719 0.052646 -0.011013 0.008032 0.012675 0.013035 -0.004322 0.024817 -0.015921 0.006156 0.028601 -0.005729 0.045644 0.033444 0.007197 0.050188 0.011807 0.012986 0.020003 -0.009164 0.012035 0.058268 0.033033 0.039325 0.030049 0.010543 -0.019397 0.028526 -0.033996 -0.040543 0.016590 0.047789 0.016501 0.027456 -0.002126 0.000226 -0.023698 -0.019951 0.030762 0.007626 0.015384 0.030765 0.032417 0.003710 0.011611 0.003120 0.015297 -0.047281 -0.088232 0.009790 -0.011625 -0.017207 0.028615 -0.022871 0.018247 -0.019556 0.004761 -0.074379 0.019780 0.005346 0.003660 -0.015831 -0.018874 0.017097 -0.005593 0.001889 0.020309 -0.024632
10 -0.013588 0.056138 -0.080493 -0.009442 0.010393 0.020220 0.027504 0.004580 0.034920 0.023094 0.016333 0.030982 -0.014800 -0.032838 -0.019595 0.016437 -0.061650 -0.023423 0.008114 0.009714 0.033991 -0.036229 -0.001864 0.032561 -0.002834 -0.073938 0.011707 0.028463 -0.016487 -0.016445 -0.021808 -0.006890 0.037534 -0.027814 -0.037077 -0.007810 0.012903 0.041691 0.055699 0.008831 -0.003945 0.007473 -0.001788 0.005304 0.003177 0.021821 0.048953 0.042236 0.023685 0.044588 0.007092 0.002334 -0.005134 0.004923 0.015780 0.003061 -0.044921 0.005521 0.046380 0.002047 -0.071996 -0.014948 0.001985 0.021868 0.015061 -0.002184 -0.024884 0.005037 0.026385 -0.019067 -0.011885 0.014061 -0.012085 -0.043032 0.006081 0.029658 0.026961 -0.004848 0.005008 -0.000837 0.044758 -0.036218 0.004590 0.006777 -0.012022 -0.007901 0.012874 0.000769 -0.037068 -0.050442 0.038679 -0.009575 0.040025 -0.037227 0.027719 0.018768 0.000308 0.042478 -0.024920 0.015826 0.005297 0.007792 -0.013577 -0.019237 0.022767 0.001431 0.049774 0.006819 -0.008926 0.006066 0.018476 0.006994 -0.008417 0.001315 0.019447 0.020394 -0.032178 0.004535 -0.003285 -0.030345 -0.036459 -0.029458 -0.031728 0.042475 -0.014711 0.056186 0.030343 -0.018128 -0.001105 -0.048951 0.023156 -0.037281 0.045874 0.000851 -0.042563 -0.027075 -0.044658 0.011332 -0.006134 0.047661 -0.020865 -0.022248 0.012212 -0.009561 0.013230 -0.002913 -0.018158 0.039361 0.050898 -0.010596 0.037028 0.076616 0.062503 -0.052098 0.029647 -0.026774 -0.026939 0.036912 -0.010186 0.000095 -0.034046 0.049794 -0.075068 -0.013008 0.036734 -0.015202 0.039902 0.012912 -0.042189 -0.006449 0.008806 -0.020574 -0.016565 0.012688 0.027037 -0.046867 0.016709 0.001020 -0.012451 -0.003336 0.027812 0.014957 0.050443 0.028839 -0.008072 0.008673 -0.037919 -0.024044 -0.004625 -0.000327 0.004472 -0.023629 0.024317 -0.007165 -0.007915 0.003860 0.026004 0.020388 0.017534 -0.012941 -0.009371 0.016539 -0.027523 0.004783 0.009097 0.004437 -0.023814 -0.049996 -0.033346 0.030795 0.012615 -0.010540 -0.042528 0.058053 -0.013252 -0.044258 0.015565 -0.034699 -0.029505 0.001073 -0.040629 0.010365 0.026350 -0.011758 -0.005699 0.044329 -0.001024 0.025666 -0.017621 -0.014966 -0.007008 -0.000320 -0.043690 -0.024607 -0.000821 0.017852 -0.017673 -0.063450 -0.029825 -0.008288 -0.002805 -0.008810 -0.026787 0.031321 0.006740 0.019731 0.034986 -0.026893 -0.024507 0.028680 0.037147 0.010090 -0.018517 -0.015979 -0.014670 -0.037649 -0.006105 -0.049334 0.002481 0.014757 -0.018352 -0.021536 0.026733 0.000270 -0.018394 0.001171 0.004723 -0.038688 -0.039676 0.014227 0.006442 0.004515 -0.042324 0.002240 0.029063 -0.000460 0.001482 -0.010265 0.009916 -0.032609 -0.065208 -0.037086 -0.003743 0.004506 -0.009409 -0.052228 -0.008409 -0.051702 -0.070624 -0.085602 -0.016058 0.017423 -0.014779 -0.036165 -0.027395 0.027504 0.046773 0.013873 0.018714 -0.007745 0.022089 -0.011359 -0.038031 -0.032135 -0.003168 0.039826 0.016789 0.023060 0.011388 0.012486 -0.000642 0.062765 -0.022535 0.003215 0.024110 -0.002040 -0.036404 0.019233 0.030205 0.014824 0.014002 0.022461 -0.023971 0.028700 0.001852 0.024226 -0.031677 0.016026 -0.015897 -0.022417 0.003233 0.015360 -0.005274 0.008239 0.013639 -0.001370 0.006748 0.036796 0.010836 0.002649 -0.000015 -0.008548 -0.017086 0.019789 -0.008255 -0.031795 -0.047200 0.017723 0.007724 0.007908 0.025075 0.004490 0.000969 0.015095 0.019327 -0.004259 0.016104 0.045678 0.009878 -0.039847 -0.019286 0.002980 0.017078 -0.022320 -0.014212 -0.034935 0.023706 0.009043 -0.007719 -0.035300 0.012969 -0.003935 0.037491 -0.066598 -0.004360 -0.020189 0.042143 0.052107 0.061051 0.000399 -0.023521 0.024624 -0.010135 0.023033
11 0.023032 -0.026706 -0.018288 -0.029317 0.007958 -0.012452 0.017961 -0.013544 -0.022834 0.019936 -0.014134 -0.012992 0.046707 -0.001190 -0.048142 -0.019597 0.005807 0.019896 0.010863 -0.039896 0.064498 -0.068896 -0.008770 0.038006 0.006390 -0.021890 -0.034040 -0.020540 -0.040528 -0.029723 -0.003808 0.029595 0.025797 -0.057880 -0.033246 -0.031123 -0.019035 0.020106 0.034544 -0.019659 -0.008642 0.012697 -0.014038 0.023609 -0.004857 -0.023964 0.063410 0.039344 0.018296 -0.007624 -0.011918 0.030822 0.050638 -0.016734 -0.027276 -0.060051 -0.013493 -0.022657 0.068133 0.012416 -0.043491 0.011166 0.000756 -0.019593 -0.023012 0.019889 -0.045025 0.044533 0.046783 -0.027041 0.016635 0.029677 0.027357 -0.008801 -0.019260 0.065933 0.028588 0.015628 -0.006903 0.031299 -0.018422 0.023396 0.006236 -0.022046 0.004186 0.005636 -0.021360 0.031678 0.007948 -0.000319 0.015967 -0.005359 0.000361 -0.014914 0.028752 0.027166 -0.035010 0.064462 -0.044272 0.004522 0.028648 0.041982 0.026175 -0.018269 0.020292 -0.008097 -0.036408 0.022055 -0.005257 0.002820 0.027589 -0.004541 -0.015395 0.001781 -0.003325 0.037973 -0.030033 0.003063 0.030083 -0.014411 -0.052736 -0.018953 0.030244 -0.006384 -0.004536 -0.009932 0.046379 -0.040303 0.016896 -0.019057 -0.005777 -0.029786 0.014189 0.011392 -0.040171 0.000329 -0.012109 -0.003369 -0.003108 0.029260 -0.061276 -0.014538 -0.033845 -0.031749 -0.010153 -0.042650 -0.034312 -0.012974 0.071756 -0.040185 -0.004865 0.045983 -0.014688 -0.034016 0.033842 -0.001031 -0.027552 0.056032 -0.021702 0.032320 -0.027965 0.005626 -0.074645 -0.011839 -0.009407 0.014717 0.023154 -0.007169 -0.011047 0.014141 -0.025290 -0.046587 0.017769 0.023600 0.045776 0.024748 -0.041745 -0.018733 0.001754 -0.040294 -0.026405 0.022206 0.050680 0.032702 -0.003815 0.003188 -0.032316 -0.014761 0.045941 0.009076 -0.003634 0.006820 0.024030 0.003471 0.003622 -0.000568 0.001114 -0.005261 0.034342 0.017535 0.021190 -0.015052 0.024467 -0.008812 -0.014333 -0.002706 -0.029009 -0.004552 -0.004703 0.022284 -0.020030 0.005228 -0.012721 0.001390 -0.012548 -0.003997 0.002910 0.007638 -0.034392 -0.025136 -0.040118 -0.022079 -0.019831 0.014572 -0.022364 0.034911 -0.012220 0.034119 -0.002457 -0.009861 -0.030412 -0.036487 -0.051318 0.035428 -0.039271 0.004475 0.017775 -0.017260 0.002394 -0.033175 -0.047882 0.040307 -0.018506 0.018935 -0.010571 -0.036610 0.014460 -0.050907 -0.016167 -0.018434 0.046104 0.014930 -0.004006 0.025201 0.003295 0.039097 0.007390 0.002026 0.010694 -0.021813 0.037555 -0.006372 0.039267 0.008029 -0.032050 -0.024247 0.011045 -0.026814 -0.064811 -0.009693 -0.033161 -0.042981 -0.011797 -0.019319 0.025980 0.005441 -0.006753 -0.003050 0.011304 0.015441 -0.003057 0.023554 0.047519 0.013884 0.020926 -0.006549 0.002445 -0.031781 -0.063189 -0.033971 -0.043080 0.020661 -0.028030 -0.029903 -0.001213 -0.031802 -0.001476 0.013719 -0.023978 0.003390 0.028549 -0.033955 -0.024637 -0.003580 0.012818 0.027054 -0.028714 0.066590 0.033557 0.021614 -0.023663 0.000685 0.016706 -0.029553 0.001369 0.002022 -0.004175 -0.029406 0.044593 -0.007760 0.015279 0.013270 -0.008348 -0.010411 -0.011238 0.000720 0.023733 -0.024340 -0.001928 0.006148 0.000710 0.037025 0.012243 0.025106 0.020029 0.029275 0.033087 0.012240 -0.013251 -0.027658 -0.022836 0.001020 -0.017073 0.013135 -0.004094 -0.016939 -0.010317 -0.006728 0.025225 0.008972 0.014175 0.033932 0.008144 -0.013378 0.016905 -0.001304 0.006084 0.008636 0.008481 -0.039894 0.029021 0.012136 0.007109 0.019431 -0.007340 -0.025853 -0.019810 -0.003813 0.014567 0.012656 0.007225 -0.000956 0.020188 -0.048284 -0.018214 0.042085 -0.003089 -0.020591 0.078401 -0.001078 -0.024030 0.040213 -0.004955 -0.024558
12 0.025367 -0.043512 -0.008997 -0.028335 0.014335 0.028026 -0.012891 0.033563 0.007359 -0.015054 -0.012881 0.016157 -0.028819 0.014559 -0.025944 -0.008637 -0.018747 0.033862 -0.026210 -0.039606 0.016426 -0.010935 0.005018 0.010324 0.012021 -0.005188 -0.036862 -0.031291 -0.048521 0.025799 0.030274 0.016581 -0.012491 -0.070911 0.005821 -0.006134 -0.012852 0.020352 -0.000222 -0.013806 -0.016351 -0.014958 0.013673 -0.008462 -0.011980 0.023148 0.017093 0.063665 -0.000827 0.033053 -0.015482 -0.015682 -0.023506 0.037144 -0.050224 -0.001450 -0.032614 0.007442 -0.001555 0.036085 0.036134 -0.020590 -0.020568 0.007153 0.032305 -0.042318 0.024693 0.011953 0.006936 -0.008521 -0.019539 -0.014544 -0.017923 -0.003690 -0.029643 0.045072 -0.011942 0.022371 -0.029928 0.010889 0.036437 0.043438 -0.036869 -0.004009 0.014412 0.000070 -0.025245 -0.011561 -0.022809 0.008632 0.062472 0.027485 -0.028921 0.035155 0.029344 -0.003497 0.007224 0.018688 0.058738 -0.011385 0.000393 0.063084 0.009800 -0.012172 -0.013411 0.000677 -0.017885 0.054884 0.039428 0.057952 -0.004917 -0.010376 -0.012005 0.002448 0.012350 0.029338 -0.015536 0.039686 0.019141 0.015236 -0.034922 0.058167 0.041474 -0.023583 -0.015660 0.019430 0.032690 -0.008378 0.028363 0.027154 -0.031280 -0.019589 -0.009910 -0.014542 0.007633 -0.013459 -0.020023 -0.002939 -0.014031 0.045646 -0.048600 -0.017077 -0.003163 -0.043319 0.033318 0.003977 -0.010371 0.023814 0.076673 -0.028843 0.026036 0.060533 0.019004 -0.007361 0.015733 -0.013881 -0.016709 0.005143 0.015144 -0.011713 -0.015371 0.014936 -0.024601 -0.009032 0.002941 -0.010897 0.008303 0.007419 -0.055284 0.000345 0.030084 -0.031515 -0.013233 0.007748 -0.013793 0.021439 0.015679 0.036527 0.023220 0.055612 0.007737 -0.000008 -0.008460 0.020113 -0.031891 -0.022008 -0.041732 0.007479 0.056023 -0.010539 0.014770 -0.001911 -0.014839 0.021753 0.000403 -0.039916 -0.019214 0.010155 -0.019948 -0.014414 -0.003301 0.025164 -0.017996 -0.016912 -0.016371 0.061527 0.004042 0.002565 0.042452 -0.034093 -0.020898 -0.015083 0.016793 -0.033503 -0.009930 0.019567 0.002630 0.011077 -0.026145 -0.026147 -0.002240 0.037760 0.025313 0.015461 -0.006197 0.026352 -0.026373 0.033520 -0.012722 -0.034736 -0.036121 0.007832 -0.039690 -0.030671 -0.032763 -0.018590 0.034988 -0.053260 0.007130 -0.022042 -0.045980 0.015523 -0.009391 0.020082 0.008894 -0.049611 0.046597 0.025803 -0.029070 -0.016551 0.045030 0.023489 0.043702 0.053774 -0.020132 0.059141 -0.004490 -0.057948 -0.000429 -0.041769 -0.018968 0.012668 0.023564 0.029653 -0.069098 0.021051 0.007510 -0.013833 -0.038267 0.008049 -0.044496 -0.025654 0.009023 -0.006458 -0.010059 0.004127 -0.002360 -0.018481 0.008565 0.016461 -0.055891 -0.013314 0.008355 0.022526 -0.033272 0.003615 -0.001756 0.012904 -0.042153 -0.004635 -0.024903 0.007595 -0.012029 -0.024149 0.028387 -0.001660 0.022262 0.039085 -0.043943 0.003332 0.042961 -0.019298 -0.015525 0.017911 -0.012576 0.026103 0.004555 0.038048 -0.026632 0.004823 -0.014980 -0.004150 0.022550 -0.022936 -0.009186 -0.021423 0.039630 -0.012065 0.033913 0.014637 -0.023000 0.003245 0.034903 0.040941 0.026923 0.008065 0.012048 -0.029702 -0.032721 -0.027823 -0.013208 0.018482 0.003339 0.040287 0.000054 0.018393 0.024456 0.021879 0.014955 -0.005589 -0.008775 -0.006239 0.030260 -0.030877 -0.036831 -0.085577 0.080223 -0.007754 -0.005321 0.006178 0.037920 -0.019494 0.029323 0.004296 -0.015841 0.010210 0.024071 -0.012106 -0.034222 -0.040639 0.019139 0.003071 0.015499 -0.033199 -0.025380 -0.038972 -0.055903 -0.012173 -0.006183 -0.033711 0.018010 -0.017453 -0.021620 -0.018084 0.021211 -0.002297 -0.018071 0.013179 0.022786 0.025881 -0.019618 0.027800 0.003390 0.010458
13 -0.001676 -0.016657 -0.031668 0.031619 -0.010230 -0.025372 -0.008028 -0.000523 0.018584 0.044917 -0.016262 0.032293 0.002767 -0.026140 0.010484 0.017972 0.006927 -0.040762 0.015265 -0.036510 0.038752 -0.012899 0.042009 -0.001803 -0.016852 -0.007308 0.009557 -0.028961 -0.037234 -0.013321 -0.003626 0.032489 0.027160 0.000461 0.040152 0.013122 0.008368 -0.006404 0.012840 -0.029216 0.017700 -0.037849 -0.012202 0.016131 -0.021653 0.002640 0.048266 0.023818 -0.012068 -0.020305 -0.002115 0.003854 -0.021867 -0.018197 -0.031413 0.012165 -0.024027 -0.024548 -0.022752 0.058927 0.026262 -0.010979 -0.047678 -0.007134 0.034369 -0.042208 -0.005945 0.013744 0.002481 -0.009391 -0.001780 -0.012707 -0.015978 0.009583 0.014039 -0.036615 0.021551 0.005248 -0.005475 -0.012662 0.001909 0.033662 0.020772 -0.015964 -0.012586 -0.001804 -0.038448 0.004501 -0.010514 -0.011780 0.009120 -0.009534 -0.027934 0.021445 -0.010424 -0.011148 -0.026538 0.014398 0.047643 0.003118 -0.019250 0.035292 0.029435 0.000587 0.024748 -0.028646 -0.051529 0.027768 0.077162 -0.026207 -0.007974 -0.007113 -0.001833 -0.010103 -0.011023 0.009054 0.019010 0.018540 0.004254 -0.018452 -0.033296 0.049299 0.012743 -0.008283 0.021181 -0.019488 0.014173 -0.032961 0.049866 0.025200 -0.033092 0.027133 0.037472 -0.014877 -0.074957 -0.016525 -0.004430 -0.001040 0.000160 0.041102 -0.024527 -0.002008 -0.032079 0.025463 0.009511 0.003777 -0.023805 0.030076 0.065017 -0.006895 0.061056 0.044280 0.003461 0.026320 0.023326 0.026292 0.030867 0.002003 0.016018 0.002403 0.010729 0.013384 -0.009141 0.007192 0.009812 -0.003746 -0.016335 0.019657 0.001911 0.011909 -0.006830 0.022660 -0.024741 -0.047947 0.027706 -0.014734 -0.004956 -0.009678 -0.003539 -0.000966 0.042104 -0.031499 0.029049 0.025117 0.029715 0.037220 -0.063276 0.018270 0.055882 -0.021012 0.033981 -0.024829 0.015329 -0.004995 -0.022490 -0.001157 -0.028631 -0.028063 -0.014116 -0.048832 -0.052060 -0.030985 -0.026931 0.016997 -0.014485 -0.011821 -0.000512 -0.015579 0.058453 0.029408 -0.028034 0.011559 0.030124 0.017116 -0.028162 0.029421 0.066017 0.005019 -0.021493 -0.031925 0.010520 0.011915 0.011730 0.002097 0.018772 0.018621 0.039319 0.041665 0.003478 -0.018435 -0.021843 -0.003418 -0.049605 0.012917 -0.036973 -0.032974 0.023304 0.048564 0.000103 0.012722 -0.036184 0.003317 0.022154 0.030198 0.021851 -0.032486 0.018317 0.025825 0.030806 -0.028397 0.016032 0.035435 0.024108 -0.000339 -0.004457 -0.005351 -0.026086 -0.039432 -0.015869 -0.026754 -0.007423 0.001130 0.000781 0.036305 -0.050571 -0.032664 -0.009494 0.003329 -0.018401 0.009095 -0.045098 0.019479 -0.037227 -0.020594 -0.001732 0.055703 0.005616 -0.023795 0.014078 0.014770 -0.042078 0.012885 0.042617 -0.014993 -0.005578 0.018094 0.015810 -0.016914 0.013982 0.024778 0.000851 -0.054461 -0.028457 -0.009939 0.033094 0.027001 -0.013704 0.014861 0.014744 0.011950 0.022993 -0.043724 -0.019011 0.006524 -0.040440 0.048627 0.005463 0.005693 -0.039700 -0.030539 -0.014929 -0.006861 0.005421 -0.014991 0.002725 -0.000525 -0.024650 -0.033133 -0.005387 0.007462 -0.009091 -0.021207 -0.026873 0.026183 -0.029578 0.061742 0.017279 -0.014035 -0.028215 -0.045471 -0.013674 -0.010074 0.025597 -0.000528 -0.020639 0.036980 0.002522 0.031609 0.015622 -0.011690 0.016346 0.016172 0.003460 -0.015614 0.003211 -0.052246 0.054568 -0.000521 0.026653 0.041145 -0.010831 -0.040506 0.024684 -0.000332 0.010167 0.003470 0.033883 0.003274 -0.010590 -0.002404 -0.016729 -0.001568 -0.024364 -0.015024 -0.030081 -0.012074 -0.050712 -0.012384 0.013511 -0.025757 0.014130 -0.045465 0.022943 -0.012422 0.020976 -0.033263 0.025499 -0.038430 0.017294 0.018178 -0.055040 -0.023195 0.051549 -0.021267
14 -0.042566 -0.036382 0.002937 -0.017940 -0.014371 0.015016 0.004574 0.013223 0.011565 -0.018407 0.014782 -0.001535 0.010112 0.013091 -0.010905 -0.002017 -0.048135 -0.018820 0.012195 0.023527 0.021875 -0.017190 0.028432 -0.037562 0.010926 -0.022087 0.030768 -0.024840 -0.039536 -0.008556 -0.067111 0.011130 0.029973 0.024806 -0.007110 -0.026916 0.014861 0.009903 -0.003398 0.023187 -0.010391 -0.020509 -0.015787 0.010195 -0.004283 0.001605 0.041321 -0.005627 0.022895 -0.009828 -0.021118 -0.029712 0.032717 -0.015229 -0.068603 -0.007755 -0.051381 0.008175 -0.019629 0.029913 0.019072 0.009962 -0.005842 0.023288 0.033503 -0.041374 0.033857 -0.047171 -0.022496 0.000603 -0.009903 0.012481 0.012794 -0.008393 0.005081 -0.052540 0.019285 0.033553 -0.036369 -0.014902 0.009023 0.019094 0.031070 0.019588 0.042630 0.019253 -0.022687 0.010909 0.037305 -0.011787 -0.051204 -0.026740 -0.048434 0.044528 -0.006032 -0.017564 -0.016292 0.006162 -0.028203 -0.017819 0.018198 0.049544 -0.032294 -0.006815 0.035523 -0.027374 -0.014927 -0.027270 0.044314 0.042895 -0.008249 0.004774 0.021997 -0.011033 0.016916 0.040231 0.001183 0.014944 0.013086 -0.021383 -0.045132 0.007558 0.021933 0.026541 0.036366 0.024859 -0.009429 -0.031893 0.080863 -0.011957 0.010406 0.020072 0.008228 -0.008710 -0.018961 -0.004344 -0.038315 0.038320 -0.043820 -0.028301 -0.026758 -0.019010 -0.013876 -0.031438 0.020197 -0.014453 0.010269 0.002947 0.067057 -0.010999 0.015440 0.023698 0.000527 0.029484 0.018726 -0.019022 -0.035353 0.014470 0.030773 0.037255 0.007360 0.009464 -0.013564 -0.006426 0.017316 -0.050396 0.049567 0.044742 -0.032953 -0.009714 0.069537 0.003498 0.009714 -0.017795 -0.015323 0.015319 -0.013635 -0.006464 0.020976 0.001700 0.034030 0.007965 -0.029380 0.026108 0.008708 0.021315 -0.011723 -0.004925 0.062469 -0.003384 0.010427 -0.053052 -0.002235 -0.005580 0.037794 0.024430 -0.038016 -0.004324 -0.011437 -0.017548 -0.032958 -0.029132 -0.032551 0.032602 0.028533 -0.023213 0.042761 -0.008343 -0.036400 -0.000734 0.021296 0.035885 0.022536 0.011197 -0.003354 -0.013635 0.009106 -0.002815 0.022807 0.016710 0.040424 0.009781 0.004154 -0.021583 0.025460 -0.003558 0.011076 0.027495 0.021805 -0.003846 0.008909 0.004331 -0.021548 -0.034083 -0.042107 -0.007192 0.023763 0.052143 -0.000822 0.000459 0.007753 -0.010520 0.009634 -0.034628 -0.006371 -0.019953 0.046195 0.060165 0.048684 0.013822 0.007123 -0.024801 -0.001188 -0.000792 -0.003998 0.035629 0.006563 -0.028241 -0.023992 -0.019702 -0.015754 -0.029132 0.000812 0.006111 -0.004169 -0.010121 0.003978 -0.019852 -0.028829 0.006436 -0.030887 0.018759 -0.026770 -0.005629 -0.034932 0.025348 0.045018 -0.064678 0.011715 0.042881 -0.042045 -0.039204 0.000861 0.003857 -0.037872 0.026225 -0.006400 -0.004369 0.025781 0.012676 0.026678 -0.043872 -0.041650 0.006988 0.028674 0.052018 0.019425 0.011457 0.010523 -0.016061 -0.016583 -0.005953 -0.028631 0.006027 0.000811 0.021478 0.030597 -0.026164 0.029334 -0.042148 -0.005970 -0.008084 0.031607 -0.026437 -0.023664 -0.014133 -0.096980 -0.023412 -0.002812 -0.037558 -0.012419 -0.010858 0.006453 -0.005335 -0.021734 0.016461 -0.039470 -0.042353 0.012635 -0.022712 -0.009004 0.014102 0.032570 -0.007742 0.008094 0.004050 0.038335 0.005468 -0.021381 -0.005531 -0.003673 0.033271 0.033198 -0.045849 -0.007288 -0.076791 0.005244 0.002215 0.022542 0.010776 -0.013011 0.002962 -0.003442 -0.018319 -0.032403 -0.009689 -0.011709 0.017130 -0.012182 0.005834 -0.003767 0.021646 -0.020712 -0.028024 -0.041082 0.019077 -0.000345 0.046295 0.018261 -0.010184 0.021138 0.018628 0.002402 0.034244 -0.015643 -0.004903 0.020924 0.016202 -0.012948 0.031633 -0.009447 0.008825 -0.005425 0.016185
15 -0.046066 -0.002911 0.001464 -0.048096 0.023119 -0.045357 -0.032690 0.021082 -0.000028 -0.022301 0.011097 0.054465 0.039830 0.018249 0.003102 0.025249 -0.013603 -0.049600 0.000582 0.029567 0.019147 0.015014 0.035589 -0.004192 0.022013 0.010118 0.020171 0.031488 -0.024661 -0.041779 -0.014074 -0.013772 -0.015613 0.035992 0.013157 -0.018316 0.030520 -0.023358 0.023668 -0.022815 0.013180 -0.015389 0.027506 0.003390 -0.032431 0.038165 0.001568 -0.011388 -0.014512 0.030211 0.015674 -0.042190 0.009745 0.005933 -0.044649 0.007030 -0.012418 0.001858 -0.005137 0.032620 0.007420 0.009864 -0.044352 -0.005497 0.036091 -0.044306 0.016752 -0.013872 0.054280 0.024646 -0.001050 0.053302 0.015183 0.002906 -0.018228 -0.028494 0.074722 0.024279 -0.031443 -0.017139 0.020733 0.037558 0.024609 0.009657 -0.019858 0.011298 0.017265 -0.021224 -0.012306 0.016084 -0.066990 0.005418 -0.047257 -0.002587 -0.011797 0.036844 -0.007360 0.012563 -0.017272 0.046187 -0.013576 0.026362 -0.027686 0.032271 0.028974 0.005527 0.033544 -0.021254 0.028336 0.046456 0.021855 -0.042122 -0.025085 0.032585 0.001546 -0.001941 -0.007230 -0.045714 -0.020265 -0.010696 -0.090868 0.028654 -0.005035 0.009276 0.049015 -0.014446 0.064741 -0.004923 0.054594 -0.001584 0.056141 0.035716 -0.049962 -0.026416 0.011890 -0.029737 -0.015697 0.042348 -0.009116 0.018476 0.013163 -0.000635 0.002853 0.037524 -0.005885 -0.009944 -0.027171 0.006872 -0.010615 -0.045121 0.028310 -0.022668 0.030700 0.039859 -0.000240 0.005823 -0.024089 0.013521 -0.001034 -0.000294 0.033567 0.007678 0.022006 -0.037426 0.018962 -0.029975 0.016568 0.007195 -0.049923 -0.004652 0.017284 0.016248 0.002901 -0.006338 -0.000325 0.046672 -0.006979 -0.010253 -0.005146 -0.015664 0.022984 0.006854 0.008999 0.017138 -0.016099 0.012604 -0.021638 0.035739 0.019560 -0.032671 0.000697 -0.014087 0.011556 0.010656 -0.002908 -0.008608 -0.020208 0.001138 -0.028130 -0.007960 -0.009301 -0.002368 -0.042773 0.023210 0.068808 0.003367 -0.025348 0.003367 -0.021367 -0.008037 0.033758 0.020090 -0.045375 0.023153 0.029396 -0.032816 0.008653 0.009403 0.018673 0.007771 0.026675 -0.018381 -0.010121 -0.022182 0.049208 0.047585 0.028695 0.040004 0.037365 0.033366 0.017068 -0.001427 -0.008245 -0.020827 0.002910 0.000168 0.011152 0.040487 -0.014857 -0.005203 0.015022 0.005696 -0.014767 -0.027524 -0.008101 -0.007291 0.001485 0.013799 0.049242 0.045955 -0.005537 0.007875 -0.000439 -0.053048 0.008338 0.007835 -0.004242 -0.058127 -0.002425 -0.004273 -0.069331 0.013290 0.001928 0.016150 -0.021689 -0.001875 -0.018724 -0.010612 -0.049488 -0.040660 0.025577 -0.031854 0.016487 -0.003916 -0.006251 0.016839 -0.012886 -0.022961 -0.007171 0.054333 -0.023215 -0.031722 0.028272 0.006871 0.025669 0.000477 0.026315 0.012791 0.010325 -0.012340 0.014929 -0.069851 -0.000251 0.037491 0.032764 -0.003196 -0.025442 -0.028907 0.002717 0.005873 -0.005795 -0.013083 -0.018968 0.008321 -0.010736 0.031228 -0.054509 0.022210 0.041061 -0.013286 0.004983 -0.045820 0.054380 -0.033022 -0.012856 0.013126 -0.060152 -0.009813 -0.026066 -0.041137 -0.012871 0.009768 -0.022499 -0.053755 -0.018252 0.034911 -0.013538 -0.048012 -0.002490 0.018944 -0.027402 0.015687 0.016010 0.016547 0.016891 -0.017513 -0.012662 0.028535 0.046398 0.006224 0.020626 0.003641 -0.002725 -0.033249 -0.010531 0.006245 -0.033741 0.011002 -0.043096 -0.004460 0.006757 -0.063985 0.010913 -0.035684 -0.000893 0.012293 -0.009406 0.057258 0.010442 0.015696 -0.005483 0.003063 0.045273 -0.029272 0.004731 -0.016944 -0.005180 -0.005331 0.027890 -0.012476 -0.014618 -0.011424 0.031206 -0.007029 -0.008827 -0.018161 -0.014818 0.024527 -0.019093 0.019754 -0.037024 -0.014341 0.015430 -0.015306
16 -0.001854 0.005929 -0.010653 -0.020434 0.014198 0.008238 -0.054410 0.051455 -0.023826 -0.029348 -0.006374 -0.002885 0.001025 -0.012903 -0.012971 0.013849 -0.028800 0.017682 0.034383 0.022393 0.019152 -0.016489 0.005616 -0.018414 -0.005820 0.015610 -0.001773 0.006997 0.001685 -0.034546 -0.006528 -0.002410 -0.036791 -0.010143 -0.014959 -0.035621 0.013248 -0.007515 0.046436 -0.035947 -0.014086 -0.018556 -0.017035 0.022801 -0.049971 0.011472 -0.005986 -0.021500 0.022352 -0.011997 -0.015121 -0.005272 -0.024562 0.002381 -0.038095 -0.009852 -0.049585 0.008783 0.009478 0.050471 -0.023449 0.008944 -0.007781 0.020405 -0.013236 0.017523 -0.011685 -0.028951 -0.029524 -0.013637 0.016234 0.064985 0.011371 0.041999 0.029457 -0.026652 0.035122 -0.008932 -0.042959 0.023139 -0.020900 0.046652 0.013562 0.041094 -0.016708 0.012256 0.024823 0.010594 0.010770 0.026068 -0.032335 -0.023279 -0.018312 -0.022005 0.007360 0.009316 -0.015731 0.042205 0.034067 0.002492 0.009395 -0.019380 -0.012549 0.095667 -0.003546 0.002859 0.005357 -0.029897 -0.006502 0.023649 -0.011027 -0.047487 -0.037800 0.015488 0.012221 0.019816 -0.062356 -0.039377 -0.010026 0.011561 -0.075805 0.003476 -0.022800 0.021212 0.000387 0.011780 0.043478 0.028390 0.029976 0.001733 0.006284 0.024211 -0.001311 -0.011039 0.044961 0.008009 -0.036168 0.021159 0.011163 0.013622 0.004323 -0.000947 -0.026714 0.002254 0.019903 -0.015536 -0.026540 -0.042796 0.030801 0.032058 0.024014 -0.032423 0.011126 0.042999 0.010871 -0.036031 -0.019509 -0.005012 -0.043484 0.014205 0.010131 0.019653 0.002170 0.015908 0.004761 -0.017553 0.026146 0.039925 -0.004611 -0.051109 -0.004612 -0.001433 -0.030592 -0.048159 0.009018 -0.010774 -0.013673 -0.018754 0.021241 -0.027308 -0.017636 0.034946 -0.015372 0.009622 -0.026341 0.021563 0.000555 -0.022623 0.035563 0.037244 -0.028098 -0.034169 -0.036797 -0.008665 -0.006776 -0.051799 -0.007676 0.032263 0.044186 0.010300 0.007389 0.009703 0.005005 -0.013558 0.066090 -0.004005 -0.017577 -0.007221 -0.001998 0.047337 0.035251 0.041319 0.000781 0.060905 0.026490 0.015760 0.011252 -0.006643 -0.024221 0.006796 0.005243 -0.007107 -0.025382 0.025668 -0.010689 -0.016042 0.068716 -0.031911 0.020506 0.046506 -0.007247 0.005407 0.010682 0.032233 0.004954 -0.001611 0.027996 0.071791 -0.005550 -0.015928 0.002625 0.029042 0.022416 -0.019104 -0.003790 0.031358 -0.019827 -0.010849 0.020021 0.013163 0.003396 0.006637 -0.011316 -0.009194 0.020368 0.000936 0.008259 0.003755 -0.014545 -0.048719 -0.039975 0.013143 -0.013296 -0.009851 0.020634 -0.008388 -0.020607 -0.023504 -0.013636 -0.065076 -0.039200 0.021151 0.003342 0.054202 -0.009489 0.017646 0.008898 0.021684 0.001068 0.062016 -0.027325 -0.007371 -0.011831 -0.003493 0.016509 -0.023463 0.021386 0.016152 0.019191 -0.030306 0.016819 -0.048420 0.064995 0.020011 0.064060 0.001427 -0.031265 -0.007140 -0.015772 0.043090 -0.025771 0.031526 0.025284 0.021215 0.025170 0.023326 -0.018289 0.003457 0.024136 0.024694 -0.012923 0.017641 0.004120 -0.012596 -0.020565 -0.018980 -0.007351 0.018542 0.022284 -0.023996 -0.047433 0.004525 0.007852 0.005369 0.030288 0.006596 0.004374 0.016359 0.000598 -0.006451 -0.000558 -0.031621 0.010404 -0.018878 -0.016702 -0.028628 -0.037957 0.016090 -0.000121 -0.017140 0.038358 -0.012417 0.008478 -0.014936 -0.019829 -0.021904 -0.012816 0.018553 0.011499 0.020192 0.011448 -0.037616 -0.036622 -0.016712 -0.000488 0.011926 0.000461 0.033248 -0.004085 -0.037089 0.054397 -0.002588 0.024349 -0.001480 -0.010052 0.010962 -0.011871 0.040757 0.020354 0.009303 -0.026223 -0.019866 0.010184 -0.050125 0.019167 -0.013728 -0.026623 -0.043354 -0.011908 0.030944 -0.041813 -0.010527 -0.041238 0.014057
17 -0.038028 -0.017401 -0.041873 0.023211 -0.008168 0.012274 -0.016650 0.004313 -0.024172 0.006852 -0.063586 -0.016906 0.041458 -0.019915 -0.002898 -0.005940 -0.009801 0.036540 0.020914 -0.015818 -0.012874 0.004856 0.005330 0.026518 -0.043796 -0.010624 0.017609 -0.026455 0.030325 0.012908 0.037486 -0.055408 0.001903 0.003429 -0.012688 -0.008784 0.027061 0.007993 0.007790 -0.026350 -0.005081 -0.000585 -0.003339 -0.015957 -0.026353 0.014816 0.019846 -0.056960 0.021273 0.023398 0.013966 -0.024519 0.008556 0.038891 -0.049283 -0.014450 -0.007299 -0.015126 0.009420 -0.014933 -0.006412 0.024358 0.000023 -0.030987 -0.004514 -0.036285 0.004631 -0.017400 -0.034453 -0.062654 0.003310 -0.029451 0.041078 -0.004562 -0.056796 -0.026808 -0.019481 0.011588 -0.037559 0.023193 -0.001339 0.013184 0.000044 -0.009299 -0.012210 0.040010 -0.000519 0.018859 -0.034221 0.009504 0.052821 0.002629 -0.027418 0.026124 0.002313 0.000558 -0.015425 0.032694 0.003546 0.009445 0.018088 -0.072186 0.002541 0.042076 -0.014171 -0.001416 0.022279 -0.053453 -0.019434 0.033209 -0.021639 -0.022239 -0.022912 0.027300 0.001852 -0.004133 -0.007255 -0.021580 0.023980 0.071465 -0.055060 0.035039 -0.035838 0.027613 0.019278 0.002839 0.080877 0.007614 0.017209 -0.008869 0.025147 0.026563 -0.013253 0.033479 0.012451 0.034240 -0.035232 0.008478 0.009857 -0.014633 0.044403 0.018296 -0.018431 0.009810 0.026824 0.010673 -0.014641 -0.009151 0.011258 0.004958 0.023897 -0.007662 0.028245 0.032943 0.000104 -0.047533 0.025113 0.020776 -0.054110 -0.001367 -0.003728 0.045890 -0.000434 -0.002558 -0.002401 -0.003857 -0.018332 0.027433 -0.011348 -0.032196 -0.004844 0.032432 -0.024464 0.032056 -0.007362 0.032755 0.017757 0.015987 0.040197 -0.007287 -0.017893 0.024238 -0.027469 0.031590 -0.046856 0.023747 -0.061135 0.026834 0.006164 0.030505 -0.040336 -0.020132 0.032303 0.000910 -0.031630 -0.019572 -0.000891 0.029665 -0.015143 -0.001180 -0.038780 0.009925 0.008016 -0.004118 0.039256 0.008023 -0.004305 0.035360 -0.009865 -0.009297 0.050134 0.013484 0.017318 0.036706 -0.020146 -0.008013 -0.025403 0.002650 -0.019948 0.003555 0.035555 -0.017082 -0.035135 0.019383 0.010459 -0.034390 0.017211 0.008954 0.036702 0.042824 -0.031747 0.008563 0.006081 -0.001682 -0.040974 -0.007160 -0.004623 -0.012394 -0.000298 0.021529 -0.010761 0.022460 0.013172 0.012401 0.016630 0.030182 -0.021159 0.009169 0.050333 -0.016630 -0.011317 -0.010981 0.027146 -0.020049 0.003678 0.007060 0.026871 0.016031 0.008891 -0.036408 -0.026000 -0.003468 0.035220 -0.029203 0.023813 0.006338 -0.039159 -0.010429 0.002462 -0.014705 0.015461 0.017242 0.053782 0.036775 0.005041 0.040645 0.003379 -0.003553 -0.028472 0.063520 0.001028 -0.021016 -0.040898 0.012821 -0.007362 -0.055487 -0.004179 0.029204 -0.042213 0.014720 -0.018428 -0.056135 0.038062 -0.006790 -0.008249 -0.012057 -0.014442 0.007252 -0.058410 0.020562 -0.020663 0.014045 -0.013163 -0.028678 0.028063 0.009970 0.027038 -0.035487 0.067769 0.004358 0.040530 0.014229 -0.008513 0.029518 -0.024984 0.005563 -0.051917 -0.008818 -0.011940 -0.023166 0.013100 -0.005895 -0.024440 0.046977 0.008125 -0.013791 0.021652 -0.000918 -0.043162 0.017821 -0.006358 0.030205 0.022431 -0.000009 -0.018511 -0.018260 -0.009769 -0.021912 0.025695 0.039892 -0.019473 -0.008532 -0.017103 0.021685 -0.016833 -0.009754 -0.019415 -0.046808 -0.004152 -0.027778 -0.048224 0.019005 -0.030412 -0.024820 -0.006293 0.020518 0.021055 0.022707 0.017860 -0.049529 0.062476 -0.010514 0.006839 0.001575 0.025564 -0.008428 0.010209 -0.051785 0.028133 -0.013183 -0.029916 0.017086 -0.022863 0.015816 -0.039359 0.002878 -0.031607 -0.026852 0.006769 0.035198 -0.026490 -0.019404 -0.044293 -0.055920
18 0.018247 0.011078 0.000799 0.044122 -0.012905 -0.048261 -0.036675 0.053744 -0.016533 0.034812 -0.023376 -0.000564 -0.026041 -0.051530 -0.020231 0.013631 0.021731 0.015304 -0.024513 -0.014543 -0.031464 0.030849 0.027934 0.061028 -0.039383 -0.031871 0.014520 0.002631 0.038673 0.017683 0.028533 -0.039405 0.010051 -0.023906 -0.009512 -0.009655 -0.018994 0.034481 0.002778 -0.037690 0.000340 -0.015608 -0.040211 -0.019839 -0.006409 0.026000 -0.004959 -0.008296 -0.011447 -0.008983 -0.001722 -0.022515 -0.018933 0.007467 -0.000485 -0.009285 -0.000359 -0.034052 0.087765 0.005595 0.024182 0.012718 0.018722 -0.029795 -0.016511 -0.006724 0.000020 0.046278 -0.005722 0.013630 0.003064 0.004679 0.009772 0.003333 -0.042845 0.040213 0.012235 0.026975 0.012808 -0.000023 -0.001598 0.015776 -0.001422 -0.014417 -0.021975 -0.027451 0.041019 -0.027254 -0.034339 0.027094 0.024438 -0.054366 -0.023736 0.020675 0.013070 0.017208 0.007130 0.016119 -0.045396 0.013594 0.005894 -0.058610 -0.035012 0.061088 0.004132 -0.011901 0.007297 -0.012582 0.052464 0.019844 0.003665 0.017351 0.003192 0.019813 0.007661 -0.019455 -0.015235 -0.020757 0.041735 0.018784 -0.050004 0.020704 -0.023002 0.032679 0.022944 -0.031206 0.037740 -0.004816 -0.031244 0.023572 0.022973 0.042093 -0.024732 0.031529 -0.002834 0.007975 -0.021806 0.031697 -0.018689 -0.005246 -0.017089 0.014388 0.013511 0.005322 -0.010094 0.025718 0.029884 0.002412 0.011873 0.035911 0.034019 0.023585 0.044128 -0.002663 -0.020116 -0.029882 0.014073 -0.007418 -0.000977 -0.019589 0.053323 -0.021932 0.016440 -0.000233 -0.019821 -0.021422 -0.051041 0.012469 0.039789 0.004513 0.004992 0.018875 0.004071 0.024842 0.014969 -0.022043 0.026298 0.021719 0.003744 -0.010325 -0.041617 -0.016357 0.050545 0.024485 0.004759 -0.014406 -0.031489 -0.012907 -0.018199 0.016687 -0.040015 0.037611 0.036712 -0.022131 -0.048895 0.026520 0.027672 0.002941 0.063800 -0.019246 -0.007908 0.049417 0.050494 -0.019404 0.030004 -0.027054 -0.010496 0.040427 -0.019731 0.030324 0.019224 0.043568 0.009198 0.023777 -0.012760 -0.042084 -0.028381 -0.021266 -0.044281 0.022499 0.003151 -0.003280 -0.008425 -0.036423 -0.001173 -0.024561 0.053115 0.002258 0.022702 0.054353 -0.046168 0.055356 0.042086 0.055113 0.016698 0.045708 -0.030329 -0.025555 -0.016726 0.007717 -0.013066 -0.009227 0.010470 -0.039384 0.041401 0.013597 0.008608 0.027701 0.021058 -0.013032 -0.044007 0.022491 0.012214 0.000794 -0.019561 0.012894 0.008636 0.013407 0.009361 -0.034296 -0.031200 0.056908 -0.048699 0.014736 0.000877 -0.001586 -0.023504 0.014918 -0.017138 -0.009706 -0.013080 0.011083 0.017188 0.014007 -0.007239 0.023250 0.007003 -0.001269 0.004709 0.008861 0.019863 -0.016561 -0.028797 0.008597 -0.009976 -0.014265 -0.021681 0.023238 -0.032826 -0.003703 0.003015 -0.078568 0.004275 -0.010105 -0.004683 -0.004234 0.011316 0.024162 -0.029751 -0.018145 -0.056518 -0.006342 0.027546 -0.034017 0.012475 -0.001289 -0.019899 -0.012691 0.013344 -0.035363 0.005775 0.014187 0.031710 0.045911 0.003912 0.023215 -0.008685 0.036844 -0.038022 -0.000289 0.034858 0.019181 -0.023917 0.031342 0.002770 -0.019961 0.013102 0.023018 -0.054951 -0.016606 0.005505 -0.038699 -0.028449 -0.006089 0.008735 0.025234 -0.011864 0.016010 0.012183 0.009214 -0.009749 -0.031518 -0.008789 -0.018098 0.028690 -0.024065 -0.027905 0.006780 0.027665 -0.016398 -0.010650 0.030711 -0.013817 0.010783 -0.013749 0.039979 0.046103 -0.020738 0.014386 0.010072 0.005139 -0.005259 0.011675 0.003523 0.008552 -0.017422 -0.003576 -0.028447 0.035047 -0.029373 0.004019 0.015267 0.042815 0.038767 0.012796 -0.027612 -0.029809 0.022072 -0.068277 -0.014171 0.017364 0.014357 -0.006201 -0.013153
19 -0.007916 0.040337 -0.014168 -0.033663 -0.036433 -0.031051 0.009830 0.023064 -0.017545 0.037098 -0.047785 0.023015 0.025258 -0.034549 -0.002648 0.006438 0.056534 0.010923 0.014234 -0.005830 -0.031252 0.011147 -0.052310 -0.013306 -0.025399 0.001400 0.028334 0.015032 0.011964 -0.000129 -0.014155 0.021111 0.065871 0.013377 -0.018220 -0.003354 -0.005065 0.022111 0.022372 -0.016511 -0.042382 -0.018440 -0.023131 0.023618 0.027349 0.026597 -0.004217 -0.025844 -0.001612 -0.017112 -0.031874 -0.017795 -0.001071 0.019530 0.021625 -0.010209 0.060259 -0.005569 -0.000123 -0.032383 -0.001204 0.006460 0.025350 0.005314 -0.013663 0.009569 -0.030698 -0.030080 0.009360 0.018484 0.011816 -0.016087 -0.021705 -0.024664 -0.013245 0.005308 0.015055 0.008080 -0.038844 -0.016900 0.001869 -0.039733 -0.005567 -0.055632 -0.028475 0.004264 -0.048708 0.009589 0.015245 0.022082 0.002394 -0.020391 -0.005071 0.019030 -0.006731 0.012203 -0.006301 0.052362 -0.050295 0.017287 0.026859 0.030869 -0.020178 0.018410 -0.040290 -0.035084 -0.004303 0.004745 0.008195 0.029509 -0.008731 0.048939 0.027712 0.019153 0.000988 0.011082 0.016487 0.000150 0.008625 -0.036510 0.005539 0.014694 -0.029518 0.003478 -0.041464 -0.015383 0.026909 -0.010644 -0.021918 0.039480 0.017800 0.003508 0.036089 0.052440 0.007475 -0.016328 -0.025661 0.021459 0.008854 0.018121 -0.040661 0.024194 0.031333 -0.009908 0.011955 0.006161 0.013020 -0.045373 -0.018895 0.009219 -0.032428 0.019365 -0.004668 -0.003597 -0.026112 -0.030384 0.040099 -0.025373 -0.034502 0.027317 -0.029178 0.031088 -0.016286 0.020088 -0.009141 -0.005376 -0.043583 -0.016447 0.033599 -0.010556 -0.013027 -0.015186 0.069246 0.021873 -0.001183 -0.011819 -0.006840 -0.004782 0.010842 -0.007161 -0.003177 0.029560 0.016521 0.066388 0.023525 -0.008526 -0.004659 0.003499 -0.008728 -0.028064 -0.048652 0.021115 -0.006534 -0.021333 -0.019171 0.005017 0.009125 0.023123 0.035271 -0.023730 -0.044281 0.044505 0.023427 0.022985 0.034139 0.019644 0.008051 -0.006157 0.023677 0.036063 0.000667 0.011033 0.003908 -0.019177 -0.011197 0.009136 -0.001669 -0.002293 -0.050567 0.075051 -0.002865 -0.021192 -0.017606 -0.027183 0.029812 0.003290 0.022006 -0.020935 0.046061 0.039508 -0.054376 0.031700 -0.003639 0.023637 0.021998 -0.014972 -0.011077 0.006153 0.022407 -0.003318 -0.003768 0.023232 0.024894 -0.017203 -0.038800 0.003283 0.038499 -0.064369 -0.024886 -0.015351 -0.014799 0.018718 0.003568 -0.011668 0.021500 -0.016432 0.003354 0.025418 0.008720 0.024348 -0.052096 0.032656 -0.040493 -0.026036 -0.001442 -0.013884 -0.002805 -0.003382 0.022352 -0.036264 0.013982 0.029978 -0.025340 -0.013554 0.012753 0.009096 -0.003494 0.037263 0.029623 -0.019490 0.007286 -0.020220 0.007804 0.013540 -0.001096 0.047778 -0.019214 -0.023835 -0.007748 0.014356 0.023084 -0.013672 0.049329 -0.014509 -0.035817 0.009579 -0.006237 0.012953 -0.000926 -0.005965 -0.041449 -0.015854 -0.032849 0.025893 0.005935 -0.002569 0.013597 0.014976 0.054262 -0.040277 0.011918 0.025353 0.009609 0.061262 -0.046293 -0.021839 -0.036093 0.024332 -0.050853 -0.040922 0.023219 0.017968 0.004552 0.037025 0.016949 -0.061371 0.046587 0.018023 -0.035779 -0.003367 0.026388 -0.022131 0.019534 -0.040301 0.013610 -0.030600 0.012296 -0.021101 0.036702 -0.018349 -0.036945 0.032898 -0.009250 -0.038184 0.011985 -0.063065 -0.058287 -0.047924 0.050689 -0.035261 -0.038268 0.008558 -0.019972 -0.020814 -0.019620 0.018773 0.007776 0.041090 0.008309 0.069345 0.039713 0.021444 0.065741 -0.045399 -0.031241 0.057408 0.048680 -0.013557 0.029562 -0.009809 -0.004393 0.011245 0.022336 -0.005279 -0.005423 -0.005929 0.009213 0.016148 -0.000319 -0.011939 -0.005329 0.036893 0.002706 -0.014204
20 0.036574 0.022777 0.003507 0.019774 0.027182 0.002908 -0.001715 0.024920 -0.034638 0.089451 -0.031591 0.052894 -0.006625 -0.004707 0.026980 0.008895 -0.017590 0.004346 -0.023941 0.010304 0.011174 0.023822 -0.026097 -0.048989 -0.025308 -0.006430 0.019923 0.024617 0.042048 -0.003816 -0.005055 0.016399 0.014910 -0.073452 -0.030496 0.035597 -0.007006 -0.004110 0.002405 -0.012679 -0.037242 0.018568 -0.058954 0.006259 0.019617 0.001828 -0.001788 -0.004922 0.008216 -0.001427 -0.008292 0.045789 -0.014676 0.045248 -0.035747 0.013362 0.013340 -0.004352 0.002605 0.012494 -0.033513 -0.004135 0.021049 -0.006087 -0.003523 0.031792 -0.015879 -0.012029 0.035836 0.047078 -0.015833 -0.004064 -0.002135 -0.007100 -0.008305 -0.024520 0.023258 0.015031 -0.007894 0.000395 0.011399 -0.041049 -0.026696 -0.014931 0.041391 -0.053919 -0.003400 -0.031645 0.005020 0.037897 -0.009901 0.014038 0.029661 0.024311 -0.019939 0.019152 0.005960 0.047344 -0.006289 -0.016122 0.035067 -0.035103 0.001602 0.009777 -0.037943 -0.000231 -0.007527 0.032191 0.005312 0.006127 -0.003358 0.015703 -0.002386 0.060454 0.029322 -0.030469 0.021649 0.031990 -0.032106 0.010651 0.033285 -0.025862 -0.019345 0.006483 -0.022935 -0.008649 0.038689 -0.027502 -0.027423 -0.010251 0.033760 -0.041333 0.010718 0.003626 0.033493 -0.048772 -0.003440 0.001524 -0.021829 0.002307 0.009548 0.027854 0.034544 0.010691 -0.019980 -0.007912 -0.048916 -0.028347 -0.003288 -0.025715 -0.005411 0.025090 0.024589 -0.018001 -0.004224 -0.046397 0.035702 -0.046790 -0.019643 -0.015081 -0.010582 0.029542 -0.027360 0.004283 -0.036390 0.003960 -0.037737 -0.019747 0.017934 -0.038238 0.025139 -0.009817 0.019309 0.028625 -0.019403 0.002689 0.018192 0.005428 0.037579 0.002410 0.054541 0.013145 -0.029126 -0.008744 0.019785 -0.013040 0.009172 -0.007012 -0.012567 -0.014847 -0.009952 0.032780 -0.000911 -0.000619 -0.004104 -0.029634 0.056917 -0.003715 -0.001463 -0.035806 0.033759 -0.041334 0.029076 0.027128 0.029889 -0.011574 -0.010069 -0.005952 0.015266 -0.005590 0.001671 -0.019410 -0.015984 -0.028690 0.014449 0.005041 -0.027653 -0.005633 -0.101425 0.014344 0.012930 -0.032661 0.036601 -0.059866 0.026482 0.044577 0.008027 0.018096 -0.003487 0.029093 0.002582 0.050876 -0.003037 0.023393 0.018916 0.026134 -0.037215 -0.042999 0.003841 -0.002888 -0.043563 0.000300 0.029994 -0.019095 -0.021553 0.000189 0.050551 -0.013655 -0.021006 -0.042168 -0.003396 0.004376 0.001099 0.010692 -0.033163 -0.014839 -0.010438 0.030535 0.036443 0.045786 -0.017543 0.051247 -0.030808 -0.036647 -0.042117 -0.011055 -0.025434 -0.002914 0.007498 -0.037741 0.050434 -0.018507 0.009827 0.001048 0.028324 0.018049 -0.037855 -0.002449 0.048936 -0.012791 -0.043268 -0.014768 -0.021570 0.028575 0.010802 0.049926 -0.005149 0.021811 -0.020362 -0.005135 -0.035278 -0.067537 -0.011121 0.012630 -0.025551 0.012390 0.003854 0.011589 0.035121 -0.002326 0.004029 -0.018012 -0.021677 0.015109 0.001864 0.051390 0.024366 0.021326 0.048995 -0.027444 -0.035916 0.005118 0.001971 0.027154 0.003113 0.031299 -0.047998 0.030973 -0.008784 0.007993 0.012341 -0.012129 0.015262 0.016370 0.021571 -0.021727 0.042912 0.001939 -0.025990 0.014970 -0.005103 0.014304 -0.030487 0.026601 -0.041109 -0.034807 0.009336 0.001431 0.022845 -0.007456 0.019793 0.002904 0.024744 0.004647 0.011488 -0.036381 -0.070692 -0.006170 -0.020351 -0.019946 -0.005050 -0.023012 -0.042574 -0.003486 0.026545 0.014974 -0.017099 0.036525 0.001097 -0.003582 0.017240 -0.027924 0.025022 0.002832 0.002740 -0.045897 0.024967 -0.025037 0.035567 -0.008797 -0.007936 -0.000947 0.034970 0.018271 -0.024781 -0.016075 0.028513 -0.009841 -0.060265 0.023565 -0.009148 -0.009580 -0.005676 0.013161
21 -0.002832 0.010353 0.016745 0.025420 0.015209 0.019810 0.030197 -0.013397 -0.022039 0.039919 -0.001672 -0.004996 -0.018037 -0.047350 -0.057004 -0.010574 -0.037187 -0.015522 0.015672 -0.020511 -0.026065 0.028297 -0.005911 0.014261 -0.027974 0.023338 0.041857 -0.002110 0.005064 0.003581 -0.009148 0.007402 0.033278 -0.027963 -0.008799 0.042777 -0.001934 0.037650 -0.001733 -0.023099 -0.077547 0.006882 0.003468 0.033321 -0.032545 -0.017571 0.012313 0.001270 0.053752 0.042670 -0.022941 -0.005561 -0.010255 -0.004873 -0.006064 -0.002734 0.009647 -0.025196 -0.054125 0.016874 -0.039794 -0.017139 -0.002381 0.012598 -0.065770 0.007368 -0.005057 -0.023542 0.012593 0.010945 -0.045386 -0.012981 -0.033975 -0.046610 0.001073 0.043259 -0.000988 -0.051473 0.025476 -0.003271 0.026837 -0.032040 0.038306 0.018886 0.008016 0.000775 -0.020654 0.014665 0.013130 0.027762 0.020757 0.000027 0.046948 0.023281 -0.005038 -0.009709 -0.007816 0.040914 0.037242 -0.018761 0.037628 -0.024249 0.024818 0.016206 -0.002594 0.029823 -0.006724 0.034679 0.028491 -0.018162 -0.000906 0.026253 0.017885 0.019020 -0.023460 0.021658 0.027263 0.019752 0.003495 0.015872 0.021472 -0.029666 0.012115 0.029744 -0.022347 0.005232 0.001045 -0.030423 -0.030969 -0.033543 0.017698 -0.021394 -0.011473 -0.018163 0.037643 -0.041630 -0.009044 0.018806 -0.004635 0.064630 0.002179 -0.031986 0.048241 -0.037391 -0.006688 0.016341 -0.047231 -0.017390 0.029169 -0.008688 -0.028721 -0.011531 0.063460 -0.003709 0.035246 -0.062168 0.014225 -0.019017 -0.015666 0.010514 -0.053198 0.035484 -0.023260 0.027216 0.010955 -0.009873 0.013725 -0.003194 0.030296 0.002015 0.024825 -0.002457 -0.003971 0.040519 0.021014 -0.008867 -0.016118 -0.018211 0.024827 -0.001742 0.002214 0.043832 -0.029885 -0.017755 0.029604 0.003510 0.027531 -0.006187 -0.034267 -0.031638 -0.042812 0.011533 0.018810 0.002636 0.013102 -0.073478 -0.001786 -0.026961 0.027184 -0.005446 0.043971 -0.003043 0.017439 0.008674 -0.010316 -0.004558 -0.027955 0.012835 0.010681 0.034155 0.024377 0.002181 -0.029265 -0.013565 0.025947 0.026562 -0.027305 -0.014038 -0.029763 0.014074 0.022849 0.000294 0.003999 0.016285 -0.001240 0.014241 -0.007296 -0.015459 0.027107 0.038003 -0.027131 -0.028258 -0.059647 -0.009540 0.043694 0.032907 0.001532 0.033252 -0.018333 0.037797 -0.023132 0.022644 -0.003928 0.002133 -0.005610 -0.005658 0.039320 -0.040122 -0.016300 0.002123 0.001612 -0.009873 -0.014107 0.007618 -0.024853 -0.015072 0.000852 -0.009310 0.000591 0.002764 0.029469 0.038398 -0.018197 -0.015005 -0.018475 -0.015552 0.037477 0.009128 0.017765 -0.032512 0.043460 -0.023212 0.015613 0.009869 -0.012411 -0.033229 -0.028513 -0.004944 0.015843 -0.025479 -0.038019 -0.014545 0.012858 0.003792 0.042115 -0.001313 0.025216 0.017839 -0.048299 -0.006349 -0.019594 -0.002699 -0.062644 -0.060961 -0.011816 0.024637 -0.009285 0.041669 -0.039923 -0.007655 -0.026274 -0.042651 -0.004713 -0.017614 0.021244 0.012785 0.030587 0.023303 0.014645 -0.023314 -0.017200 -0.005195 -0.011281 0.004375 0.026959 -0.007955 -0.015257 0.020643 -0.036849 0.000623 0.011831 -0.025305 0.020184 0.033412 0.059024 -0.005676 0.052176 -0.006163 0.004926 0.039330 0.022198 -0.015240 0.018876 0.008353 0.028510 0.026366 0.007765 -0.037594 0.042052 -0.037621 0.005991 -0.004768 0.018779 -0.017155 0.042731 -0.044280 -0.000659 -0.010098 -0.021234 -0.039363 0.027471 0.008867 -0.025390 0.024811 0.019386 0.003524 -0.032464 -0.011646 0.024968 -0.017959 -0.013682 -0.022157 -0.018297 -0.014416 -0.024472 -0.037830 0.009562 -0.001112 0.000475 -0.029707 0.027012 -0.029931 -0.029474 -0.022693 -0.023498 -0.017229 0.042260 0.016620 0.001806 -0.022569 -0.009899 0.025952 0.004648 -0.011003
22 0.009922 -0.010028 0.012516 0.014883 -0.004861 0.001915 0.047752 0.000539 -0.009897 0.004111 0.001709 0.003895 0.010626 -0.009105 -0.006040 -0.028557 -0.024194 0.048265 0.017366 -0.003222 -0.001389 0.029840 0.047823 0.002269 -0.016141 0.009038 0.047163 -0.010508 0.031040 -0.022454 -0.019782 0.031863 0.002532 -0.024320 0.012386 0.076238 0.025264 -0.000847 -0.030323 0.011079 -0.044278 -0.001183 0.053212 -0.015774 -0.022445 -0.042097 0.000040 0.009324 0.033068 0.011963 -0.014297 0.043500 -0.007718 -0.007071 -0.006780 0.004991 -0.011476 -0.069291 0.000506 -0.002930 -0.007289 0.000609 0.011488 -0.038881 -0.024300 -0.026955 -0.013519 -0.040054 0.002201 0.002210 -0.029947 -0.005680 0.033651 0.003023 0.030349 0.023421 -0.002535 0.001524 0.027959 0.007732 -0.029706 -0.015097 0.000375 0.027931 -0.003142 0.004243 -0.037279 0.003995 0.023779 0.009391 0.037478 0.032818 0.043315 -0.032435 -0.003861 -0.008240 0.004498 0.056005 0.033625 -0.001882 0.023707 -0.038774 0.019009 -0.008082 0.059928 -0.006380 0.016057 -0.003611 -0.039390 0.019949 0.021101 0.002487 0.045635 0.016237 -0.004863 -0.021740 -0.003569 0.045744 0.031305 0.007021 0.007827 -0.025526 0.016781 -0.003844 -0.000402 0.009091 0.004690 0.006138 0.011429 -0.003129 0.015229 -0.039007 -0.003886 -0.000274 0.030361 -0.028212 0.030058 -0.026536 0.020821 0.024661 -0.028847 0.019108 0.003688 -0.013855 0.000913 0.026088 0.006517 -0.001097 0.070633 0.002084 -0.025493 -0.004457 0.041494 -0.003940 0.055457 -0.014357 -0.002541 -0.041911 0.008708 -0.006540 -0.016780 0.018265 -0.002254 0.021054 0.009668 0.013401 -0.022865 -0.002029 0.035122 0.005307 0.008383 0.021759 0.002691 0.032720 0.047763 -0.008397 -0.020779 -0.000401 0.082972 -0.030081 -0.006302 0.008606 -0.042767 -0.026524 -0.003493 0.018516 -0.036425 0.012575 -0.029880 -0.043631 0.018796 0.019462 0.007140 0.032590 -0.025496 0.004219 -0.038759 -0.048611 -0.010574 -0.014398 -0.051241 0.004625 -0.019613 -0.029418 0.000004 0.008373 -0.054215 0.000282 -0.013540 0.059951 0.029862 0.041509 0.019619 -0.014728 0.020387 0.025011 0.035239 0.016543 -0.008508 -0.018639 0.014119 -0.054690 -0.024804 -0.046187 0.011289 0.019637 0.003772 0.021676 -0.018374 -0.020229 -0.008660 -0.034935 0.004742 -0.054743 -0.010281 0.039194 -0.027002 -0.040625 -0.053800 -0.031619 -0.011111 0.028736 0.017979 -0.008756 -0.007480 -0.004657 -0.011309 -0.011756 -0.030136 -0.073200 -0.017317 0.022672 0.001866 0.038551 0.037038 -0.013408 -0.000436 0.016537 0.061153 0.013592 0.028304 0.022446 -0.009355 -0.006194 -0.029952 0.026193 0.067993 0.012625 -0.040142 0.020129 0.071616 0.022629 -0.011396 -0.011803 0.013752 -0.027573 -0.022854 0.008505 0.044017 -0.013144 -0.004701 0.020406 0.004062 -0.036235 0.010609 0.020987 0.007717 0.019804 -0.020848 -0.023213 -0.031968 0.010033 -0.046454 -0.004055 0.006957 0.035351 0.011019 0.024577 -0.005630 -0.007515 0.044058 -0.035085 -0.012309 -0.010667 -0.003504 -0.002404 0.014862 0.025764 0.038401 0.012886 0.041169 0.018377 -0.018626 0.003994 -0.025547 0.051406 0.000506 -0.021128 -0.018948 0.028333 -0.039459 -0.013814 0.042516 -0.020719 -0.016370 0.044112 -0.003866 -0.022827 0.026029 -0.003158 0.008332 0.006680 -0.015677 0.040214 0.038773 0.015548 0.013031 -0.039120 0.020078 -0.021488 0.029768 -0.015118 0.056155 -0.012085 0.015071 -0.033348 -0.011737 0.012068 -0.003445 -0.029616 -0.003604 -0.002684 -0.035230 0.018522 0.025385 0.029418 -0.000295 0.025276 0.007939 -0.015145 -0.002896 0.020355 -0.009074 0.001529 0.001268 -0.007552 -0.007621 -0.033587 0.012235 -0.055563 0.015836 -0.029527 0.006775 -0.024940 -0.006211 0.017430 0.008293 0.015668 -0.032113 -0.056129 -0.037921 0.012174 -0.002587 -0.041549
23 -0.013113 -0.000091 0.016506 -0.037034 -0.029537 -0.012893 0.013079 -0.002229 -0.037301 -0.022836 0.024292 -0.005964 0.013539 0.022636 0.009686 -0.002865 0.001050 0.001906 0.004343 -0.018648 -0.024019 0.006728 0.036858 -0.019217 0.045795 0.032992 0.012734 -0.002248 -0.011191 0.001450 -0.034947 0.014819 -0.002178 -0.001040 0.010295 0.009258 0.028079 0.014473 0.021357 0.030518 0.003633 0.002860 -0.006345 -0.019042 0.020871 0.018229 -0.002001 0.018692 0.015884 0.040750 -0.038613 -0.011828 -0.014740 -0.020865 -0.034958 0.018522 0.031719 -0.049795 -0.028935 -0.063097 -0.014287 0.002252 0.000728 0.000375 -0.056019 0.001613 -0.014737 -0.059319 -0.047227 -0.013072 -0.034188 -0.032772 0.040926 -0.044396 0.021587 0.045713 -0.015935 -0.011057 0.031072 0.025408 0.014838 -0.000103 -0.001403 0.036827 0.011381 0.010336 -0.027257 -0.029609 -0.046032 0.007487 0.034486 0.009659 0.036028 -0.038083 -0.002991 -0.012498 -0.033600 0.036040 0.037097 0.008605 0.043808 -0.001525 -0.003435 0.074144 0.018002 0.021590 0.026533 -0.029704 -0.005712 -0.002011 0.041577 0.024994 0.022724 -0.011573 -0.000866 -0.002873 0.042747 0.000177 -0.002785 -0.004256 -0.020563 -0.043377 0.003289 -0.004363 -0.027064 0.014959 -0.002721 -0.042659 0.026140 -0.026606 -0.026284 -0.018460 -0.044738 -0.017638 -0.023856 -0.017052 0.014406 0.018137 -0.026157 -0.002731 -0.016533 -0.022992 -0.049036 0.039068 -0.006512 0.005865 0.013306 0.036034 0.052789 -0.016693 0.014199 0.026677 0.005107 -0.015373 0.013717 0.029630 -0.015413 -0.034217 0.052757 -0.001841 -0.016374 -0.009363 -0.007481 0.003927 0.040447 -0.037519 0.001300 -0.020865 -0.004041 -0.027173 0.053133 0.023991 -0.010843 0.067635 0.018664 0.012117 -0.043013 0.014574 0.012793 -0.024518 -0.033811 0.023813 0.010153 -0.024961 0.006200 0.006415 -0.045660 0.022988 0.026995 -0.036200 0.031934 -0.012786 0.017160 0.017817 -0.042414 -0.007053 -0.025009 0.038795 0.026558 0.014890 -0.018243 0.032553 0.019170 -0.004338 -0.057935 -0.025697 -0.009431 0.037812 0.032496 0.050495 -0.033070 0.060458 0.058723 -0.037029 0.006496 0.019220 0.023011 0.001436 0.015942 0.004546 0.031507 -0.021124 0.005864 -0.016465 -0.019518 0.009199 0.044107 0.015809 -0.017750 0.039316 -0.028703 -0.005451 -0.002964 -0.047300 0.018372 0.031727 -0.004528 -0.017096 -0.011341 -0.029272 -0.025530 0.015377 0.018938 0.048863 -0.011193 -0.044459 0.008308 -0.007075 -0.048128 0.005860 -0.027899 0.005735 -0.008406 0.005159 0.014304 -0.010746 0.012580 0.004950 0.001688 0.018555 0.007989 0.011230 -0.027418 0.008403 -0.046733 0.010508 0.035303 0.002166 -0.040362 0.013445 -0.015576 0.041881 -0.073436 -0.005306 -0.022382 -0.030882 -0.012569 0.041662 0.028087 -0.025373 -0.020032 0.008405 0.049511 0.036208 -0.011394 0.035643 0.027533 0.026489 0.013663 -0.030387 -0.040307 0.021510 -0.023714 -0.013807 -0.022422 0.008929 -0.005007 0.018222 0.008216 0.003423 0.053396 -0.028668 0.014498 -0.015703 -0.017863 -0.024904 0.011270 -0.021817 -0.030415 0.007971 0.012294 -0.008582 0.001566 -0.034003 -0.021312 0.008109 0.021208 -0.015592 0.000812 0.032183 0.004768 -0.002934 -0.030516 -0.003444 -0.030202 -0.022593 0.026027 0.001886 0.031641 0.066115 0.018472 -0.009684 0.004211 0.038437 0.012480 -0.041322 0.022238 -0.016469 0.042359 -0.005053 0.023787 -0.003619 -0.027702 -0.019633 0.006892 -0.065982 0.025437 0.021391 0.019951 0.028149 0.018508 -0.041035 -0.037024 -0.012248 -0.016365 0.000914 0.013970 0.024448 -0.004986 -0.018304 -0.040768 0.004491 -0.053599 0.025181 0.019544 -0.034751 -0.018197 0.003233 -0.022132 -0.006575 0.014860 -0.042004 -0.014032 -0.004217 0.000266 -0.001096 -0.000284 0.053929 -0.033120 -0.022550 -0.005788 0.013719 0.042028 -0.021816
24 -0.027132 -0.014682 0.013480 0.005814 0.004855 0.019538 -0.042013 0.011250 -0.005006 -0.012294 0.026383 0.001942 0.055031 0.014501 0.032115 0.013367 0.013676 0.012033 0.032597 0.003224 -0.025711 -0.009948 0.015957 -0.027281 0.018837 0.014620 -0.039060 0.008001 -0.042050 -0.004447 0.010691 0.056923 -0.042863 -0.021337 0.024446 0.021485 0.025705 -0.002614 -0.007316 0.041388 -0.023733 -0.003008 -0.024992 0.010369 0.034826 -0.042805 -0.031395 -0.005460 -0.042976 0.017769 -0.018153 0.029453 -0.005828 0.010265 0.011966 0.004645 0.055160 -0.063441 -0.010001 -0.045149 0.027416 0.011086 -0.012396 0.007471 0.002102 -0.031195 -0.007912 0.026128 -0.050184 -0.030979 0.000445 0.022706 0.007808 -0.015752 0.018162 0.042561 -0.029181 -0.006367 0.026710 0.007612 -0.003728 -0.037833 -0.000996 0.055829 0.007198 0.017032 -0.023203 -0.004419 -0.034694 0.004055 0.020273 0.030390 -0.011503 -0.019506 0.002419 0.010476 -0.024583 -0.014066 0.011447 -0.024953 0.031407 0.016533 -0.035973 0.011269 0.105154 -0.020240 -0.032317 0.007872 0.036801 0.039162 0.037081 0.020331 0.009117 0.015306 -0.016728 -0.039140 0.030946 -0.002163 0.011080 0.012015 0.001476 0.022966 0.005995 -0.014053 -0.042717 -0.021402 -0.008123 0.000081 0.007739 0.046918 0.016148 -0.009344 -0.023239 0.006337 -0.056815 -0.060110 0.030237 0.020018 -0.013371 0.001478 0.027260 0.001473 -0.027389 -0.015000 0.030486 -0.018339 0.014460 0.011194 0.054205 0.018246 -0.014100 0.014527 0.000280 -0.004090 0.009317 -0.004943 -0.015172 -0.013053 0.014104 0.042738 0.009236 0.015622 0.005707 -0.028679 -0.010896 -0.010252 -0.022359 -0.002114 -0.004737 -0.011241 0.012171 0.003995 -0.019596 0.031747 -0.010644 0.013805 -0.017642 -0.012679 -0.004559 0.029600 0.020255 -0.033718 -0.025029 0.024962 -0.016929 0.004752 -0.019566 0.004619 -0.022823 -0.015686 0.023580 0.032103 0.009635 0.001625 -0.026490 -0.003969 -0.060099 0.010264 -0.005830 -0.002388 0.024379 0.021948 -0.009367 0.009191 -0.015193 0.005042 0.023155 0.023460 -0.004737 -0.005808 -0.002886 0.048617 0.031961 -0.008399 0.006817 -0.014826 -0.005388 -0.034952 0.004641 0.001415 0.046893 -0.043689 0.043804 -0.033952 0.006304 0.018125 -0.000705 0.028192 -0.032967 0.017555 -0.023329 -0.008960 0.012885 -0.039463 -0.024225 -0.006028 0.038440 -0.030995 -0.040736 -0.007728 -0.019337 0.043011 0.020542 0.018473 0.004021 -0.058301 -0.028796 0.012344 0.014107 0.017703 -0.016056 0.010424 -0.000581 0.029054 0.054995 0.044787 -0.007829 0.021084 -0.003777 -0.026790 0.007455 0.033177 0.020045 -0.006505 -0.035070 0.020095 0.013420 0.001870 -0.027207 0.064572 -0.002186 0.057822 -0.009456 -0.016886 -0.037884 -0.007161 -0.022416 -0.015127 -0.006252 -0.013028 -0.000920 0.002827 0.045642 0.042947 -0.021645 0.009246 0.049109 0.013428 -0.029000 -0.007318 -0.016496 -0.025685 0.035112 -0.033465 -0.013167 0.008741 0.010192 0.008591 -0.024328 -0.018094 0.044311 0.015476 -0.026530 0.044458 0.033401 -0.054122 0.010653 -0.053378 -0.035841 -0.018935 0.045966 -0.002402 0.021830 -0.002345 -0.021604 0.002822 0.042220 -0.018713 -0.004189 -0.001426 -0.020468 -0.003601 -0.054223 -0.009030 -0.019026 -0.011435 0.009600 -0.008568 -0.001415 -0.003401 0.019228 -0.049839 0.012741 -0.003323 -0.020843 -0.025997 0.035122 -0.064219 0.001984 -0.029926 0.020898 0.001633 0.014135 -0.031107 0.001972 -0.047140 -0.003985 0.014301 0.025146 0.040212 0.002943 -0.017161 -0.010173 0.002626 -0.007827 -0.041347 -0.001381 -0.011117 -0.055491 0.010738 -0.018633 -0.008176 0.015812 -0.030684 -0.009739 0.008522 -0.011118 -0.014336 -0.021560 0.000739 0.012418 -0.019275 0.021327 0.048575 0.023483 0.002941 0.036756 0.059391 -0.016104 -0.023589 -0.022055 0.017667 -0.006266 0.038900
25 -0.028200 -0.031449 -0.017418 0.002597 0.036759 -0.017914 -0.004710 -0.037653 -0.010202 0.049779 -0.008447 0.027864 0.034205 0.025771 0.006431 -0.012387 0.017584 -0.015029 0.001183 0.031467 -0.028723 0.026136 0.008611 -0.030066 0.017089 0.015137 0.016288 -0.031258 -0.005902 -0.012264 -0.015224 0.019462 -0.017463 0.037527 0.004517 0.024636 0.012775 -0.008278 -0.040377 -0.001970 0.006058 -0.006593 -0.005688 -0.002977 0.012744 -0.018907 -0.015847 -0.000677 -0.002132 -0.018435 0.006079 0.001342 0.071828 -0.025565 0.030823 0.011265 0.090257 -0.000767 -0.011153 0.003983 0.016752 0.001373 -0.062482 -0.021624 -0.010729 -0.044962 -0.008230 -0.010568 -0.046738 0.020502 0.007564 -0.025066 -0.015758 0.028695 0.008163 -0.005330 -0.022793 -0.054724 -0.017206 0.003362 0.023389 -0.004172 0.037577 0.008943 0.021843 0.023950 -0.035091 -0.004100 -0.033448 -0.005061 0.003305 0.059528 0.029713 -0.007641 -0.011925 -0.007292 0.025749 -0.048748 0.007231 -0.023057 0.042293 -0.010949 -0.033614 0.050230 0.089712 -0.005524 -0.021437 -0.011831 0.049556 -0.014230 -0.001186 -0.001281 -0.020145 -0.013492 -0.019264 -0.003708 0.021372 0.000450 -0.010151 0.010136 -0.016668 0.011606 0.039371 0.013761 -0.009626 -0.015029 -0.023557 0.006614 0.031861 0.021303 -0.002251 0.028470 0.004243 0.007499 -0.020935 -0.022792 0.003662 0.013137 0.022655 -0.008104 0.034909 0.023390 0.005003 0.026323 -0.020504 -0.026402 0.023502 0.015572 0.027393 -0.010826 0.015795 -0.020849 -0.040761 0.062101 0.042457 -0.004134 -0.011242 0.009405 0.015368 0.038275 0.014227 0.019185 0.021357 -0.006754 0.037105 -0.032307 -0.054308 0.007882 0.027173 0.007521 -0.008508 0.012785 -0.023654 -0.024977 0.009959 -0.002950 -0.014449 0.018642 0.014008 0.017174 0.004415 -0.017154 -0.016193 -0.011576 0.009528 0.011085 0.002263 0.001292 -0.012790 0.026610 0.051859 0.024663 0.007126 0.017875 -0.050590 0.017865 0.021708 0.047961 0.015466 0.000350 -0.011869 0.049045 0.047670 0.041856 0.000158 -0.057835 0.036455 0.003623 -0.006651 0.006060 0.008363 0.008266 0.021329 -0.028290 0.012057 0.021907 0.009191 -0.022428 -0.039763 0.006604 0.020826 -0.034121 -0.018163 0.009047 0.031001 0.013912 0.019469 0.018955 -0.042459 0.036021 -0.006278 -0.024756 -0.016123 -0.045930 -0.021858 -0.032919 0.030559 0.055586 -0.008356 0.030178 -0.021487 -0.015117 -0.014191 0.034494 0.010541 -0.035982 -0.019770 0.082337 0.006561 -0.011019 0.001330 0.059121 0.040824 0.003629 0.002774 0.010927 -0.012561 0.033255 -0.010985 -0.040717 0.020242 0.007281 -0.015283 0.041012 -0.014927 -0.048104 0.014467 -0.031867 0.040942 0.024896 0.016267 0.010629 -0.052363 -0.034733 0.000547 -0.021894 0.005506 -0.012128 -0.008386 0.019533 -0.006865 -0.002000 0.006573 0.011911 0.015446 0.031737 0.015926 0.011188 -0.011141 0.027110 -0.022816 -0.024556 0.069547 -0.041508 -0.009439 -0.033330 -0.010350 -0.028953 0.000222 -0.014219 0.020026 -0.010696 0.010230 0.054795 -0.001605 -0.021237 0.030357 -0.032569 -0.029220 -0.002775 0.019226 -0.062015 0.020903 -0.012480 -0.041075 0.016314 -0.013738 -0.031368 -0.007267 -0.013760 -0.043915 -0.033967 -0.052443 -0.004518 -0.035087 0.022929 0.002142 0.021402 0.015344 -0.005840 0.017893 -0.047875 0.011480 -0.028122 -0.027226 -0.023977 -0.006988 -0.026703 0.000316 0.017772 0.024617 -0.038756 -0.027491 -0.028873 -0.009966 0.025629 0.037678 -0.013956 0.005628 0.022577 0.017364 -0.001417 0.014591 0.000984 0.006107 -0.040900 -0.017748 -0.033544 -0.015699 0.040828 0.010831 -0.012125 -0.032984 -0.032573 -0.005003 -0.006413 0.003875 -0.025182 0.029085 0.013941 0.012605 -0.058017 -0.003769 0.014567 0.018150 -0.004642 0.017601 -0.015380 0.035407 0.024069 -0.019058 -0.038927 0.052435 0.002808
26 -0.000256 0.046801 0.007945 -0.015616 -0.038594 0.022020 -0.031973 -0.015311 -0.043725 -0.012595 -0.020417 0.083185 0.081364 0.002967 0.003539 0.035610 0.008914 -0.006504 0.022602 0.003362 -0.012785 -0.019015 0.005691 -0.032397 0.001929 0.005072 0.047848 -0.026815 0.011907 -0.012339 -0.006129 0.010438 -0.048830 0.042718 -0.017745 -0.021240 0.012386 0.011050 -0.014543 0.028039 0.009965 -0.004442 -0.020410 0.016193 -0.019403 0.014259 0.000307 -0.020808 0.052587 -0.023518 0.015438 -0.003194 0.086446 -0.010215 0.030655 0.000565 0.026114 -0.023297 -0.057282 -0.039573 -0.036060 0.025090 -0.010839 0.033219 0.000200 -0.043572 0.020400 -0.032883 -0.015178 0.006909 0.016863 0.034179 0.010859 -0.027643 0.004734 -0.041687 -0.014101 -0.015400 -0.029239 -0.020922 -0.003889 -0.029238 0.025653 0.004976 0.003591 0.003117 0.027869 0.020002 0.027093 -0.000935 -0.013890 -0.010319 0.019338 0.015712 -0.003080 -0.017005 0.010947 -0.030129 -0.006372 -0.025188 0.052030 0.015066 -0.020549 0.044086 0.062465 -0.009514 0.022216 -0.061690 -0.019072 0.032905 -0.017141 -0.013003 -0.023641 -0.004237 0.035756 -0.025494 -0.022834 -0.000805 -0.031742 0.048647 -0.010279 -0.002401 0.030358 0.031935 -0.022549 0.027121 -0.039963 -0.011492 0.000815 -0.025643 -0.006321 -0.006846 0.006825 -0.000952 -0.003977 -0.013833 0.007078 0.003914 -0.007060 -0.040413 0.019964 -0.007180 0.039617 0.025869 0.010452 -0.021356 0.030157 -0.043123 -0.009618 0.016574 0.012734 -0.039030 -0.006605 0.036218 0.035990 -0.031430 -0.008661 -0.003845 0.020366 0.016584 0.002353 0.027885 0.030855 -0.051085 0.011226 -0.011216 0.012527 -0.008074 -0.020328 0.000066 -0.019377 -0.040105 0.009258 -0.067216 -0.013241 -0.008091 0.009480 -0.004482 0.027617 0.019402 0.022972 0.011528 -0.032454 -0.043889 -0.008268 -0.013511 0.014566 -0.028653 -0.030477 -0.003753 -0.029344 0.013765 -0.037877 0.021628 -0.002601 0.034319 -0.084455 0.026295 -0.017213 0.046003 0.011314 0.041258 0.023943 0.050759 0.026855 -0.054379 0.046629 0.019774 -0.031097 0.030521 -0.018591 0.016102 0.019898 -0.066944 0.012183 -0.040982 -0.005495 -0.011726 -0.033699 0.018121 0.023818 -0.044641 0.016739 0.024216 -0.005086 -0.001804 -0.029314 -0.012752 -0.045065 -0.017309 0.018601 0.002316 0.012532 -0.015275 0.005434 -0.040552 0.026668 0.067956 0.018204 0.007441 -0.003635 -0.012485 -0.015240 0.009072 -0.006382 -0.009796 0.014870 0.029113 0.024799 -0.006494 -0.011583 -0.031790 -0.039925 -0.007286 -0.007118 0.018218 0.019750 0.017622 0.003634 -0.022313 0.016065 0.032572 0.003412 0.007923 -0.002657 0.018560 -0.052646 -0.022143 0.030889 -0.007406 0.053735 -0.015097 0.004053 0.029049 -0.005496 -0.015072 0.018035 -0.018119 -0.035232 0.021691 -0.009777 0.020066 0.003509 0.015834 0.002133 0.037011 0.013415 0.032979 -0.000534 0.010800 0.015358 -0.028828 0.010751 0.037883 -0.035612 0.003095 -0.013510 -0.002562 0.022953 0.018830 0.022621 0.004325 0.012264 0.052187 0.012381 -0.026866 0.039833 -0.060225 0.040126 -0.009913 0.050441 -0.033240 0.038535 0.000479 -0.040817 0.024235 0.013014 -0.001791 -0.014689 -0.015409 0.011061 -0.013905 -0.047243 -0.066016 0.002657 0.013493 -0.012338 0.004002 -0.018702 -0.040579 0.012035 0.007735 0.032448 -0.035548 -0.005800 -0.015037 -0.001966 0.010567 -0.010121 0.010000 0.001236 -0.001680 -0.021057 -0.019505 0.025982 0.038399 -0.008773 0.003233 -0.008507 0.029996 -0.002380 -0.017133 0.031242 -0.023041 -0.030019 0.001077 -0.042682 -0.018934 0.018209 0.016460 -0.034622 -0.008942 0.021695 -0.073591 0.000736 0.020134 0.027812 0.026685 -0.001173 0.005517 0.020640 -0.012884 -0.006806 -0.045821 0.022008 0.042993 -0.004639 0.017224 0.017099 -0.015099 0.006377 -0.012326 0.023720 -0.013501
