115 384
\n 0.020474 -0.051695 -0.024077 -0.086071 -0.045389 0.027887 -0.015699 0.011007 0.042869 0.052961 0.042714 0.008850 -0.004952 -0.048518 0.002081 -0.037128 -0.023616 -0.008476 0.006443 -0.010199 -0.046276 -0.083578 0.017845 0.010070 0.025644 0.013330 0.030775 0.079465 -0.071491 -0.032600 -0.002344 -0.036277 0.023475 -0.039890 0.001553 -0.009528 0.044747 -0.078695 0.049553 -0.058733 -0.012190 -0.042836 -0.015331 0.036260 0.043531 0.009423 0.022346 0.048531 0.039356 -0.001997 -0.034000 -0.054847 -0.070147 0.014510 -0.043338 -0.002298 0.008771 -0.049559 -0.036979 -0.026115 0.038013 -0.114586 -0.005662 -0.005510 -0.038732 -0.031192 0.037967 0.005626 -0.003307 0.031715 -0.010636 -0.041834 -0.054071 -0.014879 0.022609 0.033281 0.039750 -0.009102 -0.074062 0.058231 -0.045530 -0.021873 -0.033596 0.006468 -0.046580 -0.049785 0.017651 0.013077 0.061969 0.009364 0.026071 0.058527 0.035745 -0.043341 0.034631 0.077640 0.075709 0.021272 -0.011468 0.044777 -0.012618 0.000193 0.010993 0.043845 0.023983 -0.003062 -0.002365 -0.005636 -0.059231 -0.089094 -0.012204 0.001352 -0.007736 0.016998 -0.007246 -0.037252 -0.014877 -0.006150 -0.026612 0.013047 -0.017364 0.045673 0.069359 -0.025936 0.037122 0.000218 -0.018883 -0.035804 0.028027 0.038712 0.004316 -0.032436 0.021127 0.029972 0.022214 -0.007579 0.002350 -0.038751 -0.009166 -0.090322 0.093700 0.024902 -0.038998 0.060393 -0.013225 0.034863 0.022060 -0.042111 0.024019 -0.030076 0.041636 0.028396 -0.016963 0.005302 -0.073723 0.004051 0.013551 -0.009557 0.028894 -0.039362 -0.087480 0.020490 0.025442 -0.013885 -0.035772 -0.008356 -0.046596 -0.057310 0.062182 0.048577 -0.011371 0.028792 -0.013640 0.002710 -0.066773 -0.028997 0.062854 -0.072101 -0.002817 0.035889 0.049894 0.034302 -0.027068 0.023981 -0.046859 -0.034675 0.115464 0.007521 -0.046836 0.010119 -0.044538 -0.051743 -0.012262 -0.010574 -0.018189 0.048465 0.017553 -0.014061 -0.029449 0.024500 -0.044969 -0.075266 -0.046555 0.015804 0.029509 -0.007790 0.015507 -0.004986 0.057042 0.063939 0.038141 0.064194 -0.005562 0.017353 -0.047871 0.055628 -0.030041 0.045853 0.054908 -0.016347 0.002736 0.025803 0.020970 0.039702 0.031323 0.041589 0.015149 -0.081192 0.032577 0.004162 0.041322 -0.024560 0.036978 -0.064417 -0.071032 -0.035628 0.011172 -0.033076 0.008773 0.003950 -0.080565 0.009370 -0.009730 -0.038423 -0.027388 -0.037428 -0.030640 0.026183 0.043087 0.025414 0.018241 0.108048 -0.054081 0.043246 -0.034562 0.036786 0.015211 0.022607 -0.011114 0.022902 0.046707 -0.049112 0.014337 0.013486 0.053586 -0.071156 0.050142 0.020039 0.093698 0.044741 -0.016164 0.047776 0.085716 0.008296 0.016368 0.022050 -0.006157 0.030577 -0.022892 0.005925 0.024495 0.016265 0.039490 0.047851 0.006166 -0.010407 -0.063001 -0.062434 -0.004026 -0.007553 0.030703 0.079922 -0.035842 0.032363 -0.068627 -0.039787 0.029512 0.035556 0.048113 -0.001595 0.050681 -0.019993 -0.002869 -0.075074 0.081855 -0.040772 -0.102752 -0.000732 -0.054599 -0.025831 0.070636 -0.049700 -0.033029 -0.053193 0.065093 -0.014916 0.039156 0.049741 0.019353 -0.103176 0.029529 -0.006794 -0.011406 0.044096 0.020314 0.035242 -0.012563 -0.022564 -0.005996 0.001853 -0.017430 0.046195 -0.079626 0.011983 0.029080 0.073515 0.049671 0.013221 0.026972 -0.019460 -0.055279 -0.028211 0.021217 0.065728 0.037530 -0.049744 0.003190 -0.007712 -0.002824 0.054068 -0.044559 0.004499 -0.004131 -0.087771 -0.005354 0.033928 0.068819 -0.015010 0.003269 0.040077 -0.019216 -0.042335 -0.009680 0.026239 -0.020085 -0.008432 0.025916 0.012973 0.043103 -0.023967 -0.040495 0.077754 -0.034656 -0.053246 0.023086 -0.071448 -0.022617 -0.014227 -0.011689 -0.015530 0.016442 0.032929 -0.012906 -0.046322
\s 0.017749 0.031887 -0.049873 0.018868 -0.055045 0.050697 -0.033282 0.089774 0.078768 0.024435 -0.008580 0.014109 0.010647 -0.094518 0.004662 -0.030773 0.036641 0.052033 0.011349 0.039196 -0.053076 0.021284 -0.022437 -0.002572 0.060170 0.015223 -0.008974 0.048377 -0.005573 -0.062533 -0.026573 -0.080891 0.015584 -0.038186 -0.008500 0.041238 0.028467 -0.020532 0.017898 -0.023952 0.033158 0.013185 0.033062 0.035516 0.033106 -0.060277 0.006479 0.018970 -0.056015 0.025607 0.028061 -0.018574 0.031682 -0.004391 0.010083 0.028134 0.015251 -0.019626 -0.038738 0.023541 -0.035599 -0.050629 0.005687 -0.022247 -0.050066 -0.021739 0.039594 0.009476 -0.010653 0.031451 0.007005 -0.067111 -0.052076 -0.028040 0.046620 0.004115 0.048582 0.015191 -0.019958 0.018375 -0.067584 -0.026188 0.019838 -0.021258 -0.024554 -0.051694 0.034678 0.020910 0.078040 -0.014307 0.023238 0.007784 0.011671 -0.007945 0.028290 0.034152 0.017600 0.066443 0.035081 0.031534 0.016314 0.008567 -0.041751 0.035178 0.005333 -0.003078 -0.007794 0.007347 0.001596 -0.076883 0.033746 -0.010177 -0.029705 0.021018 0.028956 -0.041787 -0.034555 0.001684 0.008286 0.038348 -0.009777 0.029073 0.076919 -0.034740 0.042496 -0.017292 0.008962 -0.000747 0.027155 0.006527 0.022125 0.004356 0.019373 0.001056 -0.011206 0.009264 -0.051201 -0.031320 -0.045833 -0.003165 0.020325 0.046776 -0.028131 0.112309 0.003152 0.008448 0.003454 -0.034444 0.028799 -0.018136 0.044041 0.011497 -0.018795 0.029472 -0.018850 -0.037374 0.042159 -0.044545 -0.002553 -0.019735 -0.060153 -0.005265 -0.010349 -0.026472 -0.045359 -0.010351 -0.005505 -0.031287 -0.012932 0.022064 0.029988 -0.046820 -0.013847 0.012223 0.000550 -0.030594 -0.028762 -0.022546 0.013794 0.028887 -0.004658 0.069301 0.017236 0.007613 -0.031551 -0.146111 0.044711 -0.029108 0.004314 0.007555 0.022340 -0.044200 0.006006 -0.073886 0.007241 -0.007502 -0.000758 -0.035193 -0.057279 0.006656 -0.017995 -0.065070 -0.071472 -0.058358 -0.033107 -0.005407 0.032719 0.034345 -0.012850 0.029466 0.009496 0.014020 0.010270 -0.005412 -0.011259 0.030495 0.001752 0.018416 0.041610 -0.038751 0.005228 0.032538 -0.023026 0.026336 0.075156 0.001319 0.014896 -0.022782 0.030801 -0.009969 0.083061 -0.029720 0.002405 -0.054153 0.014765 -0.013241 -0.007053 -0.013136 0.053653 -0.028011 0.012779 -0.025318 0.006427 0.071964 -0.020263 -0.023948 0.021692 0.032301 0.021981 0.062232 0.022451 0.026207 0.017432 0.023988 -0.076447 0.046502 0.036814 0.044863 0.023489 0.032739 0.027734 -0.049498 0.007576 0.003323 0.022704 -0.003347 0.000282 0.025647 0.055712 0.108221 -0.032977 0.012258 0.013839 -0.030133 0.047054 0.048932 0.011818 0.036149 -0.000974 -0.002316 0.019106 0.046088 0.020971 0.083773 0.054820 -0.038599 0.002137 -0.059267 -0.003970 -0.011223 0.031153 0.003612 -0.029144 -0.016581 -0.023475 -0.068110 0.034289 0.020358 0.008188 -0.029611 -0.008287 0.024779 0.010288 -0.005156 0.046687 -0.004513 -0.088554 0.017422 0.010171 -0.058550 0.057227 -0.009826 -0.072726 0.007260 0.018973 -0.034353 -0.006103 -0.029037 -0.020494 -0.090646 0.024739 -0.019279 -0.013505 -0.092280 -0.009442 -0.011418 -0.020455 -0.016052 -0.004661 0.014548 0.002470 -0.004932 -0.053977 -0.037790 0.033303 0.033650 0.010930 -0.001204 -0.008308 0.012775 0.006992 -0.047401 0.005969 -0.031832 0.031395 -0.036511 0.090954 0.077458 0.003393 0.021774 -0.032774 -0.017593 -0.035855 -0.017645 0.012009 0.014365 0.100484 -0.029993 -0.039181 -0.002237 -0.005363 -0.010009 -0.028510 -0.012789 -0.017802 -0.016595 0.072366 -0.030249 -0.019433 0.017003 -0.040109 0.081963 0.001894 0.035685 -0.003673 -0.105677 -0.016830 -0.018642 -0.019667 -0.017141 0.001913 0.041493 -0.061023 -0.030010
! -0.081643 0.003369 0.002688 -0.014319 -0.013763 0.003672 -0.031601 0.008999 -0.030290 0.044485 0.054117 0.022482 0.019813 -0.015751 0.001921 0.015664 -0.091800 0.003430 0.093918 -0.025060 0.043063 -0.008005 0.057366 0.000201 0.006979 -0.051553 -0.050414 -0.015388 -0.040724 -0.025555 0.060644 -0.022385 0.027610 0.010006 -0.121097 -0.004807 0.036516 -0.002114 0.056409 0.052917 0.031174 0.077249 0.023010 0.095241 -0.006624 0.017889 -0.047108 -0.006701 0.017305 -0.063823 0.005381 -0.041902 -0.053528 -0.059156 -0.029840 0.060792 0.023309 0.015638 -0.039518 -0.016989 -0.026213 0.055566 -0.052461 -0.009742 0.016595 0.006858 -0.020442 -0.042958 0.051854 0.004758 0.008657 0.038760 -0.035850 -0.051994 0.029631 -0.029956 -0.004073 0.117476 -0.007809 0.051102 -0.046194 0.006288 -0.015714 -0.078968 -0.032526 0.004285 0.120677 0.036261 0.015798 -0.069431 0.030035 0.021824 -0.086232 -0.057502 -0.085703 0.040139 0.062242 -0.028912 -0.045294 -0.009299 0.006066 0.068134 -0.090963 -0.019424 -0.052321 -0.003071 0.046860 0.020712 0.121285 0.053926 0.015801 0.028958 -0.033060 -0.038833 0.006537 -0.026403 0.018140 -0.083960 0.007296 -0.014733 0.045826 -0.035049 0.009544 -0.054620 -0.046528 -0.062044 -0.079486 -0.054544 0.045793 -0.042163 0.003626 0.000822 0.019619 0.008669 0.002619 -0.014900 -0.017323 0.033034 0.062616 -0.041946 -0.002363 -0.039187 0.000774 0.036839 -0.030687 -0.005935 0.041036 0.072678 -0.055372 0.038574 -0.060957 0.016925 0.048138 -0.045626 -0.077033 -0.001614 0.074962 -0.007335 0.017934 -0.002489 -0.058329 -0.003718 0.059009 0.010433 -0.045993 -0.065162 -0.083583 0.074927 0.077611 0.085052 -0.042303 0.026713 0.007598 -0.054804 -0.014627 -0.016405 -0.003187 0.070700 0.050879 0.034682 0.103496 -0.005710 0.004811 -0.006636 -0.000551 -0.053686 -0.035961 -0.005766 0.076324 0.027266 0.002329 -0.047362 0.010746 -0.031261 0.024671 -0.057292 -0.085512 -0.010143 -0.010216 0.103959 0.023433 0.028960 0.043614 0.027054 -0.018846 0.047357 0.021046 0.003895 0.031734 -0.036229 0.026081 -0.058595 -0.052077 -0.046646 0.040959 0.005933 -0.061634 -0.022602 -0.019134 -0.001677 -0.031824 -0.001632 -0.047349 0.048771 -0.036160 0.038785 0.003468 -0.003604 -0.049995 0.095141 0.022833 -0.081885 -0.012580 -0.013651 -0.112771 0.065874 -0.065632 0.046401 -0.039674 0.049260 0.008410 -0.028591 -0.002562 0.030697 -0.015334 0.051046 -0.021924 -0.000806 -0.036598 -0.013126 0.018548 0.027991 -0.003427 0.098926 0.028958 -0.063630 -0.086614 0.008219 0.061304 0.016677 0.037715 -0.029762 0.007425 0.048578 -0.050852 -0.023078 0.027171 0.047259 0.151589 0.007709 -0.005380 -0.077712 0.014574 -0.000276 -0.122812 0.029568 -0.064916 0.130148 0.032478 0.032531 0.036352 0.037918 -0.098647 0.038393 0.035664 -0.004213 -0.027653 0.061282 -0.043150 0.059694 -0.017868 -0.026109 -0.028549 -0.057514 0.057832 0.021469 0.000988 -0.017161 0.042467 -0.058225 -0.063659 -0.011307 -0.080859 -0.018704 0.048154 0.006548 -0.110967 0.030351 -0.053819 -0.036639 0.007741 0.118867 0.037372 -0.048668 0.030571 0.041935 -0.000309 -0.035309 -0.065710 0.048923 0.053044 0.000791 0.096057 0.029911 0.039383 -0.027789 -0.085373 -0.029646 0.027573 0.013155 -0.018153 0.001263 -0.006204 0.090720 0.018186 -0.020380 -0.062768 -0.102850 -0.040577 -0.019344 -0.019819 0.030674 0.021228 -0.028390 0.040084 -0.038061 0.042325 0.011940 0.029431 -0.009415 -0.005386 0.030912 0.064228 -0.039197 0.070143 0.038668 0.058647 0.003521 -0.011020 0.045865 -0.072791 0.024712 -0.093984 -0.032418 0.010225 0.017600 0.019290 0.053100 -0.008949 0.072577 0.006858 0.011343 -0.068303 -0.050501 0.053343 -0.025734 -0.059006 -0.080394 -0.054764 0.054376 0.018672 0.013529 -0.011573 -0.024266
" -0.023448 -0.088078 -0.014774 -0.011156 -0.055025 -0.013696 -0.016562 -0.027126 0.001274 0.038063 0.034790 0.044564 -0.005143 0.001246 -0.036291 0.011460 -0.024161 -0.039661 0.008597 0.028446 -0.037111 0.012990 -0.008378 0.029920 0.035458 0.034557 -0.052259 -0.073140 0.005392 0.034269 0.039061 0.009938 -0.036358 -0.016574 -0.043963 -0.079040 0.035001 -0.012749 0.055934 0.029405 -0.028882 0.077202 -0.020023 -0.003020 -0.110178 -0.039424 -0.001039 0.012358 0.066181 0.059238 -0.063121 -0.056848 0.000218 -0.044718 -0.037783 0.084544 -0.031271 -0.042799 -0.067202 -0.008995 0.015563 -0.017401 0.016732 0.109358 -0.090363 0.116139 -0.005891 -0.069111 0.065649 -0.029425 -0.007904 -0.036881 0.023766 0.033722 0.027084 -0.062992 0.102958 0.100563 0.071029 0.021462 0.039842 -0.062032 0.024842 -0.037698 -0.059539 0.047221 0.038131 0.018904 -0.029996 -0.047462 -0.050564 0.048455 0.044182 -0.078523 -0.050922 0.025706 -0.017635 0.011049 -0.013014 0.010639 0.044796 0.046760 -0.005978 -0.051560 0.015491 -0.083513 0.097013 -0.040823 0.064607 0.004387 -0.021792 -0.050065 -0.010796 0.002384 0.061121 -0.017893 -0.020690 -0.024397 -0.080587 0.046862 0.003600 0.047195 0.052423 0.036680 0.048383 0.085881 0.018814 0.026989 0.077348 0.009133 0.056429 0.038422 0.008240 0.002548 0.053400 -0.126050 0.040287 0.003779 -0.007698 -0.020607 -0.038161 -0.064430 -0.064129 -0.003928 0.025052 -0.061287 0.066262 0.004877 0.053040 0.013687 -0.110254 0.033664 0.073294 -0.014245 0.011051 0.037893 0.032048 -0.027803 0.026039 0.026299 -0.033517 -0.031607 -0.090058 0.041171 -0.025146 0.007671 -0.031864 0.011373 0.022089 0.091067 -0.000254 -0.021799 0.058775 -0.002212 -0.005216 0.021994 -0.022744 0.007759 -0.034224 0.102163 0.041706 0.017240 -0.003767 -0.047971 -0.019990 -0.006444 -0.016142 0.019940 0.042890 0.071798 0.007697 0.003842 0.056284 -0.013810 -0.005954 0.024094 -0.090168 -0.052825 0.045261 0.057356 -0.066949 0.045029 0.048163 0.039371 -0.041861 0.012012 -0.035423 0.015677 -0.008546 -0.103305 -0.004395 0.021890 -0.067044 0.077478 -0.141412 -0.007609 -0.011812 -0.016583 -0.089006 0.056850 -0.057254 -0.071831 -0.001629 0.052440 -0.002395 0.009664 0.013956 -0.006206 -0.036899 0.031747 -0.049719 -0.049759 0.062199 0.011299 -0.098773 0.007421 0.078495 -0.015792 -0.027954 0.052060 -0.022136 -0.048825 0.039242 0.034682 -0.023147 -0.055861 -0.082383 -0.076960 -0.070565 0.033132 -0.027542 -0.002920 0.047121 0.038297 -0.001074 -0.000353 0.022456 0.038874 -0.072329 0.016485 0.069516 -0.032206 0.048378 0.032258 0.086675 -0.046726 0.002222 0.008624 0.044369 -0.017166 0.042810 -0.028169 0.029182 0.062234 -0.006064 -0.011063 -0.047912 0.069805 0.018042 -0.036781 -0.007430 0.027466 -0.002888 0.052948 -0.065968 0.045488 -0.030956 0.050871 -0.012410 -0.040021 0.040034 0.014748 0.007753 0.077938 0.008773 -0.034798 0.024579 0.010147 0.005477 -0.053682 0.055932 -0.080255 0.014267 -0.021468 -0.043627 -0.106074 -0.055201 0.007450 -0.008301 -0.010814 0.020955 0.075435 0.047145 0.052909 0.033668 0.085587 -0.088754 -0.002103 -0.102530 0.055650 0.014196 -0.106134 0.053035 0.014685 0.051619 -0.003713 0.037823 0.000906 -0.046481 0.046705 -0.023847 0.000988 0.033506 0.080925 0.064527 -0.028499 0.004810 -0.002056 -0.020541 0.059394 -0.039104 -0.093658 -0.036658 -0.124316 0.050110 0.049777 0.046553 0.019853 0.051713 0.054336 -0.009962 -0.007225 0.000665 -0.000224 -0.024731 0.038551 0.000448 0.027531 -0.117076 0.045356 -0.046660 -0.067895 0.027974 0.012079 0.018384 -0.059379 -0.027653 0.009955 -0.054317 -0.082618 -0.110725 0.064825 -0.027705 -0.011298 -0.043311 0.011016 -0.035222 -0.058583 -0.029084 0.026074 0.009810 -0.016320 0.037430 0.081862
$ -0.039606 -0.014472 0.073004 -0.004149 -0.011506 -0.092891 0.033666 -0.070781 -0.083635 0.018779 0.019287 -0.048788 0.063599 0.047833 -0.030233 0.039178 -0.045458 -0.024635 0.053063 -0.069009 0.028214 -0.045209 0.077242 0.009892 0.011444 -0.028103 -0.017542 -0.021768 -0.066374 0.039188 0.051289 0.036394 -0.020147 -0.019736 0.033730 -0.042077 0.041733 -0.022684 -0.036049 -0.086213 -0.063642 0.055430 -0.060069 0.023981 -0.032588 0.006475 -0.043659 -0.012607 0.035467 -0.063585 -0.004818 -0.001912 -0.028420 0.021877 -0.008883 0.031184 -0.015686 0.071887 0.074692 -0.012396 0.006500 0.069449 -0.034209 0.038398 0.055983 0.066262 -0.046222 -0.015984 0.050528 0.003243 -0.049347 -0.021555 -0.005447 -0.000007 -0.078102 -0.046247 0.020209 0.020393 0.044875 0.004789 0.016392 -0.033884 -0.024468 0.025168 0.017037 0.030700 0.033260 -0.013281 -0.057557 -0.014207 0.022948 0.003485 -0.017980 -0.027933 -0.045476 -0.026575 -0.018283 -0.043667 -0.038219 -0.059192 0.006902 0.038137 -0.014544 -0.056547 -0.054968 -0.042702 -0.011449 -0.041388 0.013890 0.043058 0.021420 0.038833 -0.012007 -0.053276 0.020708 -0.023644 -0.015837 0.004506 -0.025401 -0.039350 0.048112 -0.049558 0.053101 0.000075 -0.005337 0.003801 -0.053400 0.060112 0.047161 -0.029151 0.042930 -0.023933 -0.020838 0.005668 0.016408 0.004007 0.026307 -0.019883 0.078023 -0.032164 0.021603 -0.042881 0.037353 -0.034853 0.070122 -0.050673 0.033949 0.067256 -0.046535 0.012849 -0.053683 0.044698 0.047626 -0.098497 -0.043837 0.059562 -0.011732 0.015426 0.084053 0.036518 -0.023313 0.066496 0.027735 0.035240 0.031496 0.074912 -0.031621 0.057571 0.044558 0.013519 0.000586 0.017182 0.030447 -0.034513 0.012379 0.020576 0.073271 0.044011 0.064789 0.012294 -0.010627 0.061203 -0.016381 -0.026372 0.030465 -0.051094 0.057639 -0.011924 -0.018154 0.001024 -0.027433 -0.008971 -0.006520 0.062588 -0.078365 -0.017091 -0.068904 0.035021 0.105944 0.029912 -0.038280 0.064901 0.033456 0.027810 0.092058 -0.073973 -0.050912 -0.071759 0.038979 -0.034437 -0.027965 -0.029512 -0.080260 0.081867 -0.052944 0.112250 -0.054090 -0.047409 -0.000798 -0.002857 -0.119236 -0.074065 0.017082 0.006983 -0.008606 0.037882 -0.029629 -0.047670 -0.006036 0.067942 -0.086771 -0.034548 -0.041130 0.019827 -0.043313 0.046031 -0.041554 0.027462 0.059275 0.054963 0.063246 0.058566 -0.010037 -0.034090 0.010194 -0.010598 -0.026461 -0.056921 -0.019762 -0.049340 -0.036602 0.027890 0.054091 0.097247 0.062595 0.047698 0.005827 -0.038638 -0.083818 -0.090178 -0.037708 -0.013915 0.006360 0.032117 -0.029560 -0.012977 0.030356 0.078181 0.024441 -0.029111 0.029353 -0.031248 0.039846 0.029376 -0.031967 -0.072643 -0.039130 0.060185 -0.011489 -0.045933 -0.022326 -0.018982 -0.044991 0.075473 -0.015168 0.005208 -0.104712 -0.043675 -0.007535 -0.002598 -0.067195 0.019061 0.003865 0.037107 0.031102 0.005947 -0.021174 0.003117 0.168624 -0.035871 0.069784 -0.039038 0.045933 -0.017137 -0.026106 -0.058008 -0.028759 -0.026979 -0.006533 0.012722 0.065740 0.033582 0.052941 -0.014742 0.076872 0.028277 -0.022650 -0.052961 -0.048191 0.049567 -0.011056 -0.081560 0.038045 0.074266 0.076906 -0.019981 -0.041062 0.024639 -0.046666 0.036795 0.071512 0.017093 0.036403 0.047822 0.051010 -0.025456 0.040730 -0.084778 -0.040147 -0.015213 -0.092885 0.025719 -0.042507 0.046758 0.025818 0.016174 0.000986 -0.011354 0.018376 0.039725 0.000988 -0.092224 0.037513 -0.035824 0.070524 0.005842 0.034944 0.052185 -0.049623 0.029475 -0.043637 -0.041036 -0.113102 0.046252 0.000377 0.051506 -0.047212 0.000236 0.064073 -0.032366 -0.012423 0.026237 0.004664 -0.038714 -0.030344 0.033192 -0.043355 0.026370 -0.100104 -0.070609 0.014597 -0.013255 0.016412 0.003179
' -0.005911 -0.048152 0.031229 0.033961 0.017119 -0.059195 0.097632 -0.020251 -0.039497 -0.040660 0.047402 -0.055568 0.030708 -0.045239 0.038689 0.075038 -0.004638 -0.032053 0.012133 -0.003081 0.030540 -0.054959 0.027941 0.022686 0.019307 -0.009165 -0.014824 0.003439 -0.013360 0.040685 -0.007864 -0.010044 -0.094404 -0.032820 0.059583 -0.004673 0.009373 -0.012060 -0.021701 -0.052484 -0.039296 0.025100 0.024113 -0.026317 0.006114 0.049543 -0.015831 -0.049705 -0.024560 -0.100568 -0.068122 0.024359 -0.015498 0.068160 -0.036529 0.002179 0.005808 0.111197 0.066428 -0.063065 0.011790 0.048270 0.006612 0.042532 0.010656 0.012962 -0.019452 -0.042875 0.051381 0.000641 -0.058984 0.002788 0.004965 -0.060899 -0.008416 -0.038756 0.024932 0.043539 0.012954 0.001513 0.041866 0.000440 -0.020065 0.032755 0.042630 0.026256 -0.006208 -0.037438 -0.057749 -0.015120 0.021985 0.005329 0.001185 -0.061394 0.010539 -0.039810 0.002916 -0.005801 -0.003213 -0.024285 0.007852 0.029141 -0.032471 -0.028020 -0.137418 -0.051138 0.022927 -0.038619 -0.088801 0.019779 0.045557 0.023034 0.055080 -0.052263 0.028256 0.024622 -0.054988 0.004564 -0.046321 -0.080332 -0.005891 0.032509 -0.007185 -0.046110 0.003966 0.014901 -0.068718 0.002917 0.014686 -0.007149 0.094135 0.021036 -0.011370 -0.017683 0.002189 0.074901 -0.001557 -0.052099 -0.028849 -0.040117 0.037611 -0.041988 0.074832 -0.087259 -0.001043 -0.050779 0.016880 -0.008781 -0.026362 -0.033652 0.047335 0.047711 0.001035 -0.058972 -0.000409 0.040953 -0.003232 -0.035407 0.110829 0.071653 -0.035755 0.009427 0.025582 0.020072 0.018915 0.064555 -0.025328 -0.022481 0.011673 -0.000722 -0.030774 0.058075 -0.027130 -0.047607 0.023106 0.029067 0.084998 0.025789 0.040251 0.073749 -0.055324 0.017294 0.001346 -0.062858 0.111254 0.026823 0.108795 -0.009192 -0.028195 0.028450 -0.012080 0.044103 0.014860 0.015916 -0.046185 -0.116012 -0.056007 0.049687 0.108754 0.086225 -0.090172 -0.013185 0.013725 0.011685 -0.000080 -0.089733 -0.019412 -0.101176 0.013239 -0.017725 -0.042750 0.049742 -0.072680 0.071155 -0.015404 0.057924 -0.080961 -0.021404 -0.004963 -0.025082 -0.029865 -0.038080 0.000198 0.002982 -0.046735 0.001078 -0.017834 -0.068017 -0.006527 0.074469 -0.020737 -0.040247 -0.047847 0.017270 0.001307 0.044023 -0.080959 0.012415 0.026138 -0.019887 0.121052 0.035681 -0.037508 -0.026360 0.029432 0.028798 -0.047497 -0.033447 0.003207 -0.039193 -0.036620 0.035865 0.072381 0.044960 0.001633 0.031646 0.067504 -0.033306 -0.071550 -0.021749 -0.061231 0.018498 0.048575 0.030566 -0.047775 -0.002532 0.007097 0.055479 0.086068 -0.060210 0.002568 0.005366 0.011421 0.018510 -0.019682 -0.045527 -0.051508 0.055715 0.021782 -0.009055 -0.048938 -0.034246 0.004482 0.058065 0.006868 -0.008130 -0.054153 -0.043632 0.033782 0.032372 -0.011032 0.025477 0.006909 0.041805 -0.018323 0.001417 -0.017932 0.000963 0.052615 0.017209 0.077249 -0.024328 0.018720 -0.058129 -0.030683 -0.013149 -0.007725 0.010522 0.000454 -0.029263 -0.022280 -0.007637 0.064302 -0.000472 0.071407 0.034511 -0.020196 0.023012 -0.077279 -0.002699 0.017733 -0.076768 0.020760 0.017121 0.051154 0.006491 0.040189 0.016520 -0.072275 0.012252 0.028183 0.008438 -0.005922 0.053741 0.032813 -0.013009 0.084375 -0.076886 -0.066384 -0.024129 -0.016382 0.061885 -0.007062 0.045379 0.038276 0.061340 -0.024381 -0.072835 0.011620 0.029244 0.027121 -0.036139 0.054417 -0.043160 -0.005137 0.021355 -0.005048 -0.001846 0.010021 0.066455 -0.023185 -0.020703 -0.044460 0.028386 0.024670 0.047989 0.043727 -0.056335 0.053613 -0.068992 0.048523 0.031923 -0.026262 -0.054826 0.009163 0.008744 -0.016454 0.037092 -0.042708 -0.033543 -0.010128 -0.084168 -0.039094 0.031322
( -0.025239 -0.018862 -0.035013 -0.036298 0.018365 -0.000463 0.001788 -0.033597 -0.013549 -0.033354 0.059570 0.023789 0.032932 0.009915 0.051683 0.021872 -0.045723 -0.011945 0.025163 -0.054665 0.002111 -0.004224 0.101143 0.025800 -0.037963 -0.064397 -0.011401 -0.063859 -0.021049 0.041409 -0.027957 0.067886 -0.067166 0.021761 -0.033442 -0.050311 0.033723 -0.098315 -0.021283 0.027921 -0.065716 0.018849 0.024550 0.003588 -0.027419 0.023005 -0.016800 0.017825 0.021342 0.008526 -0.024252 -0.007193 0.030791 -0.023797 -0.023173 -0.025826 -0.015870 -0.018406 -0.043835 -0.029325 0.055298 -0.067849 -0.040890 0.008709 -0.052754 0.013505 -0.043657 -0.039791 0.131514 0.057006 -0.046744 -0.051326 -0.013567 0.060554 0.002284 -0.107269 0.036992 0.077462 -0.010214 0.052103 -0.004400 -0.012019 -0.032363 0.053983 0.036755 0.055088 0.010673 -0.028373 -0.009012 -0.050218 0.003740 0.089597 -0.037189 -0.031563 -0.023462 -0.013339 -0.012360 0.003464 0.020892 -0.110155 -0.062392 -0.011191 -0.072089 0.013626 0.016955 -0.081371 0.016697 -0.074936 -0.004400 0.021450 0.078025 -0.014102 0.001201 -0.008289 0.019665 0.004183 -0.036132 0.005062 -0.041523 0.019501 0.114875 0.050939 0.042477 -0.015404 0.092944 0.068822 -0.049974 0.033951 -0.006302 0.020477 0.042221 -0.038996 0.039293 -0.031097 0.001339 -0.022543 -0.002119 -0.045737 0.058797 -0.002697 0.041447 -0.077544 0.074276 -0.028432 -0.024674 -0.059609 0.019252 0.008819 -0.053577 0.004695 -0.062031 0.087358 0.004053 -0.026413 -0.099941 0.009373 -0.030669 -0.034628 0.047550 0.098289 0.064105 -0.007210 0.031218 -0.004221 -0.041591 0.015367 -0.033044 -0.052463 0.038465 0.069984 -0.066107 0.000551 0.075189 -0.005144 -0.045654 0.024584 0.007085 0.007507 0.008013 0.040049 -0.002829 0.047585 0.010957 0.038169 0.016435 -0.050865 -0.010415 0.037190 -0.002078 0.078043 -0.018845 0.017272 0.005962 -0.066619 -0.045929 -0.037688 -0.098059 -0.017656 0.043093 0.074816 -0.019415 0.045412 0.053726 -0.006671 0.065342 -0.059282 -0.048964 0.011024 0.055583 -0.057029 -0.018565 -0.011587 -0.043567 0.075919 -0.082164 0.058821 -0.024248 -0.117224 -0.064333 -0.003159 -0.005205 -0.011349 -0.050298 0.047883 0.005660 0.026715 -0.066158 -0.039684 -0.009379 0.092559 0.006578 -0.056071 0.063273 0.023342 -0.074989 0.051463 0.005071 -0.003907 -0.032666 -0.008183 0.033497 -0.008320 0.029082 0.074184 0.061841 -0.076951 -0.055961 -0.070659 -0.084150 -0.002629 -0.065374 0.058463 0.057729 0.044351 -0.009333 0.017366 0.027679 -0.041140 -0.036446 -0.070336 -0.062993 -0.009355 -0.034925 0.055371 -0.041185 -0.097256 0.046798 0.032391 0.030340 0.038012 0.020997 0.007679 0.084149 0.031540 0.014170 -0.090108 0.034169 0.011761 -0.042087 -0.013061 0.006348 0.002740 -0.042816 0.020553 -0.036987 -0.014411 -0.062384 -0.013072 -0.022339 -0.013926 0.002933 -0.029099 -0.009611 0.038769 0.018669 -0.044045 0.004988 -0.015737 0.028054 -0.062506 0.090526 -0.033296 0.045272 -0.056454 0.061522 -0.082553 -0.017041 0.014161 0.008626 -0.048218 -0.071993 0.030319 0.013901 -0.032209 0.051964 -0.046597 -0.040263 0.026259 0.007067 -0.022562 0.052813 -0.019466 0.111118 0.066623 0.088517 -0.040282 0.003082 0.009679 -0.120019 0.011016 0.001004 0.045913 -0.075639 0.045433 -0.017873 0.031915 0.035386 -0.027139 0.099074 0.003217 -0.093314 -0.024699 -0.124649 0.046639 0.082398 0.069862 -0.028442 -0.075817 0.052629 0.022359 0.029273 -0.078767 -0.000497 -0.033587 0.006657 0.017589 0.065689 0.000638 -0.051176 0.080572 0.005680 -0.033384 -0.023285 0.064977 0.106464 -0.027483 0.022966 0.001515 0.012170 0.028259 -0.006806 0.091856 -0.009562 -0.039267 0.041653 0.035495 -0.038046 0.024893 -0.014380 0.018694 0.062970 -0.039509 0.000764 0.004958
) -0.036122 0.001373 -0.048824 -0.048236 -0.043284 -0.035746 -0.029294 -0.001379 0.008945 0.088742 -0.017989 -0.039209 0.023204 0.068851 -0.001659 -0.019826 -0.062738 -0.001485 0.000227 -0.012517 0.023914 0.018414 0.102939 0.045963 0.032631 -0.016939 -0.071504 -0.029097 -0.047793 0.022589 0.022753 0.099989 -0.029408 -0.093340 0.000414 -0.024932 -0.022811 -0.001091 -0.019605 0.039556 -0.027553 0.069310 -0.056636 0.003848 0.011487 0.003169 -0.044793 -0.043310 -0.004110 -0.001160 -0.036285 0.033390 0.021862 0.018095 -0.027394 0.034952 0.038480 0.033191 -0.016873 0.010713 -0.003952 -0.023288 -0.101644 0.067023 -0.038650 0.104167 0.011474 -0.070347 0.058727 -0.007930 -0.053270 -0.053022 0.055928 -0.001414 -0.032956 -0.040527 0.062098 0.092552 0.046461 0.044117 0.023055 0.009077 -0.010052 0.014464 -0.080978 0.030136 0.094107 -0.000810 -0.064052 -0.072567 0.125569 -0.047676 0.063601 -0.038930 -0.018944 0.033736 0.030207 0.021281 0.020712 -0.011917 -0.007119 0.017873 -0.009907 -0.010913 -0.043336 -0.071613 0.026588 -0.046079 0.044755 0.005854 0.003194 0.008029 -0.023339 -0.037850 0.073573 0.039576 0.017625 -0.013507 -0.037000 0.009896 0.045748 0.033135 0.053952 0.007227 0.015197 0.006899 0.028274 -0.022188 0.082833 0.039984 -0.007879 0.068782 0.010288 -0.033088 0.036925 -0.074354 0.026852 0.000767 -0.007938 0.020457 0.076709 -0.035563 -0.003177 0.020939 -0.017760 -0.028624 0.099446 0.005121 -0.052703 0.017245 -0.019567 0.001925 0.085504 -0.043796 0.010353 -0.036271 0.011290 -0.035810 0.116004 -0.021473 -0.019989 -0.000187 -0.014653 0.044078 -0.064620 0.057814 -0.035042 -0.033520 0.052177 0.095078 -0.030201 0.050106 0.104655 0.015900 -0.040808 -0.052432 0.001036 0.012286 0.025906 0.092937 0.024206 -0.002715 -0.055682 -0.036409 0.039562 -0.095931 -0.015105 -0.059832 0.023805 0.013852 0.002131 -0.028606 0.003105 -0.047827 -0.024127 0.001683 -0.072851 -0.000846 0.022785 0.051534 -0.036605 0.008253 0.010920 -0.013332 -0.050371 0.028644 -0.052606 -0.021857 0.028611 -0.047774 0.025458 -0.020005 -0.123576 -0.025604 -0.043244 0.022825 0.023965 -0.025648 -0.051478 -0.046246 -0.098909 0.024380 -0.006456 -0.004946 -0.028139 0.042950 0.012771 0.028918 -0.025037 0.072523 -0.032075 -0.069334 -0.032010 -0.039502 -0.049528 0.030198 -0.037829 0.044123 0.010787 0.011968 0.051253 0.011385 -0.003004 0.040111 -0.032264 0.009035 -0.080897 -0.042344 -0.010145 0.028703 0.006522 0.019961 -0.011563 -0.039764 -0.003817 0.030798 -0.007783 0.027638 -0.005170 0.037317 0.048262 -0.025905 0.008944 0.020214 0.005821 0.002157 0.050759 0.042248 0.075345 -0.006324 0.025076 0.077202 0.035759 -0.010299 -0.089357 0.001363 -0.036479 0.069227 0.007967 -0.021643 0.010455 0.038832 -0.024172 -0.036560 -0.029364 0.068862 -0.023870 -0.023574 -0.001228 0.009973 0.017589 0.028997 0.047725 0.039741 0.037104 0.002389 0.017401 -0.032366 0.088929 -0.032197 0.052171 -0.016314 0.038221 0.004013 -0.005811 -0.031378 -0.040094 -0.052169 -0.028018 0.010802 0.025038 -0.006437 0.003557 0.043643 0.024928 0.072243 -0.013716 -0.051772 -0.065141 0.040912 0.109224 -0.046204 0.014236 0.066000 0.056672 0.025198 -0.025591 0.021015 -0.038597 0.029562 0.035216 -0.004152 0.034104 0.002831 0.024347 -0.017820 -0.007280 -0.028852 -0.011266 0.005628 -0.034756 -0.021904 -0.059742 -0.031736 0.000189 0.052161 -0.024297 -0.031004 0.026009 0.025323 0.064340 0.025087 -0.012096 -0.002632 0.081250 0.018080 0.044674 0.065142 -0.052906 0.051593 -0.068474 -0.006266 -0.018385 -0.034575 0.038709 -0.015927 -0.011754 0.017783 -0.000056 -0.050520 -0.038563 0.015086 -0.008894 -0.031371 0.005551 0.002445 -0.052578 -0.037438 -0.079358 0.006814 0.013900 -0.050219 0.040876 0.050446
* -0.014186 -0.014192 0.006412 0.000700 -0.058706 -0.027918 0.006459 -0.061469 -0.036272 -0.024602 0.021450 -0.031744 0.030561 0.051726 -0.015762 0.025335 -0.046957 0.002088 0.064494 -0.040316 0.036031 -0.061874 0.067610 0.044935 0.009582 -0.024304 -0.061955 -0.013602 -0.041006 0.078851 -0.002035 0.014557 -0.014518 0.003182 -0.009312 -0.026947 -0.042587 -0.048461 -0.051895 -0.019751 0.024204 -0.021770 -0.087174 0.034050 -0.061029 0.060220 0.003188 0.000403 0.064610 -0.008190 -0.011906 -0.014546 -0.004361 0.097811 -0.036118 0.079515 0.036273 0.052042 0.020266 0.014396 0.017811 0.030448 0.036567 0.055858 0.014817 -0.007387 -0.052494 0.029108 0.055406 0.002958 -0.079984 -0.020201 0.073924 0.014036 -0.056148 -0.075106 -0.004811 0.053963 0.017406 0.035630 0.004296 -0.040417 -0.031189 -0.002477 0.033325 0.075932 0.071507 0.058675 -0.052965 -0.024621 -0.013682 0.071332 0.024493 -0.060383 -0.017204 0.006543 0.001097 -0.018174 -0.013247 -0.052226 -0.002617 0.015900 0.019580 -0.016627 0.015094 -0.077063 0.073333 -0.000739 0.063675 0.003774 0.088037 0.066188 -0.054056 -0.025521 0.002924 -0.026560 -0.037573 0.073567 0.011695 -0.003722 0.068553 -0.013904 0.108483 0.054353 -0.022141 0.051252 0.015126 0.007819 0.018485 -0.029958 -0.012767 -0.012905 -0.042981 0.003208 -0.017708 0.026924 0.004679 0.007152 0.041005 0.019234 0.023251 -0.047521 -0.027716 -0.069419 0.039862 -0.037791 0.086602 0.015152 -0.003736 -0.043370 -0.032383 0.088894 0.054892 -0.011491 -0.028255 0.064665 -0.025915 -0.030571 0.071046 0.043277 -0.044175 0.013084 0.006772 0.018865 0.037392 0.078629 -0.025808 0.047882 0.070266 0.042350 -0.008398 0.006809 0.044498 -0.011484 0.016760 0.022744 0.007013 0.014629 0.070052 0.023694 -0.045666 0.045960 -0.060475 -0.070428 0.058954 -0.013378 -0.020282 -0.040832 -0.060191 0.039762 0.032101 0.053416 -0.014977 -0.003094 0.025479 -0.066014 -0.055391 0.072677 0.085997 0.015605 -0.038917 0.011638 0.002505 0.017301 0.113929 -0.043533 -0.083013 -0.021183 0.029277 -0.016166 -0.031415 -0.072229 -0.107285 0.036855 -0.020838 0.047713 0.001202 -0.000284 -0.068726 -0.031583 -0.017800 -0.053478 0.012149 -0.020174 0.029411 0.045921 -0.063485 -0.030727 -0.030682 0.104206 -0.075072 -0.008305 -0.019589 -0.009318 -0.034607 -0.002145 -0.016324 0.022491 0.060168 0.091106 -0.023848 -0.051087 0.031683 0.044391 0.065584 0.022506 -0.011527 0.015014 -0.019661 -0.012368 0.010839 0.000140 0.025696 0.020182 0.042831 0.023966 0.008305 -0.020899 -0.112002 -0.060947 -0.002249 -0.003787 -0.028207 0.028323 -0.092867 -0.037564 -0.018058 0.076001 0.002597 -0.027285 0.030565 -0.010301 0.028891 0.018898 -0.074041 -0.067824 -0.021165 0.000248 0.013854 -0.024468 0.021937 -0.015461 0.027548 0.009734 -0.000497 0.026421 -0.139312 -0.055765 -0.039183 -0.004240 -0.058291 0.039361 0.061128 0.003845 0.071402 0.001618 0.025168 0.043738 0.081580 -0.036417 0.034202 -0.015441 0.020046 -0.012353 -0.044181 -0.092669 -0.063812 -0.025294 -0.015118 -0.035768 0.008464 -0.015492 0.048499 0.007263 0.013432 0.077897 -0.054743 -0.000432 -0.007261 -0.035267 0.009170 -0.058562 0.086701 0.023558 0.126954 0.018997 0.024343 0.018338 -0.059446 0.056531 0.083770 0.039578 -0.013846 -0.027865 0.030911 0.002630 0.062329 -0.069556 -0.039226 0.032681 -0.066290 0.044747 -0.030674 0.026147 0.042575 0.046939 -0.003647 -0.017497 -0.005369 0.009736 0.039680 -0.018055 0.050146 -0.036949 0.056124 0.097577 0.027358 0.092699 -0.014058 0.009523 -0.024181 -0.064956 -0.039049 -0.028510 -0.015775 -0.013167 -0.007012 -0.010644 0.058220 -0.057763 -0.069841 -0.019765 0.014112 -0.020594 -0.034278 0.021385 -0.054579 0.019392 -0.113774 -0.027260 -0.004055 -0.038918 -0.013281 -0.012194
+ 0.007996 -0.002380 0.042176 -0.040997 0.001043 -0.040684 0.070951 -0.007806 -0.013864 -0.045715 0.022105 -0.041755 0.066142 0.033149 0.010275 0.052735 -0.080299 -0.006543 0.019888 -0.037212 0.060692 -0.014531 0.055817 0.014491 -0.012153 -0.061768 -0.037660 -0.048681 -0.055469 0.051856 0.019036 0.020742 -0.008414 -0.056347 0.021770 -0.016943 0.042237 -0.036084 -0.023677 -0.035341 -0.054943 0.019966 -0.029168 0.023210 -0.014796 0.057207 0.001569 -0.002308 0.010772 -0.052252 -0.084470 -0.010113 -0.001658 0.048498 -0.017749 0.007667 0.056703 0.023079 0.048590 -0.018904 0.025291 0.051000 -0.002674 0.003041 0.008259 0.069224 -0.061209 -0.032173 0.065156 0.000467 0.006290 -0.085044 0.015795 -0.026569 -0.034542 -0.006887 0.026694 0.014198 -0.014136 0.027327 0.044722 -0.060033 -0.009159 0.026477 0.029852 0.078783 0.025628 0.019027 -0.046151 -0.032813 0.091841 0.003101 0.015439 0.013276 0.005942 -0.014389 -0.030524 -0.008083 -0.042271 -0.022159 -0.011569 0.032684 -0.063705 -0.042544 -0.033767 -0.020278 0.027221 -0.039833 -0.003633 0.090118 -0.000099 0.045035 0.005101 -0.032454 0.006585 0.022541 -0.023608 0.054629 -0.035909 -0.012221 0.013894 -0.039083 0.007172 0.037139 0.012714 -0.015704 -0.021702 0.005919 0.035105 -0.046576 0.036647 0.021516 0.002390 -0.044288 0.059687 -0.055954 -0.024643 0.025813 0.009664 -0.016785 -0.005794 -0.060974 0.033080 -0.033697 0.011222 -0.058093 0.061456 0.057191 -0.070888 0.006312 -0.052895 0.007247 0.076929 -0.046647 0.003037 0.057293 -0.014024 -0.012696 0.159067 0.074904 -0.030211 0.009552 0.043461 0.053839 0.016909 0.026523 -0.043517 0.023796 0.043926 0.009684 0.000607 0.087209 0.014931 -0.002651 0.008140 -0.021562 0.025608 0.075087 0.068679 0.037853 0.035405 0.064099 -0.048543 -0.042250 0.019297 -0.035963 0.037923 -0.004380 -0.006779 0.030638 -0.034729 0.005320 -0.001659 0.014540 -0.028295 -0.069050 -0.015751 0.007690 0.073661 0.040004 -0.043294 0.073969 0.068102 0.035438 0.012375 -0.048066 -0.044627 -0.044151 -0.007970 -0.066871 0.004210 -0.026663 -0.056490 0.028610 -0.050458 0.074905 -0.055620 -0.076821 -0.057857 -0.030262 -0.055985 -0.038701 0.040192 -0.021941 -0.065407 0.046650 -0.048313 -0.035426 -0.056096 0.047419 -0.057521 -0.035436 0.029694 0.056193 -0.048009 0.024198 -0.040234 0.021009 -0.020798 0.055194 0.074293 0.046833 -0.039002 -0.032362 0.050151 0.021645 0.018858 -0.080885 0.011670 -0.103020 -0.044410 0.042028 0.025430 0.030830 0.031607 0.053058 0.014591 0.005288 -0.027502 -0.102171 -0.038672 -0.005618 -0.038004 0.036274 -0.031395 -0.052865 0.056601 0.011211 -0.001259 -0.038581 0.022864 -0.000296 0.017945 0.002463 -0.022267 -0.039834 -0.041705 0.043860 0.028955 -0.029611 -0.014160 -0.001252 -0.031021 0.037592 -0.035247 0.028616 -0.089843 0.007362 -0.006014 0.050050 -0.043527 0.000669 0.001780 0.000590 0.069522 0.013505 -0.040621 -0.042296 0.094430 -0.016682 0.000777 -0.026694 0.018093 -0.055998 -0.046198 -0.053145 -0.038116 -0.015474 -0.021647 0.023876 0.022007 0.064998 0.014354 -0.027837 0.003038 0.036105 -0.026064 -0.020296 -0.054468 0.051110 0.033712 -0.087728 0.044956 0.029434 0.060060 -0.008321 -0.066984 -0.022620 -0.031514 0.015219 0.051357 -0.022421 0.048707 0.017030 0.005323 -0.047138 0.016415 -0.068393 0.038770 0.004166 -0.068152 0.039436 -0.048334 0.026180 0.056017 0.053120 -0.072140 -0.033572 0.006439 0.036042 0.075268 -0.002555 0.020874 -0.023089 0.040312 0.007835 0.007342 0.061811 -0.030795 0.064418 -0.026562 -0.073339 -0.052404 0.017272 0.062855 0.039258 -0.045667 -0.003005 0.032468 -0.016924 -0.045943 0.013071 0.017647 -0.014609 0.072184 0.043148 -0.054133 -0.048864 -0.079785 -0.034099 -0.019663 -0.078245 0.060437 0.073183
, -0.066264 0.026056 -0.014797 -0.008017 -0.034983 0.031077 -0.001239 0.069047 0.063397 0.078498 0.015892 0.048698 -0.058944 -0.013494 -0.062581 -0.029258 -0.073587 0.046246 0.042365 0.020686 0.034709 0.016924 -0.014123 0.000681 -0.014971 0.023351 -0.014422 0.030855 -0.007844 -0.080036 -0.010225 0.017243 0.031408 0.019779 0.004959 -0.032351 -0.039779 -0.015205 0.012687 0.054387 0.077414 0.073675 -0.003981 0.035591 0.049511 -0.017809 -0.006722 -0.068238 0.017130 0.008274 0.041158 0.010321 -0.061259 0.028079 -0.012071 -0.018526 0.054449 -0.016970 -0.014802 0.021253 0.020982 -0.025102 -0.022311 -0.009179 -0.009231 -0.017580 -0.017698 -0.009995 -0.015456 -0.086297 -0.009958 -0.017093 -0.015966 0.046742 -0.007129 0.022756 0.066210 -0.006576 0.004389 0.007480 0.022156 0.006581 0.019863 -0.027173 -0.049375 -0.047684 0.094100 -0.003611 -0.011030 0.005239 0.048134 -0.004077 0.006055 -0.048034 -0.033296 0.088668 0.031110 0.040287 0.020502 -0.005580 0.003869 0.065265 -0.024342 0.000115 -0.030216 -0.010769 -0.011653 0.026362 0.081310 -0.024452 0.034252 -0.006196 -0.013421 -0.041620 -0.004173 -0.026102 -0.057759 -0.077223 0.030134 -0.005157 -0.003716 -0.032134 0.027354 -0.048733 -0.038306 -0.037727 0.021437 -0.004177 0.070794 -0.067956 -0.002103 -0.015166 0.017280 0.024250 0.010465 0.052935 0.005159 0.035573 0.058961 0.007127 -0.006178 0.079896 -0.011849 0.066625 -0.078785 -0.037368 0.037413 -0.012114 0.040459 -0.032906 -0.013738 -0.001966 0.078919 0.008473 -0.066782 -0.002319 0.001824 -0.018254 -0.016225 -0.031126 -0.074747 -0.023384 0.018922 0.035609 -0.005669 -0.019237 -0.073758 -0.017969 0.014980 0.009332 0.014514 -0.064907 0.038475 0.002824 -0.030738 -0.039995 -0.006773 0.023338 0.089680 0.021214 0.014729 0.016792 -0.015135 -0.006313 0.018825 -0.083082 0.024211 -0.043130 0.043272 -0.018276 0.011990 -0.021583 0.016276 -0.008000 0.015535 -0.025753 -0.038245 -0.046816 -0.042889 0.023463 0.040926 -0.038060 -0.053006 -0.041639 -0.039696 0.007041 -0.023066 0.048999 -0.039749 0.026337 -0.013460 0.008095 -0.023370 -0.060626 -0.026871 -0.038706 0.012201 -0.022411 -0.000592 -0.022350 -0.014677 0.026165 -0.015504 0.071868 0.009332 0.019522 0.047237 -0.019287 0.002633 0.013753 0.074647 -0.049320 0.018145 -0.033658 -0.052719 0.006939 -0.001028 -0.021240 0.055925 -0.019088 0.051918 -0.025842 0.028180 0.061191 -0.019119 0.024847 -0.025383 0.005996 0.039324 -0.038643 0.033227 0.002298 -0.027464 -0.062279 -0.030514 -0.047884 0.015531 -0.041637 0.014663 0.001907 0.043438 -0.041750 0.003959 0.035135 0.017053 0.043623 -0.034339 0.047131 0.059051 0.041403 -0.013516 0.001962 0.035859 -0.033387 -0.032515 0.040724 -0.002601 0.027552 -0.054427 0.009884 -0.021208 0.065663 -0.036945 0.045218 0.054130 0.050383 0.006143 0.011222 -0.016682 0.067151 0.024796 0.008613 -0.027853 -0.019795 0.044666 0.018111 0.063474 0.018710 0.030554 -0.015643 -0.007079 0.022435 0.011049 0.019927 0.006976 -0.001779 -0.068471 0.010734 -0.024440 -0.033717 0.024083 0.028026 -0.027793 -0.064212 -0.011252 0.025027 0.025049 -0.055331 0.016302 -0.026145 0.060216 -0.023916 -0.003784 -0.018340 0.032313 -0.079198 -0.037327 0.029127 0.040446 -0.018475 -0.018002 0.029360 0.008210 -0.023532 0.001753 0.011962 -0.050227 -0.036847 -0.035019 -0.055594 -0.014388 -0.034769 -0.024230 -0.018780 -0.035837 -0.036682 0.071965 0.010669 -0.039062 -0.009178 -0.018567 0.042232 0.006442 0.060152 0.010756 0.036939 0.045900 0.023621 -0.073768 -0.014087 0.000455 -0.011615 -0.043775 0.002702 -0.011351 0.000260 0.018307 -0.011715 0.018806 0.010784 -0.027015 -0.005576 -0.002855 0.006857 -0.022318 -0.014688 -0.001166 -0.057969 -0.036522 -0.060138 0.007803 0.058187 -0.015958 0.018112
- -0.018053 0.060229 -0.067177 -0.029230 -0.084955 0.021893 0.008728 -0.019498 0.011742 0.006113 0.025894 0.023906 0.043667 -0.045254 0.028436 -0.021107 0.015565 -0.012105 0.023057 -0.007204 0.009982 -0.041620 0.012576 0.023620 0.030812 -0.021879 0.016948 0.042385 -0.024391 -0.042200 0.045883 0.000997 0.039119 -0.075119 -0.092963 0.011611 0.004855 0.002117 0.050445 -0.004073 0.038930 0.001371 0.030881 0.058965 -0.005158 -0.035121 -0.033560 -0.025452 0.032667 0.064724 0.036217 0.033680 -0.015737 0.069940 0.047916 0.022154 -0.067304 0.052447 -0.016504 0.003828 0.040898 -0.045857 -0.009172 -0.011396 -0.014965 0.030182 -0.056387 -0.008906 -0.045726 -0.069069 -0.007352 0.008357 0.117775 0.010101 -0.047730 -0.133812 -0.077806 -0.005566 -0.036877 0.028784 0.028348 -0.014150 -0.040617 -0.048419 0.005550 0.029158 0.035846 -0.004568 0.070910 0.017352 -0.058268 0.109334 0.013087 -0.096221 0.040042 0.042107 -0.010415 -0.027063 -0.026259 0.042433 0.031948 -0.007851 0.064577 -0.006940 -0.010573 -0.050209 0.003457 0.053785 0.086205 0.034299 -0.018820 -0.036873 -0.014801 -0.092880 -0.068391 -0.022974 0.027753 0.060287 -0.029605 -0.047394 -0.041270 -0.024370 0.081100 -0.025220 0.001955 -0.055912 -0.045437 0.066381 0.092949 -0.048513 -0.000426 0.078574 -0.042922 0.041623 -0.053502 0.029718 0.076888 0.067128 -0.046042 -0.048196 0.039465 -0.023863 -0.011826 0.047211 -0.013127 -0.013959 0.065686 0.080087 -0.026906 0.015305 0.003244 0.036690 0.036648 0.002852 -0.025292 -0.009066 0.042798 0.045901 -0.079775 -0.056829 -0.042951 0.052809 0.069282 0.057691 0.064335 0.022928 0.039589 -0.011262 -0.013118 0.035990 -0.017844 0.002797 0.044225 -0.029885 0.061477 -0.008956 0.054760 -0.005380 0.085484 0.013448 0.016730 0.064501 0.032022 -0.050513 -0.092330 -0.098429 -0.027678 0.033978 -0.012234 -0.008572 -0.013044 0.005350 0.028346 0.010516 -0.000240 0.004679 -0.049588 0.032947 -0.006932 -0.102771 0.011192 0.030152 -0.013085 0.003406 0.076938 -0.050030 -0.050750 0.085519 0.047190 -0.019796 -0.033604 -0.055721 -0.042738 -0.025624 0.013887 0.030649 0.027287 0.013547 -0.019620 0.076419 -0.004333 0.047334 0.020282 0.084978 -0.004454 -0.018162 -0.072725 -0.067614 -0.069408 -0.009941 -0.064537 -0.005577 -0.004205 -0.033614 0.048715 -0.081357 0.003284 0.035515 0.034317 -0.020441 -0.056085 0.018697 0.041950 -0.001417 -0.008754 -0.001504 -0.052046 0.008950 -0.017141 -0.034846 0.057893 0.036052 -0.033813 0.032961 0.049805 -0.013888 -0.017099 0.029571 -0.009199 0.033849 0.038293 0.005083 -0.034787 -0.000736 -0.006818 0.029015 -0.014380 0.056442 0.004604 0.065622 -0.024260 -0.018238 0.018470 -0.065709 0.004459 0.039253 -0.029886 -0.094636 -0.037845 0.019171 0.068073 -0.002162 0.051530 0.073103 0.032951 -0.059524 -0.050793 0.001272 -0.012610 0.026385 -0.050558 -0.017414 -0.062849 0.013252 -0.004607 -0.008338 0.036097 0.010128 0.172010 -0.004608 -0.034686 -0.022191 0.016322 0.038008 -0.010289 -0.015000 -0.057394 0.045341 0.077045 -0.063009 0.015805 -0.031538 -0.012460 -0.062360 0.094772 -0.077357 -0.102394 0.034639 0.012503 -0.073634 0.061353 -0.012613 0.003329 -0.032865 -0.019887 0.006708 0.065956 -0.002198 -0.057600 0.033109 0.066547 -0.058691 -0.063799 -0.012446 0.027465 0.006375 -0.015256 -0.047038 0.015029 0.006366 0.057173 0.018421 0.045393 -0.026858 -0.001543 0.004728 0.064729 0.011428 0.030157 -0.049605 0.050059 0.049956 0.017665 0.002920 -0.058667 0.042372 0.078682 0.051611 -0.083527 0.007854 0.005893 0.058714 -0.062736 -0.012743 0.023362 -0.033442 0.008379 0.051012 -0.012437 -0.057291 0.028214 -0.052554 -0.060590 -0.019917 -0.008368 0.008462 -0.015879 0.009205 -0.125448 -0.049964 0.047318 -0.020056 -0.083497 0.001181
. -0.009687 0.013803 -0.009804 -0.013078 -0.053843 0.017182 -0.049898 -0.003205 0.048287 0.032175 -0.036064 -0.047297 0.010357 0.012406 -0.090871 -0.021737 -0.034863 0.003018 0.040306 -0.006904 0.005004 0.004481 0.026261 -0.030564 0.021652 0.056820 0.039692 0.046786 -0.073664 -0.042064 0.009055 0.020496 -0.001975 0.003771 -0.043684 -0.054424 0.067904 -0.045679 -0.010159 0.033278 0.042246 0.070910 -0.001552 0.023293 0.030406 -0.026031 -0.019659 0.011989 0.013926 0.064726 -0.009395 -0.022590 -0.015938 0.040327 -0.022816 0.039734 0.024548 -0.025820 -0.025653 -0.020522 -0.042319 -0.006651 -0.043993 -0.012708 -0.031034 0.012997 0.022108 0.022199 0.041565 -0.007732 0.015056 0.003137 -0.066412 0.060593 0.006218 -0.018310 0.059450 0.033684 0.010730 0.046522 0.002980 -0.040049 0.043072 -0.073043 -0.028240 -0.072618 0.101643 0.040369 0.006306 -0.018941 0.059329 -0.002498 -0.011318 -0.032767 -0.005401 0.004679 0.001103 0.004472 0.065885 0.007225 0.041742 0.058314 0.037878 0.026636 -0.000575 0.018274 0.014904 -0.034478 0.049947 -0.011812 -0.003109 0.035683 -0.096402 -0.025645 -0.018686 0.014774 -0.021903 -0.016945 0.065633 0.016631 0.052038 -0.010386 -0.047482 0.027250 -0.024195 -0.053561 -0.007629 -0.022713 0.066462 0.050481 0.061941 0.014012 0.052318 0.060527 0.017246 -0.016667 -0.043213 0.032373 0.007407 0.037208 0.014892 0.000817 -0.033918 0.035602 -0.032612 -0.017737 0.094219 0.006109 0.035349 0.030801 -0.045700 0.015789 0.055120 -0.024095 -0.003236 -0.002022 0.021182 -0.008162 -0.008357 -0.045924 -0.082421 -0.080334 0.067499 0.004081 -0.006173 -0.048867 -0.082903 -0.023036 -0.000372 0.027531 0.021661 -0.025439 -0.002552 -0.019719 0.019065 -0.028168 -0.045197 -0.019006 0.058974 -0.021309 -0.020089 -0.005973 0.040195 -0.021330 0.009393 -0.026046 -0.017790 -0.057148 0.057438 -0.001948 -0.019397 -0.029389 -0.022148 -0.025006 0.083412 -0.018859 -0.000551 -0.060454 -0.053075 0.053352 0.032430 -0.012140 -0.016784 0.000641 -0.031578 0.054250 0.014315 0.028986 -0.054070 -0.027930 0.018783 -0.027806 -0.020038 -0.034642 0.001888 0.009195 -0.029689 0.037129 -0.012742 -0.003824 0.051905 0.005206 -0.016508 0.020005 0.025834 -0.002332 0.050509 0.018583 -0.002453 0.007166 0.033399 0.028502 0.000389 -0.046227 -0.064937 0.016054 -0.032206 0.021220 0.012008 0.072209 -0.020433 -0.044925 -0.023062 0.026603 -0.059293 -0.008230 -0.024504 -0.053223 0.007976 0.025723 0.040545 0.015784 -0.065036 0.005076 -0.028500 -0.049832 -0.008168 -0.005539 0.060965 0.052730 0.045535 -0.045267 0.000602 -0.017650 0.054690 -0.039482 0.017633 0.035772 0.030063 0.080416 0.030535 0.000828 0.016838 -0.048397 -0.024675 0.035387 0.053817 0.049306 0.052656 0.038866 0.015950 0.052977 -0.033462 0.069167 0.011227 0.056883 -0.003900 -0.012437 0.007047 -0.022732 0.012316 -0.019006 -0.027457 -0.025471 0.028239 0.004000 0.039708 0.024467 0.040990 0.013848 0.033468 0.021604 -0.057948 0.006870 -0.004286 0.024906 -0.036720 0.045880 -0.022597 -0.004474 -0.004569 -0.005352 0.038545 0.042999 0.001759 -0.007796 0.040862 -0.099705 -0.054418 -0.018189 0.048274 -0.022245 0.038854 0.036017 -0.008019 -0.075549 -0.036721 -0.060935 -0.035324 -0.009895 0.024481 -0.005995 -0.016600 0.012480 0.010730 -0.010951 -0.037207 0.007518 -0.030829 0.027624 -0.001066 -0.019762 0.044609 -0.021588 -0.027508 0.022240 0.071405 0.005581 0.000980 -0.004134 0.006748 0.091487 -0.075052 -0.038353 0.003632 0.012132 0.048514 0.002244 -0.066718 -0.020911 0.009384 -0.009847 -0.064315 -0.022361 -0.000499 0.032390 0.005244 0.020678 0.047524 -0.030723 -0.027500 -0.029836 -0.029699 -0.017744 -0.043373 -0.010354 -0.052904 -0.020767 -0.048782 0.015770 -0.005808 0.010175 -0.041051 -0.052392
0 -0.020680 -0.015306 0.063392 -0.032298 -0.047911 -0.069984 0.012136 -0.039232 -0.015360 0.055977 0.016488 -0.032742 0.045621 0.005020 0.001006 0.066771 -0.039758 -0.023223 0.024917 -0.058258 0.013261 -0.037633 0.015640 0.028923 0.014330 0.020176 -0.045317 -0.024830 -0.067694 0.063919 0.022283 0.049088 0.012288 -0.010895 -0.026320 -0.090002 -0.006539 -0.041260 -0.067665 -0.029575 -0.033289 0.014323 -0.087349 0.035767 0.040527 0.023985 -0.011636 -0.004931 -0.008639 -0.041029 -0.043556 0.047244 -0.048586 0.094222 0.014045 0.062399 0.007801 -0.004686 0.040348 -0.011729 0.035008 0.071819 -0.005962 0.032465 0.038585 0.014741 -0.021466 -0.023366 0.036804 -0.077079 -0.072603 -0.059978 -0.011740 0.004329 -0.038440 -0.006457 0.063531 -0.007319 0.017950 0.037077 0.039868 -0.044702 0.038844 -0.046592 -0.024215 0.027209 0.087248 0.037703 -0.069424 -0.036246 0.047396 0.000635 -0.014296 0.001556 -0.056907 -0.030537 -0.047916 -0.013085 0.043714 0.031435 -0.010236 0.035400 0.001911 -0.015571 -0.084085 -0.086519 0.020782 -0.055020 0.009963 0.004338 0.070886 0.039314 -0.001538 -0.006186 0.019385 0.001634 -0.068014 0.026292 0.010638 0.012244 0.020565 -0.066215 0.048240 0.047354 -0.018114 0.009248 0.031279 -0.006066 0.032294 -0.037752 -0.003963 -0.002764 -0.047828 -0.009059 0.055588 0.010387 0.018611 0.000350 0.093488 0.044901 -0.001081 -0.028813 0.010917 -0.039112 0.047208 -0.041147 0.054367 0.011877 0.008866 -0.004857 0.011128 0.056707 0.026462 -0.020730 0.096692 0.050024 -0.043220 0.012649 0.061996 0.060242 0.003954 0.028548 0.040161 0.012514 -0.000363 0.070855 -0.028987 0.089100 0.047398 0.037255 -0.029152 -0.021086 0.057999 0.009509 0.040745 0.028864 0.048820 0.020970 0.078340 0.040530 -0.014095 0.044931 -0.025047 -0.023587 0.079912 -0.015297 0.027103 -0.024632 0.024498 -0.004210 -0.064032 0.043133 0.004668 0.000724 -0.041519 -0.005870 -0.100389 -0.043344 0.045764 0.062235 -0.049281 0.020512 0.019636 0.028743 0.061556 -0.047875 -0.037874 -0.065529 -0.000704 -0.018392 -0.031575 0.028730 -0.085874 0.013986 -0.017756 0.020947 -0.062527 -0.001438 -0.065953 -0.037132 -0.030802 -0.049510 0.014137 0.016936 -0.034233 0.059295 -0.020621 -0.075361 0.018933 0.088425 -0.028109 -0.064268 -0.008888 0.012850 -0.046070 0.028106 -0.017261 -0.013428 -0.002038 0.092657 0.036753 0.026806 0.010106 0.055199 0.104117 -0.005273 -0.014087 -0.017918 -0.016695 -0.024985 -0.023588 0.000780 0.014319 0.024921 0.038793 0.022465 -0.048714 -0.004372 -0.085012 -0.017366 -0.072183 -0.066780 0.052898 0.033431 -0.009078 -0.052014 0.016087 0.044625 0.058316 -0.033057 0.020931 0.012895 0.043475 -0.026489 -0.033483 -0.031298 0.003112 0.053494 0.055651 -0.013441 -0.066526 -0.001698 -0.056827 0.020726 -0.043303 0.039273 -0.075414 0.010096 -0.004035 -0.027113 -0.037008 -0.024450 0.018897 0.071034 0.050854 0.018136 0.010627 0.011431 0.116010 0.025170 0.049330 0.004144 -0.006757 -0.010923 -0.089933 -0.038553 -0.019110 -0.003738 -0.026021 -0.010834 0.022142 0.024360 0.044908 0.014370 0.034029 0.056218 -0.044863 -0.026409 -0.021924 -0.018200 0.049710 -0.081302 0.037362 0.014811 0.033547 -0.014489 -0.033006 0.007487 0.016883 0.057325 0.116490 0.044130 0.020623 0.016109 -0.010283 -0.098625 0.016177 -0.093786 -0.056768 0.008013 -0.004522 0.016798 -0.027586 0.010354 -0.000944 0.062134 -0.009974 -0.018736 -0.014334 -0.021888 -0.004836 0.003456 0.022442 0.003516 0.069560 0.024297 -0.006218 0.021502 0.002373 0.003382 -0.018211 -0.018752 -0.023867 0.011748 0.027845 0.077103 -0.053906 0.003338 0.048975 -0.023498 -0.011460 -0.034736 0.022219 -0.062193 -0.024618 0.006606 -0.036193 0.031754 -0.112153 -0.030402 -0.076368 -0.017330 0.022027 0.034496
1 0.001949 -0.076078 0.058818 0.003207 -0.050496 -0.044347 -0.010812 -0.045549 -0.043975 0.055800 -0.016010 -0.057163 0.079275 0.045382 0.012774 0.089166 -0.065726 0.008835 0.045474 -0.020463 -0.045961 -0.095638 -0.015597 -0.041806 0.041383 -0.016313 -0.067223 -0.013136 0.006785 -0.010079 -0.039515 0.036896 0.084716 -0.035317 -0.022070 -0.019839 -0.020918 -0.093285 -0.024398 0.007891 -0.003443 -0.042378 -0.035974 0.016261 -0.014326 0.029271 -0.005240 0.050369 0.046071 -0.015237 -0.063727 0.007988 -0.104895 0.069733 0.035644 0.018560 -0.032539 -0.025850 0.025762 -0.021962 0.048807 0.133920 -0.003122 0.061050 0.059479 0.030826 -0.140810 -0.060067 0.040408 0.003232 -0.063907 -0.046073 0.023468 0.099859 -0.039517 -0.001692 0.010314 -0.013597 0.064336 -0.006782 0.054432 -0.025953 0.027292 -0.082503 -0.040117 0.071962 0.000088 -0.040755 -0.039834 -0.075167 -0.015204 -0.001113 0.060810 -0.061618 -0.006890 0.035036 -0.046939 -0.085861 -0.007556 0.021385 0.008323 0.019197 0.055435 -0.039341 0.014040 -0.084264 0.070185 -0.036925 0.016655 0.000351 0.044858 0.043191 -0.057541 -0.028143 0.024846 0.036939 -0.027112 0.020668 -0.067437 -0.015186 0.033037 -0.017323 0.041592 0.012543 0.030859 0.048837 0.003042 0.060566 0.038394 -0.054139 0.014730 -0.036228 -0.042529 0.042724 -0.035626 -0.011657 0.008161 0.004127 0.139215 -0.003884 0.009266 -0.074478 0.034593 0.017810 -0.001817 -0.037422 0.026148 0.027304 -0.013104 0.096152 0.005960 0.124087 0.016515 0.002383 0.057577 0.052838 -0.105389 -0.033029 0.009225 0.039159 -0.052071 0.039433 0.061115 0.029942 0.010264 0.076073 0.006513 0.029487 0.045085 0.006319 -0.069335 0.085435 0.062780 -0.005151 0.053276 0.021621 0.073697 -0.016292 -0.028879 0.063435 0.012871 0.056852 -0.065217 -0.047132 0.057129 -0.000417 -0.021278 -0.014150 -0.024742 -0.034182 -0.073408 0.044544 -0.096900 0.104907 -0.063602 0.060937 -0.023253 -0.007047 0.025571 0.049699 0.064922 0.064429 0.034208 0.068116 0.022867 -0.074436 -0.033707 0.015273 0.004858 -0.032514 -0.053759 -0.037093 -0.036981 0.035114 -0.011982 -0.056210 0.039268 -0.027016 -0.104211 0.039857 -0.023811 -0.080661 0.005533 0.015256 -0.024989 0.070055 0.047720 -0.080927 -0.016320 0.073984 -0.128806 -0.054256 0.004599 0.067806 -0.069866 -0.014049 0.005753 0.004667 0.017642 0.081018 -0.000205 0.102641 -0.063527 0.032939 0.049928 -0.090281 -0.059641 0.023986 0.047807 -0.040698 -0.042344 -0.026081 0.001168 0.053837 0.100564 0.031416 -0.054821 -0.089795 -0.119249 -0.037765 0.002254 -0.015537 0.037205 0.018893 -0.052714 -0.047487 0.020884 -0.032407 -0.033397 -0.067551 0.064651 -0.065887 0.018507 -0.024644 -0.084189 0.000587 -0.052531 -0.019944 0.021608 0.018610 -0.036116 0.019636 0.024226 0.013486 -0.031772 0.018181 -0.104222 0.007187 -0.035147 -0.041499 -0.046473 0.061317 0.055239 0.149788 0.087657 0.023645 0.031484 -0.048197 0.012791 0.016736 0.047258 -0.007293 0.024232 0.071634 -0.033990 -0.047767 -0.012943 -0.049797 0.027572 0.038639 0.073537 0.015454 0.029132 -0.009260 0.034815 0.007780 -0.123001 -0.037260 0.019508 0.043880 0.014588 -0.041627 0.013097 0.037534 0.107610 -0.044622 0.019661 -0.005268 0.012312 0.103830 0.116540 0.012198 0.051143 0.025956 0.035767 -0.074171 -0.014136 -0.018880 -0.003563 0.046652 -0.001776 0.018154 -0.019533 0.060883 -0.053453 0.030869 -0.053958 0.003304 -0.001984 -0.067916 -0.020152 -0.096450 0.066642 -0.014532 0.017806 0.078193 0.029378 0.059827 -0.071876 -0.006675 -0.001990 -0.028121 -0.014356 -0.005705 -0.024260 0.032567 -0.147199 0.063887 0.038735 -0.103904 -0.037440 -0.023677 -0.033810 -0.027402 -0.011236 -0.012774 -0.051299 0.020964 -0.055713 -0.005444 0.030805 -0.020838 0.027099 0.103300
2 0.045870 -0.047217 0.055655 -0.045999 -0.037162 -0.067548 0.078649 -0.011381 -0.075233 0.018780 0.017712 -0.054272 0.027865 0.064905 0.032695 0.105586 -0.074149 -0.044242 0.048460 -0.050815 0.014057 -0.020541 0.000989 0.055919 -0.016436 0.002119 -0.050315 -0.018308 -0.029671 0.024292 0.001958 0.068647 -0.021918 -0.005597 0.017581 -0.044540 -0.004399 -0.040924 -0.061802 0.018591 -0.011292 -0.030536 -0.060884 0.058004 -0.062686 0.040070 -0.035917 0.036675 0.028725 -0.017339 -0.058578 0.034685 -0.026821 0.088652 -0.010601 0.055303 -0.055301 0.054619 0.009033 -0.002098 0.039251 0.052687 0.020861 0.086969 0.052895 0.009204 -0.066695 -0.066075 0.019774 -0.014598 -0.034352 -0.081003 0.026397 0.007101 -0.039243 -0.007194 -0.002645 -0.021652 0.036586 0.016264 0.033862 0.020216 0.061332 -0.068649 0.020669 0.047182 0.035318 0.017378 -0.073795 -0.093257 0.007321 0.014707 -0.008788 -0.026777 -0.050284 -0.017358 -0.009163 -0.071669 -0.012667 -0.022813 -0.006739 0.027074 0.015774 -0.070838 0.009040 -0.101191 0.061814 -0.108832 0.083754 0.036727 0.117437 0.028893 -0.056664 -0.040017 0.067591 0.025658 -0.026201 0.066668 -0.066299 -0.012656 0.068249 -0.069945 0.080439 0.033025 0.021006 0.048457 -0.031129 0.021377 0.039382 -0.030194 0.014180 -0.005502 -0.019607 0.033841 0.039582 -0.034815 0.063801 0.021145 0.110742 -0.026204 0.005727 -0.066194 0.050480 -0.045743 0.001749 -0.096070 0.024248 -0.005873 -0.015958 0.009531 0.004197 0.087493 0.047857 0.004700 0.047902 0.043630 -0.070624 -0.003121 0.033464 0.046991 -0.011692 0.001346 0.031147 0.034502 0.080804 0.075819 -0.015658 0.061445 0.048691 0.028617 -0.041659 0.040841 0.082872 0.007799 0.042235 -0.010607 0.018129 0.027233 0.001532 0.026269 0.016846 0.043485 -0.044208 -0.011832 0.027639 -0.003491 0.016956 -0.011523 -0.076815 -0.023572 -0.055947 0.041072 -0.041294 0.055352 -0.047937 -0.007219 -0.103719 -0.014735 0.047155 0.022455 0.016135 0.004000 0.055768 0.021338 0.015799 -0.055472 -0.056113 -0.038210 0.019383 -0.044512 -0.029596 -0.047642 -0.061965 0.011284 -0.037391 -0.002395 -0.048455 -0.074911 -0.070702 0.000156 -0.071514 -0.055551 0.040090 0.030719 0.003552 0.038268 0.017312 -0.030634 0.006632 0.093172 -0.064783 -0.053559 -0.028881 0.076127 -0.002062 0.052797 -0.006277 0.066938 0.006169 0.075954 -0.004269 0.051412 -0.059169 0.017408 0.087816 -0.039902 -0.034513 0.028582 0.035181 -0.044322 -0.017316 -0.006801 0.005375 0.030217 0.053104 0.012130 -0.022970 -0.072542 -0.056331 0.005013 -0.051611 -0.000528 0.056785 0.009507 -0.007120 -0.031630 -0.014783 0.037704 0.034493 -0.056201 0.031848 -0.039771 0.047044 0.008794 -0.029332 -0.049149 -0.020821 0.001589 0.046527 -0.049065 -0.015413 0.005961 0.016626 0.024704 0.017686 0.036460 -0.082828 0.030373 0.044151 -0.066987 -0.032748 0.023505 0.063828 0.031883 0.006518 0.016340 0.002580 -0.046726 0.045520 0.054461 0.045580 -0.015245 0.032486 0.033194 -0.024868 -0.071817 -0.048697 -0.055565 -0.009399 0.028062 0.003526 0.006112 -0.005630 -0.010519 0.063375 0.045963 -0.061283 -0.045028 -0.038137 0.014853 0.013698 -0.027584 0.062969 0.011786 0.104759 -0.032547 0.015761 0.028634 -0.039420 0.053018 0.111469 0.018334 0.095056 0.031718 -0.020667 -0.058826 0.030596 -0.054979 -0.004759 0.010629 -0.021616 -0.027288 -0.019628 -0.006399 0.007943 0.030889 -0.034489 -0.020627 -0.015757 0.016701 0.034752 -0.067349 0.001363 -0.034174 0.032152 0.042788 0.054049 0.041421 -0.034834 -0.015875 -0.042722 -0.052327 -0.000938 0.053297 0.038695 0.031521 -0.089253 0.044036 0.023541 -0.100990 -0.024173 -0.022207 -0.022068 -0.055200 -0.017052 -0.001806 -0.047350 0.014597 -0.093978 -0.017395 0.032075 -0.008479 0.021183 0.041545
3 -0.022752 -0.036527 0.051717 -0.014661 -0.003992 -0.052974 0.048193 -0.044380 -0.054909 0.028790 -0.008963 -0.026632 0.019401 0.034460 0.000476 0.056697 -0.064803 -0.047897 0.009299 -0.048928 0.020589 -0.043930 0.001136 0.035304 0.029985 -0.030811 -0.052792 -0.016549 -0.028864 0.016956 0.034719 0.043263 0.002270 0.012688 0.010265 -0.058269 -0.009414 -0.074105 -0.072214 0.007772 0.000815 0.037916 -0.079576 0.023392 -0.065351 0.016570 -0.049372 -0.000671 0.059479 -0.022433 -0.050769 0.072640 -0.054261 0.082228 -0.019235 0.040422 0.019639 0.058279 0.057968 -0.025252 0.034894 0.068764 -0.037281 0.008871 0.041425 -0.012294 -0.052851 -0.045163 0.031296 0.006793 -0.040070 -0.068149 0.000083 0.018170 -0.045682 -0.022604 -0.004318 -0.015524 0.016542 0.002960 0.061565 -0.016786 0.047312 -0.025127 0.000194 0.074194 0.018520 0.010282 -0.048207 -0.051800 -0.001105 0.015079 -0.002796 -0.024424 -0.029939 -0.033530 -0.038901 -0.034737 -0.000355 -0.047392 0.006512 0.039622 0.015828 -0.028539 -0.014009 -0.099569 0.062831 -0.062450 0.075501 0.059705 0.096573 0.022826 0.011139 -0.023399 0.008395 -0.002213 -0.044810 0.009726 -0.042657 -0.009428 0.066481 -0.091595 0.027148 0.040657 0.004712 0.037438 -0.008596 0.033269 0.028102 -0.061749 0.028848 -0.028427 -0.027301 -0.017644 0.023359 -0.050712 0.036905 0.009668 0.111850 0.003185 -0.042755 -0.026449 0.023615 -0.038990 0.003181 -0.058884 0.008802 -0.022510 -0.001801 -0.027152 -0.007777 0.081534 0.053586 -0.049650 0.063555 0.082150 -0.080208 -0.009821 0.058183 0.070712 -0.028023 0.022877 -0.004898 0.031560 -0.011793 0.085059 -0.001416 0.092919 0.040285 0.018082 0.000547 0.050004 0.063409 -0.009716 0.014972 -0.005315 0.076847 0.035526 0.000316 0.011022 -0.002083 0.035777 -0.038138 -0.018116 0.054209 -0.014961 -0.015860 -0.017151 -0.031929 0.019779 -0.054424 0.036567 -0.022091 0.056143 -0.045981 -0.008836 -0.082763 -0.019752 0.070374 0.081297 0.000225 0.043488 0.068890 0.020841 0.018465 -0.029208 -0.044641 -0.073297 -0.030541 -0.069219 -0.042469 -0.010185 -0.062169 0.023387 -0.003053 0.047117 -0.028652 -0.027587 -0.070440 0.018851 -0.075752 -0.077422 0.066026 0.031674 0.004284 0.052555 -0.014697 -0.011465 0.007053 0.082549 -0.037874 -0.044320 0.014661 0.101481 -0.031625 0.046868 -0.040485 0.039075 0.030010 0.076018 -0.007451 0.048015 -0.017658 0.037719 0.078199 -0.019585 -0.006974 0.005117 0.006787 -0.052519 -0.038235 0.017083 -0.007335 0.005491 0.038528 0.026410 0.004691 -0.011252 -0.052085 -0.048108 -0.051054 -0.034754 0.044999 0.003290 -0.038293 -0.031356 0.018267 0.043204 0.032301 -0.063095 0.027603 -0.077699 0.064402 0.016344 -0.058493 -0.067868 -0.039022 -0.004127 0.016562 -0.048821 -0.027833 -0.018497 -0.019933 0.025843 -0.056003 0.010182 -0.087925 -0.004217 -0.007496 -0.054928 -0.031641 0.030727 0.046132 0.058040 0.047417 0.019521 0.003332 0.012138 0.062093 0.030252 0.023370 0.001087 0.037710 0.019741 -0.074432 -0.043175 -0.030040 -0.023126 0.025468 0.027320 0.005714 0.017742 0.026266 -0.008252 0.025700 0.062896 -0.040652 -0.000466 0.000267 -0.025029 -0.005128 -0.020383 0.025709 0.003676 0.050994 -0.020710 -0.024482 0.047890 -0.034924 0.050370 0.084071 0.038530 0.080373 0.028390 -0.009598 -0.052138 0.036118 -0.037667 -0.014307 0.022330 -0.036627 -0.030476 -0.089240 -0.010305 -0.022007 0.000772 -0.055354 -0.035376 0.013944 0.002647 0.053560 -0.022960 -0.025232 -0.056384 0.018118 0.083057 0.020454 0.014291 -0.081764 0.016412 -0.016716 -0.054405 -0.008355 0.051651 0.035632 0.053226 -0.047027 0.031683 0.070753 -0.079385 -0.034259 -0.043018 -0.010832 -0.002294 -0.009010 0.014231 -0.053535 0.018697 -0.080497 -0.026699 -0.015429 -0.008300 0.048134 0.008601
4 -0.019683 -0.084486 0.070706 0.037175 -0.013204 -0.034613 0.030868 -0.000417 -0.007217 0.028681 -0.006569 -0.039620 0.021849 0.066263 -0.024363 0.065282 -0.036292 -0.038380 0.036676 -0.065675 0.027244 -0.024465 0.008972 0.057942 -0.011952 -0.009619 -0.056331 -0.035097 -0.019492 0.060646 -0.008424 0.030956 0.037769 0.002045 0.001262 -0.073633 -0.013339 -0.034304 -0.084663 -0.001235 -0.025932 -0.000293 -0.045111 0.025213 -0.028977 0.023844 -0.038791 -0.003842 0.057505 -0.035955 -0.079526 0.040685 -0.058105 0.127820 0.002159 0.034171 -0.051780 0.024221 0.027146 0.004192 0.053685 0.087416 -0.056684 0.080691 0.055538 0.018359 -0.000970 -0.029894 0.033453 -0.083194 -0.047950 -0.045839 0.000053 0.043233 -0.034899 -0.047872 0.024278 0.003337 0.028449 0.012972 0.055361 -0.010758 0.067925 0.002741 0.004709 0.047964 0.027388 0.020894 -0.062847 -0.014483 0.073020 -0.011385 0.036709 -0.019227 -0.052106 -0.035663 -0.028045 -0.021904 0.005669 -0.052101 0.005007 0.014156 0.047518 -0.072212 -0.026722 -0.086040 0.075552 -0.052568 0.070080 0.054201 0.049257 0.070498 -0.028574 -0.038594 0.078864 0.026453 -0.003795 0.026107 -0.028046 -0.026656 0.038196 -0.009441 0.038310 0.081380 -0.005316 0.052175 -0.021218 0.015164 0.059340 -0.045600 0.045137 -0.021516 -0.020092 -0.010861 0.030136 -0.037526 0.005764 -0.004879 0.125871 0.045674 -0.028069 -0.027791 0.019487 -0.018175 0.026769 -0.063387 0.068793 0.015913 -0.050486 0.016938 0.019656 0.036905 0.075552 -0.032637 0.032011 0.041971 -0.081742 0.005670 0.033510 0.052281 -0.026244 0.039828 0.028509 -0.003504 -0.001413 0.077096 -0.029653 0.042037 0.054363 0.035344 -0.040232 0.005991 0.049442 0.000536 0.023941 0.005750 0.087946 0.050620 0.051258 0.024780 -0.027355 0.015832 -0.037963 -0.033338 0.035838 -0.015859 0.040842 -0.052945 -0.020029 -0.012110 -0.046643 0.037737 -0.028851 0.017106 -0.012476 0.007921 -0.094269 -0.013758 0.007331 0.053993 -0.024008 0.055641 0.028767 0.037388 0.038524 -0.014389 -0.019379 -0.061285 0.028917 -0.022256 -0.020246 0.013629 -0.058089 0.048211 -0.022196 0.024916 -0.023020 -0.028961 -0.061589 -0.023921 -0.116275 -0.025293 0.035182 0.000649 -0.020720 0.026969 -0.036220 -0.078829 -0.011748 0.065828 -0.054346 -0.068346 0.033373 0.052759 -0.014985 0.025934 -0.031273 0.031644 0.046187 0.082411 0.015974 0.028383 -0.031234 0.022898 0.043306 -0.020703 0.003664 -0.004759 -0.044123 -0.032121 -0.032804 -0.004113 0.004210 0.020578 0.061202 0.044854 -0.041481 -0.027536 -0.025652 -0.057174 -0.031242 -0.001326 0.032197 0.015450 -0.051299 -0.050478 0.024936 0.054991 0.039608 -0.064206 0.025332 -0.017685 0.035565 0.022207 -0.038908 -0.033493 -0.003288 -0.005865 -0.003495 -0.037304 -0.036238 -0.005283 -0.017005 0.041765 -0.033282 0.050411 -0.032902 -0.007503 0.016374 -0.022918 -0.031451 0.000843 0.047545 0.050994 0.027454 0.051148 0.006010 0.007242 0.082993 0.064637 0.032646 0.018948 0.051949 0.008099 -0.030623 -0.046681 0.018614 -0.020053 0.025093 0.048630 -0.000637 0.017764 0.043939 -0.011012 0.016965 0.053575 -0.032350 -0.046234 -0.036932 -0.007467 0.042558 0.029378 0.042170 0.029230 0.070159 -0.041782 0.005832 -0.016838 0.022829 0.045690 0.095046 0.055696 0.045758 0.033749 -0.034505 -0.069601 0.035365 -0.033597 -0.028294 0.002647 -0.001307 0.025389 -0.034830 0.010864 0.013247 0.070142 -0.017645 0.009108 0.017506 -0.002745 0.049118 -0.009240 0.010773 -0.045699 0.015206 0.043368 0.018730 0.031069 -0.037411 0.030217 -0.014805 -0.043700 -0.041420 0.042634 0.040003 0.022281 -0.022193 0.031068 0.084694 -0.044652 0.000962 -0.031274 0.037850 -0.038517 -0.000351 -0.009574 -0.046819 0.023671 -0.043121 -0.022020 0.012770 -0.013209 0.043434 0.019265
5 0.007166 -0.009691 0.029312 0.008142 -0.026117 -0.061286 0.040647 -0.030710 -0.009303 0.005233 -0.033236 -0.040200 0.053158 0.030701 -0.005650 0.081883 -0.021914 -0.037271 0.071883 -0.029026 0.010966 0.001639 0.005127 0.043215 0.003024 -0.021120 -0.037205 -0.003639 -0.055454 0.016852 0.004927 0.042288 -0.023714 -0.011210 -0.009857 -0.049357 -0.000668 -0.026734 -0.085121 -0.007070 -0.064202 0.027653 -0.019541 0.025852 -0.009890 0.051041 -0.026228 -0.026408 0.032806 0.024027 -0.066854 0.002109 -0.053867 0.073890 0.000561 0.091125 0.006612 -0.013182 0.016268 -0.040867 0.041300 0.085527 -0.058353 0.040560 0.036243 -0.023247 -0.035411 -0.057165 -0.008290 0.015887 -0.040397 -0.006389 0.002095 0.028697 -0.020346 -0.032083 0.022221 0.043798 0.006441 0.006263 0.065552 -0.033414 0.047848 -0.031666 0.043945 0.014592 0.035336 -0.006716 -0.042055 -0.031778 0.004763 -0.022935 -0.012123 -0.061585 -0.035423 -0.030312 -0.025938 -0.004232 0.000639 -0.010912 0.053023 0.031468 -0.006769 -0.079407 -0.014923 -0.107334 -0.005716 -0.047011 0.045021 0.055048 0.090165 0.038399 0.024707 -0.022752 0.038616 0.039909 -0.055628 0.030531 0.004932 0.030623 -0.002827 -0.048733 0.032537 0.057639 0.003070 0.009593 -0.015213 0.033658 0.029985 -0.015473 0.064474 -0.028057 0.003684 -0.033272 0.026643 0.014212 0.013582 0.012696 0.091880 -0.009601 -0.038384 -0.032794 0.025235 -0.050515 0.039747 -0.046720 0.014152 0.012794 -0.022450 -0.011978 -0.014452 0.036184 0.030235 -0.026496 0.038500 0.020648 -0.085279 0.060652 0.029846 0.062860 0.013690 -0.028146 0.002593 0.047647 0.026203 0.052082 -0.019706 0.039080 0.071523 0.041889 -0.055206 -0.002904 0.054309 -0.010626 0.065392 0.043723 0.043665 0.060529 0.044723 0.038658 -0.015695 0.076771 -0.037693 -0.057313 -0.000395 -0.044416 0.029781 -0.017218 -0.003494 -0.004914 -0.017966 0.017708 -0.023697 0.004124 -0.065670 -0.013795 -0.061613 -0.045986 0.016666 0.055020 0.003764 0.023297 0.035638 0.007877 0.077265 -0.072877 -0.054200 -0.069528 0.001645 -0.074901 -0.075963 -0.037508 -0.091930 -0.010756 0.006963 -0.002997 -0.035631 -0.013190 -0.069228 -0.024749 -0.125223 -0.029523 0.016203 0.019690 -0.035141 0.057655 -0.043747 -0.053583 0.003150 0.105325 -0.046063 -0.053472 0.005069 0.039940 -0.034298 0.029727 -0.017780 0.050167 0.027140 0.066637 -0.013610 0.021643 -0.012813 0.039350 0.092990 -0.045221 0.012951 -0.025483 0.008048 -0.035941 -0.024213 0.024943 0.004138 -0.004706 0.091396 0.013254 -0.004373 -0.032247 -0.054628 -0.009776 -0.067011 -0.021824 0.053731 0.005306 -0.017236 -0.038234 0.007750 0.052488 0.084228 -0.058509 0.002696 -0.081126 0.057656 0.020380 -0.018481 -0.079894 -0.001079 0.022722 0.007148 -0.020719 -0.030320 0.003033 -0.029925 0.024178 0.008493 0.036575 -0.036380 0.027028 -0.025546 -0.033330 -0.017114 0.025497 0.063858 0.020385 0.012713 0.078962 0.003509 -0.035658 0.083324 -0.006113 0.040056 0.012811 0.010020 -0.034533 -0.072972 -0.104262 -0.036344 -0.026302 -0.006685 0.033398 0.014425 0.040622 0.035292 -0.010092 0.030304 0.083812 -0.016905 -0.059046 -0.013849 0.010953 0.044369 -0.058781 0.041688 0.008830 0.073758 0.005887 0.011393 0.005611 0.002528 0.035168 0.085378 0.075473 0.054856 0.005000 -0.016895 -0.079867 -0.011187 -0.067309 -0.033592 0.047093 0.038445 0.033344 -0.077900 0.025495 0.008820 0.050899 -0.013200 -0.037097 -0.003575 0.026230 0.068093 0.001012 0.033686 -0.005112 0.036730 0.058166 0.024637 -0.015560 -0.060566 0.032371 0.002574 -0.051646 0.003853 0.072685 0.031050 0.069707 -0.035768 0.049085 0.064631 -0.019318 0.000944 0.012448 0.049232 -0.024035 -0.037616 0.060067 -0.080918 -0.035886 -0.075763 -0.025802 -0.016003 -0.060452 0.015275 0.023618
6 -0.004781 -0.059572 0.070478 0.021344 -0.020956 -0.072410 0.010117 -0.029666 -0.000860 0.000233 -0.006517 -0.004621 -0.005228 0.050517 -0.003414 0.079386 -0.051709 0.005010 0.012292 -0.017457 0.016236 -0.093960 0.018897 0.038861 0.002224 -0.020385 -0.062937 0.007579 -0.067687 0.031719 0.053877 0.028803 -0.008398 -0.012247 0.003438 -0.064628 -0.020280 -0.064892 -0.028616 -0.033090 -0.028153 -0.003062 -0.044770 0.037295 -0.067042 0.000178 -0.014845 -0.013800 0.084659 0.005375 -0.028264 0.035864 -0.032431 0.072621 -0.027595 0.052532 -0.010777 0.067191 0.034854 -0.014283 0.024697 0.102662 -0.086444 0.109741 0.001890 0.004585 -0.025227 -0.072160 0.033056 0.007049 -0.063900 -0.052438 0.002095 0.020782 -0.042347 -0.022811 0.027029 0.032568 0.015803 0.021289 0.056181 -0.043107 0.048174 0.022032 -0.008892 0.057746 0.054933 0.032412 -0.054959 -0.046577 0.021526 0.007329 -0.012821 -0.040611 -0.018875 -0.019864 -0.005804 -0.043618 0.006347 0.041058 -0.011535 0.028045 -0.023201 -0.056298 -0.001518 -0.050035 0.039939 -0.051761 0.051612 0.004581 0.049570 0.043952 0.010019 -0.015572 0.045268 0.017094 -0.062566 -0.030203 -0.040105 0.014668 0.030650 -0.048585 0.007616 0.042247 -0.011723 0.039228 -0.032756 0.033719 0.028626 -0.037944 0.061422 -0.007367 -0.030774 -0.029192 0.025962 -0.020307 0.013024 0.029239 0.077502 0.005271 -0.034217 -0.017003 0.015782 -0.064559 0.013289 -0.034364 0.057867 -0.000377 0.004393 -0.039538 0.008176 0.069090 0.038452 0.004736 0.022344 0.040200 -0.089474 0.053084 0.056623 0.060915 0.013685 0.036251 0.003088 -0.014425 0.020890 0.079821 -0.060140 0.087585 0.049373 0.056687 -0.060543 0.035732 0.038695 -0.018827 0.085269 0.004413 0.075006 0.066698 0.069366 0.068173 -0.010726 0.034834 -0.037402 -0.025452 0.087735 -0.014120 0.024597 -0.062133 -0.016344 -0.015075 -0.051362 0.033080 -0.090797 0.021643 -0.023398 -0.030102 -0.053524 -0.050258 -0.007005 0.054589 -0.021532 0.024643 0.096193 0.032130 0.014860 -0.079912 -0.027338 -0.044794 0.045964 -0.021674 -0.041327 -0.010143 -0.047252 0.026984 -0.016587 0.052568 -0.000800 -0.023228 -0.079658 -0.025660 -0.030607 -0.011164 0.022456 0.072258 -0.063532 0.085530 -0.033580 -0.039977 -0.003530 0.019003 -0.073681 -0.041957 0.005049 0.051458 -0.063566 0.054992 -0.018170 0.032487 0.018446 0.072877 -0.023225 0.047678 -0.023085 0.004382 0.046037 -0.023084 -0.030234 -0.023973 -0.056655 -0.039393 -0.069214 0.039156 0.042050 -0.052146 0.062484 -0.009198 -0.023069 -0.039570 -0.057469 -0.017706 -0.045609 -0.009446 0.022419 -0.026986 -0.038992 -0.055971 -0.005870 0.041956 0.057370 -0.050083 0.040329 -0.047878 0.058979 -0.005471 -0.027111 -0.117352 -0.032957 0.036585 0.026055 -0.009716 -0.044671 0.032456 -0.058972 0.054929 -0.024611 0.048379 -0.071567 0.037754 0.006650 -0.029666 -0.043234 0.032421 0.045015 0.043738 0.031394 0.065324 0.020837 -0.022009 0.068594 0.049106 0.008979 0.003857 0.041489 0.000611 -0.049324 -0.059866 -0.022400 -0.053367 0.025184 0.030048 0.028827 0.022198 0.022332 -0.034586 0.071748 -0.011326 -0.035232 -0.032154 -0.023177 -0.016661 0.042498 -0.031619 0.010657 0.016754 0.078665 0.015273 0.019519 -0.009808 -0.047041 0.041312 0.067463 0.059991 0.046575 -0.005304 0.019601 -0.041815 0.042072 -0.044348 -0.014143 0.000415 0.036547 0.020263 -0.046492 0.031688 -0.015178 0.019270 -0.049412 -0.049775 -0.004394 0.066897 0.082312 -0.027809 0.005559 -0.052759 0.052797 0.053226 0.011374 0.011640 -0.064521 0.028995 -0.002513 -0.071937 -0.029721 0.064565 0.039224 0.064127 -0.070278 0.080251 0.058643 -0.040977 -0.000417 -0.034395 0.017185 -0.056566 -0.005139 0.034576 -0.046627 -0.029433 -0.122408 -0.037536 0.023036 -0.048263 -0.006613 0.009608
7 -0.026495 -0.078788 0.042352 -0.004046 -0.040047 -0.060936 0.003904 -0.017894 -0.022923 -0.042299 -0.020099 0.013619 0.032538 0.065106 0.002791 0.079478 -0.044304 -0.033270 0.022620 -0.072741 -0.005558 -0.067574 0.035344 0.033006 -0.012573 -0.007792 -0.023050 -0.012670 -0.053421 0.037089 0.041050 0.020655 -0.002589 -0.040261 -0.000656 -0.031674 0.001756 -0.038063 -0.035262 -0.001964 0.006060 0.005556 -0.011897 0.038844 -0.031706 0.059197 -0.049854 -0.007854 0.073432 -0.014312 0.002836 0.027230 -0.061685 0.085484 -0.042726 0.083799 -0.005942 0.042312 0.001265 -0.030353 0.015007 0.080887 -0.023262 0.076813 0.062213 0.010364 0.011235 -0.075975 0.003477 -0.021307 -0.021989 -0.029709 0.015807 0.013455 0.006640 -0.004708 -0.015248 -0.030300 -0.011315 -0.013971 0.026023 -0.005936 0.019814 0.007023 0.006731 0.061189 0.065980 -0.005676 -0.040492 -0.046893 0.048510 0.043418 0.044066 -0.036841 -0.067090 -0.019719 -0.006729 -0.053434 0.006281 0.024918 0.011347 0.029088 0.007102 -0.094372 -0.005474 -0.057887 0.062522 -0.057287 0.049927 0.018946 0.029311 0.090710 0.003309 -0.017240 0.019850 0.033959 -0.053108 0.003771 -0.027519 -0.027599 -0.005728 -0.022968 0.021192 0.041033 -0.009203 0.031585 -0.020966 0.022615 0.026509 -0.049082 0.056731 -0.023565 0.005512 -0.004599 0.043672 0.046034 -0.003494 0.024526 0.112605 -0.020870 -0.010508 -0.067873 0.069347 -0.027034 0.038831 -0.037257 0.061235 -0.014746 0.002703 -0.032701 -0.049473 0.111212 0.045695 -0.002808 0.011399 0.027650 -0.069786 0.038576 0.037848 0.077458 0.016606 0.001061 0.017745 0.041166 0.024502 0.064168 -0.034754 0.089975 0.033893 0.040710 -0.006740 0.013326 -0.005807 0.020622 0.069164 0.034309 0.050564 0.082483 0.049465 0.006275 0.008371 0.009870 -0.058908 -0.023996 0.061468 -0.026814 0.040546 -0.040598 -0.015998 0.026919 -0.029157 0.003818 -0.052064 0.031193 -0.019521 -0.019008 -0.045602 -0.061583 0.018775 0.048878 0.023528 0.039724 0.088240 0.015560 -0.007984 -0.048923 -0.051223 0.009374 0.043085 -0.042070 -0.076693 -0.019659 -0.041210 0.013975 -0.064512 -0.006211 -0.011852 -0.022938 -0.125451 -0.023709 -0.101288 -0.073915 0.011187 0.020456 -0.007878 0.072793 -0.027404 -0.043039 -0.039517 0.059610 -0.077733 -0.072236 0.003798 -0.018689 -0.056656 0.076114 -0.016553 0.005268 0.025706 0.091752 -0.003550 0.056690 -0.021635 0.013461 0.092803 0.017424 0.008878 0.009757 0.001901 -0.085550 -0.062884 0.001576 0.017703 0.002429 0.031513 0.038529 -0.009342 -0.043395 -0.058945 -0.031680 -0.043647 -0.002865 0.025958 -0.025564 -0.004519 -0.013000 0.015976 0.058699 0.104275 -0.049237 -0.007745 -0.053409 0.047283 0.039391 -0.038901 -0.094100 -0.023830 -0.044943 0.004832 -0.026177 -0.024906 0.006446 -0.050853 0.028232 -0.056408 0.028253 -0.060231 -0.001582 -0.034397 0.006090 -0.029644 -0.002722 0.052767 0.023634 0.022305 0.100903 0.001908 -0.042432 0.069694 0.005802 0.010081 -0.027494 0.014936 -0.017837 0.001427 -0.070289 -0.023804 -0.025202 -0.010450 0.005755 0.009420 0.014470 0.064208 -0.046939 0.051504 0.045375 -0.051201 0.002864 -0.038106 -0.016066 0.040101 -0.045099 0.029989 0.000797 0.102023 -0.008728 0.009757 -0.008288 -0.028845 0.061769 0.113349 0.041332 0.010990 0.009398 -0.008834 -0.037286 0.011361 -0.053523 -0.013466 0.010820 0.074677 -0.012247 -0.039252 0.051122 -0.016545 0.021880 -0.028541 -0.071183 0.041654 0.044475 0.052024 0.026133 0.045403 -0.038327 0.055788 0.027978 0.012705 0.056225 -0.064992 0.009896 0.013423 -0.025932 -0.001440 0.068345 0.021683 0.044519 -0.064177 0.063086 0.052992 -0.039992 -0.019130 -0.025061 0.026478 -0.041522 -0.013071 0.022728 -0.067576 0.008303 -0.053355 -0.020366 0.011358 0.018092 -0.012196 0.054733
8 -0.029836 -0.069995 0.015051 0.020469 -0.053845 -0.025163 -0.037446 -0.045852 -0.020609 -0.052072 -0.015623 -0.021956 0.024010 0.073504 -0.034495 0.030581 0.008085 -0.085843 0.013564 -0.061097 0.025255 -0.051102 0.027450 0.029717 0.001344 -0.040392 -0.019354 -0.010050 -0.008512 -0.030797 0.085699 0.005600 -0.011791 -0.002008 -0.012776 -0.009558 -0.023139 -0.042975 -0.037393 -0.036277 -0.089853 0.001778 -0.038538 -0.022195 -0.008516 0.040802 -0.030784 -0.038171 0.054851 0.004499 -0.022246 0.007387 -0.076690 0.145622 -0.046257 0.044085 0.027062 0.004650 0.056342 -0.041915 0.035991 0.050659 0.035694 0.048775 0.078916 0.003234 -0.041554 -0.075483 -0.013686 0.021851 -0.066722 0.002912 0.017862 0.037580 -0.022085 -0.048179 0.033200 -0.029653 -0.012931 0.004020 0.052498 0.001817 0.002253 -0.045371 -0.042607 -0.009945 0.074440 -0.021102 -0.025261 -0.011450 0.021884 0.038518 0.064177 -0.066430 -0.080757 -0.015509 -0.046863 -0.056046 0.010330 -0.041054 -0.031345 0.066087 0.051915 -0.022599 -0.022277 -0.048673 0.080873 -0.014566 0.009159 0.067802 -0.001832 0.008694 -0.028277 0.006520 0.024961 0.107658 -0.104683 0.078075 -0.019261 -0.080314 0.018297 0.016727 0.053481 -0.031383 -0.006329 -0.026676 0.036772 0.004828 0.043427 -0.084106 0.029183 -0.025505 0.006440 -0.006064 0.002317 0.101546 0.041507 0.061633 0.018937 -0.035900 0.022216 -0.011408 0.039967 0.015145 0.024986 -0.038953 0.098676 -0.027708 -0.020659 0.010090 -0.013712 0.026886 -0.052138 -0.021597 -0.031967 0.041456 -0.037388 0.032693 0.027296 0.115146 -0.030974 0.020912 0.067824 0.055140 0.084330 0.026906 -0.013232 0.065611 0.073981 -0.011521 -0.039058 0.033302 -0.007083 -0.036276 -0.016453 0.037569 0.080186 0.015254 0.073528 -0.013717 -0.015647 0.083095 0.002872 -0.028453 0.041592 0.067161 0.033974 -0.032884 -0.044211 -0.003109 -0.003969 0.030123 -0.016168 0.031841 -0.082494 0.000614 -0.025047 -0.019119 0.104055 0.014995 0.039563 0.013566 0.029468 0.050617 0.008059 -0.132900 -0.012992 0.060813 0.035046 -0.031584 -0.072708 -0.038794 -0.048716 0.034384 -0.043604 -0.018995 -0.011992 -0.005193 -0.084227 -0.028248 -0.086846 -0.071379 -0.050860 0.013413 -0.003377 0.094755 -0.006505 0.035580 -0.018873 0.034800 -0.126283 -0.079845 -0.030596 0.015626 -0.023860 0.098564 -0.035863 0.016676 0.051654 0.071484 0.015488 0.011959 0.022292 0.012828 0.060944 -0.016414 -0.032791 0.010751 -0.013017 -0.051152 -0.007610 0.027350 -0.007634 0.007973 0.072649 0.072963 -0.012815 -0.056770 -0.067943 0.003320 -0.047641 -0.030513 0.113520 0.033493 -0.034912 -0.014913 0.030923 0.071090 0.027654 -0.104070 0.066231 -0.055494 0.046520 -0.007480 -0.067581 -0.054773 -0.003722 0.006309 -0.019915 -0.031364 -0.045428 -0.000557 0.052513 0.001102 -0.038914 0.032962 -0.100806 -0.044117 0.010122 -0.000055 -0.039913 -0.002051 0.037839 0.082519 -0.026062 0.024669 0.061950 -0.043419 0.124286 -0.055765 0.028867 -0.050317 0.069880 -0.010330 -0.025385 -0.061030 -0.035820 0.026352 0.039649 0.015636 0.000950 -0.017810 0.086803 -0.030371 0.086822 0.124054 -0.072735 -0.014983 -0.004156 -0.017391 0.072115 -0.061851 0.044715 -0.016057 0.077721 0.051283 0.032894 -0.026046 0.011642 0.014784 0.079429 -0.029790 0.059523 -0.039953 -0.000767 -0.009275 0.026482 -0.015293 -0.016272 -0.027207 0.029629 0.036323 -0.050063 -0.004439 0.014113 0.023550 -0.045254 0.068731 0.066243 0.002383 0.037453 0.024347 0.050099 -0.065399 0.016981 -0.037768 0.001444 0.057135 -0.049852 0.054315 -0.038061 -0.041588 -0.050017 0.098390 0.008028 0.048008 -0.066730 0.078078 0.055740 -0.057249 -0.022233 0.054374 0.041198 -0.057056 -0.014538 -0.001049 -0.045317 -0.028717 -0.018463 -0.003041 -0.043111 0.027271 -0.016336 0.023235
9 -0.054387 -0.037396 0.083023 0.007383 -0.071610 -0.059303 0.068985 -0.015691 0.021938 0.001814 0.022590 -0.028064 0.024844 0.018263 -0.052069 0.034052 -0.086251 -0.054716 0.032946 -0.066567 0.026796 -0.010439 0.002125 0.041246 0.004179 -0.005553 0.006300 -0.061247 -0.042615 0.029132 -0.006105 0.029922 -0.045567 0.032211 -0.047762 -0.084328 -0.030181 -0.071582 -0.061494 -0.007703 -0.071661 0.011712 -0.031379 0.003808 -0.057059 0.028288 -0.030077 -0.006142 0.070803 0.014468 -0.064844 0.013639 -0.005407 0.088296 -0.020353 0.028930 -0.005630 0.031210 -0.006815 -0.051836 0.019353 0.052210 -0.030553 0.046057 0.054104 0.025774 -0.064387 -0.038347 0.018427 -0.008178 -0.046148 -0.088297 0.024701 0.046095 -0.020068 -0.015146 0.017661 0.038058 0.050261 0.026467 0.074620 -0.023106 0.069898 -0.016850 0.001556 0.030133 0.028994 -0.008553 -0.123515 -0.067134 0.074556 0.007000 0.014480 -0.055360 -0.018831 0.014461 -0.020928 -0.050079 0.020206 -0.031497 0.006820 0.036144 0.017704 -0.049366 -0.057344 -0.079622 0.044550 -0.052257 0.053443 0.018969 0.058759 0.030584 0.003658 -0.016059 -0.004501 0.017097 -0.052980 -0.020420 -0.025441 0.009635 0.052254 -0.060045 0.035437 0.050601 0.040552 0.042883 -0.069405 0.034864 0.059229 -0.032819 0.011431 -0.005386 -0.028221 -0.030967 0.027280 0.012575 0.005243 0.034746 0.097158 0.010634 -0.035847 -0.025161 0.041152 -0.004725 0.041217 -0.019575 0.112872 0.023761 0.021616 -0.014458 -0.008801 0.076793 0.036942 -0.042565 0.060230 0.045328 -0.059333 0.027485 0.026732 0.062020 -0.044554 -0.017118 0.011581 0.041921 0.036270 0.069443 -0.082362 0.027456 0.029299 0.070198 -0.003774 0.053507 0.035435 0.023860 0.023059 0.005297 0.066361 0.046417 0.052372 0.053463 0.002723 0.013304 -0.051518 -0.034757 0.047098 -0.058673 0.032321 -0.055658 -0.015769 -0.029193 -0.051359 0.058076 -0.045214 0.022600 -0.046567 -0.043824 -0.109622 -0.042502 0.058038 0.032394 0.008571 0.044920 0.130378 0.011231 0.045319 -0.026879 -0.035460 -0.067579 0.012803 -0.036140 -0.051250 0.018328 -0.057035 0.076657 -0.034426 0.047115 -0.033512 -0.029828 -0.039153 -0.042895 -0.076568 -0.043902 0.044874 0.016529 -0.021791 0.067983 -0.020842 -0.054832 -0.012083 0.055318 -0.046801 -0.076111 0.024729 0.036444 -0.080350 -0.026280 -0.012605 -0.036952 0.066944 0.050047 0.018147 0.057150 0.025980 0.033112 0.073144 -0.046211 -0.036044 -0.003825 -0.012602 -0.021231 -0.064126 0.026732 0.048474 -0.071073 0.048698 0.075193 -0.021077 -0.016906 -0.058832 -0.014649 -0.080640 -0.026367 0.004778 0.021351 -0.009312 0.022792 0.078856 0.071132 0.069488 -0.018953 0.076182 -0.040359 0.031009 0.059318 -0.049467 -0.086101 -0.038712 0.019358 0.027202 -0.024694 -0.056265 0.052935 -0.019280 0.025908 -0.063884 0.017557 -0.062565 -0.032184 0.006465 -0.032299 0.017043 0.005100 0.057626 0.055468 0.010034 0.022703 -0.003892 -0.064628 0.072914 0.027398 0.090894 0.005861 0.022465 -0.032598 -0.034087 -0.016545 -0.060377 -0.016346 -0.009672 0.010517 0.028902 -0.019284 0.055324 0.003685 0.025259 0.116500 -0.018251 -0.018184 -0.041306 0.022006 0.053540 -0.022441 0.011918 0.041178 0.098324 0.043920 -0.005271 0.035751 -0.068563 0.035137 0.092225 0.026266 0.060812 0.021945 -0.020162 -0.062295 0.040559 -0.049229 -0.014036 0.039616 0.001224 -0.005982 -0.006096 0.022769 -0.004815 0.021827 -0.028005 -0.022367 0.008370 0.037317 0.036518 -0.000389 0.002675 -0.021948 0.020989 0.052467 0.035590 0.070480 -0.066240 0.054130 -0.009536 -0.052562 -0.042798 0.006937 0.048418 0.025285 -0.105169 0.019044 0.005040 -0.016150 -0.023455 -0.045493 0.022060 -0.044946 0.037278 0.017787 -0.075829 -0.017089 -0.064810 -0.019313 -0.032603 -0.011375 0.023396 0.052381
: -0.019424 0.054376 0.004844 -0.077817 -0.014974 -0.015840 -0.033048 0.018117 0.021383 0.026264 0.069790 -0.024067 0.035294 0.053383 -0.009070 -0.019116 -0.133336 -0.018778 0.062301 0.058748 0.036349 0.007536 0.018895 0.023684 -0.003338 0.019689 -0.053512 -0.002383 -0.040204 0.010822 0.023357 0.057842 0.007499 -0.062782 -0.015216 -0.015941 0.068526 -0.042300 -0.033922 0.036415 0.015318 0.107033 -0.076388 0.057035 0.054589 -0.022009 -0.022052 -0.062245 0.069746 -0.018976 -0.049614 0.026211 -0.044762 0.020830 -0.018349 0.030808 0.044333 -0.011545 0.048951 0.023746 0.008041 -0.042620 0.046756 0.001368 0.031497 0.056901 -0.105936 0.020280 0.073608 0.001809 -0.048662 0.018889 0.008122 -0.030060 -0.068883 -0.058374 0.108061 0.014948 0.073822 0.018668 0.039721 -0.041100 0.048129 -0.033566 -0.049064 0.014021 0.054990 0.011248 0.018167 -0.084534 0.075730 0.007383 -0.028237 -0.057662 0.047883 0.001296 -0.003572 0.004349 0.063808 0.014404 -0.045916 0.077546 -0.027313 0.010649 -0.033274 -0.043116 0.011302 -0.039479 0.038615 0.015420 -0.017300 0.032581 -0.054696 -0.021921 -0.028164 -0.055123 -0.068888 -0.032730 0.010507 -0.042912 0.043382 0.031193 0.062318 -0.047326 -0.023162 -0.048188 -0.060134 -0.021774 0.060254 -0.008349 -0.033483 0.014908 0.015628 0.057348 0.032705 0.030283 -0.004613 0.103483 -0.001739 -0.034003 0.032691 -0.012583 0.037851 0.032349 0.029832 -0.054073 0.126620 0.004554 -0.115315 0.040650 -0.062025 0.041140 0.096689 -0.030188 -0.063419 0.025766 0.028232 -0.080114 0.023560 -0.004165 -0.039233 0.004362 0.086489 0.064283 -0.015302 -0.013433 -0.078221 -0.016501 -0.039014 0.048079 0.013632 0.021476 0.008236 -0.054974 -0.080121 -0.051992 0.016974 0.011726 0.109934 0.066476 -0.006054 0.027831 -0.007753 -0.025231 -0.011626 -0.053318 0.087598 0.002083 -0.004016 -0.046977 0.033250 -0.096872 0.001818 0.003638 0.050720 -0.065794 -0.026355 0.028574 0.012946 0.018938 0.031368 0.022656 0.000824 0.065894 0.003162 0.016211 -0.062270 0.009155 0.002044 -0.037179 0.029270 -0.034957 -0.117858 -0.027256 -0.056146 -0.000254 0.061248 -0.035955 -0.030805 -0.055855 0.022028 -0.024659 -0.000063 0.087217 0.022394 0.038107 0.029915 -0.014425 -0.014983 0.040847 0.011524 -0.044807 0.002626 0.017253 -0.007086 -0.038709 -0.022704 -0.016108 0.068086 0.052136 -0.028476 0.034024 -0.053967 0.021527 -0.049651 0.011715 -0.091786 0.004559 -0.016605 -0.036685 -0.050164 0.048727 0.064461 -0.031563 -0.056841 -0.049390 -0.012633 -0.060338 0.010677 -0.029668 0.024299 -0.090319 -0.045702 0.031811 -0.018838 -0.009015 0.040823 0.048585 -0.011217 0.079491 -0.001690 0.051084 0.033510 -0.037192 -0.029041 0.017613 0.025696 0.057769 -0.008362 0.005903 -0.013781 0.029410 0.014225 0.059545 0.038238 -0.018698 0.008252 0.068026 -0.005780 0.057825 -0.024339 -0.024627 0.023589 -0.021755 0.001773 0.001954 -0.060443 0.069645 0.071433 -0.000109 0.036712 -0.002571 0.093916 -0.035492 -0.016029 0.023228 -0.019772 -0.014141 -0.031371 -0.050592 0.039226 0.055988 -0.025149 0.013367 0.041040 0.070001 0.006064 -0.085109 -0.034456 0.003115 0.075609 -0.013485 -0.018802 -0.003793 0.014819 0.011997 -0.006725 0.006220 -0.050625 -0.009732 -0.047635 -0.032197 -0.003113 0.095796 0.117402 0.041701 -0.023774 -0.033836 -0.000072 0.038337 0.037036 0.000486 -0.053946 -0.010640 0.062878 0.013646 0.031788 -0.069428 -0.005329 -0.044034 0.026195 0.023135 0.026348 -0.009160 0.018371 -0.005510 -0.000089 0.038982 -0.067089 -0.080875 -0.043447 -0.026296 -0.069098 0.045989 -0.001320 -0.033031 0.024353 0.014649 0.071639 -0.000661 0.019298 0.031073 -0.025311 -0.016475 -0.066584 0.027389 -0.071107 -0.025310 -0.072665 -0.035355 -0.024936 -0.070922 -0.025499 -0.052732
; -0.011654 0.009940 0.021145 0.007481 -0.042349 0.049836 0.000993 0.007603 0.052564 0.057926 0.020445 -0.054386 -0.062509 -0.025333 -0.035517 0.000068 -0.086764 0.001082 0.025083 0.026952 0.086147 0.007136 0.037338 -0.022430 -0.012913 -0.011677 0.003663 0.036034 -0.042885 -0.051510 0.016896 0.061741 0.021452 -0.041664 0.047703 -0.027531 0.019115 -0.013478 0.031908 0.036068 0.047158 0.106532 -0.045471 0.057901 0.057000 0.030869 0.023256 -0.061711 0.090111 0.005352 0.011831 0.022530 -0.047928 -0.012884 0.026424 -0.002704 0.085743 -0.090837 -0.055776 0.013980 0.007759 -0.001783 0.014613 0.007152 0.024492 0.066746 -0.014314 -0.031620 0.042649 -0.053293 -0.049768 -0.037595 0.009632 -0.003806 -0.035003 -0.008494 0.057410 0.002936 0.001505 0.014631 0.027745 0.020912 0.017416 -0.033949 -0.064121 -0.037132 0.065986 -0.046041 -0.014699 0.000850 0.081564 -0.044432 0.025383 -0.080187 -0.017120 0.103810 -0.006656 0.039280 0.042795 -0.023704 -0.032915 0.055825 -0.047121 -0.018856 -0.018862 0.020228 0.016366 -0.001778 0.023074 -0.006533 0.050879 0.044305 -0.050707 -0.025009 0.037859 -0.006692 -0.035511 -0.080923 0.008234 -0.034556 0.053221 -0.007657 0.024663 -0.057187 -0.020919 -0.013067 0.030475 0.007845 0.035030 -0.027698 -0.002212 0.018262 0.012123 0.020556 0.014500 0.075096 0.020204 0.048377 0.022854 0.015083 0.041319 -0.035457 -0.034202 0.044516 -0.049519 -0.055459 0.109714 0.006617 -0.016528 0.050139 -0.017950 -0.007492 0.099567 -0.026086 -0.099959 0.007338 0.020213 -0.056493 -0.036357 -0.033784 -0.088468 -0.020029 0.105563 0.028961 0.012638 0.006695 -0.119608 -0.003390 0.033392 0.030514 -0.032917 -0.004413 0.034566 -0.016775 -0.003814 0.015648 -0.002822 -0.021973 0.067871 0.062370 0.006149 -0.041949 0.023463 -0.022077 0.011099 -0.064270 0.023175 -0.035747 0.060145 -0.031135 -0.001046 -0.047367 -0.050246 -0.047246 0.028998 -0.017131 -0.036399 0.029540 -0.023474 0.028233 -0.014114 0.010138 -0.048023 0.005680 -0.004834 0.018640 -0.034468 0.041142 -0.038582 -0.035476 -0.018342 -0.084129 -0.032571 -0.047618 -0.034128 -0.017924 0.057829 -0.051912 -0.015122 -0.051490 0.017685 0.033720 -0.057552 0.038436 0.024340 -0.014372 -0.011624 0.045058 -0.049861 0.035585 0.067451 -0.004692 -0.019773 -0.046335 -0.057726 -0.026006 -0.054221 0.015121 0.059956 -0.025530 0.092424 -0.012669 -0.033371 0.030382 -0.018028 0.015440 -0.072628 0.004332 -0.018580 0.025860 -0.003892 0.004106 -0.017070 -0.072401 -0.033799 -0.017025 0.036332 -0.023371 0.023769 -0.017573 0.061052 -0.070613 -0.010352 0.077854 0.020027 0.028319 0.014760 0.041460 0.014866 0.045124 -0.039534 -0.031687 0.071558 -0.061779 -0.046097 0.019065 -0.024455 0.034228 -0.000746 0.018669 -0.010661 0.082712 -0.024181 -0.009810 -0.012775 0.048860 -0.012713 0.002182 -0.007451 0.035372 0.042126 -0.034796 0.022434 -0.030054 0.080481 -0.012565 0.006946 0.009246 0.027537 -0.022747 0.040514 0.005175 0.022806 -0.013097 -0.017813 0.037274 -0.040994 0.020796 -0.013394 0.003504 0.056009 -0.068345 0.040773 -0.022874 0.048521 0.029270 0.032108 -0.122904 -0.030761 0.013336 0.088131 -0.075907 0.032652 0.028976 0.073390 -0.036499 -0.033808 -0.002519 -0.007029 -0.024392 -0.010407 -0.000911 -0.014464 0.007817 0.040238 -0.024116 -0.041164 -0.001841 -0.004326 -0.008512 0.019739 -0.005541 -0.031047 -0.036371 -0.001841 -0.003589 0.023686 -0.006049 -0.009045 0.007468 0.037273 0.031893 -0.008550 0.013979 -0.001278 -0.005768 0.009251 -0.021149 -0.038119 -0.015839 0.009116 0.006437 -0.020161 -0.024798 0.008360 0.014052 0.002062 -0.044272 0.018224 -0.012976 0.003202 -0.046568 0.008583 0.006739 -0.014797 0.002354 -0.048568 -0.026780 -0.014743 0.049859 0.023183 0.000313 0.014136 -0.019831
? -0.041735 0.001653 -0.031040 -0.061009 -0.014284 0.004309 -0.020640 -0.027829 -0.035592 0.076400 0.042629 -0.028290 -0.006073 -0.006073 -0.068427 0.018024 -0.076536 0.013825 0.063446 0.015388 0.028134 0.015721 0.030956 -0.033645 0.015615 -0.034638 -0.003315 -0.045987 -0.118781 0.047132 0.034343 -0.005124 -0.008085 -0.005640 0.022769 -0.029168 0.090168 0.042031 0.014270 0.067284 -0.010333 0.125320 -0.012024 0.052076 0.010016 0.019223 -0.076780 0.017817 0.041678 -0.045194 0.007740 -0.083938 -0.024496 0.019359 0.035493 0.074508 0.032324 -0.038765 0.042104 -0.084071 -0.012977 -0.004558 -0.056650 0.011011 0.001201 -0.015872 0.019428 0.055040 -0.020262 0.057491 0.001745 0.040118 -0.058367 0.043355 0.013835 -0.070241 0.039433 0.059516 0.027293 0.093572 -0.006205 0.011143 -0.015882 -0.100718 -0.058383 0.021005 0.094404 0.044033 -0.032411 -0.074868 0.020105 0.001768 -0.014355 -0.014602 -0.036626 0.075045 0.014049 -0.049730 0.005621 -0.050121 -0.003435 -0.007893 -0.066077 0.007944 -0.038013 -0.046909 0.063374 0.040224 0.044318 0.026222 0.010135 0.025494 -0.055604 -0.073447 -0.003350 -0.064108 -0.018580 -0.021758 -0.047884 -0.030049 0.041455 -0.007012 0.042837 -0.020159 -0.013464 -0.031210 -0.082394 -0.060966 0.032585 -0.001718 0.034405 0.057749 0.121956 0.091956 -0.001258 -0.028172 -0.051055 -0.029427 0.040501 -0.048707 0.005124 -0.013433 0.046620 0.012359 0.008730 0.048044 0.038366 0.031917 -0.060272 -0.012669 -0.012863 0.020045 0.079916 -0.021597 -0.046913 0.013053 0.009464 0.024968 0.095159 -0.037660 -0.083192 -0.040567 0.017970 -0.012587 0.061526 -0.046629 -0.045679 -0.034803 0.073186 0.055857 -0.001031 0.048697 0.075330 -0.011823 0.068136 -0.035916 -0.060993 0.038020 0.073615 0.021626 0.022372 0.022354 -0.026067 0.013438 -0.056846 -0.067632 -0.025850 -0.047543 0.073910 -0.035337 0.012502 -0.091311 0.014195 -0.012632 0.006389 -0.039659 -0.098713 -0.054606 -0.016264 0.088646 0.053966 0.057714 0.033306 -0.016381 -0.057446 0.053260 -0.035906 0.032145 0.015628 -0.010483 0.016858 -0.026282 -0.117322 -0.016813 0.021874 0.008988 -0.009004 0.020913 -0.013756 -0.049644 0.020302 -0.037347 -0.057741 0.036296 0.024866 -0.000924 -0.006152 -0.016429 -0.021090 0.040962 0.061376 -0.061168 0.028943 0.006171 -0.111293 -0.019056 -0.070693 0.016870 0.031493 0.060372 0.011372 0.013229 -0.006409 0.034671 -0.028714 -0.036848 -0.013505 -0.048213 -0.009944 0.006634 0.067928 0.024823 -0.030174 0.062440 -0.030687 -0.075426 0.007688 -0.043847 0.102236 0.013173 0.038191 -0.037751 -0.028685 0.011086 0.012249 -0.025329 0.056023 0.025506 0.038370 0.012058 0.002094 0.001563 0.055538 -0.034967 -0.076541 0.003235 0.014303 0.116695 0.019072 0.080976 0.016606 0.003731 -0.065173 0.020981 0.037544 -0.029943 0.031314 0.022550 -0.026244 0.060047 -0.018970 -0.027862 -0.008517 0.003690 0.038837 0.063153 0.015226 0.014658 0.130921 -0.123475 -0.088571 -0.031535 0.026775 -0.026971 0.029461 0.053020 -0.046623 0.034011 -0.064939 -0.018471 -0.013737 0.095338 0.042861 -0.066169 0.043818 0.018027 0.001204 -0.090087 -0.028319 0.011282 0.020994 -0.029925 0.098020 0.033637 0.083824 -0.067635 -0.084091 0.017535 -0.022210 -0.002004 -0.007301 -0.011350 0.006309 0.048174 0.041364 -0.003603 -0.048322 -0.095225 -0.062116 -0.007657 -0.001502 0.036769 0.001141 0.008806 0.005888 0.009721 0.031603 -0.028301 0.006879 -0.015531 0.044383 0.027388 0.001716 -0.016578 0.091478 0.069784 0.057380 0.000391 -0.042949 0.022155 0.042174 -0.078902 -0.080020 0.053126 -0.007695 -0.026312 0.021977 0.069166 0.056439 0.018631 -0.026184 0.072301 -0.051239 0.003614 0.039976 0.004317 0.001274 -0.096965 -0.057271 0.018664 -0.035200 -0.001599 -0.078034 -0.014473
A 0.004211 -0.016161 0.088622 0.060967 -0.023983 -0.056579 -0.034938 0.019819 -0.005815 0.045606 0.006229 -0.043389 0.054557 -0.067598 0.044238 0.076425 0.031967 0.000185 -0.026442 0.008255 0.004669 0.006750 -0.058698 -0.042614 -0.007515 0.034138 -0.075800 -0.001131 -0.021652 -0.008348 -0.017579 0.027659 -0.033786 -0.027827 -0.050753 -0.030304 0.016849 -0.028582 -0.005334 0.006178 -0.069224 -0.092748 -0.044344 0.057627 -0.062886 0.099234 0.009238 0.048955 -0.004831 -0.060144 0.000138 -0.051460 -0.054673 -0.016189 0.024501 -0.004638 -0.052224 -0.064052 0.078891 -0.050389 0.048688 0.043987 0.063358 -0.008049 -0.041040 0.085099 -0.084633 -0.035795 0.078222 -0.003728 0.025409 0.015779 -0.025831 0.028708 0.044769 -0.083898 0.002729 0.006693 0.016780 -0.040143 0.017630 -0.036200 0.041301 -0.008715 0.026464 -0.017488 -0.013533 -0.044343 -0.044600 -0.022936 0.010887 0.101939 -0.012798 -0.010787 -0.033531 0.067746 -0.055859 -0.063049 0.032149 -0.050078 -0.003699 -0.042798 0.058228 -0.048571 0.021582 -0.021839 0.100551 -0.034536 -0.027899 -0.032887 -0.050109 0.012371 -0.006301 -0.025740 -0.031272 0.030273 -0.028278 0.040750 -0.008253 0.018464 0.004100 -0.053052 0.018300 0.019217 0.064805 -0.000220 0.000367 0.054124 0.002198 -0.031305 0.009587 -0.077246 -0.005270 0.041409 0.083499 -0.024562 0.061094 0.007460 0.086026 -0.021903 -0.018376 -0.038977 0.077024 0.017286 -0.013524 0.013302 0.021504 0.026845 -0.024273 -0.024225 -0.012369 0.041516 0.005641 0.009510 0.034315 0.001104 -0.024266 0.023879 -0.026460 0.064894 0.020526 -0.025695 0.022439 0.055039 0.065069 -0.023637 -0.058669 -0.029097 0.024168 0.048204 0.005278 0.024389 0.031558 0.001630 0.034292 0.047699 -0.059669 0.029974 0.003450 0.079471 0.051668 0.022593 0.020051 -0.036475 0.008544 0.002791 0.025884 -0.054065 -0.073354 0.005598 0.039901 0.035845 -0.007377 -0.009251 0.007625 -0.013177 -0.049491 -0.001871 0.037978 -0.019050 -0.014984 -0.012151 0.003768 0.026297 0.069167 -0.004472 0.000672 -0.001149 0.016248 -0.017189 0.018011 0.019655 0.075456 0.074104 -0.064575 0.004292 -0.023910 -0.024937 0.002487 0.066756 0.027561 -0.073465 0.009081 0.021299 0.034509 -0.032113 0.044142 0.010852 -0.072160 0.047463 0.009234 0.028813 -0.046279 -0.002993 -0.032809 0.028666 -0.055754 0.095600 0.074295 0.044100 -0.021675 0.019072 -0.114797 0.033608 0.024362 0.103429 -0.041797 0.000581 -0.045702 0.074928 -0.091085 0.070254 0.041638 -0.019497 0.019367 -0.031027 0.011139 -0.065224 -0.026125 -0.020392 -0.025771 -0.026072 0.096786 0.025619 -0.041366 0.020476 -0.017900 -0.103988 -0.051808 -0.030138 0.057034 -0.015616 0.035917 0.035229 0.026182 0.050840 0.030885 0.001356 0.094829 0.007190 -0.069793 -0.026449 0.026780 -0.008048 0.069708 0.045608 0.008501 -0.014965 -0.028610 -0.017206 0.011013 0.072253 0.017681 0.070526 -0.001825 0.018072 0.014504 -0.012284 -0.031837 -0.062798 0.071673 -0.029884 -0.079463 -0.085124 -0.009768 -0.036193 0.020604 -0.112918 -0.012150 0.052675 -0.009818 0.008582 0.011671 0.055850 -0.000376 -0.005108 -0.036915 -0.080408 0.032030 0.024227 0.005261 0.005570 0.011727 -0.019547 0.065011 0.006292 -0.042456 -0.021488 -0.068659 0.077200 0.001090 -0.019700 0.007767 0.059988 0.016698 0.016149 -0.034319 0.026456 -0.043319 -0.057353 -0.049764 0.068643 -0.055565 -0.005427 -0.042734 0.016984 -0.063142 -0.086125 0.027538 0.051043 0.027795 -0.013550 0.023682 -0.022221 -0.016785 -0.012474 0.021771 -0.015131 0.029895 0.026050 -0.034937 0.018713 0.008525 0.037776 0.077590 0.020746 -0.012947 -0.015830 -0.016157 -0.020926 0.008129 -0.008683 -0.062636 0.012388 0.050695 0.053235 -0.096216 -0.023142 -0.013211 0.008423 -0.038105 0.040527 -0.004972 0.026849
