16 384
A -0.048482 0.001783 0.017762 0.013474 -0.005613 0.013058 0.005796 -0.067002 -0.000062 0.029333 0.023115 -0.038864 -0.041289 0.003482 -0.055084 0.015238 -0.036515 0.091885 -0.033795 -0.020422 0.017902 -0.019615 0.012310 -0.007964 0.031071 -0.026815 -0.014294 0.010339 -0.073664 0.043907 0.016093 0.047824 0.003422 0.026138 -0.026292 0.006643 0.035222 -0.012465 0.042208 -0.052548 0.010265 -0.051985 0.018577 -0.004623 -0.089661 -0.034231 0.020171 0.023102 -0.010715 -0.024371 0.031452 -0.050841 0.076846 -0.093309 0.031820 -0.060153 -0.012926 0.037769 -0.027771 0.050615 -0.049354 0.008177 -0.096170 -0.043514 -0.019482 0.048662 -0.051033 -0.039771 0.037238 0.008888 -0.053218 0.015418 -0.042372 -0.009351 -0.027208 0.069718 0.086421 0.016622 0.058295 0.009575 -0.028368 -0.023455 0.057155 -0.004332 -0.015790 -0.007287 0.008450 0.041123 -0.062124 0.049342 -0.073182 -0.000272 -0.040715 0.037595 0.021568 0.039007 -0.021143 -0.008524 0.045439 -0.006094 0.013131 0.066784 0.081533 0.033069 0.060815 -0.029912 0.020761 0.013892 0.016076 -0.015283 -0.005572 -0.031259 0.047955 0.011182 0.009328 0.049183 0.010370 0.058826 0.010482 -0.047510 -0.004786 0.034474 0.026545 0.025877 0.010911 -0.026294 -0.043185 -0.012282 0.020152 -0.051728 0.008471 0.038304 0.054745 0.025655 0.029573 0.016919 -0.025830 0.012914 0.009897 -0.032631 0.002400 -0.006207 -0.046156 -0.012830 -0.016743 -0.063019 -0.002876 -0.009253 0.032708 0.011196 -0.052077 0.046022 0.000467 -0.094996 -0.009162 0.049554 -0.008512 0.004287 -0.045043 -0.036324 0.000203 -0.021384 0.047796 -0.006312 0.013115 0.023814 -0.016312 -0.018365 -0.029649 0.059595 -0.010802 -0.000900 0.002346 0.000232 0.001939 -0.066511 0.049558 -0.001552 0.073895 0.026532 -0.044977 0.009907 0.029048 -0.102239 0.026385 0.001282 -0.020865 -0.045422 0.044637 -0.034148 0.015789 0.073352 0.019014 0.052488 -0.050165 0.029256 -0.021411 0.013166 -0.003702 -0.010515 -0.063993 0.034389 -0.038442 0.025756 0.090993 0.056004 -0.019653 -0.008016 -0.042263 -0.087538 -0.040769 -0.025651 0.014150 -0.056635 0.013457 0.018932 -0.015728 0.006741 -0.030993 -0.051787 0.028121 0.018244 0.000047 0.015744 0.006103 0.044721 0.073196 0.001692 0.003120 0.041854 -0.003487 0.028265 -0.027530 -0.000363 0.044592 -0.001936 0.011526 0.014259 -0.045013 0.053269 0.038169 0.011860 -0.011341 0.000887 0.058709 0.003745 0.039260 0.012172 -0.060172 0.050507 -0.008736 -0.058771 0.070637 0.035573 -0.021263 -0.014939 0.027187 0.000327 0.037201 0.018298 0.047051 0.010045 -0.034028 -0.037258 0.101174 -0.042131 0.009277 0.049500 0.051259 -0.033952 0.062396 -0.000500 -0.070933 -0.063467 0.003325 0.064937 0.006091 -0.065869 0.076951 0.018459 -0.058010 -0.013332 -0.053395 0.042050 -0.004279 -0.053540 0.066680 0.023999 0.045270 -0.041975 -0.055102 0.065833 -0.001138 0.103952 -0.090116 0.042032 0.087028 0.054796 0.082194 -0.090642 0.028225 0.046009 -0.060309 0.039883 -0.023602 0.030073 -0.069075 0.004725 -0.004563 -0.009102 0.063522 0.018406 -0.012277 0.028888 0.008304 0.030774 -0.033541 0.019102 -0.032112 -0.034535 -0.034671 0.021488 0.063818 -0.023312 -0.028350 -0.005684 0.071480 0.038291 -0.119024 0.050522 0.009540 -0.048940 0.004107 0.035413 -0.015433 0.029229 -0.111159 -0.007783 -0.079469 -0.077202 -0.010445 0.060848 0.033492 -0.036257 -0.059277 0.022289 0.037281 -0.025567 0.002570 0.000736 0.001934 -0.031126 -0.016231 0.030606 0.026334 0.014274 0.010398 -0.002393 -0.080740 -0.042720 0.056418 -0.020560 0.046312 0.019500 0.008958 -0.039140 0.034414 -0.045568 -0.018054 -0.073403 -0.035670 0.030464 -0.006661 -0.038907 0.053147 -0.006325 0.008749 0.005560 -0.028446 0.037167 -0.010335 -0.026777 0.043453 -0.048010
figura 0.006618 -0.025229 0.000241 -0.022372 -0.009497 -0.001372 0.034585 -0.001471 0.010230 0.026945 -0.013449 -0.008536 0.024741 -0.000366 -0.018368 -0.012204 0.062422 0.092210 0.011772 -0.077885 0.028995 -0.005251 -0.040496 0.006766 -0.018180 -0.043159 0.003936 0.004482 -0.019736 0.036582 0.014774 -0.021960 0.030503 -0.033790 -0.041041 -0.013447 -0.009211 0.004001 0.035806 0.007633 -0.010957 -0.028238 0.041109 -0.018258 -0.010708 -0.080211 0.030752 0.025940 -0.059628 -0.033982 0.054458 -0.031456 0.025497 -0.025900 -0.003903 -0.109813 -0.001224 0.018396 0.006127 0.020793 -0.011573 0.056502 -0.008927 -0.006707 -0.021086 0.010024 -0.009334 -0.014566 0.038019 -0.042951 -0.056749 -0.000500 -0.092960 0.046973 0.001395 0.006654 -0.003746 -0.008125 -0.011113 -0.005416 0.019094 -0.013662 -0.018631 -0.034821 -0.000681 0.061531 0.038811 0.028737 -0.038034 -0.002898 -0.046332 -0.003633 -0.025169 0.056977 -0.043750 -0.015989 -0.066374 -0.021244 0.064179 0.022060 0.015268 -0.081271 -0.009008 -0.013449 0.028821 -0.037567 0.027758 0.000872 0.002792 0.002012 0.009157 -0.004083 0.045588 -0.011642 0.015054 0.034306 0.045701 0.075909 0.047966 -0.054460 -0.020055 0.015871 0.015203 -0.039187 0.090680 0.013484 0.024868 0.029707 0.032348 0.031493 0.032693 0.009299 -0.043625 0.043509 -0.022811 -0.044754 -0.049616 0.015284 0.028239 -0.010709 0.072318 -0.036996 0.013091 0.047652 0.053197 -0.010219 -0.026970 -0.021611 -0.061556 0.050155 0.018436 -0.026220 0.071669 -0.052951 0.054918 -0.024241 -0.017152 -0.004249 -0.012626 -0.002192 -0.047664 0.008411 -0.033489 0.024263 -0.018855 0.069408 0.007822 0.080247 -0.026286 0.021942 -0.012029 -0.008525 0.013129 0.006839 -0.005979 -0.034793 0.057867 -0.033218 0.025998 -0.010259 0.023050 0.065707 -0.000661 0.008304 0.018041 0.003129 0.035453 -0.018427 0.041218 -0.025642 0.006469 0.022984 0.038186 -0.021958 0.059524 -0.002167 -0.037897 0.029437 0.030291 0.030137 0.001743 0.016234 -0.008533 -0.020461 0.005143 -0.024210 -0.036179 -0.032255 0.022337 -0.009701 0.040779 0.030984 0.026416 -0.026598 0.029632 -0.026059 0.040869 -0.050705 0.015179 0.046716 0.046537 0.078233 -0.003233 -0.028024 -0.054458 0.047533 -0.028277 0.029110 -0.010573 -0.071894 0.002707 0.048582 -0.009932 -0.009920 -0.062911 -0.024017 0.002346 0.009098 -0.004749 0.017807 -0.024069 0.036738 0.017875 -0.067130 0.025612 -0.003295 -0.025048 -0.009501 -0.011853 -0.043566 -0.031792 0.006787 0.016252 0.007053 -0.015642 0.015355 -0.002622 0.028389 -0.005924 -0.015317 0.008453 0.015436 0.005766 0.028329 0.019440 0.003892 -0.010020 0.028720 -0.014926 0.042599 0.006533 -0.048561 0.053333 -0.056830 0.001534 0.000010 0.032240 0.022440 0.013543 -0.003754 0.003736 -0.044692 0.009730 0.067780 -0.025721 -0.023591 0.006864 -0.026696 0.046705 -0.002283 -0.054709 0.007039 0.021188 -0.051644 -0.032980 0.040279 0.045541 -0.019006 -0.029516 -0.062845 0.013494 -0.032775 0.058198 -0.043351 0.013545 0.014766 0.006383 0.032149 -0.029077 0.011928 0.037670 -0.011780 -0.031276 0.012332 0.026257 0.033705 0.057580 -0.029752 0.017455 -0.040202 -0.047240 0.022769 -0.027248 0.021852 0.014206 -0.009445 0.062228 -0.004434 -0.019444 -0.010035 -0.042112 0.022961 -0.082464 0.021290 0.079085 0.024606 -0.060582 0.013336 0.042243 -0.048406 0.031923 0.049676 -0.034918 0.030063 -0.039338 -0.039920 -0.051385 -0.003972 -0.032247 -0.001023 0.002445 -0.039967 -0.008606 0.013451 0.029531 -0.009111 0.001621 -0.091475 -0.027559 -0.002618 -0.002313 -0.027949 0.010317 -0.036299 -0.013412 -0.038079 0.025515 0.005056 -0.000325 -0.005541 -0.038875 0.047020 -0.045020 0.018746 -0.000588 0.064762 0.043132 0.083338 -0.044133 0.021440 -0.017980 -0.027266 0.044878 0.002190
é 0.086537 -0.177089 -0.067550 0.015995 -0.032610 0.058826 -0.033035 -0.057887 0.012729 0.043700 0.012718 -0.041679 0.061349 0.053402 -0.004023 -0.046491 0.046543 0.049172 0.141483 -0.080772 0.030360 0.056662 0.026557 0.114648 -0.050780 0.080695 -0.024804 -0.072844 -0.051604 0.037646 -0.056687 -0.047658 0.067004 -0.057594 -0.000924 -0.050785 0.104147 -0.043281 -0.043547 -0.027867 0.022546 -0.030660 0.034930 0.005785 0.066270 -0.217319 0.047200 0.047678 -0.090967 -0.033241 0.005860 -0.030035 0.050771 0.075303 -0.080356 -0.059729 0.032627 0.033839 -0.125886 0.075640 -0.002513 0.066318 -0.073710 0.048081 -0.054346 0.048410 -0.088304 -0.071390 -0.050638 -0.074348 -0.096696 -0.005750 -0.018669 0.078479 -0.040815 -0.138025 0.052176 0.031223 0.059676 -0.063852 -0.067525 -0.089661 -0.046455 -0.047157 0.003768 0.054851 0.043579 0.085670 0.026612 0.036843 -0.019685 -0.043418 -0.038744 0.022672 -0.201234 -0.050607 -0.043228 -0.114238 0.057469 0.036833 -0.042432 -0.054902 0.154498 0.061015 0.036463 0.029267 -0.005451 0.012933 -0.029853 -0.035237 0.066994 -0.054809 0.142163 -0.030338 0.053775 0.064352 0.059685 0.014162 0.037645 -0.021190 -0.075958 0.086954 -0.071419 0.151321 0.048937 0.013772 0.012871 0.020270 0.043033 0.051178 0.024169 0.045507 0.015710 0.031882 -0.180400 -0.010758 0.038370 -0.029071 0.066054 0.066540 0.057870 0.002299 0.057637 -0.031585 -0.028883 -0.020721 -0.014961 0.012688 -0.043213 0.038810 0.048352 -0.060635 0.083457 -0.019678 0.075356 -0.141279 -0.082001 -0.024070 0.056054 -0.068068 -0.019254 -0.078261 -0.023954 -0.029646 -0.194204 0.014518 -0.035528 0.095251 0.017490 0.056749 -0.114103 -0.050540 -0.351127 -0.012118 0.037442 -0.038044 -0.076998 -0.033704 0.044707 -0.043978 -0.025527 0.068072 0.038739 0.020215 0.063338 -0.021246 0.064240 0.085563 0.029603 0.214595 0.024720 0.035125 -0.024706 0.032521 0.064957 0.064147 0.074048 0.056569 -0.051370 -0.058793 -0.027275 0.040724 -0.019292 -0.074141 0.063271 0.059013 -0.068922 -0.025007 -0.054795 -0.087089 -0.026418 -0.060704 0.046507 -0.060043 -0.006394 -0.077735 0.046687 -0.123661 0.035740 0.013500 0.059144 0.076753 -0.068082 0.042719 -0.038375 0.024494 -0.047772 0.030393 -0.028686 -0.080608 -0.017686 0.113092 0.127629 -0.022072 -0.047285 -0.033377 0.018315 0.071744 0.052658 -0.023942 0.035033 0.116259 0.072731 -0.073391 0.043847 -0.064759 -0.056256 0.037191 -0.086116 0.050824 -0.145796 -0.036935 -0.045411 0.008501 0.064584 0.059929 -0.064869 0.027108 0.068356 0.088374 0.032223 -0.015822 -0.043109 0.047515 0.042074 -0.045826 0.004857 0.033883 0.077701 0.035897 -0.032434 -0.024384 -0.037632 -0.062637 0.049387 0.044785 0.033056 0.066114 0.071299 -0.052357 0.032108 -0.044812 -0.024504 0.036482 -0.018150 0.053643 0.074533 -0.056146 0.072209 -0.029166 -0.046387 -0.053235 0.121062 -0.069119 -0.005874 0.048935 0.041944 -0.005050 -0.105780 -0.053057 0.026965 0.039789 0.075464 -0.056032 -0.056317 0.009853 -0.037632 0.051885 0.025934 0.045959 0.051989 -0.054935 -0.058072 -0.034634 0.041297 -0.023987 0.052489 -0.040864 0.078952 -0.051061 0.038361 0.136119 -0.017862 0.052182 -0.048555 -0.064958 0.045954 -0.135769 -0.053561 -0.046167 -0.063602 0.023016 -0.046301 0.025825 0.070859 0.059560 -0.047343 0.004732 0.040497 -0.018491 0.012751 0.046907 -0.065277 0.031140 -0.107760 -0.129418 -0.049710 0.053368 -0.035941 0.074346 0.023804 -0.028024 0.022505 0.014187 -0.030369 -0.022485 -0.048609 -0.057893 -0.055231 -0.086138 -0.046121 -0.031315 0.073791 -0.073156 -0.034285 0.049717 0.024004 0.008679 -0.024991 -0.035309 -0.038997 0.111567 -0.055146 0.050612 0.034992 0.016961 0.011959 0.062005 -0.048803 -0.042240 -0.060239 -0.020541 0.046756 -0.052626
po -0.014641 -0.016609 0.016128 0.015800 0.062140 -0.063748 -0.069969 -0.080607 0.051059 0.012440 -0.085517 0.046751 0.015696 0.055455 -0.096336 -0.051522 -0.071831 0.068067 -0.009261 -0.037984 0.014903 -0.005664 -0.016678 0.022116 0.041908 0.015987 0.010425 -0.046344 0.032021 -0.002928 -0.001659 0.017127 0.071970 0.021250 0.000452 0.038027 0.096248 -0.041893 -0.042561 0.123452 0.071256 0.004796 -0.013720 -0.047092 -0.041380 -0.037321 0.047164 -0.030835 0.001488 0.043521 -0.009114 -0.101705 -0.024259 -0.019174 -0.008765 0.001426 0.007425 0.069534 -0.056592 0.018940 -0.000839 -0.095492 -0.048554 -0.080045 -0.063468 -0.078847 0.014431 0.015418 0.051241 -0.002788 -0.012783 -0.024908 -0.001794 -0.049756 -0.062583 0.058909 -0.046615 0.028066 -0.034795 -0.046481 0.084057 0.033277 0.054498 0.069243 0.028471 0.030881 0.011296 0.060152 -0.063404 -0.079415 0.008862 0.061734 0.014873 0.085555 -0.067888 0.027227 0.020110 -0.004807 -0.047353 0.006080 0.075573 0.011101 0.074523 0.045864 -0.023495 0.025947 0.031491 0.015125 0.053849 0.055778 0.011508 -0.082771 -0.001587 0.035695 -0.064619 -0.031139 -0.027786 -0.030488 0.114587 0.011712 -0.009867 -0.050369 -0.041066 0.005215 -0.017669 0.015064 -0.035766 0.018479 -0.110856 -0.007879 -0.059111 0.071089 0.014721 0.018057 -0.037916 0.087468 -0.120604 0.047725 0.048417 -0.048853 0.058485 -0.070370 0.045011 0.007741 0.000449 -0.049247 0.034904 -0.019477 0.033178 -0.031312 -0.000547 0.051822 0.009892 -0.050416 -0.031781 -0.078585 0.011455 0.048273 -0.017536 -0.022164 0.015324 -0.046318 -0.025581 0.025095 -0.004580 0.007310 0.044898 0.066726 -0.049835 0.021373 0.068855 0.016465 -0.020646 -0.019688 -0.078042 -0.021104 0.012660 0.010248 0.024370 -0.065308 -0.029187 -0.049996 -0.016752 0.031230 0.054284 0.022526 0.029397 -0.055800 -0.017494 -0.014070 0.051831 -0.023492 0.003899 0.054024 0.018695 0.016753 -0.038320 -0.044534 0.022786 -0.051203 0.048188 -0.039892 0.045810 -0.017291 -0.047589 -0.028774 0.010155 0.015363 -0.036691 -0.016291 0.139314 0.000968 0.068952 0.023807 0.019121 0.022032 -0.007583 0.022888 -0.018817 -0.016532 -0.020786 -0.049987 0.050243 -0.054554 -0.053994 -0.064110 0.101033 0.054611 -0.037244 -0.005837 0.054311 0.023657 -0.047256 -0.090552 -0.007517 0.009638 0.027494 -0.023844 -0.085579 0.039832 -0.099109 -0.030255 0.001603 0.024345 0.002254 0.031174 0.004052 0.052324 0.081142 0.048324 0.029998 0.016487 0.006861 -0.042337 -0.086493 -0.054624 -0.029784 0.077362 -0.013001 -0.092505 0.070692 -0.029724 0.027040 0.034056 0.055963 -0.042461 -0.015507 0.025720 0.039321 0.012167 0.083073 -0.012521 0.036149 -0.005515 0.033104 -0.026798 -0.041956 -0.045414 -0.040425 0.036133 -0.129479 0.095888 -0.039445 -0.067114 0.046295 -0.012664 0.027116 0.019224 -0.082436 0.045269 -0.035989 0.068165 -0.008626 -0.018452 0.073020 0.040894 -0.025941 0.082205 0.006156 0.007170 -0.082895 -0.011532 -0.042711 0.034861 -0.069535 0.009355 0.011857 -0.039045 -0.107609 -0.048291 -0.020973 0.053663 -0.052818 -0.032644 0.031842 0.013445 -0.063381 0.080054 -0.079476 -0.010459 0.044873 -0.018255 -0.009632 0.004653 0.025422 0.032646 0.048743 0.019530 -0.039573 -0.044974 -0.007895 0.079216 0.048330 0.027964 -0.057217 -0.020910 -0.000727 -0.085451 -0.032817 0.048614 0.055883 -0.035546 0.029036 0.056211 -0.040599 0.013281 0.001236 0.150475 -0.032120 -0.068562 -0.000054 0.035522 -0.008899 -0.047694 -0.030328 0.058388 -0.003235 -0.009542 -0.007171 0.014929 0.071931 0.060644 -0.051211 0.015454 0.015105 -0.053771 0.010752 -0.020310 0.066910 0.044895 0.012845 0.015011 0.007386 -0.060591 -0.018049 -0.016559 -0.033278 0.000220 0.003501 -0.013819 0.000681 0.024022 -0.053961 0.020614
ética 0.045493 -0.187253 -0.055632 0.002957 -0.045800 0.028083 -0.029278 -0.056758 0.014061 0.039610 0.040782 -0.037180 0.066678 0.034960 -0.001737 -0.044568 0.050891 0.027492 0.151076 -0.062353 0.057474 0.005518 0.050618 0.110570 -0.067589 0.069810 -0.010441 -0.022604 -0.020591 0.011677 -0.005687 -0.060110 0.041701 -0.040971 -0.018298 -0.092750 0.094043 -0.054718 -0.012605 -0.014851 0.011870 0.006488 0.046260 -0.046259 0.040169 -0.209622 0.041699 0.039513 -0.042685 0.017126 0.034893 -0.070011 0.034094 0.100393 -0.067193 -0.028009 0.047231 0.029893 -0.092210 0.040568 -0.012014 0.043757 -0.049450 0.046282 -0.048676 0.054037 -0.093574 -0.055682 -0.042878 -0.063884 -0.062436 -0.022173 -0.019982 0.042567 -0.034997 -0.127145 0.040337 0.016686 0.091592 -0.030981 -0.042929 -0.092632 -0.012239 -0.062215 -0.043995 0.018892 0.030675 0.074258 0.030041 0.046265 -0.047181 -0.028627 -0.019219 0.013881 -0.167276 -0.049591 -0.041323 -0.147407 0.018098 0.023566 -0.020190 -0.077896 0.173498 0.028376 0.037349 0.041630 0.043212 0.041320 0.005809 -0.034723 0.020167 -0.048820 0.096762 0.005736 0.034867 0.058447 0.049364 0.008069 0.032887 -0.024485 -0.067978 0.072684 -0.015002 0.167364 0.041234 0.022323 -0.000709 0.077592 0.040858 -0.020967 0.060758 0.049654 0.048440 0.051314 -0.182237 -0.023504 0.043229 -0.042532 0.070185 -0.013505 0.037979 0.070171 0.048395 -0.011269 -0.042660 -0.020972 -0.032862 0.057865 -0.006538 0.035068 0.048579 -0.079926 0.014111 -0.054679 0.027732 -0.135110 -0.036719 0.002688 0.036753 -0.039263 -0.026441 -0.091389 -0.037369 -0.062350 -0.144158 0.071929 -0.074823 0.078769 0.020969 0.069133 -0.058105 -0.038766 -0.343391 0.012796 0.039434 -0.028871 -0.035137 -0.028414 0.053875 -0.038303 -0.049168 0.076538 0.029529 0.053884 0.060083 -0.023656 0.085217 0.042368 0.007825 0.166698 0.011167 0.039017 -0.039086 0.014375 0.007598 0.038821 0.046417 0.043135 -0.053516 -0.075321 -0.030485 0.036099 -0.099005 -0.045156 0.048525 0.047812 -0.031345 -0.032983 -0.014834 -0.069707 -0.050002 -0.067989 0.027295 -0.028605 0.033733 -0.037954 0.069729 -0.095604 0.027118 0.007265 0.098341 0.059178 -0.034191 0.034283 -0.049481 0.033265 -0.037576 0.017678 0.000711 -0.005196 -0.040747 0.076596 0.115783 -0.021730 -0.043261 -0.068802 0.004569 0.091211 0.066925 -0.038404 0.063671 0.113798 0.079932 -0.062027 0.026155 -0.053422 -0.002526 0.007551 -0.092109 0.058972 -0.065402 -0.024921 -0.044184 0.024130 0.023651 0.035354 -0.029270 0.033827 0.045302 0.047357 0.008282 0.005087 -0.021391 0.052564 0.034523 -0.064900 0.036484 0.018031 0.046573 0.051254 -0.015094 -0.044361 -0.071056 -0.039624 0.026712 0.042151 0.069813 0.057711 0.084637 -0.041883 0.005163 -0.082971 -0.024597 0.079375 -0.043975 0.048344 0.062769 -0.022200 0.045595 0.002674 -0.019703 -0.041682 0.107643 -0.060893 -0.059002 0.039819 0.012564 -0.024392 -0.083318 -0.006544 0.027105 0.009190 0.054683 -0.024977 -0.047541 0.048697 -0.046520 0.076928 0.043826 0.072890 0.051764 -0.025813 -0.047089 -0.055482 0.018748 -0.006795 0.036701 -0.024191 0.041658 -0.017009 0.027285 0.132607 -0.033637 0.008819 -0.058604 -0.019753 0.035718 -0.085912 -0.015481 -0.030542 -0.065728 -0.004268 0.006350 0.020419 0.078076 0.037195 -0.041567 -0.004654 0.064119 0.004819 -0.024606 0.038019 -0.061450 0.054515 -0.070414 -0.114551 -0.013928 0.028570 -0.036043 0.062197 0.025333 -0.038562 0.036589 0.047604 -0.045213 -0.023430 -0.051049 -0.030234 -0.031586 -0.072505 -0.052260 -0.084908 0.064591 -0.086390 -0.035301 0.048571 0.025439 0.040759 -0.021400 -0.035874 -0.036405 0.089423 -0.028080 0.012904 0.021509 0.015529 0.031013 0.059299 -0.043514 -0.049288 -0.031367 -0.006373 0.034880 -0.020598
, -0.051808 -0.004775 0.055507 -0.005721 0.051411 -0.038520 0.046222 -0.014557 -0.014110 -0.067652 -0.020774 -0.015100 -0.028869 -0.052157 0.082246 -0.000974 -0.053841 -0.075633 -0.040909 0.080949 0.013456 -0.026585 -0.024112 -0.023057 0.027176 0.083317 0.030590 0.015981 -0.032300 0.014046 0.028197 -0.051717 -0.008263 0.018451 0.029940 0.007284 0.001617 0.012830 0.018808 0.000852 -0.014109 0.031025 -0.042617 0.064570 -0.045282 -0.027749 -0.013892 0.025504 -0.003173 0.009831 -0.050818 0.068604 -0.006281 0.039302 0.027786 0.011191 0.049051 -0.008016 0.014051 -0.037682 -0.021595 -0.043675 0.025609 0.080811 0.085708 0.011699 -0.041897 -0.002704 0.009380 -0.052472 0.068352 0.052041 0.044858 -0.085472 0.063395 0.065200 0.056879 -0.003762 -0.004484 0.041344 0.028792 -0.013234 0.049260 0.017321 0.044218 -0.018388 -0.055888 -0.000946 -0.033047 0.046679 0.024022 -0.051179 0.035545 -0.034209 0.032100 0.042363 0.045137 -0.019314 -0.015722 0.014058 0.021291 0.046569 0.005569 -0.046605 -0.063558 -0.033147 -0.075334 -0.015966 -0.014588 0.010745 0.026662 0.083145 0.084731 0.001759 -0.000095 -0.103170 -0.032218 -0.083935 -0.042793 0.039174 -0.012114 -0.033643 -0.014178 0.011520 0.005888 -0.026168 0.019586 -0.087542 0.040244 -0.048679 -0.009772 -0.077116 -0.072645 -0.042840 0.023985 -0.004867 -0.012866 0.032181 -0.075058 -0.001044 -0.011771 -0.059479 0.009622 -0.003853 0.070803 0.037094 0.017036 0.028443 0.057947 0.034397 -0.034264 -0.023574 -0.003241 0.053718 -0.049339 -0.016045 0.027577 0.032471 -0.036923 0.011422 0.028730 0.042355 -0.076606 0.103244 -0.007127 0.038750 0.040459 0.024392 0.022928 -0.008344 0.018177 0.027864 -0.016160 0.046136 -0.006373 -0.018354 -0.060150 0.094758 -0.037722 0.029191 0.033990 0.000279 -0.014162 -0.038422 -0.037169 0.030748 0.068803 -0.068574 -0.040936 -0.078519 -0.034195 -0.064152 0.004490 -0.049698 0.061561 -0.046501 0.051587 -0.005478 -0.017572 0.057865 0.034751 -0.036450 -0.062617 0.004449 -0.015799 0.040989 0.058613 -0.068368 -0.002877 0.019503 0.006144 -0.022266 0.053216 0.048126 -0.001338 0.035379 -0.003679 0.094445 -0.016986 0.038340 0.003091 0.064224 0.005579 0.000954 0.079422 -0.039350 -0.001510 0.047172 0.061884 0.027304 0.056809 0.060163 0.022275 0.005924 0.050337 0.000922 -0.009551 -0.011065 -0.019937 -0.007292 -0.047691 0.024395 -0.027407 0.030954 0.000688 0.008291 -0.097370 0.024137 0.043093 0.014665 -0.050449 -0.013144 0.019125 -0.112369 -0.047785 0.009113 -0.061369 -0.030195 -0.048496 -0.069903 0.038759 -0.088825 0.064685 -0.080919 -0.016720 0.022513 -0.042955 -0.034995 -0.029413 -0.028110 -0.005917 0.047369 0.028098 0.054843 0.008869 -0.004691 0.030828 -0.049861 -0.037204 -0.015670 -0.046507 0.024832 0.056032 -0.085570 0.059232 -0.009788 -0.007845 0.031317 -0.081431 -0.042988 0.035878 0.010030 0.011274 0.016080 -0.001077 0.002972 -0.047168 0.015303 0.016078 -0.033768 -0.016855 -0.081511 0.015403 0.006692 0.052269 -0.018073 -0.059349 -0.080197 0.028072 -0.034683 -0.047281 0.033983 0.050312 0.043025 -0.032298 0.043641 0.056603 -0.020798 0.022934 0.083033 -0.078367 0.037194 0.004526 0.000326 0.036615 -0.002466 0.043354 0.028567 0.048963 0.045871 0.059328 -0.008589 0.025171 -0.046789 -0.033447 0.013065 0.067662 -0.011474 -0.045641 0.038537 -0.017573 -0.029369 0.057852 0.014693 -0.064263 0.008611 0.073771 -0.014888 0.032082 -0.050555 0.009071 -0.026573 0.006716 -0.055008 0.035547 0.004992 -0.000284 0.003948 0.020746 0.019587 0.048391 0.011078 -0.020579 0.022037 0.004100 -0.028984 -0.062211 0.050661 0.016216 -0.042311 -0.024836 -0.041208 -0.024091 -0.008570 -0.062267 -0.070192 -0.016229 0.061400 0.035840 -0.014359 0.037992 -0.025557 0.038120 -0.037189
mas -0.016436 -0.024645 0.012798 0.025336 -0.028393 -0.048424 0.006792 0.022764 -0.043881 -0.028308 -0.034343 0.009389 0.047264 0.053674 -0.107453 0.038281 -0.074539 0.029814 0.045992 0.056365 -0.076899 0.023148 0.026968 0.101471 0.084124 -0.066041 -0.004626 -0.031658 -0.093554 0.000441 -0.014968 -0.083379 0.148192 -0.028985 -0.064315 -0.049394 0.064489 0.027715 -0.036605 -0.002392 0.112747 0.048051 0.089291 0.060300 0.016301 -0.015177 0.071065 0.019310 0.013920 -0.077049 -0.037612 0.012298 0.058247 0.020159 0.016321 0.023446 0.031639 0.075112 -0.035621 0.050241 0.053683 0.001470 -0.018203 -0.008720 0.069208 0.000613 -0.065180 -0.028617 -0.026515 -0.005007 0.007490 -0.054426 -0.073807 -0.081696 -0.065361 -0.052475 0.056998 -0.030545 -0.073055 -0.044420 0.006195 0.047047 -0.006657 -0.004570 -0.032923 -0.025369 -0.052112 0.013984 0.041522 0.067273 0.004196 0.042684 -0.011367 0.086798 -0.045547 -0.028861 -0.007587 -0.077405 -0.090757 -0.030098 0.001527 -0.080320 -0.008006 -0.026945 0.036565 -0.033992 -0.018750 0.009036 0.026629 -0.027052 -0.049626 0.010944 -0.056937 0.025982 0.022161 -0.012980 -0.003539 -0.000665 -0.024359 -0.104103 0.019170 -0.031019 -0.012617 -0.029380 0.051555 0.028741 0.006913 0.044651 -0.008498 -0.014906 -0.017145 -0.064019 0.013321 -0.024333 -0.072014 -0.019539 -0.047370 -0.020058 -0.009595 -0.060515 0.034442 -0.010935 0.000116 0.026665 0.011863 -0.060786 0.048302 0.028058 -0.000426 -0.075650 0.010704 -0.058755 0.051035 0.014352 0.017949 0.023942 0.001698 0.049028 0.001446 -0.062876 -0.011184 0.029363 -0.096323 0.056747 0.010709 0.047637 0.028024 0.028924 -0.000796 0.040517 -0.007057 -0.020634 0.047326 0.024509 0.034842 -0.040643 -0.023651 0.040695 0.020081 -0.067823 -0.013130 0.041562 0.080780 0.012721 -0.025117 -0.069360 -0.060506 -0.000270 0.038951 0.030625 0.043775 -0.007400 0.098181 0.019800 0.045351 -0.071150 -0.075349 0.000500 0.015948 -0.057828 -0.005788 0.034655 0.053799 -0.024270 -0.092244 -0.003586 0.032366 -0.019272 0.049372 0.003530 0.058784 -0.010306 -0.062559 -0.022642 0.009719 0.022630 0.096249 0.041414 0.012089 -0.023418 -0.005652 -0.005721 -0.010280 -0.050730 -0.092762 0.015988 0.047000 0.089464 0.033361 0.001716 0.002953 0.030123 -0.000085 -0.034014 0.038019 -0.033065 0.086395 -0.033212 -0.015300 0.018574 -0.021005 0.002359 0.008918 0.009264 -0.016918 -0.025935 -0.019115 0.030452 0.006936 -0.011775 0.053601 0.076053 0.043033 0.021872 -0.065143 -0.030843 -0.055855 0.073755 -0.013643 -0.015665 0.041673 0.068341 -0.017704 -0.040659 -0.040925 0.019327 0.079900 0.140579 0.020202 0.003955 0.001209 0.030489 0.025210 -0.014512 -0.015463 0.015173 -0.022266 0.015484 -0.094556 -0.016493 0.044946 -0.048632 -0.002092 -0.053849 -0.042468 -0.046525 0.019684 -0.018139 -0.096790 -0.023872 0.040852 0.068378 0.001619 -0.004521 0.015644 -0.069589 -0.008747 -0.024577 0.016644 -0.013879 0.043512 -0.022643 0.074424 -0.036920 0.030839 -0.061096 0.016081 -0.011102 -0.010198 0.098435 0.032358 0.049690 -0.038480 -0.051799 -0.053189 -0.016191 -0.024999 0.008019 0.001816 -0.057655 -0.047035 0.057577 0.019525 0.042154 0.017963 -0.032783 0.021979 -0.024569 0.057285 -0.026562 -0.039099 0.046663 0.075117 0.018315 0.007415 -0.019187 -0.035102 -0.004102 -0.050332 -0.031166 0.070284 -0.019470 0.082581 -0.011576 0.078539 0.054097 -0.052728 0.088095 0.003904 -0.001740 0.077020 0.061759 -0.032641 -0.011656 -0.009230 -0.040196 -0.083022 -0.007413 -0.018339 -0.014933 -0.008587 0.051827 -0.001089 -0.018162 -0.021754 -0.058278 -0.003371 -0.073801 -0.064459 -0.002248 0.044183 -0.022155 0.076835 0.042766 0.005315 0.013794 0.040202 0.018063 0.028083 -0.010274 0.013418 -0.050086 0.043269 0.102385
não 0.108170 -0.167644 -0.041994 0.009681 -0.015411 0.069707 -0.072389 -0.072517 0.039755 0.012306 0.039620 -0.036664 0.025752 0.022414 -0.039102 -0.020969 0.073809 0.061474 0.109165 -0.089377 0.082717 0.030568 0.039433 0.124092 -0.040453 0.073022 -0.016682 -0.041842 -0.042217 0.004609 -0.045670 -0.022466 0.072562 -0.045746 -0.030858 -0.084118 0.094832 -0.036475 -0.046084 -0.029054 0.029629 -0.046869 0.070774 -0.044640 0.080118 -0.212555 0.097354 0.009516 -0.078942 -0.021285 0.015610 -0.042535 0.046133 0.087994 -0.061073 -0.037701 0.035761 0.066825 -0.084358 0.061286 -0.045755 0.063906 -0.088405 0.071149 -0.026278 0.052474 -0.088782 -0.068006 -0.030566 -0.055214 -0.055822 -0.024491 -0.064517 0.042321 -0.050887 -0.149396 0.064545 0.042317 0.066143 -0.051411 -0.003400 -0.040706 -0.031980 -0.033174 -0.020473 0.085618 0.035914 0.053903 0.023096 0.045266 -0.022526 -0.016676 -0.040314 0.043335 -0.192192 -0.047135 -0.028196 -0.085296 0.074869 0.053700 -0.005383 -0.060356 0.143482 0.080134 0.040375 0.056065 0.027064 0.013170 -0.042944 -0.064631 0.026928 -0.054627 0.098902 -0.029520 0.021377 0.059559 0.050985 0.041036 0.024266 -0.031985 -0.036403 0.081678 0.003483 0.193613 0.037228 0.024063 0.039425 0.033255 0.073946 0.034332 0.035988 0.040804 0.042751 0.054715 -0.199238 -0.074240 0.041663 -0.031790 0.025353 0.052340 0.034189 0.029727 0.017081 -0.049279 -0.022109 -0.031089 -0.071968 0.037867 -0.053886 0.047988 0.047324 -0.075383 0.072732 0.015472 0.049680 -0.141916 -0.040926 -0.038431 0.014232 -0.038493 -0.014691 -0.093383 -0.019967 -0.045677 -0.168507 0.066910 -0.051879 0.104650 0.028574 0.078807 -0.095005 -0.001601 -0.377028 0.005513 0.044653 -0.047282 -0.010554 -0.047793 0.029964 -0.050787 -0.034549 0.051972 0.022296 0.003143 0.020100 -0.003408 0.110015 0.028383 0.073148 0.204425 0.020547 0.054854 -0.003971 0.008771 0.042716 0.035344 0.016946 0.044330 -0.027695 -0.051818 -0.004616 0.015890 -0.055582 -0.078308 0.030239 0.081580 -0.048271 -0.037096 -0.043897 -0.103046 -0.023971 -0.080760 0.052382 -0.033176 0.039981 -0.028013 0.031506 -0.118220 0.028229 0.025030 0.110424 0.057570 -0.048326 -0.001923 -0.072008 0.045642 -0.046604 -0.000104 -0.019712 -0.049151 -0.048834 0.122931 0.117885 -0.042555 -0.002938 -0.059377 0.034657 0.073312 0.044981 -0.077945 0.031458 0.082948 0.054597 -0.054720 0.048984 -0.069438 -0.038162 0.045438 -0.087691 0.027865 -0.118188 -0.046013 -0.075893 0.047806 0.037718 0.058040 -0.025748 0.083380 0.011716 0.031082 0.011047 0.041806 -0.062620 0.077218 0.017000 -0.016053 0.004790 0.061871 0.080668 0.041028 -0.038895 -0.073988 -0.068319 -0.041654 0.063936 0.064606 0.063292 0.043510 0.042257 -0.041708 0.062907 -0.058054 -0.019666 0.082350 -0.050449 0.039800 0.073354 -0.052797 0.023748 -0.044219 -0.048234 -0.091919 0.110774 -0.071374 -0.043402 0.051940 0.012594 -0.022158 -0.100824 -0.090768 0.023509 0.044223 0.044997 -0.056886 -0.049554 0.041141 -0.061198 0.037275 0.033834 0.046413 0.080617 -0.017240 -0.066367 -0.024357 0.021853 -0.032302 0.050223 -0.106141 0.058386 -0.016942 0.066103 0.121257 -0.008833 0.062874 -0.019949 -0.019977 0.049794 -0.097769 -0.030909 -0.057377 -0.102545 0.047365 -0.070550 0.035787 0.055755 0.040857 -0.011399 0.041458 0.077310 -0.012872 0.036962 0.052234 -0.057866 0.002441 -0.070742 -0.153950 -0.061092 0.044659 -0.033127 0.084331 0.045547 -0.061080 0.042419 0.012295 -0.044573 -0.031920 -0.037574 -0.031646 -0.026538 -0.059854 -0.037931 -0.058004 0.068028 -0.085043 -0.027996 0.026852 0.056275 0.010976 -0.019083 -0.031377 -0.028531 0.097637 -0.086360 0.035038 0.030628 0.018574 0.001742 0.046031 -0.022492 0.005976 -0.048292 -0.012893 0.054645 -0.046206
é 0.086537 -0.177089 -0.067550 0.015995 -0.032610 0.058826 -0.033035 -0.057887 0.012729 0.043700 0.012718 -0.041679 0.061349 0.053402 -0.004023 -0.046491 0.046543 0.049172 0.141483 -0.080772 0.030360 0.056662 0.026557 0.114648 -0.050780 0.080695 -0.024804 -0.072844 -0.051604 0.037646 -0.056687 -0.047658 0.067004 -0.057594 -0.000924 -0.050785 0.104147 -0.043281 -0.043547 -0.027867 0.022546 -0.030660 0.034930 0.005785 0.066270 -0.217319 0.047200 0.047678 -0.090967 -0.033241 0.005860 -0.030035 0.050771 0.075303 -0.080356 -0.059729 0.032627 0.033839 -0.125886 0.075640 -0.002513 0.066318 -0.073710 0.048081 -0.054346 0.048410 -0.088304 -0.071390 -0.050638 -0.074348 -0.096696 -0.005750 -0.018669 0.078479 -0.040815 -0.138025 0.052176 0.031223 0.059676 -0.063852 -0.067525 -0.089661 -0.046455 -0.047157 0.003768 0.054851 0.043579 0.085670 0.026612 0.036843 -0.019685 -0.043418 -0.038744 0.022672 -0.201234 -0.050607 -0.043228 -0.114238 0.057469 0.036833 -0.042432 -0.054902 0.154498 0.061015 0.036463 0.029267 -0.005451 0.012933 -0.029853 -0.035237 0.066994 -0.054809 0.142163 -0.030338 0.053775 0.064352 0.059685 0.014162 0.037645 -0.021190 -0.075958 0.086954 -0.071419 0.151321 0.048937 0.013772 0.012871 0.020270 0.043033 0.051178 0.024169 0.045507 0.015710 0.031882 -0.180400 -0.010758 0.038370 -0.029071 0.066054 0.066540 0.057870 0.002299 0.057637 -0.031585 -0.028883 -0.020721 -0.014961 0.012688 -0.043213 0.038810 0.048352 -0.060635 0.083457 -0.019678 0.075356 -0.141279 -0.082001 -0.024070 0.056054 -0.068068 -0.019254 -0.078261 -0.023954 -0.029646 -0.194204 0.014518 -0.035528 0.095251 0.017490 0.056749 -0.114103 -0.050540 -0.351127 -0.012118 0.037442 -0.038044 -0.076998 -0.033704 0.044707 -0.043978 -0.025527 0.068072 0.038739 0.020215 0.063338 -0.021246 0.064240 0.085563 0.029603 0.214595 0.024720 0.035125 -0.024706 0.032521 0.064957 0.064147 0.074048 0.056569 -0.051370 -0.058793 -0.027275 0.040724 -0.019292 -0.074141 0.063271 0.059013 -0.068922 -0.025007 -0.054795 -0.087089 -0.026418 -0.060704 0.046507 -0.060043 -0.006394 -0.077735 0.046687 -0.123661 0.035740 0.013500 0.059144 0.076753 -0.068082 0.042719 -0.038375 0.024494 -0.047772 0.030393 -0.028686 -0.080608 -0.017686 0.113092 0.127629 -0.022072 -0.047285 -0.033377 0.018315 0.071744 0.052658 -0.023942 0.035033 0.116259 0.072731 -0.073391 0.043847 -0.064759 -0.056256 0.037191 -0.086116 0.050824 -0.145796 -0.036935 -0.045411 0.008501 0.064584 0.059929 -0.064869 0.027108 0.068356 0.088374 0.032223 -0.015822 -0.043109 0.047515 0.042074 -0.045826 0.004857 0.033883 0.077701 0.035897 -0.032434 -0.024384 -0.037632 -0.062637 0.049387 0.044785 0.033056 0.066114 0.071299 -0.052357 0.032108 -0.044812 -0.024504 0.036482 -0.018150 0.053643 0.074533 -0.056146 0.072209 -0.029166 -0.046387 -0.053235 0.121062 -0.069119 -0.005874 0.048935 0.041944 -0.005050 -0.105780 -0.053057 0.026965 0.039789 0.075464 -0.056032 -0.056317 0.009853 -0.037632 0.051885 0.025934 0.045959 0.051989 -0.054935 -0.058072 -0.034634 0.041297 -0.023987 0.052489 -0.040864 0.078952 -0.051061 0.038361 0.136119 -0.017862 0.052182 -0.048555 -0.064958 0.045954 -0.135769 -0.053561 -0.046167 -0.063602 0.023016 -0.046301 0.025825 0.070859 0.059560 -0.047343 0.004732 0.040497 -0.018491 0.012751 0.046907 -0.065277 0.031140 -0.107760 -0.129418 -0.049710 0.053368 -0.035941 0.074346 0.023804 -0.028024 0.022505 0.014187 -0.030369 -0.022485 -0.048609 -0.057893 -0.055231 -0.086138 -0.046121 -0.031315 0.073791 -0.073156 -0.034285 0.049717 0.024004 0.008679 -0.024991 -0.035309 -0.038997 0.111567 -0.055146 0.050612 0.034992 0.016961 0.011959 0.062005 -0.048803 -0.042240 -0.060239 -0.020541 0.046756 -0.052626
a 0.054904 -0.064456 -0.013570 0.062400 -0.019135 0.063388 -0.005224 -0.017820 0.023174 0.007108 0.085441 -0.026951 0.053890 -0.006974 -0.024825 -0.013245 0.045216 -0.004337 0.043595 -0.016906 0.054739 0.081268 -0.009626 0.076504 -0.027558 0.048443 -0.053564 -0.003030 -0.053016 0.083058 -0.024248 -0.059340 0.005169 -0.062919 0.027939 -0.025086 0.042832 -0.026404 0.001609 -0.034406 0.010665 -0.023400 0.005584 -0.048877 0.047078 -0.091686 0.050042 0.068584 0.011682 -0.014905 0.000381 0.008472 0.032457 0.028966 -0.041658 -0.081513 0.070140 0.035847 -0.025447 0.010547 -0.041102 -0.039450 -0.032004 -0.003947 -0.033730 0.073282 -0.039249 -0.049070 0.016539 -0.032296 -0.026759 0.003203 -0.033358 0.021518 -0.050680 -0.031920 0.007299 -0.015162 -0.010820 -0.004451 -0.026957 0.010475 0.034819 0.014218 0.002524 0.008933 -0.011086 0.003746 0.026393 0.025802 -0.033349 -0.019807 -0.000445 0.080729 -0.026376 -0.054777 -0.041992 -0.032028 0.046972 0.025141 -0.025817 -0.018783 -0.005936 0.017808 -0.010825 0.002048 0.001373 0.009109 -0.010784 -0.019852 -0.000906 -0.028419 0.003160 -0.022492 0.058450 0.035527 0.026083 0.052247 0.029464 -0.008711 -0.031185 -0.027747 -0.016059 0.029501 0.086236 0.039147 -0.039395 -0.009351 0.061355 0.040748 -0.006610 -0.026745 0.006810 -0.011336 0.004914 -0.006885 0.016318 -0.071200 -0.037687 0.003770 0.110588 0.014144 0.006808 -0.014226 -0.031614 -0.042106 -0.039575 0.035761 -0.027320 -0.015810 -0.008103 -0.025139 -0.033988 -0.047203 0.042944 -0.132796 -0.007473 -0.031591 -0.006972 -0.007773 -0.063511 -0.017685 -0.020722 -0.008628 -0.060096 0.034561 0.008078 -0.010634 0.017556 0.044316 -0.022173 -0.023009 -0.091219 0.048986 0.008514 0.034229 0.018556 -0.049072 0.021880 -0.085878 -0.026701 -0.010242 0.034214 0.029960 0.051770 -0.024723 0.029676 0.034214 0.035281 0.012774 0.048608 0.018261 -0.062652 0.024342 -0.006632 0.010977 -0.006106 0.068013 0.036027 -0.023059 0.014590 0.023655 0.016835 0.004928 -0.002772 -0.023219 -0.048141 -0.036083 0.012837 0.011753 0.002143 -0.000406 0.006950 -0.031609 0.043373 -0.016601 0.020547 -0.014327 0.033271 0.026681 -0.005235 0.036526 0.038321 0.023303 -0.076776 0.031707 -0.003838 0.077041 0.021449 0.015649 -0.042475 0.051286 0.024411 -0.045650 -0.019326 -0.018868 0.008193 0.044221 0.054290 -0.039635 0.022715 0.039648 0.019233 -0.028432 0.050150 -0.015697 -0.052662 0.055310 -0.011345 0.062182 0.003085 -0.028535 -0.021812 0.032624 0.015605 0.042753 -0.026390 -0.037859 -0.008945 0.045380 0.046324 -0.013972 -0.002993 0.000896 0.013942 0.016033 0.026938 -0.020901 0.009890 -0.005072 -0.008716 0.011798 -0.020037 0.002530 0.023382 0.024815 0.009261 -0.016444 0.013355 -0.033443 0.009039 0.033982 -0.017040 0.017061 -0.041429 -0.008344 -0.015948 -0.059534 0.051757 0.008676 -0.075574 -0.025860 -0.003990 -0.050060 -0.046607 0.003674 0.037162 -0.009056 0.042090 -0.018706 0.003113 0.024436 0.033955 -0.042460 -0.040054 0.034963 -0.047691 0.030052 -0.023297 0.002392 0.043862 -0.035770 0.005055 -0.005624 0.034431 0.027172 0.051365 -0.045991 0.017709 -0.050711 0.030159 0.078804 0.039799 0.023113 0.039626 -0.033515 0.081924 -0.053696 0.008068 -0.001029 -0.003146 0.036635 -0.000696 -0.009576 0.037508 0.047294 -0.033987 0.013185 0.020716 -0.034197 0.032026 -0.009125 -0.041319 0.044374 0.007392 0.003581 -0.055061 -0.007515 -0.003992 0.010166 0.017547 -0.030328 -0.007000 0.049053 0.023761 -0.015767 -0.049691 -0.031434 0.017280 0.011153 0.031679 -0.056057 0.009488 -0.039256 0.010054 -0.014593 -0.034008 0.026569 -0.034489 -0.048848 0.017829 0.058763 -0.012644 0.046714 0.008313 0.038766 0.028688 0.036935 0.013262 -0.039560 0.023398 -0.001294 0.035260 -0.043642
da -0.054336 0.052404 0.033409 -0.010510 -0.014961 0.022716 -0.019625 0.001967 -0.035800 0.009961 -0.041307 0.012259 0.029089 -0.071966 -0.008404 -0.014804 0.041321 0.039936 -0.023888 -0.023907 -0.022135 0.033682 0.001284 -0.015439 -0.004408 0.070201 -0.066830 -0.059764 -0.061215 0.064178 0.030133 0.010091 -0.007764 0.054714 -0.015337 0.068126 -0.040253 0.026091 0.031722 -0.080774 -0.016950 0.055074 -0.042546 0.036814 -0.048303 -0.055991 -0.005306 -0.002820 -0.073280 -0.018111 -0.003517 -0.027835 0.047506 -0.043597 0.022331 -0.044607 0.023955 0.069975 0.042469 -0.076521 -0.057930 0.013686 -0.020082 0.017594 -0.007455 0.075849 0.004415 -0.044035 0.064035 -0.006601 -0.044741 0.031957 -0.017564 0.005704 0.040193 0.036474 0.050958 -0.018051 0.000506 0.006291 -0.037308 0.067569 -0.004492 0.037952 0.001905 -0.059130 -0.058954 -0.053961 0.033752 0.021773 -0.040131 -0.001519 -0.021342 0.016515 0.020986 0.033631 0.034915 -0.046676 -0.014844 0.011010 -0.038808 0.033174 -0.034370 -0.009687 0.022192 -0.026973 -0.065161 -0.016891 0.046588 -0.007605 -0.018515 -0.062369 0.024560 0.057534 0.024547 -0.053082 0.051421 -0.038038 -0.050744 0.054164 0.035799 -0.001266 0.010739 -0.033539 0.005507 -0.050914 0.018110 0.012453 0.063218 0.002483 -0.039987 0.014096 -0.024817 -0.056009 -0.007806 -0.016450 0.002759 0.019249 -0.039271 -0.028791 0.003340 -0.044598 0.014434 0.026280 -0.011785 -0.029009 0.014247 -0.040171 -0.002286 0.003069 0.003380 0.047519 -0.054442 0.052588 0.038451 0.008324 -0.008911 0.043848 0.081732 0.000501 -0.031402 -0.043265 0.003936 0.016865 0.055690 0.034250 0.025296 -0.029267 0.061552 -0.020970 0.016363 -0.052997 0.029717 0.007684 0.005440 0.020815 0.012473 -0.045177 -0.054233 0.057849 0.039805 -0.014426 0.007907 -0.058612 -0.012768 0.034408 0.048031 0.004877 0.012122 -0.088190 0.009315 0.031348 0.024846 0.015885 -0.100510 0.067790 -0.075415 0.060855 0.055004 0.006428 0.038570 -0.022614 0.007288 -0.043479 -0.027406 -0.005347 -0.052609 -0.010233 0.017265 -0.005516 -0.037945 -0.012978 -0.035299 0.027825 -0.037875 -0.040144 0.013189 0.010181 0.000370 0.008408 -0.003405 0.036609 -0.026011 0.011126 0.040037 0.001837 -0.065914 -0.017223 0.089823 -0.005545 -0.009547 0.016780 0.083104 0.004120 0.042385 0.042178 -0.007005 -0.072994 0.006109 -0.004712 0.054526 -0.040916 0.028880 0.005387 0.080205 -0.001664 0.039760 0.056365 -0.095130 -0.035578 -0.001414 0.027702 -0.019942 0.044032 -0.009274 -0.011856 -0.033418 0.012733 -0.032922 0.011608 -0.066312 -0.020137 -0.023085 -0.032738 -0.038236 -0.022747 -0.087974 -0.038045 0.059608 -0.019302 0.006430 0.046833 -0.013896 0.054022 -0.054205 0.050803 -0.005530 -0.009838 0.006722 0.030923 -0.011330 -0.004356 -0.056992 0.040503 0.034520 0.009698 -0.029845 -0.004445 -0.025203 0.007563 0.087388 -0.014066 -0.020692 -0.014760 0.007660 -0.009831 -0.015318 -0.005764 -0.002460 -0.016530 0.026390 0.027620 -0.016064 -0.016700 0.018229 0.035068 0.019593 -0.054660 -0.033117 -0.076845 0.033212 0.069638 0.010132 -0.014483 -0.021398 -0.063898 0.030873 -0.013075 0.033196 0.005638 -0.029876 0.007499 -0.046701 -0.001944 0.032132 0.002913 0.004828 -0.018035 -0.007662 0.014781 0.019662 0.018637 0.015315 -0.011820 0.001780 -0.094007 -0.054453 0.032666 -0.061415 0.006729 -0.004030 0.008625 0.020207 -0.029091 0.027388 -0.049298 0.007329 0.010225 0.020589 -0.029069 -0.019741 0.001659 0.017811 -0.045536 0.099645 0.009518 0.029753 0.006273 0.043403 -0.011489 -0.013839 -0.012425 0.040806 0.018690 0.092140 -0.027961 -0.024266 -0.037576 0.013469 0.012755 -0.038159 -0.036557 0.005641 -0.018810 0.033254 -0.034882 -0.062057 -0.015212 0.016888 0.000273 0.001750 -0.001040 0.013573 0.038583
hero -0.072887 0.044423 0.015102 -0.017922 -0.040686 0.015960 -0.018936 -0.059124 -0.048614 0.006473 -0.003075 0.037084 -0.046209 -0.013977 -0.096878 0.041091 0.054823 0.070678 -0.015140 0.015487 0.013384 0.096914 0.039937 0.003392 0.008636 0.020500 0.012863 -0.060003 -0.050455 0.010118 0.049973 -0.021635 0.044197 -0.059334 -0.019311 0.067614 0.023891 -0.042116 -0.011058 -0.048400 -0.005264 -0.010488 0.034611 -0.091123 -0.035514 -0.043776 0.126992 -0.029052 0.000275 0.012073 0.016846 -0.007762 0.021787 -0.050386 0.065212 -0.103557 -0.036586 0.040434 -0.020157 0.032602 -0.024393 0.090957 0.019181 -0.010641 -0.072665 -0.027781 0.042961 -0.078067 0.031164 -0.017822 -0.059525 -0.052106 0.107589 0.002409 -0.120006 -0.030188 -0.021004 0.076163 0.118759 0.008794 -0.051139 -0.048787 0.031913 -0.020693 0.008410 -0.033433 0.011525 -0.023507 -0.029737 -0.024285 -0.029495 0.035732 -0.042501 0.034878 -0.057777 0.012010 0.060592 -0.052689 -0.039045 -0.011700 -0.060011 -0.010782 -0.031865 0.029345 0.117490 0.028937 0.047688 -0.030947 0.025743 0.022849 0.021193 -0.075282 -0.023102 -0.039335 0.027725 -0.047520 0.009237 0.016403 0.088269 0.005730 -0.031518 -0.016159 0.022664 -0.027058 0.030199 -0.047821 -0.014220 0.025551 -0.000489 -0.026579 -0.002359 0.047744 0.136045 0.053380 -0.034107 0.070912 0.016276 0.071077 0.065300 -0.007603 -0.026776 0.088386 0.011129 0.018074 -0.013376 0.008340 0.018270 0.005157 0.021495 0.016676 -0.003526 0.030562 -0.003726 -0.099107 0.059663 -0.009960 0.004504 0.017321 -0.018500 -0.036946 0.029107 -0.058363 0.070678 0.010901 0.024576 0.022437 -0.055666 0.059826 0.002342 -0.008383 -0.040328 -0.034886 -0.008448 -0.060413 0.024263 -0.108088 0.011523 0.001525 0.020029 0.029997 -0.036209 -0.031749 0.003807 0.027983 0.028765 0.017553 -0.009996 -0.011911 -0.052233 0.048646 -0.015205 0.016215 -0.066045 0.130821 -0.047533 0.043851 0.072078 0.007986 0.035225 -0.043709 -0.004732 -0.024842 0.015533 -0.002017 0.032143 0.006313 0.000150 0.048190 -0.017808 -0.043921 0.003357 -0.028361 0.053962 -0.050351 -0.026020 0.033481 -0.020726 -0.047907 0.062932 -0.013328 0.067774 -0.035334 -0.084975 -0.027696 0.005194 0.015857 0.108701 -0.034082 -0.031593 0.012201 0.004353 0.020752 -0.000145 0.040952 0.015185 0.040864 0.014308 0.014263 -0.063037 -0.001021 -0.001808 0.047514 -0.099087 -0.005443 -0.059662 0.006570 0.003298 0.046629 0.024061 -0.035278 -0.004369 -0.015039 0.075133 -0.053580 0.001294 -0.003818 -0.010191 0.045243 -0.022220 -0.050620 0.035243 0.011624 0.048212 0.013109 0.038888 0.014747 -0.045748 0.075888 0.056586 0.018332 0.050347 -0.035610 -0.132622 -0.099513 -0.001694 -0.051229 -0.044134 0.001577 0.035314 0.013639 -0.046705 -0.010981 -0.104829 0.064357 0.050550 -0.040014 0.075646 -0.038164 0.021096 0.001652 0.039801 0.002084 -0.013361 -0.027764 -0.043638 -0.020460 0.056327 -0.031096 0.027173 -0.133316 -0.039379 0.050329 0.044711 0.037570 0.034756 0.001051 -0.023015 0.019534 -0.021289 0.034162 0.129310 -0.052645 -0.014529 0.077652 0.037847 -0.062028 -0.038493 -0.067219 0.010295 -0.054923 0.006997 0.009899 -0.033556 -0.013627 -0.072978 0.036009 0.015445 -0.011141 -0.080859 0.054068 0.010936 -0.056906 0.072527 -0.040773 0.031057 -0.039304 -0.002653 -0.064412 0.034891 -0.034073 -0.008347 0.055434 0.014721 0.018634 0.016699 0.036786 0.013074 0.079521 0.031422 -0.042865 0.008523 -0.026656 0.057969 0.034947 -0.031555 0.000584 0.016183 0.012643 -0.004966 -0.017358 0.015874 -0.003002 0.071626 -0.034816 -0.049788 -0.050833 -0.044964 0.025361 -0.018570 0.054530 -0.055065 -0.048830 -0.000044 -0.067587 0.044509 0.030274 0.014451 -0.015468 0.003457 -0.033344 0.025295 -0.020805 -0.042427 0.040759
ína 0.087059 -0.180812 -0.006688 0.048919 -0.031873 0.047690 -0.018463 -0.010268 0.037427 0.042349 0.080139 -0.016214 0.051429 0.017524 -0.025642 -0.020616 0.067760 0.057769 0.096616 -0.061468 0.061146 0.009582 0.022529 0.096513 -0.020136 0.076174 -0.021583 -0.058890 -0.081879 0.041968 -0.049238 -0.046250 0.098725 -0.083065 -0.013893 -0.083236 0.078526 -0.059262 -0.028780 -0.011205 0.056557 -0.070642 0.031104 -0.028966 0.071594 -0.167240 0.071812 0.050753 -0.044033 -0.029305 -0.013941 -0.056675 0.027752 0.108676 -0.073093 0.005403 0.009969 0.051321 -0.092125 0.043390 -0.048234 0.050644 -0.033184 0.012099 -0.019049 0.092140 -0.073687 -0.055749 -0.030331 -0.074049 -0.066144 -0.019655 0.008143 0.059315 -0.002149 -0.142438 0.080711 0.033057 0.054289 -0.072467 -0.036456 -0.075638 -0.059367 -0.064159 -0.028542 0.041301 0.040058 0.070146 0.013642 0.014790 -0.050977 -0.032001 -0.035114 0.056994 -0.203060 -0.053477 -0.047550 -0.117035 0.034730 0.066125 -0.022843 -0.063730 0.152751 0.096956 0.041392 0.048491 0.014298 0.048579 -0.017001 -0.030799 0.051232 -0.058523 0.125785 -0.046749 0.015097 0.071116 0.030864 0.009122 0.019351 -0.042403 -0.037126 0.053809 -0.031350 0.157455 0.061397 0.007821 -0.030728 0.077595 0.010425 0.017620 0.070909 0.090435 0.045904 0.046419 -0.187632 -0.010654 0.043171 -0.028367 0.069432 0.035193 0.025536 0.066139 -0.011036 -0.047662 -0.012841 -0.031298 -0.037634 0.023030 -0.082054 0.057203 0.061281 -0.077726 0.071171 -0.025722 0.033097 -0.170931 -0.037261 -0.006685 0.049155 -0.029553 -0.045176 -0.055294 0.001124 -0.050375 -0.174122 0.088014 -0.083212 0.079843 0.045798 0.105803 -0.073949 -0.024421 -0.361506 -0.013974 0.021820 -0.020884 -0.024183 -0.003665 0.045230 -0.052294 -0.051507 0.075102 0.017307 0.048243 0.034179 -0.039548 0.092766 0.051655 0.026502 0.190397 0.034917 0.023251 -0.045760 -0.000824 0.052502 0.057936 0.035176 0.053937 -0.061785 -0.013125 -0.070739 0.064148 -0.040520 -0.051078 0.040838 0.032952 -0.055855 -0.031104 -0.020045 -0.088586 -0.023174 -0.076850 0.026945 -0.067037 0.031517 -0.043924 0.062225 -0.087368 0.018456 0.034689 0.085840 0.090610 -0.065698 0.049272 -0.048969 0.040522 -0.052596 0.071666 -0.049458 -0.066772 -0.020332 0.136814 0.171263 -0.002649 -0.032114 -0.090179 -0.003224 0.055771 0.073883 -0.048768 0.060809 0.117450 0.051881 -0.084476 0.051699 -0.060478 -0.048634 0.020786 -0.054642 0.027959 -0.135465 -0.068678 -0.042440 0.026750 0.061810 0.020739 -0.050121 0.054590 0.014972 0.039867 0.029515 0.051475 -0.028546 0.071510 0.012130 -0.063168 0.039544 0.002417 0.068154 0.028275 -0.081469 -0.050103 -0.038581 -0.044581 0.051362 0.043751 0.025955 0.025230 0.075696 -0.047532 0.011294 -0.069474 -0.029139 0.049727 -0.035742 0.042568 0.011527 -0.026098 0.065041 -0.043747 -0.037679 -0.010249 0.118557 -0.055153 0.004551 0.071447 0.036068 -0.017817 -0.067401 -0.079995 0.024724 0.061218 0.085782 -0.011159 -0.058890 0.021267 -0.072268 0.069957 0.017417 0.066791 0.048601 -0.015979 -0.028765 -0.034356 0.032505 -0.011873 0.033758 -0.038779 0.057129 -0.018695 0.039825 0.142121 -0.022607 0.028875 -0.056653 -0.024463 0.041448 -0.073021 -0.044396 -0.057910 -0.075182 0.018099 -0.048508 0.054590 0.064906 0.057383 -0.050419 0.002123 0.079059 -0.002834 0.012550 0.050690 -0.096122 0.014600 -0.109873 -0.125234 -0.050058 0.040104 -0.035877 0.087962 0.058157 -0.074023 0.025060 0.037482 -0.030247 -0.030430 -0.002370 -0.042761 -0.016634 -0.077199 -0.088320 -0.036091 0.062945 -0.100852 -0.033784 0.047253 0.013216 0.048488 -0.043544 -0.035533 -0.045357 0.119229 -0.060068 0.061966 0.011123 0.043219 0.014172 0.090096 -0.066692 -0.029990 -0.028692 -0.026063 0.056789 -0.039351
do -0.042733 0.048179 -0.028108 -0.007130 -0.023314 0.006882 -0.008267 -0.003272 0.002019 0.059551 -0.029402 0.055986 0.002418 -0.035159 -0.040628 0.015231 0.076697 0.038138 -0.065866 0.041274 -0.043604 -0.073473 -0.009699 -0.038143 0.045308 -0.010771 -0.074639 0.010322 0.003751 -0.000317 -0.001396 0.022040 -0.063179 -0.006447 -0.029497 0.021838 -0.076919 0.037148 0.012981 -0.005623 0.035726 0.037642 -0.001961 0.026218 -0.011696 0.004150 -0.005460 0.003054 -0.015903 -0.024426 0.004296 0.064859 0.046283 -0.069956 0.014377 -0.020679 0.067029 0.003712 0.015943 -0.042064 -0.029634 -0.037415 0.028106 0.027989 -0.001038 0.017756 0.034149 -0.014898 0.018758 0.065439 0.090873 -0.014406 0.006039 -0.012492 0.050676 0.023697 -0.028674 0.016115 -0.009865 0.006887 -0.028949 -0.014430 0.012891 0.012476 0.045844 -0.042433 -0.006111 -0.054315 0.018352 0.044502 -0.007190 0.009685 -0.041572 -0.036093 0.014977 -0.015294 0.045469 -0.066116 0.019222 0.061135 -0.012003 0.027431 -0.028455 -0.005185 0.076194 -0.007347 -0.041081 0.039083 -0.039862 -0.063831 0.061695 -0.058064 -0.027569 -0.018875 -0.028632 0.036487 -0.078718 -0.002787 0.015717 0.004427 0.075908 -0.000352 -0.005575 -0.006175 -0.019143 0.030296 0.015957 -0.062950 0.049693 -0.009763 0.020619 0.040825 0.034864 0.071620 0.051738 0.025353 0.038940 0.023000 -0.041113 -0.013941 -0.047580 -0.017144 -0.002246 0.042016 -0.030442 -0.028859 -0.001197 0.018329 0.020342 -0.010310 -0.003182 0.033894 0.050080 -0.019344 0.006943 0.014388 -0.014113 -0.038954 0.043328 -0.007329 -0.006482 0.044514 0.008519 -0.103498 0.048933 -0.028972 0.018277 0.002175 0.002501 -0.042717 -0.072302 0.032634 -0.000672 -0.030004 -0.022465 -0.018034 0.059225 -0.011690 0.017791 -0.018263 0.026852 -0.001338 0.080619 0.040958 0.001141 0.012709 0.023015 0.003943 0.036547 -0.046910 0.026159 0.091775 0.021709 -0.001424 -0.018919 -0.002430 -0.024477 0.033291 0.014190 -0.053408 -0.047667 0.063016 0.041105 0.034240 -0.027784 -0.013657 -0.025884 -0.043013 0.004990 0.043063 -0.020159 0.064434 -0.027592 -0.000657 -0.018302 0.011731 -0.054439 -0.003751 0.002787 -0.060600 0.000371 0.032376 -0.050500 0.038098 0.057582 -0.024751 -0.076687 0.023157 0.031831 0.067448 0.067450 0.015185 -0.002393 -0.044427 0.018239 -0.010379 0.000596 -0.027246 -0.049481 0.031680 0.017314 -0.044682 0.059013 -0.016379 0.018970 -0.028222 0.034549 0.080662 0.021144 -0.042257 0.052285 -0.035809 -0.104776 0.063906 -0.020968 -0.042014 0.004911 -0.068422 0.001265 0.002460 -0.003860 -0.079637 -0.020829 -0.026749 -0.023868 0.002159 0.007752 0.014450 0.017063 0.032741 -0.062649 0.017476 -0.002683 0.019658 -0.051447 -0.033013 -0.014517 -0.064542 -0.002898 -0.013598 0.012504 0.004258 -0.069592 -0.039105 -0.043077 0.003395 0.029183 0.045949 0.008623 -0.022554 -0.048787 0.030882 -0.004858 -0.027532 -0.001691 0.017820 0.014864 -0.076584 -0.027838 -0.068695 0.083362 -0.068171 -0.013075 -0.002578 -0.061019 0.007276 0.064266 0.060041 0.012169 -0.049376 0.015664 0.048208 0.062091 0.030337 -0.010694 0.028266 -0.020531 0.020866 -0.000671 -0.002299 0.012813 -0.016397 -0.070772 -0.058669 -0.029683 0.036439 -0.025896 -0.018140 -0.014234 0.021113 0.031872 0.014918 -0.056692 -0.028137 0.053696 -0.028848 -0.029277 0.049900 -0.017323 -0.003526 -0.028053 -0.041913 0.063284 0.048483 0.040084 0.017597 0.034595 -0.036010 0.042278 -0.043819 -0.030407 0.008165 0.013663 -0.005169 -0.002512 0.014682 0.007149 -0.016456 0.018962 0.028053 -0.040903 0.024633 0.007569 -0.037351 -0.021970 0.008290 -0.006230 -0.048462 0.021701 -0.022491 -0.053488 -0.014695 -0.021123 -0.014513 0.051471 -0.021986 -0.009375 0.008259 -0.062903 -0.026038 -0.007380 0.026155 -0.008268 0.058787
romance 0.053832 -0.205018 -0.036095 0.042485 -0.008555 0.010693 -0.039697 -0.030927 0.028180 0.038941 0.030106 0.004803 0.030382 0.043871 -0.020380 -0.006279 0.051417 0.064762 0.122401 -0.081038 0.041883 -0.006470 0.004677 0.118683 -0.087197 0.095911 -0.035599 -0.036435 -0.074708 0.028458 -0.033313 -0.046015 0.103509 -0.072614 -0.025309 -0.067491 0.085539 -0.050729 -0.050549 -0.020229 0.056933 -0.023627 -0.002894 -0.069521 0.061606 -0.174299 0.076750 0.028809 -0.052493 -0.041046 0.020334 -0.079265 0.047972 0.101105 -0.052011 0.000564 0.018057 0.025798 -0.097123 0.034689 -0.019728 0.036376 -0.035576 0.023538 -0.017589 0.057137 -0.076107 -0.054247 -0.007575 -0.054448 -0.070399 -0.037407 -0.033882 0.058283 -0.035153 -0.142368 0.030681 0.040740 0.033760 -0.068041 -0.090974 -0.035579 -0.042738 -0.036056 -0.015845 0.030351 0.046536 0.074181 0.057806 0.042740 -0.036512 -0.024015 -0.056968 0.006058 -0.183925 -0.054221 -0.067046 -0.134368 0.027828 0.029252 -0.056328 -0.047364 0.152457 0.059014 0.043581 0.026425 -0.002335 0.038513 -0.012769 -0.024401 0.033479 -0.036851 0.104265 -0.019905 0.049614 0.071119 0.051081 0.015700 0.050415 -0.022684 -0.041785 0.050111 -0.013937 0.156918 0.033585 0.005780 -0.030303 0.040320 0.043378 0.030834 0.038674 0.055661 0.030909 0.026310 -0.201843 -0.027423 0.042894 -0.085717 0.050245 0.044296 0.035645 0.002892 0.016401 -0.002060 -0.035923 -0.010569 -0.066213 0.003243 -0.029716 0.060083 0.052694 -0.081796 0.067752 0.004001 0.035416 -0.167642 -0.027749 -0.005547 0.030616 -0.026900 0.006121 -0.071945 -0.042249 -0.026855 -0.157697 0.056807 -0.038256 0.109089 0.022081 0.086814 -0.089346 -0.009975 -0.386033 -0.016554 0.073916 -0.038214 -0.028439 -0.040418 0.047230 -0.030302 -0.025485 0.028505 0.032871 0.027984 0.055046 -0.044255 0.074623 0.057977 0.035129 0.191945 0.022907 0.060527 -0.042865 0.000573 0.006686 0.035491 0.020793 0.025178 -0.052402 -0.079097 -0.010859 0.028435 -0.071169 -0.023048 0.058691 0.071700 -0.085005 -0.042557 -0.019054 -0.096772 -0.068876 -0.069019 0.073458 -0.050951 0.052755 -0.017034 0.038258 -0.085717 0.018643 0.059366 0.082952 0.044201 -0.049035 0.033852 -0.017275 0.031220 -0.059533 0.035250 -0.033971 -0.050004 -0.044584 0.116528 0.144984 -0.037669 -0.053225 -0.081216 0.012499 0.054701 0.062652 -0.048911 0.037015 0.111862 0.010322 -0.057122 0.038384 -0.083363 -0.023187 0.030821 -0.100639 0.048035 -0.117262 -0.063774 -0.017366 0.031134 0.032161 0.035623 -0.045354 0.048462 0.021526 0.053520 0.050769 -0.015023 -0.007415 0.091466 0.064136 -0.075429 0.038877 0.026167 0.084971 0.022544 -0.037400 -0.034465 -0.055605 -0.065228 0.078648 0.054501 0.059944 0.059667 0.043641 -0.036726 0.049448 -0.053569 -0.036946 0.072332 -0.040701 0.046970 0.050461 -0.039435 0.058050 -0.070234 -0.043524 -0.066844 0.109299 -0.088517 -0.022515 0.013092 0.039517 -0.029858 -0.086498 -0.063722 0.017411 0.036629 0.069837 -0.029477 -0.045113 0.085514 -0.041690 0.060991 0.060533 0.035574 0.065815 -0.055240 -0.024415 -0.059908 0.026508 -0.035321 0.062641 -0.000490 0.045335 -0.003696 0.037213 0.110316 -0.003505 0.047282 -0.004797 -0.036770 0.021037 -0.081528 -0.022296 -0.023306 -0.078528 0.037528 -0.035385 0.037025 0.064894 0.092575 -0.014650 0.015319 0.061872 -0.041923 0.022379 0.071552 -0.058902 0.001139 -0.103213 -0.118521 -0.074168 0.042535 -0.048244 0.097027 0.013186 -0.052728 0.052922 0.028890 0.011740 -0.036569 -0.031575 -0.031856 -0.022417 -0.093026 -0.044797 -0.058473 0.067319 -0.044285 -0.042833 0.046097 0.025702 0.022866 -0.023431 -0.007884 -0.033259 0.108172 -0.055959 0.031846 0.029334 0.034992 0.050927 0.056349 -0.049096 -0.027932 0.002057 -0.051357 0.031513 -0.011012
. 0.071746 -0.192482 -0.061773 0.017421 -0.021209 0.022094 -0.027701 -0.026911 -0.016732 0.022148 0.037608 0.021732 0.054013 0.015737 -0.030543 -0.043969 0.055243 0.065390 0.164178 -0.112197 0.068383 0.041302 0.034428 0.129449 -0.070589 0.095827 -0.050097 -0.070042 -0.048057 0.042517 -0.044455 -0.043452 0.093244 -0.048012 -0.044050 -0.084649 0.114618 -0.046655 -0.053856 -0.008768 0.077231 -0.016571 0.028140 -0.034540 0.062219 -0.205445 0.044341 0.037134 -0.072069 -0.015466 -0.001748 -0.063372 0.035256 0.061918 -0.046055 -0.039569 0.045081 0.020812 -0.090447 0.037500 -0.019992 0.061399 -0.060708 0.064653 -0.041528 0.017363 -0.053985 -0.064659 -0.063464 -0.053011 -0.042318 -0.046109 -0.031548 0.039713 -0.041755 -0.117908 0.080253 0.034952 0.036981 -0.072241 -0.077604 -0.039076 -0.053648 -0.037763 -0.043845 0.005176 0.034598 0.094587 0.007827 0.030549 -0.035354 -0.039623 -0.043186 0.038258 -0.182813 -0.020072 -0.034580 -0.115919 0.058019 0.032534 -0.046137 -0.046092 0.140303 0.065245 0.001435 0.044398 0.035438 0.050192 -0.027629 -0.033482 0.051671 -0.062863 0.085033 -0.029831 0.018532 0.096113 0.023679 0.034298 0.025759 -0.017427 -0.080133 0.084603 0.003859 0.180138 0.002035 0.012297 -0.022105 0.042912 0.066719 0.022928 0.029378 0.043403 0.043822 0.015028 -0.203818 -0.044960 0.060618 -0.068317 0.060404 0.039530 0.039324 0.021062 0.076836 -0.025806 -0.013007 -0.022152 -0.062157 0.036780 -0.037543 0.046017 0.041286 -0.091130 0.057583 0.001009 0.030737 -0.171437 -0.014395 -0.008752 0.051825 -0.029556 -0.002893 -0.057997 -0.056309 -0.038442 -0.184603 0.020814 -0.037521 0.079859 0.029062 0.078995 -0.105279 -0.048338 -0.342601 -0.016843 0.027851 -0.018894 -0.056095 -0.020883 0.029095 0.002344 -0.007593 0.072359 0.018661 0.018821 0.006584 -0.044876 0.094277 0.046918 -0.021308 0.170009 0.037051 0.032975 -0.024895 0.032888 0.022416 0.068139 0.038730 -0.007881 -0.031463 -0.039302 -0.022899 0.014522 -0.042110 -0.047445 0.051444 0.036906 -0.053925 -0.032587 -0.020363 -0.056153 -0.060549 -0.062454 0.007682 -0.073788 0.027691 -0.069020 0.033317 -0.123456 0.074393 0.044627 0.089987 0.058258 -0.033877 0.031581 -0.096225 0.017606 -0.076874 0.035389 -0.052816 -0.049650 -0.027130 0.102398 0.172780 -0.043937 -0.054915 -0.089515 -0.003466 0.064522 0.081804 -0.020422 0.038786 0.125945 0.077624 -0.076457 0.025701 -0.057343 -0.039756 -0.024362 -0.077171 0.028124 -0.113869 -0.043551 -0.048982 0.034016 0.064156 0.062563 -0.064694 0.029655 0.036333 0.060657 0.027950 0.034630 -0.044191 0.041645 0.061788 -0.012079 0.017429 0.028280 0.067577 0.036346 -0.048134 -0.042456 -0.051863 -0.018502 0.035506 0.048843 0.032276 0.038251 0.040298 -0.068811 0.057427 -0.070136 -0.048903 0.040473 -0.017699 0.040482 0.053590 -0.038406 0.027844 -0.031431 -0.084573 -0.061653 0.098520 -0.052327 -0.056200 0.020274 0.032708 -0.063157 -0.099468 -0.073259 0.031549 0.038299 0.078447 -0.027139 -0.040210 0.032377 -0.061756 0.025841 0.030629 0.086185 0.088050 -0.046940 -0.034550 -0.046659 0.061694 -0.048871 0.026145 -0.028301 0.024728 -0.026203 0.024208 0.147378 -0.040120 0.021061 -0.031392 -0.013472 0.022745 -0.090450 -0.023734 -0.037930 -0.040241 0.022344 -0.050537 0.021011 0.084033 0.048201 -0.043442 0.009658 0.095139 -0.012490 0.042258 0.028117 -0.118519 0.021193 -0.107010 -0.152712 -0.062070 -0.003934 -0.043910 0.097201 0.046312 -0.025781 0.054667 0.011412 -0.020104 -0.015976 -0.077442 -0.022900 0.004771 -0.081745 -0.043549 -0.077882 0.055644 -0.090221 -0.040927 0.033527 0.053883 0.035796 -0.047420 -0.018446 -0.036835 0.093710 -0.091212 0.039122 -0.002157 0.014459 0.048179 0.059408 -0.024265 -0.014042 -0.024503 -0.011538 0.078174 -0.034859
