115 384
\n -0.007796 -0.062781 -0.026394 0.045637 0.048019 -0.020305 -0.058842 0.062511 0.013377 -0.008624 0.109073 -0.050273 -0.042376 -0.012488 -0.032411 -0.030265 0.036027 -0.015632 -0.012717 -0.015187 0.001703 0.029006 -0.008371 0.003798 -0.022560 0.034231 0.029058 -0.016283 0.054368 -0.016153 -0.038736 0.014454 0.036812 -0.006724 0.041605 -0.042843 0.002245 -0.040937 -0.026687 0.026023 0.002710 -0.036758 -0.081689 0.048294 -0.062987 0.015945 -0.027906 -0.060318 -0.053007 -0.004819 0.048278 -0.008107 -0.004615 -0.000061 0.052449 -0.034702 -0.035804 0.019320 -0.032926 -0.020926 0.005598 -0.013085 -0.000250 -0.025689 -0.014566 -0.062120 0.029103 -0.006888 -0.018419 -0.028814 0.002391 0.015217 -0.009854 0.020524 0.016938 -0.070628 -0.010431 -0.026560 0.053651 -0.063658 0.052062 -0.001447 -0.025419 0.048173 0.018205 -0.007546 -0.022041 -0.016202 -0.097847 -0.019869 -0.059350 0.001090 -0.020402 0.045388 -0.024742 0.022621 0.050150 -0.014574 -0.007824 -0.007539 -0.016695 -0.016006 -0.006395 -0.028322 -0.078294 -0.038893 -0.000619 0.020731 -0.073086 0.033897 0.036984 0.021222 0.051075 -0.024064 0.027096 0.059857 -0.055320 0.026598 -0.042577 0.049308 0.007266 -0.019222 -0.044019 -0.038373 0.015400 0.027473 0.060921 -0.055780 -0.025105 0.018616 -0.102632 0.022237 -0.015319 0.057426 0.038692 0.012063 0.055776 -0.016118 0.045924 -0.000332 -0.033729 0.015063 0.000751 0.000623 0.007904 0.036320 0.025631 0.028310 0.043393 0.047836 0.042643 -0.011595 -0.043018 -0.066829 -0.008529 0.048697 0.001024 -0.019704 0.010658 -0.049639 -0.025959 0.037150 0.072854 0.084986 -0.036636 0.024153 -0.027350 -0.030502 0.050452 0.019943 0.063731 0.075187 -0.064865 -0.013596 -0.014786 0.009479 -0.012058 -0.049036 0.009673 0.039956 -0.085766 -0.010636 0.034908 0.015259 0.018757 -0.050241 -0.049084 0.039951 -0.007049 0.050264 0.026973 -0.024280 -0.035919 0.030411 0.055926 0.002996 0.070055 -0.043713 -0.020923 0.008022 0.031749 -0.014986 0.011300 -0.015476 -0.038532 0.047471 -0.034313 0.023725 0.015486 0.022530 -0.043602 -0.022536 0.037527 -0.071844 0.057976 -0.047531 0.000978 0.011580 -0.026889 0.074013 0.022750 0.008703 -0.012127 -0.043035 -0.003327 0.069202 0.028859 0.059657 0.033225 0.008046 -0.021705 0.061209 0.015189 0.040184 -0.043511 -0.028187 0.011095 -0.011788 0.037308 -0.010361 -0.042555 -0.059451 0.010114 0.052213 0.024358 0.064639 -0.094323 -0.017891 0.001104 0.010931 0.024341 0.044343 -0.017372 0.002292 0.004397 -0.062773 0.041404 0.070775 -0.000522 -0.011241 -0.022982 -0.053426 0.027041 0.088616 0.071354 0.056916 -0.006869 0.064150 -0.060140 -0.000671 0.044981 -0.037127 0.005123 -0.024555 -0.068125 0.000402 0.100872 0.032549 -0.009924 0.020248 0.086847 -0.010621 -0.017313 -0.070920 -0.025128 -0.004822 -0.015094 0.007125 -0.017817 -0.036049 0.058852 -0.023496 0.002999 0.036174 0.089432 -0.021156 -0.049897 -0.089669 -0.029252 -0.004817 0.021418 -0.065723 -0.027769 0.001844 -0.054287 0.023567 -0.035193 -0.019882 0.010605 0.025839 0.095322 0.073558 0.032416 0.013847 -0.035409 -0.014576 -0.007989 0.017046 -0.003081 0.063558 -0.007142 -0.002946 0.024305 -0.046941 0.042969 -0.039563 0.013024 0.029430 -0.019901 -0.006851 0.028289 0.048095 -0.012453 0.048852 0.051528 0.017930 0.033684 0.032345 0.034049 -0.022748 -0.027634 -0.080754 -0.006885 -0.014489 0.036391 0.039875 0.008531 -0.003561 -0.017459 0.002158 -0.064348 -0.002619 -0.003430 0.001503 -0.036347 0.015183 -0.035294 -0.054519 -0.002733 -0.039909 0.039092 0.001115 0.012227 -0.061827 -0.079944 -0.024203 -0.077168 -0.010783 -0.034725 0.016835 0.071086 0.053739 -0.029767 -0.031785 0.062693 0.062196 0.067625 0.018757 0.017833 -0.049480 0.033531 0.048057 0.064493 0.019979
\s -0.024934 -0.074334 -0.028182 0.071469 -0.019161 0.040612 -0.041495 0.012164 0.043821 0.006326 0.065877 -0.055182 0.000378 -0.023287 -0.017192 0.036209 0.042889 -0.013194 -0.020937 -0.015533 0.005691 -0.026316 0.005114 0.010015 0.007101 0.045425 0.031223 0.011581 0.015355 -0.039077 0.006692 0.056821 -0.029059 -0.085177 0.030257 0.020188 0.047954 0.011078 -0.011622 0.024087 -0.004672 -0.046221 -0.027585 0.010534 -0.047404 0.069802 -0.025771 -0.092910 0.020671 -0.053719 0.072625 0.032224 -0.011222 -0.000787 -0.004139 -0.003946 -0.022599 0.042959 -0.031909 -0.006099 -0.013119 -0.022595 -0.027149 -0.039931 -0.011075 0.016738 0.009520 -0.028187 -0.000789 -0.017740 0.007271 0.042549 -0.009206 -0.002281 0.004941 -0.088472 -0.002713 0.005745 0.058797 -0.040793 0.039688 0.003360 0.034046 -0.004129 -0.032727 -0.051826 -0.016465 -0.009151 -0.047446 0.023050 -0.013937 -0.013210 -0.045880 0.017487 0.015987 -0.024746 0.014389 -0.008309 -0.011268 -0.005199 0.010534 0.006412 -0.076976 0.019298 -0.010806 0.001177 0.011035 0.008731 -0.053697 0.029896 0.039076 -0.037600 0.026622 -0.014883 -0.016942 0.022164 -0.011866 0.040475 0.010551 0.035875 0.007470 0.020516 -0.002287 0.006698 -0.019131 0.052812 0.039139 -0.029486 -0.053479 -0.009233 -0.046858 -0.006803 0.078236 0.016337 0.039663 0.023530 0.002145 -0.018064 0.007875 0.011471 0.012968 0.057430 0.021173 0.010786 0.029670 0.109216 0.034682 0.037207 -0.001870 -0.037809 -0.032684 -0.006708 0.021460 -0.046756 0.015406 0.008680 -0.015453 -0.022297 0.054944 -0.000793 -0.039498 -0.000067 0.076490 0.031084 -0.000343 0.008055 -0.028809 -0.020034 0.017611 -0.010482 0.010405 0.022863 -0.085928 0.011380 0.018536 -0.046773 0.017270 -0.022167 -0.019291 -0.014687 -0.139369 -0.008238 0.037140 -0.031134 0.041893 -0.039336 -0.005221 0.050512 -0.004133 0.003200 0.042435 -0.047654 -0.009847 -0.024365 -0.020660 -0.035304 0.049594 -0.010263 -0.058234 0.007465 0.052119 -0.006564 0.017510 -0.023431 -0.069683 0.058093 -0.023015 0.037155 0.023764 -0.044766 -0.077579 -0.004722 -0.002366 -0.060042 -0.009245 -0.039792 -0.016816 0.012344 -0.010348 0.029683 -0.020830 -0.065458 0.023045 -0.005435 -0.004730 0.027041 -0.011253 -0.006761 0.091621 -0.022794 -0.052920 0.032433 0.032990 -0.040009 -0.047130 -0.020020 0.030909 0.031853 0.051550 -0.015906 0.010783 -0.092148 0.007899 0.060946 0.073175 0.004749 -0.067690 -0.013115 -0.067362 0.021832 0.055926 0.026130 0.011596 0.033869 0.009128 0.001461 0.065638 -0.023895 -0.018190 -0.011397 0.022354 -0.004510 -0.026602 0.018790 0.085648 0.015699 -0.019805 0.052320 -0.015816 -0.013706 0.076759 0.024245 -0.065994 -0.013695 -0.036430 -0.026156 0.032193 -0.008707 0.004407 0.019685 0.023056 -0.034174 -0.010865 0.009878 -0.011632 0.014500 -0.000749 0.005242 -0.045259 -0.010879 0.026225 -0.062148 -0.010297 0.053457 0.039696 -0.042621 0.017425 -0.022171 0.013594 -0.026417 -0.010598 -0.000966 -0.010447 0.033653 -0.071991 0.005060 -0.044783 -0.000946 0.078796 -0.001251 0.074900 0.030710 0.060937 -0.036640 -0.000764 0.008692 -0.009914 -0.013214 0.008854 0.050358 -0.028005 -0.039192 0.022356 -0.036159 0.068493 -0.048304 -0.008227 0.088118 -0.013575 0.004687 -0.001890 0.057734 -0.039922 0.005423 -0.012617 -0.019144 0.019437 0.014845 0.018829 -0.027141 0.006485 -0.006132 -0.009883 -0.006751 -0.026564 -0.022246 -0.010584 0.011005 -0.002465 0.044498 -0.031337 0.019783 0.002400 0.034564 -0.046590 -0.085669 0.018799 -0.002969 -0.022972 -0.044853 0.062839 0.029047 -0.020381 0.002728 -0.084991 -0.018849 -0.044660 0.004820 0.018113 -0.007070 -0.035058 0.011051 0.009967 0.044318 -0.006996 0.041562 0.040218 0.017789 0.021736 -0.018200 0.020480 -0.011405 0.007786 -0.020391
! -0.000193 -0.031243 -0.043449 0.016003 -0.068451 0.039545 -0.053232 -0.126301 0.004283 -0.045345 -0.007027 -0.011502 0.044193 0.055819 0.024576 0.009996 0.042190 -0.027186 -0.026948 0.039347 -0.022446 0.084697 0.085676 0.020885 0.027497 0.033596 0.037519 -0.032218 -0.028633 0.012489 0.011466 0.014182 -0.004974 -0.013259 0.102326 -0.069229 0.080155 0.005683 0.048116 -0.039786 0.070933 -0.019016 -0.005572 0.015192 -0.036540 0.021451 -0.052158 -0.005972 -0.023623 -0.027925 0.014099 0.053802 0.041651 0.024233 0.028650 -0.006646 0.114159 0.011011 -0.008796 0.025222 -0.022365 0.053005 0.000795 -0.037213 -0.034969 0.009600 -0.017928 0.062989 0.037117 -0.011976 0.077074 -0.005770 0.007210 -0.019658 -0.002672 -0.012599 0.066434 0.066458 0.057847 -0.001150 0.028877 0.007240 -0.018650 -0.004437 0.036147 -0.067047 -0.001612 0.013412 -0.048417 -0.058213 0.007098 -0.021784 -0.058789 0.029639 0.027103 -0.062710 -0.066706 -0.017467 -0.041575 -0.031425 -0.086240 0.028952 0.001238 0.027957 0.077754 0.010446 -0.004423 -0.009888 -0.004997 -0.042099 -0.021358 0.110694 0.040958 -0.007912 0.016487 -0.039723 0.026326 -0.003581 0.071048 -0.090839 0.011746 -0.013893 -0.029804 0.025460 0.001691 -0.006613 0.066100 -0.019433 0.032929 0.062128 -0.044954 0.073032 -0.000597 -0.056234 0.005000 0.055132 0.039808 -0.038044 0.029330 -0.012744 -0.015939 0.034956 -0.074228 -0.062091 -0.005112 0.011246 0.117513 -0.017893 0.052389 0.008664 -0.053092 0.043574 -0.025037 0.043878 0.099210 -0.025517 -0.030174 0.046329 0.027008 0.010055 -0.040869 0.070060 -0.055881 0.012986 0.057907 -0.013047 -0.064098 -0.025213 0.006170 0.005474 0.019814 0.010487 0.029111 0.066638 -0.044682 -0.011412 -0.011031 0.011267 0.003159 0.000376 0.089110 0.033626 0.050807 0.005320 0.028174 0.047115 -0.046940 0.030327 0.033258 0.045221 -0.046627 -0.005534 0.044665 0.063164 0.020526 -0.035418 -0.050800 -0.002595 0.032174 0.024283 -0.046861 0.044630 0.065959 -0.099574 -0.027301 -0.007270 0.035318 0.017058 -0.058459 -0.005140 -0.017406 0.028876 -0.064231 0.020797 0.068902 -0.004525 -0.033541 -0.100298 -0.036224 -0.011938 0.004944 -0.009474 0.037295 -0.151832 0.002265 0.149878 0.050669 -0.072146 0.001969 -0.082413 -0.083737 -0.011588 0.032866 0.031908 0.003300 -0.018953 0.016044 -0.000165 0.017946 -0.033612 -0.017196 -0.005886 -0.072269 -0.017652 -0.002864 0.025131 -0.073168 -0.101937 -0.044287 -0.001259 -0.011377 -0.044742 -0.034900 0.078399 -0.020158 0.091460 -0.007488 0.056935 0.071074 0.003876 0.001766 -0.041174 0.013613 -0.031357 0.013766 0.035276 -0.088696 -0.058195 -0.067951 0.044386 0.002788 -0.038584 -0.002061 0.038401 0.014717 -0.068989 0.017234 0.000674 -0.092690 0.017339 0.001532 0.071150 0.028587 -0.032030 -0.027266 -0.061113 -0.103006 -0.003302 0.009344 -0.021744 0.016812 -0.001075 0.048125 0.040709 -0.016909 -0.078150 0.034564 -0.022678 0.023647 -0.040009 -0.002534 -0.078943 0.001081 0.003306 -0.041592 -0.030158 0.054342 -0.022199 0.013190 0.123280 0.057262 -0.071701 -0.032739 0.020686 0.009933 -0.101683 -0.087637 0.040695 0.010908 0.024663 -0.033733 0.015981 -0.052005 -0.053994 0.016404 -0.007983 0.003501 -0.028464 0.036242 0.009691 -0.017857 0.002610 0.067794 0.080199 -0.016622 -0.014858 0.008884 0.075917 0.063321 -0.008756 0.020779 0.102768 0.053103 -0.037245 -0.002857 -0.028899 0.003395 0.011590 -0.134501 -0.007041 -0.062826 0.045116 0.052131 -0.050848 0.020125 -0.010470 0.044013 -0.029827 -0.064595 -0.017210 -0.037558 0.003182 -0.012672 0.009499 -0.080222 0.012972 -0.001276 -0.011660 0.003459 0.019973 0.006595 0.000846 -0.067117 0.015207 0.107699 -0.041430 0.068316 -0.022501 0.017245 -0.005742 0.029725 0.053845 0.039858 -0.072846
" -0.010309 0.005863 0.051077 -0.008385 -0.070219 -0.004897 -0.067219 -0.016154 0.074775 0.060921 -0.103258 -0.024658 0.086425 0.020008 0.042881 0.055179 0.032076 -0.057832 -0.009982 0.017062 0.067210 0.049308 0.012910 0.017621 0.127592 -0.022794 0.048081 0.005989 0.019386 -0.073605 0.033605 -0.092658 0.072377 0.054184 0.074892 0.046583 0.011849 0.015400 -0.030977 0.026821 -0.009590 0.004673 0.041219 0.204729 -0.079803 -0.024519 -0.022829 -0.000942 -0.031116 0.026141 0.033429 -0.043718 0.076638 -0.020361 0.045814 0.041753 0.000557 -0.047304 -0.032169 -0.086423 0.040362 0.040310 0.021327 -0.043253 -0.000037 -0.050166 0.002399 -0.012600 0.025992 0.004581 -0.006383 -0.044444 0.010773 0.005669 0.006821 -0.003434 0.041462 -0.016895 -0.008978 -0.039000 0.017857 -0.000441 -0.043088 0.030046 0.104851 0.002283 0.004317 -0.007646 -0.008185 0.014407 0.016264 -0.062823 -0.116352 0.026977 -0.007185 -0.010953 -0.024788 -0.077502 -0.019645 0.015682 -0.059871 0.019177 -0.012825 0.008132 -0.001036 -0.105712 -0.038452 0.059782 0.041449 -0.033700 0.001538 0.027315 0.054847 0.060242 0.017448 -0.024625 0.023116 0.035336 -0.007156 -0.024250 0.157142 0.074848 -0.005514 0.029680 0.026009 0.003888 0.003026 -0.000232 -0.051023 0.072635 -0.005380 0.040937 0.010045 0.008531 -0.044076 -0.010496 0.061844 -0.021607 -0.038610 0.018544 -0.005752 0.000633 0.017502 0.088685 -0.083150 0.015086 0.101085 0.022804 0.025246 0.003785 -0.090017 -0.105156 -0.105064 0.019944 -0.007066 0.002863 -0.034578 -0.004900 -0.051580 -0.036772 -0.036305 0.011495 0.027347 0.010610 -0.044818 -0.022443 0.006204 0.004045 -0.014970 0.005322 -0.016538 -0.048471 -0.072966 0.037959 0.022644 -0.042510 0.012546 0.032970 0.093522 -0.044073 -0.079350 0.006731 -0.034448 -0.030040 -0.086117 0.058167 0.035106 -0.020021 0.044694 0.024605 -0.057063 -0.091221 0.031143 0.029681 0.059831 0.085324 -0.044740 -0.050302 0.005323 -0.070468 0.010357 -0.101572 -0.022634 -0.054627 -0.013733 0.003033 0.026754 0.080759 -0.024463 -0.015571 0.041434 -0.054940 -0.041092 -0.049745 0.001191 0.022886 0.025682 0.002198 0.008512 -0.015024 -0.030476 -0.006800 0.069543 -0.001176 -0.048768 0.054760 0.056830 -0.007196 -0.013680 -0.041320 -0.010651 0.022491 0.038584 0.053920 -0.099464 0.013346 0.027322 -0.018567 0.023912 -0.046989 -0.060910 -0.073587 0.040416 -0.023738 -0.075315 0.031336 -0.034636 -0.082318 -0.020696 0.011263 0.024357 -0.008100 -0.086935 0.079003 -0.027489 -0.003407 0.000768 0.009939 0.049715 0.062690 0.074324 -0.012230 -0.018195 -0.073546 0.043471 0.025076 0.065977 -0.027361 -0.038197 0.009437 -0.009593 -0.107118 -0.046162 0.036457 0.027823 -0.034476 0.021465 0.051058 -0.063887 0.004170 0.030271 0.016222 -0.027266 -0.027643 -0.029823 -0.025350 -0.003695 0.071095 0.025785 0.021129 0.075247 0.007323 0.029184 -0.009064 -0.091094 -0.121474 -0.021726 0.044715 0.027897 -0.026979 0.033186 -0.068937 -0.029940 -0.030739 -0.055944 0.023624 -0.005830 -0.052664 -0.011806 0.061306 0.051153 0.078449 -0.021947 -0.074016 0.058875 -0.065202 0.019986 0.051517 -0.035742 -0.045999 0.011248 -0.071239 -0.058371 0.047933 -0.038943 -0.011725 0.010754 -0.006283 0.092047 0.133328 0.029772 -0.021994 0.031591 0.066424 -0.017770 -0.027817 -0.039818 0.098692 0.061741 0.024845 0.056731 -0.041757 -0.029976 0.042597 -0.004036 0.062131 -0.030511 0.010832 -0.019935 -0.062531 -0.061669 -0.006492 0.007656 -0.010673 0.023402 0.017091 -0.101619 -0.048376 -0.059223 -0.039830 0.019946 -0.008701 -0.031726 -0.058798 -0.064828 -0.000400 -0.036486 -0.021443 0.010268 -0.005716 0.047008 -0.048810 0.037134 0.029076 0.025222 -0.002040 0.012985 0.018511 -0.100061 -0.019259 -0.108162 0.100157 0.029052 -0.080911
$ 0.009088 0.047668 0.026059 0.092373 0.020263 -0.067386 -0.005497 -0.096241 -0.068260 0.056370 -0.027206 0.050004 0.022137 0.031923 0.012528 -0.002889 0.040005 -0.008269 0.014449 -0.015045 0.045504 0.063992 0.042330 0.042254 0.044958 -0.033516 -0.045179 -0.036231 -0.078434 -0.005316 -0.003402 -0.051677 -0.010299 0.052967 0.073190 -0.049462 0.016444 0.032384 -0.045948 0.028349 0.017339 0.049121 -0.012702 0.153592 -0.067635 -0.056373 0.009814 0.011602 -0.060266 -0.053274 -0.009622 0.068190 0.089576 -0.075587 0.069420 0.054899 0.006710 -0.070579 0.035836 -0.063556 0.087344 0.026896 -0.010672 -0.045011 0.103989 -0.019059 0.011260 0.018414 0.067088 0.023688 0.005028 -0.026140 0.016516 0.067447 0.051443 0.027081 -0.031894 -0.015241 0.035115 -0.024277 -0.039150 -0.059318 -0.046564 -0.057982 0.050969 0.028677 0.050504 0.059991 -0.024692 -0.031940 0.049395 0.039467 -0.052823 0.066680 -0.031322 -0.030377 -0.038582 -0.075596 -0.016433 -0.037226 -0.067167 0.043649 0.012937 0.017941 0.049595 0.043931 0.097246 -0.037380 0.009355 -0.031820 -0.009079 0.057781 0.067013 0.018502 0.062612 0.023625 -0.012430 0.065618 0.080755 -0.056650 0.078797 -0.035086 -0.070461 0.065764 -0.095997 -0.100609 -0.047646 -0.006040 0.076107 -0.001047 0.028425 -0.009124 -0.002709 0.060229 -0.083203 0.035800 0.042649 -0.037722 0.049030 0.062345 -0.072788 0.001670 -0.050736 0.001540 -0.035618 -0.064124 0.018014 -0.020462 0.000934 -0.012155 -0.034159 -0.052731 -0.068181 0.076775 0.009154 -0.003777 -0.048461 0.044135 -0.051470 -0.033146 -0.027805 0.028312 -0.054960 0.083319 -0.029042 -0.056857 0.005674 -0.008596 -0.044926 0.024950 0.064973 -0.046214 0.013618 -0.015748 -0.057719 0.064085 0.104488 0.029586 0.020780 0.030950 0.034641 0.032264 -0.018232 0.048704 -0.011462 -0.016644 -0.078770 -0.029412 -0.023370 0.056245 -0.083659 0.020302 0.031275 0.040921 0.053568 0.038694 -0.042824 -0.050315 0.065669 -0.040258 0.043814 -0.090001 -0.032456 -0.036828 0.010798 -0.019325 0.038974 0.029221 -0.028342 -0.028370 -0.000110 -0.021425 0.002611 -0.064992 0.002429 0.050427 0.009359 -0.012291 -0.036578 -0.017930 0.028227 0.069369 -0.015762 -0.039705 0.013684 0.073005 0.000467 0.017336 -0.033050 -0.019894 0.061236 0.012466 0.036812 0.037231 -0.006478 -0.046897 -0.011876 -0.002411 -0.053102 -0.064353 -0.047672 0.059259 0.001424 -0.028517 -0.067232 0.046945 -0.075260 -0.036692 -0.003359 -0.040631 -0.010834 -0.037982 -0.056246 -0.021210 -0.049100 0.042197 -0.030517 0.021500 0.014230 -0.037753 -0.010394 -0.027994 -0.013727 -0.068759 -0.034120 -0.023745 -0.056568 -0.043483 -0.078021 0.058892 -0.026117 0.084234 0.062886 -0.007126 -0.056430 0.042043 0.085830 0.002280 0.002296 -0.025640 0.012045 -0.032383 -0.041659 -0.001759 0.028566 -0.022993 -0.013285 0.027856 0.079772 -0.034900 -0.031668 0.006298 0.082740 0.011033 -0.002199 0.052966 -0.057114 -0.014751 -0.020851 -0.023066 0.001398 0.021024 0.113140 -0.000450 -0.063749 -0.037399 0.014439 -0.048771 -0.041135 0.009021 -0.008603 0.036713 -0.051025 -0.065726 0.020991 -0.054752 0.050184 0.042603 -0.014470 -0.027663 0.023894 0.008801 0.007588 0.027398 -0.007296 -0.044553 -0.041716 -0.034444 0.055528 0.049559 0.033233 -0.096347 0.030956 0.084067 0.041383 0.012099 0.012775 0.050009 0.051231 0.021429 0.023262 0.018976 -0.034599 0.002185 0.010641 0.038815 0.055310 0.003754 -0.062651 -0.048094 -0.002353 0.047060 -0.001421 -0.026938 0.098933 0.019713 -0.017114 -0.086251 -0.040762 0.009643 -0.026137 -0.061087 0.026496 -0.035126 -0.031646 -0.026938 0.062459 -0.026598 -0.034806 0.036454 0.028622 -0.073094 -0.006717 0.000018 0.045293 0.001190 0.016368 -0.027110 -0.080351 0.017206 -0.024380 0.033381 0.015709 -0.042924
' 0.044348 0.077017 0.039324 0.050767 0.012571 -0.036560 -0.042876 -0.025642 -0.063812 0.027523 -0.021935 0.076493 0.037869 0.025679 -0.043121 0.007118 0.001497 0.034803 0.047673 -0.029364 0.002749 0.048627 -0.053604 -0.007609 0.032001 0.008293 -0.056907 -0.015140 -0.037197 0.025598 -0.004366 0.010727 0.004445 0.032294 -0.012718 -0.001596 0.006122 0.020387 -0.023173 0.025058 0.037391 0.039137 -0.013055 0.058237 -0.006934 -0.015363 0.018571 0.016474 0.002810 -0.039873 0.014481 0.088544 0.001132 -0.038254 0.102002 0.047207 -0.036564 -0.114433 0.008637 -0.047814 0.078627 0.070482 0.061753 -0.077694 0.087412 0.030708 -0.001652 0.047004 0.040591 0.028019 0.020718 -0.086546 0.048506 0.088452 0.037322 0.016652 -0.074891 0.029465 0.012467 -0.009101 0.024800 -0.066145 -0.025313 -0.060557 0.010317 0.115197 0.034931 0.055680 -0.072419 0.009510 0.042943 0.032561 0.004340 -0.023003 -0.028794 -0.040220 -0.019006 -0.053834 -0.010204 -0.083127 -0.050080 0.027091 -0.007334 0.000862 0.071509 0.062667 0.059675 -0.054305 -0.011155 -0.014929 -0.015109 -0.007253 0.031915 -0.032487 0.019330 0.065745 -0.010159 0.010898 -0.000043 -0.051926 0.048163 -0.045579 -0.061890 -0.043853 -0.035730 -0.057475 -0.072862 0.058383 0.123957 -0.015837 -0.007637 -0.029045 0.070944 0.070757 -0.048928 -0.025578 0.017552 -0.011084 0.064125 0.071056 -0.040979 -0.030223 -0.094630 -0.035587 0.041664 -0.043045 -0.048358 -0.027124 -0.067607 -0.045045 0.024615 -0.023114 -0.033534 0.025607 -0.008197 0.017126 -0.033623 0.063674 -0.029709 0.038030 -0.036737 0.002629 -0.017075 0.023539 -0.021293 -0.032142 0.007870 0.042467 -0.071087 0.051550 0.061386 -0.067905 0.039308 -0.063090 -0.023887 0.037470 -0.019555 0.084527 0.025016 0.034471 0.066908 0.045034 -0.011320 0.022841 -0.028699 -0.044929 -0.036374 -0.019929 -0.011638 0.045404 -0.061474 -0.001099 0.031170 0.063852 -0.015743 0.005773 0.030399 -0.034144 0.022675 -0.045716 0.042840 -0.010520 -0.075989 -0.025978 -0.021443 -0.034422 0.008677 0.086996 -0.056177 0.018817 -0.008127 0.037746 0.013907 0.032682 -0.007813 0.021583 -0.010687 0.029735 -0.027364 -0.042614 0.019284 0.019463 0.071162 -0.031614 -0.011214 0.039512 0.025261 -0.003130 0.018780 0.026176 0.073432 0.077179 0.049240 0.011819 -0.016535 -0.051331 -0.049539 -0.035285 0.004491 0.047070 -0.039622 0.039110 0.038041 -0.017792 -0.046085 -0.010790 -0.070668 -0.011520 -0.085187 -0.018392 0.027719 -0.047924 -0.001623 -0.081424 0.029510 -0.000568 -0.015588 0.001495 -0.008445 -0.044592 -0.008915 -0.017270 -0.007815 -0.034160 -0.078806 -0.022315 -0.087831 -0.055182 -0.035969 0.035735 0.049792 0.041116 0.108020 0.011749 -0.041004 0.019027 0.057593 0.026096 -0.041988 -0.054344 -0.009395 -0.035243 -0.009964 -0.072978 -0.038130 -0.053333 -0.063894 0.055828 0.075551 -0.058674 -0.015796 -0.001560 0.008395 0.033794 -0.019907 0.039558 -0.082999 0.001083 -0.016303 0.021503 0.059837 -0.016063 0.110414 -0.017360 0.003010 -0.020614 -0.026494 -0.016379 -0.054933 0.034298 -0.013616 0.055262 0.037291 0.003206 -0.005347 -0.002055 -0.011788 0.008691 -0.098919 0.018349 -0.012815 0.010743 0.001010 0.012559 -0.033523 0.010718 0.022965 -0.008367 0.074018 -0.012731 -0.017733 -0.079113 -0.019097 -0.029496 0.044468 -0.006431 0.009524 0.048809 -0.004348 -0.015082 0.061703 0.029940 0.016805 -0.037811 0.028512 0.038108 0.035500 0.012954 0.000713 -0.083326 0.054325 0.035379 0.118522 -0.023101 0.035830 0.065586 -0.058073 -0.040878 0.023450 0.049234 0.033597 -0.056996 0.016298 -0.048114 0.027789 -0.032841 -0.001247 0.022829 -0.028731 0.048369 0.081204 -0.079670 -0.002394 -0.001019 0.053081 -0.061165 -0.004659 -0.001645 -0.088406 -0.047556 -0.040202 -0.035393 0.018239 -0.013301
( 0.051060 0.023205 0.018067 0.069366 -0.044427 -0.007424 0.014349 -0.022657 0.038990 0.115426 -0.017771 0.006142 0.061239 0.018409 0.037418 0.020577 0.067495 0.009673 -0.032944 0.034948 0.020198 0.049257 0.037454 0.062624 -0.043052 -0.007836 -0.005205 -0.017006 -0.083613 0.021409 0.028243 -0.116538 0.018054 0.034529 0.047340 0.051831 0.005644 0.059410 -0.074139 0.024130 0.057451 0.084067 -0.066690 0.085917 -0.021737 0.057896 -0.011855 -0.041998 -0.023863 0.017182 0.011758 -0.031155 0.042887 -0.027507 0.048909 0.006281 -0.013097 -0.047382 0.070511 -0.083656 0.012468 -0.013468 0.087905 -0.055714 0.060150 -0.018195 -0.021404 -0.056783 0.060007 0.030913 0.066779 -0.001757 0.028511 0.003459 0.081013 0.032161 -0.010264 0.078212 -0.013131 -0.029451 0.000345 -0.098067 0.015297 -0.028704 0.102079 0.067976 0.001522 0.096259 0.021496 -0.013305 0.071980 0.056337 -0.041515 0.073238 0.039907 -0.016520 0.013592 -0.022503 -0.057514 -0.075159 -0.002841 0.053948 -0.012106 -0.032045 0.062523 -0.036649 0.032448 0.021768 0.006332 -0.032726 -0.027410 0.055134 0.053676 0.044471 0.026156 0.085647 -0.036985 0.054982 0.084843 -0.018823 0.031992 0.048049 -0.008535 0.059279 -0.060276 -0.027949 0.061969 -0.028569 0.001151 0.021898 0.031409 -0.044966 -0.046606 0.006647 -0.031188 0.025673 0.079656 -0.032895 0.060803 -0.001217 -0.075463 -0.072119 -0.054785 -0.008980 -0.121418 -0.083466 0.038895 0.009997 -0.011598 0.056563 -0.107558 -0.043020 -0.053151 -0.023536 0.003065 -0.097746 -0.046734 -0.025108 -0.001668 -0.023427 -0.005689 0.029007 0.015143 0.064236 0.050686 -0.032487 0.018291 0.030009 -0.035247 0.035696 0.000927 -0.126271 0.003990 0.076234 -0.023692 0.043963 -0.044002 0.023901 -0.000068 0.027253 -0.003691 -0.008180 -0.054019 0.022260 -0.102686 -0.016562 0.032362 0.053914 -0.028290 0.054812 -0.015222 -0.031841 -0.032307 0.065494 0.040272 0.051667 -0.026423 -0.011002 -0.045174 -0.055907 0.047470 -0.042332 0.030766 0.013760 -0.015892 -0.040435 0.003521 0.074325 -0.056549 0.005803 0.070989 -0.067004 -0.082414 -0.107917 0.071288 -0.009716 -0.004620 -0.052617 -0.029705 0.052321 0.028803 0.013715 0.068345 -0.085954 0.021284 0.006550 -0.030885 0.022315 0.008878 -0.068669 0.070308 0.006277 0.066089 0.025154 -0.015670 -0.054183 -0.025698 0.004999 0.025035 -0.059057 -0.075762 0.021273 0.069125 -0.030269 -0.013164 0.038310 -0.012699 -0.006638 -0.016745 -0.034568 -0.008888 -0.010641 0.021643 0.037487 0.001287 -0.020757 -0.033134 0.062798 -0.004270 0.031133 0.105512 -0.003190 -0.044161 -0.056471 -0.020806 0.008235 -0.064940 -0.052155 -0.083790 -0.013414 -0.041286 0.020101 -0.037577 -0.004939 -0.036780 0.050320 0.059607 0.059220 -0.087452 -0.102941 0.016670 0.020831 -0.034998 -0.085457 0.030628 0.006937 0.007902 0.014043 0.068084 -0.002036 0.033790 -0.005520 0.027173 0.005201 -0.028464 -0.004552 -0.020359 -0.016390 -0.003202 -0.041801 0.130701 -0.063916 0.016587 0.020594 0.010199 -0.028942 0.018079 -0.017098 -0.044445 0.042778 0.024824 0.026811 -0.105873 -0.000552 0.080341 0.020526 -0.017806 0.034898 -0.040021 -0.035846 0.014033 -0.136081 -0.004444 0.035988 0.046332 -0.056556 -0.040506 0.062758 -0.006353 0.041750 0.033115 -0.005864 0.034518 -0.009060 0.004132 0.031687 0.059043 -0.000148 0.058949 0.007905 -0.008891 -0.002822 -0.061884 -0.099657 0.026995 0.050114 -0.080272 -0.027666 0.019389 -0.029195 -0.046218 -0.037320 -0.004249 0.005823 0.074933 -0.004955 -0.079166 -0.048067 -0.020999 -0.033366 -0.087306 -0.003365 -0.020872 -0.098538 -0.008873 -0.020701 -0.073721 -0.021375 -0.064870 0.024976 0.025368 0.025566 -0.000235 0.044719 -0.015096 -0.003075 0.057855 0.057183 -0.039660 0.014168 -0.059016 0.035818 0.041617 -0.129064
) 0.001986 0.001103 0.020654 0.005324 0.012648 -0.004092 -0.000247 -0.066278 0.021133 0.000398 -0.045101 0.003209 0.017465 -0.000668 -0.029959 0.090012 0.016801 -0.056200 -0.027930 -0.033478 0.050427 0.030804 0.017107 0.032007 0.013854 -0.003895 -0.004366 0.022964 -0.040301 0.002055 0.045630 -0.003567 0.048340 0.003101 0.003258 -0.004911 0.049970 0.000483 -0.014818 0.047803 0.008064 0.032081 -0.011572 0.039239 -0.075715 0.018109 0.033618 0.008257 -0.012886 -0.000898 -0.028060 0.030337 0.078725 0.041035 0.051325 -0.016661 0.011650 -0.033585 -0.015486 -0.024004 0.021621 0.032111 0.005477 -0.034378 -0.005938 -0.019065 -0.028479 -0.019607 0.047333 0.003400 0.046361 -0.058160 -0.046126 -0.015560 0.060021 -0.048455 -0.005454 0.083914 0.011219 -0.032707 0.046884 -0.005906 -0.043269 -0.017456 0.021285 -0.009335 -0.028681 -0.004149 0.028951 -0.086781 0.023427 0.035581 -0.087613 0.016559 -0.014618 -0.036923 -0.033581 -0.004474 0.042228 -0.055451 -0.019963 0.018388 -0.032928 0.028937 0.031773 -0.116031 -0.040865 -0.006463 0.017983 -0.070726 0.043281 0.056910 0.030143 0.016638 -0.045861 -0.041900 0.032658 -0.014812 0.032008 -0.062103 0.004247 -0.012878 -0.052510 0.042249 -0.015004 -0.020257 0.023090 0.062059 -0.010485 0.059540 0.043514 -0.042669 0.043888 0.060757 -0.017289 -0.012134 0.048563 -0.069055 0.025830 0.072311 0.013346 -0.026579 0.016661 0.021094 0.032484 -0.016452 0.073284 0.056712 0.041958 0.021437 -0.053780 0.046222 -0.040838 0.041227 -0.009414 -0.001449 -0.046663 0.015707 -0.025171 0.008781 -0.082605 0.040325 0.007284 0.012966 -0.082637 0.048354 -0.042617 -0.035402 0.009143 0.034962 0.037434 -0.071480 0.039576 0.026948 -0.030360 0.007989 0.043391 -0.001289 0.025368 -0.002255 0.012027 0.023449 0.052842 0.050317 -0.026113 -0.045933 -0.041117 -0.004728 0.015528 -0.034142 -0.019698 -0.077929 0.045412 0.039706 0.028540 0.048528 0.006370 -0.001141 -0.011304 -0.018329 -0.005289 -0.102553 -0.046376 -0.043974 -0.006896 0.025942 0.052029 -0.001053 0.049619 -0.051637 0.067118 -0.020045 -0.062798 -0.069735 0.030316 0.073394 0.037829 -0.074011 -0.010567 -0.032333 -0.038606 0.044956 0.069221 -0.013607 0.026918 0.096966 0.055844 -0.029857 -0.029567 -0.069007 0.031644 0.021820 0.006223 0.068715 0.001590 0.013293 -0.019594 0.039205 0.023676 -0.040929 -0.092985 -0.007733 0.047634 -0.020711 0.011288 0.029340 -0.114355 -0.096040 0.018962 0.000264 -0.047079 -0.078392 -0.069039 0.000392 0.009345 0.050617 -0.001034 0.017960 0.047898 0.015622 -0.107144 0.016038 0.004860 0.039780 0.029241 -0.050700 0.022181 -0.018507 -0.087795 -0.037757 -0.034500 -0.016391 0.019954 0.037735 -0.024688 0.019396 0.100089 0.049156 -0.075546 0.073397 0.033983 -0.022007 -0.001602 -0.011270 0.046196 -0.057927 0.020447 0.072162 0.039892 -0.076685 0.008576 0.004141 0.068100 0.025004 -0.041986 -0.028752 -0.076889 0.014964 0.020708 -0.073633 0.041962 0.022553 0.094152 0.008806 -0.096268 0.001533 -0.010706 -0.062847 -0.014060 0.083532 -0.030850 0.007694 -0.024945 -0.033020 0.001029 -0.066933 0.036068 0.005107 -0.012709 0.028083 0.025817 -0.018613 -0.035161 -0.007459 -0.035194 -0.000429 -0.033378 -0.050850 0.069809 0.103301 -0.053416 0.008471 0.030110 0.133822 -0.038197 -0.100464 -0.018284 0.091267 0.068385 -0.002805 0.029596 0.027370 0.020941 0.062888 0.021193 0.046364 0.002979 0.020722 -0.086261 0.014437 -0.049857 -0.054755 -0.002101 -0.061927 0.013113 0.045663 0.002742 0.029419 -0.020873 -0.020662 -0.038404 0.021498 -0.004062 -0.030017 -0.043674 -0.065099 0.043421 -0.004216 -0.075288 0.075011 0.003719 -0.040792 -0.023415 -0.041840 0.012408 0.033099 0.019912 -0.041303 -0.060536 -0.002011 -0.052725 0.008566 0.029667 -0.073640
* 0.044931 -0.024255 0.098427 0.030874 -0.000794 -0.079419 -0.042934 -0.097901 -0.097150 0.075545 0.002889 0.073194 0.021383 0.079373 0.044470 0.078873 0.064557 -0.008075 -0.053970 0.015329 -0.025194 0.041052 -0.002413 -0.002758 0.052902 -0.025312 -0.096529 -0.029092 -0.080285 0.016878 0.045890 -0.011226 0.075453 -0.008843 0.018021 0.002257 0.049372 0.045755 0.015223 -0.039444 0.090596 0.010916 0.020168 0.074940 -0.080794 -0.088307 -0.033478 0.048994 -0.077498 0.028874 -0.030912 -0.022013 0.113602 -0.032292 0.076673 0.020687 0.033599 -0.023889 0.036545 -0.058505 -0.019023 0.040856 -0.011985 0.028650 0.032458 -0.019925 -0.026579 -0.008688 0.024020 -0.001903 -0.023116 -0.060162 0.008515 0.013004 0.042913 -0.003500 -0.092128 -0.018591 0.043655 -0.071814 -0.035490 -0.016384 -0.033623 -0.048992 0.055472 0.067260 0.056983 0.024951 -0.008084 -0.021031 0.061558 -0.047693 -0.034784 0.011234 -0.069764 -0.035610 -0.056503 -0.008604 -0.038621 -0.058834 -0.052121 0.077869 0.022428 0.026115 0.017627 -0.058033 -0.005522 0.007514 -0.017275 -0.025537 -0.005825 0.035321 0.037141 0.036596 0.019454 -0.083197 -0.040895 0.015456 0.088235 -0.033065 0.045170 -0.026613 -0.030887 -0.034258 0.008493 -0.002762 0.009493 0.046168 0.074803 -0.011884 0.028246 0.045074 -0.052072 0.045223 -0.021533 0.056196 0.056811 -0.033152 0.038876 0.040285 -0.031149 -0.013186 -0.001744 0.036024 -0.031520 -0.035663 -0.031340 -0.050009 0.005604 0.014251 -0.019306 -0.016448 -0.035104 0.129705 -0.041765 0.011447 -0.021586 -0.051198 -0.080549 -0.005832 -0.014845 0.007471 -0.037742 0.059312 -0.019782 -0.007512 0.006233 0.018141 -0.067892 0.057304 0.035135 -0.058054 -0.000231 0.044660 -0.059657 0.078625 0.077756 0.063971 -0.000768 0.018964 0.049268 0.021304 0.041770 0.039742 -0.038634 -0.036930 0.025763 0.014346 0.001169 0.052541 -0.057127 0.027657 0.057519 0.035415 0.071131 0.055005 0.015292 -0.002839 0.021193 -0.005805 -0.052997 -0.089580 -0.088668 -0.020093 0.020421 0.005648 0.007666 -0.025824 0.026797 0.029332 0.011439 -0.031243 0.061048 -0.026766 -0.030443 0.036975 -0.059549 0.041728 -0.082436 0.024866 0.006947 0.036664 -0.018657 -0.052202 0.020184 0.061072 -0.011432 0.034066 -0.014004 -0.065429 0.033980 0.037743 0.017336 0.029159 -0.020104 -0.106136 -0.045969 0.012157 -0.011488 -0.010725 -0.014839 -0.015517 0.082924 -0.078309 -0.064618 0.040471 -0.028673 -0.058133 0.000549 -0.036688 -0.033982 -0.022055 0.081467 0.004640 -0.055174 0.088817 -0.021342 -0.014204 0.062580 0.006870 -0.001576 0.010024 -0.020098 -0.035424 0.038591 -0.031578 -0.041125 -0.037014 -0.079716 0.028231 -0.015648 0.025416 0.018182 0.002368 -0.095053 -0.027938 0.020565 -0.001804 -0.050472 0.002346 0.032788 -0.082454 0.025129 0.024413 0.006256 -0.071653 -0.011984 0.026191 -0.016811 -0.038690 -0.038670 0.074170 0.019682 0.035791 -0.069198 0.063289 -0.002948 0.041634 0.011551 -0.033419 0.053679 -0.007772 0.043339 -0.065234 -0.034636 -0.046572 0.010991 0.003978 0.033027 0.061898 -0.015305 0.034219 0.045535 -0.028137 0.006423 -0.015215 0.038927 0.025552 -0.041183 -0.089050 0.040884 -0.012836 -0.060804 -0.036912 -0.046647 -0.016885 -0.022861 -0.006817 0.042667 -0.003151 0.028093 -0.010999 0.070720 0.080262 0.006400 -0.039482 0.002373 0.037968 0.041165 0.074222 -0.004207 -0.024574 0.034833 0.092169 0.034007 0.046605 0.103796 0.035206 -0.007091 0.026307 -0.013521 0.072254 0.018561 -0.065433 0.084824 0.041993 -0.032532 -0.028766 -0.024491 0.010407 -0.073224 -0.041809 -0.012614 -0.063317 0.037504 -0.007039 0.026491 -0.082112 -0.077651 0.051313 0.014857 -0.012804 0.020666 -0.061455 0.015512 0.067843 0.029041 -0.044449 -0.077546 0.064129 -0.019716 0.045687 -0.014451 -0.038680
+ 0.004509 0.057034 0.047333 0.047884 0.009673 -0.031312 -0.011838 -0.033237 -0.017766 0.045460 -0.003599 0.089885 -0.001830 0.044036 -0.050682 0.009844 0.048967 0.019141 0.050119 -0.026802 0.011326 0.033253 -0.023126 -0.008516 0.074990 -0.072426 -0.047357 -0.038241 -0.056660 0.011566 0.022614 -0.038483 0.070180 0.024447 0.043793 -0.065487 -0.012846 0.016752 -0.004911 0.055121 0.028137 0.064380 -0.006016 0.092523 -0.047285 -0.089231 0.001904 0.009130 -0.023766 0.001556 -0.025967 -0.002882 0.024620 -0.004737 0.067737 0.017779 0.050151 -0.013963 0.033333 -0.061063 0.080558 -0.021643 0.025714 -0.057288 0.070032 -0.005962 -0.000224 0.029117 0.003809 0.025463 0.026798 -0.042712 0.099603 0.050675 0.040847 0.048379 -0.030932 0.042885 0.001276 -0.028679 -0.058280 -0.052229 -0.072626 -0.074489 0.016616 0.064513 0.026437 0.037980 0.022037 -0.017127 0.031758 0.058947 -0.059351 0.064972 -0.008487 -0.072292 -0.060795 -0.034836 -0.028336 -0.066832 -0.049567 0.067642 0.012411 0.052231 0.034327 -0.053075 0.019590 -0.018335 -0.010528 -0.053009 0.019771 0.048076 0.029895 0.009881 0.060403 -0.040131 -0.014743 0.007766 0.055732 0.011013 0.057992 -0.038674 -0.034365 -0.025886 -0.015490 -0.075034 -0.019924 0.040795 0.097870 0.038509 0.052459 -0.002068 -0.051275 0.031982 -0.036727 0.028556 0.045626 -0.002864 0.027935 0.027135 -0.073444 -0.030928 -0.011117 0.037908 -0.020319 -0.049155 -0.003924 -0.073940 -0.023749 0.027081 -0.028987 -0.012669 -0.042319 0.093788 0.037470 -0.000081 -0.089277 0.047906 -0.011432 -0.060752 -0.013444 -0.004607 -0.090871 0.020391 0.030030 -0.023901 0.012123 0.015737 -0.095082 0.004236 0.024305 -0.062685 0.073045 0.030774 -0.054907 0.014112 0.056744 0.045107 0.031556 0.027314 0.073838 0.019127 0.014946 0.017739 -0.040058 -0.012805 -0.066242 -0.081065 -0.036756 0.039847 -0.076161 0.022533 0.017434 0.026614 0.042522 0.035529 -0.050181 0.023432 0.006430 -0.027499 0.044879 -0.067149 -0.047796 -0.001409 0.037101 -0.035820 0.025587 0.021804 -0.030670 -0.014835 0.021787 0.053791 -0.011390 -0.016640 0.029168 0.029587 0.005086 -0.065987 -0.023978 -0.019922 0.033449 -0.005292 0.007010 -0.027349 0.024147 0.083453 0.023632 0.051156 -0.092561 -0.051949 0.008194 0.036156 0.054380 0.051958 -0.019273 -0.049010 -0.014022 0.014948 -0.057873 -0.027092 -0.033478 0.062337 0.010831 -0.042993 -0.016687 0.023526 -0.044030 -0.036813 -0.021076 -0.036242 -0.062992 -0.043962 -0.054846 -0.010144 -0.024398 0.047011 0.007482 0.050062 0.049285 -0.009532 -0.048095 -0.010204 -0.048145 -0.041562 -0.060026 -0.026449 -0.041918 -0.043954 -0.088532 0.058788 -0.048809 0.092217 0.011820 0.026520 0.007751 0.026309 0.039706 0.060945 -0.048075 -0.016737 -0.017786 -0.036881 -0.034246 -0.013585 -0.004748 -0.088648 0.038904 0.028161 0.035821 -0.061352 0.016290 0.029631 0.038939 0.032887 -0.049320 0.011743 -0.049084 -0.034265 -0.033409 -0.016416 0.012926 -0.044402 0.048907 -0.002050 -0.045049 -0.065242 0.006845 -0.037977 -0.027506 0.032794 -0.085041 0.022956 -0.069070 -0.011316 0.000776 -0.064564 0.051812 0.021657 -0.015125 -0.039204 0.043782 0.046213 -0.012562 0.023058 -0.043096 0.007337 -0.034318 -0.050774 0.031594 0.003518 0.000732 -0.013629 0.022890 0.058747 0.025916 -0.006031 0.014759 0.041979 0.069928 0.048979 0.035229 0.056861 0.022999 0.017934 0.022062 0.000528 0.032964 0.055097 -0.044146 -0.050638 -0.006017 0.033423 0.004063 -0.046954 0.053003 0.039219 -0.040685 -0.034261 -0.021290 -0.015037 -0.076447 -0.036357 0.025896 -0.092783 0.002588 -0.034799 0.024637 -0.061145 -0.042006 -0.000778 0.049492 -0.025754 0.050210 -0.021627 0.027684 -0.037345 0.040277 -0.011567 -0.008777 0.027538 -0.033123 0.049504 0.028079 -0.026076
, -0.026054 -0.036136 -0.025411 0.048319 0.013152 0.032808 -0.006928 -0.088049 -0.018658 0.000617 0.007681 -0.031887 0.038787 -0.002875 0.043893 -0.030127 0.046157 -0.001943 0.029959 -0.014906 -0.042075 -0.009761 0.008198 0.049111 0.029410 0.032187 0.052247 0.015930 0.025989 -0.023017 0.049036 0.036066 0.009645 -0.025599 0.047625 0.022552 0.063917 -0.061262 -0.009874 -0.020499 0.024091 0.007129 -0.071317 -0.031525 -0.052600 0.048309 -0.044838 -0.059625 0.029441 -0.019782 0.048031 0.043809 0.050546 0.062238 -0.002079 0.015233 0.041471 0.018141 -0.021821 0.032233 0.008806 0.032286 0.038481 0.015553 -0.014887 0.041520 0.026424 -0.035448 0.009125 0.005251 0.022630 0.022208 -0.007660 -0.027357 -0.025129 -0.023109 0.027718 0.034024 0.027696 -0.076262 0.037545 -0.017743 0.060833 -0.008725 0.010502 -0.023905 -0.057721 -0.028855 -0.033576 -0.022119 -0.035493 -0.052536 -0.009769 0.045316 0.028943 0.007189 0.008950 0.048900 0.045863 0.029294 -0.025981 -0.021132 -0.039436 -0.010774 0.028486 0.019815 -0.024518 -0.008060 -0.028579 -0.009213 0.025159 0.001547 0.007030 -0.013023 -0.010055 -0.028358 -0.005168 -0.000376 0.002918 -0.004407 -0.011447 0.061117 0.027147 0.010827 0.028114 0.024924 0.016577 -0.031758 -0.012959 -0.026879 -0.049212 -0.010982 0.025432 -0.026425 0.044344 0.008361 0.034939 -0.025537 -0.035026 0.036207 0.001904 0.022890 -0.004479 -0.044033 0.019930 0.031912 0.038807 0.019218 0.037374 -0.018147 -0.019156 -0.028197 -0.005974 0.033218 0.022066 -0.053815 -0.010858 -0.002260 -0.015229 0.018193 -0.037665 0.062404 0.004100 0.000575 0.002053 0.024385 0.042659 -0.016370 0.041030 0.001769 0.033242 0.017290 -0.023716 0.081385 -0.054038 -0.047353 0.078938 -0.005751 -0.020545 -0.016468 0.004832 -0.042180 0.045441 0.011920 0.018895 -0.050136 -0.043790 0.074736 -0.003221 -0.027625 -0.023730 -0.039331 -0.012077 -0.040461 -0.014339 -0.001398 0.006245 0.035216 0.012945 -0.054922 -0.094684 -0.005953 0.008911 -0.091982 -0.083429 0.047458 -0.012597 -0.060690 0.015029 -0.043418 -0.035818 -0.007529 -0.037763 -0.005195 0.023816 -0.002682 -0.062572 -0.062797 -0.061648 0.003646 -0.018323 0.002859 0.017714 -0.033247 0.035149 0.055266 0.027131 -0.032631 0.001441 -0.007153 -0.054002 -0.006535 0.036852 -0.014998 -0.027492 -0.025698 0.022702 -0.039511 0.027999 -0.029891 0.005590 -0.059187 -0.071871 -0.008024 0.014828 -0.058351 -0.068160 0.042126 0.046314 0.032475 -0.049383 -0.033523 -0.025940 0.014481 0.059919 0.019735 0.025170 -0.042755 0.003998 0.026160 -0.045165 -0.030851 -0.017738 0.005328 0.038820 0.009858 -0.019776 0.026915 -0.068684 0.039487 0.046248 0.016733 -0.029917 -0.011208 -0.102845 -0.026691 0.010855 -0.008287 -0.054651 0.028928 -0.029684 0.014792 0.008897 0.024801 -0.018945 0.027869 0.007129 0.027422 -0.002369 -0.039808 0.016304 -0.030637 0.002076 0.026548 -0.059813 0.014530 0.033438 0.049409 0.015818 -0.042148 0.013463 -0.005207 -0.004612 0.013936 -0.065531 0.012052 -0.003904 -0.070077 0.011231 0.041796 0.020934 0.020097 0.066043 -0.054702 0.012940 -0.027167 -0.024737 -0.070049 -0.031354 0.038447 0.046714 -0.009965 -0.012113 0.009725 0.016111 -0.037499 0.006423 0.025388 0.006366 0.020116 -0.030556 -0.007305 -0.013511 0.105712 -0.014290 -0.046603 -0.017126 0.092731 0.033304 -0.007039 0.014643 0.047924 0.011105 -0.009388 -0.048425 -0.029523 -0.006340 -0.013753 -0.060177 0.046161 -0.022576 0.020481 -0.012047 -0.014925 -0.032164 0.024196 0.048511 0.028922 -0.009664 -0.055610 -0.056086 0.018971 -0.024427 -0.018173 -0.089772 -0.019684 -0.028918 -0.002187 0.002084 0.014924 -0.040507 -0.031675 -0.012059 0.030516 0.019704 0.017220 0.096621 -0.006196 0.045479 0.055163 -0.020993 0.090211 -0.009465 -0.027634
- 0.010260 -0.011967 -0.011835 0.054444 0.013351 -0.025259 -0.049292 0.005296 -0.006350 -0.048651 0.068577 0.005055 0.046388 0.018654 -0.025214 0.023847 0.057342 0.072256 0.076022 0.038378 0.011989 0.000546 0.081835 0.011515 0.074196 0.044209 -0.025786 0.011312 0.025872 0.045105 -0.008733 0.042923 0.102940 -0.033931 0.019586 -0.068391 -0.079112 0.015655 -0.001290 0.032603 0.043512 -0.066254 -0.012500 0.048942 -0.029611 -0.032810 -0.024421 -0.093582 -0.039281 -0.017059 0.031489 0.099299 0.134064 0.025325 0.001505 0.008919 -0.033983 -0.000657 -0.038230 0.081182 -0.008091 -0.013916 -0.039426 0.045822 -0.032233 -0.028510 -0.032988 -0.023534 -0.030828 -0.059695 0.044265 -0.014988 -0.049997 -0.026313 0.033120 -0.022546 -0.017516 -0.029822 0.036287 0.040718 -0.016711 -0.036814 -0.050440 -0.047957 -0.033093 -0.055430 -0.031261 0.069153 -0.008181 -0.006038 -0.014603 0.012943 -0.060007 0.055060 -0.000151 -0.087520 -0.046421 -0.023737 0.018296 0.009218 -0.062667 0.039707 -0.051949 -0.047284 0.039545 0.071852 0.068382 -0.021052 -0.059691 -0.012584 -0.090800 0.002170 0.007268 -0.010630 0.026090 0.011922 0.039283 0.080904 0.049839 -0.001087 -0.079178 0.009505 -0.051660 0.109776 -0.033401 0.014816 0.092919 -0.074012 0.037830 -0.032018 -0.043665 -0.074080 0.025829 -0.087092 -0.026138 0.034715 -0.022671 -0.002307 0.000797 0.025240 0.012935 -0.011986 -0.010675 -0.019226 0.093657 0.005484 0.106683 -0.005292 0.101510 0.036662 -0.075889 -0.017360 -0.070318 0.059669 0.021455 -0.001728 -0.032205 -0.012804 -0.039031 0.037496 -0.056182 0.085678 -0.001512 0.041785 -0.015326 0.070045 0.072752 -0.108693 -0.020051 -0.000463 0.061889 -0.024743 0.029017 -0.101036 -0.081251 0.044726 0.061063 0.019265 0.009818 -0.019132 0.005292 -0.069077 0.025279 -0.053129 0.087088 -0.011446 -0.047944 0.057119 0.039466 0.010742 -0.036350 -0.051569 0.059238 0.028526 -0.012808 -0.057777 0.022235 -0.100003 0.028932 0.010619 -0.020707 -0.016804 0.007622 0.062762 -0.012336 0.055589 0.060743 0.036947 0.013681 0.012076 0.026127 -0.014731 -0.027590 -0.031007 -0.005112 0.016849 -0.025717 -0.048665 -0.051614 0.019118 -0.019880 0.037172 0.004969 0.005535 -0.022665 -0.026936 0.040218 -0.036749 0.014673 0.004975 0.028342 -0.011513 0.022993 -0.036146 -0.034779 -0.002569 0.019424 0.064040 0.046956 -0.029529 0.015965 0.047752 -0.073758 0.047003 -0.006938 0.064045 0.024331 -0.057866 0.032752 0.022598 -0.036678 0.070631 0.037220 0.026294 -0.052331 0.098271 0.028421 -0.014605 0.020851 -0.109717 0.025495 0.035984 -0.097191 -0.000394 0.042144 0.029438 -0.010246 -0.026324 -0.006548 0.034131 0.042816 -0.012646 0.026648 -0.040768 0.054705 0.013807 0.033900 -0.024240 0.057708 0.003343 -0.081021 0.017224 -0.036796 0.006518 0.037194 -0.014349 0.007505 -0.006317 0.013244 -0.021865 0.006916 0.002748 -0.066750 0.037155 0.026368 0.079772 0.011883 -0.063360 0.003716 -0.060337 -0.013166 -0.020814 0.009808 -0.018937 -0.111300 -0.104737 0.005500 -0.055307 0.026046 -0.036959 0.018573 -0.012833 -0.010261 -0.039743 0.067037 -0.011650 0.046090 0.038020 0.043671 0.001235 0.035454 0.011828 -0.052770 0.000074 -0.053790 -0.015416 -0.090269 0.035741 0.006246 -0.016138 0.029125 0.015884 0.013592 0.051379 0.009508 0.038141 0.013882 -0.022047 0.051768 -0.056614 -0.014939 -0.005778 -0.013530 0.096731 -0.072576 0.001163 0.001494 0.068994 -0.053628 0.009262 -0.013848 -0.096929 0.100108 0.010637 -0.007383 0.050511 0.066113 -0.004219 -0.038003 -0.023491 0.012236 -0.058420 0.017240 -0.026108 0.076535 -0.048149 -0.005604 0.025231 -0.027992 0.055128 0.071582 0.033155 0.032130 0.058953 -0.002696 0.059978 0.026592 0.018880 0.057653 -0.011017 -0.050484 0.027485 -0.055976 -0.030862
. 0.003432 0.009066 0.054393 -0.031082 0.040376 0.073920 -0.023318 -0.071661 0.041550 -0.000732 -0.014126 -0.066084 0.094902 -0.008819 -0.052259 0.016811 0.007227 -0.038494 0.003465 -0.006420 -0.079593 0.025808 -0.033996 -0.011589 0.012962 0.070449 0.013095 0.018338 0.003939 0.000269 0.039383 0.036950 0.018516 -0.006946 0.053222 0.007061 0.067281 -0.023868 0.001273 -0.007706 -0.001350 -0.027399 -0.044667 -0.007074 -0.044025 -0.017957 -0.067240 -0.031294 -0.035813 0.017892 -0.009932 0.105065 0.081961 0.012501 0.030472 -0.034364 0.086176 0.024713 0.019151 0.047013 -0.006978 0.018164 -0.039276 -0.048186 -0.042056 -0.026140 0.016671 -0.032310 -0.025679 0.029328 0.044179 -0.019098 -0.021852 0.017777 -0.035845 -0.017037 0.023998 0.009302 0.093348 -0.019994 0.061618 0.002263 0.028753 0.027592 0.006797 -0.018475 -0.020008 0.020798 -0.014044 -0.021273 0.007900 -0.041850 -0.054006 -0.054026 0.056893 -0.048682 0.022244 0.004225 -0.011749 -0.004314 0.060735 0.014193 -0.079309 -0.092998 0.020323 0.035139 -0.038679 0.028463 -0.026650 0.024267 0.026746 0.016979 0.020438 -0.003686 -0.021048 -0.012878 0.037640 0.002952 -0.044730 0.020353 0.041475 0.017636 0.045303 0.001466 0.006560 -0.009542 0.028455 0.040607 -0.040472 0.013976 -0.053915 0.038389 0.047969 0.003206 0.022541 0.057287 -0.037546 0.003418 0.036996 0.042346 0.010564 0.062833 -0.031601 -0.072970 -0.002451 0.027626 0.014404 0.005319 0.074808 0.026136 -0.015231 0.016813 -0.031299 0.017942 0.027872 0.002579 -0.056598 0.011084 0.015675 0.076475 -0.074048 0.012341 -0.011967 0.030370 -0.035050 0.038023 -0.036953 -0.002222 0.042707 -0.069098 -0.013621 0.042199 0.040861 0.069712 -0.022757 -0.038055 -0.063046 0.014383 -0.040804 0.038219 0.018524 -0.008709 0.047817 -0.071153 -0.022673 0.028957 -0.032776 0.084824 0.006954 -0.051972 0.029943 -0.045087 0.067115 -0.018407 0.004058 0.033802 0.014287 -0.017890 -0.055011 0.001435 -0.088126 -0.029989 -0.005063 -0.032946 -0.056140 0.007699 -0.004393 -0.048569 0.055126 0.009520 -0.005057 -0.009612 -0.021202 -0.009455 0.013884 0.030466 -0.006006 -0.018120 -0.005716 -0.024894 0.005213 0.027315 0.037661 -0.020969 0.017529 0.090870 0.088903 -0.017348 0.046039 -0.023040 -0.062147 0.003534 0.073848 -0.001470 -0.015094 0.006174 0.004320 -0.121677 0.042786 -0.005934 -0.040943 -0.058445 -0.037940 0.019898 -0.040339 -0.035936 -0.037627 -0.018866 -0.039069 0.019753 -0.086245 -0.052190 -0.029124 0.025878 -0.021512 0.063180 0.043493 -0.016639 0.037429 0.013793 -0.022214 -0.030864 -0.017686 -0.038108 0.047516 -0.022885 -0.020175 0.072109 -0.034364 -0.003183 -0.017316 -0.015921 -0.067295 -0.006483 0.006062 -0.037756 -0.005110 -0.006363 -0.059613 0.046402 0.058796 -0.044029 0.039093 0.005573 0.003927 -0.011465 -0.005509 0.079318 -0.007963 -0.011870 0.039527 -0.052515 0.042909 0.025729 0.044956 -0.042410 0.003080 0.003945 -0.009125 -0.069814 -0.003247 0.000495 0.001310 0.040511 -0.069345 -0.048135 -0.029173 -0.006708 0.021999 0.055981 0.027276 0.051305 0.034925 0.000448 -0.038417 -0.070749 -0.001553 -0.005894 -0.032224 0.015306 0.028434 -0.003821 -0.050039 -0.065888 -0.001676 0.019340 -0.044466 0.019792 0.007658 0.004497 0.052640 0.026530 0.059530 0.099899 -0.027030 -0.025764 -0.016444 0.027164 0.056835 0.028790 0.059439 0.001686 0.028694 0.025927 -0.008674 -0.043032 -0.040310 0.001278 -0.068279 0.023405 -0.019566 0.001222 -0.016227 -0.026753 -0.021945 -0.059026 0.037960 0.000284 -0.065920 -0.061564 0.063674 0.029323 -0.068942 0.016776 -0.035363 0.002658 -0.026292 0.034299 0.021722 -0.014384 -0.007735 0.003684 -0.071736 0.011067 0.024895 0.050953 0.075120 0.003866 0.038411 0.030845 -0.048153 0.011350 -0.041180 -0.013648
0 0.009641 -0.004113 -0.020237 0.069430 -0.010275 -0.083519 -0.018072 -0.058888 -0.061356 0.095986 -0.038585 0.023663 0.017222 0.023954 0.014104 0.027850 0.069839 -0.035572 0.008517 -0.017305 0.007584 -0.016929 -0.015664 -0.051970 0.072902 -0.022612 -0.082849 -0.048887 -0.015548 0.038450 -0.016772 -0.041134 0.009005 0.061499 0.036846 0.004403 -0.005785 0.014131 0.007942 0.006584 -0.010019 0.014356 -0.006374 0.058230 -0.020508 -0.070495 0.008757 0.007380 -0.048451 -0.034389 -0.015378 0.066894 0.077064 -0.029149 0.078117 -0.000029 0.058368 0.001265 0.067259 -0.029608 0.079708 0.044594 0.036910 -0.025504 0.024967 -0.096374 0.051605 0.009237 0.006002 0.002168 -0.040983 -0.026470 0.003752 0.048832 0.042909 0.026341 -0.048505 0.008494 0.054764 -0.001159 -0.022305 0.034799 -0.004465 -0.065684 0.085515 0.019247 0.060242 0.036202 0.041566 -0.069322 0.048972 0.011691 -0.091343 0.045732 0.003350 0.003877 -0.051292 -0.046156 0.000109 -0.037179 -0.002591 0.035492 -0.026432 -0.001789 -0.003638 -0.031271 0.029352 -0.022901 0.035405 -0.065578 0.004731 0.051691 0.019648 0.031410 0.035455 -0.011716 0.000088 0.034138 0.052811 -0.003364 0.074213 -0.011529 -0.029679 -0.047789 -0.022425 -0.054832 0.022050 0.036747 0.094130 0.009466 0.003518 -0.012047 -0.093368 0.056672 -0.024929 0.034745 0.049013 -0.074339 0.003952 0.057007 -0.056483 0.013471 -0.038893 0.005131 -0.014603 -0.020382 0.017810 0.018201 -0.007429 0.014747 0.002298 -0.080297 -0.022888 0.030681 -0.003047 0.012752 -0.032326 -0.027741 -0.034946 -0.019314 -0.058724 -0.007625 -0.005694 0.011972 -0.039951 -0.058628 0.063343 0.025708 -0.043069 0.022623 -0.008434 -0.016038 0.025041 0.011231 -0.050558 0.058119 0.075369 0.050105 -0.008099 0.060102 0.009588 0.023019 0.005535 0.028144 -0.047323 -0.010123 -0.085562 -0.000244 -0.013575 -0.000731 -0.053071 -0.001212 0.010173 -0.006724 0.068300 0.017429 -0.014716 -0.007126 0.011375 -0.025522 0.030908 -0.049582 -0.006945 -0.048936 -0.013373 -0.006019 0.058813 -0.012774 -0.001530 -0.050595 0.004223 -0.026433 0.033134 -0.033247 0.001173 0.054347 -0.033081 -0.012270 -0.003987 -0.041756 0.037861 0.033912 -0.024273 -0.046121 0.004090 0.060114 -0.006223 -0.031280 -0.103161 -0.059549 0.029689 0.015338 -0.020200 0.065091 -0.011881 -0.066538 -0.036694 -0.072893 -0.021338 0.062619 -0.067720 0.074494 -0.004595 -0.007161 -0.065375 -0.001436 -0.052620 -0.061762 0.029342 -0.035833 -0.031269 -0.036969 -0.047930 0.022786 -0.013243 0.016759 -0.018641 -0.024426 0.041580 -0.015588 0.006391 -0.053879 -0.044308 -0.033622 0.009685 -0.027599 -0.015654 -0.003197 -0.097690 0.060566 -0.006513 0.048632 0.056154 0.051380 -0.066610 0.055783 0.020052 0.030121 -0.050769 -0.033698 0.036335 -0.029167 -0.043652 -0.022849 0.011719 -0.088366 -0.006857 0.067869 0.047752 -0.055624 -0.008943 0.018524 0.046795 0.022722 -0.038204 0.049906 -0.016299 0.021976 -0.115327 -0.030376 0.048071 0.009568 0.063883 0.002868 -0.043785 -0.049218 0.059801 0.014579 -0.053806 0.033910 -0.000971 -0.021306 0.037149 -0.027804 -0.026004 -0.030974 0.062380 0.033883 -0.067422 -0.033519 0.054514 0.068886 -0.050987 0.036788 -0.077926 -0.023007 -0.022911 -0.034521 0.046920 0.022768 0.047359 -0.006220 0.037872 0.087617 0.027007 -0.066630 -0.052175 0.042514 -0.000993 0.045986 0.046939 0.072150 0.033286 0.058828 0.043298 -0.001998 0.073273 -0.007532 -0.031358 -0.060982 -0.091943 0.042042 -0.046910 -0.010008 0.034059 0.006672 -0.051390 -0.036874 0.011496 -0.056372 -0.038473 0.032641 0.010808 -0.105068 -0.052568 -0.016089 0.047661 -0.064333 0.009343 0.065800 0.034871 -0.028277 0.011348 0.016941 0.007852 -0.002876 0.068025 -0.024887 -0.062780 0.026563 0.000645 0.024706 0.005791 -0.078522
1 0.066445 0.032736 -0.043400 0.012976 -0.019689 -0.061931 -0.008710 -0.043821 -0.066055 0.084034 -0.039980 0.095912 0.043844 0.051219 -0.034834 0.077612 0.023215 -0.113521 0.000668 0.019255 0.033670 0.024889 -0.028166 -0.038924 0.048021 -0.036325 -0.095281 -0.046850 0.019294 0.024860 -0.055280 -0.072278 -0.011212 0.101549 0.003183 -0.065267 -0.040398 0.033696 -0.071944 0.069954 0.073883 0.059459 -0.005655 0.019748 -0.010373 -0.069195 -0.013415 0.038141 -0.066852 0.039336 -0.078857 0.009031 0.054168 -0.008427 0.005276 0.033560 0.001249 0.025323 0.012742 -0.042752 0.038714 -0.032592 0.044156 -0.017361 0.024524 -0.042136 0.053944 0.015636 -0.006645 -0.022562 -0.035700 -0.036439 0.008649 0.054016 0.024029 -0.011013 -0.002392 0.003152 0.007684 0.015170 -0.046552 0.026308 -0.145162 -0.000275 0.104982 -0.013836 0.068206 -0.008913 0.062564 -0.079294 0.066152 -0.047812 -0.015472 0.009389 0.048673 -0.051161 -0.023770 -0.025058 -0.008540 -0.002034 -0.016505 -0.016227 0.016325 0.003578 -0.020643 -0.017021 0.042725 -0.008504 0.035539 -0.097304 0.002395 0.053809 0.109060 0.107216 0.046284 -0.001675 -0.010629 -0.015529 0.019967 0.023185 0.088764 -0.065098 -0.044914 -0.059442 -0.049383 -0.101069 0.025386 0.026679 0.015170 -0.007161 0.006834 0.081373 -0.056420 0.010458 -0.050920 0.063871 0.102754 0.000250 0.088638 0.046462 -0.002684 -0.056449 -0.074062 0.031802 -0.003468 -0.104827 0.017566 0.074631 0.008104 0.022163 -0.012118 -0.073003 -0.006498 0.111034 0.027814 -0.083210 -0.033786 -0.046253 -0.038146 0.010780 -0.052647 -0.004791 -0.039303 0.018303 -0.003647 -0.024621 0.010912 -0.007992 0.047181 0.001905 -0.031872 -0.018211 -0.047780 -0.010350 -0.051356 0.090949 -0.000650 0.084618 0.102290 0.044112 0.028646 0.013896 0.041266 0.081041 -0.017092 -0.002222 -0.018022 0.024510 -0.015667 0.010300 -0.042218 0.037167 0.026508 -0.015203 0.136191 0.060431 -0.034405 -0.061740 0.000792 -0.059896 0.020367 -0.073409 -0.108389 -0.020863 0.067816 0.042506 0.036761 0.023873 -0.008463 -0.006127 0.069000 -0.057594 0.069393 -0.086441 0.003325 0.080895 0.010732 0.041367 0.034831 0.070426 0.015209 0.125917 -0.050636 -0.060497 -0.016117 -0.023865 -0.049479 0.020339 -0.038065 0.006983 0.051862 0.035920 -0.025823 0.079670 0.001308 -0.089664 -0.051611 0.032021 -0.031750 -0.010578 -0.080516 0.025086 0.013831 -0.093230 -0.099738 0.043705 0.026214 -0.073134 0.056994 -0.004834 0.031607 0.011379 -0.008233 0.017679 0.015095 0.053995 -0.042636 -0.022510 0.033827 -0.061721 0.006076 -0.091191 0.031662 -0.084941 0.010644 -0.023306 0.006446 -0.055126 -0.024840 0.070634 -0.109656 -0.051875 0.080352 0.117394 -0.048239 0.046069 0.059437 -0.033055 0.010253 -0.015435 0.008298 -0.036998 -0.033430 -0.017698 -0.001066 -0.062404 -0.074729 0.051451 0.081022 0.004093 -0.057774 -0.045804 -0.003166 0.031059 0.000493 0.096372 -0.044846 -0.093661 0.011990 -0.016847 0.030811 0.062257 0.030201 -0.006489 -0.090551 -0.016474 0.026868 0.009199 -0.103381 -0.039371 -0.006762 -0.041259 -0.002846 -0.060239 -0.017674 -0.098219 0.063648 -0.021510 -0.057771 -0.035970 0.006535 0.033226 -0.089581 0.025545 -0.010943 -0.031755 0.018520 -0.030425 0.093846 0.062960 0.041695 -0.009281 0.072189 0.069278 0.046743 -0.054145 -0.012035 0.054921 0.120362 -0.040186 -0.012330 -0.025985 -0.035671 -0.010776 -0.026611 0.019790 -0.017033 0.058868 -0.023169 -0.028313 -0.043267 0.003494 -0.057621 -0.016377 0.033917 0.054378 -0.088850 -0.084835 0.000196 -0.022831 -0.042536 0.025332 -0.063294 0.031323 0.027007 -0.007821 0.028020 -0.007957 -0.015994 -0.008516 0.016943 0.037165 0.000068 0.003238 0.086507 0.057432 -0.045428 -0.048880 -0.069721 -0.047401 -0.006513 0.032628 -0.025503 -0.106455
2 0.041651 0.053841 -0.023917 -0.025432 0.036990 -0.053551 -0.030495 -0.032948 -0.072214 0.068214 -0.031101 0.039292 0.027431 0.028702 -0.018357 0.055238 0.077347 -0.094075 0.035840 0.010312 0.033819 -0.005970 -0.017670 -0.020355 0.100738 -0.012926 -0.073647 -0.026432 -0.017364 0.065149 0.021326 -0.060504 0.022537 0.038513 0.016390 0.006978 0.044671 0.018384 -0.059947 0.014238 0.066611 0.037196 -0.014182 0.096408 -0.012667 -0.068819 0.005581 0.013612 -0.090647 -0.003058 -0.068037 0.014282 0.086689 -0.036008 0.023312 0.088104 0.048730 -0.018712 0.047124 -0.050331 0.031885 -0.006979 0.031550 -0.036703 0.049082 -0.045339 0.048048 0.028145 0.027289 -0.011681 -0.016893 -0.082698 0.014076 0.056741 0.087760 0.064742 0.010370 0.028450 0.013672 -0.019700 -0.076113 -0.026095 -0.072222 -0.044416 0.127788 0.032055 0.095826 0.011681 0.019738 -0.040947 0.024553 -0.030523 -0.068819 0.019125 0.011331 -0.008907 -0.021548 0.006907 -0.019270 0.003907 0.005745 0.047667 0.003837 0.009251 0.005498 -0.049597 0.072760 0.002728 0.025002 -0.075764 -0.047987 0.056684 0.086845 0.059907 0.041015 -0.019229 -0.041654 0.002941 0.066000 0.002447 0.048796 -0.044612 -0.008661 -0.047789 -0.065177 -0.035373 -0.022409 -0.036648 0.032485 0.009595 0.032375 0.068226 -0.064557 -0.008951 -0.050695 0.002435 0.058514 0.011908 0.030964 0.009470 -0.022287 -0.067456 -0.016324 -0.001069 -0.048508 -0.067153 0.067935 -0.027453 -0.009979 0.054627 -0.041595 -0.071656 -0.031308 0.067792 0.018968 -0.082151 -0.028856 -0.035461 -0.080399 -0.061261 -0.020374 0.011800 0.006762 0.037042 -0.057190 -0.034179 0.012720 -0.023177 -0.036979 0.021773 0.014622 0.002719 0.019946 0.015038 -0.038850 0.071211 -0.009896 0.072849 0.042200 0.064793 0.021484 0.042892 -0.003614 0.023154 -0.049177 0.027878 -0.082687 0.007610 -0.007918 0.025457 -0.065792 0.092544 0.054426 -0.003819 0.054482 0.072988 -0.055050 -0.015544 0.012466 -0.063813 0.032994 -0.049070 -0.063580 -0.006303 0.004939 0.034074 0.044038 0.016413 -0.001755 0.004057 0.033604 -0.005090 0.059074 -0.091454 0.038745 0.068481 0.039928 -0.018028 -0.000501 0.047673 0.038129 0.083116 -0.036259 -0.022114 -0.002480 0.034516 -0.024003 -0.012355 -0.061975 0.001182 0.038144 -0.017087 -0.013686 0.034954 -0.040275 -0.075659 -0.093783 -0.024657 -0.002243 0.042213 -0.081417 0.034032 0.016948 -0.068936 -0.081166 0.049624 0.016970 -0.088138 0.003742 0.004247 -0.012043 -0.029337 -0.042444 -0.033842 0.027830 0.054944 -0.013704 0.001397 0.048033 -0.049464 -0.030915 -0.039571 0.029098 -0.032738 -0.012391 0.005502 -0.048212 -0.020407 -0.057839 0.039483 -0.027535 -0.021399 0.103332 0.078556 -0.035444 0.049438 0.051198 0.019639 0.021065 0.002919 0.076498 -0.008133 -0.018022 -0.029486 0.008730 -0.084203 -0.018613 0.077757 0.070149 0.028454 -0.042539 0.005744 0.001807 0.006618 -0.019867 0.068011 -0.070798 -0.030108 -0.034991 0.008358 0.039445 0.000737 0.084732 -0.000453 -0.081408 0.020352 0.036037 -0.027247 -0.058794 -0.033478 -0.045476 -0.010726 0.001244 0.010763 0.065558 -0.028334 0.071061 0.027454 -0.076281 -0.029938 0.037419 0.034435 -0.061191 0.027620 -0.027296 0.020450 0.004837 -0.006889 0.092130 -0.000329 0.006792 -0.006598 0.072689 0.057756 0.023826 -0.033115 0.008522 0.037169 0.041163 -0.004673 0.047188 -0.011527 -0.025948 0.053040 -0.003219 0.036173 0.023366 0.031185 -0.050524 -0.010849 -0.023762 0.071714 -0.012611 0.017359 0.036935 0.052961 -0.080809 -0.064814 -0.023245 -0.064341 -0.052235 -0.007476 -0.005902 -0.025489 0.013457 -0.026662 0.058834 -0.044773 -0.053241 0.026812 -0.039873 0.010199 -0.039895 0.024319 0.041036 -0.011414 0.019377 -0.025545 -0.068524 -0.000395 0.000087 -0.000589 -0.006988 -0.056196
3 0.046333 0.051714 -0.011624 0.058990 -0.023128 -0.054958 0.025153 -0.056270 -0.053281 0.098861 -0.065107 0.055678 0.007275 0.042436 0.042499 0.030003 0.034642 -0.061662 0.018862 -0.047401 0.024486 0.018924 -0.024773 -0.022796 0.073087 -0.076360 -0.034142 -0.050159 -0.049017 0.044222 -0.008379 -0.043406 0.003546 0.068461 0.023633 -0.005386 0.016371 0.038595 -0.042541 0.039699 0.033039 0.032028 -0.017941 0.103953 0.012871 -0.107503 0.019560 0.012055 -0.072611 0.002284 -0.048874 -0.005417 0.094545 -0.017785 0.004885 0.060830 0.046894 0.000474 0.040010 -0.065865 0.024716 0.018098 -0.007376 -0.038947 0.047758 -0.051035 0.079553 0.014535 -0.028732 0.017209 -0.051770 -0.049467 0.028489 0.035285 0.083379 0.034866 -0.011236 -0.008699 0.051366 0.003509 -0.041096 -0.023846 -0.065720 0.014827 0.117323 0.033657 0.055992 -0.027897 0.032297 -0.029963 0.039309 -0.025529 -0.049286 0.013698 0.007452 -0.005202 -0.045859 -0.052572 -0.028996 -0.030857 0.005640 -0.000286 0.024970 0.025248 -0.011773 -0.067311 0.070566 -0.025041 0.015268 -0.062882 -0.018445 0.018442 0.054622 0.025108 0.014961 -0.027654 -0.062431 0.024693 0.078104 -0.023581 0.063689 -0.026375 -0.022550 -0.040795 -0.032254 -0.034436 -0.009409 0.019733 0.063184 -0.029374 0.015704 0.035282 -0.067202 0.033807 -0.032586 0.013528 0.069855 -0.005983 0.041473 0.000188 -0.045368 -0.069750 -0.011879 0.018568 -0.050451 -0.049007 0.071305 -0.018911 0.004770 0.001625 -0.006567 -0.046774 -0.027015 0.064733 -0.003588 -0.038375 -0.024641 -0.016020 -0.042158 -0.026957 -0.012684 0.007155 -0.041837 0.019955 -0.003755 -0.044309 0.028220 0.016581 -0.029756 0.010809 -0.013181 -0.040212 0.030787 0.025422 -0.053433 0.075647 0.033373 0.056793 0.031784 0.044537 0.022434 0.045331 0.021832 0.006932 -0.027571 0.006954 -0.052695 0.004585 -0.010168 0.011650 -0.057793 0.027130 0.027286 -0.035395 0.054793 0.059163 -0.018276 -0.000730 0.043702 -0.100892 0.021632 -0.081816 -0.046037 -0.016896 0.010602 -0.022479 0.040190 -0.026504 -0.017016 0.037409 0.051509 -0.004762 0.044563 -0.075108 -0.005792 0.008299 0.027147 -0.008013 -0.026152 0.018953 -0.001219 0.067958 0.025383 -0.011972 0.017398 0.054459 -0.033038 -0.040040 -0.067520 -0.048042 0.050993 -0.004305 -0.001703 0.056556 -0.013981 -0.085055 -0.034712 -0.014961 -0.003015 0.044524 -0.056727 0.061521 0.037119 -0.097612 -0.094862 0.029472 -0.022234 -0.029963 0.006575 0.019565 -0.004435 0.007175 -0.005094 0.002355 0.005311 0.042199 -0.010965 -0.009812 0.014379 -0.041811 -0.004539 -0.099544 -0.008623 -0.042209 0.002251 -0.051191 -0.037335 -0.051800 -0.028422 0.060839 -0.017568 0.024040 0.104845 0.046596 -0.007400 0.032395 0.079304 0.009288 -0.011271 -0.029558 -0.007122 -0.056211 -0.004410 -0.038623 0.024473 -0.101095 -0.036738 0.088872 0.030648 0.026371 -0.014040 0.066681 0.023391 -0.025444 -0.069186 0.023782 -0.034098 -0.027957 -0.028830 -0.013222 0.056991 0.015892 0.041791 -0.003841 -0.065058 -0.022105 0.061851 0.022218 -0.068899 0.022477 -0.058795 0.017138 -0.045260 0.034272 -0.005320 -0.023206 0.051596 0.046591 -0.025421 -0.046880 -0.005660 0.042379 -0.038895 0.028583 -0.059736 -0.001403 0.015078 -0.014396 0.061802 0.017231 0.014831 -0.006810 0.021839 0.062964 0.037616 -0.036489 -0.014818 0.031592 0.040387 0.020740 0.048333 -0.026868 0.006091 0.064721 -0.023071 0.045758 0.024540 0.046214 -0.030186 -0.029012 -0.037208 0.057415 -0.044414 0.000676 0.062002 0.050488 -0.074975 -0.062090 -0.046659 0.003981 -0.029390 -0.041869 -0.011505 -0.049623 0.009006 -0.021539 0.029545 -0.065161 -0.048167 0.034405 0.028327 -0.028788 -0.058440 0.010547 0.032399 -0.010717 0.066130 -0.011687 -0.063376 0.015798 0.006417 0.035965 -0.011551 -0.061251
4 0.055128 0.046708 -0.016629 0.063289 0.001941 -0.060499 -0.024613 -0.064927 -0.034036 0.070409 -0.063075 0.071455 0.050802 0.018796 -0.008358 0.028205 0.038410 -0.059834 0.005072 -0.044351 -0.011876 0.050854 -0.013638 -0.054409 0.077777 -0.053867 -0.064887 -0.039007 0.015827 0.015273 0.016815 -0.040678 0.017360 0.040230 0.063615 0.035046 -0.004756 0.021063 -0.031547 0.029866 0.060937 0.037675 0.003093 0.009843 -0.023940 -0.075012 -0.013648 0.043692 -0.026170 -0.010250 -0.118046 0.045574 0.052088 -0.024317 0.012229 0.068319 0.050015 0.010774 0.051854 -0.042246 0.069089 0.007824 0.021913 -0.040704 0.047067 -0.074886 0.016320 0.006047 0.042419 0.009894 -0.050303 -0.088657 0.022634 0.080127 0.046135 0.076420 -0.010786 0.025080 0.022798 -0.014091 -0.033076 -0.029199 -0.038048 -0.052093 0.114293 0.036685 0.056091 -0.033604 -0.002149 -0.045272 0.023885 0.032976 -0.082432 0.025346 0.008683 -0.048523 -0.057884 -0.022179 -0.014465 -0.033190 -0.018781 -0.004261 0.004269 0.020534 -0.007188 -0.047299 0.067391 -0.013518 0.047663 -0.062869 -0.010750 0.015661 0.043840 0.012029 0.045164 -0.030698 -0.057787 -0.002464 0.040820 -0.032853 0.078932 -0.057470 0.001774 -0.032669 -0.036769 -0.034878 0.024794 0.038757 0.087076 -0.007666 0.022666 0.012368 -0.087062 0.020141 -0.011217 0.031682 0.088872 -0.040281 0.000034 0.023167 -0.037109 -0.025045 -0.006770 0.000986 -0.020030 -0.046984 0.076917 0.025324 0.010953 0.017298 -0.045411 -0.076170 -0.014819 0.086985 -0.008448 -0.051604 -0.021468 0.009464 -0.047177 -0.037430 -0.071167 0.001394 -0.035222 0.026815 -0.065068 -0.021520 0.061243 0.001495 -0.038506 0.007839 0.007481 -0.005777 0.044054 0.058174 -0.063079 0.060694 0.060235 0.053125 0.028092 0.030054 0.046918 0.029729 -0.003793 0.035476 -0.033394 -0.004865 -0.067027 0.024643 -0.022560 -0.002678 -0.021675 0.010878 0.006251 -0.043673 0.048611 0.039715 -0.008561 -0.065470 0.040543 -0.098950 0.029490 -0.047181 -0.060733 -0.035804 0.045995 -0.028120 0.067183 0.018831 -0.005183 -0.001787 0.016940 -0.048319 0.046031 -0.051162 0.055563 0.031965 0.052478 -0.020085 0.016624 0.008787 -0.006624 0.097100 0.011110 -0.015677 0.055260 0.037091 0.000952 -0.024068 -0.066390 -0.043125 0.013070 -0.002414 -0.018820 0.046718 0.000970 -0.036311 -0.041612 -0.019563 -0.000233 0.042154 -0.049721 0.017264 0.002746 -0.068891 -0.072208 0.048035 0.038885 -0.034710 0.015860 0.003844 -0.000759 -0.038510 -0.038475 -0.019988 0.017497 0.046059 -0.013739 0.014398 0.067304 -0.011580 -0.026417 -0.060834 -0.035595 -0.049559 -0.032912 -0.048987 -0.026736 -0.032579 -0.064167 0.090067 -0.030275 0.005180 0.085889 0.067397 -0.021809 0.030720 0.044329 0.018519 -0.033800 -0.005574 -0.010046 -0.022012 -0.019206 -0.044221 -0.001291 -0.061095 -0.046122 0.091817 0.060178 -0.003379 -0.038406 0.069188 0.012734 0.030147 -0.048575 0.071025 -0.044371 0.009333 -0.013624 -0.027092 0.038423 0.033763 0.071311 -0.050414 -0.065427 -0.022520 0.047290 -0.011752 -0.058950 0.028512 -0.084099 0.004004 -0.001032 -0.019476 -0.009952 -0.028388 0.062320 0.050197 -0.092253 -0.074897 0.001192 0.034682 -0.031231 0.049515 -0.050066 -0.004133 -0.020711 -0.009057 0.027773 0.035324 0.064439 -0.031203 0.037948 0.098825 0.020243 -0.009532 0.004208 0.041904 0.052644 0.028137 0.045190 -0.005414 -0.009679 0.042658 0.023503 0.029839 -0.015034 0.021153 -0.035484 -0.028710 -0.038591 0.019110 -0.029623 -0.009604 0.038323 0.027074 -0.086380 -0.058224 -0.000604 -0.041580 -0.067524 -0.015303 -0.022101 -0.079977 0.006407 -0.064556 0.045861 -0.048001 -0.039461 0.054587 0.054993 -0.032965 0.025940 0.003435 0.076026 0.012781 0.033013 -0.033444 -0.050698 0.049746 -0.029755 0.013815 0.000073 -0.040695
5 -0.005570 0.077085 -0.065577 0.040801 0.019638 -0.058226 -0.039327 -0.095235 -0.042089 0.069605 -0.059024 0.041272 0.025079 0.050944 0.010971 0.028235 0.021370 -0.069790 -0.008385 0.015643 0.008210 -0.010708 -0.066649 -0.030334 0.108426 -0.034411 -0.074416 -0.034706 -0.052726 -0.030692 0.029024 -0.053446 0.046241 0.042389 0.042158 -0.000309 0.004581 -0.008747 -0.000034 -0.004952 0.030149 0.020318 -0.023848 0.043975 -0.006390 -0.107167 -0.020316 -0.008772 -0.004135 -0.064899 -0.046848 0.085023 0.092013 -0.018630 0.019016 0.037931 0.069124 -0.019135 -0.006435 -0.033829 0.056932 0.064114 0.061660 -0.000263 0.047230 -0.071897 0.025208 -0.010851 0.026936 0.039364 -0.040292 -0.070747 0.014665 0.028770 0.047384 0.071136 0.007459 0.035361 0.036554 0.007185 -0.002316 -0.019114 -0.030262 -0.037623 0.062778 0.032805 0.037302 -0.001644 0.055609 -0.028519 0.025938 0.030426 -0.056863 0.036631 0.018191 -0.044739 -0.064910 -0.042835 0.008815 -0.078147 -0.002502 0.035717 0.024035 0.003176 0.034187 -0.020555 0.014932 -0.047585 0.039377 -0.065467 -0.033960 -0.007028 -0.005477 0.056891 0.025190 -0.031261 -0.033174 0.003281 0.049712 -0.030316 0.025821 -0.034244 -0.044854 -0.065245 -0.018629 -0.014791 0.044630 0.024104 0.097149 -0.018685 0.045449 -0.003988 -0.078932 0.041335 -0.018123 0.060211 0.062406 -0.050941 -0.008712 0.031579 -0.039709 -0.041469 -0.009655 0.021052 -0.022805 -0.050044 0.059033 -0.003970 0.022634 0.026739 -0.032951 -0.043252 -0.000791 0.056861 0.018268 -0.048809 -0.036261 0.014564 0.010948 -0.008866 -0.072990 -0.005000 -0.006050 0.065337 -0.049406 -0.072323 0.045330 0.011842 -0.011793 0.084514 0.005253 -0.056285 0.016546 0.079065 0.018470 0.047484 0.045238 0.029773 0.016732 0.022396 0.020615 0.049873 0.046952 0.014575 -0.049101 0.002766 -0.043584 -0.020462 -0.008427 0.001610 -0.042735 0.043308 0.023264 0.011861 0.036156 0.048811 -0.015573 -0.037103 0.035052 -0.042997 -0.002083 -0.017821 -0.046796 -0.022548 0.010498 -0.059232 0.026204 -0.003259 -0.022255 0.000790 0.041141 -0.009700 0.054148 -0.058590 0.017398 0.023052 0.056744 -0.016506 -0.024637 -0.009351 0.016051 0.057105 -0.020691 -0.044908 0.036385 0.025947 0.016104 0.044155 -0.050056 -0.019051 0.020388 0.009422 -0.010943 0.016428 -0.011381 -0.069629 -0.011264 0.002189 -0.035425 0.056570 -0.071836 0.018627 0.001580 -0.018974 -0.036057 -0.004576 0.000140 -0.021684 -0.021045 0.009306 -0.012869 -0.050471 0.000077 -0.036732 0.006965 0.073002 -0.088636 -0.020843 0.042654 -0.010334 0.027167 -0.033490 -0.052547 -0.028347 0.012173 -0.014136 -0.005847 0.014560 -0.095529 0.084552 -0.020721 0.044208 0.085000 0.046879 -0.039580 -0.005420 0.072078 0.009307 -0.045007 -0.018561 0.070203 -0.063316 -0.062875 -0.031710 -0.008411 -0.079741 -0.074938 0.080594 0.103743 -0.003580 -0.062700 0.046920 0.007045 0.011073 -0.038459 0.069627 -0.001542 0.056806 -0.082585 -0.034509 0.046284 -0.003083 0.079516 -0.015099 -0.027803 0.030272 0.070410 -0.014745 -0.056089 0.018103 -0.081671 0.006726 -0.028616 -0.008800 -0.022338 -0.050577 0.065667 -0.000035 -0.063139 -0.015264 0.032377 0.075939 -0.042159 0.016672 -0.064287 0.006548 -0.043865 -0.048815 0.024689 0.017125 0.049388 -0.038708 0.054499 0.063933 0.045245 -0.036301 0.000340 -0.013790 0.027653 0.015857 0.083214 0.022410 -0.010152 0.061008 0.035191 0.031634 0.041623 0.010614 -0.065994 -0.024546 -0.015219 0.065157 0.001971 0.026124 0.009222 0.046530 -0.060879 -0.027211 -0.004179 -0.077748 -0.046567 -0.044932 -0.029246 -0.069604 -0.014142 -0.045976 0.002891 -0.034250 -0.052356 -0.034226 0.049297 0.006142 0.013370 0.002419 0.023964 0.001210 0.031809 0.012737 -0.044758 -0.017505 -0.004517 -0.017729 0.013138 -0.063731
6 0.037004 0.017724 -0.019411 0.043012 0.012695 0.017743 -0.022701 -0.103024 -0.064292 0.060228 -0.030114 0.047656 0.054027 -0.003873 -0.025066 -0.019229 0.007889 -0.108869 0.057931 0.019339 0.025645 0.024543 -0.033664 -0.069481 0.104133 -0.029154 -0.049154 -0.004514 -0.033704 0.011500 0.059476 -0.038544 0.037477 0.063708 0.041945 -0.016160 0.026271 0.034059 -0.017276 0.008428 0.026663 0.017097 -0.021984 0.084028 -0.014880 -0.084172 -0.002796 0.036676 -0.070207 -0.015087 -0.008402 0.035560 0.099397 -0.032869 0.024370 0.071002 0.064928 -0.037039 0.055327 -0.064607 0.087237 0.006566 -0.003722 0.004081 0.060465 -0.089760 0.065776 0.009216 0.031621 -0.004808 -0.010721 -0.053108 0.051517 0.086890 0.018266 0.019294 0.000668 0.016364 0.013490 -0.013709 -0.053030 -0.067492 -0.093715 -0.043404 0.076137 0.055010 0.086336 0.022149 -0.016413 -0.068810 0.011247 -0.015495 -0.046763 0.005382 0.014892 -0.053652 -0.012059 -0.005005 -0.050287 -0.028013 -0.017842 -0.016064 0.010651 -0.036975 0.000232 -0.037545 0.044709 -0.026745 0.003679 -0.053534 -0.033369 0.018597 0.073677 0.071142 -0.019890 -0.069869 -0.029049 -0.003942 0.074991 -0.007833 0.046654 -0.033863 -0.030569 -0.051323 -0.023910 -0.046089 -0.014013 0.009774 0.016572 -0.030669 0.012360 0.029508 -0.075460 -0.002343 -0.066143 -0.006950 0.064318 -0.001965 0.041312 0.021493 -0.019269 -0.079451 -0.026352 -0.023213 -0.039634 -0.080508 0.041275 0.000898 -0.004559 0.036368 -0.021562 -0.032197 -0.043624 0.066725 0.002182 -0.051665 0.028349 -0.023967 -0.051248 -0.034394 -0.013161 -0.010599 -0.024267 -0.009276 -0.037329 -0.020091 0.008511 0.009988 -0.055999 0.062186 0.029324 -0.054496 0.056189 0.050644 -0.071399 0.058005 -0.011089 0.025833 -0.004932 0.035820 0.027176 0.030453 0.006115 0.029625 -0.083904 -0.025390 -0.096513 0.010014 -0.031156 0.012451 -0.066444 0.052313 0.041971 0.020385 0.010334 0.052781 -0.031516 -0.012508 0.024810 -0.043365 -0.002477 -0.010035 -0.053029 -0.027237 0.019105 -0.005696 0.024798 -0.023464 0.030554 0.027887 -0.018820 0.012619 0.084949 -0.068864 0.091624 -0.004376 -0.030430 -0.045914 0.024234 0.025776 0.011326 0.053451 0.049293 0.005335 0.039721 0.076356 -0.011449 0.005940 -0.051176 -0.055673 0.074745 0.052313 -0.004016 0.070456 0.008891 -0.111736 -0.011994 0.007652 0.019206 0.032753 -0.074456 0.040629 0.018112 -0.013929 -0.071303 0.019804 -0.000762 -0.045357 -0.038134 0.000518 -0.042722 -0.045974 0.002169 -0.002152 -0.010941 0.049274 -0.065572 0.031573 0.027782 -0.052894 -0.000026 -0.044771 -0.040591 -0.059752 0.018859 -0.024577 -0.048444 -0.015584 -0.061932 0.093438 -0.011235 -0.005760 0.105922 0.044487 -0.040913 0.057190 0.064237 0.012103 -0.053822 0.034142 0.049095 -0.080160 -0.034544 -0.003154 -0.008136 -0.060109 -0.053518 0.072991 0.097254 0.011817 -0.051563 0.043494 0.024455 -0.002600 -0.021856 0.058044 -0.063223 0.019355 -0.079104 -0.030292 0.036669 -0.039512 0.068763 -0.021968 -0.079187 -0.010083 0.056179 -0.072116 -0.070632 0.013947 -0.106264 0.036364 -0.029585 0.031023 0.027979 -0.055347 0.035656 0.037085 -0.062841 -0.096489 0.020979 0.016336 -0.052273 0.032777 -0.015610 0.010379 0.009059 -0.028978 0.067338 0.021680 0.028509 -0.011210 0.062385 0.081994 0.032591 -0.044313 0.039855 0.043245 0.013699 0.008763 0.048193 0.004945 -0.035567 0.075915 -0.022653 0.047010 0.027504 0.027370 -0.069214 -0.045773 -0.036388 0.082161 -0.024989 -0.037127 0.050093 0.048966 -0.105363 -0.069364 0.021683 -0.051326 -0.053337 -0.020623 -0.017595 -0.044334 0.004964 -0.064579 0.027550 -0.013889 -0.043617 0.017245 0.071483 -0.014620 0.003287 0.044659 0.014376 -0.036174 0.027604 -0.031620 -0.012645 -0.003951 -0.057115 0.035153 -0.019975 -0.021054
7 0.028220 0.023939 -0.026512 0.072369 -0.006089 -0.074658 -0.065080 -0.070164 -0.081914 0.047558 -0.021203 0.037765 0.063363 0.034203 -0.024141 -0.014423 -0.029870 -0.041376 0.024514 0.055394 -0.005959 0.017396 -0.026312 -0.020457 0.088291 -0.041287 -0.078315 -0.077821 -0.055663 -0.004119 0.054493 -0.032463 0.069632 0.007889 0.072749 -0.048324 -0.011567 -0.011165 -0.031377 -0.017428 0.054712 0.012800 -0.007170 0.073423 -0.008105 -0.104133 0.003895 0.040340 -0.061132 -0.008323 -0.084698 0.037774 0.094069 -0.057017 0.048833 0.070153 0.024190 -0.034961 0.000168 -0.025479 0.037333 0.037492 0.007149 -0.006984 0.055933 -0.041141 0.017674 0.011703 0.010100 0.025750 -0.021661 -0.026844 0.047163 0.113171 0.058073 0.070587 -0.029237 0.015462 0.011714 0.008365 -0.018739 -0.059781 -0.009703 -0.039892 0.098721 0.037595 0.067622 0.001753 0.016566 -0.066229 0.021754 -0.025902 -0.054967 0.071801 -0.015008 -0.004608 -0.064548 -0.010517 -0.025307 -0.032352 0.005939 -0.029334 -0.013280 -0.011840 0.013215 0.017858 0.047081 -0.029286 0.066286 -0.064154 -0.054917 0.000930 0.063233 0.020322 0.064357 -0.051213 -0.062427 0.032526 0.069111 0.004190 0.060477 -0.064783 -0.040229 -0.094761 -0.031201 -0.013116 -0.003468 -0.002826 0.063516 -0.059158 0.036443 0.049356 -0.052881 -0.025506 -0.040954 -0.010932 0.084502 -0.011929 0.011005 0.015229 -0.061974 -0.074480 -0.015193 -0.000521 -0.019940 -0.083496 0.013239 -0.035753 0.007299 0.045211 -0.029171 -0.067269 -0.019981 0.085984 0.019321 -0.052904 0.001147 -0.057497 -0.033649 -0.043333 -0.052530 -0.001533 -0.007547 0.063304 -0.027490 -0.010782 0.045211 0.006984 -0.051989 0.064343 -0.011390 -0.006192 0.069995 0.034545 -0.040375 0.072894 0.054165 0.051068 0.065187 0.016983 0.038799 0.006642 0.024934 0.022825 -0.032276 -0.030543 -0.094594 0.040162 -0.017412 -0.000977 -0.055562 0.036729 0.073008 -0.007235 0.029039 0.049135 -0.045642 -0.049059 0.064138 -0.030129 0.013845 0.014584 -0.048489 -0.010938 0.032204 -0.010515 0.018972 -0.019403 0.032333 0.023603 0.029701 -0.028213 0.042276 -0.042349 0.050268 0.040321 0.027463 -0.003582 0.014661 -0.001722 0.018723 0.076689 -0.014796 -0.034228 0.025791 0.069740 -0.030093 0.014105 -0.089252 -0.033961 0.034431 0.001758 0.008672 0.015061 -0.003012 -0.037918 -0.058488 -0.004841 -0.003432 0.030642 -0.061203 0.054351 -0.027813 -0.033778 -0.031561 0.028042 0.004304 -0.026109 0.013068 0.009857 0.006686 -0.039982 0.014624 0.027799 0.020253 0.036050 -0.047398 -0.049720 0.063526 -0.017335 0.049423 -0.048369 -0.053104 -0.082908 -0.001688 -0.029139 0.017946 -0.044877 -0.063477 0.079007 0.002170 0.009505 0.101608 0.072044 -0.055092 0.065053 0.026959 0.010327 -0.010226 0.003992 0.005034 -0.038058 -0.021807 0.029854 -0.027124 -0.114209 -0.078357 0.070582 0.067462 -0.006334 -0.047183 0.013030 0.000890 0.019149 -0.030693 0.066669 -0.084789 0.041917 -0.062977 -0.027071 0.031982 -0.015166 0.075798 -0.022493 -0.072779 0.009760 0.060748 -0.043087 -0.075044 0.041035 -0.057921 -0.024864 -0.003561 0.009240 0.031475 -0.029487 0.056840 0.009404 -0.065857 -0.057559 0.041194 0.042623 -0.014652 0.002973 -0.043579 0.025670 -0.020382 -0.061680 0.045546 0.047629 0.026352 -0.022871 0.057741 0.085134 0.032088 -0.034225 0.016109 0.010133 -0.008049 -0.006188 0.037303 0.029767 0.029581 0.092305 0.002642 0.025476 -0.009623 -0.004305 -0.057831 -0.079777 -0.079358 0.070197 0.012223 0.015337 0.051234 0.042291 -0.081884 -0.059305 -0.020192 -0.030955 -0.022050 -0.036153 0.034027 -0.052191 0.010980 -0.095702 0.022384 -0.011137 -0.035859 0.041597 0.095150 -0.005097 0.032551 0.010762 0.034149 -0.015448 0.071280 -0.019189 -0.037235 0.007600 -0.033493 0.052715 -0.012208 -0.020643
8 0.051806 0.073332 -0.003067 0.065339 -0.010647 -0.066380 0.017017 -0.039444 -0.123980 0.060231 -0.014754 0.060136 0.041406 -0.016212 0.014043 0.006357 -0.003901 -0.064645 0.008648 0.010360 0.030924 0.023263 -0.060970 -0.009803 0.085830 -0.045834 -0.047515 -0.034634 -0.007993 -0.009431 0.005906 -0.019849 0.073223 0.024779 0.051778 -0.043154 0.031733 0.000550 0.037122 0.011845 0.046865 0.015340 -0.004627 0.071359 -0.038938 -0.030346 0.027819 0.002830 -0.034606 -0.021601 -0.087377 0.072957 0.101513 -0.036820 0.096747 0.080272 -0.025944 -0.005979 -0.026317 0.039047 0.039826 0.037729 0.011305 -0.041034 0.095764 -0.052882 0.058933 -0.001353 -0.031551 0.007748 -0.040316 -0.009326 0.015174 0.133984 0.060021 0.022085 -0.070499 -0.068511 0.042406 -0.008002 -0.030861 -0.043458 -0.025163 -0.043688 0.093009 -0.052444 0.009201 0.000743 -0.033324 -0.019630 -0.017402 -0.021514 -0.085903 0.060571 -0.052071 -0.043199 -0.078928 -0.110215 0.019061 -0.001165 -0.009844 0.016448 0.008921 0.050322 0.012572 0.039374 0.034189 -0.022446 0.000931 -0.025977 -0.051419 0.025598 0.098997 0.017893 0.016633 0.007838 -0.054418 -0.003455 -0.043742 0.018837 0.065857 -0.065428 -0.012875 -0.083465 -0.066335 -0.060417 0.031886 0.027069 0.064340 -0.013841 0.009821 -0.011265 0.010721 -0.008350 -0.061120 0.068820 0.037163 -0.034197 0.015353 0.023907 -0.056834 0.015353 -0.014074 -0.019246 0.030800 -0.048368 -0.015893 -0.022017 0.007285 -0.041052 -0.024968 -0.065610 -0.052706 0.095619 0.081803 -0.024079 -0.072078 -0.055920 -0.058953 -0.004987 -0.081469 -0.005473 -0.013733 0.108528 -0.021662 -0.044133 0.080008 -0.012827 -0.001369 0.058139 -0.005859 0.011914 0.006206 0.023977 0.008098 0.068938 0.095410 0.038108 -0.005486 0.088765 0.024536 0.052370 0.029872 0.070877 -0.019608 0.023359 -0.020746 -0.024501 0.021185 -0.003430 -0.061795 0.058267 0.062375 -0.006989 0.032896 0.066266 -0.027327 -0.045304 0.060329 -0.066028 0.038966 -0.047606 -0.021640 0.017775 0.041994 -0.021078 0.063937 -0.016141 -0.021896 -0.018195 0.035483 -0.022903 0.013582 -0.046194 0.015068 0.039424 -0.040557 0.009149 0.012780 0.059252 0.050159 0.081915 -0.011885 -0.033452 0.012827 0.092128 -0.000199 0.015207 -0.069440 -0.000558 -0.019822 0.041118 -0.041742 0.004576 0.028989 -0.026628 -0.006053 0.036639 0.009449 -0.040802 -0.029728 0.045359 -0.032604 -0.041304 -0.051629 -0.007267 -0.075522 -0.001937 0.035999 -0.054759 0.025261 -0.064764 0.022279 -0.012451 -0.003293 0.070469 -0.009786 0.007417 -0.012953 -0.016981 -0.007622 -0.072321 -0.070220 -0.001481 -0.040991 -0.053817 -0.012628 -0.025891 -0.074133 0.060853 -0.024235 0.078571 0.126147 0.054810 -0.036077 0.074617 0.012372 0.013428 -0.025005 -0.034407 -0.027363 -0.045786 -0.091418 0.013525 -0.054159 -0.036181 -0.058723 0.095543 0.031001 -0.037487 -0.055532 -0.022160 -0.058760 0.048916 -0.048359 0.105969 -0.006569 0.065037 -0.045230 -0.040798 0.035919 0.012508 0.072210 -0.028150 -0.093509 0.027473 0.109961 -0.078115 -0.080584 0.048534 0.005083 -0.009488 -0.010239 -0.034188 -0.008512 -0.018998 0.101429 0.072732 -0.029167 -0.009412 0.081646 0.004476 -0.032169 0.019055 -0.098314 -0.012292 -0.080596 -0.044082 0.018407 0.033250 0.025236 -0.046317 0.027004 0.088925 0.049978 0.000082 -0.019669 0.018419 0.033137 -0.031262 0.070078 0.018484 0.014525 0.050213 -0.019967 0.034294 -0.026816 0.035809 -0.074971 -0.040897 -0.070714 -0.032607 0.022882 0.037520 0.029036 0.033135 -0.040746 -0.046073 0.032825 0.010192 -0.034882 -0.055711 -0.009167 -0.019611 0.016187 0.017539 0.002957 -0.071407 -0.053319 -0.028120 0.068384 -0.037152 0.015812 -0.022232 0.099010 -0.011505 -0.017134 0.016705 -0.039836 -0.022328 -0.135947 0.035652 0.008033 -0.053911
9 0.060616 0.053272 0.001373 0.042345 0.040443 -0.042575 -0.043294 -0.094916 -0.036207 0.096846 -0.049327 0.046686 0.062006 0.011184 -0.001837 0.024468 0.027461 -0.056809 0.030382 -0.007873 0.047151 0.050698 -0.020728 -0.035768 0.062163 -0.050404 -0.050298 -0.054176 -0.060315 0.038596 0.026130 -0.025018 0.000735 0.075594 0.040505 0.011654 0.055172 -0.057977 -0.032212 0.012272 0.050461 0.040061 0.013655 0.108986 -0.022389 -0.107221 -0.007049 0.010637 -0.017853 -0.037050 -0.032829 0.052106 0.083807 -0.027715 0.052629 0.038827 0.054472 0.012516 0.013538 -0.062705 0.106526 0.045171 0.028818 -0.016945 0.038539 -0.064132 0.073449 0.009889 0.016681 -0.014440 0.002866 -0.054856 0.028876 0.045439 0.059313 0.024819 -0.065763 0.028532 0.011910 0.015739 -0.009530 -0.056091 -0.032399 -0.020732 0.100708 0.028154 0.025761 0.051125 0.018203 -0.034895 0.061359 0.034933 -0.084903 0.029652 0.008226 -0.022405 -0.065411 -0.015667 0.005176 -0.027298 -0.007407 0.019092 -0.005981 -0.017030 -0.009756 -0.062663 0.044236 -0.013829 0.009770 -0.071056 0.015218 0.033828 0.036071 -0.005624 0.045433 -0.020722 -0.043919 0.039700 0.051135 0.028077 0.048637 -0.031581 -0.014854 -0.020297 -0.025289 -0.005044 -0.007721 0.085027 0.063070 -0.005160 0.048888 0.023157 -0.061874 0.052957 -0.018235 0.002617 0.066635 -0.011840 0.033022 0.049375 -0.068381 -0.069427 -0.005701 -0.026417 -0.040235 -0.016007 0.048795 -0.025597 -0.001397 0.047587 -0.051353 -0.053071 -0.029260 0.071910 -0.020381 -0.034512 -0.026308 -0.018431 -0.046500 -0.061003 -0.049436 0.029920 0.020659 0.012080 -0.032830 -0.031174 0.070528 0.031773 -0.036546 0.054736 -0.005326 -0.050962 0.022108 0.064165 -0.034950 0.066782 0.036596 0.021151 0.041194 0.042900 0.037490 0.032360 -0.002614 0.028403 -0.021903 -0.040649 -0.058910 0.012264 -0.056652 0.009094 -0.046129 0.007493 0.047808 -0.011710 0.032695 0.074217 -0.029281 -0.049726 0.032042 -0.057170 0.012550 -0.077766 -0.044784 -0.029535 0.010339 0.026212 0.056034 -0.009002 0.012307 -0.017413 0.068963 -0.013769 0.004505 -0.054043 0.007319 0.048910 0.005316 0.026736 -0.019834 -0.015786 0.017711 0.047710 -0.025652 -0.029549 0.046073 0.053644 0.012073 0.033667 -0.068318 -0.058969 0.004659 0.023200 -0.016928 0.044323 -0.014677 -0.064945 -0.058890 -0.022980 0.004281 0.030687 -0.085119 0.075210 -0.022156 -0.033128 -0.024469 0.021908 -0.002738 -0.058048 0.019006 -0.035516 -0.000170 -0.072882 -0.007888 -0.028003 -0.025359 0.059257 -0.016561 0.016204 0.005325 -0.032906 -0.005362 -0.064591 -0.029698 -0.021338 -0.027719 -0.040202 -0.035276 -0.033348 -0.090642 0.072057 -0.026507 0.009852 0.098132 0.019643 -0.038748 0.007181 0.089525 -0.028044 -0.018532 0.016921 0.019920 -0.000999 0.004049 -0.012961 -0.004636 -0.059672 -0.081733 0.073119 0.050503 -0.044027 0.002252 0.044705 0.006872 -0.013661 -0.030821 0.062092 -0.056231 0.037676 -0.048394 -0.017539 -0.001237 -0.010922 0.056986 -0.036696 -0.035130 -0.052936 0.025576 -0.029591 -0.064461 0.020283 -0.041208 0.011867 0.002129 -0.002686 0.035462 -0.002353 0.026282 0.028646 -0.059364 -0.053049 0.041476 0.046527 -0.044224 -0.016402 -0.065514 -0.011658 -0.022214 -0.020076 0.029097 -0.001486 0.015756 0.015182 0.075540 0.082334 0.021981 -0.057078 -0.004323 0.031917 0.063680 0.003294 0.054091 -0.053056 -0.048114 0.033015 -0.000249 0.034706 0.005776 0.032763 -0.058419 -0.033961 -0.039716 0.062439 -0.019817 0.006409 0.024876 0.033088 -0.082061 -0.017152 0.017070 -0.018844 -0.037783 -0.037016 0.013575 -0.042289 -0.045246 -0.031422 0.023565 -0.029804 -0.047156 0.055520 0.101097 -0.016613 -0.016701 -0.000719 0.048266 -0.018901 0.042616 -0.028487 -0.047165 0.031714 -0.014651 0.038285 -0.009930 -0.082613
: 0.011539 0.005113 0.018239 0.067491 -0.031662 -0.009687 0.017256 -0.081126 0.080627 0.026847 -0.008242 0.056751 0.083006 0.029744 -0.032699 0.036588 0.022448 0.051616 0.058360 -0.043825 -0.055111 0.003695 0.012795 0.067074 0.003193 0.026856 -0.031038 0.013189 0.008627 -0.051963 0.071319 0.012217 0.053830 -0.023609 0.075791 -0.085611 0.054276 -0.007866 -0.015557 0.018453 -0.015968 0.058884 -0.061586 0.078001 -0.090851 -0.033327 0.004622 -0.020595 -0.012320 -0.014883 -0.002628 0.051976 0.092024 0.016658 0.028242 -0.056485 0.045747 0.006919 -0.014222 0.006077 0.004868 0.013183 0.055646 -0.043444 0.017698 0.010958 -0.020423 0.012814 -0.035645 0.013159 0.074550 0.007692 -0.062484 0.071753 0.006951 0.006266 -0.039397 0.034442 0.065399 -0.039583 0.043850 -0.085000 -0.013894 0.003942 0.045101 -0.017664 -0.033340 -0.015670 -0.055505 -0.053519 0.009142 0.027718 -0.035585 0.041866 0.032167 -0.061794 -0.018300 -0.028529 -0.048654 -0.011846 -0.045990 0.030086 0.012448 -0.025355 0.000860 0.033503 -0.037902 -0.027917 -0.052611 -0.009040 -0.001304 0.063430 0.081777 -0.004869 -0.025254 -0.016130 -0.016273 0.039886 -0.002050 -0.038061 0.026904 0.013933 -0.031736 0.067257 -0.082068 0.005584 0.030038 0.027367 0.021028 0.026796 -0.055093 -0.035157 0.030998 0.032925 -0.028146 0.023927 -0.023835 -0.062947 0.003723 -0.006996 -0.021821 -0.028457 -0.021008 -0.034030 -0.028714 0.007743 0.040647 0.032047 0.039263 0.014996 -0.103582 -0.027495 -0.061320 0.013083 0.050588 -0.028915 -0.046919 0.034693 -0.011434 0.024132 -0.073331 0.061517 -0.058079 0.011697 -0.055703 0.007178 -0.013171 0.009831 0.003148 -0.051369 0.089847 0.020678 0.053270 0.067750 -0.067784 -0.018443 0.077825 0.042180 0.001147 0.005094 -0.017074 0.049166 0.008828 0.017018 -0.047259 -0.055268 -0.067852 0.042628 -0.023432 -0.012942 -0.045091 -0.001485 0.041557 -0.060207 0.002250 0.069827 -0.001431 0.048873 -0.041348 -0.057570 -0.027054 -0.040789 -0.068961 -0.023198 -0.065013 0.030853 0.074377 0.043649 0.009979 -0.004975 0.032438 -0.045143 -0.101709 -0.063795 0.030080 0.046992 -0.028097 -0.069159 -0.074355 -0.079999 -0.056466 -0.057272 -0.024197 0.050073 -0.000702 -0.068260 0.031511 -0.007746 0.002430 -0.079241 -0.010692 0.101389 0.076385 0.042578 -0.041639 -0.073562 -0.029597 -0.055247 0.016076 -0.109341 0.006804 -0.026384 -0.067693 -0.072869 -0.037194 0.031412 -0.138059 -0.066784 0.029340 -0.033901 -0.049004 -0.098396 -0.040179 0.021196 -0.001743 0.043511 -0.001210 -0.000996 0.033585 -0.025364 -0.034537 -0.032382 -0.024011 -0.027537 0.012934 -0.007881 -0.046772 0.004748 -0.096864 0.057488 0.009464 -0.016001 -0.021407 0.050373 -0.009655 -0.030424 0.007595 -0.008629 -0.010514 0.020100 0.003568 0.006844 -0.044272 0.006862 0.014367 0.001609 -0.029940 0.084303 -0.030001 -0.030935 0.030336 0.006068 -0.002230 0.105271 0.030278 -0.001231 0.047797 0.045953 0.044960 -0.112602 -0.012356 -0.037476 0.055823 -0.007343 -0.066051 -0.059981 -0.002344 -0.036242 -0.036594 0.115777 -0.008531 0.044534 0.001516 -0.036478 0.029755 -0.066692 0.042892 -0.070230 0.007050 0.023203 0.073471 -0.064169 -0.053959 0.020718 -0.013167 0.016053 -0.097428 0.029033 0.100723 0.024829 0.017339 -0.006837 0.034697 0.060791 -0.046062 0.054987 -0.046701 0.007323 0.063185 0.022033 -0.066436 -0.001413 0.058866 -0.007327 -0.033842 0.024918 0.035086 -0.003440 -0.007321 0.011322 0.008078 -0.013640 0.034989 -0.041784 -0.018694 -0.022500 -0.001396 0.035425 -0.023016 -0.071055 -0.007563 0.009157 -0.000240 -0.010360 -0.008272 -0.012910 -0.036185 -0.024933 -0.017815 0.066005 0.029865 -0.008457 0.000191 -0.046416 0.078494 0.038090 0.073662 0.001998 0.019525 -0.001318 -0.016370 0.026758 0.027739 0.002780
; 0.004078 0.017370 0.032986 0.035853 0.002817 0.072270 0.015566 -0.074002 0.016258 0.009547 -0.024415 -0.022445 0.056679 -0.011713 -0.037616 0.013621 0.037821 -0.003498 0.035877 0.002905 0.004583 0.052588 0.016410 0.053161 -0.010369 0.040088 0.012140 -0.002752 -0.038911 -0.028929 0.059292 0.024327 0.003059 0.003944 0.101410 0.028888 0.062099 -0.064843 -0.021864 -0.027812 -0.034569 -0.016756 -0.089855 0.017985 -0.039614 0.037618 -0.038727 -0.008811 0.022611 -0.011602 0.006172 0.073967 0.031702 0.054580 -0.003387 -0.074160 0.044940 -0.002394 -0.038188 0.049768 0.033953 0.051003 0.057611 0.010703 -0.022672 0.050895 0.015166 -0.070613 0.037334 0.033611 0.067183 -0.065735 0.013653 -0.027670 0.016163 -0.010801 -0.000573 0.018424 0.036118 0.019637 0.037645 -0.033051 0.027001 0.014645 0.010598 -0.068357 -0.057702 -0.052277 -0.029996 -0.016075 0.034153 0.003876 0.042695 0.039403 -0.002444 -0.053186 0.038285 0.034149 0.032204 -0.005536 -0.016559 0.053519 0.022398 -0.036473 0.001000 0.017404 -0.003586 -0.021934 -0.044187 0.046578 0.067633 0.056165 0.040929 -0.000518 0.014317 -0.024390 0.026584 0.017953 -0.041996 -0.061106 -0.007396 0.031731 -0.003066 0.011399 0.040725 0.010020 0.020236 0.023084 -0.000445 0.014218 -0.042759 -0.035841 0.050131 0.024368 0.019729 -0.003465 0.031755 -0.058029 0.039332 0.050380 0.004425 0.027424 -0.031488 -0.047048 -0.001087 0.019297 -0.000903 -0.043554 0.040652 0.019995 -0.036252 0.003472 0.033549 0.018013 0.020892 -0.030249 -0.044460 -0.023545 -0.036968 0.049559 -0.031533 0.074031 0.019211 0.009702 -0.024841 0.018177 -0.004896 -0.053944 0.041831 -0.054995 0.051049 0.007605 0.034192 0.073668 -0.032739 -0.015275 0.010045 -0.025749 0.010916 -0.014699 0.010363 -0.019043 0.045453 -0.029702 -0.043629 -0.054393 -0.038579 0.007033 -0.012478 -0.059401 -0.001049 -0.017236 0.058206 -0.063752 0.009947 0.005962 -0.009280 0.094688 -0.006467 -0.067176 -0.042083 -0.057375 0.021501 -0.077838 -0.050006 0.020210 0.020120 -0.027231 0.023241 -0.010814 0.011706 0.018930 -0.080399 0.036110 0.026232 0.027102 -0.050990 -0.106838 -0.072367 -0.025338 -0.018447 -0.001796 0.032628 -0.048094 0.046677 0.057045 0.026059 0.033280 -0.001835 -0.025443 -0.012915 0.013854 0.078884 0.026578 -0.018650 -0.012836 -0.002655 -0.079404 0.034258 -0.069775 0.020909 -0.065551 -0.091921 -0.069393 0.027577 -0.002952 -0.062020 0.005889 0.003915 -0.030304 -0.073030 -0.082899 0.011325 -0.008439 -0.009142 0.028316 0.007611 -0.034872 0.017162 -0.036867 -0.081931 -0.003656 0.001744 -0.012698 0.044952 -0.011009 -0.037637 0.000934 -0.045595 0.090152 -0.014875 0.000926 -0.051410 0.023476 -0.077459 -0.014148 -0.012611 -0.037480 -0.037312 0.048214 -0.060584 -0.048841 -0.012197 0.004755 0.051332 0.021476 0.004038 0.029911 0.001301 -0.039191 0.020138 0.011835 0.035844 0.037276 -0.013776 0.004145 0.017328 0.017867 0.045909 -0.067978 -0.013616 0.021405 0.003431 0.035020 -0.018637 -0.007598 0.021161 -0.038590 -0.014718 0.039792 -0.008543 0.024744 0.048983 -0.064852 0.052431 -0.073258 0.023875 -0.017052 -0.011273 0.054583 0.050972 -0.045337 -0.020170 -0.036383 0.005108 -0.064047 0.010104 -0.010126 0.027769 0.046345 -0.056388 -0.019178 0.017913 0.069053 -0.030740 -0.025915 -0.016887 -0.004387 0.075975 -0.043365 0.016577 0.009166 0.019506 -0.038515 0.011284 -0.011414 0.012899 0.004573 -0.082322 0.032930 -0.014600 0.033101 0.033945 -0.016295 0.017206 -0.002491 0.054592 0.040303 -0.023347 -0.046220 -0.035046 0.069158 -0.008905 -0.027600 -0.059897 -0.055411 -0.020583 0.009955 -0.045132 -0.031680 -0.002892 0.007522 -0.031828 -0.020470 0.085160 0.026692 0.083814 -0.008712 0.058445 0.056243 -0.046153 0.054938 -0.004169 -0.036852
? 0.018226 -0.009127 -0.027730 0.069359 0.006976 0.016919 -0.039749 -0.101220 -0.005581 -0.017857 -0.056639 0.051413 0.052267 -0.016717 0.005061 -0.017250 0.106920 -0.050935 0.046849 -0.022599 -0.021102 0.071699 0.056633 0.025002 0.076789 -0.036234 -0.002938 0.014730 -0.058212 0.032794 0.095821 0.015245 0.062739 -0.021842 0.079935 -0.012198 0.051239 0.024975 0.012312 0.012974 0.089529 0.038779 -0.028372 0.023411 -0.053274 -0.023038 -0.051434 -0.000036 -0.014895 -0.006750 0.034742 0.054552 0.024166 0.037815 0.029747 0.014647 0.104510 -0.013139 0.017661 -0.036746 -0.025881 0.066626 -0.040286 -0.027692 0.005821 0.032058 -0.063165 0.001703 -0.017933 -0.018723 0.055569 0.008215 0.008409 0.041572 0.051904 0.013874 0.064432 0.080874 0.084255 -0.036107 -0.005137 -0.018235 0.026262 -0.022888 0.003198 -0.028039 -0.014565 0.035696 -0.079439 -0.041734 -0.005257 -0.053242 -0.017417 -0.021661 -0.012245 -0.065429 -0.011216 -0.068939 -0.000441 -0.006695 -0.077336 0.033905 -0.015494 -0.015247 -0.010779 0.055469 -0.030754 -0.043541 -0.033861 0.012119 -0.014276 0.093832 0.075048 -0.017722 -0.065840 -0.041739 0.065002 0.023261 0.049349 -0.041572 0.077173 -0.027820 -0.056384 0.006745 -0.009740 -0.028220 0.061052 -0.055907 0.045636 0.027059 -0.072977 0.074274 -0.019922 -0.020114 0.027555 0.107900 -0.004017 0.032870 -0.008259 -0.014384 -0.045584 0.019729 -0.002119 -0.029987 0.028432 0.014461 0.062064 0.015687 0.036195 0.019572 -0.086673 -0.039533 -0.093029 -0.010400 0.064258 -0.047303 -0.031669 -0.006748 0.025436 0.052709 -0.041182 0.073551 -0.011007 -0.000088 0.095627 -0.006401 -0.059860 0.004269 0.007646 -0.048884 -0.018976 0.042175 0.032989 0.017116 -0.084583 0.048956 -0.015110 0.017843 0.004945 0.006014 0.004674 0.057181 0.027903 -0.010836 0.047738 0.028627 -0.071702 0.034220 -0.000981 -0.023170 0.010484 0.014641 0.040377 -0.024405 -0.022721 0.074517 -0.020735 0.012015 0.003781 0.011849 0.006576 -0.037818 0.057532 -0.058686 -0.042179 0.016276 0.000446 0.039974 -0.046491 -0.032864 0.046565 -0.000892 -0.067507 0.013946 0.081863 -0.004685 -0.033709 -0.018926 -0.097301 0.004568 -0.013783 0.014819 0.006386 -0.049793 -0.023699 0.137526 -0.007419 -0.054361 0.024575 -0.041359 -0.051029 0.037875 0.040895 0.062003 0.005386 -0.033583 0.028057 -0.032118 0.027584 -0.083850 -0.015972 -0.050694 -0.009447 0.024104 0.015552 0.045468 -0.051490 -0.053571 -0.055975 -0.005204 -0.054768 -0.068537 -0.020701 0.063029 -0.016381 0.024484 -0.039821 0.055159 0.086542 0.066024 0.035226 -0.097352 -0.030430 0.009633 0.016859 0.000730 -0.072583 -0.051426 -0.093783 0.019149 0.004119 -0.044621 -0.020624 0.014133 -0.033032 -0.021204 0.005171 -0.023090 -0.055741 0.047416 0.035273 0.044852 0.037596 0.006041 -0.066581 -0.038873 0.012830 0.061420 -0.014134 0.008161 0.020627 0.007805 0.041755 0.038106 -0.031583 -0.038613 0.027216 0.037363 0.019753 -0.092712 -0.030228 0.008149 -0.064244 0.041118 -0.054338 -0.022661 -0.045447 -0.069240 0.024303 0.124491 0.032364 -0.041516 -0.002073 -0.035384 -0.070421 -0.091197 0.032805 0.007379 -0.005779 0.034134 -0.030752 0.035563 -0.062779 -0.064459 0.003873 0.005303 0.021710 -0.004909 0.007002 -0.013562 0.009464 -0.000166 0.046635 0.125385 -0.030671 0.008473 -0.017166 0.088733 0.062661 -0.008906 0.062749 0.012053 0.052003 0.008828 0.018050 0.013659 -0.004528 -0.020144 -0.083170 0.018877 -0.002052 -0.050419 0.018242 -0.040529 0.027824 -0.053265 0.017656 -0.048081 -0.094887 -0.079018 -0.010610 -0.039428 -0.048077 -0.019709 -0.044366 -0.020375 -0.000520 -0.014214 0.030528 -0.004714 0.002715 -0.056007 -0.033748 0.053864 0.067878 0.003367 0.017888 -0.034757 0.055310 -0.020237 -0.049985 0.054799 -0.012988 -0.031826
A -0.025456 0.026872 0.003696 -0.052454 0.055238 0.009629 0.042600 0.011937 0.001646 -0.001802 0.008710 -0.006293 0.031507 -0.031341 -0.036249 0.004470 0.071170 -0.071247 0.045455 -0.068991 0.095595 0.024349 -0.028841 -0.054816 0.034804 0.019064 -0.001685 -0.053648 0.082362 0.017903 -0.025170 -0.064263 -0.058970 0.053145 0.032311 -0.014374 0.004838 0.075550 -0.051220 0.078225 0.014836 0.070211 0.030481 0.030817 -0.023244 -0.053953 0.000043 -0.007216 -0.017949 0.031215 -0.048857 -0.004297 -0.103351 0.020911 -0.018948 0.005062 0.021345 -0.005782 -0.027114 0.001786 -0.011919 0.027911 0.044701 -0.044990 0.048534 -0.022452 0.044330 0.035954 -0.021730 0.027970 -0.004750 -0.060804 -0.025865 0.010336 0.026932 0.051548 0.040217 0.038526 0.001703 -0.082951 -0.014300 0.029774 0.021322 -0.060495 -0.014909 0.067210 0.029687 0.078727 0.040981 0.062659 0.004175 0.045834 0.053906 -0.021773 -0.043423 -0.023506 0.012457 -0.052092 -0.010839 0.015491 0.013430 -0.020028 0.012340 -0.006887 0.020031 -0.095053 0.030303 -0.086641 0.067568 -0.014910 -0.031366 0.056551 -0.036965 0.058410 0.051578 -0.040876 -0.039353 -0.031519 -0.084232 -0.010023 -0.059627 0.006488 -0.041713 -0.008232 -0.018628 0.045623 -0.026834 0.017423 -0.019085 -0.021221 0.093296 0.037382 -0.031728 0.064884 -0.007835 0.022557 -0.015962 -0.001277 0.000571 0.086773 -0.008336 -0.060580 -0.080389 -0.031948 -0.067601 0.012466 -0.025837 0.022571 0.002761 -0.017356 0.067661 0.000368 0.038396 -0.007063 0.001032 -0.051702 0.001711 0.089354 0.024925 -0.003309 -0.014859 0.087448 -0.011178 0.001409 0.000395 -0.044796 0.072186 0.018876 0.040550 0.026536 -0.028545 -0.017158 -0.016956 -0.076130 -0.045496 0.049566 -0.010425 0.057101 0.070309 0.084733 -0.025960 0.024177 -0.050997 0.077707 -0.071826 0.045803 0.051748 0.004567 -0.022177 -0.001340 0.022256 0.086065 0.023507 -0.014199 -0.026971 0.035515 0.034482 -0.021205 0.018305 -0.111404 -0.014665 -0.018636 -0.024073 -0.066549 -0.059337 -0.076715 0.049046 0.019353 -0.035024 0.055485 0.010207 0.024789 -0.000774 0.024099 0.065843 0.064605 -0.006936 -0.055332 0.029057 -0.048972 -0.061410 -0.028975 0.036334 -0.059869 0.058203 -0.034333 0.034569 0.042598 -0.028027 0.061192 0.069464 0.019843 0.039608 0.035820 0.028723 -0.047269 -0.043929 -0.110244 -0.058546 -0.044739 0.028827 -0.032911 -0.001810 -0.018598 -0.106979 0.026434 -0.024516 -0.023914 0.032229 -0.057695 -0.027771 -0.013034 0.002213 0.004927 -0.072204 0.036531 -0.049111 0.065001 0.052141 -0.020208 0.000700 -0.000462 0.012109 0.015606 0.064836 -0.037340 0.009129 0.026166 -0.019732 0.025251 0.052826 -0.027021 0.076081 -0.005962 0.035208 0.014206 -0.013927 -0.001371 -0.017035 -0.026934 0.016327 -0.008053 -0.006801 -0.013849 -0.010232 0.000611 -0.072172 -0.025051 0.020838 -0.046866 -0.031493 0.054330 0.003869 0.062258 -0.013735 0.022188 0.007167 -0.019072 0.002167 0.000615 -0.006877 -0.034727 0.002977 -0.011491 0.053710 -0.026758 -0.040137 -0.013427 0.038897 0.037096 0.005552 -0.057033 -0.056190 -0.055757 0.011450 -0.019854 -0.062276 -0.003454 -0.086924 0.050685 -0.005082 -0.043766 -0.044639 0.054136 0.034172 -0.053185 0.009688 -0.057885 0.021167 0.026316 0.036862 -0.027030 0.056666 -0.040446 0.088107 0.025313 -0.036135 0.021857 0.054025 -0.066391 0.054566 -0.006718 -0.007241 0.007346 0.022778 -0.020766 -0.043668 -0.019107 -0.006479 -0.059078 -0.014530 0.012627 0.061740 0.012544 -0.037877 -0.083402 -0.016514 -0.066543 -0.024618 -0.085158 0.033477 0.034784 0.024333 -0.004991 -0.015764 -0.033135 0.034704 -0.089787 -0.022422 0.018004 0.063585 0.016394 0.092954 -0.024096 0.058322 0.009295 0.038262 -0.012583 0.024696 -0.082125 0.011415 0.096524 -0.011087 -0.031362
