115 384
\n 0.024128 -0.014576 0.059401 -0.032006 -0.086482 0.003132 -0.069932 0.021374 0.045594 -0.005760 -0.029943 0.014875 0.050913 0.001598 -0.032547 0.058292 -0.032890 -0.013896 -0.007828 -0.034676 0.103500 -0.060073 -0.052685 0.067017 -0.027302 -0.010135 0.028119 -0.013467 -0.015426 0.103975 0.058229 0.091929 -0.037404 -0.022889 0.029078 -0.048533 -0.016883 -0.015296 -0.045680 0.076177 0.085017 0.056629 -0.072845 -0.010547 -0.007093 -0.023417 0.022604 -0.090151 0.034167 -0.018810 0.003514 -0.009724 -0.015158 -0.019609 0.035204 0.045056 -0.062377 0.066785 0.051631 -0.015137 -0.034154 0.009582 0.011428 0.035554 0.056711 -0.032286 0.014223 0.031903 -0.044172 0.011604 0.007471 -0.058814 -0.026100 0.030886 -0.000065 0.000472 0.017373 -0.034457 -0.045232 -0.082461 0.007609 -0.019018 -0.095625 -0.013232 -0.003162 -0.022143 0.078849 -0.029457 0.019925 0.009152 -0.032163 0.032650 -0.001999 -0.065380 0.003941 -0.043891 0.057668 0.000869 0.009952 0.001516 0.020663 0.021991 0.013788 0.067842 0.005548 -0.051551 -0.045032 -0.069543 0.057558 -0.027473 -0.031051 -0.032665 0.000744 -0.037146 -0.054834 0.041845 -0.061291 -0.059562 -0.017438 -0.078811 -0.000064 -0.094839 -0.004476 -0.042339 0.010671 -0.077708 -0.037496 -0.022161 -0.066626 0.002282 -0.053654 -0.040319 0.003639 -0.085991 -0.042425 0.069618 0.046101 0.005692 0.015565 -0.051536 0.001040 -0.085535 0.040882 -0.026366 -0.029406 -0.010003 -0.015151 -0.108755 0.017072 0.027969 0.046431 0.056502 0.014271 0.043730 -0.035153 0.004541 0.047663 0.013458 0.026781 0.031437 0.020755 0.057978 -0.035654 0.003633 -0.003050 0.004020 -0.062286 -0.039752 -0.012228 -0.015027 -0.019895 0.044686 0.009029 0.032536 -0.028936 -0.017637 -0.015562 0.019670 -0.001836 0.029480 0.002665 -0.035228 -0.027523 0.000869 -0.023178 0.026843 0.003414 0.007783 0.046730 -0.039864 0.054423 0.045178 -0.039679 0.038448 0.042483 -0.038724 -0.027747 -0.027447 -0.044420 0.017810 -0.054966 -0.045935 0.030310 0.048514 -0.017734 0.057777 -0.094008 0.018685 0.019440 -0.010025 -0.042789 0.012912 0.041562 0.037994 -0.019140 -0.007018 -0.056746 0.019925 -0.027322 0.072278 0.034945 -0.008496 0.052244 0.021019 0.011919 -0.002442 -0.039604 0.053862 -0.038929 -0.005792 0.053529 -0.010115 0.001060 -0.027451 0.034864 -0.000193 -0.015410 0.028625 -0.035373 -0.009392 -0.063088 -0.055354 -0.026595 -0.030704 -0.080962 0.025952 -0.052171 -0.061730 0.032345 -0.010641 -0.017417 -0.037126 0.077093 -0.002790 -0.028322 0.049632 -0.056325 0.039227 0.019814 0.031566 0.049657 0.018338 -0.018666 -0.040049 0.037962 0.011857 -0.004197 0.012427 -0.006788 -0.034394 -0.046300 0.037609 0.029340 0.001690 0.009012 -0.029261 -0.082747 -0.007624 -0.108850 -0.021779 -0.005411 -0.036883 -0.065883 0.024377 0.076593 -0.032350 0.039485 0.023688 0.063602 -0.084431 -0.053634 0.044999 -0.015986 0.031934 0.014792 0.014546 0.040287 0.005446 -0.039772 -0.068315 0.023937 0.061311 -0.011719 0.013164 -0.017500 0.107318 -0.025027 -0.019743 0.011799 -0.032374 -0.003274 0.033428 0.013795 -0.056455 -0.023820 -0.065801 0.037686 0.004381 0.078487 0.056072 -0.047584 -0.017575 0.029760 0.066579 0.014940 0.078719 -0.032938 0.015500 0.011313 -0.030614 -0.024217 -0.054681 -0.005782 0.017976 0.019245 -0.018635 0.013161 0.045826 0.024042 0.057472 -0.069475 -0.001948 -0.039690 -0.037715 0.006526 0.035029 0.042892 -0.059085 -0.043861 0.041223 -0.004736 -0.022378 -0.010191 0.026260 0.014887 0.036981 0.094526 -0.015533 -0.011989 0.038482 -0.016963 -0.018713 0.057801 -0.025835 0.012681 -0.012376 -0.068647 0.028627 0.054059 -0.005087 0.076904 -0.053091 0.004245 -0.079347 0.020264 -0.038556 0.035973 -0.070038 0.044695 0.027775 -0.076835 0.045984 -0.062177 0.016314
\s 0.005045 0.042863 0.084480 0.012813 -0.044465 0.014503 -0.014860 0.027293 0.012193 -0.013958 -0.059651 0.028075 -0.013402 -0.023343 -0.011994 0.023542 -0.009366 -0.031164 0.018450 -0.030288 0.008113 0.002111 -0.063008 -0.026232 -0.060240 0.014153 0.003130 0.019370 0.040793 0.086115 0.078559 0.011211 -0.018226 -0.037615 0.055559 -0.014302 -0.005443 -0.000866 -0.027576 0.020895 0.004243 0.018345 -0.025975 -0.002806 -0.003683 -0.021451 0.003932 -0.042662 -0.029503 -0.032098 0.006536 -0.015673 -0.056555 0.006216 -0.004533 0.010649 0.002055 0.050832 -0.016419 -0.035851 -0.079413 0.023131 -0.000249 0.054662 0.009768 -0.030544 0.005702 -0.007576 -0.013568 0.043449 0.031693 -0.011601 0.039335 0.049478 -0.018685 0.013322 0.009352 0.012626 0.003256 -0.082148 0.036033 -0.009758 -0.010971 0.025081 0.021349 0.027902 0.033514 -0.033827 0.027705 0.040964 -0.004103 0.039161 -0.129887 -0.075522 -0.002554 -0.016436 -0.021225 -0.019888 -0.023574 -0.058826 0.032800 -0.033578 0.006327 0.021637 -0.039882 -0.004967 -0.074014 0.020527 0.087465 -0.084309 0.019091 -0.079544 -0.003403 -0.066302 -0.035049 0.012694 -0.023769 -0.042429 -0.009969 0.002703 -0.030171 -0.089365 0.011056 -0.032597 0.077871 -0.038689 -0.034921 0.023684 0.020005 0.013209 -0.047016 -0.011691 0.016826 -0.022597 -0.053444 0.014295 0.052856 0.009063 0.030786 0.012396 0.037478 0.002351 0.056112 -0.022692 -0.026801 0.002405 0.044864 -0.027910 -0.002057 0.014004 0.075476 0.070350 -0.014445 0.039064 -0.063026 0.009625 -0.018716 -0.022422 0.035358 0.022822 0.010529 0.027761 -0.068594 0.037960 -0.040228 0.025234 -0.045837 -0.051392 -0.036174 0.022954 0.009469 0.003166 0.010063 0.015697 -0.038169 0.010298 -0.044926 0.027530 0.020225 0.031250 -0.059868 0.018176 -0.049192 -0.007237 0.000854 0.008883 -0.043602 0.000350 0.003062 -0.020483 -0.003427 0.075787 -0.020426 0.060181 0.018771 -0.046307 -0.021448 -0.001888 -0.035135 -0.000906 -0.027863 -0.059314 0.033987 -0.000949 -0.000021 0.080098 -0.042548 -0.044207 -0.003671 -0.048968 -0.042268 0.002915 0.040058 -0.015784 -0.018587 0.017696 -0.017515 0.046133 -0.010425 0.032953 0.066548 0.005174 0.023099 0.001115 -0.007626 -0.017348 -0.013234 0.016547 0.010092 0.009900 0.057998 0.016844 0.003160 -0.008034 -0.032505 0.050825 -0.001443 0.052700 -0.027502 -0.010006 -0.037785 -0.001756 -0.011025 -0.005218 -0.078843 0.048206 -0.027303 -0.004947 -0.003623 0.074709 -0.011872 0.043731 -0.010397 0.007516 0.028248 0.001112 -0.067320 -0.006916 0.057996 0.013525 0.044469 -0.020728 -0.024007 -0.009723 0.015810 -0.024562 0.014175 0.035943 -0.029204 -0.025798 -0.053259 0.029364 0.022040 0.006901 0.023414 0.001833 -0.019892 0.003292 -0.056649 0.049589 -0.000093 0.031651 -0.029938 0.012349 0.077086 -0.005759 0.019499 -0.003472 0.035713 -0.021989 -0.040668 0.021239 0.021410 0.011854 0.018244 0.007134 0.033669 -0.040661 -0.034101 -0.113593 0.004453 0.057503 -0.024116 -0.024648 0.004039 -0.072597 -0.000582 0.037023 -0.026022 -0.087016 0.004615 -0.050701 -0.065753 -0.013873 0.001926 -0.034807 -0.011110 0.041876 0.020911 0.049600 0.026022 -0.014037 0.051737 -0.018541 0.015348 0.089611 -0.092512 0.014069 -0.018453 -0.027708 -0.006115 -0.061455 0.006515 0.027711 -0.039154 0.035690 -0.013408 0.032297 0.071342 0.091423 -0.084246 0.086329 0.008658 -0.027718 -0.013456 -0.007473 -0.003723 -0.007013 -0.005548 0.057326 0.013551 -0.012180 0.019765 0.061009 0.005915 -0.025980 -0.027799 -0.047664 -0.069238 0.077785 0.054608 -0.004039 -0.004353 -0.030821 0.052150 0.033475 -0.021651 -0.000185 0.036453 0.000290 0.080948 -0.050692 -0.032756 -0.044048 -0.032692 -0.006154 -0.032810 0.001176 0.083656 0.033052 -0.070753 0.024062 -0.049312 -0.010599
! 0.007740 -0.040898 -0.000004 -0.054440 0.003637 -0.015005 -0.028817 0.046270 0.036484 0.036907 -0.008621 0.031333 -0.074162 0.005808 -0.051970 0.028856 -0.039370 0.083599 0.061859 0.044097 0.066810 0.009439 -0.035983 0.050258 0.050281 0.048044 -0.031604 -0.085484 0.036116 0.031215 0.041658 -0.040586 0.089977 -0.038655 0.055036 0.012102 -0.052800 -0.015072 -0.022389 -0.055362 0.004530 0.050269 0.018344 -0.021775 -0.038850 -0.069521 0.005422 0.061468 0.002094 -0.018407 0.024273 0.035400 -0.099442 -0.038967 -0.041546 -0.024837 0.026458 0.055862 0.015643 0.030264 -0.039386 0.070920 0.061737 0.019091 -0.000467 0.027281 0.031875 0.009017 0.004745 0.001048 -0.077751 -0.034209 0.081131 0.015270 0.069869 0.079200 0.033365 -0.041721 -0.140555 -0.071320 -0.012107 -0.002445 -0.030641 0.010935 0.065942 0.034923 -0.081860 -0.030913 0.021091 -0.034419 -0.003032 0.027584 -0.011078 0.050105 -0.009310 -0.042379 0.020772 0.044092 0.101205 0.036385 0.001385 0.067852 0.008778 -0.014034 -0.008421 0.107036 0.021580 -0.073744 0.045793 -0.015040 -0.086717 0.061614 0.040425 0.007773 -0.016993 -0.040199 -0.067504 -0.002236 -0.015914 0.060489 0.024651 -0.071722 -0.037074 -0.007001 -0.049768 -0.041501 -0.007406 -0.017181 0.013174 -0.049703 0.060234 -0.003708 0.064885 -0.051315 0.056445 -0.063086 0.000769 -0.013469 0.087147 -0.017471 0.051166 0.037843 0.019049 0.106676 0.090984 0.029250 0.050043 0.012776 -0.055348 0.001508 -0.068406 -0.031020 -0.009782 0.035516 -0.051286 0.039956 -0.061784 0.007112 -0.024263 0.026112 0.024052 -0.059207 -0.001612 -0.015178 -0.071658 0.041030 -0.098282 0.073535 -0.000617 0.072455 0.021715 -0.006142 0.011121 -0.021489 0.021678 0.002631 0.024875 0.023282 0.033719 0.017114 -0.065208 0.016012 -0.019529 -0.033984 -0.048092 0.014172 -0.017805 -0.011331 -0.011046 0.055800 -0.083978 -0.003277 0.014624 0.001148 -0.021883 0.091646 -0.005207 0.047780 0.008585 0.005166 0.024777 -0.079116 0.098945 0.062640 0.002328 0.023550 -0.001445 -0.001188 -0.008249 -0.021830 -0.004877 -0.130845 -0.032268 0.115372 0.033712 0.008719 -0.079723 0.019873 0.067354 0.052750 0.023090 -0.063938 -0.041104 0.014449 0.007557 -0.011537 0.000291 -0.041725 -0.056344 -0.090667 -0.036893 -0.003632 -0.051482 -0.047143 0.002768 0.033857 -0.065308 -0.023310 -0.012818 0.005964 -0.001782 0.086194 0.031234 0.022927 -0.028160 0.008845 0.021270 -0.098058 -0.030328 -0.024289 -0.041814 -0.029236 -0.075254 -0.014427 -0.026579 0.055262 0.013397 -0.009237 0.004726 0.075795 -0.088803 -0.040720 -0.035353 0.023886 0.077478 -0.036439 0.019241 -0.066076 0.008645 -0.031960 -0.011281 0.025889 -0.103960 0.048023 0.102654 -0.070798 0.099289 -0.016465 0.006504 0.006640 -0.006125 -0.079387 -0.080305 -0.119354 -0.024007 0.000186 0.015234 -0.001652 -0.084589 -0.044181 0.000821 -0.042827 -0.098454 -0.007186 -0.085259 -0.025617 0.016698 0.056950 -0.061770 -0.067351 -0.009482 -0.013387 0.000838 -0.016323 0.017508 -0.016810 -0.061725 0.024494 0.047440 -0.094759 0.084426 -0.009505 -0.039107 -0.046600 0.038523 -0.055738 0.061200 -0.034030 0.041004 -0.037675 0.031745 -0.035848 0.010895 -0.037392 0.000636 0.018579 -0.007354 0.040893 0.024627 0.039677 0.014282 0.025941 0.005536 0.000128 0.028267 0.045913 -0.043941 0.043428 0.007823 0.039721 0.037075 0.055080 0.011084 -0.025575 0.034295 -0.005862 0.073309 -0.000053 -0.048938 -0.027312 0.028206 0.000804 0.020628 -0.022772 0.061925 0.024449 -0.032078 -0.036622 -0.020130 -0.001362 0.077818 -0.022378 -0.066909 0.057612 0.037719 -0.045411 -0.035243 -0.021908 0.019616 -0.073731 0.100221 0.069135 -0.020993 0.039168 0.073868 0.056386 0.046643 0.036790 -0.010046 -0.049769 0.005113 -0.022295 -0.053576 0.108166
" 0.025014 -0.044135 -0.010661 0.045524 -0.027139 0.034199 0.002538 0.089402 0.044555 -0.011267 -0.106241 -0.022924 0.045681 -0.027549 0.005875 0.084083 0.014648 0.003172 0.042579 -0.063159 0.074108 -0.036785 0.055203 0.103827 0.055728 -0.023020 0.019940 0.022596 -0.042750 0.091547 0.019213 -0.018511 -0.062229 -0.123348 -0.020729 0.044402 -0.031335 -0.033684 0.023921 0.027807 -0.014972 0.021072 0.011618 -0.034106 -0.019331 0.014412 -0.005159 -0.006262 0.052835 0.002862 -0.022465 -0.011212 -0.066540 -0.007949 0.044412 -0.003959 -0.141066 -0.022270 0.031682 -0.026743 -0.080928 0.117178 -0.032501 -0.027543 0.013051 -0.013875 0.030384 -0.028458 0.067484 0.002715 -0.058821 0.034700 -0.004083 -0.099634 -0.019951 -0.029552 0.042329 -0.015134 -0.056601 -0.051833 -0.108292 0.055896 -0.022008 -0.010448 -0.101077 0.015054 0.037119 -0.045955 0.081862 -0.083914 -0.087385 -0.095589 -0.002944 0.021699 -0.048970 -0.067018 0.041274 0.122512 0.079303 -0.027529 -0.005182 0.059920 -0.032660 0.040170 0.012870 0.046538 -0.002421 -0.005690 0.022396 0.036675 -0.051178 0.002428 0.019504 0.028854 -0.066263 -0.006872 0.039938 0.045224 0.105281 -0.012907 -0.035473 -0.067038 -0.002726 0.043394 0.050719 -0.016470 -0.088492 -0.021670 0.001983 0.033887 0.117575 0.027014 0.000690 -0.034921 -0.079109 0.046640 0.035766 0.037527 0.033031 -0.019418 -0.108750 -0.014692 0.037148 0.024582 0.015023 -0.035426 -0.040995 0.023801 0.054921 0.039731 -0.046135 -0.006762 0.016983 -0.056767 -0.038180 -0.005446 -0.021490 -0.045963 -0.050559 0.023549 0.095186 0.081830 0.026646 -0.109702 -0.007461 -0.038238 -0.039986 0.097911 0.089178 0.137293 0.001366 0.008641 -0.002738 0.005612 0.046493 0.000232 0.037347 0.054936 -0.034182 0.100139 -0.027896 0.002710 -0.034975 0.016045 -0.015412 -0.042813 -0.028294 0.025185 -0.050629 -0.001116 -0.003511 0.036873 0.031613 -0.063960 -0.095814 0.035756 -0.011884 -0.044467 -0.061803 -0.055344 -0.006232 -0.072208 0.021378 -0.008319 0.009800 0.053881 -0.050439 -0.007284 0.013897 0.079394 -0.004528 -0.087187 -0.015178 0.085267 0.093336 0.028399 -0.035349 -0.011844 0.026516 0.043806 0.043358 0.044390 -0.022353 0.092164 0.083875 0.063574 -0.045885 -0.031925 -0.007094 -0.054887 -0.035336 -0.022185 0.004338 -0.031501 0.026692 0.075096 0.004215 -0.087833 -0.010206 0.079320 -0.088789 -0.030315 0.033404 0.029789 -0.019523 -0.027161 -0.023107 0.041653 -0.059317 -0.042146 -0.030733 0.023107 -0.014590 0.030352 -0.027442 0.142026 -0.020845 0.031263 -0.076197 0.073756 0.006264 0.003619 -0.068133 -0.133167 0.077911 -0.058106 0.024784 -0.011209 0.037162 0.011551 0.008716 -0.010550 -0.030909 0.032906 -0.032053 -0.040618 0.064260 0.075446 -0.038480 0.021717 -0.036596 0.043882 -0.035485 0.041035 0.035300 -0.014833 0.013762 -0.039350 -0.048844 0.009332 0.027045 0.029367 -0.106803 0.041817 0.031027 0.027578 -0.017126 -0.012471 -0.082022 -0.006512 0.032781 -0.052645 -0.040440 -0.007486 -0.014779 -0.027212 0.116981 0.060227 -0.042260 -0.010825 -0.035247 -0.003785 -0.036700 0.019207 0.082642 -0.066325 0.037375 -0.037781 0.010652 -0.043527 0.022511 0.027201 -0.022141 -0.083369 -0.022493 0.058534 0.037604 -0.060618 0.033538 0.007154 -0.014151 0.024079 0.041991 -0.081895 0.022134 -0.016474 0.011831 0.030108 0.012164 -0.011342 0.036539 0.011388 0.055044 0.006975 0.052694 -0.072291 0.040716 -0.059239 -0.034170 0.036260 -0.011311 0.027867 0.024304 -0.006617 -0.041081 -0.023182 0.075408 -0.016782 0.006985 0.005901 -0.022062 -0.116943 0.000710 -0.000024 -0.015324 -0.036098 -0.003866 -0.008600 0.076703 -0.040408 0.014919 0.045255 0.032136 -0.015101 -0.012792 -0.000219 0.034230 -0.063586 0.009683 -0.061509 0.031558 -0.001296 -0.097039 0.097034
$ 0.029238 -0.013709 -0.084150 0.016526 0.031811 -0.048600 0.038529 -0.004960 0.049716 0.022183 0.063643 -0.043424 0.086487 0.051252 -0.132614 0.045823 -0.083514 0.029408 0.027050 0.069049 0.056397 -0.202921 0.030580 0.019722 0.044042 -0.101915 -0.095198 0.034978 -0.001150 0.024628 -0.037976 -0.030478 0.027708 0.027126 -0.033125 -0.001975 -0.002048 -0.026078 -0.060400 0.005215 0.092853 0.033067 0.030475 -0.045236 -0.054305 0.010621 -0.039238 0.068300 0.006143 0.030786 -0.001313 0.010135 -0.012561 -0.078718 0.041507 -0.054777 -0.121508 0.008367 0.030874 -0.006635 -0.052467 0.037835 0.029404 -0.021069 0.033556 0.055066 0.053568 0.022583 0.065851 -0.028721 -0.033114 0.065047 -0.010146 -0.034848 0.006822 0.013344 0.057942 -0.038950 -0.043689 -0.033338 -0.045023 0.021261 -0.032910 0.014641 -0.013902 -0.046537 -0.015873 0.006999 0.028763 -0.087616 -0.085957 -0.000788 0.018002 0.061539 0.033599 0.000276 0.001143 0.124562 0.079556 0.044212 -0.025696 0.059511 0.005998 0.056279 0.010468 0.011503 0.006171 -0.029600 -0.040162 0.019445 0.019754 0.055898 -0.042473 0.086466 -0.002813 -0.061588 0.050068 0.025858 0.046151 -0.021550 0.054250 -0.022422 -0.027023 0.033263 0.001768 0.055910 -0.028641 -0.071769 0.037381 -0.005410 0.018854 0.080536 -0.021164 -0.020069 0.044459 0.018931 0.071449 -0.067151 -0.080701 -0.039432 -0.037436 0.011929 0.002889 0.054353 0.028611 -0.004645 -0.025308 0.028104 -0.054281 -0.035368 -0.034068 -0.026383 0.006506 -0.017639 0.021626 -0.007452 -0.005821 0.070843 0.021806 -0.022954 -0.131881 0.135160 0.053885 0.020298 -0.053198 -0.064604 -0.007460 0.071008 0.064394 0.049611 0.022797 0.032663 0.025474 -0.031408 0.063630 0.064116 0.042129 0.019613 -0.017620 0.005235 0.090728 0.001566 0.054398 -0.058641 -0.051863 -0.029728 0.023972 -0.011830 -0.027130 -0.023754 0.020799 -0.038232 -0.042098 -0.034864 -0.063125 0.011196 0.023737 0.021540 -0.072344 0.032546 -0.006431 -0.008721 0.006486 0.062898 0.026319 0.050534 -0.024210 0.049078 -0.020066 0.006277 0.043626 -0.019094 -0.029266 0.039532 0.060685 0.095918 -0.003563 -0.018274 0.052465 0.060886 -0.059348 -0.031965 -0.058995 0.017408 0.032936 0.032043 0.019048 -0.026525 -0.033900 -0.038201 -0.063173 -0.039334 -0.058617 0.077749 0.042205 -0.001575 -0.024334 -0.014448 -0.043420 -0.001395 -0.062627 -0.021932 0.025222 -0.029312 -0.015770 -0.018696 0.024467 -0.014692 -0.063220 -0.012141 -0.021380 -0.041184 0.053837 -0.020687 -0.039204 0.018539 0.022659 -0.003459 -0.002636 -0.002201 0.009281 -0.025152 -0.085241 -0.073908 0.022105 0.014039 -0.043582 -0.014269 0.003739 0.037842 0.008115 0.025161 -0.010555 0.047780 -0.071714 -0.027213 -0.010229 -0.031321 -0.114008 -0.014938 -0.005686 -0.028944 0.068194 -0.018280 -0.042642 0.047882 -0.005179 -0.071286 -0.008085 0.002033 0.050699 -0.085047 -0.025630 0.103915 -0.047117 -0.046667 -0.007670 0.009316 -0.022848 -0.064357 0.041754 0.012017 -0.044532 -0.033735 0.031588 -0.064987 -0.004908 0.052014 0.017498 -0.042172 0.025860 -0.019820 0.076767 -0.040657 0.023956 -0.036005 0.077873 -0.066349 0.056529 -0.059720 -0.042810 0.035209 0.007920 0.029681 -0.048514 -0.065372 0.048623 0.060197 0.052031 0.018178 0.027751 0.041370 0.015721 -0.009084 0.049102 -0.044688 0.045916 0.043790 -0.028336 -0.009989 -0.013520 0.049145 -0.008424 0.028634 -0.045885 -0.026092 0.022651 -0.061324 -0.048583 0.035977 0.029894 0.058649 -0.002969 -0.071239 0.025080 0.032866 0.027668 0.095401 0.013535 -0.036367 -0.072135 0.030075 -0.023122 0.066619 -0.025112 -0.023657 -0.013805 0.016798 0.031138 -0.013346 0.015106 0.030730 -0.016631 -0.042346 0.015049 0.021481 0.024119 -0.052084 0.014696 -0.010629 0.021161 0.023121 -0.008258 0.034390
' 0.027830 0.015644 0.007072 -0.050384 0.021226 -0.091369 -0.028749 -0.009529 -0.007662 -0.043106 0.043501 -0.025520 0.084686 0.005875 -0.150239 -0.000756 -0.008920 -0.004069 -0.035072 0.015628 0.093722 -0.051028 0.067424 -0.014145 0.005083 -0.125053 -0.053511 0.021264 -0.031427 0.038580 -0.045238 -0.053270 0.027444 -0.024276 0.050220 -0.047068 0.068858 -0.049128 0.019102 -0.007027 0.025727 0.067542 -0.003307 -0.028924 -0.027648 0.017083 -0.023298 0.047169 0.054596 0.013573 0.014912 0.087268 -0.013741 -0.028586 -0.006543 -0.029571 -0.107192 -0.010774 0.005673 0.062627 0.008861 -0.008758 0.007094 -0.062473 0.069275 0.042439 0.022734 0.001749 0.014875 -0.037827 0.022782 0.054318 -0.051358 -0.033131 -0.013747 0.034374 0.040095 -0.003581 0.004701 0.038279 -0.039963 0.066554 -0.013389 -0.044373 -0.056773 -0.049514 0.055931 0.039071 0.010838 -0.002501 -0.029241 -0.038566 0.027746 0.064608 0.056693 -0.044126 0.007224 0.050283 0.141462 0.082749 0.015733 0.021497 0.029127 0.034982 0.025661 0.011820 0.036171 -0.037767 -0.025983 0.041799 -0.076357 0.003228 -0.009024 0.106537 -0.018941 -0.057714 0.019424 0.024061 0.066328 -0.002180 0.012749 -0.038646 -0.089604 0.063067 -0.018299 0.038723 0.063058 0.015805 -0.007061 -0.020586 0.029635 0.023931 -0.078535 -0.037965 0.009346 -0.007214 0.005643 -0.052945 -0.073779 -0.031732 0.033896 0.084180 -0.004905 -0.011874 0.007989 -0.015504 -0.068608 0.030300 -0.041889 -0.019549 -0.008618 -0.043700 -0.049042 -0.010540 0.053980 0.030383 -0.052683 0.004874 0.059207 -0.022572 -0.012781 0.151252 -0.019454 -0.019515 -0.008946 -0.031661 0.000121 0.038678 0.020011 0.046569 0.033054 0.009593 -0.119547 0.028217 -0.004500 -0.014863 0.016973 -0.074592 -0.018828 -0.000378 -0.034829 -0.012757 0.030338 -0.029332 -0.034945 0.031469 0.058727 0.049851 -0.032928 -0.069602 0.031849 -0.027955 -0.054092 -0.021589 -0.027879 -0.003149 0.007479 0.018938 -0.040929 0.002838 -0.051086 0.014663 0.002983 0.098287 0.061554 0.007993 -0.041761 0.055079 -0.045889 0.058177 0.046380 -0.034583 -0.047685 0.106889 0.086548 0.090473 0.004009 0.003562 0.000110 0.043836 0.000314 -0.014351 -0.014812 -0.021111 0.013114 0.028346 0.047209 0.015008 -0.012747 0.017040 -0.092264 -0.004037 -0.056912 0.093495 0.005200 -0.012026 0.045235 -0.009955 -0.010126 0.020901 -0.006225 -0.027392 0.105725 0.020061 0.031043 0.014171 0.011723 -0.088876 -0.017201 0.003027 -0.001582 -0.015769 0.060522 -0.057898 -0.027648 0.006164 -0.014786 0.049265 0.002403 -0.079079 0.005971 -0.065410 -0.054206 -0.059711 -0.020231 0.031969 -0.016847 -0.023133 -0.025193 0.051439 0.000393 0.010814 -0.046729 0.050046 -0.063851 0.036444 0.001577 -0.024964 -0.051893 -0.041261 -0.053850 -0.051271 0.050964 0.045289 0.034635 -0.010056 0.048878 -0.058388 -0.008222 -0.029835 0.004878 -0.057666 -0.043981 0.071912 -0.100299 -0.058124 0.035440 0.099280 -0.013170 -0.023923 0.088437 -0.002196 -0.051652 -0.022466 -0.078843 -0.022806 -0.001315 0.028087 0.037470 -0.026752 0.063203 -0.007129 0.052687 -0.051865 0.034712 0.010704 0.027277 -0.074119 0.044321 -0.015349 -0.053297 0.014934 -0.004739 0.019452 -0.003604 -0.032055 -0.031559 0.082940 0.059209 0.010322 0.003589 0.043955 0.023546 -0.031651 0.061585 -0.011573 0.061925 0.021436 -0.013887 0.025281 0.064888 0.003979 0.009254 0.052217 0.005168 -0.024111 0.050802 -0.039884 0.007926 0.030725 0.059114 0.000051 0.013878 -0.020324 -0.037133 -0.012092 0.090091 -0.015430 0.013216 0.023569 -0.043385 0.034464 -0.008780 0.001332 -0.041743 0.032359 -0.040712 0.022337 0.009414 0.021194 0.051398 0.043118 0.064310 -0.109655 -0.000610 0.034904 0.085334 -0.038290 -0.036203 -0.027686 -0.006423 0.011989 0.032687 0.021132
( 0.042224 -0.056993 0.000591 0.018379 0.004786 -0.011018 -0.040725 0.039049 0.026236 -0.070998 0.082372 0.003666 0.136344 0.047231 -0.025434 0.026606 0.046994 0.042136 0.006078 -0.016220 0.111201 -0.061261 0.051094 0.055903 0.053903 -0.046280 -0.059299 -0.011689 -0.034813 -0.032327 -0.083947 -0.054556 -0.025428 -0.007728 0.076339 0.064164 -0.030095 -0.055650 0.020396 0.062589 0.006755 -0.014016 0.036990 -0.012787 -0.001871 0.053267 0.064808 0.006741 0.016998 0.021605 -0.000788 0.077812 -0.066369 -0.036379 0.078932 -0.041331 -0.109110 0.037264 0.025275 -0.012882 -0.024682 0.071743 0.041928 0.053305 0.045713 0.065552 0.039617 0.064007 0.082556 0.006360 -0.056404 -0.032347 0.031274 -0.002297 -0.049060 -0.015279 0.024344 -0.027248 -0.007706 -0.091881 -0.093342 0.005048 -0.072073 -0.008653 -0.050187 0.012288 0.038038 0.075069 -0.010828 -0.059073 -0.038440 -0.052772 0.029117 -0.099103 -0.021922 -0.011412 0.105939 0.036336 0.039568 -0.011378 -0.014519 0.004809 0.022309 0.033178 0.008517 0.011927 0.036980 -0.037352 0.036843 0.020316 -0.046959 -0.020687 -0.028350 -0.010402 0.036630 -0.054400 0.012927 0.046987 0.098210 -0.010062 0.060002 -0.040432 -0.070808 0.029955 0.023764 0.036289 0.033583 -0.040124 0.046449 0.031949 -0.000831 0.008001 -0.012118 -0.128760 0.013239 0.078807 0.081767 -0.033151 -0.004441 -0.022503 -0.017325 0.011913 0.031641 0.041722 -0.039990 -0.011048 -0.049946 -0.009389 -0.061202 0.052930 -0.045696 0.031628 0.003495 -0.009084 0.072229 0.028793 -0.124496 -0.039862 0.035295 0.031399 0.003222 0.046575 -0.028442 -0.024320 -0.022324 -0.005502 -0.024447 0.064538 -0.017846 0.045464 0.075256 -0.011904 -0.044476 -0.028383 0.084843 0.032003 0.051231 -0.041796 -0.072993 0.016376 0.072693 -0.020502 -0.010039 -0.021130 -0.035517 0.038269 -0.058784 0.063717 -0.121594 0.036358 -0.050359 -0.048386 0.008215 0.029119 -0.046875 0.096295 -0.012516 -0.021038 -0.053397 -0.023103 0.000248 -0.022840 -0.015150 0.060115 -0.053679 0.079897 0.005518 -0.028934 -0.035874 0.039717 0.012152 -0.012272 -0.003168 0.043700 0.056985 0.124073 -0.043596 -0.022365 0.048899 -0.007919 -0.091657 -0.037213 0.058411 0.061288 -0.006427 0.055003 0.008306 -0.036745 -0.020792 -0.007286 -0.028649 0.006443 -0.107441 -0.055385 0.016376 0.018783 0.010399 -0.004156 0.007636 0.081019 -0.059980 0.034844 0.036485 -0.073013 -0.039227 -0.012216 -0.047713 0.004872 0.023415 -0.089390 0.014464 -0.041563 0.037289 -0.007732 -0.016627 0.022502 -0.069790 0.079840 0.004581 0.017901 0.051066 -0.041108 -0.014781 0.041619 -0.005630 0.026083 0.007995 -0.041115 -0.006388 0.043445 0.005031 0.052289 0.035570 0.032826 0.013890 -0.048847 -0.005011 -0.048142 -0.038269 -0.001489 -0.060857 0.015857 0.067785 -0.029765 0.038089 0.076124 0.034698 0.015288 -0.072574 -0.055575 0.021859 0.007335 0.037614 0.030872 0.020364 0.064390 0.035525 0.076331 -0.064350 0.003885 -0.058820 0.030730 -0.026517 -0.072663 -0.002844 -0.049423 0.029634 0.008561 -0.010528 0.011932 -0.072750 0.010525 -0.075097 -0.021447 0.038413 -0.037728 0.040594 -0.018680 0.043267 -0.025805 -0.041707 0.035928 -0.074992 -0.062355 -0.064043 0.104745 -0.000508 0.000236 0.064426 0.010523 0.028207 0.007622 0.046669 -0.081898 -0.019810 0.010493 0.059301 -0.053236 0.006700 0.015372 -0.074877 0.081976 0.043091 0.006406 0.017228 -0.022979 -0.018962 -0.042293 0.017947 0.086668 -0.027991 0.009278 0.022101 0.019203 -0.026814 0.003789 0.015644 -0.012653 -0.023881 -0.063308 -0.094344 0.028866 -0.011071 -0.044261 0.021557 -0.003074 -0.030401 0.009916 0.064369 -0.049944 0.038188 -0.000498 0.062344 -0.087045 -0.012574 0.013420 0.021419 -0.012922 0.030457 0.007432 -0.001990 0.068331 -0.038933 0.139328
) 0.060770 -0.020846 0.014308 -0.005302 -0.017646 -0.012684 0.009879 0.093920 -0.006957 -0.020151 -0.050844 -0.002443 -0.002152 0.000346 -0.042011 -0.020901 -0.092832 0.042243 0.112754 -0.017126 0.079248 -0.022818 0.022720 0.032649 0.028765 -0.001047 -0.030376 -0.044261 -0.018525 0.033696 -0.021612 -0.015712 0.008878 -0.048172 0.022373 0.016743 -0.003514 -0.021994 -0.044007 0.055020 0.054599 0.085922 0.045144 -0.026709 -0.051132 0.038602 0.022277 -0.008047 0.003331 0.052887 0.017480 0.070020 0.001376 -0.000567 -0.041889 0.005347 -0.071087 -0.015454 0.011586 0.000926 -0.042377 0.068580 -0.039285 -0.008244 -0.010542 0.058282 0.009311 0.006594 0.043516 0.011787 -0.039622 0.011618 -0.017477 -0.036339 0.037498 0.015634 0.039327 -0.044767 -0.030174 -0.077296 -0.052906 0.054175 0.005627 -0.028280 -0.071838 0.004224 -0.019041 0.018081 0.037905 -0.060048 -0.087255 -0.067607 0.041382 -0.015035 0.021304 -0.006545 0.050828 0.041606 0.046680 0.035347 -0.007585 0.036715 -0.061627 0.058212 0.048758 0.053519 -0.014248 -0.010394 0.008715 -0.001672 -0.045572 -0.000824 0.017412 0.003972 -0.022741 -0.058635 0.034453 0.022254 0.004417 -0.006166 0.069150 -0.027568 -0.063784 -0.009255 0.013186 -0.060987 -0.077978 -0.040673 0.044131 0.032348 0.010835 0.073385 0.054577 -0.089161 -0.005042 0.016297 0.071167 -0.050061 -0.012252 -0.026892 -0.024836 -0.039807 0.060475 -0.009053 0.029647 -0.027548 -0.056821 0.046217 -0.024090 0.029448 -0.034677 0.004155 0.016766 0.020132 -0.002358 0.033503 0.006730 0.058952 -0.049948 0.010885 -0.015776 0.098968 -0.022983 -0.071144 -0.024512 -0.041565 -0.019383 0.029007 0.015454 0.061882 0.024603 0.035779 -0.028184 -0.006885 -0.059122 -0.039557 0.025105 0.018699 -0.042359 0.059060 0.018001 0.004590 0.062322 0.030015 -0.077223 -0.014419 0.020135 0.028233 -0.040709 0.032822 0.017766 0.018629 0.006937 -0.007858 -0.009192 0.036929 0.010980 0.044537 -0.047895 -0.046832 -0.024517 -0.045916 -0.021315 0.060885 0.006809 0.012896 -0.038650 -0.055762 -0.052869 0.020792 0.019024 -0.071202 -0.004356 0.043654 0.042546 0.015800 -0.050322 0.022943 0.087774 0.032969 0.019099 -0.025058 -0.035775 0.062859 0.060048 0.043924 0.043439 -0.006214 0.008128 -0.022187 -0.045716 -0.119902 -0.029856 -0.008446 0.024537 0.034327 0.005363 -0.014156 -0.020212 0.047823 -0.059222 0.009735 0.022981 -0.020440 -0.005018 -0.003805 -0.000737 -0.048927 -0.027921 0.013347 -0.009053 -0.000081 -0.009543 -0.075132 -0.016056 -0.000384 0.016711 0.047918 0.039618 0.004448 0.001805 0.027195 -0.016396 -0.066776 0.043053 -0.006974 -0.001868 0.019864 0.029040 -0.073601 0.052569 0.052952 -0.047331 0.020287 -0.030388 -0.047233 0.019711 0.032654 -0.038232 -0.007036 0.086833 0.034840 0.070333 -0.036621 0.011646 0.011093 0.015248 -0.007471 -0.048444 -0.005399 0.035103 -0.013777 -0.075553 0.097652 -0.055033 -0.053508 -0.001858 0.036107 -0.064366 -0.022324 0.046806 0.006400 -0.009004 -0.087139 0.006209 -0.003810 -0.012584 0.028845 0.003610 -0.038179 -0.023445 0.061825 -0.050518 -0.055394 0.025147 -0.060904 -0.026718 0.060709 0.028367 0.013407 -0.004233 0.011161 -0.005988 -0.030124 -0.017947 0.004474 0.023730 -0.069264 0.010280 0.000094 0.023846 -0.005802 0.024420 -0.024676 0.068649 0.048536 0.014610 -0.030877 0.049607 -0.014246 -0.013895 0.045096 0.043583 -0.049280 0.049610 -0.066014 0.042879 0.025597 -0.025437 0.040253 0.031120 0.037577 0.028480 0.002347 0.058977 0.002269 0.015199 -0.006860 0.015551 -0.016330 0.012357 -0.037371 -0.028262 0.038238 -0.042119 -0.041464 -0.017570 -0.021150 0.011622 -0.006375 0.052810 0.018638 -0.008029 -0.038390 0.016025 0.028541 -0.000478 0.055122 -0.022528 -0.018172 -0.052457 -0.002933 -0.090132 0.032616
* 0.062320 -0.014331 -0.026257 0.009396 -0.062073 0.008517 -0.032485 0.000150 -0.057718 -0.008818 0.075515 0.018066 0.072664 0.009567 -0.089178 0.046093 -0.021145 0.053156 0.006944 0.004842 0.007657 -0.114389 0.040958 0.033488 0.049247 -0.076409 -0.067998 0.022175 -0.056788 0.014190 -0.036675 0.005157 0.038202 0.034563 -0.039008 0.040317 -0.039867 -0.008152 -0.020138 -0.053025 0.072511 0.010334 0.083890 -0.036219 -0.042171 -0.022472 -0.035306 0.032578 0.019364 0.029162 -0.001101 -0.003243 -0.009324 -0.080862 0.080057 0.007926 -0.113153 -0.018029 0.011411 0.025686 0.015406 0.086355 0.067185 -0.039459 0.034276 0.120765 0.001155 -0.051883 0.057472 -0.074356 -0.007321 0.045620 0.001702 -0.004875 -0.061410 -0.001236 0.053524 -0.017994 -0.060053 -0.002334 -0.029135 0.024508 -0.034992 -0.006590 -0.017336 0.021226 0.025532 0.002619 0.010639 0.002785 -0.081859 -0.020171 -0.036177 -0.045309 0.017068 0.025661 -0.015102 0.016558 0.006235 0.017016 0.014448 0.062464 -0.012697 0.021760 0.031030 0.047083 0.057204 0.016619 0.000473 -0.000350 -0.018687 0.021683 -0.008039 -0.033097 0.009751 0.011252 0.025886 0.007983 0.066578 -0.016073 0.043082 0.047234 0.017528 0.002961 0.002021 0.043711 -0.090960 -0.039466 0.059736 -0.056652 -0.006263 0.083704 0.000586 -0.059029 0.044305 -0.036590 0.099062 -0.056057 0.036571 -0.053239 -0.054513 -0.017714 0.023134 0.033178 -0.002020 -0.030136 -0.062478 0.018386 0.010010 -0.019356 -0.006510 -0.064671 -0.025377 -0.005275 0.045937 -0.026883 -0.077313 0.031484 0.018152 -0.035850 -0.055853 0.105944 0.046072 0.003939 -0.049797 -0.044569 0.009518 0.078818 0.040167 0.076671 0.040364 0.007988 -0.018986 -0.069772 0.011194 0.002921 -0.002747 0.044704 -0.044755 0.014989 0.124502 -0.044919 0.058905 -0.024237 0.012161 -0.006185 0.033487 -0.031481 -0.064850 -0.071551 -0.009849 0.013474 -0.028927 -0.044975 -0.141920 0.031602 0.058359 0.019374 -0.012954 -0.017110 -0.042524 -0.068405 -0.032554 0.033672 -0.030801 0.022660 -0.094185 0.029962 -0.057929 0.075965 0.008317 -0.032611 -0.040231 0.067652 0.050786 0.034415 -0.096612 0.031721 0.008056 0.016170 -0.052440 -0.014250 -0.043648 0.058737 0.084428 0.097597 -0.025339 -0.062325 -0.066168 -0.005284 -0.033357 -0.070921 -0.053087 -0.021126 0.019652 -0.024713 0.016766 0.003283 0.030686 -0.009668 -0.066422 -0.012937 -0.007628 -0.005539 -0.031761 -0.026267 -0.016253 -0.039834 -0.106234 -0.048472 0.048080 -0.045195 0.087501 -0.044815 -0.043169 0.063352 0.026923 -0.024180 -0.027205 -0.016370 0.026870 0.010203 -0.063649 -0.043634 0.059645 0.029878 -0.057333 -0.044638 0.077911 0.038015 0.062343 0.058422 0.002752 -0.017982 -0.059973 -0.019254 -0.003762 -0.033780 -0.050043 -0.033967 -0.013461 -0.002164 0.076573 -0.027283 -0.051008 0.070488 0.040070 -0.064058 -0.039734 -0.002657 0.015488 -0.035830 -0.011905 0.082057 -0.113776 -0.058523 0.012359 0.048947 0.013714 -0.016748 0.067788 -0.051593 -0.023711 -0.026958 0.002222 -0.072213 0.038119 0.033251 0.011066 -0.060126 -0.003899 0.014152 0.044785 -0.020036 0.016320 -0.004854 0.027195 -0.026172 -0.007399 -0.038783 -0.068537 0.029601 0.024714 0.047906 -0.033481 0.025920 0.017804 -0.022716 0.083510 0.003577 0.019848 0.044716 0.065624 -0.000746 0.040295 0.049817 0.011990 -0.014657 0.039421 -0.050396 0.047727 0.018034 0.036831 0.040038 -0.067293 -0.082460 -0.002088 -0.001309 -0.041501 0.089948 -0.008476 0.052673 -0.059557 -0.077247 0.003271 0.005090 0.032362 0.002868 0.040338 -0.002675 -0.073350 -0.007997 -0.048875 0.002929 -0.045672 -0.041163 0.044169 0.030082 0.068865 -0.000676 0.087650 0.050067 0.015361 -0.043136 0.015133 0.003821 0.001079 -0.031179 0.000670 0.009962 0.064560 0.017584 -0.027333 0.030613
+ 0.028921 -0.023746 -0.064377 0.006403 0.007763 -0.050667 0.026063 0.002903 0.034880 0.008012 0.005807 -0.032264 0.065832 0.024788 -0.076733 0.015076 -0.110888 0.049102 0.017235 0.077947 0.052735 -0.108322 0.033555 0.017797 0.037103 -0.039370 -0.125227 0.006660 -0.046134 -0.015150 -0.038750 -0.040533 0.049813 -0.002435 -0.025859 0.017926 0.013579 -0.013027 -0.032529 0.012320 0.012368 0.015036 0.039232 -0.082189 -0.026713 0.020088 -0.006382 0.007581 0.056977 0.071032 0.007000 0.055735 -0.040511 -0.037858 0.029081 -0.061558 -0.098517 -0.025112 0.018678 0.024228 -0.056714 0.028913 0.039419 -0.043128 0.025291 0.065613 -0.008901 0.026931 -0.014845 -0.056752 -0.021914 0.002729 -0.042122 -0.072353 -0.023689 0.057355 0.033118 -0.030740 -0.051663 -0.020994 -0.056217 0.043138 -0.042376 0.001708 -0.014384 -0.062687 -0.004961 0.003186 0.005014 -0.036853 -0.042334 -0.021053 0.079860 0.106679 0.000231 0.014083 0.042542 0.076442 0.071626 0.037218 -0.013712 0.015952 0.021421 0.071085 -0.007001 0.032871 0.034403 -0.065379 -0.007312 0.035718 -0.056954 0.069370 -0.063793 0.057175 -0.012556 -0.035914 0.042748 0.047707 0.115763 0.024830 0.036008 -0.016264 -0.038097 0.067848 -0.057328 0.044691 -0.036435 -0.068868 0.020187 -0.019528 0.063676 0.049368 -0.042342 -0.021919 0.017209 -0.012999 0.005261 -0.039699 -0.044040 -0.052377 -0.025778 0.005756 0.015170 0.039968 0.020502 0.022316 -0.005690 0.037059 -0.040072 -0.024394 -0.051886 -0.019722 -0.059518 -0.019591 0.043526 -0.007760 -0.027387 0.064571 -0.007549 -0.014092 -0.075884 0.099170 0.035849 -0.053814 -0.024722 -0.031330 0.002416 0.012923 0.055680 0.045471 -0.013813 0.038386 -0.020376 -0.007342 0.046030 0.063630 0.028711 -0.000191 -0.009357 0.029714 0.060728 -0.025237 0.050645 -0.025169 -0.050841 -0.016254 0.016796 0.016485 -0.037633 0.034000 0.008836 -0.000525 -0.014435 -0.089092 -0.050324 0.048248 0.040994 -0.000589 -0.087563 -0.012655 0.013305 -0.016444 -0.092898 0.044321 -0.054807 -0.001497 -0.031017 0.051763 -0.049450 0.058895 0.013173 -0.068235 -0.069155 0.053212 0.020025 0.078749 -0.058919 -0.016752 0.074421 0.036905 -0.040495 -0.031114 -0.027333 0.062180 0.024086 0.034859 0.047331 -0.034567 -0.007309 -0.096481 -0.073401 -0.019811 -0.024861 0.044337 -0.018694 -0.031706 -0.044810 -0.026939 0.015642 0.026984 0.008819 -0.012168 0.011033 -0.044071 0.007127 -0.063811 0.055151 -0.023737 -0.052357 -0.051247 -0.006320 -0.036304 -0.000406 -0.071000 -0.048154 0.034362 -0.005954 0.014153 -0.022597 -0.037334 -0.051776 0.000793 -0.059145 -0.012064 0.041998 0.024835 -0.033591 -0.042182 0.012283 -0.036756 0.068421 0.022273 -0.028703 0.042133 -0.057011 -0.039710 0.027565 -0.013131 -0.021674 -0.032484 -0.008249 0.006271 0.043351 0.009035 -0.064251 0.060365 -0.007251 -0.015656 -0.032615 0.025653 0.056421 -0.028390 -0.017612 0.096058 -0.006303 -0.053245 -0.001598 0.045076 -0.047969 -0.035151 0.035931 -0.027968 -0.031634 -0.061167 -0.000009 -0.053439 0.018135 -0.006020 0.001433 -0.042536 0.040896 0.041265 -0.001823 -0.053792 0.052595 -0.038934 0.055735 0.006996 0.003407 -0.041019 -0.047438 0.029265 -0.029857 0.011583 -0.034962 -0.038345 0.063225 0.037967 0.053750 0.024357 0.020539 -0.019929 -0.035037 -0.019911 0.029749 -0.006060 -0.006604 0.073283 -0.078668 -0.007800 0.005715 0.007395 0.003132 0.035257 0.027970 -0.016689 0.044675 -0.044679 -0.017031 -0.009960 0.038045 0.038829 -0.073101 -0.012233 0.028641 0.003088 0.020717 0.031315 -0.005195 -0.017379 -0.053472 0.005253 -0.045511 0.059358 -0.044894 0.000397 -0.026531 0.005234 0.002130 -0.035730 0.050883 0.010351 -0.047867 -0.026095 0.024711 0.032546 0.036235 0.015882 -0.060433 -0.012951 0.031680 0.020718 -0.040906 0.017351
, 0.058786 0.034112 -0.005335 -0.015145 -0.051471 0.025390 0.000772 0.040585 0.008627 -0.001440 0.009311 0.018676 -0.027227 -0.028861 -0.088219 0.030751 0.003980 0.081221 0.035835 0.015111 0.044762 -0.026120 -0.074029 -0.036271 -0.011295 0.003224 0.012393 -0.069825 0.035995 0.047634 0.067766 -0.005379 -0.019242 -0.019137 -0.008210 -0.011425 -0.081389 -0.021943 -0.088507 -0.009534 -0.041408 0.006135 0.090005 0.003481 -0.050348 0.027839 0.026224 -0.053726 -0.003773 0.021730 0.008518 0.039421 -0.049444 0.002765 -0.030923 0.008164 0.004847 -0.059249 0.009529 -0.028385 -0.040710 0.032535 -0.023956 0.010518 -0.007280 0.065856 0.011689 -0.038262 -0.034778 0.010795 -0.014747 -0.025946 0.018595 0.028423 0.063065 0.020956 0.052775 -0.011307 -0.063709 0.011906 0.043043 0.008767 -0.006909 0.067219 0.011710 0.049334 -0.023588 -0.035247 0.033982 0.009189 -0.014008 0.007591 -0.030659 -0.005962 0.021924 -0.028145 0.030529 -0.041713 -0.010895 0.048528 -0.010222 0.024743 0.006636 0.026866 -0.049178 0.056850 0.000001 -0.008955 0.012628 -0.082768 -0.012599 0.004234 -0.009194 -0.057067 -0.058227 -0.017403 -0.060391 -0.015860 0.017014 0.032714 -0.007759 -0.057762 -0.030239 0.003510 -0.021797 -0.031633 -0.027461 -0.012539 0.004061 0.054583 -0.023983 0.007555 0.052216 -0.014596 -0.002658 0.024621 0.005639 -0.022734 0.044252 -0.038230 -0.015504 0.028145 0.067603 0.001977 0.025393 0.051843 -0.002679 0.022631 -0.025107 0.063113 0.006116 0.042602 0.026037 0.073427 -0.019655 0.029413 -0.027336 0.001806 -0.030309 -0.003171 0.016647 0.040011 -0.017927 -0.014822 -0.008117 0.032621 -0.070869 -0.041746 -0.064960 0.055772 -0.052636 -0.013162 0.043462 -0.030908 0.000964 -0.000478 -0.024506 0.046356 0.007036 0.011498 -0.011242 -0.021121 0.007687 0.028914 -0.004670 0.010870 -0.014311 0.002212 0.011833 0.080262 -0.022197 0.021082 0.030032 0.057330 -0.016308 -0.000908 0.014258 0.013534 -0.038249 0.018492 0.016488 -0.075821 0.056519 0.030168 -0.032121 0.011281 -0.041432 -0.059791 0.003051 -0.047396 -0.047513 -0.033256 0.012375 -0.023989 -0.004953 0.025992 -0.006076 0.051452 0.029967 0.043248 0.028212 0.024981 -0.033888 0.045747 0.070660 0.007253 0.007616 0.005299 -0.013392 0.028123 -0.025579 -0.014268 -0.016684 -0.054605 -0.016906 0.002492 -0.023878 -0.010560 -0.090563 0.006853 -0.021085 0.049829 0.015102 -0.027490 -0.054128 0.026237 -0.034196 0.013154 0.032463 0.033306 -0.019695 0.051185 -0.022027 -0.014841 0.009424 -0.014432 0.002082 -0.040112 0.055129 0.070480 -0.035441 0.020556 0.036181 -0.020257 -0.025113 -0.005295 0.001671 0.025704 0.039807 -0.006523 -0.017669 0.021030 -0.017292 0.051775 -0.036019 -0.039037 0.032310 -0.001966 -0.048238 0.021872 0.066046 0.028297 0.002796 -0.042432 -0.001317 0.068820 -0.055922 0.012351 -0.014266 -0.038873 -0.011736 -0.034051 0.006549 -0.068277 -0.011309 -0.075745 0.047325 -0.032544 -0.040101 -0.017154 -0.028538 -0.042558 0.003784 0.035216 0.032974 0.017202 -0.035206 0.041919 -0.011764 -0.084811 0.021125 0.000220 -0.007165 -0.053442 0.035107 -0.015454 0.002761 0.035234 0.090378 -0.007131 -0.003841 -0.059045 0.056197 0.041619 0.013782 0.041599 -0.060784 -0.000414 0.025501 0.013781 -0.024240 -0.020850 0.006673 -0.028537 -0.042438 0.047630 0.017102 0.024398 0.057298 0.044976 -0.020277 0.044782 0.044856 -0.043620 0.053694 0.009512 0.011398 0.053027 0.024927 0.013824 0.027492 -0.019956 -0.006458 0.023834 0.010965 -0.010162 0.012423 -0.022325 -0.050964 0.063542 0.023425 -0.006152 0.000825 -0.026351 0.000025 0.041411 0.064089 -0.045672 -0.003204 -0.053689 0.097484 -0.039900 -0.008607 0.039878 -0.026401 0.039626 0.063745 0.039299 0.038740 -0.010379 -0.061756 -0.039408 -0.073063 -0.009386
- 0.009737 -0.064278 0.038156 0.026086 -0.073690 0.036238 0.090845 0.059292 -0.041217 -0.046212 0.046778 0.090455 0.010944 0.003978 -0.089371 -0.001956 -0.001009 0.083354 -0.068310 -0.010942 -0.006556 -0.027977 0.039354 0.005976 -0.024140 0.039247 -0.034927 -0.078545 0.058826 0.032834 0.066606 0.008926 -0.028428 0.019913 0.047608 -0.062956 0.052915 0.001275 -0.073564 -0.031108 0.025693 -0.036223 0.002349 0.035919 -0.061030 0.006184 -0.004255 -0.010309 0.091875 0.032064 -0.015380 -0.014998 -0.040482 -0.113057 -0.031924 0.022366 0.001548 0.015656 0.006861 -0.023777 -0.086464 0.005925 -0.018318 -0.001604 -0.068027 -0.018224 -0.020336 -0.033910 -0.061245 -0.115558 -0.033625 0.003693 -0.016481 0.027455 -0.001575 -0.033811 -0.027669 0.002996 0.023355 -0.010435 -0.096869 -0.013988 -0.025825 -0.022225 -0.034905 -0.043679 0.025498 0.072881 -0.021336 -0.024994 -0.016151 0.029846 0.053986 0.078247 -0.024826 0.029505 0.011683 -0.027427 -0.009326 0.016104 -0.002495 -0.062577 0.004645 0.068966 -0.040113 -0.097181 -0.023899 0.021997 -0.008370 -0.080413 -0.047709 0.015089 0.099284 -0.023814 -0.035761 0.008908 0.041210 0.066359 -0.070396 -0.009746 -0.091924 0.044504 0.015368 0.039229 0.017461 -0.041643 -0.048693 0.042332 -0.005923 0.066268 0.019562 0.038813 0.003207 -0.027237 -0.008875 -0.024880 0.022823 -0.015679 0.039413 0.053983 0.026680 0.083282 0.046171 -0.036482 0.075197 -0.028498 -0.012618 0.022814 -0.053190 -0.000623 -0.093758 0.019107 -0.104526 -0.055275 -0.092461 -0.014139 -0.042244 0.017586 0.021275 -0.023277 -0.043866 0.005879 0.005183 -0.002064 0.076587 0.078866 -0.020073 -0.069602 -0.025973 -0.042231 -0.083241 0.069518 0.017937 0.000237 -0.038560 -0.001889 -0.023286 0.035462 0.012631 0.023622 -0.024909 0.051908 0.050243 -0.070864 -0.014149 -0.044329 0.019879 0.056392 0.035399 -0.009397 -0.057535 0.055124 -0.099977 -0.009572 -0.036354 -0.017015 -0.052579 0.083660 -0.040519 0.023914 0.046699 -0.018301 -0.014795 0.010080 0.038320 -0.043697 -0.086910 -0.060793 0.027184 0.024271 -0.006375 0.045809 0.008409 0.100238 0.078062 0.088996 -0.021361 0.002050 -0.037923 0.063000 0.009350 -0.044867 0.023565 0.006875 0.060127 -0.044125 -0.007831 -0.010772 -0.086953 -0.025832 0.039257 0.007772 0.085772 -0.031076 0.020108 0.067533 -0.029846 -0.036550 -0.127592 0.034632 0.001400 -0.006294 0.057036 -0.027290 -0.064015 -0.009982 0.049379 0.045936 -0.058535 0.060714 -0.020757 -0.035390 0.069182 0.025597 -0.006555 -0.038745 -0.033926 -0.001514 0.029203 0.098698 -0.044483 0.046266 -0.077222 -0.027680 -0.021149 0.027033 -0.016529 -0.012851 -0.057039 0.007660 -0.011248 -0.034069 -0.077497 -0.011032 -0.018847 0.072178 -0.015194 -0.057552 0.022853 0.059087 -0.029313 -0.025366 -0.078309 -0.048200 0.004233 0.070209 -0.034188 -0.021456 -0.044781 -0.003461 -0.000401 -0.056260 -0.002430 0.089355 -0.019500 0.016616 -0.021416 0.076887 0.029201 -0.030221 0.074834 0.045346 0.036889 -0.048574 0.037044 -0.069866 -0.074275 0.052269 -0.020854 -0.062987 0.081713 0.040585 0.006564 -0.002370 -0.011430 -0.053682 -0.005144 0.043992 0.028335 -0.040127 -0.032687 -0.083654 0.042664 -0.027945 -0.030692 0.004066 -0.025319 0.037932 0.025515 0.072632 0.046636 -0.051266 0.022301 -0.013786 -0.038327 0.043127 -0.006090 0.115458 0.063345 0.082587 -0.032633 -0.009369 -0.003227 0.034481 0.004237 0.063914 -0.016544 -0.037230 -0.040357 -0.007053 0.057283 0.015658 0.053387 0.034103 0.048919 0.054643 0.095372 -0.055197 -0.005065 0.014466 0.043519 -0.054094 -0.033154 -0.057962 0.003294 0.016828 -0.020070 0.072907 -0.061382 0.021384 0.043483 -0.006383 -0.035366 -0.027313 -0.005839 0.062352 -0.025949 -0.014975 0.007456 -0.064385 -0.015160 0.050468 0.011672 0.042494
. -0.010373 -0.010063 -0.027580 0.011317 -0.032537 -0.034027 -0.052789 0.016257 -0.054785 0.009824 -0.026421 0.008016 -0.023537 -0.034839 0.039670 0.037772 -0.054489 0.056607 0.026174 -0.030139 -0.013003 0.042573 -0.044809 0.000359 -0.021234 0.092564 0.019790 -0.032609 0.025514 0.024670 0.056135 -0.039587 0.002905 -0.029339 0.007305 -0.057549 -0.023250 0.036665 0.056870 0.013753 -0.004991 -0.023397 0.067647 -0.022702 -0.095269 -0.027746 0.044650 -0.031710 0.058073 0.008530 -0.008839 0.018824 -0.028590 0.018957 -0.046134 0.001998 0.015205 -0.054781 0.012788 0.018522 -0.056246 0.068888 0.007182 0.014965 -0.007246 0.002905 0.017643 -0.070243 0.002161 -0.001108 0.039368 0.038169 0.037762 0.033153 0.082579 0.030645 0.007362 -0.023483 -0.073420 -0.006516 0.048618 -0.001777 0.017287 0.054412 0.063350 0.034402 0.011435 -0.051681 0.047726 -0.025520 -0.011589 0.049632 -0.059804 0.030161 -0.012644 0.041258 0.007241 -0.017264 0.060915 0.022085 -0.010617 0.087231 -0.045719 -0.018343 0.011820 0.088707 -0.058411 -0.049449 0.021059 -0.089472 -0.031158 -0.005910 0.038847 -0.007257 -0.067937 0.009740 -0.028241 0.019114 -0.050362 0.027298 0.006099 -0.046118 -0.052692 0.028297 -0.025616 -0.013993 -0.085012 0.023484 0.070134 0.004963 0.013496 0.030651 0.061308 -0.016053 0.002648 -0.034874 -0.016189 -0.061738 0.053556 -0.031574 0.057530 -0.005843 0.068471 0.048418 0.051562 -0.044193 0.027991 -0.034891 -0.019836 0.027679 -0.011057 0.000610 -0.001213 0.050091 -0.037950 -0.025306 0.026377 -0.025685 -0.035385 -0.017401 0.011563 0.046963 -0.031484 0.002300 -0.027256 0.018975 -0.084051 -0.038432 -0.028079 0.043946 -0.044900 -0.017894 -0.008817 0.028698 -0.051376 -0.008757 0.000279 0.043648 0.015736 0.033296 -0.080622 -0.029667 -0.001503 0.001223 -0.064879 -0.029888 -0.053916 0.039120 0.036189 0.005699 -0.028970 0.023292 0.072272 0.001632 -0.012916 0.042950 -0.007950 -0.005182 -0.003836 -0.039748 -0.011412 -0.087847 0.053609 0.021898 0.036538 -0.020915 -0.062922 -0.027973 -0.044225 -0.002403 -0.033264 0.008386 0.049063 0.046550 0.003400 -0.043114 -0.041126 0.045144 -0.007564 0.069070 -0.000202 -0.050502 -0.060084 0.059290 0.022525 -0.036216 0.027387 0.017457 0.019226 0.033931 0.049589 -0.038531 0.000003 -0.060787 0.034616 0.033957 0.033213 0.027057 -0.043836 0.038627 0.010104 -0.025982 0.022059 -0.023008 -0.021804 0.047046 -0.025967 0.013879 -0.053225 0.012061 -0.070078 0.000230 -0.044976 -0.052140 -0.005835 0.048615 0.009912 0.018275 -0.000864 -0.010039 -0.015733 0.036950 0.008252 -0.022837 0.083448 -0.008271 0.034512 0.011181 0.021921 -0.036711 -0.052492 0.019278 -0.002316 0.038663 -0.028277 -0.035908 0.014220 0.039520 -0.026181 0.087756 0.029022 0.004546 -0.005121 -0.040186 0.023242 0.008001 0.031250 -0.021753 -0.019576 -0.031196 -0.049779 -0.018408 -0.020463 -0.030411 0.054099 0.019491 0.025158 -0.036219 -0.036322 -0.048706 -0.005646 -0.068526 -0.038123 -0.011039 0.006504 0.017764 -0.027813 0.017911 0.033663 -0.067295 0.016895 0.034088 -0.005606 -0.068006 0.024288 -0.058909 0.037570 0.037184 0.012932 -0.002013 -0.016527 -0.042908 0.033709 0.023956 0.016485 0.045665 -0.000169 -0.080084 -0.036174 -0.022508 -0.001219 -0.042420 0.007053 -0.008758 0.020779 0.069826 -0.076933 0.064498 0.045501 -0.011639 0.033553 0.043738 0.045810 0.000341 0.088429 0.025569 0.001688 0.098144 -0.028298 -0.024740 0.060223 -0.021744 -0.029336 0.053537 -0.001415 -0.005347 0.018752 -0.010750 -0.049949 0.053995 0.009531 -0.016887 -0.085685 -0.012852 0.037009 0.001532 0.040493 0.021101 -0.027057 -0.059084 0.044198 0.008389 0.056394 0.051495 -0.014146 0.014939 0.088693 0.045794 0.022899 0.009072 0.046649 -0.024362 -0.069932 -0.013502
0 0.061840 -0.056516 -0.063902 0.010872 -0.028204 -0.049633 -0.045645 0.039080 -0.016493 0.025283 0.028813 0.001218 -0.015527 0.042422 -0.081082 0.062672 -0.050707 0.062924 0.050444 0.030620 0.009369 -0.103343 0.032679 -0.030975 0.039369 -0.034650 -0.104481 -0.041495 -0.033569 -0.002630 -0.002506 -0.039603 0.041145 0.008917 -0.070160 -0.034843 -0.016351 -0.028183 0.001247 0.018176 0.068642 0.050373 0.059706 -0.082196 -0.003740 -0.003291 -0.010903 0.001773 0.046658 0.024863 -0.010566 0.007209 -0.010707 -0.068055 0.052222 -0.052382 -0.037724 0.016613 0.048938 0.028275 -0.044283 0.054997 0.048577 -0.003976 0.007747 0.080654 0.035143 0.008733 0.035098 -0.019179 -0.029070 0.051263 0.005887 -0.003221 -0.003953 0.048541 0.011708 -0.052114 -0.084685 0.003907 -0.004222 0.117480 -0.035220 -0.008393 -0.047873 -0.003137 0.042393 0.020110 0.040686 -0.054496 -0.075124 -0.033709 0.015398 0.031211 0.006604 0.006252 -0.018353 0.029810 0.038418 0.008615 -0.001241 0.036563 0.011993 0.052665 0.006565 0.071669 0.014918 -0.030522 0.004330 0.022998 0.000893 0.027969 -0.088293 0.036929 -0.054433 -0.047908 0.019172 0.026654 0.013195 -0.034127 0.032911 -0.006832 -0.054713 0.013342 -0.004484 0.009749 -0.055513 -0.032778 0.067541 0.038636 -0.004666 0.057923 0.000221 0.001194 0.043725 0.009410 0.034095 -0.069939 -0.031823 -0.026300 -0.015450 -0.020855 0.003727 0.068451 0.069514 -0.034581 -0.039001 0.022205 -0.007571 0.033266 -0.035013 -0.053319 -0.028294 0.054107 0.046393 -0.010536 -0.031339 0.020409 0.010337 0.005667 -0.107339 0.042614 0.022465 -0.016555 -0.048840 -0.049022 -0.044100 0.025206 0.070686 0.029553 0.010543 0.041495 -0.015149 -0.019197 -0.023380 0.010752 0.057442 0.031616 0.032099 -0.057584 0.094084 -0.049680 0.084415 -0.057717 -0.003735 0.046655 0.033153 -0.073748 -0.031558 -0.029937 0.015242 -0.006673 -0.026791 -0.054096 -0.021630 0.042302 0.007849 0.014746 0.005316 0.011585 -0.002022 -0.053704 0.017659 0.052376 0.007104 0.025410 -0.019522 0.069497 -0.063273 0.003941 0.061021 -0.032385 -0.024534 0.088561 0.040543 0.026841 -0.035663 -0.028848 0.041642 0.016127 -0.001161 -0.062442 -0.017508 0.080431 0.037075 0.065939 -0.029644 -0.038328 -0.005652 -0.086080 -0.035364 -0.054572 -0.105603 0.030350 0.008702 -0.028446 -0.010737 -0.044445 -0.005303 0.024365 0.023124 -0.023214 0.009933 -0.013115 -0.014341 -0.052471 0.028934 -0.011956 -0.068081 -0.000343 0.009163 0.070316 -0.032283 -0.080991 -0.029306 0.020172 0.026328 0.065254 0.024132 -0.008602 -0.009823 -0.001923 -0.029431 -0.056237 0.018674 -0.000937 -0.014711 0.002769 0.043890 0.045119 0.042530 0.012353 0.005280 0.031483 -0.042867 -0.025220 -0.000559 -0.042897 -0.006379 -0.056430 0.057997 -0.024656 0.051806 -0.008583 -0.014089 0.088420 0.033770 -0.027840 0.015905 0.035758 0.017001 -0.031007 -0.010779 0.004951 -0.049667 -0.054638 -0.032459 0.039614 -0.051149 0.005300 0.061641 -0.051807 -0.015445 -0.072794 0.019545 -0.028875 0.015984 0.046095 0.005419 -0.057491 0.026867 0.007369 0.019830 -0.042663 0.065625 -0.022090 0.032430 -0.045821 0.054316 -0.016707 -0.083883 0.036394 0.029471 0.029921 -0.045511 -0.016438 -0.024282 -0.000550 0.078463 0.022858 -0.005110 0.047268 0.059152 -0.045474 0.013842 0.021116 -0.002138 0.016833 -0.013189 -0.061626 0.051873 0.048929 0.061517 -0.043991 -0.002078 -0.082097 -0.049855 0.023342 -0.027415 0.032214 0.020579 0.024435 0.006352 -0.028668 -0.032382 0.008954 -0.013498 0.049674 0.029095 -0.000213 -0.007994 0.024411 -0.058710 0.058198 -0.014929 0.020266 -0.056065 0.012417 -0.000371 0.039456 0.013851 0.088650 0.018825 -0.056997 0.033525 0.028591 0.071995 -0.006201 0.023130 -0.028619 0.020495 0.018893 -0.018383 0.008752
1 0.047912 -0.038390 -0.040161 -0.018947 -0.017960 0.016242 -0.004420 0.039885 -0.011986 0.056260 0.055557 -0.093175 0.026931 0.033820 -0.010336 0.003127 0.114547 0.000066 0.037365 0.046774 0.031553 -0.088813 0.015713 0.042998 -0.008301 0.020577 -0.108674 0.013069 -0.025093 0.025411 -0.027991 0.054675 0.025813 -0.014961 -0.073885 0.008154 -0.052103 -0.026793 0.002832 -0.013244 0.043118 0.025911 0.088528 -0.057143 0.056414 -0.024440 -0.035873 0.028108 0.009687 0.009478 -0.095471 -0.004694 0.041935 -0.032142 0.017583 -0.089547 0.067465 -0.054154 0.031040 0.055005 -0.008368 0.024900 0.089946 -0.049287 -0.025311 0.085265 0.052139 0.032575 0.095915 -0.045150 -0.031040 0.005597 -0.014055 -0.105999 0.009356 0.027792 -0.011087 0.002641 -0.148903 -0.045923 0.050839 0.051319 -0.039548 -0.045329 -0.043578 -0.025970 0.030361 0.051096 0.042889 -0.059064 -0.017444 -0.044437 0.004231 0.045456 -0.056441 0.053104 0.027242 0.072323 0.062762 0.015469 -0.010365 0.002417 0.051306 0.027651 0.031512 0.024280 0.026432 0.003514 0.018206 0.091911 0.047052 0.027956 -0.055001 0.034018 -0.046299 -0.060696 0.030372 0.045898 -0.008138 -0.070393 0.089534 -0.030494 0.014020 -0.016885 0.069319 0.037717 -0.027511 -0.042019 -0.019024 -0.002247 0.034639 0.112267 -0.062139 -0.079119 0.105426 0.054871 0.048956 -0.082334 -0.085408 -0.121499 0.010485 -0.033028 0.045410 0.047250 0.010836 -0.002607 -0.015512 0.040715 0.056706 -0.029489 -0.011091 -0.115851 -0.097616 0.026317 -0.043516 -0.011019 0.001330 -0.023315 0.007545 -0.043796 -0.072111 -0.028728 0.040378 -0.062012 -0.055453 -0.130933 0.086929 0.096182 0.032951 0.012653 -0.033691 0.063897 -0.028431 -0.053086 -0.005730 0.064187 -0.006177 0.000792 -0.003796 0.001609 0.112123 -0.030917 0.105920 -0.009364 -0.008084 0.004608 0.007772 -0.062667 -0.032470 -0.007005 0.033549 -0.039467 0.019668 -0.023078 0.017261 0.126777 -0.027357 -0.022573 -0.010782 -0.009194 -0.053631 -0.042958 0.059113 0.050607 0.065033 0.099621 0.024056 0.092254 -0.019466 0.023680 0.007357 -0.040567 0.020374 0.021566 0.011978 -0.002363 -0.039969 -0.043939 -0.011706 0.038279 -0.050989 0.003830 -0.050274 0.046599 0.046187 0.058055 -0.004843 -0.049845 -0.023649 -0.053630 -0.008621 -0.060280 -0.110154 -0.007370 0.053840 -0.102894 -0.024446 -0.058559 -0.008601 0.081277 0.032222 -0.020186 0.001046 0.094976 -0.016249 -0.033847 -0.029012 -0.006434 -0.088859 -0.036311 0.046524 -0.017781 -0.000555 -0.071643 -0.048584 0.041319 0.009349 0.034042 0.036300 -0.071167 0.021382 -0.008702 -0.034160 -0.093376 0.008977 0.002193 -0.021524 -0.007524 0.013113 0.114973 0.057394 0.030810 -0.024898 -0.046451 -0.001599 -0.097468 0.019059 -0.051389 -0.016150 -0.025618 0.020001 -0.090649 0.035861 -0.041550 -0.068809 0.041779 0.094050 -0.054430 -0.001183 0.015383 0.056472 -0.008594 -0.005847 0.019568 -0.028349 -0.039010 0.038025 0.099602 -0.072818 0.015747 0.052614 -0.039244 0.008840 -0.069640 0.019136 -0.027801 -0.007710 0.055258 0.018418 -0.016249 0.017260 -0.033141 0.057880 -0.025269 0.018243 0.018424 -0.006054 -0.083732 -0.000118 -0.001526 -0.067111 0.028781 0.032031 -0.069739 -0.134794 -0.058077 0.085868 -0.017558 0.031634 0.002808 -0.012501 0.038345 0.078233 -0.039850 0.012965 -0.006192 -0.050283 -0.037842 0.025981 -0.107353 0.109732 0.001079 -0.052233 -0.026902 -0.028337 -0.085227 0.021343 0.014133 -0.029478 0.042618 0.014758 0.042261 0.022574 -0.063933 -0.011190 0.054059 0.072074 0.028649 0.011541 -0.077033 0.036925 -0.012926 -0.034445 0.058365 0.019223 -0.075269 -0.032181 -0.051098 0.010062 0.041378 0.027968 0.032426 0.031499 -0.040104 0.062356 -0.005241 0.061087 -0.033948 -0.005017 -0.006235 -0.044875 0.049071 -0.026447 0.083633
2 0.058088 -0.027974 -0.016358 0.015397 -0.051238 -0.034175 -0.043478 0.038214 0.009768 0.035491 0.045545 -0.031782 0.039041 0.016957 0.024622 0.016403 0.005574 0.030998 0.031978 0.026407 0.046734 -0.075731 0.072589 0.040630 0.039499 -0.071559 -0.070295 0.005850 -0.033713 0.014338 -0.040474 0.007908 0.046549 0.003175 -0.033574 0.027730 -0.025744 -0.001974 -0.033041 0.035790 0.031839 -0.000212 0.067964 -0.041752 0.013525 0.043821 -0.029624 0.017577 0.012084 0.003350 -0.068912 0.007047 0.029212 -0.040880 0.025423 -0.027193 0.013572 -0.040683 0.021117 0.026051 0.022124 0.023741 0.038517 0.001841 0.005852 0.073056 0.065615 0.003059 0.043760 -0.055492 -0.054567 0.026442 -0.034163 -0.076148 -0.018010 -0.003583 0.002104 -0.043129 -0.125452 -0.003650 -0.011860 0.046360 -0.079230 -0.005421 -0.075278 -0.013099 -0.016759 0.042973 0.052296 -0.040951 0.006934 -0.041849 -0.020848 0.046338 -0.043479 0.041288 0.017020 0.033191 0.007044 0.011867 -0.063311 0.000383 0.033243 0.058656 0.049987 0.034236 0.079125 0.011828 -0.002983 0.016979 0.000710 0.032344 -0.054869 0.023355 0.010957 -0.086595 0.021742 0.054766 0.049084 -0.068930 0.077231 -0.009747 -0.024803 0.051566 0.000843 0.034193 -0.042856 -0.059659 0.043786 0.045710 0.037669 0.059334 -0.045304 -0.035142 0.069600 0.073228 0.031706 -0.042430 -0.061571 -0.096163 0.000208 -0.015892 0.056734 0.095449 0.041835 -0.014891 -0.002240 0.015421 -0.029720 -0.049752 0.017994 -0.040629 -0.088648 0.043630 0.012256 -0.014607 -0.053584 0.017718 0.002751 -0.017951 -0.099583 0.016813 0.001650 -0.055221 -0.035079 -0.090363 -0.007281 0.099269 0.056259 -0.018609 0.012760 0.055591 -0.024305 -0.008654 -0.002296 0.003218 0.023711 -0.005805 0.025957 0.002735 0.096662 -0.014268 0.065055 -0.041375 -0.034812 -0.037134 0.012011 -0.019170 -0.068687 -0.055194 0.014005 -0.055711 0.013532 -0.027272 -0.007232 0.037066 0.037054 -0.007470 0.003052 -0.056735 -0.047474 -0.059368 -0.031534 0.025709 0.014119 0.064534 -0.035315 0.017787 -0.016883 0.035670 0.004294 -0.044541 -0.017632 0.029358 0.053289 0.048084 -0.036145 -0.026198 0.054400 0.010266 -0.063380 0.001598 -0.075801 0.027433 0.062189 0.049557 -0.005926 -0.055326 -0.045308 -0.078406 -0.088598 -0.078226 -0.076099 0.014709 0.014785 -0.044705 -0.032740 -0.020582 -0.011440 0.053656 -0.004586 -0.042684 -0.002544 0.038728 -0.009145 -0.026987 0.011712 -0.026754 -0.093102 -0.030169 -0.009506 -0.022804 0.018099 -0.055231 -0.005058 0.064508 0.007605 0.059167 0.006594 -0.036740 0.013789 0.004903 -0.034204 -0.091684 0.041384 0.023238 0.002508 -0.021614 0.003280 0.039320 0.022620 0.016967 0.000435 0.001379 -0.041463 -0.057189 0.036895 -0.017023 -0.062898 -0.057963 0.017732 -0.054888 0.048832 -0.093721 -0.036485 0.072451 0.086743 -0.048976 -0.029627 0.012856 0.026277 -0.021954 0.003857 0.043453 -0.070375 -0.028180 -0.025492 0.019373 -0.008510 0.020871 0.001217 -0.016403 -0.048488 -0.047003 0.012108 -0.038790 0.031651 0.036681 0.009895 -0.011903 0.044635 -0.000091 -0.011980 -0.045667 0.016146 -0.012405 -0.001345 0.011110 0.079198 0.041596 -0.077130 0.071668 0.028096 -0.049334 -0.052905 -0.014906 0.059090 0.008386 0.072110 0.006435 0.008859 0.057553 0.064253 -0.021377 0.011018 0.000081 -0.018288 0.033687 -0.001296 -0.078830 0.049574 0.050387 -0.039681 -0.017702 0.024631 -0.068268 -0.049923 -0.003280 -0.020151 0.033314 0.035374 0.087442 0.027602 -0.037511 -0.012206 0.032486 0.009834 0.009749 0.033154 -0.053852 -0.033212 -0.002779 -0.022204 0.056337 -0.012666 0.001163 -0.063290 0.007098 0.014309 -0.003571 -0.031166 0.051242 0.046384 -0.041962 0.004908 0.005658 0.010072 0.016686 0.008443 -0.004242 0.021063 0.025157 -0.024993 0.056080
3 0.064247 -0.012214 -0.060417 0.024337 -0.014621 -0.037241 0.018172 0.066890 -0.013392 0.038574 0.022849 -0.026074 0.011300 0.050171 -0.020436 0.028759 0.002635 0.022134 0.013932 0.022277 0.070375 -0.115334 0.015808 0.049268 0.050169 -0.048638 -0.119059 0.001893 -0.078454 0.002286 -0.024137 0.027677 0.008310 -0.017026 -0.061853 0.015737 -0.025189 0.013604 -0.034155 -0.007206 0.016849 0.016460 0.061385 -0.084120 -0.002359 0.026335 -0.033901 0.047897 0.050465 0.058678 -0.068672 0.009303 -0.000783 -0.074226 0.015633 -0.022638 -0.004024 -0.048656 0.019802 0.067422 0.003557 0.000942 0.021688 -0.017228 -0.014109 0.052865 0.026351 0.026831 0.036316 -0.040935 -0.072576 0.033560 -0.009199 -0.064235 -0.017524 0.016856 0.062471 -0.019553 -0.042595 0.017474 0.031173 0.057186 -0.033996 0.026216 -0.062959 -0.003892 0.007980 0.072191 0.041665 -0.066799 -0.035482 -0.064297 0.029152 0.027634 -0.020004 0.026345 -0.019284 0.033245 0.013476 0.012373 -0.038021 0.036077 0.036339 -0.013396 -0.014400 0.065254 0.057256 0.000323 -0.005026 0.051224 0.005592 0.024182 -0.049865 0.040779 -0.018165 -0.053868 0.019879 0.039052 0.073877 0.000394 0.049200 -0.038962 -0.001937 0.002249 0.008959 0.020838 -0.069652 -0.050293 0.042666 0.042874 0.004202 0.065309 -0.087309 -0.048814 0.058290 0.079589 0.034941 -0.010157 -0.055820 -0.074458 -0.025896 0.024027 0.015071 0.038037 0.033099 -0.030659 -0.021637 0.058853 -0.019974 0.000611 -0.033009 -0.025832 -0.041602 0.059271 0.045522 -0.005920 -0.014376 0.001529 -0.001833 -0.011837 -0.104726 0.033237 0.037532 -0.006451 -0.060012 -0.074305 0.008843 0.057943 0.063455 0.004133 0.004890 0.104345 -0.004476 -0.042505 0.032018 0.048969 0.047606 -0.021457 -0.015272 -0.033498 0.105300 -0.025049 0.077330 -0.018369 -0.004938 -0.021308 0.015135 -0.012968 -0.074481 0.022168 -0.023979 -0.021137 0.016767 -0.044301 -0.047818 0.019369 0.011923 -0.030957 0.004717 -0.027338 -0.032434 -0.083681 -0.014484 0.046343 -0.003272 0.027043 -0.011472 0.029649 -0.002530 0.022127 0.026833 0.012520 0.002025 0.054104 0.067025 0.036275 -0.046587 -0.027502 0.051149 -0.003948 -0.033657 -0.021853 -0.037847 0.067603 0.041234 0.034694 -0.003769 -0.069285 -0.016371 -0.013428 -0.039666 -0.048598 -0.090001 0.027460 0.022115 -0.020212 -0.033804 -0.068165 -0.001177 0.012658 -0.002977 -0.021630 0.003477 0.010512 -0.004500 -0.011883 -0.001639 -0.039797 -0.072884 -0.048408 0.008213 -0.001263 0.016532 -0.037625 -0.031598 0.030387 0.050884 0.036190 -0.017424 -0.052278 -0.018579 0.010424 -0.062322 -0.103019 0.021240 0.022844 -0.016126 -0.012492 0.003109 0.033484 0.046232 0.023765 -0.016594 0.028039 -0.063130 -0.016480 0.067385 0.011518 -0.053806 -0.052124 0.018790 -0.050043 0.060024 -0.022155 -0.085822 0.079365 0.034691 -0.026952 0.007539 -0.023852 0.067920 -0.013126 -0.032079 0.029446 -0.072563 -0.074540 -0.033619 0.010074 -0.036291 0.010248 0.017759 -0.056488 0.022088 -0.059457 -0.005813 -0.036242 0.030028 0.011277 0.003891 -0.013251 0.037636 0.030093 -0.018512 -0.040202 0.044655 -0.002574 0.037672 -0.055369 0.067203 -0.012327 -0.081813 0.063588 0.013827 -0.001068 -0.044937 -0.031531 -0.002400 -0.016393 0.081838 -0.021687 -0.012623 0.045421 0.037301 -0.013967 0.040981 -0.005525 0.025107 0.019937 0.007198 -0.051166 0.114847 0.008875 -0.029188 -0.004839 0.027986 -0.098102 -0.040269 -0.008268 -0.034154 0.020607 0.034517 0.033226 -0.038515 -0.045135 0.007425 0.044742 0.015482 -0.008672 0.038203 -0.003276 -0.030178 0.026135 -0.059742 0.080011 -0.003573 -0.015668 -0.023148 -0.008849 0.056073 -0.034995 0.000985 0.044570 -0.011476 -0.035020 -0.004232 0.019791 0.031580 -0.017481 -0.007011 -0.029375 0.029406 0.032828 -0.041816 0.041247
4 0.065812 -0.057993 -0.052456 0.021381 -0.021132 -0.024633 0.003658 0.028435 -0.011927 0.035664 0.028472 -0.049941 0.040128 -0.008879 -0.026217 0.040825 -0.001242 0.049016 0.003808 0.004464 0.054119 -0.075951 0.069091 0.033499 0.029875 -0.030797 -0.089629 -0.001937 -0.065372 -0.005728 -0.029054 -0.011384 0.026364 0.005440 -0.076162 -0.040349 -0.020431 -0.031194 -0.023958 0.026068 0.034042 0.004315 0.082283 -0.087617 0.010699 0.023388 -0.034613 0.006788 0.000761 0.051738 -0.075210 0.028822 0.045680 -0.071678 -0.003887 -0.062189 -0.046285 -0.046253 0.003904 0.044012 -0.019661 0.020430 0.040694 -0.036863 -0.003799 0.053415 0.041058 0.029466 0.030297 -0.058328 -0.046926 0.006465 -0.043904 -0.001601 0.002551 0.029086 0.024454 -0.006711 -0.091783 0.057223 0.000582 0.029780 -0.016027 0.000692 -0.032186 -0.015790 0.009765 0.057299 0.030832 -0.077566 -0.022746 -0.017714 0.002169 0.047559 -0.010793 0.045306 -0.017772 0.045654 0.027928 0.023186 -0.065668 0.030033 0.009278 0.030502 0.004139 0.040218 0.007877 -0.012227 -0.015399 0.033606 0.006110 0.032279 -0.034353 0.032917 -0.010321 -0.034657 0.026331 0.035043 0.041618 -0.030887 0.057157 0.015748 0.020645 0.018185 0.008087 0.073906 -0.047372 -0.039100 0.057204 0.050368 0.006366 0.096856 -0.054676 -0.006622 0.018629 0.043810 0.050295 -0.013074 -0.090884 -0.046064 -0.022660 0.021511 -0.003029 0.058135 0.057346 -0.037377 -0.020865 0.031140 -0.018541 -0.032958 -0.043506 -0.029481 -0.048390 0.016174 0.013474 0.012724 -0.051893 0.032942 0.027854 -0.019132 -0.087039 0.025438 0.047086 -0.025550 -0.044511 -0.066364 -0.004724 0.043108 0.027937 0.007847 0.019072 0.091825 -0.071413 -0.036632 -0.012388 0.017571 0.037729 -0.034744 -0.031017 -0.014669 0.068109 -0.036420 0.092542 -0.047001 -0.004076 0.026188 0.013822 -0.069482 -0.057484 -0.061710 -0.012898 -0.052253 -0.016518 -0.054466 -0.028693 0.046482 0.027064 -0.009222 -0.028546 -0.009638 -0.038092 -0.033992 -0.020045 0.026756 0.018309 0.009209 -0.050829 0.044341 -0.011970 0.033392 0.048858 -0.032930 0.008006 0.042850 0.031557 0.034904 -0.042365 0.004066 0.061605 0.015930 -0.039300 -0.010863 -0.031446 0.046535 0.047475 0.041668 0.015875 -0.064333 -0.024611 -0.004973 -0.081952 -0.069636 -0.085300 0.030329 0.015978 -0.035888 -0.029988 -0.028138 -0.022295 0.025435 -0.006115 -0.023272 0.010359 -0.012644 0.000726 -0.028567 0.005115 -0.052912 -0.068637 0.012436 0.012407 0.017927 0.028021 -0.033766 0.007579 0.068720 0.034949 0.039388 0.011496 -0.065536 -0.015697 0.012758 -0.041398 -0.065922 0.042396 0.013098 0.002413 0.011306 0.052899 0.044337 0.008173 0.026544 0.012074 0.022363 -0.047063 -0.026187 0.005659 -0.016093 -0.056941 -0.054367 0.037874 -0.042601 0.066159 -0.039807 -0.047353 0.120355 0.039017 -0.082510 -0.027489 0.039876 0.051955 -0.036928 -0.028136 0.013502 -0.075662 -0.014102 0.003564 0.017431 -0.013812 0.017807 0.021853 -0.013686 -0.023894 -0.053855 0.012499 -0.063526 0.040428 0.006297 0.007751 -0.046817 0.015485 0.034934 0.010407 -0.028069 0.061175 -0.007561 -0.003644 -0.062839 0.036386 -0.022712 -0.029668 0.035424 0.036785 0.018658 -0.070455 0.019845 0.046655 0.018640 0.041127 -0.012693 0.015148 0.023760 0.027726 -0.016817 0.023422 -0.018846 0.022241 -0.003349 -0.018580 -0.083208 0.063886 0.052809 0.022445 0.015686 0.049566 -0.054014 -0.003011 0.003060 0.025928 0.048567 0.049283 0.057227 0.006026 -0.075797 -0.020182 0.016050 0.031691 0.053161 0.027768 -0.029521 -0.024505 0.031356 -0.024674 0.091046 -0.021959 -0.019302 -0.014355 -0.033041 -0.054769 -0.014151 0.014938 0.023001 0.037480 0.013249 0.008104 0.038768 0.014775 -0.031921 -0.001558 -0.009011 -0.001371 0.004261 -0.059531 0.055826
5 0.059630 0.012367 -0.053235 0.030334 -0.006514 -0.021086 -0.020035 0.052605 0.012638 0.014248 0.014326 -0.042457 -0.011536 0.011650 -0.075376 0.080004 -0.024186 0.023306 -0.010532 -0.004583 0.034703 -0.053243 0.064387 -0.032994 -0.018579 -0.048027 -0.125331 0.009811 -0.015314 -0.028996 -0.001850 -0.010762 0.014118 -0.018032 -0.059891 0.009955 -0.043152 0.013756 -0.051547 -0.035148 0.030167 0.047075 0.083752 -0.076256 0.015574 -0.016340 -0.032999 -0.006261 -0.021018 0.084322 -0.069357 0.032480 0.015757 -0.051493 0.001007 -0.024180 -0.009561 -0.034142 0.062708 0.084374 -0.037279 0.015033 0.008275 0.022344 -0.000523 0.061922 0.075127 0.046626 -0.013043 -0.049678 0.009530 0.057771 -0.013686 -0.029742 0.018840 0.014676 0.052812 -0.024240 -0.027134 0.003053 -0.039189 0.072909 -0.028979 0.005894 -0.041261 -0.020711 -0.015398 0.061738 0.074497 -0.014745 -0.042823 -0.027762 -0.003770 0.003925 -0.016788 0.060502 0.024294 0.018722 0.062034 0.006302 -0.093655 0.029494 0.009714 0.031417 -0.027920 0.031308 0.023305 -0.035631 -0.056987 0.016651 -0.064009 0.062593 -0.040364 0.052868 -0.052544 -0.034060 0.030603 0.058258 0.043252 -0.015326 0.003666 0.021003 -0.028498 -0.000129 -0.005472 0.045022 -0.065921 -0.002087 0.039404 -0.010899 -0.006879 0.028558 -0.031221 -0.030878 0.050390 0.055121 0.022760 -0.053930 -0.078695 -0.046132 0.016140 -0.020383 0.007606 0.064116 0.037140 -0.038279 -0.014057 0.038024 -0.040033 -0.028328 -0.046736 -0.025974 -0.045535 0.033640 -0.027222 0.002205 -0.070826 0.003880 -0.002777 -0.026164 -0.100945 0.030962 0.061186 -0.053983 -0.069985 -0.051253 0.002481 0.038428 0.041063 0.035764 0.012435 0.059530 -0.063483 0.003845 -0.024300 0.027492 -0.022598 -0.017511 -0.016503 -0.018587 0.125842 -0.061713 0.080269 -0.082666 0.032084 0.003429 0.029795 -0.011884 0.014743 0.006549 -0.020681 -0.025592 -0.025068 -0.067943 -0.018892 0.057070 0.029493 0.037685 0.039617 -0.015568 -0.053886 -0.060939 -0.024213 0.045987 0.006079 0.041572 -0.031506 0.038561 -0.020590 -0.008652 0.073743 -0.037635 0.018789 0.075457 0.065815 0.033658 -0.012256 -0.031724 0.063994 0.042580 -0.027187 -0.027805 -0.011634 0.039997 0.050689 0.056919 -0.020021 -0.057364 -0.032514 -0.017637 -0.059217 -0.060139 -0.057718 0.030883 0.019409 -0.079545 -0.040979 -0.039628 0.028291 0.022336 -0.038673 0.012225 0.005884 0.030640 -0.020772 -0.041647 0.033802 -0.036456 -0.035472 0.009384 0.023520 -0.033150 -0.009555 -0.033904 0.010776 0.020660 0.008238 0.034460 -0.047740 -0.012659 -0.029869 0.008889 -0.003011 -0.057244 -0.006905 0.000087 -0.020763 -0.036184 0.068183 0.023657 0.020728 0.029031 -0.014804 0.026182 -0.051290 -0.017382 0.012572 0.003819 -0.032289 -0.068710 0.024954 -0.027021 0.031299 -0.032767 -0.043444 0.099905 0.049250 -0.039935 0.003675 0.040489 0.037642 -0.058150 -0.051061 -0.024463 -0.080173 -0.022493 -0.002201 0.033786 -0.066938 0.030596 0.005101 -0.030157 -0.049994 -0.058195 0.030220 -0.027475 0.033072 0.048297 0.026777 -0.032501 0.058945 0.030355 -0.006122 -0.021454 0.050727 -0.016919 0.051077 -0.059123 0.083951 -0.037359 -0.056411 0.067102 0.035180 0.018955 -0.041664 0.037002 -0.014076 -0.029134 0.042038 -0.014431 -0.007791 -0.022869 0.044639 0.003639 0.041541 0.020290 0.032247 0.047481 0.031809 -0.070585 0.048322 0.028031 0.025863 -0.002726 0.049682 -0.029160 -0.001214 0.010910 -0.016457 0.055440 0.068198 0.066835 -0.013965 -0.029697 -0.037651 -0.005285 0.011809 0.052336 -0.006750 -0.040454 -0.015660 0.019726 -0.009584 0.040956 -0.036414 0.028844 -0.006388 -0.014246 0.006197 0.025554 -0.012124 0.054045 0.023286 -0.055067 0.021726 0.025988 0.013580 0.009585 0.004461 -0.017805 0.031107 0.029484 -0.045001 0.025340
6 0.131899 -0.041847 -0.016505 0.055104 -0.054218 -0.024804 -0.009918 0.087380 -0.003085 0.054608 0.033428 -0.015040 0.028279 0.016223 0.011263 0.020268 -0.010646 0.008306 0.000884 0.016684 0.021546 -0.052006 0.093884 0.035761 0.024022 -0.076112 -0.135730 -0.001263 -0.044944 -0.005341 -0.005488 -0.039136 -0.004589 -0.017630 -0.056936 -0.054636 -0.028848 0.010752 -0.018540 0.035843 0.079104 0.043800 0.054456 -0.073512 -0.014435 0.050020 -0.008619 0.004614 0.025157 0.041828 -0.080531 0.036627 0.045011 -0.071128 -0.015391 0.011476 -0.033095 -0.081095 0.014907 0.067835 -0.053846 0.039081 0.012639 0.042582 0.036827 0.070020 0.073028 0.017454 0.027560 -0.020835 -0.007128 0.090620 -0.035256 -0.026366 -0.004408 0.046269 0.058311 -0.051234 -0.070033 0.010881 0.005576 0.045001 -0.040003 -0.034010 -0.001843 -0.038274 0.017818 0.050104 0.030168 -0.078380 -0.039872 -0.005923 -0.012523 0.020235 -0.014402 0.060265 0.034532 0.042802 0.019117 -0.012235 -0.054959 -0.017136 0.022330 0.009495 0.019280 0.074846 0.025869 -0.004028 0.010603 0.016171 -0.060088 0.012412 -0.047043 0.054971 -0.005965 0.009665 0.018336 0.072351 0.070737 -0.026435 0.028506 0.005383 -0.069041 0.042101 -0.015955 0.040846 -0.073520 -0.049259 0.039333 0.016397 0.050104 0.056169 -0.022729 -0.048894 0.019185 0.049543 0.075103 -0.004780 -0.055455 -0.052011 0.011262 0.016486 0.036335 0.112287 0.044337 -0.069473 -0.043550 0.042145 -0.046387 -0.014048 -0.042481 -0.023457 -0.053739 0.001857 0.040617 0.004787 -0.079626 -0.008693 0.030977 -0.010736 -0.064789 0.078344 0.012433 0.008141 -0.046086 -0.092912 0.032965 0.032905 0.040454 -0.012979 0.010666 0.095474 -0.033263 -0.060777 -0.029362 0.023658 0.016917 -0.036583 -0.051194 -0.014422 0.089162 -0.030205 0.035631 -0.028569 -0.012491 0.010590 0.000797 -0.019444 -0.026222 -0.011199 0.003647 -0.025954 -0.002644 -0.072305 -0.029938 0.090811 0.025053 0.049687 -0.012342 -0.011665 0.008678 -0.060338 0.001318 0.025098 0.061864 0.048995 -0.037076 0.046819 -0.007785 0.040352 0.022943 -0.071928 -0.054962 0.036331 0.035389 -0.018224 -0.045905 -0.022592 0.053319 0.040419 -0.021632 -0.029929 -0.055659 0.051717 0.040252 0.057613 0.001667 0.012045 -0.022492 -0.055175 -0.055205 -0.036442 -0.036337 0.003213 0.028444 -0.035637 -0.070545 -0.036212 -0.025429 0.036637 -0.014777 -0.017605 0.008173 0.031148 -0.022295 -0.027844 0.068423 -0.016558 -0.066782 -0.043591 0.033809 -0.030831 0.027948 -0.029722 0.025605 0.044667 0.028124 0.020773 -0.025028 -0.034678 -0.006741 0.027850 -0.058722 -0.076055 0.038090 0.054338 0.003200 -0.028973 0.018915 0.032496 0.002825 0.042445 -0.029040 -0.013436 -0.053154 -0.000250 0.044554 0.014248 -0.037847 -0.030999 0.049698 -0.008709 0.061015 -0.055058 -0.011041 0.075366 0.067835 -0.121903 -0.008488 -0.014814 0.046942 -0.071353 -0.059146 0.018957 -0.076278 -0.005494 -0.006830 0.023876 -0.010108 0.024130 0.008144 -0.008083 -0.005974 -0.058958 0.008482 -0.035935 0.020907 0.090409 0.021203 -0.044600 0.106041 0.026056 0.007527 -0.022169 0.064502 0.023845 0.067687 -0.032538 0.074258 -0.005486 -0.069928 0.038773 0.006731 0.004503 -0.058624 -0.009666 0.023146 0.005444 0.031430 -0.026650 -0.011349 0.043445 0.023918 0.003536 0.026242 0.022721 0.049523 0.067072 -0.000532 -0.042137 0.027557 0.006653 -0.023425 0.029968 0.063989 -0.044063 -0.010421 -0.029737 -0.028831 0.021511 0.073566 0.110752 -0.052673 -0.030777 -0.032013 0.027794 -0.005475 0.043790 0.036209 -0.024455 -0.079103 0.007610 -0.032994 0.068746 0.005030 0.000969 -0.032590 0.012405 0.004144 0.016944 -0.052373 -0.000602 0.091675 0.011107 0.005769 0.013987 0.025099 0.007250 -0.007600 -0.046820 0.009141 0.026093 -0.026619 0.033906
7 0.087885 -0.046110 -0.061376 0.053925 -0.032308 -0.043412 -0.010656 0.028889 -0.011027 0.001058 0.048835 -0.038728 -0.011361 0.027536 -0.046348 0.047080 0.013358 0.011677 -0.020108 0.018312 0.042161 -0.095736 0.048195 0.041505 -0.008147 -0.056759 -0.106311 0.010923 -0.020231 -0.031080 0.017961 -0.027638 0.020475 -0.015786 -0.060073 -0.023109 -0.022937 -0.036094 -0.064168 0.031208 0.061053 0.027535 0.063847 -0.078866 0.009742 0.011181 -0.021289 0.008309 0.032830 -0.004645 -0.059414 0.019440 0.038797 -0.041597 0.026403 -0.038616 -0.032707 -0.017871 0.056196 0.044408 -0.005020 -0.028989 0.032190 0.012772 0.018120 0.072975 0.059528 0.017699 0.026099 -0.008248 0.012842 0.033868 -0.031496 -0.013988 0.006337 0.038737 0.029048 -0.049158 -0.078463 -0.007442 -0.027400 0.054989 -0.026339 -0.006282 -0.066059 -0.039612 0.021391 0.059607 0.031809 -0.059818 -0.050305 -0.021625 -0.000245 -0.012685 -0.030386 0.056263 0.004182 0.064606 -0.001470 0.021994 -0.042143 0.036757 -0.003934 0.009795 -0.037856 0.050783 0.078482 -0.021968 -0.056536 0.029246 -0.037468 0.040721 -0.029617 0.076427 0.000717 0.001182 0.034658 0.050605 0.060928 -0.056538 0.042429 -0.002131 -0.048898 -0.001727 -0.024633 0.040158 -0.033014 -0.084972 0.045579 0.006551 0.052669 0.093861 -0.065536 -0.039081 0.082667 0.024565 0.041923 -0.001224 -0.094198 -0.100668 -0.003530 0.014764 0.002943 0.053968 0.044709 -0.037441 -0.001555 0.055008 -0.026710 -0.033816 -0.037613 -0.027705 -0.065103 0.046572 0.003144 -0.018255 -0.061669 -0.010608 0.001596 0.008626 -0.065775 0.057106 0.038300 -0.020617 -0.047947 -0.054685 -0.007467 0.038819 0.045172 -0.029068 -0.028746 0.055208 -0.074910 -0.003751 -0.008992 -0.015890 0.056504 -0.066281 -0.054667 -0.027237 0.088229 0.003008 0.036221 -0.048775 0.004318 0.023382 -0.009746 -0.044243 -0.013018 -0.019334 -0.008837 -0.039336 -0.008724 -0.084412 -0.054808 0.064615 -0.001952 0.057471 0.030732 -0.029812 0.028880 -0.070124 -0.023775 0.025892 0.006809 0.048527 0.000373 -0.025273 -0.041179 0.008341 0.067587 -0.076329 -0.019825 0.000641 0.028194 0.017603 -0.012600 -0.049722 0.012734 0.030771 -0.054374 -0.038508 -0.015258 0.043566 0.084487 0.081193 0.002913 -0.057893 -0.022168 -0.109872 -0.059161 -0.070018 -0.088558 0.007260 -0.003197 -0.049018 -0.010674 -0.044887 -0.004286 0.059143 -0.037230 0.023900 -0.010049 0.007093 -0.031717 -0.035136 0.003455 -0.022463 -0.028774 -0.032675 0.071828 -0.003380 0.036976 -0.028444 -0.028420 0.055901 0.039028 -0.020844 0.005521 -0.031547 0.013740 -0.030961 0.002657 -0.062916 0.024297 0.003306 -0.065805 0.024981 0.074792 0.034325 0.041928 0.052853 -0.040688 0.034260 -0.081322 -0.038033 0.017791 -0.029805 -0.086431 -0.042225 0.021465 -0.049156 0.046637 -0.066689 -0.053784 0.088010 0.081642 -0.061611 -0.009147 -0.019028 0.026888 -0.037758 -0.040933 0.023806 -0.034568 -0.057616 0.008610 0.000659 -0.012038 0.006173 0.040411 -0.010660 0.003869 -0.092052 0.047060 -0.022849 0.023902 0.045239 0.053200 -0.053683 0.038305 0.001340 -0.019270 0.000551 0.078199 0.016299 0.009035 -0.057409 0.058200 -0.007655 -0.095431 0.088218 0.006542 0.003525 -0.085086 0.030678 -0.012956 -0.031549 0.030107 -0.013242 -0.003628 0.023158 0.048973 -0.006190 0.036896 0.014866 0.072669 0.069176 -0.024185 -0.035148 0.055985 0.045325 -0.015711 0.017653 0.041728 -0.049008 -0.012607 -0.013853 -0.024844 0.029199 0.049651 0.090266 -0.056495 -0.076929 -0.014039 0.022457 0.002520 0.068853 0.036635 -0.034474 -0.031638 0.008031 0.002379 0.079851 -0.007817 0.035954 -0.021709 -0.020219 0.003061 0.049678 -0.005137 0.012798 0.001153 -0.004731 0.011499 -0.020546 0.041028 -0.006469 0.030484 -0.036340 0.057793 0.021598 -0.037301 0.019095
8 0.110021 -0.015252 -0.024696 -0.003558 -0.022942 -0.018906 0.012354 -0.000424 0.013251 -0.025295 0.060931 -0.072694 0.033525 0.064489 -0.047309 0.082513 -0.029667 0.059889 -0.022735 0.032014 0.014466 -0.093282 0.042171 0.007309 -0.056270 -0.060695 -0.099938 0.029116 -0.027283 -0.026225 -0.034017 0.014785 0.106348 0.026616 -0.073952 0.036638 -0.058959 0.013696 -0.060047 0.020766 0.032333 0.023250 0.110749 -0.058275 0.014556 0.011743 -0.056002 -0.020083 0.064235 0.038385 -0.042899 -0.034296 -0.011428 -0.046222 0.040065 -0.004349 -0.075736 -0.027458 0.037837 0.084715 0.021469 0.030650 -0.014043 -0.013821 -0.046745 0.095055 0.053375 0.024299 0.010860 -0.033358 0.052580 0.046087 -0.043762 0.003181 0.003410 -0.003883 0.042529 -0.031363 -0.078060 -0.050783 -0.008066 0.075167 -0.006821 -0.032501 -0.009056 -0.044752 0.018398 -0.001394 -0.021019 -0.044391 0.004226 -0.038655 -0.001736 0.078641 0.009210 -0.017546 -0.014992 0.064962 0.064220 0.054586 -0.013203 0.094043 0.000718 0.021786 -0.028371 0.007247 0.005577 -0.004905 -0.029710 0.034953 -0.006734 0.023278 -0.096824 0.037082 -0.007707 -0.028933 0.028989 -0.011554 -0.047633 -0.039390 0.015191 -0.003356 0.038484 0.017299 -0.006565 0.022507 -0.025917 -0.040058 -0.014655 0.043541 -0.011543 0.048328 -0.120493 -0.036340 0.082914 0.004475 0.018074 -0.033229 -0.072275 -0.106511 -0.011302 -0.008270 0.041896 0.026407 0.007955 -0.012581 -0.021650 0.059262 0.040135 0.030373 -0.028538 0.015301 -0.057335 0.004138 0.007581 -0.029464 -0.031031 0.083262 -0.051876 -0.025516 -0.059980 0.067734 0.011250 0.005687 -0.018726 -0.038351 0.008512 0.008584 0.074937 0.013077 -0.001633 0.053551 -0.052113 0.046199 -0.025256 -0.007413 0.051593 0.003624 0.001788 -0.024672 0.122986 -0.047198 0.039743 -0.067168 -0.036452 0.025800 0.033191 -0.037373 -0.016495 0.004048 -0.012434 -0.021604 0.020495 -0.079515 -0.055667 0.005102 0.029043 0.057802 -0.042732 -0.033202 0.041873 -0.024954 -0.006529 -0.034107 0.004115 -0.006350 -0.034017 0.013622 -0.038986 -0.015202 0.060617 -0.062984 -0.037348 0.012166 0.060730 0.087860 -0.015914 -0.036338 0.084019 0.019771 0.008821 -0.037037 -0.000212 0.056652 0.006324 0.053189 -0.034710 -0.045531 -0.047257 -0.093051 0.000108 -0.052704 -0.052609 -0.027114 -0.015882 -0.111927 -0.030730 -0.042140 -0.025626 0.092988 -0.028679 0.043586 0.076820 0.109201 -0.039510 -0.021210 0.032124 -0.028392 -0.057742 0.012925 0.049950 -0.035337 0.022883 -0.036383 0.011462 0.013451 0.024008 -0.002438 -0.003950 0.002676 0.004578 0.016189 0.002111 -0.035521 0.060308 -0.054204 -0.049298 -0.000302 -0.015162 0.021258 0.100354 0.018814 -0.070881 0.035840 -0.085621 -0.088735 0.099904 0.039488 -0.057387 0.018461 0.017143 -0.009491 -0.011254 0.020075 -0.029431 0.083699 0.005117 -0.065179 0.017597 -0.008402 -0.021689 -0.091056 0.010878 0.070497 -0.042795 -0.090721 -0.033348 -0.006329 0.059710 0.023826 -0.008859 0.000123 -0.041638 -0.096454 0.032489 -0.020731 0.051845 0.070510 0.014321 -0.101901 0.033733 0.032623 0.055688 -0.002423 -0.002371 0.055284 0.042564 -0.011600 0.054363 -0.064907 -0.035519 0.049746 -0.013814 0.067114 -0.054931 0.029960 -0.045085 0.009979 0.072063 0.013753 -0.002385 0.030449 0.028539 -0.032771 0.088016 -0.034904 0.013278 0.037210 -0.021065 -0.055820 0.037940 0.062065 -0.049554 0.044432 -0.064991 -0.057802 -0.031926 -0.014096 -0.059994 0.078257 0.061776 0.041177 -0.054825 -0.097957 -0.005339 0.051609 0.030928 0.057290 0.047435 -0.036417 -0.022928 0.007541 -0.035608 0.055818 -0.041909 0.020988 -0.001074 -0.009029 -0.003865 -0.004722 0.051877 0.031365 -0.032830 -0.012273 0.027836 0.034644 0.015988 -0.069915 0.036924 0.023804 0.000886 -0.037204 0.010133 0.005046
9 0.064181 -0.017334 -0.014778 0.025074 -0.024866 -0.030901 -0.018755 0.044328 -0.023795 -0.001909 0.033253 -0.006587 0.008926 -0.031447 -0.011691 0.060396 -0.005162 0.037671 0.004951 0.013035 0.019253 -0.071392 0.039415 -0.010109 -0.005240 -0.077622 -0.094098 -0.039032 -0.010846 -0.041943 -0.049732 -0.036828 -0.002551 -0.012974 -0.064284 -0.018664 -0.017869 -0.043559 -0.025512 0.030151 0.042531 0.043920 0.086970 -0.094196 -0.030188 0.073157 -0.020155 0.065585 0.029707 0.030799 -0.009501 0.028061 0.024132 -0.058362 0.083741 -0.033069 -0.023330 -0.053726 0.010360 0.020808 -0.030435 0.046964 0.019290 -0.034123 0.018921 0.062239 0.048702 0.035738 -0.000650 -0.033965 -0.064546 0.064327 -0.072850 -0.035372 -0.002704 -0.004641 0.011220 -0.044646 -0.063694 -0.008992 -0.056149 0.105591 -0.035496 0.000417 -0.085003 -0.035327 0.011083 0.014393 0.040543 -0.068638 -0.016959 -0.032615 -0.009100 -0.022435 0.015490 0.021773 -0.001478 0.066468 0.025445 0.011222 -0.036883 0.008850 -0.000307 0.014153 0.026297 0.034015 0.024446 -0.031442 -0.039640 0.061175 -0.044397 0.002899 -0.056111 0.010037 0.020421 -0.041521 0.094744 0.060277 0.060359 -0.070145 0.026239 0.021045 -0.035759 0.027162 -0.000569 -0.011022 -0.046129 -0.037698 0.061370 0.061366 -0.036622 0.064858 -0.056458 0.000871 -0.001504 0.094169 -0.005998 -0.011037 -0.072100 -0.079981 -0.046786 0.002192 0.034779 0.052376 0.077656 -0.017776 -0.061991 0.015916 -0.021975 -0.002593 -0.034885 -0.078629 -0.043983 0.027287 0.045354 -0.009133 -0.011121 0.038632 0.025690 -0.000779 -0.085802 0.044034 0.031410 -0.022786 -0.035229 -0.075790 0.005816 0.020251 0.057791 -0.012369 -0.025555 0.102716 -0.046901 0.014790 -0.028333 0.034444 0.015407 0.008653 -0.028056 -0.000556 0.067628 -0.032211 0.027036 -0.042677 -0.032878 0.011098 0.006256 -0.051976 0.001270 -0.048514 -0.019156 -0.008926 -0.016208 -0.067169 -0.051041 0.031276 0.001764 0.058789 -0.038821 0.012391 -0.003909 -0.047429 -0.010535 0.025405 0.051952 0.024452 -0.013824 0.028160 -0.001548 -0.005362 0.058252 -0.000041 -0.005857 0.091472 0.019992 0.064961 -0.038265 -0.053218 0.077529 -0.005370 -0.014122 -0.034906 -0.004230 0.077114 0.069234 -0.005030 -0.022803 -0.068049 -0.021471 -0.072710 -0.051494 -0.036890 -0.073363 0.034376 0.022346 -0.047488 -0.008612 -0.040526 -0.015974 0.039608 -0.013377 -0.033210 0.011556 -0.019815 -0.019191 -0.034021 0.060805 -0.016372 -0.092484 -0.070103 0.021746 -0.013065 0.029249 -0.067953 -0.001571 0.076390 0.007391 0.033335 0.006906 -0.063918 -0.003682 -0.006090 -0.022966 -0.050703 0.036162 0.028445 -0.016264 -0.002558 0.062924 0.042501 0.084533 0.020013 -0.020416 0.034364 -0.063604 0.008005 0.055729 0.040322 -0.067602 -0.036144 0.037752 -0.037898 0.062908 -0.019860 -0.066229 0.091815 0.036074 -0.061759 -0.021042 -0.032200 0.070246 -0.046856 -0.075423 0.020445 -0.041561 -0.040703 0.011567 -0.017034 -0.009240 0.006125 0.005919 -0.023850 -0.004617 -0.086152 0.004516 -0.019899 0.071842 0.060931 0.094606 -0.047481 0.070830 0.066460 -0.007297 -0.044685 0.056535 -0.052246 0.031071 -0.036406 0.084794 0.003347 -0.038126 0.054736 -0.006201 0.009564 -0.035394 -0.000037 -0.006690 0.033851 0.074341 -0.011389 -0.030707 0.001311 0.052133 -0.079874 0.063308 -0.005262 0.022155 0.037845 0.011553 -0.052209 0.033387 0.003672 -0.019495 -0.013559 0.002160 -0.037830 -0.027499 -0.007274 -0.037875 0.070173 0.077416 0.014630 -0.014263 -0.064349 0.024450 0.002425 0.001828 0.013220 0.013030 -0.035301 -0.025342 -0.013403 -0.038506 0.059150 -0.042837 0.023825 -0.043598 0.017655 0.041393 -0.015419 0.024213 0.028497 0.069796 -0.043145 -0.003158 0.043387 0.056403 0.001650 -0.019717 -0.043049 -0.012159 0.058947 -0.034022 0.034603
: 0.014484 -0.002877 -0.017666 -0.024904 -0.060177 0.007489 0.020692 0.018320 0.039741 -0.049542 0.053049 0.032428 0.059762 0.047049 -0.092083 -0.014521 -0.019538 0.113840 0.084668 0.054680 0.006508 -0.011485 -0.004744 0.051063 -0.006943 0.023021 0.042810 -0.049065 -0.004622 0.054093 -0.025866 -0.001058 -0.037314 -0.028897 0.032590 0.042233 -0.030344 0.033792 0.002108 0.008067 0.028021 0.097296 0.074640 -0.005537 -0.093880 -0.056117 0.029005 0.001860 -0.071912 0.012002 -0.026555 0.038241 -0.061087 0.002540 0.017074 -0.030926 -0.039259 -0.048801 0.004338 -0.004722 -0.020691 0.070435 -0.023227 0.013395 0.022840 0.082201 0.045548 -0.016452 0.000304 -0.040280 -0.033038 0.006028 -0.050187 -0.042510 0.018332 0.084099 0.093403 -0.007411 -0.047700 -0.028735 0.013396 0.071286 -0.028491 0.112435 0.038996 0.004795 -0.083425 0.003309 0.018763 -0.118416 -0.001004 -0.007464 0.023952 0.013928 0.019151 0.022890 -0.047754 0.016009 0.076822 0.114670 -0.032186 0.088322 -0.022721 0.048460 0.014937 0.038582 0.024670 -0.002325 -0.033086 -0.052721 0.015345 0.021295 0.032769 0.001330 -0.068423 -0.001902 -0.013336 0.007613 -0.007130 0.095191 0.025010 -0.063017 -0.023756 0.052022 -0.016950 0.018951 -0.068202 -0.044675 -0.018625 0.025332 0.013400 0.046791 -0.000822 -0.060833 0.041890 -0.005477 0.008110 -0.074740 0.058516 0.004149 -0.011477 0.095638 0.051911 -0.002939 0.028579 -0.029263 -0.057864 -0.021237 -0.035891 0.022419 -0.022422 0.032119 -0.034718 -0.054411 0.013999 -0.017379 0.009573 0.036341 -0.050261 0.009140 0.014390 0.111648 -0.038534 -0.041150 -0.008813 -0.045416 -0.003035 -0.027072 -0.055848 0.025691 -0.021214 -0.041901 0.018654 -0.050523 -0.004656 0.019341 -0.078434 -0.009290 0.063961 0.051274 -0.036414 0.021469 0.054926 -0.029847 -0.055382 -0.021139 0.019640 0.040601 -0.066953 -0.048811 -0.063990 -0.027159 -0.025269 -0.002295 -0.056509 0.008647 0.040203 0.067640 -0.055055 -0.019342 -0.019326 -0.075286 0.000449 0.034344 0.005339 0.025770 -0.064212 -0.005699 -0.003147 -0.022095 -0.049128 -0.050788 -0.020950 0.049107 -0.019226 -0.015993 -0.055327 0.012558 0.020642 0.083663 -0.014626 -0.003970 -0.011063 0.048414 0.060810 -0.000084 -0.045401 0.013301 -0.062180 -0.021708 -0.014485 -0.007140 0.005793 -0.069347 0.027686 0.008076 -0.044709 -0.001940 -0.082366 0.016319 -0.010464 0.065294 0.035648 -0.038770 -0.051444 0.005106 -0.014290 0.008658 -0.029054 0.017581 -0.026754 -0.045292 0.013738 -0.024921 0.017118 0.082959 0.031080 0.000992 0.022584 0.003548 0.017845 0.073343 -0.067394 -0.046390 0.021819 -0.009793 0.039353 -0.058691 0.025920 0.070711 -0.030526 0.024710 -0.002986 0.091336 0.054700 0.013986 0.048177 -0.023005 -0.036949 0.020836 -0.026862 -0.012330 0.058479 -0.082133 -0.004422 0.018851 -0.018250 -0.019635 -0.034598 -0.106998 0.001517 -0.072032 -0.054805 0.057266 -0.054393 -0.069487 0.024745 -0.040011 -0.020498 -0.093175 0.044876 0.014120 -0.034737 -0.069518 0.002649 -0.029849 0.029124 0.024268 0.040221 -0.050034 0.070689 0.040845 0.025862 -0.078907 0.018253 -0.063438 0.042841 0.054479 0.085372 0.031191 -0.050974 -0.055209 0.036156 -0.043779 0.027506 0.009296 0.004173 -0.026306 0.016050 -0.041714 0.048826 0.027000 0.025234 -0.033785 -0.033361 0.062203 -0.020884 0.046077 0.026647 0.002670 0.004825 0.072603 0.007158 0.025067 0.025596 -0.011539 0.026931 0.074802 -0.068038 0.008901 -0.070207 0.019328 0.081665 -0.005470 -0.004759 0.012087 0.054574 -0.046072 -0.035244 0.009154 -0.031954 0.075605 -0.036305 -0.089342 0.007424 -0.006713 0.041684 0.008290 -0.036606 -0.107280 0.067622 -0.052860 0.027186 0.013827 -0.018219 -0.015932 0.039459 0.063999 0.010443 0.025386 0.026362 0.034757 -0.083936 -0.048574
; 0.017933 -0.018079 -0.075240 -0.066201 -0.036627 -0.062314 0.019564 0.032731 0.022495 -0.011889 0.031541 0.034848 -0.012208 -0.001806 -0.088906 0.011477 0.012766 0.022045 0.086938 -0.012601 0.012349 -0.039666 -0.064408 -0.011436 -0.007182 0.027663 0.036062 0.016667 -0.007859 0.048728 0.011169 -0.007646 -0.010746 0.002629 0.009487 -0.029532 -0.044694 -0.004907 -0.086760 -0.009747 -0.022082 0.043092 0.116606 0.035327 -0.102913 -0.047045 0.016791 0.046109 0.002269 -0.016500 -0.006229 0.053776 -0.042541 0.021175 -0.019490 -0.005035 0.007912 -0.028771 0.023168 0.021638 -0.012816 0.071419 -0.017506 0.031800 -0.019737 0.091471 -0.024627 0.002797 0.002717 -0.019459 -0.053873 -0.042822 -0.005314 0.030050 0.057131 -0.025230 0.025122 -0.086126 -0.098162 -0.005852 0.003516 0.018691 0.003148 0.050866 0.018471 0.066278 -0.099139 0.006986 0.025909 -0.069060 -0.050217 -0.014322 -0.002333 -0.018752 -0.004962 0.020110 0.047098 -0.015477 0.075711 0.068332 -0.002101 0.111897 -0.052865 -0.004757 0.013143 0.085895 0.012636 0.015402 -0.012840 -0.083331 -0.055412 0.014899 0.000691 -0.045899 -0.024789 -0.074214 -0.014829 0.043213 -0.015560 0.037269 0.045275 -0.079393 -0.089964 0.013167 -0.032257 -0.036774 -0.037470 0.026616 0.021649 0.032249 0.025219 0.071009 0.040432 -0.045570 -0.008378 -0.004698 -0.004575 -0.067470 0.073626 -0.031099 -0.021278 0.028051 0.040970 0.046192 -0.008485 0.032660 -0.031859 0.008246 -0.054197 0.056882 -0.024751 0.040782 0.050473 0.024675 -0.024979 -0.020972 0.027028 -0.014582 -0.010596 0.007527 0.048052 0.094083 -0.054129 -0.025348 0.018940 0.031616 -0.022336 -0.040526 -0.022290 0.046795 -0.064066 -0.025276 0.060065 -0.013034 -0.015425 0.001728 -0.042365 0.040438 0.021700 0.063791 -0.003767 0.018859 -0.000095 0.008506 -0.060531 0.003240 -0.002505 0.009845 -0.034573 0.031965 -0.045166 0.000340 0.079047 0.070166 -0.021978 0.010017 0.032620 -0.002509 -0.085730 -0.086552 -0.014280 -0.018679 0.011612 0.004350 0.009739 -0.004173 -0.067461 -0.054769 -0.019685 -0.015040 -0.049206 -0.022314 0.017990 -0.013979 0.002625 0.041253 0.009043 0.041429 0.022967 0.027794 0.036875 0.005037 -0.069993 0.074595 0.051399 0.022336 0.002082 0.025305 -0.015095 -0.043126 -0.000754 -0.029126 0.003075 -0.043500 0.004809 0.014489 -0.003770 0.041533 -0.035053 -0.039495 -0.014145 0.078569 0.010758 -0.038411 -0.066782 -0.008843 -0.004781 -0.038276 0.018974 0.010357 -0.010650 0.021920 0.001843 -0.023082 -0.026511 -0.015658 0.022794 0.008903 -0.005804 0.067042 -0.025777 0.007523 0.042514 0.010378 -0.007204 0.006146 0.031254 0.036223 0.025377 -0.026938 -0.011103 0.067899 0.006298 0.043015 0.008322 -0.029272 -0.005682 -0.033683 -0.023428 0.033619 0.063560 0.028050 0.054431 -0.078156 0.009124 0.026993 -0.084746 0.017836 -0.033649 -0.028831 -0.019026 -0.043548 -0.003786 0.004141 -0.021589 -0.010555 0.087177 -0.013974 -0.058133 -0.127914 -0.046901 -0.025627 -0.046438 -0.038534 -0.024546 0.025686 -0.026427 -0.004537 0.028728 -0.109162 -0.034102 0.018425 -0.056453 -0.072208 0.011027 -0.004600 0.000465 0.030282 0.054782 0.004140 -0.021357 -0.025160 0.035574 0.025370 0.067206 0.007282 -0.061694 -0.027048 0.048450 0.028029 0.009882 0.014119 -0.004270 -0.032215 -0.042099 0.069426 0.005316 0.058470 0.030006 -0.017486 0.029711 0.058659 0.010082 0.028699 0.066909 -0.028232 0.017878 0.055279 0.012350 -0.042040 0.016538 -0.058341 0.002140 0.035882 -0.000500 -0.001250 0.008079 -0.019117 -0.032231 0.005653 -0.024443 -0.022692 0.003318 -0.027374 -0.000987 -0.013074 0.034307 0.010829 -0.009888 -0.035920 0.054154 -0.036559 0.036934 -0.002238 -0.035103 0.012380 0.023199 0.083600 0.025477 0.006298 0.027487 -0.031970 -0.058722 0.029372
? 0.009836 -0.026566 0.003772 -0.045900 0.044139 0.012368 -0.017063 0.072953 0.009107 0.052872 -0.028845 0.014374 -0.009708 0.013321 -0.039511 0.009229 -0.043654 0.133777 0.076615 0.007838 -0.023225 0.012829 0.006642 0.015653 0.011825 0.026241 0.008904 -0.031569 0.011107 0.030497 0.021379 -0.024941 0.053549 -0.001293 0.005500 -0.010185 -0.024511 0.038028 0.006670 -0.069303 0.000564 0.054087 0.025043 -0.068736 -0.041281 0.002169 0.073825 -0.017984 0.092395 0.034988 0.030344 0.040119 -0.093495 0.009920 -0.025251 -0.017702 0.020962 0.017908 0.045034 0.015993 -0.075622 0.088930 0.088579 0.024976 -0.002023 -0.011558 0.032249 -0.054095 0.022898 -0.002944 -0.010476 0.030466 -0.011464 -0.026561 0.021135 0.061772 0.042633 -0.006643 -0.068255 -0.039366 -0.077366 0.047671 -0.029239 0.037829 0.010138 0.016741 -0.064233 0.017399 0.044119 -0.067514 -0.034013 0.017496 0.030960 0.036781 0.030263 -0.012364 0.036406 -0.014882 0.068676 0.084215 -0.009310 0.058208 -0.015447 0.031550 -0.012370 0.100252 0.019583 -0.142178 0.075853 -0.035470 -0.016597 0.075687 0.012956 0.011852 -0.033467 -0.059711 -0.114669 -0.048323 -0.004254 0.057134 0.032201 -0.094795 -0.072006 0.017568 -0.010718 -0.032638 -0.056500 -0.037872 0.006747 -0.069447 0.025492 -0.022761 0.023539 -0.003160 -0.002015 0.009336 0.016139 -0.009417 0.084307 -0.085872 0.036738 0.053728 0.052717 0.052296 0.025083 -0.002247 0.015595 -0.030830 -0.077100 -0.038408 -0.002496 0.010307 -0.071195 0.088545 -0.005873 0.014061 -0.025664 0.022670 -0.029875 -0.028200 0.016454 0.001245 -0.001941 -0.046339 -0.079364 0.001241 -0.046499 -0.017923 0.004229 0.093026 -0.056551 0.002463 -0.027337 -0.060605 -0.041687 -0.035430 -0.026284 -0.007429 0.016784 -0.003315 -0.018029 0.030320 -0.029775 -0.010562 -0.052296 -0.099581 -0.065372 0.006383 -0.009806 0.055816 -0.094982 0.002694 -0.002880 -0.013713 -0.003401 0.036396 -0.020575 0.003290 0.024694 -0.034708 0.015307 -0.047761 0.004294 0.070693 -0.023014 -0.002491 -0.000877 -0.059322 0.055270 0.015105 -0.012772 -0.010639 0.011529 0.100859 0.093810 -0.042927 -0.064628 0.037296 0.044968 0.037787 0.035283 0.010727 -0.024568 0.068342 0.052107 -0.070229 0.052220 0.012998 -0.035154 -0.009679 -0.017357 0.001705 -0.035901 -0.089807 -0.002086 0.012512 -0.033508 -0.009092 -0.028455 -0.010382 -0.064189 0.059059 0.051486 0.011592 -0.043889 0.024911 -0.002990 -0.001319 0.031309 0.024410 0.062010 -0.056080 -0.067917 -0.011445 -0.028944 0.128948 0.015476 -0.005964 -0.008883 0.041863 0.017522 -0.043805 -0.096471 -0.000988 0.088213 -0.016052 -0.005044 0.012992 -0.003275 -0.043768 0.020679 -0.029192 -0.012363 0.089381 0.023705 -0.032151 -0.008270 -0.032321 -0.005073 0.023323 0.023000 -0.056487 -0.024646 0.039525 -0.017011 0.064685 0.007190 0.078482 -0.044529 -0.085040 0.031187 -0.089331 -0.118778 0.034094 -0.039017 -0.041258 -0.011431 -0.026648 -0.029720 -0.121335 0.028685 -0.052044 -0.012085 -0.087601 0.044414 -0.075003 0.015097 0.009486 -0.002860 -0.110911 0.040711 0.070908 0.008842 -0.062678 0.095974 -0.052238 0.084945 0.054717 0.078177 -0.005835 0.025992 -0.059616 0.006631 -0.083812 -0.020582 -0.012168 0.022950 -0.003964 0.044594 0.017153 0.026293 -0.023387 -0.005442 0.036460 0.014347 0.082575 0.003064 0.061705 0.026893 0.019414 0.052393 0.075021 0.078597 0.022010 0.091571 0.009037 0.047983 0.023534 -0.037921 -0.054210 0.049926 0.033524 -0.077905 0.028465 0.054630 0.020213 -0.052983 -0.031966 -0.042648 0.023638 0.008652 0.028826 -0.015350 -0.015817 0.000897 0.035030 -0.032876 -0.083997 -0.039289 -0.074351 0.102359 0.036962 0.017800 0.060854 0.054726 0.024560 0.062386 -0.002521 -0.002289 -0.021667 -0.019576 0.025166 -0.066243 0.091414
A -0.003261 -0.037322 -0.038384 0.015929 0.036506 -0.054942 -0.024886 0.037197 0.027240 0.005247 -0.000920 -0.014983 -0.000989 0.060465 0.018250 0.013078 0.027805 -0.034423 0.038810 0.052523 0.016742 -0.032523 0.013524 0.046283 0.004630 0.034792 0.015266 0.006322 -0.010478 0.013086 -0.011530 -0.000825 0.011314 0.076439 0.027822 -0.080227 0.016111 -0.005591 -0.025804 0.047780 -0.019401 -0.043106 0.028588 -0.030871 0.004416 0.042768 -0.033076 -0.023532 0.081794 -0.034038 -0.058684 -0.008403 -0.038110 0.021885 0.030586 -0.019294 -0.004147 -0.030426 0.011217 0.098044 0.011496 0.036804 0.020426 -0.028366 0.079708 -0.020836 0.083193 0.011267 0.003667 -0.033066 -0.008283 -0.075652 0.042983 0.009784 -0.038431 -0.064136 -0.025598 0.022073 0.001378 -0.143063 -0.037143 0.036779 -0.042456 -0.005808 0.006432 -0.011381 0.003629 -0.017370 -0.024507 0.047963 0.005440 -0.036390 -0.045310 0.080354 0.020758 -0.024767 0.043359 0.017890 0.014564 0.024777 -0.049997 0.048517 -0.039874 -0.042110 -0.016253 0.034170 0.018642 -0.057748 -0.061402 0.055940 0.035939 0.083022 -0.097652 0.000526 -0.006676 -0.011786 0.031010 0.038247 -0.008824 -0.011509 0.025236 -0.022414 0.002466 0.000820 0.014741 0.014692 0.058621 -0.032133 -0.020025 -0.017341 0.038098 -0.000510 -0.069370 -0.063064 0.023712 0.074384 -0.034667 0.044748 -0.036551 0.021245 0.011159 -0.009720 -0.025647 0.015431 0.002724 0.016724 -0.053601 -0.059882 0.052489 -0.006976 0.070160 -0.040795 0.031229 -0.068908 0.026163 -0.057915 0.012076 -0.037991 -0.057639 -0.068609 -0.037083 -0.017935 0.003204 -0.067330 -0.007365 -0.032490 0.010342 -0.001755 0.025916 0.040445 -0.068408 -0.011906 -0.036964 0.032171 -0.039574 0.081793 0.066941 -0.074941 0.016775 0.083885 -0.033307 -0.106069 0.061897 0.024182 -0.099607 0.039629 0.094615 0.022145 -0.015551 -0.023292 0.013698 0.001582 0.034280 0.024292 -0.031095 0.009620 0.036171 -0.045099 0.031516 -0.067435 0.014665 -0.032037 0.070543 -0.059075 0.083168 0.053463 -0.021419 0.014280 -0.061473 0.005592 -0.064319 -0.064202 0.017186 0.020616 -0.029472 -0.011146 0.014636 -0.088082 0.014001 0.075299 -0.069547 0.038549 0.007186 0.081608 0.083218 0.084663 0.006148 0.042387 -0.002566 -0.037578 -0.001073 -0.018959 -0.000111 0.050179 -0.017056 -0.022581 -0.035592 -0.082059 0.015224 -0.005819 -0.033660 -0.041464 0.105220 -0.046317 0.001872 -0.027964 0.028857 0.017398 -0.050589 -0.034491 -0.053364 -0.062851 0.001332 0.010727 -0.053099 0.033402 0.030361 0.039607 -0.057813 -0.030226 -0.004305 -0.067625 -0.008797 -0.011563 0.002484 -0.006645 0.020320 0.029866 -0.037354 -0.071253 0.113419 0.049150 -0.064271 -0.020048 0.089211 0.043860 0.034201 0.009816 -0.001598 -0.003978 -0.080024 -0.031071 -0.051323 0.046908 -0.033425 0.018328 0.038823 -0.027761 0.011255 0.022068 0.040756 0.006587 -0.038489 -0.040253 -0.009529 0.060395 0.000613 0.020608 -0.066019 -0.003135 -0.016184 -0.030420 -0.039493 0.024556 0.059664 -0.048010 0.079025 -0.012951 0.057734 -0.020928 0.055737 -0.059794 0.028480 -0.017931 -0.027446 0.012993 -0.038680 -0.060163 0.025644 -0.097372 0.086910 -0.035814 -0.029922 -0.068248 -0.034506 -0.015398 -0.059775 0.144359 0.023342 0.056065 -0.079906 0.000479 0.017835 -0.055562 0.035104 0.000396 -0.007991 -0.052225 -0.012082 -0.025102 0.074995 -0.002945 0.001075 0.072416 0.006185 -0.035302 -0.029331 0.010815 -0.057456 0.126498 -0.004972 -0.018316 -0.030035 -0.003687 -0.030520 0.007007 0.020030 -0.000043 0.064463 -0.013492 -0.001360 0.056354 0.099049 0.011790 -0.048113 -0.090279 -0.045358 0.061497 -0.012149 -0.032454 0.054091 0.031870 0.031577 0.034338 0.026378 0.011456 0.027969 -0.050161 -0.005301 -0.026675 0.037937 -0.043033 0.014893 -0.030507
