115 64
\n 0.129662 -0.076483 -0.003432 0.188605 -0.018387 0.001456 -0.104976 0.193754 0.014301 -0.119085 0.008480 0.039333 0.068043 0.042241 0.070218 -0.018645 -0.032548 0.128649 -0.216192 0.053449 0.058124 0.020188 -0.027664 0.067058 -0.183682 0.012892 -0.039173 -0.065482 0.220871 -0.039417 -0.126828 -0.020418 -0.056347 -0.004325 0.019763 0.087772 -0.186017 0.008706 -0.043667 0.054260 -0.025849 -0.097911 0.049854 0.026492 0.158104 -0.027246 0.075710 0.060573 0.099373 -0.069370 -0.078790 -0.096152 -0.117255 0.022480 0.086878 -0.082657 0.206499 0.074106 -0.050554 0.191716 -0.216738 -0.068206 -0.028354 -0.090183
\s -0.000857 -0.157029 0.013715 0.088664 0.028301 0.008698 -0.074449 0.123429 0.121417 -0.138268 0.087185 -0.084764 -0.008428 0.007879 0.045144 0.129396 -0.033285 0.142724 -0.100816 0.002864 0.060744 0.035154 -0.071750 0.072753 -0.199089 -0.058496 -0.160622 -0.055814 0.246837 -0.015242 -0.222586 -0.073317 0.042063 0.065890 0.082721 0.137651 -0.242454 -0.009804 -0.160428 0.144184 -0.151642 -0.014625 0.080951 0.038848 0.042093 0.017197 0.056204 0.125157 0.031588 -0.033561 -0.046548 -0.144553 -0.187542 -0.059445 0.111456 -0.062961 0.153920 0.034627 0.046287 0.156932 -0.166696 -0.013993 -0.028423 -0.087083
! 0.108434 0.080041 0.037226 0.243707 -0.033564 0.037588 0.057039 -0.035464 -0.026511 -0.042206 0.028582 0.072814 -0.067457 0.008468 0.045570 -0.086576 0.178252 0.080553 -0.240422 0.083408 0.032077 -0.035837 0.012543 -0.151840 -0.023755 0.078559 -0.152905 0.077349 0.106224 -0.037566 -0.049176 -0.024113 -0.056406 -0.016990 -0.038269 0.036759 0.159985 -0.004545 0.042887 -0.024636 -0.023711 0.124627 -0.000629 0.006360 -0.140222 -0.119673 -0.130823 -0.002457 0.205697 -0.021750 -0.001972 0.035858 -0.102396 -0.064594 -0.083245 0.007375 0.036142 -0.105501 -0.066122 -0.036825 -0.009820 0.004186 0.035200 0.052161
" 0.058545 0.068330 -0.093734 0.144575 -0.067132 0.092544 0.039882 0.136812 -0.097845 0.028681 -0.181401 0.129296 -0.117962 0.062542 -0.088170 -0.093509 0.063805 -0.070242 -0.144354 0.058124 0.120054 0.079775 0.039808 -0.088356 -0.022640 0.110072 0.030635 0.124913 0.117806 -0.042777 0.058281 0.081440 -0.116763 0.019816 -0.002656 -0.033302 0.035474 0.024630 0.082766 -0.043369 0.023898 -0.110211 0.026518 -0.018024 0.131434 -0.169184 -0.032131 -0.053961 0.065618 -0.028537 0.016932 0.009940 0.018271 -0.010739 -0.051699 -0.022243 0.152414 -0.058685 -0.053081 -0.051800 -0.002283 -0.049725 0.013372 0.030373
$ 0.107377 0.073383 -0.091189 0.166171 -0.157046 0.058934 0.134929 0.078655 -0.112238 0.098150 -0.100999 0.168887 -0.076497 0.117436 -0.047785 -0.074534 0.097077 -0.107344 -0.114611 0.088493 0.163111 -0.132276 0.169007 -0.110222 0.027006 0.042361 0.024113 0.186197 0.214446 -0.132438 0.072086 0.119335 -0.167599 -0.081928 -0.250595 -0.109379 0.303934 0.052666 0.072336 -0.167297 0.057790 -0.119245 -0.094641 -0.052936 0.015571 -0.125124 -0.045647 -0.057528 0.068868 -0.214999 0.106782 0.167907 0.120494 0.100510 -0.022242 0.036646 0.197154 -0.092985 -0.073571 -0.111140 0.212168 -0.081506 0.060827 0.024260
' 0.060519 0.078511 -0.049873 0.087165 -0.062979 0.001078 0.132862 0.044529 -0.147081 0.074650 -0.052650 0.185096 -0.059313 0.131926 -0.026767 -0.053894 0.027416 -0.127290 -0.027400 0.126449 0.120705 -0.070832 0.202047 -0.088600 0.039602 0.002702 0.075552 0.152233 0.164906 -0.113806 0.058705 0.087883 -0.115377 -0.087675 -0.243069 -0.143660 0.288013 0.048200 0.080041 -0.124172 0.168111 -0.033013 -0.087049 -0.039663 0.048296 -0.034972 -0.091498 -0.088148 0.030069 -0.195507 0.114688 0.167899 0.142268 0.098913 -0.022927 0.083335 0.196854 -0.057770 -0.081079 -0.023654 0.197686 -0.068417 0.043156 0.034346
( 0.112893 0.076870 -0.064168 0.064964 0.000081 -0.048491 0.067684 0.097440 -0.071262 0.067002 -0.117189 0.094743 -0.037689 0.120855 -0.123443 -0.085566 -0.051871 -0.237328 -0.094803 0.004123 0.043743 -0.044652 0.120310 -0.003036 0.041199 0.044008 0.078640 0.174080 0.062446 -0.062502 0.107901 0.101785 -0.089840 -0.004603 -0.171426 -0.153995 0.129960 -0.002689 0.064611 -0.077875 0.090556 -0.193236 -0.144531 -0.045257 0.106918 -0.069837 0.026289 -0.042526 0.031161 -0.103805 0.041483 0.082281 0.127598 0.007171 -0.029222 -0.005788 0.147157 -0.051497 -0.080328 -0.032424 0.177652 -0.040605 0.028606 -0.018157
) 0.083354 0.084705 -0.047936 0.197838 -0.029617 0.026401 0.001420 -0.005678 -0.073512 0.040012 -0.049655 0.105845 -0.080534 0.075582 -0.015564 -0.012432 0.101368 -0.012158 -0.158713 0.060685 0.057175 -0.031641 0.159549 -0.153558 0.004702 0.033237 -0.021321 0.153823 0.255034 -0.063425 0.031370 0.029288 -0.228856 -0.005400 -0.171609 -0.015461 0.172698 0.005971 0.058860 -0.139475 -0.048874 -0.023823 -0.008751 0.015990 0.002571 -0.068136 -0.042739 -0.000268 0.099624 -0.176524 0.120235 0.039673 0.033280 0.066258 -0.046366 0.050567 0.207449 -0.034074 0.013569 -0.121858 0.067929 -0.030107 0.062501 0.025114
* 0.115896 0.098929 -0.103062 0.150379 -0.129833 0.001056 0.043958 0.064955 -0.144387 0.102148 -0.074872 0.131326 -0.058004 0.083907 -0.071434 -0.122140 0.075934 -0.091945 -0.118388 0.099471 0.146359 -0.055935 0.145399 -0.109295 0.034778 0.135624 0.020728 0.165768 0.222869 -0.076410 0.084640 0.046784 -0.202529 -0.087579 -0.148073 -0.079168 0.243010 0.071404 0.134581 -0.102864 0.015952 -0.059577 -0.116819 -0.019989 0.052724 -0.072658 -0.066932 -0.066141 0.054469 -0.189695 0.098294 0.164471 0.021991 0.069276 0.007443 0.096444 0.189076 -0.118325 -0.077025 -0.110717 0.138449 -0.116561 0.074898 0.048843
+ 0.106567 0.131302 -0.067155 0.179834 -0.132386 0.051129 0.118817 0.045909 -0.154899 0.116706 -0.101332 0.183424 -0.078714 0.113706 -0.041505 -0.069393 0.091897 -0.079183 -0.138709 0.124396 0.114588 -0.081549 0.130293 -0.127351 0.028724 0.042299 0.056135 0.195550 0.183697 -0.105761 0.060539 0.070394 -0.195861 -0.083475 -0.253368 -0.121838 0.263997 0.060831 0.099700 -0.171433 0.092144 -0.111179 -0.128523 -0.044219 0.033331 -0.107304 -0.052030 -0.052251 0.071849 -0.188785 0.111766 0.186810 0.130813 0.124064 -0.037630 0.067330 0.177395 -0.096574 -0.047114 -0.124365 0.204467 -0.085960 0.113016 0.059640
, -0.049848 0.022777 0.072547 0.227010 0.002069 0.054434 0.054726 -0.078035 0.028162 -0.054248 0.075100 -0.016972 0.035618 -0.077800 0.098101 0.055529 0.172211 0.079338 -0.181803 -0.020142 -0.033132 0.093531 0.003405 -0.079482 -0.113962 0.026120 -0.102980 0.086990 0.199215 -0.063944 -0.191149 -0.135282 -0.185431 0.094465 -0.072311 0.139126 -0.041460 -0.090262 -0.108915 0.023363 -0.122657 0.090180 0.133946 -0.016450 -0.193363 -0.094658 -0.079426 0.097645 0.128608 -0.080244 0.069371 -0.010048 -0.095541 -0.021189 0.044202 -0.020723 0.168499 -0.021054 -0.001444 -0.129521 -0.038661 0.099882 0.045287 0.033748
- 0.207012 -0.017181 -0.054247 0.217908 0.037336 0.081761 0.084493 0.070790 0.086245 0.012717 -0.032982 0.001807 -0.097078 0.015959 0.028563 0.029036 -0.028042 0.134836 -0.055753 0.010506 -0.018026 -0.090624 -0.089022 0.052669 -0.047039 -0.070153 0.021181 0.038956 0.219871 0.045560 -0.033938 0.055109 -0.233337 -0.003777 0.146116 0.091491 -0.087733 -0.089297 -0.027513 0.015402 -0.198904 0.137734 0.031105 -0.005189 -0.017186 -0.097278 0.181867 0.134221 -0.105855 -0.181116 0.014964 0.042435 -0.099808 -0.105640 -0.031546 0.046109 0.130260 -0.179415 0.125906 -0.132082 0.210639 -0.065665 0.147396 0.017657
. 0.113011 0.101109 0.007276 0.137176 -0.112036 0.041078 -0.056499 0.014217 -0.075880 -0.105538 -0.017065 -0.047438 -0.031979 -0.005934 0.158216 0.037189 0.089356 0.127155 -0.171896 0.076530 0.020973 0.043706 -0.028640 -0.168507 -0.210803 0.225109 -0.204694 -0.048949 0.140858 0.002202 -0.068124 0.036600 -0.067217 0.043469 0.045803 0.233442 -0.043806 -0.030170 0.199544 0.030676 -0.055811 0.136712 -0.035993 0.031240 -0.010259 -0.127769 -0.156754 0.072909 0.105265 0.081663 -0.107389 -0.090237 -0.156013 0.017444 -0.030950 0.101889 0.065548 0.011783 -0.022316 0.023469 -0.197871 0.006801 -0.056910 0.036736
0 0.094415 0.137442 -0.053986 0.238662 -0.155134 0.036184 -0.020815 0.075499 -0.113209 0.059736 -0.073295 0.138852 -0.100093 0.133168 -0.022231 -0.048171 0.085158 -0.081444 -0.166985 0.049209 0.061978 -0.061839 0.156640 -0.146709 0.049010 0.147078 0.000896 0.110110 0.295859 -0.003714 0.011281 0.007349 -0.236893 -0.070770 -0.139359 -0.055283 0.234918 0.037587 0.142458 -0.151703 0.078441 -0.007160 -0.106710 -0.078735 0.065103 -0.124251 -0.009476 -0.123578 0.046529 -0.158660 0.083111 0.180731 -0.012111 0.067017 -0.060964 0.044342 0.245614 -0.116667 -0.052242 -0.074650 0.087909 -0.046637 0.064169 0.084134
1 0.094382 0.159452 -0.061722 0.106437 -0.228578 0.039979 -0.057467 0.130583 -0.084706 0.094596 -0.104331 0.074896 -0.103152 0.044955 -0.123581 -0.179614 0.046369 -0.122536 -0.085877 0.073365 0.144468 -0.039472 0.126842 -0.003622 0.074288 0.131707 0.009708 0.161324 -0.001909 -0.006174 0.114500 0.073656 -0.102874 0.008740 -0.014103 -0.073197 0.183026 0.041412 0.214345 -0.009340 -0.012827 -0.038965 -0.212920 -0.132060 0.169733 -0.101134 0.038742 -0.046925 0.023456 -0.028343 0.134141 0.046524 0.066697 0.016660 -0.065084 -0.057514 0.104398 -0.135622 -0.148469 -0.055371 0.068721 -0.076684 0.066014 0.112349
2 0.080507 0.145510 -0.092570 0.152324 -0.166376 0.006178 0.037913 0.090613 -0.167497 0.100458 -0.097598 0.142931 -0.107381 0.098100 -0.080514 -0.148391 0.056119 -0.101260 -0.132363 0.091791 0.150056 -0.039413 0.131423 -0.081731 0.021359 0.110757 0.060026 0.175668 0.127950 -0.031593 0.100808 0.065779 -0.159049 -0.076426 -0.062615 -0.075697 0.202994 0.021107 0.145785 -0.097239 0.045467 -0.068471 -0.131480 -0.080904 0.094409 -0.109944 -0.054012 -0.106531 0.013513 -0.126566 0.122371 0.131332 0.047781 0.090385 -0.029546 -0.000459 0.157229 -0.071549 -0.122640 -0.146386 0.120784 -0.077686 0.069201 0.091148
3 0.096298 0.108028 -0.063914 0.150299 -0.155113 0.044393 0.054944 0.083534 -0.125558 0.082910 -0.104112 0.183645 -0.099490 0.103848 -0.079317 -0.080825 0.104710 -0.105492 -0.108542 0.071691 0.078682 -0.049708 0.141728 -0.097960 0.039427 0.056145 0.014156 0.178014 0.180556 -0.037340 0.057762 0.071118 -0.166378 -0.099633 -0.139535 -0.103440 0.255453 0.039057 0.137544 -0.139440 0.041446 -0.065476 -0.139912 -0.061239 0.080134 -0.100103 -0.043717 -0.095421 0.073328 -0.136889 0.129931 0.173670 0.050409 0.059930 -0.044214 0.053361 0.177186 -0.086491 -0.065826 -0.075947 0.111532 -0.045543 0.046908 0.038904
4 0.126471 0.162774 -0.064701 0.143121 -0.117052 0.053218 0.036842 0.072434 -0.113695 0.106640 -0.048590 0.176352 -0.110632 0.070383 -0.048244 -0.093958 0.090189 -0.068059 -0.120493 0.115734 0.119239 -0.086404 0.135904 -0.103447 0.023912 0.084731 0.066739 0.189075 0.212535 -0.035783 0.044876 0.054203 -0.217671 -0.057543 -0.189305 -0.088442 0.268741 0.056534 0.137293 -0.135663 0.065773 -0.064693 -0.097791 -0.084070 0.064850 -0.082830 -0.026040 -0.110426 0.058942 -0.164084 0.109865 0.171123 0.062458 0.075281 -0.035068 0.046895 0.172624 -0.100185 -0.066312 -0.079683 0.089887 -0.062084 0.092432 0.033891
5 0.109462 0.124177 -0.092823 0.201415 -0.159922 0.022622 -0.036044 0.114345 -0.153458 0.074524 -0.050091 0.198918 -0.089482 0.099775 -0.087885 -0.109331 0.073749 -0.030278 -0.163115 0.062756 0.093993 -0.078152 0.123481 -0.172980 0.080995 0.101962 0.039382 0.169314 0.230430 0.004720 0.035603 0.020896 -0.226735 -0.077065 -0.134022 -0.061931 0.266855 0.040069 0.153259 -0.123971 0.076586 -0.068244 -0.097656 -0.023479 0.058295 -0.132106 0.000750 -0.086968 0.074511 -0.148552 0.050221 0.148991 0.007827 0.095432 -0.038208 0.039185 0.200083 -0.079704 -0.059389 -0.086251 0.086444 -0.078438 0.021515 0.027749
6 0.113547 0.079783 -0.119264 0.210328 -0.140586 0.032789 -0.001200 0.063081 -0.174872 0.088332 -0.058701 0.201658 -0.119304 0.085954 -0.074455 -0.118006 0.034771 -0.024867 -0.128374 0.094215 0.141211 -0.050512 0.166631 -0.109313 -0.004079 0.145089 0.029892 0.124609 0.270130 0.014539 0.048887 0.005989 -0.197793 -0.045223 -0.098174 -0.080844 0.252967 0.068872 0.176024 -0.114723 0.058104 -0.009570 -0.172141 -0.100830 0.085368 -0.140013 -0.017652 -0.143397 0.037782 -0.126987 0.113812 0.177740 0.036651 0.030887 -0.035801 0.036410 0.243587 -0.122446 -0.083205 -0.062529 0.116720 -0.131141 0.017111 0.076410
7 0.116625 0.115546 -0.093559 0.200945 -0.186997 0.038104 0.011951 0.112599 -0.145147 0.045593 -0.090086 0.179101 -0.099576 0.083808 -0.062931 -0.102269 0.058239 -0.043363 -0.161855 0.048581 0.109747 -0.045045 0.134504 -0.113583 0.043109 0.106389 -0.004603 0.147708 0.212358 -0.027349 0.051625 -0.011710 -0.205116 -0.070588 -0.112569 -0.097341 0.284201 0.049115 0.165897 -0.106715 0.065067 -0.023547 -0.136516 -0.073850 0.082823 -0.116164 -0.030954 -0.096098 0.037787 -0.146682 0.085596 0.213751 -0.024497 0.082901 -0.040154 0.002619 0.258049 -0.169452 -0.081142 -0.088198 0.104171 -0.082246 0.014431 0.090967
8 0.148475 0.125881 -0.076098 0.185588 -0.166375 0.004487 -0.028888 0.133276 -0.167034 0.056312 -0.074422 0.208408 -0.107825 0.050204 -0.064077 -0.172989 0.029737 0.019413 -0.111121 0.069466 0.158449 -0.060822 0.151350 -0.101352 0.123722 0.172283 0.028547 0.085741 0.206780 0.004637 -0.008531 -0.005093 -0.217549 -0.026269 -0.106269 -0.036087 0.343536 0.044900 0.239202 -0.019219 0.047523 0.035241 -0.186452 -0.150530 0.082332 -0.169023 0.021017 -0.124449 0.054338 -0.139034 0.117037 0.224951 -0.078098 0.005172 -0.035637 -0.014761 0.196030 -0.193275 -0.132896 -0.061443 0.118025 -0.109911 0.025127 0.118866
9 0.088248 0.054699 -0.093422 0.210061 -0.146864 0.007840 0.029048 0.086132 -0.123550 0.089117 -0.030852 0.142241 -0.117413 0.153022 -0.059896 -0.089994 0.095451 -0.080804 -0.123760 0.073207 0.117268 -0.014092 0.182509 -0.125048 0.026720 0.118686 0.053739 0.139781 0.230118 -0.049245 0.049861 0.027191 -0.223721 -0.087262 -0.150447 -0.096193 0.313540 0.062842 0.113576 -0.123563 0.075198 -0.032725 -0.117890 -0.070201 0.037426 -0.059877 -0.074133 -0.105980 0.093003 -0.149396 0.083796 0.164173 0.028418 0.071529 -0.025668 0.074887 0.228424 -0.066447 -0.036306 -0.105612 0.106456 -0.090155 0.051092 0.067854
: 0.079980 0.158767 0.001112 0.213357 -0.076988 0.051659 0.046014 -0.015817 -0.055479 -0.013542 -0.048261 0.069566 -0.039506 -0.009061 0.006063 -0.008842 0.114408 0.070209 -0.189034 0.089447 0.050626 0.013589 0.030970 -0.146378 -0.116724 0.142580 -0.039895 0.053362 0.206966 -0.135797 -0.072248 -0.004344 -0.150148 0.044038 -0.085057 0.090023 0.106938 -0.011017 0.055100 -0.021023 -0.134375 0.067410 -0.007401 -0.044738 0.004932 -0.142088 -0.095178 0.094012 0.132101 -0.116385 0.034633 0.058459 -0.031724 0.027089 -0.035495 0.045512 0.116132 -0.074651 -0.033702 -0.162626 0.050517 -0.002644 0.049292 0.045293
; 0.005342 0.074642 0.045779 0.250481 0.002193 0.055005 0.075993 -0.077765 0.008590 -0.022587 -0.021248 0.000429 0.030508 -0.058978 0.079722 0.001876 0.183201 0.058589 -0.201739 -0.001289 -0.052422 0.075894 0.005985 -0.125171 -0.031614 0.104770 -0.037912 0.118271 0.184720 -0.144947 -0.099369 -0.084402 -0.195461 0.096462 -0.156732 0.118319 -0.002153 -0.063255 -0.078557 -0.044721 -0.102678 0.037877 0.101932 -0.084080 -0.110888 -0.121650 -0.167610 0.113907 0.152904 -0.107330 0.083996 0.028620 -0.051647 0.016940 0.038495 -0.022836 0.180657 -0.071167 0.012163 -0.161127 0.001413 0.075447 0.002830 0.012973
? 0.085513 0.113046 0.013240 0.216832 -0.071470 0.065974 0.039700 0.037693 -0.068269 -0.075102 0.015962 0.015311 -0.064696 -0.000660 -0.007264 -0.024655 0.141569 0.085397 -0.212346 0.072340 0.048510 -0.000050 0.018070 -0.160809 -0.132215 0.135921 -0.086263 0.021558 0.124294 -0.094483 -0.058467 0.004092 -0.110528 0.013401 -0.014846 0.086554 0.117683 -0.025485 0.067149 0.009387 -0.078617 0.097362 -0.029862 -0.034767 0.016631 -0.085843 -0.085476 0.118346 0.150597 -0.079376 -0.022006 0.027310 -0.089504 -0.060393 -0.030827 0.058297 0.049466 -0.080084 -0.058488 -0.089960 -0.018387 0.000094 0.029628 0.068504
A -0.012732 0.032221 -0.113683 0.025434 -0.021372 0.070725 0.069781 0.095665 -0.006208 0.069147 -0.093689 0.101090 -0.017753 0.046360 -0.177756 -0.139890 0.043901 -0.260677 -0.134313 0.022674 0.024466 -0.024011 -0.058652 -0.038789 0.241021 0.260351 0.011693 -0.066722 0.002448 0.016659 -0.012500 0.172420 0.043541 -0.082136 0.066138 0.046258 0.014939 0.028433 0.048714 -0.027814 0.200933 -0.113845 0.131286 -0.125542 0.106008 -0.108212 -0.133739 -0.238349 0.082153 0.082684 -0.098948 0.183825 0.051034 -0.069617 -0.150224 -0.101652 -0.083389 -0.127515 0.013848 -0.074308 0.045471 0.069305 0.033681 0.054845
B 0.024575 -0.085365 -0.045678 0.034028 -0.074483 0.059389 0.129251 0.181273 -0.121993 0.022999 0.009547 0.122273 0.010721 0.102356 -0.162713 -0.047133 0.011332 -0.201058 -0.147617 0.120156 -0.000071 -0.086824 0.115679 -0.095291 0.104001 0.034945 0.138348 0.125437 0.000507 -0.002823 0.113329 0.111988 0.019147 -0.088601 -0.049290 -0.125977 0.117453 0.038680 0.045816 -0.062735 0.214343 -0.201766 -0.017179 -0.057165 0.161072 -0.052289 -0.034817 -0.195061 0.042383 -0.110785 0.027301 0.099405 0.138693 0.086460 -0.108850 0.157961 0.027277 0.021463 -0.016674 0.023179 0.022729 -0.025991 0.112029 0.054167
C 0.067300 -0.074528 -0.164823 -0.001271 -0.163712 0.032884 0.135369 0.186983 -0.215658 0.010795 -0.006475 0.037612 -0.054005 0.013864 -0.208877 -0.152703 0.019617 -0.195289 -0.046941 0.071624 -0.005878 -0.022971 -0.005051 -0.041665 0.168566 0.108307 0.128741 0.108436 -0.016460 0.000679 0.077357 0.157894 0.054229 -0.063857 0.130147 -0.033660 -0.040557 0.102404 0.025527 0.062283 0.133921 -0.072491 0.061144 -0.138559 0.281644 -0.042781 -0.056367 -0.214948 0.018675 -0.055274 0.134625 -0.060668 0.147285 -0.065867 -0.087720 -0.006740 0.043134 0.000020 -0.174071 0.062062 0.053764 -0.132134 0.093583 0.081466
D -0.016149 0.052637 -0.044300 0.008171 -0.058084 0.177999 -0.047486 0.118477 -0.159915 0.119661 -0.049580 0.134479 -0.133602 0.107466 -0.143713 0.021894 0.000274 -0.192970 -0.191842 0.045723 0.127918 -0.072594 0.054982 -0.165221 0.144606 0.055381 0.043942 0.132926 -0.008419 0.031369 0.161267 -0.027024 -0.015586 -0.133621 0.031114 -0.118157 0.103440 0.094270 0.099150 -0.073670 0.153818 -0.164822 -0.083720 0.057532 0.074180 -0.014898 -0.093913 -0.273523 0.035708 0.040306 0.026756 0.046509 0.070761 0.134585 -0.246697 0.220581 0.037000 0.013743 -0.019290 -0.019341 -0.054532 0.010375 -0.004472 0.000431
E 0.058820 -0.006628 -0.150891 0.045800 -0.032747 0.078122 0.073571 0.058582 -0.063593 0.162730 -0.104959 -0.016144 -0.043282 0.081119 -0.143058 -0.230397 0.100793 -0.256460 -0.121316 -0.044313 0.026828 0.067341 -0.089473 -0.160727 0.093584 0.068091 -0.027825 0.009383 0.023297 0.113778 0.030345 0.152375 0.038678 -0.048549 0.076766 -0.029693 -0.032630 0.020982 0.034493 -0.104650 0.161004 -0.113522 0.143854 0.064052 0.141735 0.032153 0.012655 -0.265701 0.117635 -0.043200 -0.115593 0.086738 0.125023 -0.043992 -0.183056 0.066998 -0.051291 0.059477 -0.017132 -0.051373 -0.037478 -0.071373 0.077168 0.080572
F -0.021150 -0.052857 -0.112244 0.048344 -0.076826 0.038093 0.198327 0.188539 -0.188406 0.173880 0.033365 0.124109 -0.104285 -0.017715 -0.160332 -0.079417 0.021370 -0.188217 -0.028226 0.075878 0.020582 -0.062325 0.024622 -0.149730 0.157951 0.019507 0.155324 0.148615 0.068634 -0.031959 0.142851 0.063305 -0.041764 -0.106716 -0.012957 -0.134412 0.050569 0.104937 0.025675 -0.097017 0.096165 -0.206458 0.046591 -0.066615 0.167785 -0.034043 -0.133556 -0.177041 0.031886 -0.074507 0.061984 0.058805 0.147910 0.056949 -0.158411 0.145736 0.089302 0.045628 0.021369 -0.032516 0.104726 -0.114768 0.046595 0.066195
G 0.046894 0.028863 -0.106058 0.013075 -0.120672 0.067302 0.126040 0.200299 -0.170418 0.003674 -0.004538 0.128797 -0.089401 0.101528 -0.141793 -0.047891 -0.003518 -0.171182 -0.079844 0.143163 -0.007147 -0.071897 0.057550 -0.069094 0.113922 -0.010037 0.142892 0.109629 0.012450 -0.037965 0.144868 0.101805 -0.057508 -0.083795 0.015120 -0.020124 0.132388 0.124810 0.009347 -0.040860 0.131421 -0.126569 -0.033341 -0.057546 0.189387 0.018727 -0.051437 -0.142048 -0.007726 -0.109334 0.101951 -0.024003 0.117206 0.053266 -0.089435 0.034148 0.087025 -0.020669 -0.050264 -0.018533 0.088772 -0.110275 0.083649 0.038646
H 0.067053 0.048714 -0.085043 -0.010074 -0.106082 0.040141 0.091085 0.145048 -0.182585 0.070562 -0.000448 0.191603 -0.094357 0.069467 -0.115023 -0.031346 -0.015411 -0.206479 -0.059210 0.085234 0.117968 -0.050520 0.114320 -0.070523 0.142990 0.103318 0.085728 0.144680 0.049504 -0.029558 0.136968 0.054334 -0.058572 -0.063695 -0.084723 -0.111504 0.179636 0.106235 0.123463 -0.015291 0.170914 -0.054129 -0.057687 -0.065652 0.113110 -0.034208 -0.095983 -0.247723 0.048278 -0.078097 0.114771 0.124681 0.179363 0.080613 -0.116090 0.003974 0.042947 -0.122786 -0.112691 -0.009506 0.086049 -0.084770 -0.023129 -0.007120
I 0.163728 0.037851 -0.085692 0.102515 0.014993 0.086629 0.028701 0.124186 -0.068402 -0.046944 -0.048880 -0.140346 -0.076588 0.106973 -0.149132 -0.067801 0.062061 -0.265700 -0.145813 0.025278 0.018469 -0.079932 -0.025555 -0.081195 0.078811 0.125038 0.038986 -0.015133 0.084479 0.026904 0.049497 0.147161 0.030815 -0.213280 0.006465 -0.071793 0.090648 0.010802 0.011463 -0.099014 0.164313 -0.140332 -0.011105 0.133302 0.132826 -0.056292 -0.051070 -0.263576 0.108359 -0.030326 -0.113807 0.028663 0.023052 -0.037008 -0.139721 0.046651 0.022128 0.036841 -0.053790 0.029255 -0.041320 0.079471 0.011556 0.117341
J 0.000953 0.036025 -0.102654 -0.053040 -0.306592 0.055302 0.075097 0.182140 -0.173057 0.067108 -0.017414 0.214993 -0.136240 0.026414 -0.109933 0.015182 0.025913 -0.243912 -0.072157 0.118999 0.121971 0.003397 0.103857 -0.062116 0.135718 0.013155 0.057835 0.188065 -0.009408 0.041293 0.146809 0.122669 -0.005650 -0.058382 -0.004030 -0.086784 0.123947 0.118892 0.095812 -0.022345 0.111525 -0.116703 -0.006753 -0.063499 0.122892 -0.090257 -0.160591 -0.185458 0.059697 -0.026646 0.199960 0.094230 0.215711 0.061723 -0.102766 0.098421 0.037966 -0.032813 -0.133998 -0.034223 0.117482 -0.121373 0.008844 -0.002502
K 0.010801 -0.008267 -0.057521 0.035026 -0.115671 0.061142 0.159986 0.123042 -0.168450 0.111819 0.007148 0.148943 -0.033912 0.117828 -0.148098 -0.039196 0.003675 -0.143872 -0.035081 0.145700 0.025441 -0.091616 0.173933 -0.091067 0.069309 -0.021371 0.138502 0.180669 0.041882 -0.100408 0.104790 0.028671 -0.114565 -0.070392 -0.157634 -0.142734 0.176940 0.099876 0.005780 -0.091393 0.095178 -0.180292 -0.111262 -0.081057 0.080485 -0.044980 -0.081392 -0.101318 0.067172 -0.170327 0.147904 0.095112 0.109176 0.124730 -0.108261 0.099242 0.140709 -0.008650 -0.080736 -0.046954 0.168718 -0.160391 0.053697 0.037987
L -0.028409 0.170695 -0.045906 -0.008538 -0.125221 0.237662 -0.016742 0.069571 -0.147667 -0.004538 0.023875 0.017976 -0.192758 0.045958 -0.157197 0.051017 0.016985 -0.198772 -0.103569 0.033855 0.091104 -0.114771 0.028700 -0.022744 0.083384 0.057626 0.055560 -0.079333 0.002279 0.037435 0.158852 -0.011345 -0.209808 -0.199944 0.123172 -0.035550 0.030334 0.185943 0.089245 -0.065770 0.126887 -0.106934 -0.041833 -0.060059 0.166641 -0.022088 -0.119881 -0.274129 0.030661 -0.021630 0.069538 -0.003537 0.139047 0.066041 -0.057800 0.071020 0.162299 -0.067955 -0.093504 -0.030060 0.038548 -0.011016 0.027719 0.026616
M -0.079787 0.017541 -0.012747 -0.036915 -0.133590 0.122617 -0.035320 0.168777 -0.054180 0.005868 0.037882 -0.060789 0.037796 0.003260 -0.077253 0.130299 0.031472 -0.303597 -0.125040 -0.006288 0.091368 -0.048492 0.102801 -0.086225 0.139024 0.083332 0.037927 -0.015133 0.028089 0.012175 0.162977 0.139137 -0.082135 -0.128706 0.005577 -0.163587 -0.002556 0.002821 0.051797 -0.016832 0.223912 -0.097108 0.072243 -0.102293 0.063292 -0.189788 -0.147248 -0.213120 0.022201 -0.026141 0.084867 0.145471 0.225115 0.044343 -0.171246 0.000193 0.029704 0.009160 -0.163621 0.060448 0.151693 0.050281 0.023565 0.024520
N -0.001234 0.118235 -0.082561 -0.040858 0.089082 0.150051 0.069241 0.133607 -0.138649 0.162762 -0.022262 -0.029045 -0.111438 -0.020070 -0.142742 -0.112642 -0.012500 -0.225323 -0.022802 0.113819 0.127366 0.110544 0.008583 -0.152974 0.138215 0.149234 0.146234 -0.019076 0.032054 -0.118373 0.130769 -0.033196 -0.071379 -0.003786 0.000581 -0.084691 -0.040864 0.165099 0.061314 0.002604 0.113834 -0.245422 0.030500 -0.087898 0.192920 -0.055191 -0.026454 -0.254513 0.168750 0.045727 0.112308 0.094633 0.042755 0.087984 -0.139943 -0.062583 -0.060939 -0.163100 -0.154731 -0.109336 0.143993 0.023375 -0.075783 -0.081207
O -0.014050 0.122130 -0.099285 0.024380 -0.101695 0.129773 0.009545 0.075398 -0.025086 0.142321 -0.048104 0.187822 -0.106000 0.091862 -0.120918 -0.077909 0.147373 -0.221868 -0.194634 -0.061107 0.046387 0.024242 -0.091825 -0.131489 0.166860 0.135767 -0.040645 0.051418 0.110309 0.045615 -0.028877 0.120248 0.015965 -0.083701 0.058719 0.026541 0.031008 0.053064 0.042357 -0.135024 0.175581 -0.121807 0.129579 -0.046067 0.076450 -0.006398 -0.031365 -0.260123 0.143867 0.002770 -0.130727 0.198710 0.065161 -0.077627 -0.133453 0.008779 -0.030751 -0.141730 0.077424 -0.148812 -0.069362 0.023141 0.083201 0.007251
P -0.064960 -0.109649 -0.054496 -0.078268 -0.133941 0.100614 0.126381 0.198285 -0.112422 -0.021900 0.063772 0.176516 -0.037131 -0.041366 -0.148607 0.016294 -0.014942 -0.254528 -0.127299 0.184517 0.030849 -0.054152 0.043047 -0.039501 0.095986 -0.015426 0.082043 0.067732 0.080679 0.038618 0.105870 0.053685 0.069363 -0.042058 0.052607 -0.079848 0.020099 0.009816 -0.018673 0.085747 0.292903 -0.227377 0.091831 -0.106242 0.139405 -0.095509 -0.113631 -0.229449 0.151338 -0.090238 0.078731 0.052526 0.038676 0.022511 -0.113564 0.027172 -0.004488 -0.005855 -0.058435 0.037021 0.126213 -0.061571 0.037607 0.028569
Q -0.016872 0.132204 -0.151079 0.051226 -0.178388 0.224538 0.073990 0.172804 -0.024726 0.168923 0.021714 0.166375 -0.159137 0.061063 -0.067583 -0.016328 0.054285 -0.240768 -0.094527 0.009721 0.100139 0.042922 -0.017014 -0.134418 0.180444 -0.009938 0.078253 0.142104 0.006762 -0.062010 0.122072 0.142831 -0.147683 0.016957 0.000141 0.087752 -0.055774 0.182465 -0.043198 -0.139712 -0.003247 -0.278265 -0.009406 -0.045021 0.112774 -0.052040 -0.100268 -0.260790 0.006656 -0.065514 0.187039 0.015563 0.180108 0.124450 -0.102861 0.080702 0.080074 -0.122057 0.044336 -0.142140 0.016299 -0.151040 0.107098 -0.022995
R 0.041886 0.069679 -0.066872 0.019070 -0.102830 0.150357 0.047569 0.098003 -0.066170 0.016167 0.007956 0.108539 -0.203464 0.060178 -0.163892 0.002263 -0.013957 -0.210822 -0.048273 0.127940 0.008113 -0.037179 0.043123 -0.042097 0.167148 0.001460 0.042630 -0.026846 0.019839 -0.017991 0.123853 -0.007030 -0.030168 -0.143606 0.039802 -0.070328 0.063674 0.222863 0.084777 -0.068384 0.133399 -0.108053 -0.007165 0.051545 0.086577 -0.025875 -0.151714 -0.243556 -0.002749 0.049708 -0.006487 0.000510 0.022082 0.054864 -0.112047 0.131158 0.129323 -0.036896 -0.075322 0.037462 -0.033833 0.031143 -0.025127 0.033467
S -0.042049 0.101278 -0.012139 -0.018296 -0.116382 0.222803 0.012621 0.092491 -0.186702 0.041384 0.058962 0.114652 -0.132461 0.090203 -0.159969 0.048177 -0.007483 -0.211845 -0.134537 0.079124 0.030171 -0.007288 0.073264 -0.117318 0.158027 0.059965 0.041874 0.054395 0.009383 0.010101 0.070371 -0.027389 0.005243 -0.148255 0.055200 -0.050156 0.004779 0.125886 -0.022886 -0.024998 0.084263 -0.118290 -0.000826 0.003524 0.131091 0.004303 -0.057161 -0.249667 0.126938 0.001625 0.087400 0.077983 0.030026 0.148290 -0.154313 0.090262 0.009417 -0.059572 -0.095626 -0.001334 -0.018172 -0.028531 -0.042088 -0.023474
T -0.022841 -0.019538 -0.044742 -0.027980 -0.002271 0.193677 0.058526 0.189434 -0.150412 0.082358 0.072346 0.076042 -0.153639 -0.011959 -0.176119 -0.116079 -0.032654 -0.166920 -0.010285 -0.006853 0.012234 -0.047222 -0.046231 -0.186225 0.177821 -0.027393 0.157443 0.022443 0.071495 0.003140 0.087297 -0.049693 -0.164921 -0.077139 0.089310 -0.065276 0.047329 0.207020 -0.054644 -0.117749 0.187898 -0.236732 -0.026874 -0.120809 0.124787 0.002950 -0.061466 -0.266790 0.125617 -0.008811 0.024989 0.098945 0.003501 0.157802 -0.177746 0.117107 0.103126 -0.034872 -0.027024 0.055903 0.013241 -0.023639 0.040748 0.026277
U 0.098796 0.098937 -0.175155 0.087007 0.080843 0.099836 0.118149 0.088602 0.011486 0.102459 -0.170695 -0.012348 -0.091818 0.068962 -0.038995 -0.050120 0.032557 -0.202421 -0.132877 -0.060361 0.130104 0.034638 -0.022902 -0.003857 0.109104 0.117998 0.115790 -0.081390 0.115125 -0.001048 -0.035723 0.223913 -0.013429 -0.233306 -0.053450 -0.076105 0.043371 0.028457 0.242140 -0.099048 0.130583 -0.198285 0.017453 -0.005096 0.158483 -0.047088 0.112519 -0.300427 -0.003987 -0.093746 -0.024135 0.015784 -0.034206 -0.013092 -0.267398 -0.056046 0.068976 -0.083809 -0.008448 -0.102222 -0.101125 -0.007388 0.286502 0.143625
V -0.029782 -0.048098 -0.036967 0.017674 -0.030649 0.001146 0.069755 0.133102 -0.154430 0.058987 -0.030283 -0.006450 -0.081195 0.017362 -0.178705 -0.012496 0.018836 -0.251601 -0.088125 0.097710 0.038004 -0.035216 0.042743 -0.165308 0.152079 0.091638 0.084061 0.106533 0.039321 0.056089 0.097688 0.042421 -0.029069 -0.153444 0.012796 -0.166411 0.069669 0.071294 0.017655 -0.078932 0.157439 -0.204111 -0.020680 -0.038120 0.105028 -0.045496 -0.175001 -0.195165 0.063335 0.003040 0.043193 0.099628 0.094072 0.036374 -0.205574 0.191655 0.063866 0.040393 -0.027153 0.009929 0.059288 0.012467 -0.027838 0.093664
W 0.108826 0.110596 -0.089010 0.126732 -0.120838 0.022221 0.131376 0.108574 -0.140714 0.104586 -0.099518 0.162259 -0.068586 0.097763 -0.050636 -0.046661 0.013166 -0.127263 -0.102310 0.093100 0.114879 -0.109257 0.137700 -0.090454 0.052053 0.021740 0.083248 0.146917 0.169755 -0.139946 0.059485 0.077666 -0.128850 -0.094125 -0.228199 -0.132901 0.278344 0.066641 0.058429 -0.121821 0.108312 -0.095435 -0.118675 -0.039863 0.041891 -0.107049 -0.051949 -0.056042 0.047400 -0.185764 0.098904 0.105136 0.132207 0.125151 -0.038742 0.118262 0.162903 -0.063320 -0.089990 -0.075007 0.250121 -0.070444 0.058338 0.033190
X 0.038256 0.111355 -0.051371 0.074582 -0.119693 0.072954 0.037010 0.127843 -0.079317 0.079120 -0.012851 0.035124 -0.137925 0.099344 -0.140099 -0.006601 0.040223 -0.191566 -0.133040 0.090966 0.094678 -0.168257 0.067617 -0.037057 0.065776 0.064008 0.065099 0.084691 0.078398 -0.050673 0.124361 0.057949 -0.004375 -0.152066 -0.056214 -0.096932 0.177830 0.084671 0.051980 -0.052146 0.130180 -0.098429 -0.064454 -0.066597 0.067775 -0.008561 -0.137090 -0.144534 0.037590 -0.059384 0.032305 0.061528 0.057731 0.031634 -0.129713 0.110433 0.105759 -0.021645 -0.068444 -0.046942 0.074160 0.005219 0.077121 0.091136
Y 0.076504 0.099923 -0.104439 0.106310 -0.125162 0.075293 0.114808 0.078342 -0.181295 0.095214 -0.070238 0.164817 -0.101410 0.115816 -0.082332 -0.041273 0.057565 -0.100558 -0.108294 0.131109 0.141889 -0.128545 0.148792 -0.054856 0.065406 0.046523 0.076070 0.202177 0.188072 -0.111543 0.070504 0.070157 -0.164163 -0.069125 -0.232174 -0.085545 0.326628 0.052515 0.101592 -0.143201 0.068764 -0.107978 -0.056080 -0.032466 0.027115 -0.103122 -0.084144 -0.036396 0.061480 -0.205578 0.105611 0.133514 0.135707 0.115339 -0.013711 0.049112 0.125546 -0.075864 -0.100981 -0.084665 0.180271 -0.087243 0.050107 0.034952
Z 0.009345 0.061470 -0.043215 0.086417 -0.087521 0.025670 -0.003266 0.094631 -0.128644 0.091670 -0.061640 0.156013 -0.085077 0.058872 -0.124862 0.006147 0.089943 -0.117692 -0.128202 0.122825 0.046097 -0.070252 0.207673 -0.096332 0.056272 0.092478 0.054626 0.130894 0.072298 -0.100500 0.093365 0.013792 -0.159386 -0.045173 -0.166343 -0.106791 0.162314 0.061333 0.100021 -0.180619 0.093951 -0.101990 -0.070629 -0.041486 0.035335 -0.089974 -0.109868 -0.105143 0.111460 -0.057840 0.107558 0.120396 0.093226 0.131961 -0.074958 0.129584 0.159895 -0.062711 -0.048629 -0.103432 0.101938 -0.025806 0.027449 0.005070
a -0.171990 -0.027648 0.025871 -0.129202 0.092311 -0.170507 -0.045866 -0.101912 0.152969 0.032525 0.086996 -0.002114 0.207019 -0.001987 0.007483 -0.059661 -0.045726 0.080864 0.147633 -0.085086 -0.110372 -0.004963 -0.071313 0.086493 0.087024 0.066827 -0.097858 -0.063737 -0.136536 0.086343 -0.118463 0.026956 0.112217 0.072413 0.090945 0.076264 0.018386 -0.081890 -0.081231 -0.019510 0.122933 0.163546 -0.001465 -0.050690 -0.103449 -0.000965 0.040046 0.049252 -0.117034 0.188607 -0.192832 0.185915 0.008745 -0.105232 0.065179 -0.083106 -0.147074 -0.013224 0.168852 -0.012195 -0.031624 0.129559 -0.046212 -0.036105
b -0.083022 -0.265042 0.052508 -0.068206 0.058079 -0.046231 0.123066 0.365813 0.049321 -0.060203 0.146414 -0.007108 -0.012043 -0.089829 0.024288 -0.032642 -0.004800 0.147968 0.060591 0.195790 -0.077518 0.007368 0.009875 0.064615 -0.040367 -0.170138 0.161428 -0.068279 -0.120087 -0.039426 0.000950 0.037759 -0.084946 0.009044 -0.054571 -0.000930 -0.067893 -0.097754 0.065069 -0.066665 0.062721 -0.128478 0.003593 -0.025894 0.031191 0.130683 0.030039 0.032686 -0.068067 -0.154552 0.036322 -0.012762 0.056316 0.064707 -0.115922 0.025656 0.009862 -0.002525 0.130610 0.033519 -0.004185 -0.007651 0.062679 0.034462
c -0.048026 -0.061276 -0.023131 -0.143346 -0.023224 -0.127579 0.143411 0.044643 -0.265037 -0.163481 0.072794 -0.036670 0.042779 -0.121890 -0.054414 -0.025681 -0.049190 0.055251 0.125930 -0.095966 -0.187077 -0.002147 -0.013487 0.061864 0.100557 -0.018057 0.168787 0.081157 -0.104205 -0.059204 0.064920 -0.012878 0.148430 0.057496 0.163971 0.034825 -0.009360 0.090289 -0.053420 0.134383 -0.049804 0.004507 0.038155 -0.109225 0.161993 0.037584 0.007057 0.080963 -0.117661 -0.006918 0.108508 -0.183934 0.048827 -0.068587 0.141677 0.000313 -0.045765 0.027193 -0.036609 0.077714 0.002836 -0.055174 0.027138 0.006171
d -0.088493 0.043169 0.056082 -0.119263 0.046952 0.038275 0.033895 -0.024842 -0.161569 0.036339 -0.072208 0.023383 -0.238576 -0.113156 0.066520 0.248295 -0.170342 0.064258 0.023804 -0.086322 0.065473 0.031538 -0.087888 0.123920 0.020639 -0.076410 0.041315 0.103248 -0.117092 0.040031 0.167108 -0.202878 0.004222 0.057855 0.111821 -0.049836 -0.095099 -0.033307 -0.092977 0.077992 0.037456 0.014239 -0.011561 0.026803 -0.136334 0.022337 0.015636 0.141436 -0.096607 0.094059 -0.049129 -0.066921 0.074469 0.126986 -0.094472 0.079887 -0.040900 0.000474 0.006329 0.016752 0.133855 0.162826 -0.112035 -0.085871
e 0.026081 -0.062575 0.038097 -0.096414 0.044905 -0.174403 -0.018263 -0.202618 0.083663 0.148623 -0.028174 -0.063774 0.091999 0.057572 0.011880 -0.033057 0.032490 -0.105442 0.109653 -0.037223 -0.081916 0.162509 -0.082136 -0.060107 -0.092879 -0.013027 -0.127929 0.022698 -0.138832 0.244481 -0.096584 -0.012513 0.200622 0.044608 0.066953 0.090832 0.030697 -0.098695 -0.051540 -0.140757 -0.007751 0.183591 0.092984 0.091835 -0.007831 0.164064 0.094120 0.003862 -0.158122 0.077334 -0.164046 0.093491 0.001984 -0.109311 0.007708 -0.000781 -0.178072 0.133753 -0.001556 -0.019241 -0.121023 0.006857 -0.012969 -0.033715
f -0.123458 -0.139981 0.037362 -0.012333 0.022230 -0.065747 0.105810 0.102642 -0.174252 0.045897 0.042866 0.064420 0.049875 -0.036911 -0.059087 0.030174 -0.038098 0.015926 0.056766 -0.017488 -0.020557 -0.046905 0.004959 0.031279 0.162823 -0.141411 0.131469 0.136978 -0.039882 -0.105047 0.110864 -0.043254 0.094323 -0.004086 0.011229 -0.082291 0.017081 0.048920 -0.149252 0.043983 -0.070755 -0.224991 -0.126881 -0.072946 0.107646 0.088133 -0.155761 0.102812 -0.055396 -0.005506 0.093877 -0.093029 0.045082 -0.020079 -0.102084 0.092633 -0.003100 0.136982 0.143467 0.085045 0.063236 -0.002810 0.014653 0.054442
g 0.063782 -0.019665 0.081434 -0.056434 -0.087575 0.091919 0.026749 0.050194 -0.086047 -0.069478 0.042801 -0.036802 -0.016047 -0.060697 0.188122 -0.153586 -0.009042 0.122771 0.171459 -0.126427 -0.036058 -0.082390 -0.025198 -0.057182 0.036247 -0.174410 0.141085 0.001774 -0.134513 -0.010181 0.088331 0.048139 -0.099773 -0.016720 0.101525 0.059392 -0.027881 0.017646 -0.173449 0.077159 -0.023816 -0.016767 -0.216067 -0.021374 -0.061183 0.081489 0.037845 0.076955 -0.018303 -0.163922 0.041554 -0.159745 0.232074 0.047157 0.067460 0.004396 -0.013111 0.081029 -0.012420 0.104784 0.134334 -0.046394 0.026053 0.055497
h -0.001173 0.120745 0.109619 -0.126502 -0.070931 0.157332 -0.053177 -0.152227 -0.097394 -0.115204 -0.148130 0.187536 0.150008 0.182222 0.046905 0.082967 -0.157868 -0.172677 0.006582 -0.019209 0.130915 -0.098906 0.000038 0.098739 0.173960 0.110455 0.031502 0.138735 -0.093750 0.015174 0.110637 -0.179592 0.064265 -0.079816 0.111501 -0.055784 0.267785 -0.088337 -0.024503 0.096407 0.132114 0.119265 -0.122552 -0.009652 -0.078898 0.131795 -0.244368 -0.227602 -0.086033 -0.111205 0.014065 -0.005234 0.125729 -0.124311 0.093300 -0.106627 -0.030971 0.011869 0.005005 0.205713 0.020868 -0.100530 -0.146603 -0.053719
i 0.093221 -0.011853 -0.077415 -0.140802 0.178697 -0.036166 0.019165 -0.119663 0.053894 -0.054084 0.030163 -0.211376 0.093085 -0.023627 0.168193 0.013130 0.000051 -0.009909 0.191842 -0.091166 -0.171110 0.122938 0.038065 0.079779 -0.171914 -0.038774 0.006243 -0.024099 -0.080327 0.023468 -0.022395 0.061655 0.225687 -0.080912 -0.003387 0.047180 0.023213 -0.075907 0.131472 0.089135 0.064997 0.111310 0.059670 0.146309 -0.097073 -0.007257 0.154397 -0.026460 -0.102092 0.006996 -0.176516 -0.157704 0.061489 -0.086610 -0.006049 -0.123858 -0.111744 0.075128 -0.051813 0.047645 -0.030129 0.033562 -0.100805 0.024907
j 0.035998 0.120003 -0.007628 -0.084308 -0.093641 -0.022769 0.035121 0.019392 -0.070656 -0.068682 -0.010238 -0.031661 -0.065598 -0.066973 0.061543 0.013579 -0.090297 -0.077996 0.053170 0.020499 0.013154 -0.035988 0.119337 0.030347 0.084668 -0.046828 0.096022 0.036565 -0.058683 0.000599 0.193303 0.075213 -0.008380 -0.102067 -0.043649 -0.121239 0.065704 0.003324 0.017526 0.041964 -0.068686 0.059695 -0.136561 0.037142 -0.029652 -0.005239 -0.068606 0.054397 -0.101957 -0.048135 0.233590 -0.108369 0.321295 0.021149 -0.005235 0.020093 0.012806 0.034093 -0.097019 0.046400 0.142882 -0.032590 0.003699 -0.018368
k 0.087254 0.076322 -0.097103 0.022696 -0.091081 0.003056 0.172236 0.031841 -0.088875 0.035823 -0.046421 0.203597 -0.056275 0.028197 -0.029044 -0.048358 0.020077 -0.030956 0.032626 0.142790 0.047393 -0.075275 0.130151 -0.095000 0.003934 -0.033303 0.089210 0.123371 0.181409 -0.068405 0.134973 0.028394 -0.117734 -0.068413 -0.182825 -0.050443 0.277815 0.069672 0.085695 -0.095144 0.083688 -0.008176 -0.084003 -0.020881 -0.009674 -0.037974 -0.037759 -0.129166 -0.043763 -0.137683 0.126702 0.100474 0.050371 0.067259 -0.069819 0.063009 0.119031 -0.022534 -0.025458 -0.083322 0.202066 -0.141071 -0.001830 -0.034803
l 0.063976 -0.007744 -0.038102 0.050260 0.051091 -0.058317 -0.159548 -0.158447 0.072712 -0.156962 0.051748 -0.103435 -0.103903 -0.116538 -0.138148 0.140474 -0.092135 0.020667 0.081369 0.011662 -0.040520 -0.011946 0.068876 0.149036 0.097263 -0.053490 0.153789 -0.186214 -0.142490 -0.004589 0.040951 -0.005643 -0.109215 -0.066041 0.086786 0.031816 0.028304 0.016103 0.180633 0.089258 -0.147023 0.035949 -0.008520 0.121264 0.005445 0.136875 -0.179954 0.024909 -0.090034 0.099092 0.130870 -0.111497 0.030176 -0.060204 0.134560 -0.065009 0.045953 -0.078828 0.147420 -0.001868 0.067511 0.004177 0.037911 -0.014093
m -0.245151 -0.048280 0.228957 -0.025681 -0.020132 0.114597 -0.150978 0.089670 0.106256 -0.094463 0.054516 -0.181170 0.008955 -0.189181 0.021531 0.102797 0.023187 0.000726 -0.094257 -0.095349 -0.051037 0.079117 0.106317 0.009929 -0.067590 -0.015136 -0.002517 -0.128864 -0.119530 0.113054 0.052258 -0.016578 -0.157893 -0.101484 0.127386 -0.064801 -0.109154 -0.089977 -0.073320 0.012104 -0.087327 0.021051 0.149286 0.003639 0.002209 0.005597 -0.049387 0.137422 0.011314 0.027794 0.068909 -0.007031 0.167203 0.037900 0.157491 -0.119034 -0.043131 0.110634 -0.010947 0.057816 0.154179 0.062055 -0.011843 0.046412
n 0.039579 -0.022357 0.059602 -0.039031 0.191973 0.018005 -0.018182 0.059747 -0.033287 -0.042041 0.116465 -0.160824 0.006576 -0.123930 -0.032765 0.016052 -0.157162 -0.033085 0.192064 0.058219 0.009966 0.151806 0.015813 0.001935 -0.021163 -0.007244 0.125336 -0.184878 -0.137349 -0.078264 0.085939 -0.083110 -0.188917 0.061539 0.110301 0.030771 -0.061977 0.101855 -0.013628 0.149766 -0.130841 -0.182340 0.034317 -0.008458 0.031999 -0.009669 0.014861 0.110612 0.061422 0.121733 -0.021222 -0.108651 -0.046923 -0.028481 0.038955 -0.068065 -0.170280 0.002081 -0.038099 -0.015461 0.218176 0.080244 -0.030662 -0.035019
o -0.146964 -0.016539 0.002854 -0.198524 0.039066 -0.145132 -0.127928 -0.164623 0.105263 0.028901 -0.069173 0.174839 0.019775 0.007192 0.056330 0.004968 0.074980 0.049849 0.116663 -0.145025 -0.023295 0.010319 -0.030865 0.068148 0.005578 -0.158171 -0.159356 -0.089721 -0.113265 0.051469 0.003872 -0.046213 0.085666 0.127812 0.167406 0.148957 0.163680 -0.008699 0.027826 -0.078098 0.098013 0.063192 0.107651 0.079427 -0.203864 0.092309 0.013627 -0.071261 0.014249 0.133856 -0.059534 0.078283 -0.125909 -0.125968 0.111698 0.000224 -0.145524 0.068051 0.153894 -0.047142 -0.181717 0.004611 -0.041545 -0.095142
p -0.154345 -0.283562 -0.017844 -0.115592 -0.128502 -0.181258 0.083540 0.271042 0.015412 -0.102612 0.185850 0.065225 0.120551 -0.127743 -0.050664 0.094988 -0.044873 -0.038753 -0.135662 0.001132 -0.133653 0.020691 0.026627 0.021873 -0.075537 -0.132649 0.089357 0.088050 -0.115120 0.033717 -0.024040 0.046154 0.131512 0.057883 0.002350 -0.022151 -0.096844 -0.050873 -0.054753 0.101907 0.104310 -0.134934 0.076174 -0.041866 0.101023 0.020749 0.003815 0.099370 0.015045 -0.052874 0.107032 0.042614 0.023239 -0.029659 -0.013059 0.069213 -0.061221 0.086898 -0.002996 0.035045 -0.028946 -0.054519 0.054103 0.005844
q -0.028155 0.088194 -0.028068 -0.032961 -0.190097 0.151671 0.001232 0.137509 0.045956 0.074653 -0.003591 0.099263 -0.180838 -0.010280 0.011736 0.046531 0.005977 -0.116572 0.013804 -0.060158 0.037077 0.041915 -0.041559 0.079202 0.060258 -0.162902 0.037235 0.200894 -0.140376 -0.028122 0.094071 0.062816 0.031834 0.081403 0.103026 0.159171 -0.112555 0.062328 -0.100760 -0.125967 -0.188450 -0.242210 -0.142275 -0.016791 -0.074145 0.056825 0.043214 0.115341 -0.119503 0.003231 0.093183 -0.107855 0.122540 0.053730 0.079459 0.041470 0.009051 0.005141 0.071260 -0.088518 -0.054446 -0.035910 0.099071 -0.008010
r 0.088482 -0.109096 0.085174 0.035922 0.032164 0.012183 -0.085470 -0.065435 0.205215 -0.108751 -0.075905 -0.146522 -0.041436 -0.106576 0.021358 0.053460 -0.072821 0.088122 0.171623 0.057360 -0.054913 -0.024677 0.123274 0.004230 0.058094 -0.086032 0.026369 -0.221085 -0.138817 0.060559 0.077810 -0.147007 -0.007485 0.001277 -0.123169 -0.070914 -0.065582 0.058823 0.094611 0.032323 -0.085740 0.078852 0.021240 0.154811 -0.152394 -0.037461 0.015519 0.031902 -0.130179 0.259165 0.008902 -0.081453 -0.054221 0.041173 0.021067 0.067622 -0.029033 0.004073 0.026768 0.056196 -0.067105 0.195047 -0.112899 0.051386
s -0.147950 0.096923 0.028686 0.111291 -0.000805 0.052857 -0.150263 -0.173624 -0.098013 -0.040531 0.209607 -0.050053 0.029914 -0.138946 -0.004972 0.134396 0.010339 0.131615 -0.083751 -0.122935 -0.135010 0.083238 0.033422 -0.007019 0.110622 -0.034301 -0.021612 -0.140958 -0.114014 0.029141 0.030943 -0.172921 0.086818 0.102080 0.060110 0.031985 -0.075716 0.009454 -0.096360 0.078351 -0.174632 0.000987 -0.093554 0.121380 0.015940 0.103296 0.042626 0.116729 0.083203 0.096047 0.130037 -0.141863 -0.044898 0.142899 -0.016829 -0.013449 -0.015056 -0.041376 -0.022500 -0.007593 -0.077684 0.081317 -0.070000 -0.111159
t -0.099863 0.053239 0.090478 -0.149737 0.008127 0.100584 0.068159 -0.074753 -0.093133 -0.005876 0.131410 -0.069806 0.067565 -0.091802 0.053852 0.004786 -0.149748 0.180290 0.023701 -0.064923 -0.122830 -0.065084 -0.031477 0.040318 -0.057640 -0.097887 0.074855 0.139610 -0.100366 0.012129 0.019500 -0.126122 0.083895 0.135915 0.155027 -0.034520 -0.043053 -0.071960 -0.222051 0.084714 -0.001908 0.098774 -0.133566 -0.078354 -0.004810 0.089854 0.024389 0.060266 0.028540 -0.046378 0.106984 -0.057042 0.015746 0.249724 0.060676 -0.009650 -0.108570 -0.008639 -0.017725 0.087924 -0.070566 -0.024982 0.043069 -0.016112
u -0.214981 0.059583 0.213660 -0.094595 0.135928 -0.084617 -0.113834 -0.065361 0.094938 -0.090666 -0.098489 -0.001198 0.026820 -0.001723 0.118504 0.045554 -0.011962 0.115479 0.053981 -0.091913 0.110062 0.129068 -0.011170 0.008172 0.131687 0.050269 0.028110 -0.156794 -0.138926 -0.038477 -0.107653 0.178973 0.096655 -0.103987 -0.127777 -0.005213 0.115995 -0.092394 0.002702 0.028171 -0.222271 -0.014714 -0.021435 0.048438 -0.012808 0.064769 0.198541 -0.174443 -0.146276 0.015088 0.064706 -0.079378 -0.210587 -0.094712 -0.140229 -0.115802 -0.046097 0.062777 0.021920 0.009915 -0.144097 0.193266 0.037159 0.027950
v -0.002976 -0.138666 0.133057 0.061032 0.122434 0.009924 0.058480 0.108438 -0.119260 -0.080428 0.012042 -0.120822 0.054730 -0.078494 0.007605 0.020825 -0.171856 0.057047 -0.034090 -0.017163 -0.036003 -0.059004 -0.019770 0.058338 0.099015 0.028650 0.162860 0.019278 -0.068028 0.025404 0.114691 -0.118059 -0.019106 -0.003338 0.071807 -0.223904 -0.055876 -0.150697 -0.110353 -0.013254 -0.008743 -0.066968 -0.051676 -0.042897 -0.143463 0.061019 -0.109935 0.166701 0.019748 0.001048 0.044839 -0.039676 0.048845 -0.010723 -0.163170 0.113982 0.023273 0.029272 -0.007047 0.225396 0.069142 0.067467 -0.050995 0.085742
w 0.092862 0.051555 -0.038143 0.171585 -0.075621 0.009644 0.078741 0.073219 -0.113738 0.078624 -0.047557 0.122143 -0.046826 0.108428 -0.024352 -0.050353 0.036784 -0.094625 -0.058612 0.077131 0.056934 -0.068220 0.160762 -0.095558 0.052988 0.030418 0.062986 0.136758 0.177253 -0.132926 0.071790 0.101942 -0.205410 -0.060257 -0.243544 -0.089959 0.191431 0.065270 0.074915 -0.143476 0.078864 -0.113066 -0.108994 -0.001628 0.036319 -0.047268 -0.075281 -0.083310 0.057089 -0.163074 0.097540 0.083749 0.116196 0.074944 -0.019176 0.055717 0.170078 -0.050536 -0.069135 -0.090160 0.199895 -0.052171 0.099724 0.068172
x 0.090579 0.013795 0.009144 0.119594 -0.024769 -0.018529 -0.097938 -0.007481 -0.039826 0.048086 0.106060 0.006803 0.113101 0.007612 -0.098128 -0.113385 -0.037293 0.112896 0.018082 0.116475 -0.010889 -0.198851 0.101690 0.047130 0.054503 -0.071238 0.072000 -0.048599 0.126770 -0.174083 0.031906 0.168719 -0.267995 -0.049599 -0.184707 -0.222946 -0.084585 0.193950 -0.173987 0.118464 0.006835 -0.067091 -0.237219 0.052131 0.099374 0.020978 0.064010 -0.075452 0.147507 0.026471 0.250160 0.009695 0.024260 0.178854 0.134709 -0.156429 0.044278 -0.024610 -0.181335 0.130855 0.105827 0.011139 -0.050750 -0.069575
y 0.118875 0.053594 -0.061193 0.099328 -0.038384 -0.000887 0.139659 0.031748 -0.041051 0.078965 -0.107111 0.098002 -0.083722 0.103741 -0.034638 -0.069089 0.055774 -0.054181 -0.061784 0.076286 0.033276 -0.134478 0.156063 -0.105579 0.013607 0.011221 0.065674 0.152795 0.144373 -0.076958 0.013837 0.118998 -0.113995 -0.065836 -0.215102 -0.096089 0.155644 0.026684 0.095296 -0.137191 0.087940 -0.070978 -0.089868 -0.015927 0.032453 -0.058011 -0.010419 -0.073389 0.034901 -0.190641 0.084052 0.132439 0.125789 0.081969 0.006025 0.104476 0.172768 -0.045611 0.027002 -0.075502 0.183532 -0.107270 0.060052 0.052096
z 0.029426 -0.002068 0.059139 0.079878 0.048872 -0.091559 -0.007900 -0.187358 -0.173562 -0.065518 0.115908 -0.031528 -0.052529 -0.102212 -0.082313 0.050460 0.046326 0.141355 0.036680 -0.011690 -0.104472 -0.178122 0.175374 -0.051045 0.069265 0.068439 0.001180 -0.043302 0.012290 -0.226514 0.038971 0.031663 -0.100328 -0.211166 -0.122649 -0.113746 0.025542 -0.051908 -0.025976 -0.006484 0.015662 -0.094234 -0.203057 0.151078 -0.217707 -0.053177 0.025832 0.083791 0.066936 0.056383 0.036936 -0.033001 0.125617 0.331432 0.098343 0.147384 0.162541 -0.143925 -0.052142 0.050370 0.207637 0.015248 0.139448 0.026875
§ 0.107741 0.109229 -0.043473 0.159485 -0.116506 0.021307 0.129224 0.086058 -0.133022 0.093441 -0.116626 0.159807 -0.088807 0.142600 -0.064964 -0.038991 0.121488 -0.144836 -0.117030 0.118106 0.114463 -0.123399 0.152809 -0.114896 0.024998 0.041399 0.069080 0.185697 0.190759 -0.097362 0.080379 0.086187 -0.154661 -0.051800 -0.251474 -0.106397 0.248842 0.053420 0.070198 -0.157495 0.040829 -0.070584 -0.107712 -0.066199 0.019317 -0.108894 -0.089155 -0.051388 0.093672 -0.171107 0.110765 0.157022 0.095541 0.090722 -0.055101 0.057419 0.183351 -0.063567 -0.065738 -0.126517 0.190033 -0.066657 0.063950 0.060440
ª 0.090366 0.155255 -0.031112 0.162912 -0.125255 0.051220 0.065562 0.091992 -0.055976 0.089881 -0.099160 0.165462 -0.085519 0.160558 -0.017639 -0.079935 0.086595 -0.053775 -0.193461 0.078455 0.122219 -0.066406 0.155685 -0.130212 0.001217 0.089246 0.016507 0.099402 0.276679 -0.088988 -0.008945 0.036416 -0.181935 -0.107991 -0.246301 -0.071896 0.144758 0.060099 0.092914 -0.196592 0.034860 -0.089852 -0.074691 -0.032244 -0.000725 -0.115917 -0.105384 -0.033273 0.091518 -0.165993 0.045337 0.151322 0.038893 0.116019 0.009956 0.070678 0.200610 -0.059460 -0.022911 -0.110382 0.071623 -0.042100 0.056919 0.110736
° 0.140894 0.136690 -0.090479 0.177976 -0.119128 0.039825 0.118415 0.073519 -0.131968 0.087650 -0.132958 0.167730 -0.073260 0.129345 -0.079489 -0.067045 0.073000 -0.074966 -0.098058 0.095271 0.081657 -0.076280 0.170380 -0.132149 0.045042 0.053240 0.019762 0.159260 0.237893 -0.112964 0.089863 0.041402 -0.126334 -0.059888 -0.259138 -0.102399 0.281072 0.018073 0.089448 -0.170547 0.072217 -0.137719 -0.095738 -0.061356 0.041395 -0.085595 -0.061075 -0.061677 0.068611 -0.216339 0.102224 0.154045 0.089079 0.103599 -0.013783 0.051713 0.178362 -0.055314 -0.084026 -0.122234 0.209785 -0.094735 0.053427 0.094761
º 0.113730 0.132780 -0.061697 0.167338 -0.111872 0.014773 0.079355 0.088882 -0.127333 0.140161 -0.086306 0.142089 -0.075618 0.108852 -0.063265 -0.120481 0.078530 -0.062641 -0.090606 0.138640 0.107852 -0.111769 0.172916 -0.132643 0.055449 0.081143 -0.003259 0.189296 0.172042 -0.050227 0.025256 0.033285 -0.193283 -0.059356 -0.217172 -0.069433 0.253097 0.062905 0.118975 -0.186020 0.023396 -0.069647 -0.103851 -0.040657 0.037674 -0.103017 -0.051186 -0.079360 0.070256 -0.151449 0.090105 0.177784 0.061069 0.115712 -0.042411 0.044972 0.209252 -0.074592 -0.009691 -0.116202 0.150655 -0.089730 0.063198 0.076080
À 0.058679 0.111852 -0.174839 0.116463 -0.081230 0.027900 0.061125 0.090099 -0.029810 0.180530 -0.114528 0.173319 -0.058721 0.113165 -0.130051 -0.074674 0.129518 -0.146111 -0.194912 0.020589 0.039646 -0.055653 0.034320 -0.124872 0.106661 0.118513 -0.005326 0.153199 0.132349 -0.015039 0.051818 0.141789 -0.111311 -0.030332 -0.155860 -0.037755 0.086304 0.048652 0.084655 -0.187482 0.101539 -0.140895 0.023054 -0.082905 0.007858 -0.042783 -0.060943 -0.106801 0.087145 -0.092818 -0.031259 0.188386 0.145209 0.059278 -0.082388 0.052415 0.055602 -0.089512 0.073710 -0.206335 0.092718 -0.036499 0.125223 0.036905
Á 0.141211 0.080838 -0.114144 0.085896 -0.067783 0.085602 0.143222 0.059412 -0.075329 0.146437 -0.084037 0.113136 -0.109876 0.152449 -0.090694 -0.122737 0.082639 -0.143770 -0.114854 0.089819 0.086669 -0.140487 0.049074 -0.053662 0.065488 0.074629 0.039881 0.098128 0.188766 -0.103853 0.029865 0.132698 -0.072299 -0.117669 -0.147856 -0.014197 0.192397 0.110484 0.113419 -0.149325 0.111976 -0.114125 -0.018635 -0.033630 0.063344 -0.078852 -0.026172 -0.087256 0.031205 -0.147686 0.030894 0.121198 0.084187 0.062274 -0.043885 0.053110 0.143932 -0.084628 -0.025832 -0.071418 0.143558 -0.092340 0.093304 0.071780
Â 0.147547 0.094060 -0.088049 0.167619 -0.091883 0.019745 0.126165 0.046144 -0.117499 0.110674 -0.093152 0.123358 -0.059242 0.111160 -0.048686 -0.076514 0.097667 -0.106155 -0.111778 0.096776 0.119580 -0.117406 0.125682 -0.106966 0.011339 0.006244 0.109751 0.196422 0.206929 -0.065532 0.056494 0.114085 -0.151081 -0.077657 -0.237776 -0.111285 0.234313 0.065865 0.080666 -0.178203 0.092417 -0.117680 -0.076156 -0.072557 0.021179 -0.051294 -0.043249 -0.075552 0.040316 -0.199133 0.067265 0.145963 0.147899 0.056417 -0.013581 0.058005 0.156079 -0.067583 -0.054090 -0.080311 0.224788 -0.102972 0.106315 0.055374
Ã 0.104044 0.063485 -0.120369 0.129865 -0.105478 0.137269 0.163595 0.093189 -0.150974 0.095893 -0.039308 0.109107 -0.144728 0.131159 -0.037190 -0.133794 0.037522 -0.116951 -0.049954 0.102603 0.156960 -0.107464 0.070945 -0.064967 0.048604 -0.014068 0.043202 0.127905 0.301273 -0.103826 0.076890 0.090230 -0.127243 -0.146328 -0.148208 -0.123733 0.274211 0.081216 0.075533 -0.107096 0.135164 -0.097780 -0.055809 -0.065557 0.058162 -0.119101 -0.055262 -0.142454 0.046362 -0.161764 0.086179 0.099831 0.042194 0.083904 -0.067567 0.029160 0.170074 -0.115103 -0.106045 -0.087414 0.159667 -0.099122 0.078222 0.021345
Ç 0.087407 0.104104 -0.096110 0.083837 -0.070101 0.105602 0.209478 0.083183 -0.187559 0.065565 -0.044693 0.155618 -0.131164 0.052653 -0.071212 -0.084615 -0.030373 -0.133771 -0.095961 0.119357 0.162395 -0.131691 0.031210 -0.062375 0.096245 0.051517 0.053514 0.182806 0.325561 -0.175120 0.061176 0.014547 -0.013259 -0.112489 -0.147436 -0.098666 0.256809 0.089987 0.056018 -0.064498 0.186238 -0.121211 -0.094347 -0.052225 0.046313 -0.069821 -0.059491 -0.150040 0.088462 -0.150819 0.088249 0.117380 0.042242 0.078524 -0.083954 -0.006007 0.139756 -0.096574 -0.093244 -0.011937 0.183816 -0.109959 0.078753 0.003901
È 0.112925 0.107492 -0.101998 0.160467 -0.099071 0.015736 0.098777 0.070466 -0.108605 0.103678 -0.084011 0.144324 -0.075162 0.109260 -0.046415 -0.085338 0.057733 -0.102428 -0.129243 0.106138 0.133208 -0.119682 0.120174 -0.077744 0.028832 0.096053 0.057866 0.135646 0.232672 -0.113680 0.052600 0.079831 -0.188954 -0.047996 -0.246348 -0.114232 0.262312 0.034311 0.088351 -0.144540 0.090578 -0.084850 -0.073360 -0.013292 0.049455 -0.056639 -0.076843 -0.075269 0.079312 -0.216640 0.112829 0.138620 0.124155 0.080334 -0.060930 0.078474 0.174393 -0.054923 -0.071297 -0.116141 0.238773 -0.096940 0.073290 0.011568
É -0.051583 0.147437 -0.053078 0.059634 -0.012787 0.103278 0.079828 0.012509 -0.006848 0.178596 -0.108573 0.153667 -0.050746 0.082500 -0.176359 -0.085214 0.098585 -0.220475 -0.137993 0.000640 0.084918 -0.002259 0.028797 -0.164592 0.180857 0.112830 -0.002698 0.081111 0.090417 -0.030958 0.015547 0.133889 -0.069184 -0.049201 -0.094533 -0.099410 0.109010 -0.002202 0.028196 -0.139220 0.125138 -0.150474 0.063659 -0.079977 0.038161 -0.053542 -0.107966 -0.211523 0.188594 0.010941 0.010786 0.233837 0.075691 -0.033489 -0.128930 0.016704 -0.039971 -0.173725 0.020837 -0.172088 0.123632 0.021730 0.058326 0.045778
Ê 0.170886 0.072173 -0.121064 0.151184 -0.054473 0.119831 0.145471 0.062519 -0.094313 0.173184 -0.139820 0.067295 -0.089794 0.164861 -0.090020 -0.114920 0.098228 -0.123283 -0.118882 0.083106 0.148867 -0.131130 0.080809 -0.053213 -0.002908 0.064219 0.065103 0.129743 0.245967 -0.138129 0.026488 0.142863 -0.081816 -0.105195 -0.201272 -0.088819 0.257720 0.057056 0.129763 -0.128688 0.128934 -0.138210 -0.088851 -0.034451 0.053526 -0.110037 -0.031097 -0.133400 0.017569 -0.184879 0.059890 0.154664 0.020672 0.062340 -0.057980 0.058868 0.156266 -0.097030 -0.024303 -0.099049 0.184898 -0.117246 0.093294 0.082999
Í 0.238428 0.015674 -0.185791 0.097415 0.029096 0.101425 0.231409 -0.003881 0.020637 0.133786 -0.088511 0.039915 -0.042046 0.127763 -0.231305 -0.252531 0.041706 -0.278138 -0.052585 0.212587 0.040661 -0.208030 -0.036641 0.043129 0.069825 0.069250 0.036183 -0.125378 0.172380 -0.109772 0.021793 0.082908 -0.021430 -0.156102 -0.081576 -0.067826 0.174048 0.135526 0.174828 -0.100620 0.292090 -0.055119 0.023239 -0.058676 0.056710 -0.181902 -0.139257 -0.200912 0.109665 -0.011252 -0.073072 0.123044 -0.007867 -0.014755 -0.050735 -0.022569 0.093795 -0.135287 -0.050674 -0.054250 0.113112 -0.049102 0.142443 0.154746
Ó 0.124542 0.078645 -0.116687 0.144089 -0.118803 0.025007 0.100828 0.033048 -0.052766 0.105596 -0.097846 0.171657 -0.091038 0.107478 -0.082209 -0.067164 0.062790 -0.115555 -0.132501 0.038802 0.098320 -0.131293 0.117225 -0.105108 0.045667 0.084194 0.063025 0.152354 0.192797 -0.091779 0.026442 0.114614 -0.159510 -0.058826 -0.189953 -0.091314 0.223311 0.016800 0.058896 -0.166912 0.108169 -0.115765 -0.065593 -0.041245 0.017982 -0.084733 -0.069457 -0.086698 0.076173 -0.172440 0.068685 0.153138 0.114687 0.066162 -0.067601 0.042713 0.137395 -0.087030 -0.046506 -0.096201 0.136817 -0.055108 0.074878 0.075055
Ô 0.144013 0.104143 -0.075232 0.212324 -0.078465 0.052841 0.139633 0.063397 -0.117254 0.092923 -0.128276 0.144123 -0.115942 0.100737 -0.064387 -0.097458 0.061457 -0.123290 -0.110691 0.105696 0.138604 -0.096709 0.138759 -0.067104 0.034249 0.043455 0.051174 0.185282 0.213129 -0.140464 0.049693 0.060810 -0.152745 -0.086641 -0.257482 -0.127278 0.265570 0.010711 0.088312 -0.147579 0.102760 -0.101130 -0.080175 -0.054198 0.024537 -0.096333 -0.035292 -0.068099 0.055461 -0.212160 0.076111 0.181303 0.142900 0.071018 -0.030383 0.057658 0.172699 -0.049842 -0.078376 -0.113794 0.201977 -0.113361 0.084883 0.033565
Õ 0.119871 0.103858 -0.081581 0.181595 -0.120633 0.074080 0.155348 0.053336 -0.133007 0.097699 -0.100462 0.135021 -0.091279 0.134196 -0.073884 -0.056966 0.089681 -0.103971 -0.079110 0.119300 0.157773 -0.101064 0.155285 -0.101484 0.054611 0.047443 0.085533 0.187980 0.225178 -0.123652 0.062294 0.099105 -0.108498 -0.050321 -0.239270 -0.079161 0.251815 0.051315 0.113359 -0.145495 0.107113 -0.102077 -0.092860 -0.061351 0.033617 -0.093052 -0.023660 -0.082014 0.076341 -0.219946 0.091931 0.147268 0.106521 0.095610 -0.006622 0.087478 0.182613 -0.076468 -0.077533 -0.114354 0.189001 -0.097067 0.044857 0.067970
Ú 0.107314 0.062486 -0.085049 0.140324 -0.119966 0.061879 0.141525 0.056274 -0.133790 0.105364 -0.088272 0.099295 -0.083520 0.159796 -0.078994 -0.081082 0.105059 -0.137147 -0.123883 0.096484 0.119681 -0.111708 0.075064 -0.069416 0.040902 0.048494 0.054407 0.130245 0.222883 -0.133518 0.056063 0.111121 -0.146290 -0.123979 -0.221763 -0.089849 0.238131 0.063692 0.060295 -0.147309 0.092382 -0.105831 -0.030704 -0.053502 0.036056 -0.139399 -0.033469 -0.089140 0.063067 -0.162122 0.064548 0.116951 0.085342 0.063587 -0.042055 0.038838 0.191517 -0.071207 -0.013917 -0.111187 0.154493 -0.083921 0.081707 0.070400
à -0.083408 0.176086 -0.032201 0.019365 -0.097095 -0.070203 -0.088670 0.043692 -0.055243 0.141903 -0.120232 0.274937 -0.087639 0.081379 -0.180423 0.016855 0.073341 -0.189522 -0.244127 -0.026837 0.068202 0.029969 -0.039537 0.036378 0.146690 0.119752 -0.073434 0.074161 -0.036510 0.021135 0.050648 0.058549 0.014342 0.005702 -0.071245 -0.078386 0.152830 -0.034806 -0.061553 -0.150247 0.082046 -0.231030 -0.060131 -0.077818 -0.028293 -0.004907 0.062513 0.202013 0.050202 0.042836 -0.087548 0.250421 0.104601 -0.028463 -0.039130 0.045506 -0.028791 0.088999 0.076342 -0.253616 0.185350 0.072734 0.033583 -0.057890
á 0.129351 -0.055606 0.119861 -0.017522 -0.037153 -0.077062 -0.071595 -0.040577 0.062538 0.033924 -0.087555 0.092148 0.168451 0.130770 0.141427 -0.162105 0.063766 0.043666 0.029007 -0.011107 -0.050963 -0.101921 0.098619 -0.086944 0.120386 0.043787 -0.086327 0.139441 -0.039105 0.026185 -0.060788 -0.000942 -0.031039 0.009322 -0.157529 0.016111 0.125739 -0.051107 0.039982 -0.108866 -0.007717 0.176819 -0.144722 -0.127008 -0.163161 0.011013 0.035935 -0.041109 -0.027768 -0.014016 -0.046651 0.286378 -0.002816 -0.056066 -0.028620 0.043043 -0.130691 -0.145078 0.029024 0.015763 -0.010867 0.032427 -0.078918 0.189441
â 0.067938 -0.007538 -0.113149 0.046330 0.043973 0.010055 0.107652 -0.057651 0.079550 0.112951 -0.233631 0.035570 0.033177 0.126106 -0.044508 -0.169132 0.000110 -0.160919 0.033417 -0.085375 0.106458 -0.082553 0.079674 -0.005213 0.053610 0.065516 0.012830 -0.049210 0.059316 -0.036353 0.038107 0.135584 -0.029580 -0.005834 -0.211383 -0.025478 0.235150 -0.010241 0.183458 -0.113357 0.137814 -0.055713 -0.018005 0.050499 0.005496 -0.109924 0.007328 -0.119145 0.031088 -0.069291 0.035752 0.092013 -0.008469 -0.085876 0.028003 -0.058286 -0.004125 0.018703 -0.038914 -0.051876 0.115132 -0.081390 0.115208 0.132347
ã -0.094269 0.016508 -0.172555 -0.095895 0.005145 -0.132768 0.211945 -0.007196 -0.061680 0.051223 0.037897 0.183617 -0.006096 -0.058769 0.143994 -0.161267 -0.009786 0.196105 0.180042 0.059717 0.072280 0.064594 -0.095886 0.015483 0.111055 -0.138543 -0.121735 0.127656 0.081338 -0.046759 -0.008182 0.008027 0.155576 -0.049879 -0.132125 0.015140 0.266029 0.061736 0.006681 -0.016951 0.150203 0.136900 0.029781 0.121532 -0.171103 -0.133298 0.220057 -0.090362 -0.104920 0.028095 -0.067739 0.160233 -0.064582 0.106521 -0.069290 -0.096940 -0.073775 -0.091949 0.002805 -0.051831 0.123130 -0.135095 -0.085563 -0.210079
ç 0.116415 0.114611 0.006212 -0.055552 0.068522 0.050720 0.165815 -0.140739 -0.261422 -0.046531 -0.113595 -0.060291 0.027446 -0.064974 0.212204 0.001342 -0.083463 0.076015 0.098883 0.176602 0.154561 0.069258 -0.011223 0.097059 -0.063530 0.023587 0.069998 0.053065 0.101459 -0.175631 0.230441 -0.103885 -0.053285 0.078183 -0.092400 0.008027 0.014791 -0.025294 0.037729 0.071175 0.027465 0.088290 -0.192648 -0.031821 -0.146617 -0.160277 -0.060692 0.103567 -0.002368 -0.041718 0.134065 -0.087782 0.032152 0.123013 0.047481 -0.102309 -0.048187 -0.159507 -0.232188 0.040279 0.160564 0.005673 -0.177116 0.032184
è 0.118898 0.074948 -0.081351 0.188748 -0.097942 0.079512 0.144453 0.080184 -0.125254 0.092829 -0.087959 0.167321 -0.078733 0.155575 -0.076486 -0.105379 0.065824 -0.102004 -0.079748 0.121382 0.073804 -0.112904 0.145854 -0.073942 0.019398 0.038200 0.053613 0.160226 0.228135 -0.098587 0.067672 0.091869 -0.168356 -0.076439 -0.249237 -0.112065 0.271747 0.056326 0.093588 -0.163193 0.060575 -0.080697 -0.072563 -0.073444 0.024401 -0.097451 -0.040424 -0.062529 0.050387 -0.221504 0.114886 0.157862 0.127595 0.110119 -0.034540 0.083197 0.133826 -0.051567 -0.024953 -0.128027 0.226263 -0.104394 0.072643 0.062225
é 0.005459 0.067610 0.059576 0.005439 0.011191 -0.082714 -0.032214 -0.038473 0.149424 0.168370 -0.059449 -0.039698 0.016891 0.125452 -0.036535 0.026860 0.079902 -0.212434 0.044318 -0.082669 -0.099419 0.022543 0.088251 0.020973 -0.073363 -0.158945 -0.020585 0.091080 -0.098133 0.036237 -0.065250 -0.039966 0.042042 -0.009519 -0.168407 -0.128295 -0.003165 0.007339 0.112736 -0.391747 0.031184 0.072082 -0.020731 0.005771 -0.041272 0.075805 -0.030948 0.091043 -0.088351 -0.021452 -0.018680 0.069562 0.140696 -0.012824 0.067702 0.134621 -0.052779 0.045690 0.195380 -0.130677 -0.012367 0.011916 0.019230 0.026401
ê 0.025415 -0.001675 -0.014333 0.049871 0.027339 -0.007514 0.031758 -0.123196 0.074512 0.095897 -0.207787 -0.061888 0.050322 0.118739 0.096524 -0.163332 0.079231 -0.072525 0.117299 -0.144942 0.111158 -0.171150 0.070619 -0.071411 -0.110043 0.128685 -0.012755 0.022160 0.034317 -0.022418 0.033909 0.114417 -0.033113 -0.078365 -0.173616 -0.013713 0.212997 -0.044569 0.063550 -0.194493 -0.010382 0.096653 -0.069024 0.043788 -0.032611 -0.091514 0.068374 0.058386 -0.097044 -0.052202 -0.090320 0.123595 -0.025003 -0.062382 0.089194 0.002325 -0.083519 -0.111845 -0.004207 -0.029710 0.210821 -0.015583 0.005460 0.202001
í 0.102924 -0.150846 0.013668 0.008264 0.149923 -0.019781 0.056093 -0.104814 0.089294 0.055818 0.037192 -0.143700 0.128337 0.113191 0.077509 -0.057630 -0.012942 -0.122896 0.063608 0.097579 -0.017021 -0.156727 0.138022 0.092082 -0.093642 0.016439 -0.046571 -0.039390 0.010630 -0.096888 -0.148836 -0.009113 0.141382 0.006718 -0.203353 -0.015064 -0.064731 -0.147169 0.176650 -0.110225 0.193472 -0.039478 -0.066708 -0.057990 -0.079070 0.117135 -0.068349 0.085194 -0.049926 -0.081581 0.039553 0.071316 0.088363 -0.022135 -0.019806 -0.052729 -0.019610 -0.182841 0.100346 -0.023982 0.062326 -0.068552 0.006084 0.080495
î 0.127800 0.111557 -0.112146 0.182809 -0.088625 0.054367 0.149911 0.031448 -0.158936 0.099306 -0.073098 0.161801 -0.110669 0.115727 -0.088047 -0.062075 0.071821 -0.119675 -0.113455 0.132276 0.125151 -0.101793 0.161021 -0.117929 0.032042 0.025601 0.073512 0.196266 0.240062 -0.110110 0.069414 0.090620 -0.169858 -0.068501 -0.272060 -0.093804 0.295015 0.060478 0.080951 -0.164200 0.079070 -0.102903 -0.108896 -0.078997 0.028485 -0.091099 -0.061316 -0.054127 0.052652 -0.201811 0.105586 0.138356 0.127506 0.069926 -0.005026 0.081935 0.171729 -0.103943 -0.046315 -0.104290 0.213108 -0.115172 0.071038 0.060824
ò 0.128873 0.128954 -0.081687 0.155993 -0.151708 -0.006662 0.103577 0.038911 -0.126077 0.148514 -0.111526 0.144218 -0.109749 0.155265 -0.076245 -0.066365 0.073978 -0.098946 -0.129378 0.129842 0.114397 -0.096289 0.135912 -0.083461 0.026281 0.056794 0.057182 0.207759 0.227334 -0.136599 0.055373 0.071305 -0.166255 -0.057787 -0.274694 -0.139300 0.253926 0.049866 0.110836 -0.175594 0.084635 -0.060912 -0.120708 -0.051267 0.022823 -0.102975 -0.076007 -0.034405 0.085472 -0.166390 0.125151 0.150444 0.101117 0.095866 -0.021342 0.059806 0.189428 -0.096169 -0.060348 -0.139396 0.196825 -0.111201 0.091651 0.103592
ó 0.039850 -0.059070 0.020824 0.035171 -0.050598 -0.054702 -0.032904 -0.099494 0.103332 0.222277 -0.048743 0.087578 0.149542 0.210408 0.065423 -0.125088 0.081316 -0.075887 0.000031 -0.047727 -0.059689 -0.050168 0.067795 -0.017041 -0.048662 -0.057226 -0.047842 0.111359 0.037870 -0.039585 -0.084917 0.030451 0.094664 -0.010608 -0.346126 0.038393 0.059496 0.004516 0.016294 -0.128944 0.050467 0.003174 -0.100905 -0.080345 0.062606 0.125757 0.086822 -0.180124 -0.023501 -0.038790 0.028750 0.203310 0.066063 0.123595 0.086948 -0.084318 -0.100321 -0.105592 0.021997 -0.029649 -0.065503 -0.017226 -0.001357 0.076214
ô 0.152313 0.038109 -0.146620 0.084610 -0.037801 -0.091302 0.121073 -0.045913 0.111705 0.128823 -0.163214 0.146813 0.004325 0.127832 -0.049385 -0.046548 -0.063055 -0.156090 0.032157 0.027586 0.013568 -0.183525 0.068056 0.044970 0.032361 -0.085382 -0.019202 -0.028046 0.034010 -0.087712 0.049415 0.022020 0.012281 0.015823 -0.218227 -0.018280 0.173004 -0.067778 0.137046 -0.130675 0.183603 0.057929 -0.082310 0.063447 -0.070288 -0.107600 -0.029269 -0.049860 -0.079084 -0.026812 0.025869 0.201302 0.078298 -0.051644 0.058270 0.023479 0.037225 -0.074762 0.083956 -0.115287 0.124144 -0.070137 0.076304 0.059078
õ -0.101938 0.016918 -0.087080 -0.112312 0.121464 -0.195104 -0.055391 0.001929 -0.070179 0.089847 -0.031112 0.220607 0.021716 0.040431 0.049039 0.016710 -0.020571 0.139498 -0.056473 -0.041759 0.102995 -0.122298 0.091474 0.081202 0.043006 0.183915 0.030350 0.148708 0.250682 -0.132266 -0.021618 -0.052357 -0.234309 0.026936 -0.366390 -0.136046 0.335102 0.072656 0.005405 -0.089082 0.337721 0.105490 -0.064757 -0.180653 -0.072063 -0.065580 0.094356 -0.074057 -0.008345 -0.000794 0.019522 0.231362 -0.104457 0.131726 -0.047422 0.123285 0.199368 0.027818 0.024046 -0.018309 0.029382 -0.134499 0.027119 -0.084235
ú 0.050693 -0.078033 -0.051626 0.017266 0.022049 -0.136293 0.025028 0.002465 0.039116 0.141387 -0.027926 0.010759 0.067820 0.119646 -0.028469 -0.178301 -0.017283 -0.058409 0.035187 -0.026542 0.050595 -0.131935 0.004720 0.156822 0.155428 0.066574 0.019450 -0.068689 0.006141 -0.058984 0.062113 0.173415 0.035999 -0.016459 -0.193750 -0.055716 0.124634 -0.061384 0.047477 -0.060371 0.141674 -0.031115 -0.177125 -0.075364 -0.053960 -0.001318 0.071588 0.041738 -0.038839 -0.026770 -0.004862 0.124342 0.181742 -0.009994 0.079669 -0.132262 -0.046818 -0.094430 0.024722 -0.034950 0.144388 -0.007015 0.087259 0.104373
ü -0.097554 0.057249 0.086788 0.045096 0.094207 -0.042960 0.021019 0.014681 -0.042840 0.046746 -0.046616 0.114589 -0.041481 0.042324 -0.014577 -0.036819 -0.004473 0.022870 -0.054454 -0.001641 0.094921 -0.061906 0.178077 -0.151553 0.132214 0.098344 0.157278 0.012246 0.128789 -0.182274 0.009494 0.232571 -0.175307 -0.111710 -0.341181 -0.103931 0.365343 0.054265 0.093890 -0.052862 -0.073777 -0.223238 -0.142035 -0.015660 0.065469 -0.028449 0.025461 -0.236939 -0.050362 -0.201311 0.234575 0.099982 -0.147119 0.054744 -0.183083 0.177451 0.250485 0.068493 -0.031892 -0.095540 0.024505 0.012393 0.094719 0.095045
— -0.038618 0.168351 -0.119709 0.123394 -0.297801 -0.051068 -0.209897 0.155086 0.072221 0.096200 -0.124636 0.116561 0.111145 -0.123010 -0.216741 -0.059841 0.247866 -0.148407 -0.113377 0.102420 -0.210687 0.148786 0.115302 -0.276384 0.033361 0.270078 -0.046890 0.286295 -0.035034 0.047272 0.170502 -0.013409 -0.254691 0.090047 -0.030181 -0.028486 -0.112874 -0.031293 0.163400 -0.260326 0.055064 0.022717 0.023800 -0.085585 0.174474 -0.239484 -0.163279 -0.122881 0.246033 0.145667 -0.002069 -0.029253 0.113497 0.122334 -0.133119 0.114283 0.092145 0.055108 -0.052716 -0.184547 -0.026206 0.125182 0.047067 0.026734
’ 0.083722 0.042272 -0.080103 0.039253 -0.055473 -0.024234 0.139625 0.019618 -0.126377 0.089612 -0.101969 0.143440 -0.088623 0.102056 -0.040723 -0.125504 0.008312 -0.101752 -0.022186 0.149210 0.092210 -0.111847 0.153264 -0.123252 0.047519 -0.005361 0.058887 0.189598 0.158560 -0.162655 0.103667 0.110284 -0.086377 -0.069233 -0.214946 -0.126330 0.300648 0.025667 0.079395 -0.096719 0.121978 -0.044785 -0.110390 -0.026995 0.019138 -0.057328 -0.005668 -0.089650 0.027861 -0.182922 0.121995 0.121305 0.149559 0.095829 -0.021896 0.057315 0.149875 -0.078831 -0.107118 -0.034484 0.203406 -0.128274 0.028050 0.051714
“ 0.121405 0.038616 -0.100826 0.191840 0.006309 0.027907 0.077910 0.121271 -0.055890 0.147363 -0.152906 0.059247 -0.002179 0.050396 -0.183929 -0.132884 -0.046954 -0.219814 -0.163077 0.039374 0.108716 0.006070 0.085908 0.004434 0.037546 0.100433 0.072498 0.171490 0.064557 -0.116647 0.061266 0.089998 -0.092626 0.012269 -0.060785 -0.137051 0.032843 0.048028 0.028815 -0.035163 0.148740 -0.256089 -0.042233 -0.115263 0.212731 -0.153196 0.018154 -0.102346 0.086725 -0.017134 0.060719 0.080804 0.122387 -0.018515 -0.043418 -0.170742 0.076904 -0.100871 -0.078776 -0.076332 0.149973 -0.029897 0.033864 0.023347
” 0.107090 0.125810 -0.057236 0.173074 -0.147630 0.022713 -0.035732 0.062115 -0.123294 -0.001388 -0.049806 0.172085 -0.126860 0.175902 0.004740 -0.011678 0.080896 0.032635 -0.173001 0.066619 0.092853 -0.008323 0.130389 -0.119920 -0.070408 0.103810 -0.035023 0.110736 0.296292 -0.066463 0.016650 0.019346 -0.170002 -0.026016 -0.149784 0.028652 0.095576 -0.000610 0.171978 -0.077696 -0.023112 -0.024832 -0.104776 0.050460 0.022795 -0.089800 -0.058810 0.032963 0.089659 -0.131966 0.068252 0.025695 -0.043112 0.111227 -0.008398 0.098943 0.256395 -0.026653 -0.023202 -0.022145 -0.007614 -0.078310 0.003550 0.001844
